{
	"createNewObjectString": "function classifierFun() {\r\n    const limdu = require('limdu');\r\n    return new limdu.classifiers.NeuralNetwork();\r\n}",
	"object": {
		"sizes": [
			144,
			72,
			1
		],
		"layers": [
			{
				"4326": {},
				"door": {},
				"lock": {},
				"keep": {},
				"child": {},
				"cockpit": {},
				"time": {},
				"adult": {},
				"allow": {},
				"insid": {},
				"perhap": {},
				"probabl": {},
				"mosbi": {},
				"passeng": {},
				"crew": {},
				"member": {},
				"typic": {},
				"secur": {},
				"area": {},
				"made": {},
				"clear": {},
				"reason": {},
				"lead": {},
				"meant": {},
				"not": {},
				"need": {},
				"avoid": {},
				"youngster": {},
				"restrict": {},
				"ask": {},
				"just": {},
				"meet": {},
				"prevent": {},
				"enter": {},
				"caus": {},
				"disrupt": {},
				"safeti": {},
				"precaut": {},
				"suppos": {},
				"hear": {},
				"discuss": {},
				"so": {},
				"kid": {},
				"unauthor": {},
				"visitor": {},
				"access": {},
				"proof": {},
				"puzzl": {},
				"type": {},
				"concern": {},
				"shuttl": {},
				"talk": {},
				"alon": {},
				"mayb": {},
				"go": {},
				"space": {},
				"behind": {},
				"belong": {},
				"inform": {},
				"mai": {},
				"upset": {},
				"person": {},
				"usual": {},
				"airplan": {},
				"alwai": {},
				"assum": {},
				"spacecraft": {},
				"run": {},
				"unusu": {},
				"problem": {},
				"protocol": {},
				"violat": {},
				"miss": {},
				"correct": {},
				"code": {},
				"want": {},
				"room": {},
				"us": {},
				"think": {},
				"solv": {},
				"privat": {},
				"board": {},
				"like": {},
				"measur": {},
				"main": {},
				"control": {},
				"convers": {},
				"kept": {},
				"ensur": {},
				"seal": {},
				"request": {},
				"matter": {},
				"involv": {},
				"speak": {},
				"uninvit": {},
				"it": {},
				"cabin": {},
				"remain": {},
				"captain": {},
				"protect": {},
				"ship": {},
				"locat": {},
				"sh": {},
				"shut": {},
				"order": {},
				"scare": {},
				"hand": {},
				"potenti": {},
				"danger": {},
				"sure": {},
				"someth": {},
				"happen": {},
				"itself": {},
				"move": {},
				"path": {},
				"pilot": {},
				"wish": {},
				"seriou": {},
				"fear": {},
				"tell": {},
				"issu": {},
				"occur": {},
				"dure": {},
				"flight": {},
				"announc": {},
				"onboard": {},
				"told": {},
				"everyon": {},
				"els": {},
				"stop": {},
				"fly": {},
				"handl": {},
				"emerg": {},
				"hold": {},
				"brief": {},
				"doe": {},
				"appear": {},
				"get": {},
				"import": {},
				"share": {},
				"invit": {},
				"tot": {},
				"no": {},
				"attend": {}
			},
			{
				"0": {
					"bias": 0.012959416024386883,
					"weights": {
						"4326": -0.1920180469751358,
						"door": -0.16529318690299988,
						"lock": 0.09762436896562576,
						"keep": 0.044371236115694046,
						"child": 0.1499902904033661,
						"cockpit": -0.20557959377765656,
						"time": -0.20660585165023804,
						"adult": -0.005433834157884121,
						"allow": 0.012965468689799309,
						"insid": -0.15577778220176697,
						"perhap": -0.13678894937038422,
						"probabl": 0.07669864594936371,
						"mosbi": 0.19103284180164337,
						"passeng": 0.1538836658000946,
						"crew": -0.13063395023345947,
						"member": -0.15516062080860138,
						"typic": -0.03721167892217636,
						"secur": 0.16100360453128815,
						"area": 0.1566280722618103,
						"made": -0.1592700481414795,
						"clear": 0.13470183312892914,
						"reason": -0.0801289975643158,
						"lead": -0.19734063744544983,
						"meant": 0.12556251883506775,
						"not": 0.04021608829498291,
						"need": -0.052549052983522415,
						"avoid": 0.04557646065950394,
						"youngster": -0.16938358545303345,
						"restrict": -0.15179304778575897,
						"ask": -0.06672520190477371,
						"just": -0.06211500242352486,
						"meet": 0.02906682901084423,
						"prevent": 0.0031384495086967945,
						"enter": -0.18425655364990234,
						"caus": 0.06697279959917068,
						"disrupt": 0.06832771748304367,
						"safeti": 0.1121641993522644,
						"precaut": -0.01553010568022728,
						"suppos": -0.1977587789297104,
						"hear": 0.16806039214134216,
						"discuss": 0.075679250061512,
						"so": 0.15628790855407715,
						"kid": 0.1789177656173706,
						"unauthor": -0.20403282344341278,
						"visitor": -0.1646198332309723,
						"access": -0.032908063381910324,
						"proof": -0.09602616727352142,
						"puzzl": -0.0034288745373487473,
						"type": -0.09964844584465027,
						"concern": -0.02022777684032917,
						"shuttl": 0.11514811962842941,
						"talk": -0.020521655678749084,
						"alon": -0.019022151827812195,
						"mayb": -0.0729324072599411,
						"go": -0.010540199466049671,
						"space": -0.1503230482339859,
						"behind": -0.030437830835580826,
						"belong": -0.09788932651281357,
						"inform": 0.16941218078136444,
						"mai": 0.1396934688091278,
						"upset": 0.08359525352716446,
						"person": -0.12610989809036255,
						"usual": -0.08615817129611969,
						"airplan": 0.08611566573381424,
						"alwai": 0.12595008313655853,
						"assum": -0.1714518964290619,
						"spacecraft": -0.1153678223490715,
						"run": -0.055254977196455,
						"unusu": 0.1577819585800171,
						"problem": -0.08362285047769547,
						"protocol": 0.16970887780189514,
						"violat": 0.05710829794406891,
						"miss": 0.04139913618564606,
						"correct": 0.1274387389421463,
						"code": -0.17286589741706848,
						"want": -0.04252919927239418,
						"room": 0.15161962807178497,
						"us": -0.17607778310775757,
						"think": 0.18167568743228912,
						"solv": -0.19167707860469818,
						"privat": 0.191684290766716,
						"board": 0.07491027563810349,
						"like": -0.1368098258972168,
						"measur": -0.11637952923774719,
						"main": 0.18506638705730438,
						"control": 0.1741580069065094,
						"convers": -0.13393616676330566,
						"kept": 0.12324120104312897,
						"ensur": -0.13934896886348724,
						"seal": -0.18184274435043335,
						"request": 0.156899094581604,
						"matter": 0.14070697128772736,
						"involv": 0.1454591602087021,
						"speak": -0.0024394411593675613,
						"uninvit": -0.1651315689086914,
						"it": -0.1604107767343521,
						"cabin": 0.16533592343330383,
						"remain": -0.19226767122745514,
						"captain": -0.1087038666009903,
						"protect": -0.14463971555233002,
						"ship": 0.09405778348445892,
						"locat": -0.04556798189878464,
						"sh": -0.08335317671298981,
						"shut": 0.10625659674406052,
						"order": 0.11622951924800873,
						"scare": 0.17338429391384125,
						"hand": -0.1808241307735443,
						"potenti": -0.06711318343877792,
						"danger": 0.10912374407052994,
						"sure": 0.049624133855104446,
						"someth": -0.029615158215165138,
						"happen": -0.014425062574446201,
						"itself": -0.09001056104898453,
						"move": -0.16932529211044312,
						"path": -0.053869351744651794,
						"pilot": 0.12660090625286102,
						"wish": -0.01574377529323101,
						"seriou": 0.11199483275413513,
						"fear": 0.05842411518096924,
						"tell": 0.16995739936828613,
						"issu": 0.010370620526373386,
						"occur": -0.045315664261579514,
						"dure": -0.15334957838058472,
						"flight": 0.07764825224876404,
						"announc": -0.006675364449620247,
						"onboard": -0.17970305681228638,
						"told": 0.17325332760810852,
						"everyon": -0.017531419172883034,
						"els": 0.18089133501052856,
						"stop": 0.08980599045753479,
						"fly": -0.08232053369283676,
						"handl": -0.1822473257780075,
						"emerg": 0.035950563848018646,
						"hold": -0.17571952939033508,
						"brief": 0.17465722560882568,
						"doe": 0.15757127106189728,
						"appear": 0.15145814418792725,
						"get": 0.12434286624193192,
						"import": 0.0078084650449454784,
						"share": 0.1365407258272171,
						"invit": -0.160857155919075,
						"tot": -0.02124977484345436,
						"no": -0.13110870122909546,
						"attend": -0.15407350659370422
					}
				},
				"1": {
					"bias": 0.03926358371973038,
					"weights": {
						"4326": -0.17762547731399536,
						"door": -0.10373053699731827,
						"lock": -0.1044745147228241,
						"keep": -0.007440529763698578,
						"child": 0.1856628656387329,
						"cockpit": 0.03529869019985199,
						"time": 0.17630647122859955,
						"adult": -0.13437248766422272,
						"allow": -0.20782028138637543,
						"insid": -0.1560007631778717,
						"perhap": 0.04275078326463699,
						"probabl": 0.05050983279943466,
						"mosbi": 0.03851287439465523,
						"passeng": 0.17616519331932068,
						"crew": -0.027498910203576088,
						"member": -0.09637701511383057,
						"typic": -0.0977267324924469,
						"secur": -0.18690276145935059,
						"area": 0.09301985055208206,
						"made": 0.1512589156627655,
						"clear": -0.13936945796012878,
						"reason": 0.13287453353405,
						"lead": -0.16158269345760345,
						"meant": 0.0074740261770784855,
						"not": -0.07791082561016083,
						"need": -0.0735810324549675,
						"avoid": -0.1461256891489029,
						"youngster": 0.062375836074352264,
						"restrict": -0.10419661551713943,
						"ask": 0.13817241787910461,
						"just": 0.02697397582232952,
						"meet": 0.07530637830495834,
						"prevent": 0.06529010087251663,
						"enter": -0.19356635212898254,
						"caus": 0.11623536050319672,
						"disrupt": 0.054965369403362274,
						"safeti": -0.19160066545009613,
						"precaut": 0.11460420489311218,
						"suppos": -0.17168430984020233,
						"hear": 0.1469137966632843,
						"discuss": 0.0037160604260861874,
						"so": -0.055894460529088974,
						"kid": 0.0639524981379509,
						"unauthor": 0.050760410726070404,
						"visitor": -0.008256055414676666,
						"access": -0.18117555975914001,
						"proof": 0.13184787333011627,
						"puzzl": -0.23433873057365417,
						"type": -0.13999588787555695,
						"concern": 0.19258181750774384,
						"shuttl": -0.14299026131629944,
						"talk": 0.14009422063827515,
						"alon": -0.14188645780086517,
						"mayb": -0.16844430565834045,
						"go": 0.14186899363994598,
						"space": -0.0606284961104393,
						"behind": 0.13464175164699554,
						"belong": -0.17068910598754883,
						"inform": 0.20993708074092865,
						"mai": 0.19276030361652374,
						"upset": -0.08979605883359909,
						"person": -0.17222552001476288,
						"usual": 0.16139940917491913,
						"airplan": -0.15783172845840454,
						"alwai": 0.10528276860713959,
						"assum": -0.1419190615415573,
						"spacecraft": 0.01195930503308773,
						"run": 0.02402518317103386,
						"unusu": -0.02840437926352024,
						"problem": -0.1526256650686264,
						"protocol": -0.19477222859859467,
						"violat": 0.07148876041173935,
						"miss": -0.1623130887746811,
						"correct": -0.2050323337316513,
						"code": -0.06074708327651024,
						"want": 0.0697517991065979,
						"room": 0.1475040167570114,
						"us": -0.02812860533595085,
						"think": 0.10239504277706146,
						"solv": 0.05568322166800499,
						"privat": 0.21256452798843384,
						"board": -0.060889601707458496,
						"like": 0.13888752460479736,
						"measur": 0.039147213101387024,
						"main": 0.047103118151426315,
						"control": -0.14871907234191895,
						"convers": 0.04613414779305458,
						"kept": -0.1342669129371643,
						"ensur": 0.09891916066408157,
						"seal": -0.02240736596286297,
						"request": -0.17347456514835358,
						"matter": 0.08147180080413818,
						"involv": 0.024896999821066856,
						"speak": -0.17063434422016144,
						"uninvit": -0.19558082520961761,
						"it": 0.04964613914489746,
						"cabin": 0.09173805266618729,
						"remain": -0.10049872100353241,
						"captain": -0.003629381535574794,
						"protect": -0.08897987753152847,
						"ship": -0.14159032702445984,
						"locat": -0.10121727734804153,
						"sh": -0.0843995064496994,
						"shut": 0.08866270631551743,
						"order": 0.19282473623752594,
						"scare": 0.19345490634441376,
						"hand": -0.024308480322360992,
						"potenti": 0.18487447500228882,
						"danger": -0.13887885212898254,
						"sure": -0.19375891983509064,
						"someth": -0.07999525964260101,
						"happen": -0.009311070665717125,
						"itself": -0.14020994305610657,
						"move": -0.03440878912806511,
						"path": 0.09827753901481628,
						"pilot": 0.06150972843170166,
						"wish": 0.0960947647690773,
						"seriou": -0.040347300469875336,
						"fear": 0.013440929353237152,
						"tell": -0.11143312603235245,
						"issu": 0.00847223773598671,
						"occur": -0.0428912453353405,
						"dure": 0.07727114111185074,
						"flight": -0.1865863800048828,
						"announc": 0.10336270183324814,
						"onboard": -0.12626618146896362,
						"told": -0.0990801677107811,
						"everyon": -0.06092710793018341,
						"els": 0.016166632995009422,
						"stop": 0.13941051065921783,
						"fly": 0.09749535471200943,
						"handl": -0.0566539466381073,
						"emerg": -0.1587556153535843,
						"hold": -0.008762654848396778,
						"brief": 0.012060859240591526,
						"doe": -0.13350602984428406,
						"appear": -0.016164438799023628,
						"get": 0.07729365676641464,
						"import": -0.026538677513599396,
						"share": -0.0903167799115181,
						"invit": -0.0746108666062355,
						"tot": 0.0070482296869158745,
						"no": 0.12210480868816376,
						"attend": -0.011731591075658798
					}
				},
				"2": {
					"bias": -0.09356473386287689,
					"weights": {
						"4326": 0.16544684767723083,
						"door": 0.0693872943520546,
						"lock": -0.12049651890993118,
						"keep": -0.11284557729959488,
						"child": -0.1255461722612381,
						"cockpit": 0.16381019353866577,
						"time": 0.12483683228492737,
						"adult": 0.14264333248138428,
						"allow": 0.057034682482481,
						"insid": 0.03713523596525192,
						"perhap": -0.11285480856895447,
						"probabl": -0.003175453282892704,
						"mosbi": 0.17745789885520935,
						"passeng": -0.02176758460700512,
						"crew": -0.0038925698027014732,
						"member": 0.05549478158354759,
						"typic": 0.08417502045631409,
						"secur": -0.1420944184064865,
						"area": 0.12003948539495468,
						"made": -0.12909983098506927,
						"clear": -0.023841755464673042,
						"reason": 0.048603855073451996,
						"lead": 0.1495141237974167,
						"meant": -0.15827812254428864,
						"not": -0.028589248657226562,
						"need": -0.1577933430671692,
						"avoid": 0.1661558449268341,
						"youngster": -0.017543025314807892,
						"restrict": -0.04708943888545036,
						"ask": -0.07053165882825851,
						"just": -0.05934365838766098,
						"meet": 0.1125221773982048,
						"prevent": 0.03595125302672386,
						"enter": -0.10965470224618912,
						"caus": -0.08633137494325638,
						"disrupt": -0.04205011576414108,
						"safeti": -0.09951677918434143,
						"precaut": 0.1944577991962433,
						"suppos": 0.1003294512629509,
						"hear": 0.07371855527162552,
						"discuss": -0.12052207440137863,
						"so": 0.21157191693782806,
						"kid": -0.14177696406841278,
						"unauthor": -0.07759533077478409,
						"visitor": 0.08203581720590591,
						"access": 0.20104898512363434,
						"proof": 0.023337818682193756,
						"puzzl": 0.0022938051261007786,
						"type": 0.12166332453489304,
						"concern": 0.08593634516000748,
						"shuttl": -0.05267283320426941,
						"talk": -0.14827574789524078,
						"alon": 0.06324611604213715,
						"mayb": 0.1353880763053894,
						"go": 0.17450754344463348,
						"space": -0.1770755648612976,
						"behind": -0.1656019687652588,
						"belong": -0.057027436792850494,
						"inform": 0.0033736180048435926,
						"mai": 0.0075040231458842754,
						"upset": 0.01978696510195732,
						"person": -0.04282777011394501,
						"usual": 0.07925619184970856,
						"airplan": -0.12057643383741379,
						"alwai": 0.050695303827524185,
						"assum": 0.016468534246087074,
						"spacecraft": 0.14984461665153503,
						"run": -0.03513701632618904,
						"unusu": -0.06349552422761917,
						"problem": 0.12633095681667328,
						"protocol": 0.15212482213974,
						"violat": 0.05830186605453491,
						"miss": -0.20623084902763367,
						"correct": 0.04726602882146835,
						"code": -0.1845986694097519,
						"want": 0.21743719279766083,
						"room": 0.016889547929167747,
						"us": -0.032720305025577545,
						"think": -0.08478203415870667,
						"solv": -0.15902192890644073,
						"privat": -0.10639724880456924,
						"board": 0.19908683001995087,
						"like": -0.17541538178920746,
						"measur": 0.05615909397602081,
						"main": 0.1139703094959259,
						"control": -0.16680695116519928,
						"convers": 0.19948150217533112,
						"kept": 0.17157471179962158,
						"ensur": 0.07779277861118317,
						"seal": -0.10646409541368484,
						"request": 0.045023977756500244,
						"matter": -0.05893111601471901,
						"involv": -0.04245927929878235,
						"speak": 0.08611635863780975,
						"uninvit": 0.04603497311472893,
						"it": -0.06196090579032898,
						"cabin": 0.01066353265196085,
						"remain": 0.14205749332904816,
						"captain": -0.16075041890144348,
						"protect": -0.08012406527996063,
						"ship": -0.08672947436571121,
						"locat": 0.1385631412267685,
						"sh": -0.0755457878112793,
						"shut": -0.12408970296382904,
						"order": 0.1740030199289322,
						"scare": 0.060184918344020844,
						"hand": -0.025749236345291138,
						"potenti": -0.0967109277844429,
						"danger": 0.0007891975692473352,
						"sure": -0.05886540934443474,
						"someth": -0.021422209218144417,
						"happen": -0.002957141725346446,
						"itself": 0.17099763453006744,
						"move": -0.09010527282953262,
						"path": -0.13860934972763062,
						"pilot": 0.03453487157821655,
						"wish": 0.01132926531136036,
						"seriou": -0.1702749878168106,
						"fear": 0.09222030639648438,
						"tell": -0.17443965375423431,
						"issu": 0.05427799001336098,
						"occur": -0.013212721794843674,
						"dure": -0.1681227684020996,
						"flight": 0.11873792111873627,
						"announc": -0.19360291957855225,
						"onboard": 0.12874560058116913,
						"told": -0.08282821625471115,
						"everyon": 0.02000422589480877,
						"els": 0.057406947016716,
						"stop": -0.17729516327381134,
						"fly": 0.16795837879180908,
						"handl": 0.03130033612251282,
						"emerg": 0.06728675216436386,
						"hold": -0.08326905220746994,
						"brief": 0.053563203662633896,
						"doe": -0.055404022336006165,
						"appear": -0.02368454821407795,
						"get": 0.07497560977935791,
						"import": -0.07156339287757874,
						"share": 0.02968049980700016,
						"invit": -0.17026688158512115,
						"tot": -0.054770100861787796,
						"no": 0.03994984179735184,
						"attend": -0.09353785216808319
					}
				},
				"3": {
					"bias": -0.13615389168262482,
					"weights": {
						"4326": 0.12677302956581116,
						"door": -0.1641569286584854,
						"lock": -0.20258119702339172,
						"keep": -0.05517103895545006,
						"child": 0.1763668805360794,
						"cockpit": 0.03320287540555,
						"time": -0.024150406941771507,
						"adult": -0.07510438561439514,
						"allow": 0.12725688517093658,
						"insid": -0.12056125700473785,
						"perhap": -0.15784303843975067,
						"probabl": 0.08105848729610443,
						"mosbi": -0.11425577849149704,
						"passeng": 0.10444044321775436,
						"crew": 0.04129838943481445,
						"member": -0.17626206576824188,
						"typic": 0.17957371473312378,
						"secur": -0.18444789946079254,
						"area": 0.17318226397037506,
						"made": -0.08033222705125809,
						"clear": 0.12860636413097382,
						"reason": -0.10149015486240387,
						"lead": -0.05934350937604904,
						"meant": -0.03999539092183113,
						"not": 0.10392003506422043,
						"need": 0.10735487192869186,
						"avoid": 0.15180841088294983,
						"youngster": 0.07237556576728821,
						"restrict": 0.06857581436634064,
						"ask": 0.14686188101768494,
						"just": 0.012914114631712437,
						"meet": 0.02470243163406849,
						"prevent": 0.025514326989650726,
						"enter": -0.06031744182109833,
						"caus": 0.18881870806217194,
						"disrupt": -0.0765482634305954,
						"safeti": -0.0003530359535943717,
						"precaut": 0.004603798501193523,
						"suppos": 0.07119107991456985,
						"hear": 0.12837092578411102,
						"discuss": 0.06384589523077011,
						"so": 0.10580258816480637,
						"kid": 0.16108354926109314,
						"unauthor": 0.0791674330830574,
						"visitor": -0.16602453589439392,
						"access": -0.09033291041851044,
						"proof": -0.15798689424991608,
						"puzzl": -0.12963631749153137,
						"type": -0.1997096687555313,
						"concern": 0.14877350628376007,
						"shuttl": -0.15259768068790436,
						"talk": 0.15034277737140656,
						"alon": -0.0888788029551506,
						"mayb": -0.19101731479167938,
						"go": -0.0012184736551716924,
						"space": 0.006763054523617029,
						"behind": -0.19454802572727203,
						"belong": -0.008230676874518394,
						"inform": 0.062071334570646286,
						"mai": 0.08692983537912369,
						"upset": 0.13618794083595276,
						"person": -0.20352938771247864,
						"usual": 0.09895070642232895,
						"airplan": -0.13608209788799286,
						"alwai": -0.10347703844308853,
						"assum": 0.08525678515434265,
						"spacecraft": -0.12097014486789703,
						"run": 0.11183419823646545,
						"unusu": -0.039155229926109314,
						"problem": -0.07964073866605759,
						"protocol": 0.10981851071119308,
						"violat": 0.05063280090689659,
						"miss": 0.1502578854560852,
						"correct": 0.11803789436817169,
						"code": -0.006283934693783522,
						"want": 0.15608415007591248,
						"room": -0.09429536759853363,
						"us": -0.04522012919187546,
						"think": 0.17220816016197205,
						"solv": 0.14710089564323425,
						"privat": 0.22232353687286377,
						"board": -0.011977816931903362,
						"like": 0.009462961927056313,
						"measur": -0.05399101972579956,
						"main": -0.011952008120715618,
						"control": -0.039957500994205475,
						"convers": -0.14290007948875427,
						"kept": 0.19151671230793,
						"ensur": -0.16362199187278748,
						"seal": 0.07967070490121841,
						"request": 0.010213544592261314,
						"matter": -0.11237422376871109,
						"involv": 0.17963825166225433,
						"speak": -0.02248569205403328,
						"uninvit": -0.09277332574129105,
						"it": 0.007241118233650923,
						"cabin": 0.08714532107114792,
						"remain": 0.15412947535514832,
						"captain": 0.10196889191865921,
						"protect": -0.016306672245264053,
						"ship": 0.13164596259593964,
						"locat": -0.15955279767513275,
						"sh": -0.07584420591592789,
						"shut": -0.0002970628556795418,
						"order": 0.08390321582555771,
						"scare": -0.018090518191456795,
						"hand": -0.14662602543830872,
						"potenti": 0.04830864816904068,
						"danger": 0.10022223740816116,
						"sure": 0.04097241908311844,
						"someth": -0.07940047234296799,
						"happen": 0.017939751967787743,
						"itself": 0.08875640481710434,
						"move": 0.000010694500815588981,
						"path": -0.20894843339920044,
						"pilot": -0.09765015542507172,
						"wish": 0.2044541984796524,
						"seriou": 0.09161080420017242,
						"fear": -0.12428046762943268,
						"tell": -0.18327224254608154,
						"issu": 0.10687150061130524,
						"occur": 0.12054247409105301,
						"dure": -0.06812609732151031,
						"flight": -0.15688687562942505,
						"announc": -0.15167899429798126,
						"onboard": 0.09212631732225418,
						"told": 0.19425523281097412,
						"everyon": 0.09605133533477783,
						"els": -0.05837758630514145,
						"stop": -0.05687011033296585,
						"fly": -0.14187316596508026,
						"handl": -0.028335925191640854,
						"emerg": -0.02065751701593399,
						"hold": 0.011787469498813152,
						"brief": -0.0922774001955986,
						"doe": -0.044706106185913086,
						"appear": -0.15101580321788788,
						"get": 0.0022205887362360954,
						"import": 0.059601079672575,
						"share": 0.16107800602912903,
						"invit": 0.05816025286912918,
						"tot": 0.049205582588911057,
						"no": -0.02840358391404152,
						"attend": -0.006354343146085739
					}
				},
				"4": {
					"bias": -0.10798341780900955,
					"weights": {
						"4326": 0.2383909374475479,
						"door": -0.22478099167346954,
						"lock": 0.13362139463424683,
						"keep": 0.09508421272039413,
						"child": -0.12471841275691986,
						"cockpit": 0.10292857140302658,
						"time": 0.0467975027859211,
						"adult": -0.27363818883895874,
						"allow": 0.14229927957057953,
						"insid": -0.06022891774773598,
						"perhap": 0.09944196790456772,
						"probabl": -0.113238126039505,
						"mosbi": -0.07409302145242691,
						"passeng": -0.14067839086055756,
						"crew": 0.12989670038223267,
						"member": -0.13644352555274963,
						"typic": -0.006436575204133987,
						"secur": 0.1490909904241562,
						"area": 0.009551011957228184,
						"made": -0.05252305045723915,
						"clear": 0.041359785944223404,
						"reason": 0.1740485578775406,
						"lead": 0.11927741765975952,
						"meant": 0.17653074860572815,
						"not": 0.04032101109623909,
						"need": 0.16554613411426544,
						"avoid": -0.2625657021999359,
						"youngster": -0.12006980925798416,
						"restrict": 0.12251689285039902,
						"ask": -0.1268673986196518,
						"just": -0.10015011578798294,
						"meet": -0.14451107382774353,
						"prevent": 0.08223570138216019,
						"enter": 0.036025721579790115,
						"caus": -0.1648855060338974,
						"disrupt": -0.10828769207000732,
						"safeti": 0.00914166122674942,
						"precaut": 0.11781315505504608,
						"suppos": 0.22503425180912018,
						"hear": -0.10154854506254196,
						"discuss": 0.06575959175825119,
						"so": -0.20290011167526245,
						"kid": -0.0739888995885849,
						"unauthor": 0.1409115493297577,
						"visitor": -0.08478076010942459,
						"access": 0.06175440549850464,
						"proof": 0.0785500705242157,
						"puzzl": -0.026082102209329605,
						"type": 0.13386166095733643,
						"concern": -0.18416650593280792,
						"shuttl": 0.1437264233827591,
						"talk": 0.06428931653499603,
						"alon": -0.08202529698610306,
						"mayb": -0.06985814869403839,
						"go": 0.10661932826042175,
						"space": 0.03289666399359703,
						"behind": -0.1400769203901291,
						"belong": 0.05059366300702095,
						"inform": -0.147234708070755,
						"mai": -0.018291616812348366,
						"upset": 0.02229132130742073,
						"person": 0.3040131628513336,
						"usual": 0.019326206296682358,
						"airplan": 0.05667651817202568,
						"alwai": 0.10103729367256165,
						"assum": -0.006587886717170477,
						"spacecraft": -0.0581568144261837,
						"run": 0.07309670746326447,
						"unusu": -0.19972862303256989,
						"problem": -0.29018494486808777,
						"protocol": 0.21374933421611786,
						"violat": 0.07773734629154205,
						"miss": 0.0505104660987854,
						"correct": 0.02249862253665924,
						"code": -0.03054889291524887,
						"want": -0.21159639954566956,
						"room": -0.023073572665452957,
						"us": 0.025779657065868378,
						"think": 0.049324922263622284,
						"solv": 0.1886567324399948,
						"privat": -0.30054429173469543,
						"board": -0.20552107691764832,
						"like": -0.15949688851833344,
						"measur": -0.10233370214700699,
						"main": 0.13162881135940552,
						"control": 0.13401567935943604,
						"convers": -0.1250007152557373,
						"kept": 0.11587437242269516,
						"ensur": 0.08938021957874298,
						"seal": -0.03252016007900238,
						"request": -0.1315934807062149,
						"matter": 0.13660021126270294,
						"involv": -0.3044719994068146,
						"speak": -0.1879347264766693,
						"uninvit": 0.07875014841556549,
						"it": -0.09186100214719772,
						"cabin": 0.09616891294717789,
						"remain": 0.0419679656624794,
						"captain": 0.18161676824092865,
						"protect": -0.14338378608226776,
						"ship": 0.037554286420345306,
						"locat": 0.15007300674915314,
						"sh": -0.17774243652820587,
						"shut": -0.1537773162126541,
						"order": 0.035398561507463455,
						"scare": -0.1010679081082344,
						"hand": -0.024436745792627335,
						"potenti": -0.09210775792598724,
						"danger": 0.10086739808320999,
						"sure": 0.19023936986923218,
						"someth": -0.08267084509134293,
						"happen": -0.03870536386966705,
						"itself": -0.15640366077423096,
						"move": 0.14362265169620514,
						"path": -0.03101172111928463,
						"pilot": -0.10980448126792908,
						"wish": -0.03557531535625458,
						"seriou": 0.1485223025083542,
						"fear": -0.1454838067293167,
						"tell": -0.07981690019369125,
						"issu": -0.2345389723777771,
						"occur": -0.160127654671669,
						"dure": 0.03274707496166229,
						"flight": -0.14453619718551636,
						"announc": 0.12500923871994019,
						"onboard": 0.1113988384604454,
						"told": -0.005921316798776388,
						"everyon": -0.1697007715702057,
						"els": -0.04136824235320091,
						"stop": 0.10402479022741318,
						"fly": -0.031501129269599915,
						"handl": 0.07832171767950058,
						"emerg": 0.10779011249542236,
						"hold": 0.18626338243484497,
						"brief": -0.09859838336706161,
						"doe": 0.12394817173480988,
						"appear": 0.05710329860448837,
						"get": -0.045421138405799866,
						"import": -0.13039150834083557,
						"share": -0.1840052455663681,
						"invit": 0.014849059283733368,
						"tot": -0.03178323060274124,
						"no": 0.010708771646022797,
						"attend": -0.15369491279125214
					}
				},
				"5": {
					"bias": -0.0053055016323924065,
					"weights": {
						"4326": 0.13187158107757568,
						"door": 0.07948996871709824,
						"lock": -0.14999715983867645,
						"keep": -0.07214626669883728,
						"child": -0.016299260780215263,
						"cockpit": -0.0397818349301815,
						"time": 0.03408730775117874,
						"adult": -0.20186299085617065,
						"allow": 0.07096675783395767,
						"insid": 0.15894770622253418,
						"perhap": 0.059959527105093,
						"probabl": 0.11084894835948944,
						"mosbi": -0.12545904517173767,
						"passeng": -0.04131098836660385,
						"crew": 0.08548914641141891,
						"member": -0.05827338248491287,
						"typic": 0.16725298762321472,
						"secur": -0.08501539379358292,
						"area": -0.10407277196645737,
						"made": -0.027764227241277695,
						"clear": -0.06995689123868942,
						"reason": 0.11232101917266846,
						"lead": -0.1699439287185669,
						"meant": -0.15431682765483856,
						"not": -0.12329040467739105,
						"need": -0.10451081395149231,
						"avoid": -0.17208479344844818,
						"youngster": 0.013166515156626701,
						"restrict": 0.12670719623565674,
						"ask": -0.034155525267124176,
						"just": -0.11833379417657852,
						"meet": -0.023936761543154716,
						"prevent": -0.21825389564037323,
						"enter": 0.13578151166439056,
						"caus": -0.1614074856042862,
						"disrupt": 0.04907122254371643,
						"safeti": -0.02648845873773098,
						"precaut": -0.04241989552974701,
						"suppos": 0.12156195938587189,
						"hear": -0.04344218969345093,
						"discuss": -0.18109673261642456,
						"so": -0.19444575905799866,
						"kid": 0.013424756936728954,
						"unauthor": 0.09693069010972977,
						"visitor": -0.07598138600587845,
						"access": -0.14584434032440186,
						"proof": -0.01184194628149271,
						"puzzl": -0.012207137420773506,
						"type": -0.1602882742881775,
						"concern": 0.07701581716537476,
						"shuttl": -0.03832641616463661,
						"talk": -0.18557432293891907,
						"alon": -0.1062489002943039,
						"mayb": -0.16727910935878754,
						"go": -0.15986165404319763,
						"space": -0.12633726000785828,
						"behind": -0.003056591609492898,
						"belong": 0.053897131234407425,
						"inform": -0.19138622283935547,
						"mai": 0.0974719300866127,
						"upset": -0.21387822926044464,
						"person": -0.06227004528045654,
						"usual": 0.11912430077791214,
						"airplan": 0.14818431437015533,
						"alwai": 0.0943358987569809,
						"assum": 0.10303710401058197,
						"spacecraft": -0.048817869275808334,
						"run": 0.07560226321220398,
						"unusu": -0.13660435378551483,
						"problem": 0.015399063006043434,
						"protocol": -0.07571158558130264,
						"violat": -0.07194065302610397,
						"miss": 0.16605830192565918,
						"correct": 0.11258097738027573,
						"code": -0.003977534361183643,
						"want": -0.22334837913513184,
						"room": 0.04446360468864441,
						"us": -0.12595117092132568,
						"think": 0.18625441193580627,
						"solv": 0.008932508528232574,
						"privat": -0.14068563282489777,
						"board": 0.1301664561033249,
						"like": 0.16849276423454285,
						"measur": -0.02016078308224678,
						"main": -0.0634089857339859,
						"control": -0.17915450036525726,
						"convers": -0.07735943794250488,
						"kept": -0.05148804932832718,
						"ensur": 0.05159522965550423,
						"seal": 0.17787648737430573,
						"request": 0.013663479126989841,
						"matter": 0.15067434310913086,
						"involv": -0.2023114413022995,
						"speak": -0.14584027230739594,
						"uninvit": 0.1777544468641281,
						"it": 0.09470668435096741,
						"cabin": 0.19587144255638123,
						"remain": 0.1545209139585495,
						"captain": 0.1384650319814682,
						"protect": 0.19507069885730743,
						"ship": 0.12028347700834274,
						"locat": 0.006832235027104616,
						"sh": 0.17324019968509674,
						"shut": -0.04945370927453041,
						"order": 0.02427423559129238,
						"scare": 0.06690748035907745,
						"hand": -0.07419583201408386,
						"potenti": -0.07449252158403397,
						"danger": 0.15174901485443115,
						"sure": 0.08716922998428345,
						"someth": -0.0700303167104721,
						"happen": 0.1511600762605667,
						"itself": -0.141802117228508,
						"move": 0.1586569845676422,
						"path": 0.16570839285850525,
						"pilot": -0.1471346914768219,
						"wish": -0.05108646675944328,
						"seriou": 0.040494222193956375,
						"fear": -0.10982980579137802,
						"tell": -0.105390764772892,
						"issu": -0.06647016108036041,
						"occur": -0.11870516091585159,
						"dure": -0.09298888593912125,
						"flight": 0.05134610831737518,
						"announc": -0.11212699860334396,
						"onboard": 0.17356108129024506,
						"told": -0.1773650199174881,
						"everyon": -0.12302200496196747,
						"els": 0.014269780367612839,
						"stop": -0.13612522184848785,
						"fly": -0.12616708874702454,
						"handl": -0.09628554433584213,
						"emerg": -0.13977384567260742,
						"hold": 0.01590202935039997,
						"brief": 0.1834847778081894,
						"doe": 0.1403055489063263,
						"appear": 0.1468898057937622,
						"get": 0.1738044023513794,
						"import": 0.15131503343582153,
						"share": 0.03061637096107006,
						"invit": 0.16489487886428833,
						"tot": 0.02213418297469616,
						"no": 0.04166026413440704,
						"attend": -0.13245649635791779
					}
				},
				"6": {
					"bias": -0.15040113031864166,
					"weights": {
						"4326": 0.14212392270565033,
						"door": -0.12977559864521027,
						"lock": 0.1064804270863533,
						"keep": -0.15558181703090668,
						"child": -0.16032300889492035,
						"cockpit": 0.05659524351358414,
						"time": 0.1855001598596573,
						"adult": -0.027939023450016975,
						"allow": 0.09224598854780197,
						"insid": 0.1730225384235382,
						"perhap": 0.09300559759140015,
						"probabl": 0.04689021408557892,
						"mosbi": 0.15317381918430328,
						"passeng": -0.04589973762631416,
						"crew": -0.16950228810310364,
						"member": -0.08546776324510574,
						"typic": 0.007908792234957218,
						"secur": 0.1306472271680832,
						"area": -0.14206792414188385,
						"made": -0.17067350447177887,
						"clear": 0.09845566004514694,
						"reason": 0.07395768910646439,
						"lead": 0.031738538295030594,
						"meant": 0.19389551877975464,
						"not": -0.14044752717018127,
						"need": -0.0411754809319973,
						"avoid": -0.18579383194446564,
						"youngster": -0.16922736167907715,
						"restrict": -0.1957838088274002,
						"ask": -0.020899031311273575,
						"just": -0.03136495500802994,
						"meet": -0.29142481088638306,
						"prevent": -0.2019125372171402,
						"enter": 0.1303306221961975,
						"caus": 0.08993667364120483,
						"disrupt": -0.08507970720529556,
						"safeti": 0.19695231318473816,
						"precaut": -0.17843924462795258,
						"suppos": 0.0013402815675362945,
						"hear": 0.07441426068544388,
						"discuss": -0.20122310519218445,
						"so": -0.06421249359846115,
						"kid": 0.1443863958120346,
						"unauthor": 0.15672825276851654,
						"visitor": 0.10615293681621552,
						"access": -0.03080541081726551,
						"proof": -0.18240131437778473,
						"puzzl": 0.2416541874408722,
						"type": 0.21743814647197723,
						"concern": -0.10311952233314514,
						"shuttl": -0.17149671912193298,
						"talk": -0.0724220797419548,
						"alon": -0.23955631256103516,
						"mayb": -0.09555282443761826,
						"go": 0.1518235057592392,
						"space": 0.18252502381801605,
						"behind": 0.10550658404827118,
						"belong": -0.039399173110723495,
						"inform": -0.11121971160173416,
						"mai": 0.11155977845191956,
						"upset": -0.10984847694635391,
						"person": 0.21923688054084778,
						"usual": -0.032162122428417206,
						"airplan": 0.17867591977119446,
						"alwai": 0.20465578138828278,
						"assum": -0.12367254495620728,
						"spacecraft": 0.03367409482598305,
						"run": 0.14467918872833252,
						"unusu": -0.11275222897529602,
						"problem": 0.047207072377204895,
						"protocol": 0.13850602507591248,
						"violat": -0.008892875164747238,
						"miss": -0.04689281806349754,
						"correct": 0.13401813805103302,
						"code": -0.06092579662799835,
						"want": 0.07906290143728256,
						"room": 0.08802737295627594,
						"us": -0.10508372634649277,
						"think": 0.027210865169763565,
						"solv": 0.11720163375139236,
						"privat": -0.0218029972165823,
						"board": -0.2514503598213196,
						"like": 0.0033988759387284517,
						"measur": 0.10502102226018906,
						"main": -0.0673038586974144,
						"control": 0.09890624135732651,
						"convers": 0.051932577043771744,
						"kept": -0.05829831212759018,
						"ensur": 0.1585025191307068,
						"seal": -0.1650339514017105,
						"request": 0.054174941033124924,
						"matter": 0.030173495411872864,
						"involv": -0.1272469311952591,
						"speak": 0.06947188824415207,
						"uninvit": -0.027921387925744057,
						"it": -0.057266026735305786,
						"cabin": 0.17688323557376862,
						"remain": 0.1222967803478241,
						"captain": -0.11020898073911667,
						"protect": -0.034283120185136795,
						"ship": 0.1296253502368927,
						"locat": 0.14858368039131165,
						"sh": -0.1777401566505432,
						"shut": 0.13090988993644714,
						"order": 0.06484930962324142,
						"scare": 0.18008606135845184,
						"hand": -0.13063497841358185,
						"potenti": 0.02321486733853817,
						"danger": -0.06311710923910141,
						"sure": -0.11046667397022247,
						"someth": -0.07217397540807724,
						"happen": 0.16505560278892517,
						"itself": 0.17639321088790894,
						"move": -0.12476229667663574,
						"path": -0.18196983635425568,
						"pilot": -0.03317916765809059,
						"wish": 0.149696484208107,
						"seriou": -0.1701563149690628,
						"fear": 0.10802499204874039,
						"tell": 0.04221446439623833,
						"issu": -0.04057929664850235,
						"occur": 0.09818553179502487,
						"dure": -0.055982910096645355,
						"flight": 0.1471804678440094,
						"announc": -0.11656827479600906,
						"onboard": -0.03663431480526924,
						"told": 0.0474398136138916,
						"everyon": 0.04708998650312424,
						"els": -0.12351886928081512,
						"stop": -0.06696924567222595,
						"fly": -0.041059769690036774,
						"handl": -0.06377318501472473,
						"emerg": -0.12097711861133575,
						"hold": -0.1634906679391861,
						"brief": -0.14639878273010254,
						"doe": 0.17548102140426636,
						"appear": 0.015829870477318764,
						"get": 0.05576833337545395,
						"import": 0.10945354402065277,
						"share": -0.21047478914260864,
						"invit": -0.018374083563685417,
						"tot": -0.018986469134688377,
						"no": -0.11324158310890198,
						"attend": -0.19810421764850616
					}
				},
				"7": {
					"bias": 0.2166132777929306,
					"weights": {
						"4326": 0.04362267628312111,
						"door": -0.09862467646598816,
						"lock": -0.11518622934818268,
						"keep": -0.035168420523405075,
						"child": -0.20164372026920319,
						"cockpit": -0.1292700469493866,
						"time": 0.20932607352733612,
						"adult": -0.2973642349243164,
						"allow": -0.007913936860859394,
						"insid": 0.07131663709878922,
						"perhap": -0.055220119655132294,
						"probabl": 0.0475534126162529,
						"mosbi": 0.04007023945450783,
						"passeng": -0.04454302787780762,
						"crew": -0.19221022725105286,
						"member": -0.13443531095981598,
						"typic": 0.08187530934810638,
						"secur": -0.07523171603679657,
						"area": 0.06778115779161453,
						"made": -0.1647077053785324,
						"clear": -0.19419905543327332,
						"reason": -0.06076209247112274,
						"lead": 0.21987950801849365,
						"meant": 0.16119907796382904,
						"not": 0.05788849666714668,
						"need": 0.0031182561069726944,
						"avoid": -0.0766252800822258,
						"youngster": -0.002533680759370327,
						"restrict": -0.09732554107904434,
						"ask": -0.1790589541196823,
						"just": 0.012093081139028072,
						"meet": -0.4335988461971283,
						"prevent": 0.11902792006731033,
						"enter": 0.07934673130512238,
						"caus": -0.17866738140583038,
						"disrupt": 0.00657533248886466,
						"safeti": 0.0448329821228981,
						"precaut": 0.09810181707143784,
						"suppos": 0.3133365213871002,
						"hear": -0.1547524631023407,
						"discuss": 0.025612348690629005,
						"so": -0.2288525551557541,
						"kid": -0.10135248303413391,
						"unauthor": 0.1415821611881256,
						"visitor": -0.014758100733160973,
						"access": 0.10987036675214767,
						"proof": 0.022560834884643555,
						"puzzl": 0.32336199283599854,
						"type": 0.20379923284053802,
						"concern": -0.15343108773231506,
						"shuttl": -0.08545887470245361,
						"talk": 0.05012140050530434,
						"alon": -0.2555731534957886,
						"mayb": 0.2274167537689209,
						"go": -0.11264251917600632,
						"space": -0.15624471008777618,
						"behind": 0.03842480480670929,
						"belong": -0.09268922358751297,
						"inform": -0.09047684818506241,
						"mai": -0.03426910936832428,
						"upset": -0.22849918901920319,
						"person": -0.030479442328214645,
						"usual": 0.01087054144591093,
						"airplan": -0.010492770001292229,
						"alwai": 0.14090994000434875,
						"assum": -0.07942909747362137,
						"spacecraft": 0.19714049994945526,
						"run": -0.04615844413638115,
						"unusu": -0.020063914358615875,
						"problem": -0.22134140133857727,
						"protocol": 0.1339976191520691,
						"violat": 0.09509164094924927,
						"miss": -0.15779466927051544,
						"correct": -0.10842973738908768,
						"code": -0.1192670613527298,
						"want": -0.11540933698415756,
						"room": 0.0329870730638504,
						"us": 0.14279547333717346,
						"think": -0.08056052029132843,
						"solv": -0.035432446748018265,
						"privat": -0.12381114065647125,
						"board": -0.000556035665795207,
						"like": -0.006241195369511843,
						"measur": -0.09635309875011444,
						"main": -0.06812018901109695,
						"control": -0.12530288100242615,
						"convers": -0.2717035114765167,
						"kept": 0.1655847281217575,
						"ensur": 0.13254600763320923,
						"seal": -0.0447252094745636,
						"request": -0.1664598286151886,
						"matter": -0.1340021938085556,
						"involv": 0.0066108256578445435,
						"speak": -0.2770177721977234,
						"uninvit": 0.16797171533107758,
						"it": 0.13261397182941437,
						"cabin": 0.20335552096366882,
						"remain": 0.10653010755777359,
						"captain": 0.12268976122140884,
						"protect": -0.06314658373594284,
						"ship": -0.056516360491514206,
						"locat": -0.011684098280966282,
						"sh": -0.21859438717365265,
						"shut": 0.08719737827777863,
						"order": -0.15216128528118134,
						"scare": -0.055960558354854584,
						"hand": -0.1648929864168167,
						"potenti": 0.16170191764831543,
						"danger": -0.1713457852602005,
						"sure": 0.07045795768499374,
						"someth": -0.08076747506856918,
						"happen": -0.12234426289796829,
						"itself": 0.20078742504119873,
						"move": 0.14192092418670654,
						"path": 0.16784967482089996,
						"pilot": -0.12743623554706573,
						"wish": -0.02554982341825962,
						"seriou": 0.11914774775505066,
						"fear": -0.0765109583735466,
						"tell": 0.16171832382678986,
						"issu": -0.0886954590678215,
						"occur": -0.08734031021595001,
						"dure": 0.07133005559444427,
						"flight": 0.060066305100917816,
						"announc": -0.18277910351753235,
						"onboard": -0.05892262980341911,
						"told": -0.0852447971701622,
						"everyon": -0.17054641246795654,
						"els": 0.04614706709980965,
						"stop": 0.09563994407653809,
						"fly": -0.12794753909111023,
						"handl": -0.2430269867181778,
						"emerg": -0.04959231615066528,
						"hold": -0.08084289729595184,
						"brief": 0.11757122725248337,
						"doe": 0.12543196976184845,
						"appear": 0.044197384268045425,
						"get": 0.08845493197441101,
						"import": 0.16726984083652496,
						"share": -0.14172130823135376,
						"invit": -0.08259714394807816,
						"tot": 0.14189018309116364,
						"no": 0.08856063336133957,
						"attend": 0.04849288612604141
					}
				},
				"8": {
					"bias": -0.08240647614002228,
					"weights": {
						"4326": -0.09405414760112762,
						"door": -0.016118275001645088,
						"lock": -0.10436805337667465,
						"keep": 0.042380742728710175,
						"child": -0.052829548716545105,
						"cockpit": -0.06845593452453613,
						"time": -0.10694235563278198,
						"adult": -0.17046169936656952,
						"allow": 0.13590814173221588,
						"insid": 0.14531847834587097,
						"perhap": -0.1908673197031021,
						"probabl": 0.1485075205564499,
						"mosbi": 0.07739920169115067,
						"passeng": -0.18399590253829956,
						"crew": -0.17450226843357086,
						"member": -0.17918109893798828,
						"typic": -0.08011654764413834,
						"secur": 0.1740715056657791,
						"area": 0.16059532761573792,
						"made": -0.11743516474962234,
						"clear": -0.09930852055549622,
						"reason": 0.13429473340511322,
						"lead": 0.15600372850894928,
						"meant": 0.08622720092535019,
						"not": -0.10510748624801636,
						"need": 0.018460234627127647,
						"avoid": 0.1477499157190323,
						"youngster": -0.02676532045006752,
						"restrict": 0.09337460994720459,
						"ask": 0.03427416458725929,
						"just": 0.18120698630809784,
						"meet": 0.053502246737480164,
						"prevent": 0.15942469239234924,
						"enter": 0.10416753590106964,
						"caus": 0.016855411231517792,
						"disrupt": -0.10933630168437958,
						"safeti": 0.10299012064933777,
						"precaut": -0.07886718958616257,
						"suppos": 0.14513659477233887,
						"hear": 0.14006555080413818,
						"discuss": -0.1321052461862564,
						"so": 0.047865401953458786,
						"kid": -0.007199129089713097,
						"unauthor": 0.08873442560434341,
						"visitor": -0.19612273573875427,
						"access": 0.09009676426649094,
						"proof": 0.05790054053068161,
						"puzzl": -0.004677401389926672,
						"type": -0.1591264009475708,
						"concern": 0.08231598138809204,
						"shuttl": -0.019861653447151184,
						"talk": -0.18992751836776733,
						"alon": 0.059793829917907715,
						"mayb": 0.09410064667463303,
						"go": -0.15656860172748566,
						"space": -0.023564521223306656,
						"behind": -0.01556540746241808,
						"belong": 0.0289946086704731,
						"inform": -0.19015730917453766,
						"mai": -0.024526622146368027,
						"upset": -0.15410742163658142,
						"person": -0.1642114520072937,
						"usual": -0.1795443594455719,
						"airplan": -0.16626721620559692,
						"alwai": -0.08087413012981415,
						"assum": 0.07935266196727753,
						"spacecraft": 0.0998208075761795,
						"run": 0.18896128237247467,
						"unusu": -0.14387446641921997,
						"problem": 0.15577083826065063,
						"protocol": -0.09407559782266617,
						"violat": 0.05850633606314659,
						"miss": 0.027310410514473915,
						"correct": 0.09073228389024734,
						"code": 0.03485593572258949,
						"want": -0.17512886226177216,
						"room": 0.15082800388336182,
						"us": 0.022718392312526703,
						"think": -0.07690606266260147,
						"solv": -0.023979878053069115,
						"privat": 0.02193295955657959,
						"board": -0.04474394768476486,
						"like": 0.17942696809768677,
						"measur": 0.04015642777085304,
						"main": 0.02325032278895378,
						"control": -0.15184126794338226,
						"convers": 0.02534501999616623,
						"kept": 0.18967939913272858,
						"ensur": -0.15366053581237793,
						"seal": 0.17068041861057281,
						"request": -0.070815309882164,
						"matter": 0.14845344424247742,
						"involv": 0.08060326427221298,
						"speak": -0.05192013829946518,
						"uninvit": 0.05937136709690094,
						"it": 0.12126123160123825,
						"cabin": 0.04331618919968605,
						"remain": -0.08872855454683304,
						"captain": -0.1902238428592682,
						"protect": 0.15885967016220093,
						"ship": -0.13897502422332764,
						"locat": -0.09967248141765594,
						"sh": -0.1920342743396759,
						"shut": -0.07903538644313812,
						"order": 0.13512444496154785,
						"scare": 0.17125558853149414,
						"hand": 0.190847709774971,
						"potenti": 0.0006306380382739007,
						"danger": -0.014386134222149849,
						"sure": 0.1513008326292038,
						"someth": -0.05811556428670883,
						"happen": 0.12021170556545258,
						"itself": -0.10340005904436111,
						"move": 0.08211294561624527,
						"path": 0.17556366324424744,
						"pilot": 0.13044017553329468,
						"wish": -0.11306040734052658,
						"seriou": 0.1120443120598793,
						"fear": 0.07414661347866058,
						"tell": 0.007374074310064316,
						"issu": -0.18995140492916107,
						"occur": -0.14698204398155212,
						"dure": 0.005205203779041767,
						"flight": 0.12404025346040726,
						"announc": -0.13675571978092194,
						"onboard": -0.0447845458984375,
						"told": -0.08883774280548096,
						"everyon": 0.1308252513408661,
						"els": -0.06095494329929352,
						"stop": 0.1204296350479126,
						"fly": -0.019460702314972878,
						"handl": -0.17760586738586426,
						"emerg": -0.056163202971220016,
						"hold": 0.14531174302101135,
						"brief": -0.17117157578468323,
						"doe": -0.12831561267375946,
						"appear": -0.034639496356248856,
						"get": -0.140065997838974,
						"import": 0.16833674907684326,
						"share": 0.16908520460128784,
						"invit": 0.19288113713264465,
						"tot": 0.12296926975250244,
						"no": 0.05254456028342247,
						"attend": 0.08975854516029358
					}
				},
				"9": {
					"bias": -0.24997234344482422,
					"weights": {
						"4326": -0.2222723662853241,
						"door": 0.24786655604839325,
						"lock": 0.1328292042016983,
						"keep": 0.09549324959516525,
						"child": 0.03691543638706207,
						"cockpit": -0.17366814613342285,
						"time": -0.03351704403758049,
						"adult": 0.2719915509223938,
						"allow": -0.2297636717557907,
						"insid": 0.022634970024228096,
						"perhap": 0.22954794764518738,
						"probabl": -0.139485701918602,
						"mosbi": 0.07354674488306046,
						"passeng": -0.18992140889167786,
						"crew": 0.04657312110066414,
						"member": 0.11984051018953323,
						"typic": -0.12756364047527313,
						"secur": -0.04567068815231323,
						"area": -0.07198420912027359,
						"made": -0.004403075203299522,
						"clear": 0.15390677750110626,
						"reason": -0.046226732432842255,
						"lead": -0.017417551949620247,
						"meant": 0.13893650472164154,
						"not": -0.05684610828757286,
						"need": 0.006037267856299877,
						"avoid": -0.08956099301576614,
						"youngster": 0.07571815699338913,
						"restrict": 0.23766857385635376,
						"ask": -0.09429029375314713,
						"just": 0.02421889267861843,
						"meet": 0.4247150123119354,
						"prevent": 0.0991869643330574,
						"enter": 0.0948205515742302,
						"caus": 0.2133231908082962,
						"disrupt": 0.08968722820281982,
						"safeti": -0.22503311932086945,
						"precaut": -0.015379266813397408,
						"suppos": -0.027023449540138245,
						"hear": -0.13676758110523224,
						"discuss": 0.1956843137741089,
						"so": -0.03629739210009575,
						"kid": -0.06811375170946121,
						"unauthor": -0.06578387320041656,
						"visitor": 0.20091594755649567,
						"access": 0.20459382236003876,
						"proof": -0.018244463950395584,
						"puzzl": -0.06494341790676117,
						"type": -0.18417325615882874,
						"concern": 0.12982125580310822,
						"shuttl": -0.22594712674617767,
						"talk": 0.03548407927155495,
						"alon": 0.005579391494393349,
						"mayb": 0.09968007355928421,
						"go": -0.19800879061222076,
						"space": 0.1476130485534668,
						"behind": 0.09454317390918732,
						"belong": -0.08264042437076569,
						"inform": -0.08687446266412735,
						"mai": -0.010771792382001877,
						"upset": -0.055777061730623245,
						"person": -0.0019741146825253963,
						"usual": 0.045469556003808975,
						"airplan": -0.24013996124267578,
						"alwai": 0.010216740891337395,
						"assum": -0.1910150647163391,
						"spacecraft": 0.016318080946803093,
						"run": -0.138035848736763,
						"unusu": 0.16675783693790436,
						"problem": 0.17687450349330902,
						"protocol": -0.07684087008237839,
						"violat": 0.15756674110889435,
						"miss": -0.03317834436893463,
						"correct": -0.22876395285129547,
						"code": -0.19030943512916565,
						"want": 0.03988278657197952,
						"room": -0.12871116399765015,
						"us": -0.07364093512296677,
						"think": 0.05200502648949623,
						"solv": -0.17638790607452393,
						"privat": 0.14065687358379364,
						"board": -0.018326470628380775,
						"like": 0.049776289612054825,
						"measur": -0.09285373985767365,
						"main": -0.01802193745970726,
						"control": 0.14982572197914124,
						"convers": 0.040081337094306946,
						"kept": 0.11284831911325455,
						"ensur": 0.09376543015241623,
						"seal": 0.12743006646633148,
						"request": -0.16778090596199036,
						"matter": -0.018482167273759842,
						"involv": 0.20312340557575226,
						"speak": 0.2417062520980835,
						"uninvit": 0.16235211491584778,
						"it": -0.1964285522699356,
						"cabin": 0.12319668382406235,
						"remain": 0.06517908722162247,
						"captain": 0.03607352450489998,
						"protect": -0.04308391734957695,
						"ship": 0.08866528421640396,
						"locat": 0.15265853703022003,
						"sh": -0.01990705356001854,
						"shut": 0.012137486599385738,
						"order": 0.19408762454986572,
						"scare": -0.011146847158670425,
						"hand": -0.06573028117418289,
						"potenti": -0.15788409113883972,
						"danger": 0.08295461535453796,
						"sure": -0.17144669592380524,
						"someth": 0.07092934846878052,
						"happen": -0.1431262195110321,
						"itself": -0.03023558296263218,
						"move": -0.03183118253946304,
						"path": 0.11144955456256866,
						"pilot": -0.164894238114357,
						"wish": -0.08480433374643326,
						"seriou": -0.07847795635461807,
						"fear": -0.12282700091600418,
						"tell": 0.11507807672023773,
						"issu": -0.03973899036645889,
						"occur": -0.13235920667648315,
						"dure": 0.021368838846683502,
						"flight": 0.06777919828891754,
						"announc": -0.1225476861000061,
						"onboard": 0.17347893118858337,
						"told": -0.003284845966845751,
						"everyon": -0.08452059328556061,
						"els": -0.19271539151668549,
						"stop": -0.050320059061050415,
						"fly": 0.04047954082489014,
						"handl": 0.08910396695137024,
						"emerg": 0.1283138245344162,
						"hold": -0.057418227195739746,
						"brief": 0.023412179201841354,
						"doe": 0.0038110227324068546,
						"appear": 0.057882051914930344,
						"get": 0.028124138712882996,
						"import": 0.04877273365855217,
						"share": 0.19895322620868683,
						"invit": 0.16344837844371796,
						"tot": -0.08608843386173248,
						"no": 0.10124349594116211,
						"attend": -0.15235421061515808
					}
				},
				"10": {
					"bias": -0.0760723203420639,
					"weights": {
						"4326": 0.11913890391588211,
						"door": 0.10768266022205353,
						"lock": -0.1662241369485855,
						"keep": -0.13286340236663818,
						"child": -0.04972102493047714,
						"cockpit": 0.09137723594903946,
						"time": -0.18112607300281525,
						"adult": 0.3696184456348419,
						"allow": -0.17821641266345978,
						"insid": 0.1216418594121933,
						"perhap": 0.004400812089443207,
						"probabl": -0.055252086371183395,
						"mosbi": -0.009194414131343365,
						"passeng": 0.14492817223072052,
						"crew": -0.14707757532596588,
						"member": 0.15753814578056335,
						"typic": -0.0034506814554333687,
						"secur": -0.1430455893278122,
						"area": -0.07565151154994965,
						"made": -0.14231224358081818,
						"clear": -0.13536040484905243,
						"reason": 0.17553600668907166,
						"lead": 0.10323389619588852,
						"meant": -0.12043216079473495,
						"not": -0.11362536251544952,
						"need": 0.012414238415658474,
						"avoid": 0.2649117112159729,
						"youngster": -0.11585409194231033,
						"restrict": 0.10915432870388031,
						"ask": 0.1663442701101303,
						"just": -0.11564881354570389,
						"meet": 0.38905540108680725,
						"prevent": -0.06643863022327423,
						"enter": 0.0012872738298028708,
						"caus": 0.03064526990056038,
						"disrupt": 0.007128337863832712,
						"safeti": -0.06982384622097015,
						"precaut": -0.08051666617393494,
						"suppos": 0.07824337482452393,
						"hear": -0.19259683787822723,
						"discuss": -0.08111847192049026,
						"so": 0.030447348952293396,
						"kid": -0.06622040271759033,
						"unauthor": -0.15107658505439758,
						"visitor": -0.07777806371450424,
						"access": -0.1517011821269989,
						"proof": 0.176254540681839,
						"puzzl": -0.10758750885725021,
						"type": -0.14701618254184723,
						"concern": 0.15885141491889954,
						"shuttl": -0.020696673542261124,
						"talk": -0.002758133690804243,
						"alon": -0.08431795239448547,
						"mayb": -0.23552897572517395,
						"go": -0.11862171441316605,
						"space": 0.20331045985221863,
						"behind": 0.012759463861584663,
						"belong": 0.1257842481136322,
						"inform": 0.03616004437208176,
						"mai": 0.18809068202972412,
						"upset": 0.16045834124088287,
						"person": -0.15379835665225983,
						"usual": -0.16378630697727203,
						"airplan": -0.12164444476366043,
						"alwai": -0.04418336600065231,
						"assum": 0.12093532085418701,
						"spacecraft": -0.20501801371574402,
						"run": 0.01879207231104374,
						"unusu": -0.13997505605220795,
						"problem": -0.038072872906923294,
						"protocol": -0.08701497316360474,
						"violat": 0.09609013795852661,
						"miss": -0.23809483647346497,
						"correct": 0.09852728992700577,
						"code": -0.11277782171964645,
						"want": 0.2353888601064682,
						"room": -0.09077907353639603,
						"us": 0.11225300282239914,
						"think": -0.23696011304855347,
						"solv": -0.20598119497299194,
						"privat": 0.17809957265853882,
						"board": 0.12830542027950287,
						"like": -0.22207754850387573,
						"measur": 0.14642781019210815,
						"main": -0.15093882381916046,
						"control": 0.122214674949646,
						"convers": 0.09678760915994644,
						"kept": -0.12394753098487854,
						"ensur": 0.009636135771870613,
						"seal": -0.11412183940410614,
						"request": -0.031245501711964607,
						"matter": -0.062046118080616,
						"involv": 0.2602243423461914,
						"speak": 0.18218833208084106,
						"uninvit": 0.16513925790786743,
						"it": -0.06159330531954765,
						"cabin": -0.15188999474048615,
						"remain": -0.09610935300588608,
						"captain": -0.18556034564971924,
						"protect": 0.14834831655025482,
						"ship": 0.09071023762226105,
						"locat": -0.1424550712108612,
						"sh": -0.12479031085968018,
						"shut": 0.07927602529525757,
						"order": 0.1794498711824417,
						"scare": 0.21041616797447205,
						"hand": -0.15072789788246155,
						"potenti": -0.049097031354904175,
						"danger": -0.01389503013342619,
						"sure": -0.20525401830673218,
						"someth": 0.17794838547706604,
						"happen": -0.07934616506099701,
						"itself": -0.05894302949309349,
						"move": -0.09211930632591248,
						"path": 0.14698103070259094,
						"pilot": 0.12039794772863388,
						"wish": 0.24056395888328552,
						"seriou": -0.01209365576505661,
						"fear": 0.02923152595758438,
						"tell": 0.10565949231386185,
						"issu": 0.08764013648033142,
						"occur": 0.006052824668586254,
						"dure": 0.09561913460493088,
						"flight": -0.08064745366573334,
						"announc": -0.11385546624660492,
						"onboard": 0.19994625449180603,
						"told": 0.05483005568385124,
						"everyon": -0.09804762154817581,
						"els": 0.07121724635362625,
						"stop": 0.06723950803279877,
						"fly": -0.17765198647975922,
						"handl": 0.14876717329025269,
						"emerg": -0.07325445115566254,
						"hold": 0.053457703441381454,
						"brief": 0.02109672874212265,
						"doe": 0.036177411675453186,
						"appear": -0.0017778477631509304,
						"get": 0.09223999083042145,
						"import": 0.08865899592638016,
						"share": 0.17661026120185852,
						"invit": -0.1512732356786728,
						"tot": 0.011454516090452671,
						"no": -0.08287303894758224,
						"attend": 0.1631738245487213
					}
				},
				"11": {
					"bias": -0.11214347183704376,
					"weights": {
						"4326": 0.14232295751571655,
						"door": -0.16696110367774963,
						"lock": -0.14048689603805542,
						"keep": -0.1037992611527443,
						"child": 0.13093850016593933,
						"cockpit": -0.20378682017326355,
						"time": -0.023135103285312653,
						"adult": -0.08958657085895538,
						"allow": -0.005507429596036673,
						"insid": -0.174521341919899,
						"perhap": -0.1165914461016655,
						"probabl": -0.06059609353542328,
						"mosbi": -0.1876033991575241,
						"passeng": 0.13553506135940552,
						"crew": 0.09124564379453659,
						"member": -0.08760759979486465,
						"typic": -0.05617683380842209,
						"secur": -0.15571406483650208,
						"area": -0.14480392634868622,
						"made": -0.001949067460373044,
						"clear": 0.1510135680437088,
						"reason": 0.1617058515548706,
						"lead": 0.15313100814819336,
						"meant": -0.04918871819972992,
						"not": 0.10583188384771347,
						"need": -0.09861373156309128,
						"avoid": -0.1603681892156601,
						"youngster": -0.17111247777938843,
						"restrict": 0.0969274640083313,
						"ask": -0.006001769565045834,
						"just": 0.07157082110643387,
						"meet": -0.06528709083795547,
						"prevent": 0.18237681686878204,
						"enter": 0.04533536359667778,
						"caus": -0.16648486256599426,
						"disrupt": 0.17127595841884613,
						"safeti": -0.1911703199148178,
						"precaut": 0.17657120525836945,
						"suppos": 0.025813471525907516,
						"hear": -0.12871691584587097,
						"discuss": -0.09170084446668625,
						"so": 0.14935235679149628,
						"kid": -0.08350253105163574,
						"unauthor": 0.14961592853069305,
						"visitor": 0.0011833393946290016,
						"access": -0.1731773465871811,
						"proof": -0.06224453076720238,
						"puzzl": -0.15289033949375153,
						"type": -0.05350873991847038,
						"concern": -0.03432491421699524,
						"shuttl": -0.03882475942373276,
						"talk": 0.051336802542209625,
						"alon": 0.14809131622314453,
						"mayb": 0.05431802570819855,
						"go": -0.08074752986431122,
						"space": -0.06368429958820343,
						"behind": -0.14258424937725067,
						"belong": 0.08038053661584854,
						"inform": -0.05866766721010208,
						"mai": -0.009023265913128853,
						"upset": -0.15211620926856995,
						"person": -0.03218584135174751,
						"usual": 0.18043634295463562,
						"airplan": -0.13734307885169983,
						"alwai": 0.12106289714574814,
						"assum": -0.1498434990644455,
						"spacecraft": -0.0044765351340174675,
						"run": 0.0589037649333477,
						"unusu": -0.14955833554267883,
						"problem": -0.12896819412708282,
						"protocol": 0.12127642333507538,
						"violat": -0.01355269830673933,
						"miss": -0.005957195535302162,
						"correct": -0.04681079089641571,
						"code": 0.1180647686123848,
						"want": -0.1690366119146347,
						"room": 0.011130551807582378,
						"us": 0.0829121321439743,
						"think": 0.18290114402770996,
						"solv": -0.1803208738565445,
						"privat": 0.10694314539432526,
						"board": -0.02765139378607273,
						"like": 0.07481765747070312,
						"measur": 0.05309800058603287,
						"main": 0.013914130628108978,
						"control": 0.1971597671508789,
						"convers": 0.05301176756620407,
						"kept": 0.1382058709859848,
						"ensur": -0.16621099412441254,
						"seal": -0.06417620927095413,
						"request": 0.16091911494731903,
						"matter": 0.1699933558702469,
						"involv": -0.04888300597667694,
						"speak": 0.07905063033103943,
						"uninvit": 0.07508520036935806,
						"it": 0.07552687078714371,
						"cabin": 0.11997629702091217,
						"remain": 0.05147043243050575,
						"captain": 0.1620425581932068,
						"protect": 0.09368429332971573,
						"ship": 0.15304388105869293,
						"locat": 0.19891931116580963,
						"sh": -0.08107665181159973,
						"shut": 0.14040391147136688,
						"order": 0.04583728685975075,
						"scare": 0.06285381317138672,
						"hand": 0.12024921178817749,
						"potenti": 0.12145644426345825,
						"danger": -0.1295841932296753,
						"sure": -0.05406034365296364,
						"someth": 0.11727875471115112,
						"happen": -0.13508331775665283,
						"itself": 0.09884870052337646,
						"move": 0.0026137572713196278,
						"path": 0.033912260085344315,
						"pilot": 0.15767842531204224,
						"wish": 0.08370529860258102,
						"seriou": -0.07537789642810822,
						"fear": 0.08326195180416107,
						"tell": 0.12775956094264984,
						"issu": 0.02750723995268345,
						"occur": -0.16067802906036377,
						"dure": 0.0667538270354271,
						"flight": 0.056543927639722824,
						"announc": 0.0666496530175209,
						"onboard": -0.10857348144054413,
						"told": 0.12595418095588684,
						"everyon": -0.12422221153974533,
						"els": -0.1408648043870926,
						"stop": -0.15314799547195435,
						"fly": 0.03253971040248871,
						"handl": -0.08144515752792358,
						"emerg": -0.03034513257443905,
						"hold": 0.07390836626291275,
						"brief": -0.1131390929222107,
						"doe": 0.13692890107631683,
						"appear": -0.04997198283672333,
						"get": 0.11141331493854523,
						"import": 0.1943376511335373,
						"share": 0.06422749161720276,
						"invit": 0.03911442309617996,
						"tot": -0.13599075376987457,
						"no": 0.11624539643526077,
						"attend": 0.19356749951839447
					}
				},
				"12": {
					"bias": 0.028797350823879242,
					"weights": {
						"4326": 0.025006912648677826,
						"door": -0.12886254489421844,
						"lock": 0.047922130674123764,
						"keep": 0.040998201817274094,
						"child": -0.08721920847892761,
						"cockpit": 0.10095445811748505,
						"time": -0.1193198561668396,
						"adult": 0.26260197162628174,
						"allow": -0.2748678922653198,
						"insid": -0.14875037968158722,
						"perhap": -0.023347526788711548,
						"probabl": -0.16364367306232452,
						"mosbi": 0.1941813826560974,
						"passeng": 0.07010417431592941,
						"crew": 0.126803919672966,
						"member": 0.06459623575210571,
						"typic": -0.01141374371945858,
						"secur": 0.08051345497369766,
						"area": 0.053124140948057175,
						"made": -0.1306850165128708,
						"clear": -0.1333274096250534,
						"reason": -0.10847339034080505,
						"lead": -0.07203181087970734,
						"meant": -0.17444974184036255,
						"not": -0.13750484585762024,
						"need": -0.024295775219798088,
						"avoid": 0.09971354901790619,
						"youngster": -0.041853416711091995,
						"restrict": 0.11407001316547394,
						"ask": 0.06722100079059601,
						"just": 0.03817049041390419,
						"meet": 0.26738879084587097,
						"prevent": -0.08871612697839737,
						"enter": 0.10347472876310349,
						"caus": 0.09917063266038895,
						"disrupt": -0.10607223957777023,
						"safeti": -0.18920676410198212,
						"precaut": 0.08330104500055313,
						"suppos": -0.0693274587392807,
						"hear": 0.16172708570957184,
						"discuss": -0.0957953929901123,
						"so": 0.21448089182376862,
						"kid": -0.06324555724859238,
						"unauthor": 0.13021394610404968,
						"visitor": 0.022488249465823174,
						"access": 0.0870608538389206,
						"proof": -0.09142264723777771,
						"puzzl": -0.17796359956264496,
						"type": 0.09763895720243454,
						"concern": 0.04511825367808342,
						"shuttl": -0.1269666701555252,
						"talk": 0.17064255475997925,
						"alon": 0.22825902700424194,
						"mayb": 0.15055519342422485,
						"go": -0.05299576744437218,
						"space": -0.1737360805273056,
						"behind": -0.12807177007198334,
						"belong": -0.15321679413318634,
						"inform": 0.061755649745464325,
						"mai": 0.04801085963845253,
						"upset": -0.010143504478037357,
						"person": 0.05083157867193222,
						"usual": -0.15240313112735748,
						"airplan": -0.20848190784454346,
						"alwai": -0.1071954220533371,
						"assum": -0.0008258548914454877,
						"spacecraft": -0.065925732254982,
						"run": 0.11297859251499176,
						"unusu": 0.15040108561515808,
						"problem": 0.1734515279531479,
						"protocol": 0.07495041191577911,
						"violat": -0.006631897296756506,
						"miss": -0.12209554761648178,
						"correct": 0.14056476950645447,
						"code": -0.21111047267913818,
						"want": 0.0791202262043953,
						"room": -0.09135492146015167,
						"us": 0.025292469188570976,
						"think": -0.012969715520739555,
						"solv": -0.058771707117557526,
						"privat": 0.15933936834335327,
						"board": 0.05679072067141533,
						"like": 0.1615239530801773,
						"measur": -0.023817028850317,
						"main": -0.20465414226055145,
						"control": 0.08812233060598373,
						"convers": -0.06086576730012894,
						"kept": -0.18030059337615967,
						"ensur": 0.19265036284923553,
						"seal": -0.018204020336270332,
						"request": -0.011497559025883675,
						"matter": -0.15579281747341156,
						"involv": 0.0599944144487381,
						"speak": 0.05396251752972603,
						"uninvit": 0.14853279292583466,
						"it": 0.011099313385784626,
						"cabin": 0.1525421142578125,
						"remain": 0.05099910870194435,
						"captain": 0.17808294296264648,
						"protect": -0.15612947940826416,
						"ship": 0.03068453073501587,
						"locat": 0.05966556444764137,
						"sh": 0.07070326060056686,
						"shut": -0.13058486580848694,
						"order": -0.15999488532543182,
						"scare": -0.03844663128256798,
						"hand": -0.08030357211828232,
						"potenti": 0.1618662178516388,
						"danger": 0.15545625984668732,
						"sure": -0.127737358212471,
						"someth": 0.14135131239891052,
						"happen": 0.028164252638816833,
						"itself": -0.18509864807128906,
						"move": -0.18614013493061066,
						"path": -0.17257633805274963,
						"pilot": 0.1901286244392395,
						"wish": 0.05107637494802475,
						"seriou": -0.08991612493991852,
						"fear": -0.05174332484602928,
						"tell": 0.10367511957883835,
						"issu": 0.20615190267562866,
						"occur": 0.20664848387241364,
						"dure": -0.09062299877405167,
						"flight": 0.17407365143299103,
						"announc": -0.025415027514100075,
						"onboard": 0.1132231280207634,
						"told": -0.18381501734256744,
						"everyon": -0.07355552911758423,
						"els": 0.15687723457813263,
						"stop": -0.10882633924484253,
						"fly": -0.05425846204161644,
						"handl": -0.06774543970823288,
						"emerg": 0.21007601916790009,
						"hold": -0.16324372589588165,
						"brief": -0.1473521590232849,
						"doe": -0.06425630301237106,
						"appear": -0.0445968434214592,
						"get": -0.12303633987903595,
						"import": -0.07963348180055618,
						"share": -0.172257199883461,
						"invit": -0.08656635880470276,
						"tot": 0.13358362019062042,
						"no": 0.07695416361093521,
						"attend": 0.21385766565799713
					}
				},
				"13": {
					"bias": -0.21554487943649292,
					"weights": {
						"4326": -0.14728809893131256,
						"door": -0.012194857001304626,
						"lock": -0.14553898572921753,
						"keep": 0.11911419779062271,
						"child": -0.0024263663217425346,
						"cockpit": 0.12993553280830383,
						"time": -0.05985131487250328,
						"adult": 0.030887050554156303,
						"allow": 0.03059779666364193,
						"insid": -0.04832683503627777,
						"perhap": 0.16050200164318085,
						"probabl": -0.05600902810692787,
						"mosbi": 0.13411864638328552,
						"passeng": -0.02249951660633087,
						"crew": 0.04143742471933365,
						"member": 0.10146437585353851,
						"typic": 0.07398907095193863,
						"secur": -0.10782946646213531,
						"area": -0.06541121006011963,
						"made": -0.17589454352855682,
						"clear": 0.06671036779880524,
						"reason": -0.17295792698860168,
						"lead": -0.11846993118524551,
						"meant": -0.16244462132453918,
						"not": -0.1850956529378891,
						"need": -0.04611550271511078,
						"avoid": -0.14569319784641266,
						"youngster": -0.12429454177618027,
						"restrict": 0.009853624738752842,
						"ask": -0.13249428570270538,
						"just": -0.17778043448925018,
						"meet": -0.14961422979831696,
						"prevent": -0.04727091267704964,
						"enter": -0.04182067885994911,
						"caus": 0.1806662529706955,
						"disrupt": 0.17563505470752716,
						"safeti": 0.07295165210962296,
						"precaut": -0.004775163717567921,
						"suppos": -0.09467234462499619,
						"hear": 0.1720191240310669,
						"discuss": 0.04437100887298584,
						"so": 0.050578515976667404,
						"kid": -0.13760000467300415,
						"unauthor": 0.00776677206158638,
						"visitor": -0.03385092318058014,
						"access": -0.1460874229669571,
						"proof": -0.03849804773926735,
						"puzzl": 0.22390955686569214,
						"type": -0.11425791680812836,
						"concern": 0.018645310774445534,
						"shuttl": -0.12105484306812286,
						"talk": 0.10654404759407043,
						"alon": -0.18324460089206696,
						"mayb": 0.04778049886226654,
						"go": -0.023160412907600403,
						"space": -0.1845867931842804,
						"behind": 0.00593811459839344,
						"belong": 0.02450401708483696,
						"inform": -0.01709103211760521,
						"mai": 0.06261143833398819,
						"upset": -0.19364802539348602,
						"person": 0.18604202568531036,
						"usual": 0.08158770203590393,
						"airplan": -0.052956365048885345,
						"alwai": -0.0613240972161293,
						"assum": 0.06897491961717606,
						"spacecraft": 0.08500257134437561,
						"run": 0.14588086307048798,
						"unusu": -0.146630197763443,
						"problem": -0.026456717401742935,
						"protocol": -0.0016983203822746873,
						"violat": 0.0184741523116827,
						"miss": 0.18602071702480316,
						"correct": -0.016560301184654236,
						"code": -0.09905208647251129,
						"want": -0.019935820251703262,
						"room": 0.08867325633764267,
						"us": 0.13336822390556335,
						"think": 0.20970307290554047,
						"solv": -0.14582966268062592,
						"privat": 0.10649540275335312,
						"board": -0.05621461197733879,
						"like": 0.0003519679303281009,
						"measur": 0.12480751425027847,
						"main": 0.08402686566114426,
						"control": 0.006799781695008278,
						"convers": 0.057148128747940063,
						"kept": -0.13955074548721313,
						"ensur": -0.06368663907051086,
						"seal": 0.17370547354221344,
						"request": 0.1843840479850769,
						"matter": 0.1897803544998169,
						"involv": -0.1943383812904358,
						"speak": -0.20074845850467682,
						"uninvit": -0.08560319989919662,
						"it": -0.12419599294662476,
						"cabin": -0.17931774258613586,
						"remain": 0.09341903030872345,
						"captain": 0.005532139912247658,
						"protect": -0.005312928464263678,
						"ship": 0.015485165640711784,
						"locat": -0.11309085786342621,
						"sh": -0.1463525891304016,
						"shut": -0.12306615710258484,
						"order": -0.11280295997858047,
						"scare": 0.147412970662117,
						"hand": 0.02083522267639637,
						"potenti": 0.1395242065191269,
						"danger": -0.0905061811208725,
						"sure": 0.027018385007977486,
						"someth": -0.14615242183208466,
						"happen": -0.04706600680947304,
						"itself": -0.0840294361114502,
						"move": -0.11647675186395645,
						"path": -0.09734424948692322,
						"pilot": -0.05694044753909111,
						"wish": 0.1150827407836914,
						"seriou": -0.1866775006055832,
						"fear": -0.022952850908041,
						"tell": -0.029793687164783478,
						"issu": 0.06539680808782578,
						"occur": -0.15091152489185333,
						"dure": -0.17291146516799927,
						"flight": -0.10958833992481232,
						"announc": -0.010433485731482506,
						"onboard": -0.0237612035125494,
						"told": 0.05359608680009842,
						"everyon": 0.1712668240070343,
						"els": -0.018950901925563812,
						"stop": -0.10698150098323822,
						"fly": 0.19015872478485107,
						"handl": -0.1324085295200348,
						"emerg": 0.06436490267515182,
						"hold": 0.14660890400409698,
						"brief": 0.06592116504907608,
						"doe": -0.06329338252544403,
						"appear": -0.007173809222877026,
						"get": -0.04307635501027107,
						"import": -0.14288368821144104,
						"share": -0.07671678066253662,
						"invit": -0.07572784274816513,
						"tot": 0.0955549106001854,
						"no": 0.06192736700177193,
						"attend": -0.16946713626384735
					}
				},
				"14": {
					"bias": 0.054991886019706726,
					"weights": {
						"4326": 0.0177109707146883,
						"door": -0.01764538325369358,
						"lock": 0.11403252184391022,
						"keep": -0.13820268213748932,
						"child": -0.03532380983233452,
						"cockpit": -0.06401458382606506,
						"time": 0.24572044610977173,
						"adult": -0.25113698840141296,
						"allow": 0.2571043074131012,
						"insid": 0.09943852573633194,
						"perhap": 0.1165952980518341,
						"probabl": 0.13060790300369263,
						"mosbi": -0.03245743736624718,
						"passeng": -0.04457336291670799,
						"crew": 0.13136933743953705,
						"member": -0.12801651656627655,
						"typic": 0.0447726845741272,
						"secur": 0.20392698049545288,
						"area": -0.0034991560969501734,
						"made": -0.05247163772583008,
						"clear": 0.0916084423661232,
						"reason": 0.00008570169302402064,
						"lead": 0.04419118911027908,
						"meant": 0.20229750871658325,
						"not": -0.06393295526504517,
						"need": 0.20633919537067413,
						"avoid": -0.05731659010052681,
						"youngster": -0.2042166292667389,
						"restrict": -0.2509975731372833,
						"ask": -0.021445257589221,
						"just": -0.15824583172798157,
						"meet": -0.48061954975128174,
						"prevent": 0.0061426241882145405,
						"enter": -0.20173825323581696,
						"caus": 0.06542274355888367,
						"disrupt": 0.05313258618116379,
						"safeti": 0.11520698666572571,
						"precaut": -0.24645105004310608,
						"suppos": 0.32403528690338135,
						"hear": -0.07641950249671936,
						"discuss": -0.04973600432276726,
						"so": -0.13354092836380005,
						"kid": 0.0921463593840599,
						"unauthor": 0.025957660749554634,
						"visitor": 0.08741506934165955,
						"access": -0.21283729374408722,
						"proof": 0.0884210467338562,
						"puzzl": 0.3914026916027069,
						"type": -0.10039877891540527,
						"concern": -0.024351555854082108,
						"shuttl": -0.1553075611591339,
						"talk": -0.17338910698890686,
						"alon": -0.29049521684646606,
						"mayb": 0.22065125405788422,
						"go": 0.20774468779563904,
						"space": -0.008131995797157288,
						"behind": -0.1659425050020218,
						"belong": -0.11129940301179886,
						"inform": -0.2701081335544586,
						"mai": -0.213739275932312,
						"upset": 0.08895925432443619,
						"person": 0.31892669200897217,
						"usual": -0.04887659475207329,
						"airplan": -0.04470265284180641,
						"alwai": 0.04025326669216156,
						"assum": -0.058370206505060196,
						"spacecraft": -0.11541002243757248,
						"run": 0.19089527428150177,
						"unusu": -0.18009768426418304,
						"problem": -0.31533586978912354,
						"protocol": -0.07940768450498581,
						"violat": 0.2551879584789276,
						"miss": 0.20732228457927704,
						"correct": -0.12388115376234055,
						"code": -0.02267550863325596,
						"want": -0.38187867403030396,
						"room": -0.027473315596580505,
						"us": 0.07924629747867584,
						"think": 0.25017842650413513,
						"solv": 0.2713615596294403,
						"privat": -0.14054985344409943,
						"board": -0.08453740179538727,
						"like": -0.050132717937231064,
						"measur": -0.11412663012742996,
						"main": -0.06776248663663864,
						"control": -0.17942896485328674,
						"convers": -0.07536245137453079,
						"kept": 0.1017741709947586,
						"ensur": 0.09727177023887634,
						"seal": 0.16873416304588318,
						"request": 0.09481915086507797,
						"matter": -0.012666672468185425,
						"involv": -0.16899773478507996,
						"speak": -0.2710573673248291,
						"uninvit": -0.16461826860904694,
						"it": 0.09250611811876297,
						"cabin": -0.12209704518318176,
						"remain": 0.10095976293087006,
						"captain": -0.06632214784622192,
						"protect": 0.05503477528691292,
						"ship": 0.05125720053911209,
						"locat": -0.19062553346157074,
						"sh": 0.050539594143629074,
						"shut": -0.022435041144490242,
						"order": -0.08606010675430298,
						"scare": -0.0630120113492012,
						"hand": 0.049921970814466476,
						"potenti": -0.16239933669567108,
						"danger": -0.2209630310535431,
						"sure": 0.16216357052326202,
						"someth": -0.016192743554711342,
						"happen": -0.08816367387771606,
						"itself": 0.008610757067799568,
						"move": -0.0653562918305397,
						"path": 0.20594029128551483,
						"pilot": -0.1605965793132782,
						"wish": 0.03525228053331375,
						"seriou": -0.09158483147621155,
						"fear": 0.06580144912004471,
						"tell": -0.04054958000779152,
						"issu": -0.18349239230155945,
						"occur": 0.11949626356363297,
						"dure": -0.20872712135314941,
						"flight": 0.1513952612876892,
						"announc": -0.13534776866436005,
						"onboard": 0.028236564248800278,
						"told": -0.003869809443131089,
						"everyon": 0.1414167284965515,
						"els": 0.02638613060116768,
						"stop": -0.12505421042442322,
						"fly": 0.018944311887025833,
						"handl": 0.06325123459100723,
						"emerg": -0.06942795217037201,
						"hold": -0.21072030067443848,
						"brief": 0.0285005122423172,
						"doe": 0.007313345558941364,
						"appear": -0.00032214095699600875,
						"get": -0.1249862015247345,
						"import": 0.13916555047035217,
						"share": 0.0005254042916931212,
						"invit": -0.1273641735315323,
						"tot": -0.23706373572349548,
						"no": -0.21374280750751495,
						"attend": -0.08229533582925797
					}
				},
				"15": {
					"bias": -0.05974620208144188,
					"weights": {
						"4326": -0.19018815457820892,
						"door": -0.03621380403637886,
						"lock": -0.07981124520301819,
						"keep": 0.11589258164167404,
						"child": -0.13631150126457214,
						"cockpit": 0.18175871670246124,
						"time": 0.06973361223936081,
						"adult": 0.05958022177219391,
						"allow": -0.1316903978586197,
						"insid": 0.11536062508821487,
						"perhap": -0.08689547330141068,
						"probabl": -0.15603415668010712,
						"mosbi": -0.10258976370096207,
						"passeng": 0.0870242565870285,
						"crew": -0.1112937480211258,
						"member": -0.11500001698732376,
						"typic": -0.07541793584823608,
						"secur": 0.024396343156695366,
						"area": 0.13318616151809692,
						"made": 0.12660372257232666,
						"clear": -0.16644392907619476,
						"reason": 0.08181629329919815,
						"lead": -0.14937281608581543,
						"meant": -0.011654507368803024,
						"not": -0.04393796995282173,
						"need": 0.10414568334817886,
						"avoid": 0.07209692150354385,
						"youngster": -0.011657068505883217,
						"restrict": 0.008970855735242367,
						"ask": -0.019652772694826126,
						"just": -0.14349374175071716,
						"meet": -0.23497143387794495,
						"prevent": -0.157094806432724,
						"enter": 0.18928207457065582,
						"caus": -0.06737983971834183,
						"disrupt": -0.20148171484470367,
						"safeti": 0.13641150295734406,
						"precaut": -0.15349268913269043,
						"suppos": -0.13960210978984833,
						"hear": -0.16926711797714233,
						"discuss": -0.19347110390663147,
						"so": 0.09036751836538315,
						"kid": -0.09497328102588654,
						"unauthor": -0.18371129035949707,
						"visitor": 0.034469831734895706,
						"access": 0.16511565446853638,
						"proof": 0.02062809281051159,
						"puzzl": -0.07829227298498154,
						"type": 0.08718518912792206,
						"concern": -0.05894707515835762,
						"shuttl": 0.0160391665995121,
						"talk": 0.04670998826622963,
						"alon": -0.07046664506196976,
						"mayb": -0.16469284892082214,
						"go": 0.1758289784193039,
						"space": -0.021079447120428085,
						"behind": -0.08890056610107422,
						"belong": -0.14167818427085876,
						"inform": -0.12583500146865845,
						"mai": 0.05457058176398277,
						"upset": 0.14187735319137573,
						"person": -0.12031019479036331,
						"usual": 0.012084323912858963,
						"airplan": 0.07367706298828125,
						"alwai": 0.12278822064399719,
						"assum": -0.07974459230899811,
						"spacecraft": 0.11100448668003082,
						"run": 0.12964394688606262,
						"unusu": 0.08382278680801392,
						"problem": 0.020420493558049202,
						"protocol": -0.1830848753452301,
						"violat": -0.05251694843173027,
						"miss": 0.13250428438186646,
						"correct": -0.16353493928909302,
						"code": 0.005541352089494467,
						"want": -0.20575259625911713,
						"room": 0.10811455547809601,
						"us": 0.08176764845848083,
						"think": -0.14525119960308075,
						"solv": 0.1363639086484909,
						"privat": 0.00817593839019537,
						"board": -0.17672844231128693,
						"like": 0.09609930217266083,
						"measur": -0.11647343635559082,
						"main": 0.05109535902738571,
						"control": 0.1854984611272812,
						"convers": -0.03590128943324089,
						"kept": -0.010249619372189045,
						"ensur": 0.04144323244690895,
						"seal": -0.1951974630355835,
						"request": -0.019133832305669785,
						"matter": -0.060040466487407684,
						"involv": 0.13095971941947937,
						"speak": 0.05248996242880821,
						"uninvit": 0.15826566517353058,
						"it": 0.0557531900703907,
						"cabin": 0.09246202558279037,
						"remain": 0.1352936327457428,
						"captain": 0.05155079439282417,
						"protect": 0.173956036567688,
						"ship": -0.2039143443107605,
						"locat": -0.06506404280662537,
						"sh": 0.05826738104224205,
						"shut": -0.1220506802201271,
						"order": 0.11711949855089188,
						"scare": 0.14165818691253662,
						"hand": -0.1561954915523529,
						"potenti": -0.12406133115291595,
						"danger": 0.018548613414168358,
						"sure": 0.09560604393482208,
						"someth": 0.06584947556257248,
						"happen": -0.11306267976760864,
						"itself": -0.006617141887545586,
						"move": 0.023337649181485176,
						"path": 0.0510399304330349,
						"pilot": 0.14875666797161102,
						"wish": -0.011545572429895401,
						"seriou": 0.1903931051492691,
						"fear": -0.02025820128619671,
						"tell": -0.03034616820514202,
						"issu": 0.002205377211794257,
						"occur": 0.015060187317430973,
						"dure": -0.10409273207187653,
						"flight": 0.025153905153274536,
						"announc": -0.0594308041036129,
						"onboard": -0.09143834561109543,
						"told": 0.17800919711589813,
						"everyon": -0.09381561726331711,
						"els": -0.032225776463747025,
						"stop": 0.19498082995414734,
						"fly": 0.13236188888549805,
						"handl": 0.16313369572162628,
						"emerg": 0.15170083940029144,
						"hold": 0.19296695291996002,
						"brief": 0.03912009298801422,
						"doe": 0.0506536066532135,
						"appear": 0.1275571882724762,
						"get": 0.009366024285554886,
						"import": -0.0126117505133152,
						"share": -0.09671910852193832,
						"invit": -0.08029239624738693,
						"tot": 0.09943282604217529,
						"no": 0.049914825707674026,
						"attend": 0.11271107941865921
					}
				},
				"16": {
					"bias": 0.009164749644696712,
					"weights": {
						"4326": 0.18353688716888428,
						"door": -0.11987902224063873,
						"lock": 0.1273132562637329,
						"keep": -0.020961470901966095,
						"child": -0.25239118933677673,
						"cockpit": -0.05253762751817703,
						"time": 0.016938410699367523,
						"adult": -0.2573000490665436,
						"allow": 0.2386438101530075,
						"insid": -0.012577243149280548,
						"perhap": -0.2101631611585617,
						"probabl": -0.029489580541849136,
						"mosbi": 0.1505616456270218,
						"passeng": 0.11976272612810135,
						"crew": 0.07784171402454376,
						"member": -0.10144097357988358,
						"typic": -0.09491705149412155,
						"secur": 0.23091401159763336,
						"area": -0.3169853687286377,
						"made": 0.07137293368577957,
						"clear": -0.0889979675412178,
						"reason": 0.10632137954235077,
						"lead": 0.1328630894422531,
						"meant": 0.03974810987710953,
						"not": -0.03402373939752579,
						"need": -0.003045273944735527,
						"avoid": -0.25646859407424927,
						"youngster": -0.016003714874386787,
						"restrict": -0.17785413563251495,
						"ask": -0.1143522709608078,
						"just": 0.15087436139583588,
						"meet": -0.6025351285934448,
						"prevent": 0.03986724466085434,
						"enter": -0.20924922823905945,
						"caus": -0.011191884987056255,
						"disrupt": -0.1658964306116104,
						"safeti": 0.3231998682022095,
						"precaut": -0.037795063108205795,
						"suppos": 0.010666842572391033,
						"hear": 0.10438324511051178,
						"discuss": -0.09124978631734848,
						"so": -0.09499707072973251,
						"kid": -0.14989399909973145,
						"unauthor": 0.09660303592681885,
						"visitor": -0.22756007313728333,
						"access": -0.14562854170799255,
						"proof": -0.06595262140035629,
						"puzzl": 0.4355156123638153,
						"type": 0.053962189704179764,
						"concern": -0.023691847920417786,
						"shuttl": 0.1231125146150589,
						"talk": -0.10406811535358429,
						"alon": -0.08448050171136856,
						"mayb": 0.20633870363235474,
						"go": -0.027684498578310013,
						"space": -0.1745404750108719,
						"behind": 0.16089504957199097,
						"belong": 0.062258053570985794,
						"inform": -0.18468549847602844,
						"mai": -0.17326724529266357,
						"upset": -0.2309328019618988,
						"person": 0.4116641879081726,
						"usual": 0.11750849336385727,
						"airplan": 0.1782294660806656,
						"alwai": -0.0986594632267952,
						"assum": 0.15408910810947418,
						"spacecraft": -0.06650327891111374,
						"run": 0.16158072650432587,
						"unusu": 0.0572841614484787,
						"problem": -0.12609948217868805,
						"protocol": 0.17342554032802582,
						"violat": 0.2026490867137909,
						"miss": 0.1511690467596054,
						"correct": 0.1124824583530426,
						"code": 0.1367543637752533,
						"want": -0.21664439141750336,
						"room": -0.05750185623764992,
						"us": 0.20227481424808502,
						"think": 0.1226038932800293,
						"solv": 0.2730382978916168,
						"privat": -0.2884314954280853,
						"board": 0.01671329140663147,
						"like": 0.09178611636161804,
						"measur": -0.14136096835136414,
						"main": -0.0026811514981091022,
						"control": 0.000091323941887822,
						"convers": -0.03621729463338852,
						"kept": 0.0905931144952774,
						"ensur": 0.12008914351463318,
						"seal": -0.20285174250602722,
						"request": -0.010335166938602924,
						"matter": 0.028596166521310806,
						"involv": -0.11867009103298187,
						"speak": -0.28302517533302307,
						"uninvit": 0.06577493250370026,
						"it": 0.06989782303571701,
						"cabin": 0.07934454828500748,
						"remain": 0.19099406898021698,
						"captain": 0.2330087423324585,
						"protect": 0.07631364464759827,
						"ship": -0.17694225907325745,
						"locat": -0.18767479062080383,
						"sh": -0.16261334717273712,
						"shut": -0.12518377602100372,
						"order": -0.11851364374160767,
						"scare": -0.1698140799999237,
						"hand": 0.11236867308616638,
						"potenti": 0.05661310255527496,
						"danger": -0.05200653895735741,
						"sure": -0.09352727234363556,
						"someth": 0.09468016773462296,
						"happen": 0.21027681231498718,
						"itself": 0.2018776684999466,
						"move": 0.17836013436317444,
						"path": 0.15628677606582642,
						"pilot": 0.10058552026748657,
						"wish": -0.1927977353334427,
						"seriou": 0.004431542940437794,
						"fear": -0.14607200026512146,
						"tell": 0.05549823120236397,
						"issu": -0.253506064414978,
						"occur": 0.07347574084997177,
						"dure": 0.11743200570344925,
						"flight": -0.06793194264173508,
						"announc": -0.1752392053604126,
						"onboard": 0.11174401640892029,
						"told": -0.17912928760051727,
						"everyon": -0.1743183434009552,
						"els": -0.14815954864025116,
						"stop": 0.18256565928459167,
						"fly": 0.23725181818008423,
						"handl": 0.08412880450487137,
						"emerg": -0.06309252977371216,
						"hold": -0.20305880904197693,
						"brief": -0.004370122216641903,
						"doe": -0.21700885891914368,
						"appear": 0.14917722344398499,
						"get": -0.06880663335323334,
						"import": 0.014373519457876682,
						"share": 0.02848895825445652,
						"invit": -0.10381584614515305,
						"tot": -0.015880366787314415,
						"no": 0.04500284045934677,
						"attend": -0.03991418704390526
					}
				},
				"17": {
					"bias": 0.14452041685581207,
					"weights": {
						"4326": -0.15692433714866638,
						"door": -0.22099129855632782,
						"lock": 0.18501919507980347,
						"keep": -0.16832715272903442,
						"child": -0.07382336258888245,
						"cockpit": 0.025904882699251175,
						"time": 0.04906338080763817,
						"adult": -0.07014335691928864,
						"allow": 0.21905595064163208,
						"insid": -0.08963804692029953,
						"perhap": -0.1426263153553009,
						"probabl": -0.13442273437976837,
						"mosbi": 0.03205171972513199,
						"passeng": -0.1671588271856308,
						"crew": -0.033664919435977936,
						"member": 0.06493524461984634,
						"typic": -0.03359692543745041,
						"secur": 0.24059776961803436,
						"area": 0.08870211243629456,
						"made": 0.052927758544683456,
						"clear": -0.13489043712615967,
						"reason": 0.15009015798568726,
						"lead": -0.16388151049613953,
						"meant": -0.05046777427196503,
						"not": 0.018989579752087593,
						"need": 0.041236959397792816,
						"avoid": 0.06106934696435928,
						"youngster": 0.07857126742601395,
						"restrict": -0.06797520816326141,
						"ask": -0.06773098558187485,
						"just": -0.08991967141628265,
						"meet": -0.19609661400318146,
						"prevent": 0.14358723163604736,
						"enter": 0.12560881674289703,
						"caus": 0.03897334635257721,
						"disrupt": -0.07411742210388184,
						"safeti": -0.010167633183300495,
						"precaut": -0.0224316269159317,
						"suppos": 0.017487717792391777,
						"hear": 0.09539762139320374,
						"discuss": 0.11500725150108337,
						"so": -0.23513789474964142,
						"kid": 0.14431503415107727,
						"unauthor": 0.12736304104328156,
						"visitor": -0.12138895690441132,
						"access": -0.05159168317914009,
						"proof": 0.009983858093619347,
						"puzzl": 0.002227687044069171,
						"type": 0.0018159598112106323,
						"concern": -0.13571470975875854,
						"shuttl": -0.023547200486063957,
						"talk": 0.178418830037117,
						"alon": 0.05203518271446228,
						"mayb": 0.2043565809726715,
						"go": -0.004186137579381466,
						"space": 0.14996951818466187,
						"behind": 0.08282787352800369,
						"belong": -0.15717428922653198,
						"inform": 0.07615607976913452,
						"mai": -0.11337938904762268,
						"upset": 0.07635519653558731,
						"person": 0.13057681918144226,
						"usual": -0.03947661072015762,
						"airplan": 0.21806131303310394,
						"alwai": -0.0382053442299366,
						"assum": -0.14840373396873474,
						"spacecraft": -0.17664261162281036,
						"run": 0.13208119571208954,
						"unusu": 0.15473949909210205,
						"problem": -0.10197845846414566,
						"protocol": 0.13496193289756775,
						"violat": -0.12314850836992264,
						"miss": 0.15668486058712006,
						"correct": 0.2046906054019928,
						"code": 0.1931726187467575,
						"want": -0.15217581391334534,
						"room": 0.025143610313534737,
						"us": -0.0014748491812497377,
						"think": -0.1259327381849289,
						"solv": -0.0689246878027916,
						"privat": -0.1298813819885254,
						"board": -0.13393248617649078,
						"like": 0.13207325339317322,
						"measur": 0.050794683396816254,
						"main": -0.16461056470870972,
						"control": -0.20124636590480804,
						"convers": -0.0889633297920227,
						"kept": -0.16471177339553833,
						"ensur": 0.031336236745119095,
						"seal": 0.1662575751543045,
						"request": -0.04087916016578674,
						"matter": 0.00442945072427392,
						"involv": -0.188725546002388,
						"speak": 0.09631821513175964,
						"uninvit": 0.09463726729154587,
						"it": 0.0877593606710434,
						"cabin": -0.15505114197731018,
						"remain": -0.04313795268535614,
						"captain": -0.114997997879982,
						"protect": 0.1353500336408615,
						"ship": 0.02558627724647522,
						"locat": 0.09629090130329132,
						"sh": -0.20160244405269623,
						"shut": -0.003839716548100114,
						"order": 0.06417692452669144,
						"scare": -0.1158357560634613,
						"hand": -0.030471837148070335,
						"potenti": -0.12979528307914734,
						"danger": 0.07779046148061752,
						"sure": 0.027983427047729492,
						"someth": 0.07851187139749527,
						"happen": 0.1260790079832077,
						"itself": -0.026543037965893745,
						"move": 0.01810031570494175,
						"path": -0.01954948529601097,
						"pilot": -0.06321932375431061,
						"wish": -0.2302004098892212,
						"seriou": 0.16155534982681274,
						"fear": -0.043556179851293564,
						"tell": 0.08660310506820679,
						"issu": -0.1148565262556076,
						"occur": -0.20661810040473938,
						"dure": 0.1593821793794632,
						"flight": 0.06129609793424606,
						"announc": 0.10689397901296616,
						"onboard": 0.17389103770256042,
						"told": -0.0848935917019844,
						"everyon": -0.02943534217774868,
						"els": -0.00763835059478879,
						"stop": 0.1717214286327362,
						"fly": 0.099405437707901,
						"handl": -0.06029563769698143,
						"emerg": 0.13915258646011353,
						"hold": -0.06742691248655319,
						"brief": -0.019536353647708893,
						"doe": 0.03789685294032097,
						"appear": -0.0513775572180748,
						"get": -0.1863575279712677,
						"import": -0.005107257515192032,
						"share": 0.1734503209590912,
						"invit": -0.01624012179672718,
						"tot": 0.021218404173851013,
						"no": -0.022183971479535103,
						"attend": -0.014780029654502869
					}
				},
				"18": {
					"bias": 0.06085770204663277,
					"weights": {
						"4326": -0.10352317988872528,
						"door": -0.15063588321208954,
						"lock": -0.08730587363243103,
						"keep": -0.21392501890659332,
						"child": 0.020270414650440216,
						"cockpit": 0.006949815433472395,
						"time": 0.07681766897439957,
						"adult": -0.21230816841125488,
						"allow": 0.20981821417808533,
						"insid": 0.0921531543135643,
						"perhap": -0.09634186327457428,
						"probabl": 0.17846743762493134,
						"mosbi": -0.1617187261581421,
						"passeng": 0.03709578141570091,
						"crew": 0.1634303778409958,
						"member": -0.038883276283741,
						"typic": -0.20045454800128937,
						"secur": 0.2101728320121765,
						"area": 0.024638649076223373,
						"made": -0.05819482356309891,
						"clear": 0.14134903252124786,
						"reason": 0.007399014197289944,
						"lead": -0.12082826346158981,
						"meant": 0.024262946099042892,
						"not": -0.10712198168039322,
						"need": 0.16857147216796875,
						"avoid": -0.07620938867330551,
						"youngster": -0.10970959812402725,
						"restrict": -0.1387699395418167,
