{
	"createNewObjectString": "function classifierFun() {\r\n    const limdu = require('limdu');\r\n    return new limdu.classifiers.NeuralNetwork();\r\n}",
	"object": {
		"sizes": [
			225,
			112,
			1
		],
		"layers": [
			{
				"1": {},
				"imagin": {},
				"not": {},
				"realli": {},
				"father": {},
				"shiranna": {},
				"suck": {},
				"black": {},
				"hole": {},
				"just": {},
				"she": {},
				"bump": {},
				"head": {},
				"seem": {},
				"dad": {},
				"magic": {},
				"appear": {},
				"when": {},
				"face": {},
				"life": {},
				"threaten": {},
				"event": {},
				"own": {},
				"comfort": {},
				"time": {},
				"greatest": {},
				"need": {},
				"even": {},
				"though": {},
				"physic": {},
				"aliv": {},
				"so": {},
				"cool": {},
				"fade": {},
				"awai": {},
				"actual": {},
				"th": {},
				"space": {},
				"ship": {},
				"accid": {},
				"believ": {},
				"happen": {},
				"year": {},
				"ago": {},
				"babi": {},
				"doe": {},
				"know": {},
				"visual": {},
				"represent": {},
				"absenc": {},
				"disappear": {},
				"subconsci": {},
				"accept": {},
				"likelihood": {},
				"death": {},
				"moment": {},
				"hit": {},
				"think": {},
				"sai": {},
				"thing": {},
				"reassur": {},
				"call": {},
				"feel": {},
				"textur": {},
				"hand": {},
				"wheh": {},
				"bloack": {},
				"author": {},
				"reason": {},
				"start": {},
				"wake": {},
				"begin": {},
				"get": {},
				"lost": {},
				"malfunct": {},
				"spacecraft": {},
				"probabl": {},
				"real": {},
				"di": {},
				"impli": {},
				"book": {},
				"mention": {},
				"suffer": {},
				"fate": {},
				"nightmar": {},
				"possibl": {},
				"realiti": {},
				"literari": {},
				"devic": {},
				"us": {},
				"show": {},
				"manner": {},
				"went": {},
				"pass": {},
				"horizon": {},
				"man": {},
				"push": {},
				"against": {},
				"wall": {},
				"1st": {},
				"part": {},
				"due": {},
				"conscious": {},
				"consid": {},
				"mai": {},
				"child": {},
				"littl": {},
				"memori": {},
				"sh": {},
				"around": {},
				"grow": {},
				"heard": {},
				"stori": {},
				"miss": {},
				"mission": {},
				"place": {},
				"pull": {},
				"particl": {},
				"repres": {},
				"fact": {},
				"go": {},
				"usual": {},
				"mean": {},
				"solar": {},
				"storm": {},
				"kill": {},
				"dure": {},
				"travel": {},
				"indic": {},
				"vacuum": {},
				"see": {},
				"either": {},
				"dead": {},
				"leav": {},
				"no": {},
				"trace": {},
				"reliv": {},
				"trauma": {},
				"lose": {},
				"young": {},
				"wit": {},
				"kidnap": {},
				"end": {},
				"drift": {},
				"unknown": {},
				"outer": {},
				"point": {},
				"situat": {},
				"will": {},
				"cascad": {},
				"dark": {},
				"fly": {},
				"shuttl": {},
				"girl": {},
				"pictur": {},
				"loss": {},
				"state": {},
				"illustr": {},
				"expedit": {},
				"conceptu": {},
				"whether": {},
				"perhap": {},
				"descript": {},
				"ocean": {},
				"caus": {},
				"vision": {},
				"flashback": {},
				"gain": {},
				"dream": {},
				"definit": {},
				"anyth": {},
				"goe": {},
				"mind": {},
				"have": {},
				"gone": {},
				"ao": {},
				"invent": {},
				"demis": {},
				"childhood": {},
				"explor": {},
				"noth": {},
				"escap": {},
				"make": {},
				"sens": {},
				"afraid": {},
				"dy": {},
				"gravit": {},
				"onc": {},
				"object": {},
				"reach": {},
				"return": {},
				"imposs": {},
				"forc": {},
				"awaken": {},
				"held": {},
				"translat": {},
				"experi": {},
				"good": {},
				"question": {},
				"reunit": {},
				"world": {},
				"rip": {},
				"known": {},
				"felt": {},
				"heartach": {},
				"grasp": {},
				"told": {},
				"video": {},
				"mom": {},
				"knew": {},
				"conjur": {},
				"stand": {},
				"remind": {},
				"taken": {},
				"thought": {},
				"process": {},
				"bad": {},
				"new": {},
				"current": {},
				"hear": {},
				"understand": {},
				"metaphor": {},
				"shirannna": {},
				"regain": {},
				"longer": {}
			},
			{
				"0": {
					"bias": -0.007476735394448042,
					"weights": {
						"1": 0.13781991600990295,
						"imagin": -0.12526558339595795,
						"not": -0.10142909735441208,
						"realli": -0.11380017548799515,
						"father": 0.10204949229955673,
						"shiranna": -0.05080915242433548,
						"suck": 0.2537895441055298,
						"black": -0.2051926851272583,
						"hole": -0.017438584938645363,
						"just": -0.11693038791418076,
						"she": 0.18476295471191406,
						"bump": -0.2618090808391571,
						"head": -0.21425120532512665,
						"seem": 0.07763594388961792,
						"dad": -0.11844335496425629,
						"magic": 0.1252618283033371,
						"appear": -0.005067942198365927,
						"when": 0.06793489307165146,
						"face": 0.12778522074222565,
						"life": 0.07225494086742401,
						"threaten": 0.1721324771642685,
						"event": -0.17024774849414825,
						"own": -0.012101919390261173,
						"comfort": 0.10740935802459717,
						"time": 0.057474009692668915,
						"greatest": 0.014513306319713593,
						"need": -0.18980087339878082,
						"even": 0.13396985828876495,
						"though": -0.13854540884494781,
						"physic": 0.006157849915325642,
						"aliv": -0.023741938173770905,
						"so": 0.18464700877666473,
						"cool": 0.08351802825927734,
						"fade": -0.10395164787769318,
						"awai": 0.311784565448761,
						"actual": -0.13742002844810486,
						"th": 0.12568192183971405,
						"space": 0.29343879222869873,
						"ship": -0.08395330607891083,
						"accid": -0.1559828668832779,
						"believ": -0.05848689749836922,
						"happen": -0.18579933047294617,
						"year": -0.17789563536643982,
						"ago": -0.17086488008499146,
						"babi": -0.09461258351802826,
						"doe": -0.0766003355383873,
						"know": -0.10148366540670395,
						"visual": -0.16891202330589294,
						"represent": -0.04677639901638031,
						"absenc": -0.2423986941576004,
						"disappear": 0.37744927406311035,
						"subconsci": -0.0164268147200346,
						"accept": 0.04900490865111351,
						"likelihood": -0.06650961190462112,
						"death": -0.20899277925491333,
						"moment": -0.14480699598789215,
						"hit": 0.1439705640077591,
						"think": 0.21925748884677887,
						"sai": -0.004251933190971613,
						"thing": 0.09786446392536163,
						"reassur": 0.11662359535694122,
						"call": 0.017299078404903412,
						"feel": 0.14306575059890747,
						"textur": 0.16891230642795563,
						"hand": 0.029882462695240974,
						"wheh": -0.06731995940208435,
						"bloack": 0.06388702243566513,
						"author": 0.09885463863611221,
						"reason": -0.17882923781871796,
						"start": -0.08468092232942581,
						"wake": 0.07062050700187683,
						"begin": 0.01033024676144123,
						"get": -0.09054619073867798,
						"lost": 0.22670601308345795,
						"malfunct": -0.26904091238975525,
						"spacecraft": -0.2593453824520111,
						"probabl": -0.1117817685008049,
						"real": 0.10540850460529327,
						"di": 0.00388667406514287,
						"impli": 0.17403827607631683,
						"book": 0.13200071454048157,
						"mention": -0.031158488243818283,
						"suffer": -0.11569113284349442,
						"fate": 0.20862850546836853,
						"nightmar": -0.02005767449736595,
						"possibl": -0.13288430869579315,
						"realiti": -0.16881760954856873,
						"literari": -0.08852586150169373,
						"devic": -0.1826486587524414,
						"us": -0.10467429459095001,
						"show": -0.1598803550004959,
						"manner": 0.14387327432632446,
						"went": -0.037802841514348984,
						"pass": -0.03598849102854729,
						"horizon": 0.12966996431350708,
						"man": -0.06383554637432098,
						"push": 0.17434686422348022,
						"against": 0.021876834332942963,
						"wall": -0.10890790075063705,
						"1st": 0.008677239529788494,
						"part": -0.05770755186676979,
						"due": 0.07097733020782471,
						"conscious": 0.1114141047000885,
						"consid": -0.17991726100444794,
						"mai": 0.07530821859836578,
						"child": 0.026663826778531075,
						"littl": 0.12411072105169296,
						"memori": -0.268419086933136,
						"sh": -0.08720503747463226,
						"around": 0.06367966532707214,
						"grow": 0.03162981569766998,
						"heard": -0.06288491189479828,
						"stori": -0.0537586472928524,
						"miss": 0.1460425853729248,
						"mission": 0.19757872819900513,
						"place": 0.14046503603458405,
						"pull": -0.16430874168872833,
						"particl": -0.11123799532651901,
						"repres": 0.03449874371290207,
						"fact": -0.11658049374818802,
						"go": 0.023418191820383072,
						"usual": -0.035965416580438614,
						"mean": -0.10180652886629105,
						"solar": 0.006730929482728243,
						"storm": -0.024959102272987366,
						"kill": 0.030760178342461586,
						"dure": 0.010878078639507294,
						"travel": 0.18391813337802887,
						"indic": 0.15142112970352173,
						"vacuum": 0.173595130443573,
						"see": 0.09995163232088089,
						"either": 0.19318537414073944,
						"dead": 0.0441482737660408,
						"leav": 0.1764935404062271,
						"no": -0.068231962621212,
						"trace": 0.08562304824590683,
						"reliv": 0.056600723415613174,
						"trauma": 0.23426546156406403,
						"lose": 0.10626516491174698,
						"young": -0.013418973423540592,
						"wit": 0.17188499867916107,
						"kidnap": -0.128596231341362,
						"end": 0.05985135957598686,
						"drift": 0.1359657496213913,
						"unknown": 0.201522558927536,
						"outer": -0.05234701931476593,
						"point": -0.11328341066837311,
						"situat": 0.20905886590480804,
						"will": 0.10869887471199036,
						"cascad": -0.19111241400241852,
						"dark": 0.2003716379404068,
						"fly": -0.0843520313501358,
						"shuttl": -0.1275799423456192,
						"girl": 0.08514661341905594,
						"pictur": -0.13757552206516266,
						"loss": -0.1542249619960785,
						"state": 0.012785098515450954,
						"illustr": -0.11501634120941162,
						"expedit": -0.07226986438035965,
						"conceptu": 0.08843591064214706,
						"whether": 0.19284719228744507,
						"perhap": -0.18161524832248688,
						"descript": -0.020212044939398766,
						"ocean": 0.0067106978967785835,
						"caus": -0.0389491468667984,
						"vision": 0.05588192120194435,
						"flashback": -0.0013838672311976552,
						"gain": 0.11600076407194138,
						"dream": -0.0966743752360344,
						"definit": 0.16629739105701447,
						"anyth": -0.16162799298763275,
						"goe": 0.010111394338309765,
						"mind": -0.12343519926071167,
						"have": -0.09982143342494965,
						"gone": 0.09402976930141449,
						"ao": -0.07820762693881989,
						"invent": -0.025425057858228683,
						"demis": 0.011377322487533092,
						"childhood": 0.1602327972650528,
						"explor": -0.003632678184658289,
						"noth": -0.04675990715622902,
						"escap": 0.0426253117620945,
						"make": 0.17303091287612915,
						"sens": 0.1586759090423584,
						"afraid": 0.10663611441850662,
						"dy": -0.1781940907239914,
						"gravit": -0.18359525501728058,
						"onc": -0.15651166439056396,
						"object": 0.1837507039308548,
						"reach": -0.19265106320381165,
						"return": -0.1086064949631691,
						"imposs": -0.17790290713310242,
						"forc": -0.05139830708503723,
						"awaken": -0.17419731616973877,
						"held": 0.04475576430559158,
						"translat": 0.10811454057693481,
						"experi": -0.006060312502086163,
						"good": 0.047757022082805634,
						"question": 0.15720631182193756,
						"reunit": 0.004641836509108543,
						"world": 0.189480260014534,
						"rip": -0.0036685143131762743,
						"known": 0.05127456411719322,
						"felt": 0.021090764552354813,
						"heartach": 0.17055056989192963,
						"grasp": 0.01930660754442215,
						"told": 0.060593198984861374,
						"video": 0.09553027153015137,
						"mom": -0.056811269372701645,
						"knew": -0.08949540555477142,
						"conjur": -0.18177586793899536,
						"stand": -0.07319406419992447,
						"remind": -0.09923452883958817,
						"taken": 0.09215278923511505,
						"thought": -0.07171043008565903,
						"process": -0.00981366727501154,
						"bad": 0.10319818556308746,
						"new": -0.0662110298871994,
						"current": 0.18930496275424957,
						"hear": 0.01072076428681612,
						"understand": 0.045199718326330185,
						"metaphor": -0.0382913276553154,
						"shirannna": 0.0006782029522582889,
						"regain": -0.14369095861911774,
						"longer": -0.1760183423757553
					}
				},
				"1": {
					"bias": 0.08438608050346375,
					"weights": {
						"1": 0.15229029953479767,
						"imagin": -0.07447382062673569,
						"not": -0.17225342988967896,
						"realli": -0.07300351560115814,
						"father": -0.21729543805122375,
						"shiranna": 0.16373661160469055,
						"suck": -0.17859399318695068,
						"black": 0.0004831092956010252,
						"hole": -0.18125522136688232,
						"just": 0.0703420415520668,
						"she": -0.14703702926635742,
						"bump": -0.02641149051487446,
						"head": -0.11201038211584091,
						"seem": 0.09744783490896225,
						"dad": 0.07686806470155716,
						"magic": -0.18875648081302643,
						"appear": -0.03754041716456413,
						"when": 0.036247674375772476,
						"face": -0.11805608123540878,
						"life": -0.17115212976932526,
						"threaten": 0.14995220303535461,
						"event": -0.11205311864614487,
						"own": -0.09580110758543015,
						"comfort": 0.10983266681432724,
						"time": -0.17420299351215363,
						"greatest": 0.028279580175876617,
						"need": -0.1248045340180397,
						"even": -0.09158209711313248,
						"though": -0.18031179904937744,
						"physic": 0.07667438685894012,
						"aliv": 0.08996636420488358,
						"so": 0.18025769293308258,
						"cool": 0.18374937772750854,
						"fade": 0.16288955509662628,
						"awai": -0.03226735442876816,
						"actual": 0.07224524766206741,
						"th": -0.1399228572845459,
						"space": 0.1410691738128662,
						"ship": -0.19796404242515564,
						"accid": 0.1938408464193344,
						"believ": 0.18898633122444153,
						"happen": 0.15625692903995514,
						"year": -0.12448865175247192,
						"ago": -0.10470442473888397,
						"babi": 0.19506943225860596,
						"doe": 0.10901450365781784,
						"know": -0.1480759233236313,
						"visual": 0.0003204423119314015,
						"represent": -0.17377465963363647,
						"absenc": 0.17862313985824585,
						"disappear": 0.027554575353860855,
						"subconsci": -0.04197917506098747,
						"accept": -0.05015839636325836,
						"likelihood": -0.0232534259557724,
						"death": -0.13918747007846832,
						"moment": -0.009942704811692238,
						"hit": -0.034388355910778046,
						"think": -0.18062128126621246,
						"sai": -0.01148977130651474,
						"thing": 0.16504241526126862,
						"reassur": 0.08271517604589462,
						"call": -0.1414809674024582,
						"feel": 0.1471049189567566,
						"textur": 0.013566460460424423,
						"hand": 0.11257625371217728,
						"wheh": 0.0416637547314167,
						"bloack": -0.04517010971903801,
						"author": -0.12462107837200165,
						"reason": -0.13646724820137024,
						"start": -0.08852993696928024,
						"wake": -0.13971813023090363,
						"begin": -0.039002057164907455,
						"get": 0.16275367140769958,
						"lost": 0.14064401388168335,
						"malfunct": 0.009417649358510971,
						"spacecraft": 0.1580970287322998,
						"probabl": 0.04656824842095375,
						"real": 0.1081409901380539,
						"di": 0.09135860204696655,
						"impli": -0.08071072399616241,
						"book": -0.012412967160344124,
						"mention": -0.19777967035770416,
						"suffer": -0.07317184656858444,
						"fate": -0.11389105767011642,
						"nightmar": 0.16383317112922668,
						"possibl": 0.1985459327697754,
						"realiti": -0.16714514791965485,
						"literari": 0.17056357860565186,
						"devic": 0.19779255986213684,
						"us": -0.11313582956790924,
						"show": -0.08244844526052475,
						"manner": 0.02029525861144066,
						"went": 0.12740638852119446,
						"pass": -0.038520973175764084,
						"horizon": -0.11027725040912628,
						"man": 0.12628161907196045,
						"push": -0.09562663733959198,
						"against": -0.06387040764093399,
						"wall": 0.1730210930109024,
						"1st": -0.1597565859556198,
						"part": -0.1545126587152481,
						"due": -0.05255371332168579,
						"conscious": 0.04337666183710098,
						"consid": 0.18899136781692505,
						"mai": -0.10982909053564072,
						"child": 0.013386419974267483,
						"littl": -0.18235304951667786,
						"memori": -0.1475575715303421,
						"sh": 0.005497245118021965,
						"around": 0.0559462234377861,
						"grow": -0.013064729981124401,
						"heard": -0.014289441518485546,
						"stori": -0.03549005836248398,
						"miss": 0.08478384464979172,
						"mission": 0.16714823246002197,
						"place": 0.042091138660907745,
						"pull": -0.024387286975979805,
						"particl": -0.0803382471203804,
						"repres": 0.10154388099908829,
						"fact": -0.18698237836360931,
						"go": 0.09624647349119186,
						"usual": -0.11042796075344086,
						"mean": 0.10716884583234787,
						"solar": -0.1037134975194931,
						"storm": -0.1302383840084076,
						"kill": 0.056191083043813705,
						"dure": 0.12325289845466614,
						"travel": -0.1480025351047516,
						"indic": 0.06797962635755539,
						"vacuum": 0.03742941468954086,
						"see": -0.06663935631513596,
						"either": -0.17944367229938507,
						"dead": -0.1920236200094223,
						"leav": 0.15150035917758942,
						"no": -0.11313792318105698,
						"trace": 0.12674076855182648,
						"reliv": -0.03873429074883461,
						"trauma": -0.15060004591941833,
						"lose": 0.10430954396724701,
						"young": -0.11635037511587143,
						"wit": -0.02747143991291523,
						"kidnap": 0.18987897038459778,
						"end": -0.1628904938697815,
						"drift": 0.1416722536087036,
						"unknown": -0.17982885241508484,
						"outer": -0.0507352240383625,
						"point": 0.018636485561728477,
						"situat": 0.14437197148799896,
						"will": 0.18359114229679108,
						"cascad": -0.010248782113194466,
						"dark": 0.07283176481723785,
						"fly": 0.03282136842608452,
						"shuttl": 0.02119368501007557,
						"girl": -0.13026705384254456,
						"pictur": -0.07095004618167877,
						"loss": 0.1741819530725479,
						"state": 0.16803841292858124,
						"illustr": 0.06390092521905899,
						"expedit": 0.10049183666706085,
						"conceptu": -0.0946117416024208,
						"whether": 0.16491827368736267,
						"perhap": 0.18901655077934265,
						"descript": 0.1833469718694687,
						"ocean": 0.10321798175573349,
						"caus": 0.12940853834152222,
						"vision": 0.16680492460727692,
						"flashback": -0.04762471467256546,
						"gain": 0.0662183091044426,
						"dream": -0.12678219377994537,
						"definit": 0.15683823823928833,
						"anyth": -0.09029141068458557,
						"goe": -0.09406063705682755,
						"mind": 0.16527558863162994,
						"have": -0.1316950023174286,
						"gone": -0.14551493525505066,
						"ao": 0.1593908965587616,
						"invent": 0.12083932012319565,
						"demis": 0.10590995848178864,
						"childhood": -0.0012083500623703003,
						"explor": 0.17305374145507812,
						"noth": -0.07108000665903091,
						"escap": -0.047654833644628525,
						"make": -0.1743609607219696,
						"sens": -0.07383642345666885,
						"afraid": -0.013634920120239258,
						"dy": -0.043698616325855255,
						"gravit": 0.05858275666832924,
						"onc": 0.18295826017856598,
						"object": 0.11653481423854828,
						"reach": 0.07510626316070557,
						"return": 0.16037312150001526,
						"imposs": -0.05227675288915634,
						"forc": 0.0887763723731041,
						"awaken": 0.07089130580425262,
						"held": 0.12781749665737152,
						"translat": -0.07262810319662094,
						"experi": 0.18621397018432617,
						"good": 0.05476197227835655,
						"question": -0.14868775010108948,
						"reunit": 0.1942632496356964,
						"world": 0.17464406788349152,
						"rip": 0.1678493320941925,
						"known": 0.08801579475402832,
						"felt": -0.007219195365905762,
						"heartach": 0.13703984022140503,
						"grasp": -0.10752058029174805,
						"told": -0.1782112568616867,
						"video": -0.1847691833972931,
						"mom": -0.14462392032146454,
						"knew": -0.10663764923810959,
						"conjur": 0.08605186641216278,
						"stand": 0.16557031869888306,
						"remind": 0.18250717222690582,
						"taken": -0.03433118015527725,
						"thought": -0.04502903297543526,
						"process": -0.03107967972755432,
						"bad": -0.04750676080584526,
						"new": -0.13287442922592163,
						"current": -0.16067342460155487,
						"hear": 0.17680272459983826,
						"understand": 0.1064034029841423,
						"metaphor": -0.12244579195976257,
						"shirannna": -0.09636054933071136,
						"regain": -0.15445052087306976,
						"longer": -0.1265687197446823
					}
				},
				"2": {
					"bias": -0.18588529527187347,
					"weights": {
						"1": 0.016121309250593185,
						"imagin": -0.15731193125247955,
						"not": 0.00803536456078291,
						"realli": 0.05751512572169304,
						"father": 0.049333974719047546,
						"shiranna": 0.16229499876499176,
						"suck": 0.058658480644226074,
						"black": 0.09179838001728058,
						"hole": -0.14105792343616486,
						"just": -0.18141308426856995,
						"she": -0.06704236567020416,
						"bump": -0.05457945913076401,
						"head": -0.16082732379436493,
						"seem": 0.05293706804513931,
						"dad": -0.05054723098874092,
						"magic": -0.07376296073198318,
						"appear": 0.04962410405278206,
						"when": 0.09322768449783325,
						"face": -0.15615421533584595,
						"life": 0.1125229224562645,
						"threaten": -0.11144105345010757,
						"event": 0.09553484618663788,
						"own": -0.08094082027673721,
						"comfort": 0.11469018459320068,
						"time": -0.012880546040832996,
						"greatest": 0.10084883123636246,
						"need": 0.18784630298614502,
						"even": -0.1534537374973297,
						"though": 0.14427874982357025,
						"physic": -0.1268739551305771,
						"aliv": -0.16649934649467468,
						"so": 0.16109450161457062,
						"cool": -0.10776272416114807,
						"fade": 0.18450632691383362,
						"awai": -0.12973850965499878,
						"actual": 0.02942410670220852,
						"th": -0.005428964272141457,
						"space": 0.22587962448596954,
						"ship": -0.24692009389400482,
						"accid": -0.19542767107486725,
						"believ": -0.17380094528198242,
						"happen": -0.08923684060573578,
						"year": -0.11632344871759415,
						"ago": -0.014302819967269897,
						"babi": 0.14147987961769104,
						"doe": -0.010805808007717133,
						"know": -0.07641316205263138,
						"visual": -0.10569166392087936,
						"represent": 0.165776327252388,
						"absenc": -0.19308409094810486,
						"disappear": 0.18010543286800385,
						"subconsci": -0.1853032410144806,
						"accept": -0.11480209231376648,
						"likelihood": 0.03521537780761719,
						"death": -0.12159077823162079,
						"moment": 0.12208963185548782,
						"hit": 0.1738424152135849,
						"think": -0.022705085575580597,
						"sai": -0.2062917798757553,
						"thing": -0.04865758866071701,
						"reassur": 0.04110265523195267,
						"call": -0.1354457139968872,
						"feel": 0.17321892082691193,
						"textur": -0.2012406885623932,
						"hand": -0.07961396872997284,
						"wheh": -0.12021080404520035,
						"bloack": 0.02080564945936203,
						"author": -0.06241440773010254,
						"reason": -0.044143687933683395,
						"start": -0.1711253821849823,
						"wake": 0.13209551572799683,
						"begin": -0.08750627189874649,
						"get": -0.2435149997472763,
						"lost": -0.03440431132912636,
						"malfunct": -0.08395230025053024,
						"spacecraft": 0.010016165673732758,
						"probabl": -0.12749230861663818,
						"real": 0.21603192389011383,
						"di": 0.034406937658786774,
						"impli": 0.20061905682086945,
						"book": -0.08190862834453583,
						"mention": 0.08879341185092926,
						"suffer": -0.17183026671409607,
						"fate": -0.17229034006595612,
						"nightmar": 0.12326312810182571,
						"possibl": -0.19827616214752197,
						"realiti": -0.12028800696134567,
						"literari": -0.14390799403190613,
						"devic": 0.024917256087064743,
						"us": 0.01937747374176979,
						"show": -0.20226475596427917,
						"manner": -0.06731805950403214,
						"went": 0.03807521611452103,
						"pass": 0.15085719525814056,
						"horizon": -0.09751318395137787,
						"man": 0.011063276790082455,
						"push": -0.06394173204898834,
						"against": -0.00869676098227501,
						"wall": -0.011965564452111721,
						"1st": 0.010921317152678967,
						"part": -0.0297775249928236,
						"due": -0.09109122306108475,
						"conscious": 0.1041424423456192,
						"consid": 0.01599440723657608,
						"mai": 0.04385669529438019,
						"child": -0.03988741338253021,
						"littl": -0.20962978899478912,
						"memori": -0.18659918010234833,
						"sh": -0.06342664361000061,
						"around": 0.08183804154396057,
						"grow": 0.13062037527561188,
						"heard": -0.16837839782238007,
						"stori": 0.1970200389623642,
						"miss": 0.07670801877975464,
						"mission": -0.028712041676044464,
						"place": 0.12882599234580994,
						"pull": -0.16249163448810577,
						"particl": 0.08815760910511017,
						"repres": 0.12204988300800323,
						"fact": 0.08018892258405685,
						"go": 0.020840464159846306,
						"usual": 0.11716806888580322,
						"mean": 0.20193740725517273,
						"solar": 0.07226679474115372,
						"storm": -0.1365305334329605,
						"kill": -0.094662606716156,
						"dure": 0.11462552845478058,
						"travel": -0.19088873267173767,
						"indic": 0.023033343255519867,
						"vacuum": -0.08678261190652847,
						"see": -0.05334566533565521,
						"either": -0.08275842666625977,
						"dead": -0.04973231256008148,
						"leav": 0.2228393852710724,
						"no": -0.10339903831481934,
						"trace": 0.2207944095134735,
						"reliv": 0.088091179728508,
						"trauma": 0.07330962270498276,
						"lose": -0.002623836975544691,
						"young": -0.007394006010144949,
						"wit": -0.05679364874958992,
						"kidnap": 0.18970699608325958,
						"end": -0.05558402091264725,
						"drift": 0.09482958167791367,
						"unknown": 0.01069710124284029,
						"outer": -0.004349646624177694,
						"point": -0.16449320316314697,
						"situat": 0.005358006805181503,
						"will": -0.05328314006328583,
						"cascad": 0.20033803582191467,
						"dark": 0.07505704462528229,
						"fly": -0.1793036013841629,
						"shuttl": -0.0398251973092556,
						"girl": -0.0675170049071312,
						"pictur": 0.03015684336423874,
						"loss": -0.11989946663379669,
						"state": -0.054452624171972275,
						"illustr": -0.13431335985660553,
						"expedit": -0.10332807153463364,
						"conceptu": -0.11067929863929749,
						"whether": -0.07651957124471664,
						"perhap": -0.14246425032615662,
						"descript": -0.06407921761274338,
						"ocean": 0.04594692960381508,
						"caus": -0.19330225884914398,
						"vision": -0.18236717581748962,
						"flashback": 0.12125550210475922,
						"gain": 0.08117431402206421,
						"dream": -0.18867047131061554,
						"definit": -0.07095380127429962,
						"anyth": 0.04483198747038841,
						"goe": -0.04504138231277466,
						"mind": 0.059882644563913345,
						"have": -0.19664649665355682,
						"gone": 0.1289704144001007,
						"ao": 0.06834539026021957,
						"invent": 0.17791728675365448,
						"demis": -0.12324699014425278,
						"childhood": -0.18787789344787598,
						"explor": 0.0640195831656456,
						"noth": -0.09721541404724121,
						"escap": 0.16288739442825317,
						"make": 0.07772264629602432,
						"sens": -0.17505615949630737,
						"afraid": -0.12902303040027618,
						"dy": 0.12129303812980652,
						"gravit": -0.18749883770942688,
						"onc": -0.0744011402130127,
						"object": 0.12740713357925415,
						"reach": -0.09794218093156815,
						"return": -0.14363645017147064,
						"imposs": 0.1501845270395279,
						"forc": 0.014887620694935322,
						"awaken": -0.021246720105409622,
						"held": -0.18409867584705353,
						"translat": 0.19592313468456268,
						"experi": -0.09082578122615814,
						"good": -0.0876208171248436,
						"question": -0.13020829856395721,
						"reunit": 0.025747114792466164,
						"world": -0.12076698243618011,
						"rip": 0.03369951248168945,
						"known": 0.15101607143878937,
						"felt": -0.12487579882144928,
						"heartach": 0.01613222062587738,
						"grasp": -0.03872651234269142,
						"told": -0.08624257892370224,
						"video": -0.026650549843907356,
						"mom": 0.11995486170053482,
						"knew": 0.13908784091472626,
						"conjur": 0.17759934067726135,
						"stand": -0.14272108674049377,
						"remind": 0.1500377207994461,
						"taken": 0.011853496544063091,
						"thought": 0.04057704284787178,
						"process": -0.17221973836421967,
						"bad": 0.13926035165786743,
						"new": -0.08335114270448685,
						"current": 0.13730640709400177,
						"hear": 0.08442867547273636,
						"understand": -0.09583459049463272,
						"metaphor": -0.09951088577508926,
						"shirannna": -0.07981681078672409,
						"regain": 0.1377774029970169,
						"longer": 0.03274162486195564
					}
				},
				"3": {
					"bias": 0.13301438093185425,
					"weights": {
						"1": 0.09920560568571091,
						"imagin": 0.012395151890814304,
						"not": -0.09829488396644592,
						"realli": -0.03570880368351936,
						"father": 0.03511054441332817,
						"shiranna": -0.15702301263809204,
						"suck": -0.041642870754003525,
						"black": 0.03237536922097206,
						"hole": -0.16100682318210602,
						"just": -0.18591392040252686,
						"she": 0.018653586506843567,
						"bump": 0.017861399799585342,
						"head": -0.11493243277072906,
						"seem": 0.07359468191862106,
						"dad": -0.0443483367562294,
						"magic": 0.00034527332172729075,
						"appear": 0.024490945041179657,
						"when": -0.07776319235563278,
						"face": 0.13059939444065094,
						"life": -0.12249081581830978,
						"threaten": 0.17611289024353027,
						"event": -0.013127215206623077,
						"own": 0.11950253695249557,
						"comfort": 0.2008936107158661,
						"time": 0.05266428738832474,
						"greatest": 0.16494660079479218,
						"need": -0.018416283652186394,
						"even": -0.1045776754617691,
						"though": -0.0965263620018959,
						"physic": 0.15665455162525177,
						"aliv": 0.15650366246700287,
						"so": -0.050439730286598206,
						"cool": -0.15037868916988373,
						"fade": 0.1514642983675003,
						"awai": -0.13767173886299133,
						"actual": -0.1819879114627838,
						"th": -0.1037151962518692,
						"space": -0.022975822910666466,
						"ship": 0.14899404346942902,
						"accid": -0.05413154512643814,
						"believ": -0.09092508256435394,
						"happen": -0.18118241429328918,
						"year": -0.05582982674241066,
						"ago": -0.07190153002738953,
						"babi": 0.10374260693788528,
						"doe": 0.09187843650579453,
						"know": -0.12188062816858292,
						"visual": 0.055840034037828445,
						"represent": -0.21307002007961273,
						"absenc": -0.17686279118061066,
						"disappear": 0.18936696648597717,
						"subconsci": -0.014128576032817364,
						"accept": -0.028104424476623535,
						"likelihood": 0.03729034215211868,
						"death": 0.09104861319065094,
						"moment": 0.1715528815984726,
						"hit": -0.02942122519016266,
						"think": -0.06455463916063309,
						"sai": -0.1084836944937706,
						"thing": 0.08470966666936874,
						"reassur": -0.07814322412014008,
						"call": -0.1207447424530983,
						"feel": -0.08208353072404861,
						"textur": 0.06366145610809326,
						"hand": 0.06832937896251678,
						"wheh": -0.20154280960559845,
						"bloack": -0.15830376744270325,
						"author": 0.1611069142818451,
						"reason": 0.13491936028003693,
						"start": -0.11103501170873642,
						"wake": -0.20930126309394836,
						"begin": 0.059779856353998184,
						"get": -0.18583083152770996,
						"lost": 0.2313540130853653,
						"malfunct": -0.019279593601822853,
						"spacecraft": -0.11030538380146027,
						"probabl": -0.15178106725215912,
						"real": 0.19379369914531708,
						"di": -0.0317813977599144,
						"impli": -0.04610265791416168,
						"book": 0.07744459062814713,
						"mention": -0.005068642552942038,
						"suffer": -0.17841583490371704,
						"fate": -0.08064093440771103,
						"nightmar": -0.1382700353860855,
						"possibl": 0.19584515690803528,
						"realiti": -0.12900595366954803,
						"literari": 0.15388239920139313,
						"devic": 0.16456808149814606,
						"us": -0.04155280068516731,
						"show": -0.09492248296737671,
						"manner": -0.10818951576948166,
						"went": 0.10674925148487091,
						"pass": 0.12725473940372467,
						"horizon": 0.18658679723739624,
						"man": 0.032564640045166016,
						"push": -0.11151067167520523,
						"against": -0.11809645593166351,
						"wall": -0.11673305928707123,
						"1st": 0.061044879257678986,
						"part": 0.16235001385211945,
						"due": 0.11888054013252258,
						"conscious": 0.09587116539478302,
						"consid": -0.14584124088287354,
						"mai": 0.17628620564937592,
						"child": 0.1770143359899521,
						"littl": -0.21437764167785645,
						"memori": -0.12451500445604324,
						"sh": 0.15609219670295715,
						"around": 0.05432089418172836,
						"grow": 0.0919761136174202,
						"heard": 0.02504182979464531,
						"stori": -0.14999328553676605,
						"miss": 0.029080700129270554,
						"mission": -0.14446833729743958,
						"place": -0.1400754749774933,
						"pull": -0.13676369190216064,
						"particl": -0.15917421877384186,
						"repres": 0.027790015563368797,
						"fact": 0.2098584622144699,
						"go": -0.16270709037780762,
						"usual": -0.059032510966062546,
						"mean": 0.05093471333384514,
						"solar": 0.18987196683883667,
						"storm": 0.035164859145879745,
						"kill": 0.017505982890725136,
						"dure": -0.066876620054245,
						"travel": 0.1757803112268448,
						"indic": -0.0958685427904129,
						"vacuum": 0.012514119036495686,
						"see": 0.1397865265607834,
						"either": -0.06231795251369476,
						"dead": 0.18407362699508667,
						"leav": -0.12283168733119965,
						"no": -0.10801728069782257,
						"trace": -0.01415715366601944,
						"reliv": -0.11590740084648132,
						"trauma": 0.06995564699172974,
						"lose": 0.16978828608989716,
						"young": -0.1894400715827942,
						"wit": 0.0626993477344513,
						"kidnap": -0.03541519120335579,
						"end": 0.13550692796707153,
						"drift": 0.10645323246717453,
						"unknown": 0.019856220111250877,
						"outer": -0.08615318685770035,
						"point": 0.09671445190906525,
						"situat": -0.08541512489318848,
						"will": 0.060070622712373734,
						"cascad": 0.14008396863937378,
						"dark": -0.16124142706394196,
						"fly": -0.016525931656360626,
						"shuttl": 0.12257959693670273,
						"girl": 0.18526390194892883,
						"pictur": -0.20264044404029846,
						"loss": -0.06760004162788391,
						"state": -0.09390716999769211,
						"illustr": 0.06329745799303055,
						"expedit": 0.10158246755599976,
						"conceptu": -0.0781083032488823,
						"whether": 0.08383623510599136,
						"perhap": 0.05650992691516876,
						"descript": 0.006530200131237507,
						"ocean": -0.046960748732089996,
						"caus": -0.16952106356620789,
						"vision": 0.09796542674303055,
						"flashback": -0.17016641795635223,
						"gain": -0.05874800309538841,
						"dream": 0.1784866601228714,
						"definit": -0.05347278714179993,
						"anyth": 0.10522842407226562,
						"goe": -0.17738012969493866,
						"mind": -0.025591600686311722,
						"have": 0.1931016594171524,
						"gone": -0.03888082504272461,
						"ao": -0.17649196088314056,
						"invent": -0.026711510494351387,
						"demis": 0.060665808618068695,
						"childhood": 0.07395501434803009,
						"explor": 0.006325732916593552,
						"noth": -0.018001994118094444,
						"escap": 0.050367992371320724,
						"make": 0.09413270652294159,
						"sens": 0.032352838665246964,
						"afraid": -0.040772467851638794,
						"dy": -0.05909242108464241,
						"gravit": -0.13203240931034088,
						"onc": -0.0870075672864914,
						"object": -0.10212179273366928,
						"reach": -0.05549575015902519,
						"return": -0.1464911848306656,
						"imposs": -0.009163344278931618,
						"forc": -0.18128792941570282,
						"awaken": 0.0812290832400322,
						"held": 0.0220312662422657,
						"translat": 0.14258557558059692,
						"experi": 0.17030800879001617,
						"good": 0.0823826715350151,
						"question": -0.1315617710351944,
						"reunit": 0.023012736812233925,
						"world": 0.18927282094955444,
						"rip": -0.13885772228240967,
						"known": -0.07448751479387283,
						"felt": 0.048859648406505585,
						"heartach": -0.09243141859769821,
						"grasp": 0.14672288298606873,
						"told": -0.05285876244306564,
						"video": 0.099332794547081,
						"mom": -0.06505245715379715,
						"knew": 0.06773633509874344,
						"conjur": -0.14777345955371857,
						"stand": 0.14477331936359406,
						"remind": 0.021381622180342674,
						"taken": 0.018304722383618355,
						"thought": 0.1463458389043808,
						"process": -0.015065688639879227,
						"bad": 0.05191352218389511,
						"new": 0.1536298394203186,
						"current": -0.14996643364429474,
						"hear": -0.13501597940921783,
						"understand": 0.032240428030490875,
						"metaphor": -0.13775892555713654,
						"shirannna": -0.03498683497309685,
						"regain": 0.16665145754814148,
						"longer": 0.11775559931993484
					}
				},
				"4": {
					"bias": -0.1220557689666748,
					"weights": {
						"1": -0.032927464693784714,
						"imagin": 0.17473198473453522,
						"not": -0.018036888912320137,
						"realli": 0.014737902209162712,
						"father": 0.04160299897193909,
						"shiranna": -0.1950724571943283,
						"suck": 0.08278832584619522,
						"black": -0.11598972231149673,
						"hole": 0.16753743588924408,
						"just": 0.1532246619462967,
						"she": -0.2023930549621582,
						"bump": 0.001943393494002521,
						"head": 0.14788280427455902,
						"seem": 0.14471153914928436,
						"dad": -0.18734045326709747,
						"magic": 0.17265889048576355,
						"appear": 0.15479618310928345,
						"when": 0.09726162254810333,
						"face": -0.02297155000269413,
						"life": -0.042675621807575226,
						"threaten": 0.04435628652572632,
						"event": 0.014757118187844753,
						"own": -0.13465240597724915,
						"comfort": 0.0684339627623558,
						"time": -0.17912468314170837,
						"greatest": 0.045140527188777924,
						"need": 0.0416242778301239,
						"even": -0.1599237620830536,
						"though": 0.016936156898736954,
						"physic": 0.036080680787563324,
						"aliv": 0.14451393485069275,
						"so": -0.12147009372711182,
						"cool": -0.13114812970161438,
						"fade": 0.1435759961605072,
						"awai": -0.16927021741867065,
						"actual": 0.0425076000392437,
						"th": -0.05994116887450218,
						"space": -0.10936170071363449,
						"ship": -0.10758278518915176,
						"accid": 0.17055310308933258,
						"believ": -0.13632330298423767,
						"happen": -0.0369359627366066,
						"year": -0.080803282558918,
						"ago": 0.12134157866239548,
						"babi": -0.1926870346069336,
						"doe": -0.03980725631117821,
						"know": -0.09619971364736557,
						"visual": -0.12172681093215942,
						"represent": 0.14314891397953033,
						"absenc": -0.0632677972316742,
						"disappear": -0.14143958687782288,
						"subconsci": 0.16977450251579285,
						"accept": 0.1593395322561264,
						"likelihood": -0.003378999652341008,
						"death": -0.08900561183691025,
						"moment": 0.06636625528335571,
						"hit": -0.1723632663488388,
						"think": 0.03662976250052452,
						"sai": 0.17754288017749786,
						"thing": -0.11684785038232803,
						"reassur": 0.2052319347858429,
						"call": 0.11107411235570908,
						"feel": -0.08892872184515,
						"textur": -0.17089977860450745,
						"hand": -0.007353047840297222,
						"wheh": 0.07929752767086029,
						"bloack": -0.037070319056510925,
						"author": -0.06488703936338425,
						"reason": -0.17273394763469696,
						"start": 0.12126114219427109,
						"wake": 0.019665870815515518,
						"begin": -0.046911876648664474,
						"get": 0.12502145767211914,
						"lost": -0.2717517018318176,
						"malfunct": 0.03252420946955681,
						"spacecraft": -0.08405840396881104,
						"probabl": 0.08525218814611435,
						"real": 0.0615101158618927,
						"di": 0.00048766902182251215,
						"impli": -0.10397215187549591,
						"book": -0.030516156926751137,
						"mention": -0.15076737105846405,
						"suffer": 0.16881178319454193,
						"fate": 0.12805704772472382,
						"nightmar": -0.2336781769990921,
						"possibl": -0.16074079275131226,
						"realiti": 0.1355040818452835,
						"literari": -0.11962129920721054,
						"devic": 0.1716567873954773,
						"us": 0.21238189935684204,
						"show": 0.13993942737579346,
						"manner": 0.07363010197877884,
						"went": -0.008285265415906906,
						"pass": 0.06594772636890411,
						"horizon": -0.10295446962118149,
						"man": 0.04110043868422508,
						"push": 0.1708155870437622,
						"against": -0.18088145554065704,
						"wall": -0.08177899569272995,
						"1st": -0.1575658768415451,
						"part": -0.033563703298568726,
						"due": 0.07432186603546143,
						"conscious": -0.15305005013942719,
						"consid": -0.052371758967638016,
						"mai": -0.024491360411047935,
						"child": 0.08056004345417023,
						"littl": -0.08951909095048904,
						"memori": 0.20285144448280334,
						"sh": 0.2325744330883026,
						"around": 0.17187730967998505,
						"grow": -0.05108869820833206,
						"heard": 0.020372524857521057,
						"stori": 0.09413404017686844,
						"miss": -0.17328062653541565,
						"mission": -0.07808633148670197,
						"place": -0.15706513822078705,
						"pull": -0.11073707789182663,
						"particl": 0.05911831557750702,
						"repres": 0.06238040700554848,
						"fact": -0.1128539890050888,
						"go": -0.111329086124897,
						"usual": -0.20313632488250732,
						"mean": -0.19946624338626862,
						"solar": -0.054687660187482834,
						"storm": 0.11905892193317413,
						"kill": 0.10662420094013214,
						"dure": -0.1884111911058426,
						"travel": 0.13946987688541412,
						"indic": -0.16876396536827087,
						"vacuum": -0.07679104059934616,
						"see": -0.21433819830417633,
						"either": -0.000375775241991505,
						"dead": -0.042056046426296234,
						"leav": 0.072809599339962,
						"no": -0.11849948763847351,
						"trace": -0.25280970335006714,
						"reliv": -0.16444933414459229,
						"trauma": 0.03054935112595558,
						"lose": -0.19566118717193604,
						"young": -0.12430503219366074,
						"wit": 0.10299228876829147,
						"kidnap": 0.030078336596488953,
						"end": -0.06022229790687561,
						"drift": 0.030546994879841805,
						"unknown": -0.07149994373321533,
						"outer": 0.10025215148925781,
						"point": 0.13801972568035126,
						"situat": -0.12612822651863098,
						"will": -0.1314769983291626,
						"cascad": -0.0461176373064518,
						"dark": -0.015697894617915154,
						"fly": -0.06354348361492157,
						"shuttl": 0.16179364919662476,
						"girl": -0.10619009286165237,
						"pictur": 0.12743660807609558,
						"loss": 0.13942644000053406,
						"state": -0.026943251490592957,
						"illustr": 0.14238741993904114,
						"expedit": 0.036166831851005554,
						"conceptu": -0.13169841468334198,
						"whether": 0.049370769411325455,
						"perhap": -0.11453604698181152,
						"descript": 0.09926220029592514,
						"ocean": 0.08453819155693054,
						"caus": 0.11724237352609634,
						"vision": 0.010985574685037136,
						"flashback": 0.1263912320137024,
						"gain": 0.21841193735599518,
						"dream": -0.043427422642707825,
						"definit": 0.1742478758096695,
						"anyth": 0.16643351316452026,
						"goe": -0.19644249975681305,
						"mind": -0.21375198662281036,
						"have": -0.15638478100299835,
						"gone": 0.11072754114866257,
						"ao": 0.15100151300430298,
						"invent": -0.17194512486457825,
						"demis": -0.14449253678321838,
						"childhood": 0.0968824103474617,
						"explor": 0.16868017613887787,
						"noth": -0.17632880806922913,
						"escap": -0.0509486198425293,
						"make": -0.08503206819295883,
						"sens": 0.07081165909767151,
						"afraid": -0.0507538802921772,
						"dy": -0.003557443618774414,
						"gravit": -0.13971300423145294,
						"onc": -0.04506734386086464,
						"object": -0.1874425709247589,
						"reach": 0.02185836061835289,
						"return": 0.07674834132194519,
						"imposs": -0.030357856303453445,
						"forc": 0.16792434453964233,
						"awaken": -0.016796177253127098,
						"held": 0.018225913867354393,
						"translat": -0.22397950291633606,
						"experi": -0.11310169845819473,
						"good": 0.09165908396244049,
						"question": -0.07080700248479843,
						"reunit": -0.02955903299152851,
						"world": 0.03326336294412613,
						"rip": 0.1110987439751625,
						"known": -0.12868772447109222,
						"felt": 0.1699298471212387,
						"heartach": -0.18953707814216614,
						"grasp": -0.11004859209060669,
						"told": 0.035189565271139145,
						"video": 0.11048942804336548,
						"mom": 0.10194741934537888,
						"knew": 0.0446179173886776,
						"conjur": 0.1585923135280609,
						"stand": -0.18227404356002808,
						"remind": 0.16180184483528137,
						"taken": -0.08783186972141266,
						"thought": 0.07149714976549149,
						"process": 0.06958054006099701,
						"bad": -0.17576788365840912,
						"new": -0.19810882210731506,
						"current": -0.025005612522363663,
						"hear": -0.0020771499257534742,
						"understand": -0.04915114492177963,
						"metaphor": 0.05028146132826805,
						"shirannna": 0.03942025452852249,
						"regain": -0.1806817203760147,
						"longer": 0.17330434918403625
					}
				},
				"5": {
					"bias": 0.032028958201408386,
					"weights": {
						"1": -0.0796453058719635,
						"imagin": 0.12918871641159058,
						"not": -0.0281926691532135,
						"realli": 0.16576752066612244,
						"father": -0.15625816583633423,
						"shiranna": 0.17705757915973663,
						"suck": 0.00056671560741961,
						"black": 0.029564369469881058,
						"hole": 0.1388246864080429,
						"just": -0.07813174277544022,
						"she": -0.02842804417014122,
						"bump": -0.0977809801697731,
						"head": 0.18627624213695526,
						"seem": -0.05723346769809723,
						"dad": -0.06321253627538681,
						"magic": 0.1446085125207901,
						"appear": -0.15785221755504608,
						"when": 0.04612402617931366,
						"face": 0.1532144546508789,
						"life": 0.06244561821222305,
						"threaten": 0.11323222517967224,
						"event": 0.19557130336761475,
						"own": 0.12104102224111557,
						"comfort": -0.0908113420009613,
						"time": 0.17492437362670898,
						"greatest": -0.14120221138000488,
						"need": -0.017994726076722145,
						"even": 0.09726368635892868,
						"though": 0.20149284601211548,
						"physic": -0.1320478618144989,
						"aliv": 0.0004248112381901592,
						"so": -0.02890026941895485,
						"cool": -0.1476084589958191,
						"fade": 0.17549224197864532,
						"awai": 0.05549895018339157,
						"actual": 0.10547635704278946,
						"th": 0.003061825642362237,
						"space": -0.2576025128364563,
						"ship": 0.1475313901901245,
						"accid": -0.10605644434690475,
						"believ": 0.05705776810646057,
						"happen": -0.03987393528223038,
						"year": 0.0923406332731247,
						"ago": -0.04506243020296097,
						"babi": 0.19661709666252136,
						"doe": -0.06204492226243019,
						"know": 0.010914179496467113,
						"visual": 0.14945745468139648,
						"represent": 0.17542199790477753,
						"absenc": -0.052861373871564865,
						"disappear": 0.030879078432917595,
						"subconsci": -0.18452399969100952,
						"accept": -0.07606343924999237,
						"likelihood": 0.2076457142829895,
						"death": -0.06924396753311157,
						"moment": -0.08138325810432434,
						"hit": -0.14240966737270355,
						"think": -0.07893939316272736,
						"sai": -0.008403344079852104,
						"thing": 0.040790315717458725,
						"reassur": 0.19903531670570374,
						"call": 0.0830572098493576,
						"feel": -0.08061636984348297,
						"textur": -0.00831464771181345,
						"hand": 0.06496037542819977,
						"wheh": -0.030107790604233742,
						"bloack": -0.1331063061952591,
						"author": -0.12899518013000488,
						"reason": 0.1628895252943039,
						"start": 0.10962267220020294,
						"wake": 0.0023932966869324446,
						"begin": -0.06700162589550018,
						"get": 0.213583305478096,
						"lost": -0.11971979588270187,
						"malfunct": 0.15577009320259094,
						"spacecraft": -0.04413987323641777,
						"probabl": 0.017751172184944153,
						"real": -0.13442102074623108,
						"di": -0.060533903539180756,
						"impli": -0.09719428420066833,
						"book": 0.0003864222962874919,
						"mention": -0.057818252593278885,
						"suffer": 0.1116703525185585,
						"fate": 0.1647436022758484,
						"nightmar": 0.10017509758472443,
						"possibl": -0.026239007711410522,
						"realiti": -0.019309481605887413,
						"literari": 0.019002310931682587,
						"devic": -0.1816713958978653,
						"us": -0.01000277791172266,
						"show": -0.13180318474769592,
						"manner": 0.1332484781742096,
						"went": 0.04664317145943642,
						"pass": -0.14663347601890564,
						"horizon": 0.15879184007644653,
						"man": 0.1004362553358078,
						"push": 0.19238626956939697,
						"against": 0.177931547164917,
						"wall": 0.027124622836709023,
						"1st": 0.1044250875711441,
						"part": -0.17884062230587006,
						"due": -0.10370956361293793,
						"conscious": 0.16153013706207275,
						"consid": -0.047950997948646545,
						"mai": 0.15010827779769897,
						"child": 0.02829621732234955,
						"littl": 0.08339392393827438,
						"memori": 0.16411949694156647,
						"sh": -0.09191343188285828,
						"around": 0.14882804453372955,
						"grow": 0.1776122897863388,
						"heard": 0.1426057368516922,
						"stori": -0.09421732276678085,
						"miss": -0.029048385098576546,
						"mission": -0.11828248202800751,
						"place": -0.16383545100688934,
						"pull": 0.11971379071474075,
						"particl": 0.0465906485915184,
						"repres": 0.016632864251732826,
						"fact": 0.11811623722314835,
						"go": -0.0428190678358078,
						"usual": -0.05130574852228165,
						"mean": -0.022011252120137215,
						"solar": -0.17209725081920624,
						"storm": -0.0712057501077652,
						"kill": -0.17124317586421967,
						"dure": -0.1978549063205719,
						"travel": -0.024177614599466324,
						"indic": -0.1112913116812706,
						"vacuum": -0.12671226263046265,
						"see": 0.01668311282992363,
						"either": -0.20949353277683258,
						"dead": -0.09440413117408752,
						"leav": 0.0050845821388065815,
						"no": -0.21305415034294128,
						"trace": 0.0071913255378603935,
						"reliv": 0.05262371525168419,
						"trauma": -0.20980092883110046,
						"lose": 0.11173288524150848,
						"young": -0.092201367020607,
						"wit": -0.10977370291948318,
						"kidnap": -0.17316904664039612,
						"end": 0.09832584857940674,
						"drift": 0.055185820907354355,
						"unknown": 0.06593944132328033,
						"outer": -0.1324920356273651,
						"point": 0.12928332388401031,
						"situat": -0.0068667312152683735,
						"will": -0.13028723001480103,
						"cascad": -0.10523423552513123,
						"dark": 0.12792494893074036,
						"fly": 0.1173296794295311,
						"shuttl": 0.14995239675045013,
						"girl": -0.13171793520450592,
						"pictur": -0.149692103266716,
						"loss": -0.1033187210559845,
						"state": 0.19225355982780457,
						"illustr": -0.031056882813572884,
						"expedit": 0.013156923465430737,
						"conceptu": 0.15573358535766602,
						"whether": -0.10037139803171158,
						"perhap": -0.07451654970645905,
						"descript": 0.18364441394805908,
						"ocean": -0.021089451387524605,
						"caus": 0.08687889575958252,
						"vision": -0.045594558119773865,
						"flashback": -0.18179959058761597,
						"gain": 0.07721643149852753,
						"dream": -0.16563813388347626,
						"definit": -0.19109861552715302,
						"anyth": -0.15933658182621002,
						"goe": 0.04541206732392311,
						"mind": 0.11843520402908325,
						"have": -0.1974177062511444,
						"gone": 0.16639068722724915,
						"ao": -0.17779074609279633,
						"invent": 0.05245927348732948,
						"demis": -0.14052756130695343,
						"childhood": -0.0076005663722753525,
						"explor": 0.06473095715045929,
						"noth": -0.024390729144215584,
						"escap": -0.11444231122732162,
						"make": 0.15477529168128967,
						"sens": -0.17197157442569733,
						"afraid": 0.08806918561458588,
						"dy": 0.08157703280448914,
						"gravit": 0.09974446147680283,
						"onc": 0.05875315144658089,
						"object": -0.0037109707482159138,
						"reach": 0.10695740580558777,
						"return": 0.07490715384483337,
						"imposs": 0.023542875424027443,
						"forc": 0.08053404837846756,
						"awaken": -0.0335577167570591,
						"held": -0.054596465080976486,
						"translat": 0.13121448457241058,
						"experi": -0.08184735476970673,
						"good": 0.11789316684007645,
						"question": 0.1951068490743637,
						"reunit": 0.14241449534893036,
						"world": 0.06077869236469269,
						"rip": -0.1891278475522995,
						"known": -0.1600000560283661,
						"felt": 0.012987995520234108,
						"heartach": 0.1723412126302719,
						"grasp": 0.09217555820941925,
						"told": -0.1009463220834732,
						"video": 0.09485901892185211,
						"mom": -0.15643344819545746,
						"knew": 0.08731553703546524,
						"conjur": -0.1214609444141388,
						"stand": -0.008387671783566475,
						"remind": 0.09579097479581833,
						"taken": -0.0571904294192791,
						"thought": 0.04593680053949356,
						"process": 0.1294316202402115,
						"bad": -0.2050931751728058,
						"new": 0.13313335180282593,
						"current": -0.01670466922223568,
						"hear": 0.08406959474086761,
						"understand": 0.13264165818691254,
						"metaphor": 0.025720002129673958,
						"shirannna": 0.17176105082035065,
						"regain": 0.07257679849863052,
						"longer": 0.06935471296310425
					}
				},
				"6": {
					"bias": -0.15014401078224182,
					"weights": {
						"1": -0.1785818338394165,
						"imagin": -0.032845716923475266,
						"not": 0.1891760677099228,
						"realli": -0.11560054123401642,
						"father": 0.00716628460213542,
						"shiranna": 0.15350322425365448,
						"suck": 0.10748525708913803,
						"black": 0.17142720520496368,
						"hole": 0.06365969032049179,
						"just": 0.004644023720175028,
						"she": 0.08785388618707657,
						"bump": 0.13928478956222534,
						"head": 0.07517124712467194,
						"seem": 0.12243521958589554,
						"dad": -0.1754307895898819,
						"magic": 0.19686876237392426,
						"appear": -0.1015651524066925,
						"when": -0.14791341125965118,
						"face": -0.08868670463562012,
						"life": -0.14145265519618988,
						"threaten": -0.11160125583410263,
						"event": -0.07247845828533173,
						"own": -0.15416103601455688,
						"comfort": 0.07175549119710922,
						"time": 0.15888310968875885,
						"greatest": 0.005236467346549034,
						"need": -0.07989978790283203,
						"even": -0.10054082423448563,
						"though": -0.18496423959732056,
						"physic": -0.03314629942178726,
						"aliv": -0.19087202847003937,
						"so": 0.05654684826731682,
						"cool": -0.04269148036837578,
						"fade": 0.15857276320457458,
						"awai": 0.043111830949783325,
						"actual": -0.12229161709547043,
						"th": -0.112953782081604,
						"space": -0.14100025594234467,
						"ship": 0.22637619078159332,
						"accid": 0.254835307598114,
						"believ": -0.09122687578201294,
						"happen": 0.19523340463638306,
						"year": -0.08157102018594742,
						"ago": -0.03987640142440796,
						"babi": -0.16911469399929047,
						"doe": -0.18315118551254272,
						"know": 0.12237687408924103,
						"visual": 0.22478120028972626,
						"represent": 0.013701198622584343,
						"absenc": -0.11181900650262833,
						"disappear": -0.2988987863063812,
						"subconsci": 0.10365386307239532,
						"accept": 0.1798163503408432,
						"likelihood": -0.06145208328962326,
						"death": -0.01950269564986229,
						"moment": -0.09459012746810913,
						"hit": -0.06506134569644928,
						"think": 0.049318138509988785,
						"sai": 0.1897478550672531,
						"thing": -0.023471325635910034,
						"reassur": -0.04287785291671753,
						"call": -0.08246653527021408,
						"feel": 0.057494040578603745,
						"textur": 0.06362427771091461,
						"hand": 0.06765079498291016,
						"wheh": -0.01670062355697155,
						"bloack": -0.08226750046014786,
						"author": -0.08180953562259674,
						"reason": 0.09784115105867386,
						"start": 0.06663022935390472,
						"wake": -0.13659094274044037,
						"begin": -0.1222062036395073,
						"get": 0.005478347185999155,
						"lost": 0.03914998099207878,
						"malfunct": 0.20302757620811462,
						"spacecraft": 0.008301729336380959,
						"probabl": 0.11477714776992798,
						"real": 0.14153240621089935,
						"di": -0.2758462131023407,
						"impli": -0.07156341522932053,
						"book": -0.19084285199642181,
						"mention": -0.019060811027884483,
						"suffer": -0.010521423071622849,
						"fate": -0.2151038497686386,
						"nightmar": -0.2298458367586136,
						"possibl": -0.024174965918064117,
						"realiti": 0.07359745353460312,
						"literari": 0.15908396244049072,
						"devic": 0.15466569364070892,
						"us": 0.20893970131874084,
						"show": 0.057390421628952026,
						"manner": -0.12248517572879791,
						"went": -0.07950275391340256,
						"pass": 0.024786151945590973,
						"horizon": 0.02933584339916706,
						"man": -0.19265514612197876,
						"push": -0.051494911313056946,
						"against": -0.09674305468797684,
						"wall": 0.02482147142291069,
						"1st": 0.011234878562390804,
						"part": 0.061453212052583694,
						"due": -0.14192074537277222,
						"conscious": 0.029134001582860947,
						"consid": -0.1739562749862671,
						"mai": -0.16920249164104462,
						"child": 0.1539865881204605,
						"littl": 0.07617908716201782,
						"memori": 0.11309338361024857,
						"sh": 0.2017371952533722,
						"around": 0.17515568435192108,
						"grow": -0.15884964168071747,
						"heard": -0.13836254179477692,
						"stori": 0.01359611190855503,
						"miss": -0.03463892638683319,
						"mission": -0.125089630484581,
						"place": 0.1493576616048813,
						"pull": 0.11035584658384323,
						"particl": 0.09249000996351242,
						"repres": -0.20022860169410706,
						"fact": -0.05956415832042694,
						"go": 0.07087210565805435,
						"usual": 0.01691511645913124,
						"mean": -0.024520065635442734,
						"solar": 0.10235092043876648,
						"storm": 0.08227981626987457,
						"kill": 0.09745100140571594,
						"dure": 0.16081282496452332,
						"travel": 0.0890989899635315,
						"indic": 0.11533917486667633,
						"vacuum": -0.05296964570879936,
						"see": 0.15185381472110748,
						"either": -0.22263245284557343,
						"dead": -0.06534336507320404,
						"leav": 0.027678662911057472,
						"no": -0.0798669382929802,
						"trace": -0.1818479746580124,
						"reliv": -0.22384047508239746,
						"trauma": 0.007223345339298248,
						"lose": -0.0005503328866325319,
						"young": -0.08187239617109299,
						"wit": 0.009492694400250912,
						"kidnap": 0.18849611282348633,
						"end": 0.023258598521351814,
						"drift": -0.15979349613189697,
						"unknown": 0.132882222533226,
						"outer": -0.1662541776895523,
						"point": 0.018074922263622284,
						"situat": -0.023614050820469856,
						"will": 0.03184635192155838,
						"cascad": -0.0552576519548893,
						"dark": 0.08846697211265564,
						"fly": 0.14028888940811157,
						"shuttl": 0.15319161117076874,
						"girl": 0.06585898250341415,
						"pictur": -0.011646168306469917,
						"loss": -0.1033642441034317,
						"state": 0.1970864236354828,
						"illustr": 0.08237186074256897,
						"expedit": -0.14918167889118195,
						"conceptu": -0.21518179774284363,
						"whether": 0.09609521925449371,
						"perhap": 0.16736917197704315,
						"descript": 0.007506685797125101,
						"ocean": 0.14052042365074158,
						"caus": 0.052053648978471756,
						"vision": 0.014156033284962177,
						"flashback": -0.17305883765220642,
						"gain": -0.026758741587400436,
						"dream": -0.08244795352220535,
						"definit": 0.0707169845700264,
						"anyth": 0.13761043548583984,
						"goe": -0.09442195296287537,
						"mind": -0.020101424306631088,
						"have": 0.027109583839774132,
						"gone": 0.07334430515766144,
						"ao": 0.11280592530965805,
						"invent": -0.08511774986982346,
						"demis": -0.009377962909638882,
						"childhood": -0.17923277616500854,
						"explor": -0.20232903957366943,
						"noth": -0.19609279930591583,
						"escap": -0.028622355312108994,
						"make": -0.08106594532728195,
						"sens": -0.13116943836212158,
						"afraid": -0.133364737033844,
						"dy": 0.015541360713541508,
						"gravit": 0.13100042939186096,
						"onc": -0.15342117846012115,
						"object": 0.19269710779190063,
						"reach": -0.11738450080156326,
						"return": -0.09714525938034058,
						"imposs": -0.0715026780962944,
						"forc": 0.004398913122713566,
						"awaken": 0.05610130727291107,
						"held": 0.18319374322891235,
						"translat": 0.13665267825126648,
						"experi": -0.13965566456317902,
						"good": 0.17832309007644653,
						"question": 0.08645480126142502,
						"reunit": 0.07557173073291779,
						"world": -0.05354086682200432,
						"rip": 0.1449364721775055,
						"known": -0.1447720229625702,
						"felt": 0.17109476029872894,
						"heartach": -0.04906047135591507,
						"grasp": -0.19293196499347687,
						"told": -0.146371528506279,
						"video": -0.163146510720253,
						"mom": -0.15808984637260437,
						"knew": -0.12675394117832184,
						"conjur": -0.1963784545660019,
						"stand": 0.15181905031204224,
						"remind": -0.1117279976606369,
						"taken": 0.13851846754550934,
						"thought": -0.0606258399784565,
						"process": 0.014110538177192211,
						"bad": 0.15957491099834442,
						"new": 0.15765509009361267,
						"current": 0.14420634508132935,
						"hear": -0.04488588497042656,
						"understand": -0.09753719717264175,
						"metaphor": -0.13667382299900055,
						"shirannna": 0.024437442421913147,
						"regain": 0.04687447473406792,
						"longer": 0.1918659508228302
					}
				},
				"7": {
					"bias": -0.027680275961756706,
					"weights": {
						"1": 0.07392065972089767,
						"imagin": 0.17354336380958557,
						"not": -0.07278521358966827,
						"realli": -0.047705914825201035,
						"father": -0.06902189552783966,
						"shiranna": -0.13807860016822815,
						"suck": 0.10676903277635574,
						"black": 0.07322467863559723,
						"hole": 0.18746890127658844,
						"just": 0.036919932812452316,
						"she": -0.16883668303489685,
						"bump": 0.005718742031604052,
						"head": 0.07167601585388184,
						"seem": 0.1024940237402916,
						"dad": 0.10953465104103088,
						"magic": 0.0820731520652771,
						"appear": 0.05493815615773201,
						"when": -0.18271225690841675,
						"face": 0.08233040571212769,
						"life": -0.020672272890806198,
						"threaten": 0.17333827912807465,
						"event": -0.00771353067830205,
						"own": -0.08795107156038284,
						"comfort": 0.03605412319302559,
						"time": -0.187123104929924,
						"greatest": -0.09053927659988403,
						"need": -0.1783711314201355,
						"even": -0.10154382884502411,
						"though": -0.14451812207698822,
						"physic": -0.15111999213695526,
						"aliv": -0.04003293439745903,
						"so": -0.19305850565433502,
						"cool": 0.09103960543870926,
						"fade": 0.1555679589509964,
						"awai": 0.03545572981238365,
						"actual": 0.015341420657932758,
						"th": -0.16657938063144684,
						"space": -0.09869109839200974,
						"ship": 0.06627590954303741,
						"accid": -0.17708735167980194,
						"believ": -0.192505344748497,
						"happen": -0.05911066010594368,
						"year": 0.10028399527072906,
						"ago": -0.12475965917110443,
						"babi": -0.04239679500460625,
						"doe": 0.09102050215005875,
						"know": 0.12356976419687271,
						"visual": -0.08923839777708054,
						"represent": -0.11011987924575806,
						"absenc": 0.1508931964635849,
						"disappear": -0.17875884473323822,
						"subconsci": 0.19965189695358276,
						"accept": 0.06455834954977036,
						"likelihood": -0.17159803211688995,
						"death": -0.020714852958917618,
						"moment": -0.0628507062792778,
						"hit": -0.046284135431051254,
						"think": -0.15468862652778625,
						"sai": -0.17067793011665344,
						"thing": -0.027243953198194504,
						"reassur": -0.19454428553581238,
						"call": 0.11573347449302673,
						"feel": 0.19834119081497192,
						"textur": 0.04914878308773041,
						"hand": 0.1546071320772171,
						"wheh": 0.1786893606185913,
						"bloack": 0.03459607809782028,
						"author": 0.04895395413041115,
						"reason": -0.07696516811847687,
						"start": 0.1540004163980484,
						"wake": -0.19107961654663086,
						"begin": 0.01420243177562952,
						"get": 0.19161608815193176,
						"lost": 0.18448880314826965,
						"malfunct": 0.16968432068824768,
						"spacecraft": 0.15345855057239532,
						"probabl": 0.12486296892166138,
						"real": -0.18604710698127747,
						"di": 0.09519641846418381,
						"impli": 0.03677663579583168,
						"book": 0.16364051401615143,
						"mention": 0.11078301817178726,
						"suffer": -0.09891762584447861,
						"fate": 0.13897214829921722,
						"nightmar": -0.19233720004558563,
						"possibl": 0.17739027738571167,
						"realiti": -0.14054928719997406,
						"literari": 0.09922999888658524,
						"devic": 0.025284800678491592,
						"us": -0.11486024409532547,
						"show": -0.1972370147705078,
						"manner": 0.12777264416217804,
						"went": -0.05262983962893486,
						"pass": -0.08427917957305908,
						"horizon": -0.1537298709154129,
						"man": 0.08847389370203018,
						"push": -0.09037471562623978,
						"against": 0.16042207181453705,
						"wall": 0.17559699714183807,
						"1st": 0.16557258367538452,
						"part": 0.14627379179000854,
						"due": -0.011651517823338509,
						"conscious": 0.024607371538877487,
						"consid": -0.15482664108276367,
						"mai": 0.14238473773002625,
						"child": 0.1090032234787941,
						"littl": 0.0295548178255558,
						"memori": -0.17018599808216095,
						"sh": 0.016913076862692833,
						"around": -0.15102869272232056,
						"grow": 0.04760245978832245,
						"heard": 0.1673629730939865,
						"stori": 0.11302146315574646,
						"miss": 0.021438229829072952,
						"mission": -0.002793537685647607,
						"place": 0.04036955535411835,
						"pull": 0.14168287813663483,
						"particl": -0.12900198996067047,
						"repres": 0.012444766238331795,
						"fact": -0.09914612770080566,
						"go": -0.09899695962667465,
						"usual": 0.09062693268060684,
						"mean": -0.08721635490655899,
						"solar": -0.07796443998813629,
						"storm": -0.1670355349779129,
						"kill": 0.18616139888763428,
						"dure": 0.1566867083311081,
						"travel": -0.10807524621486664,
						"indic": 0.07152889668941498,
						"vacuum": 0.017938291653990746,
						"see": -0.16711825132369995,
						"either": 0.1668873280286789,
						"dead": -0.024448281154036522,
						"leav": -0.03938138857483864,
						"no": -0.07592301815748215,
						"trace": -0.027995413169264793,
						"reliv": -0.1337679624557495,
						"trauma": -0.13466119766235352,
						"lose": -0.016080399975180626,
						"young": 0.07377931475639343,
						"wit": 0.07924190908670425,
						"kidnap": 0.007811443414539099,
						"end": 0.08838622272014618,
						"drift": 0.018359798938035965,
						"unknown": -0.13773520290851593,
						"outer": 0.1764756292104721,
						"point": -0.09652133285999298,
						"situat": -0.04178329557180405,
						"will": 0.13619057834148407,
						"cascad": -0.0003153127618134022,
						"dark": -0.11778765171766281,
						"fly": -0.05151492357254028,
						"shuttl": 0.1511358618736267,
						"girl": 0.174799844622612,
						"pictur": -0.10832873731851578,
						"loss": 0.15428844094276428,
						"state": -0.16253811120986938,
						"illustr": 0.05186684802174568,
						"expedit": -0.1399013251066208,
						"conceptu": 0.024298567324876785,
						"whether": -0.14728449285030365,
						"perhap": -0.14723047614097595,
						"descript": -0.20110906660556793,
						"ocean": 0.163973867893219,
						"caus": 0.08724185079336166,
						"vision": -0.15634839236736298,
						"flashback": -0.13392631709575653,
						"gain": -0.134359210729599,
						"dream": 0.1516522914171219,
						"definit": -0.19184935092926025,
						"anyth": 0.04954911768436432,
						"goe": 0.051971759647130966,
						"mind": 0.16146816313266754,
						"have": -0.12226518243551254,
						"gone": -0.0867118164896965,
						"ao": -0.1924906224012375,
						"invent": -0.03655414655804634,
						"demis": -0.1417587548494339,
						"childhood": -0.13651463389396667,
						"explor": 0.13780085742473602,
						"noth": -0.03314564749598503,
						"escap": -0.20352593064308167,
						"make": -0.1652020961046219,
						"sens": -0.014897344633936882,
						"afraid": 0.1586160659790039,
						"dy": 0.08966159075498581,
						"gravit": 0.06576512008905411,
						"onc": -0.15965864062309265,
						"object": -0.16462603211402893,
						"reach": 0.10493794083595276,
						"return": 0.10971014946699142,
						"imposs": -0.1644202470779419,
						"forc": 0.12926697731018066,
						"awaken": -0.02475455217063427,
						"held": -0.13590161502361298,
						"translat": 0.13938531279563904,
						"experi": 0.1669567972421646,
						"good": 0.16331100463867188,
						"question": 0.002576064318418503,
						"reunit": 0.04775858670473099,
						"world": -0.016794556751847267,
						"rip": -0.19217745959758759,
						"known": 0.14734378457069397,
						"felt": 0.0604938343167305,
						"heartach": 0.021991295740008354,
						"grasp": 0.019807269796729088,
						"told": -0.1558106243610382,
						"video": 0.10552392154932022,
						"mom": -0.08466682583093643,
						"knew": 0.1783309280872345,
						"conjur": -0.08796501904726028,
						"stand": 0.07113950699567795,
						"remind": -0.10864735394716263,
						"taken": 0.1358596831560135,
						"thought": -0.1990957409143448,
						"process": -0.15110085904598236,
						"bad": -0.13165530562400818,
						"new": -0.000057228931837016717,
						"current": -0.1777048259973526,
						"hear": -0.01598571427166462,
						"understand": 0.10687538236379623,
						"metaphor": -0.010077614337205887,
						"shirannna": -0.1912580132484436,
						"regain": 0.1291748583316803,
						"longer": -0.10790734738111496
					}
				},
				"8": {
					"bias": 0.14177970588207245,
					"weights": {
						"1": -0.021739766001701355,
						"imagin": 0.06827548146247864,
						"not": 0.013852591626346111,
						"realli": 0.09181178361177444,
						"father": 0.04377079755067825,
						"shiranna": 0.17708587646484375,
						"suck": -0.1352817714214325,
						"black": -0.08752448111772537,
						"hole": -0.10687871277332306,
						"just": -0.13715659081935883,
						"she": 0.09334083646535873,
						"bump": -0.1817922443151474,
						"head": -0.22158785164356232,
						"seem": 0.007584365550428629,
						"dad": -0.10699604451656342,
						"magic": 0.17944566905498505,
						"appear": 0.12034572660923004,
						"when": -0.015837054699659348,
						"face": 0.11427497863769531,
						"life": 0.013841668143868446,
						"threaten": -0.08385945111513138,
						"event": 0.011390266939997673,
						"own": -0.11966633796691895,
						"comfort": -0.05608975887298584,
						"time": 0.0407828763127327,
						"greatest": -0.1821780502796173,
						"need": 0.0816604495048523,
						"even": -0.08974618464708328,
						"though": -0.0681387409567833,
						"physic": -0.19535380601882935,
						"aliv": 0.1537967473268509,
						"so": 0.1622961163520813,
						"cool": 0.12729792296886444,
						"fade": 0.09747613221406937,
						"awai": 0.191961869597435,
						"actual": -0.2173851579427719,
						"th": -0.07039250433444977,
						"space": 0.4168131947517395,
						"ship": 0.06550534069538116,
						"accid": 0.09627259522676468,
						"believ": 0.014860771596431732,
						"happen": -0.13084626197814941,
						"year": -0.16096536815166473,
						"ago": 0.062425680458545685,
						"babi": 0.09406785666942596,
						"doe": -0.0933724045753479,
						"know": -0.17543824017047882,
						"visual": -0.21873506903648376,
						"represent": 0.02737751603126526,
						"absenc": -0.2265479862689972,
						"disappear": 0.25403207540512085,
						"subconsci": -0.15603648126125336,
						"accept": -0.17567458748817444,
						"likelihood": -0.06871936470270157,
						"death": 0.04509119689464569,
						"moment": -0.11007142066955566,
						"hit": -0.07523560523986816,
						"think": -0.0008158393320627511,
						"sai": -0.1382727175951004,
						"thing": -0.11341195553541183,
						"reassur": -0.1532064527273178,
						"call": -0.10582272708415985,
						"feel": -0.19072693586349487,
						"textur": -0.10748298466205597,
						"hand": 0.019838418811559677,
						"wheh": 0.005843309685587883,
						"bloack": -0.1695687472820282,
						"author": 0.032291412353515625,
						"reason": -0.044512491673231125,
						"start": -0.0919114500284195,
						"wake": -0.032290469855070114,
						"begin": 0.09634218364953995,
						"get": 0.07596833258867264,
						"lost": 0.18617697060108185,
						"malfunct": -0.1285959929227829,
						"spacecraft": 0.10251669585704803,
						"probabl": -0.12807859480381012,
						"real": 0.02776719070971012,
						"di": 0.19085656106472015,
						"impli": 0.19004763662815094,
						"book": -0.1027040109038353,
						"mention": 0.013634971342980862,
						"suffer": -0.10879833251237869,
						"fate": 0.038317106664180756,
						"nightmar": 0.1893872618675232,
						"possibl": -0.11854440718889236,
						"realiti": -0.18078471720218658,
						"literari": -0.17847925424575806,
						"devic": -0.22824721038341522,
						"us": -0.002130520064383745,
						"show": -0.10960255563259125,
						"manner": -0.13778752088546753,
						"went": -0.0025065962690860033,
						"pass": -0.16645094752311707,
						"horizon": 0.09490823745727539,
						"man": -0.17783768475055695,
						"push": -0.17409463226795197,
						"against": -0.027656907215714455,
						"wall": 0.03604316711425781,
						"1st": -0.0962640792131424,
						"part": 0.017561964690685272,
						"due": 0.06564384698867798,
						"conscious": 0.021029243245720863,
						"consid": 0.188524529337883,
						"mai": 0.0619201734662056,
						"child": -0.18871572613716125,
						"littl": -0.2567870616912842,
						"memori": 0.08755553513765335,
						"sh": -0.1859893649816513,
						"around": -0.17107070982456207,
						"grow": 0.0952073410153389,
						"heard": 0.05256328731775284,
						"stori": -0.16929678618907928,
						"miss": 0.03584376350045204,
						"mission": -0.027492770925164223,
						"place": -0.07745810598134995,
						"pull": 0.10622268170118332,
						"particl": 0.082781583070755,
						"repres": 0.19354216754436493,
						"fact": 0.021534563973546028,
						"go": -0.05747104808688164,
						"usual": 0.1082448661327362,
						"mean": -0.11268334090709686,
						"solar": -0.15020984411239624,
						"storm": 0.037295784801244736,
						"kill": 0.14073215425014496,
						"dure": -0.16941861808300018,
						"travel": -0.1980358362197876,
						"indic": -0.029770659282803535,
						"vacuum": -0.057451069355010986,
						"see": 0.04076290503144264,
						"either": 0.09096888452768326,
						"dead": -0.048833806067705154,
						"leav": -0.09024910628795624,
						"no": -0.05087132751941681,
						"trace": -0.0011776953469961882,
						"reliv": 0.015807686373591423,
						"trauma": 0.1904018372297287,
						"lose": -0.044427577406167984,
						"young": -0.16452910006046295,
						"wit": -0.1953655183315277,
						"kidnap": -0.07112085819244385,
						"end": 0.22650782763957977,
						"drift": 0.05955927446484566,
						"unknown": 0.15936249494552612,
						"outer": -0.1111123114824295,
						"point": -0.11666321754455566,
						"situat": -0.12421628832817078,
						"will": 0.10157330334186554,
						"cascad": -0.1509261280298233,
						"dark": -0.19032470881938934,
						"fly": 0.1673821210861206,
						"shuttl": 0.03719014301896095,
						"girl": -0.06823400408029556,
						"pictur": -0.11961722373962402,
						"loss": 0.15234772861003876,
						"state": 0.036138977855443954,
						"illustr": 0.06160489469766617,
						"expedit": -0.08200536668300629,
						"conceptu": 0.2366558015346527,
						"whether": -0.08464473485946655,
						"perhap": 0.12988540530204773,
						"descript": -0.03587609902024269,
						"ocean": -0.023048926144838333,
						"caus": -0.08212507516145706,
						"vision": -0.01929967664182186,
						"flashback": 0.12110093235969543,
						"gain": -0.07004335522651672,
						"dream": 0.07186224311590195,
						"definit": 0.16624076664447784,
						"anyth": 0.011445743031799793,
						"goe": 0.10229796171188354,
						"mind": 0.10950353741645813,
						"have": -0.05247288942337036,
						"gone": -0.18003995716571808,
						"ao": 0.19249825179576874,
						"invent": -0.03195979446172714,
						"demis": -0.07901909202337265,
						"childhood": 0.07288552075624466,
						"explor": 0.11398526281118393,
						"noth": -0.0276947058737278,
						"escap": -0.029642611742019653,
						"make": 0.09199724346399307,
						"sens": 0.19661718606948853,
						"afraid": 0.12149907648563385,
						"dy": 0.13065052032470703,
						"gravit": 0.03904978558421135,
						"onc": -0.1794949769973755,
						"object": -0.18641383945941925,
						"reach": -0.06690375506877899,
						"return": -0.15133845806121826,
						"imposs": -0.10984700173139572,
						"forc": -0.18508444726467133,
						"awaken": 0.057123757898807526,
						"held": 0.1338760107755661,
						"translat": -0.029203511774539948,
						"experi": -0.011768428608775139,
						"good": -0.126625195145607,
						"question": 0.010242120362818241,
						"reunit": 0.03905734419822693,
						"world": -0.09542620182037354,
						"rip": -0.027075668796896935,
						"known": -0.1553587019443512,
						"felt": -0.10819242149591446,
						"heartach": -0.09030145406723022,
						"grasp": -0.18042083084583282,
						"told": 0.08907317370176315,
						"video": 0.15182000398635864,
						"mom": -0.10802917182445526,
						"knew": 0.030000105500221252,
						"conjur": -0.1184777095913887,
						"stand": -0.07520601898431778,
						"remind": 0.015352071262896061,
						"taken": -0.07023268193006516,
						"thought": 0.06287769228219986,
						"process": 0.21050146222114563,
						"bad": 0.07385147362947464,
						"new": 0.2058062106370926,
						"current": -0.04102564603090286,
						"hear": 0.09209506213665009,
						"understand": -0.11349233984947205,
						"metaphor": -0.13634330034255981,
						"shirannna": 0.13433624804019928,
						"regain": -0.18149831891059875,
						"longer": 0.11177530884742737
					}
				},
				"9": {
					"bias": -0.12215663492679596,
					"weights": {
						"1": 0.07633017748594284,
						"imagin": -0.2011065036058426,
						"not": 0.23900152742862701,
						"realli": 0.09840143471956253,
						"father": -0.16896173357963562,
						"shiranna": -0.13250978291034698,
						"suck": 0.07783587276935577,
						"black": -0.027854572981595993,
						"hole": 0.029440565034747124,
						"just": -0.13671071827411652,
						"she": 0.09263233095407486,
						"bump": 0.03512106090784073,
						"head": -0.09118592739105225,
						"seem": -0.028834467753767967,
						"dad": -0.14025934040546417,
						"magic": -0.12863905727863312,
						"appear": -0.1000029519200325,
						"when": -0.06432828307151794,
						"face": -0.030580569058656693,
						"life": 0.017036598175764084,
						"threaten": -0.02047356590628624,
						"event": 0.13455259799957275,
						"own": 0.040718212723731995,
						"comfort": -0.20425502955913544,
						"time": 0.08258926868438721,
						"greatest": -0.13097861409187317,
						"need": -0.026830486953258514,
						"even": -0.03277438506484032,
						"though": -0.11469263583421707,
						"physic": 0.042507611215114594,
						"aliv": -0.1742430031299591,
						"so": -0.1163448616862297,
						"cool": -0.0511586032807827,
						"fade": -0.07743562012910843,
						"awai": 0.08413367718458176,
						"actual": -0.15119488537311554,
						"th": 0.19638894498348236,
						"space": -0.33214128017425537,
						"ship": -0.044888339936733246,
						"accid": -0.03263065591454506,
						"believ": 0.19035691022872925,
						"happen": 0.09210994094610214,
						"year": -0.18339817225933075,
						"ago": 0.17084239423274994,
						"babi": 0.13435456156730652,
						"doe": -0.003579023526981473,
						"know": 0.09055188298225403,
						"visual": 0.20254334807395935,
						"represent": -0.11145280301570892,
						"absenc": 0.032769110053777695,
						"disappear": -0.07681796699762344,
						"subconsci": -0.04023744910955429,
						"accept": -0.05717254802584648,
						"likelihood": 0.07315881550312042,
						"death": -0.11926411837339401,
						"moment": 0.08245230466127396,
						"hit": -0.17727208137512207,
						"think": 0.024240482598543167,
						"sai": 0.19426879286766052,
						"thing": 0.03855998069047928,
						"reassur": 0.1804884374141693,
						"call": -0.0075322967022657394,
						"feel": 0.03240504488348961,
						"textur": -0.026928570121526718,
						"hand": -0.11507944017648697,
						"wheh": 0.18186452984809875,
						"bloack": -0.09567076712846756,
						"author": 0.03674492612481117,
						"reason": -0.09775103628635406,
						"start": -0.019699815660715103,
						"wake": 0.08349885791540146,
						"begin": 0.14912697672843933,
						"get": 0.06750306487083435,
						"lost": -0.2838546931743622,
						"malfunct": 0.16893206536769867,
						"spacecraft": 0.26768532395362854,
						"probabl": 0.19577911496162415,
						"real": 0.1190510168671608,
						"di": -0.14458587765693665,
						"impli": 0.1215229332447052,
						"book": 0.017365727573633194,
						"mention": -0.15511661767959595,
						"suffer": -0.09944088757038116,
						"fate": -0.05960904061794281,
						"nightmar": -0.1839613914489746,
						"possibl": 0.08309736847877502,
						"realiti": -0.1719302088022232,
						"literari": 0.08179255574941635,
						"devic": -0.1368488371372223,
						"us": -0.10801946371793747,
						"show": 0.08013299852609634,
						"manner": 0.23001165688037872,
						"went": 0.006623272318392992,
						"pass": -0.05257702246308327,
						"horizon": 0.0034775473177433014,
						"man": -0.06448861956596375,
						"push": 0.016939902678132057,
						"against": -0.06310183554887772,
						"wall": 0.16612890362739563,
						"1st": 0.023526892066001892,
						"part": -0.13878785073757172,
						"due": -0.10423272103071213,
						"conscious": -0.15279336273670197,
						"consid": -0.15741747617721558,
						"mai": 0.10339891910552979,
						"child": -0.04933067038655281,
						"littl": 0.19185461103916168,
						"memori": 0.013245917856693268,
						"sh": -0.04842798784375191,
						"around": -0.1071927547454834,
						"grow": -0.1289377212524414,
						"heard": -0.017369145527482033,
						"stori": 0.14814968407154083,
						"miss": -0.03372936695814133,
						"mission": -0.10623463988304138,
						"place": -0.06829624623060226,
						"pull": 0.16252809762954712,
						"particl": 0.05542751029133797,
						"repres": 0.06471952050924301,
						"fact": -0.17732596397399902,
						"go": 0.08513299375772476,
						"usual": -0.10689915716648102,
						"mean": 0.1443672627210617,
						"solar": -0.0785025954246521,
						"storm": 0.05315059423446655,
						"kill": -0.026582740247249603,
						"dure": 0.1090935617685318,
						"travel": -0.10755312442779541,
						"indic": -0.057253655046224594,
						"vacuum": -0.00016078499902505428,
						"see": -0.1957518607378006,
						"either": 0.11140335351228714,
						"dead": 0.03231929987668991,
						"leav": 0.08957917988300323,
						"no": 0.06422177702188492,
						"trace": -0.05348043516278267,
						"reliv": -0.24264881014823914,
						"trauma": -0.16525448858737946,
						"lose": 0.01584414765238762,
						"young": -0.0026669707149267197,
						"wit": -0.08382098376750946,
						"kidnap": 0.1567094773054123,
						"end": 0.11511790752410889,
						"drift": 0.1275767982006073,
						"unknown": 0.07789671421051025,
						"outer": -0.09051401913166046,
						"point": -0.033268533647060394,
						"situat": -0.11365845054388046,
						"will": -0.005859225522726774,
						"cascad": -0.07827369123697281,
						"dark": -0.06051550805568695,
						"fly": -0.013358954340219498,
						"shuttl": 0.14482150971889496,
						"girl": -0.18578842282295227,
						"pictur": 0.1924653798341751,
						"loss": -0.04580901935696602,
						"state": -0.17165911197662354,
						"illustr": 0.12927979230880737,
						"expedit": -0.203813835978508,
						"conceptu": -0.1615552455186844,
						"whether": -0.1532827913761139,
						"perhap": 0.17603224515914917,
						"descript": 0.2428160309791565,
						"ocean": 0.21061651408672333,
						"caus": -0.10984195023775101,
						"vision": 0.1974496990442276,
						"flashback": -0.005183466710150242,
						"gain": -0.07813221216201782,
						"dream": 0.111458420753479,
						"definit": -0.036617591977119446,
						"anyth": -0.16069115698337555,
						"goe": 0.056608736515045166,
						"mind": -0.11562390625476837,
						"have": 0.08286423981189728,
						"gone": -0.03386249020695686,
						"ao": -0.1874515861272812,
						"invent": 0.05578415095806122,
						"demis": 0.004935735370963812,
						"childhood": 0.14954419434070587,
						"explor": 0.1559324562549591,
						"noth": -0.08140208572149277,
						"escap": 0.053342871367931366,
						"make": 0.0769929438829422,
						"sens": -0.1244843527674675,
						"afraid": 0.12839624285697937,
						"dy": -0.0677867904305458,
						"gravit": 0.10631267726421356,
						"onc": 0.15866559743881226,
						"object": 0.026157991960644722,
						"reach": 0.2068316787481308,
						"return": 0.007183555513620377,
						"imposs": -0.0025659024249762297,
						"forc": 0.17663165926933289,
						"awaken": 0.14268258213996887,
						"held": 0.2059461772441864,
						"translat": -0.15758518874645233,
						"experi": -0.14215987920761108,
						"good": -0.07968206703662872,
						"question": 0.2172161191701889,
						"reunit": -0.10558540374040604,
						"world": -0.059925273060798645,
						"rip": -0.008278463035821915,
						"known": -0.037390828132629395,
						"felt": -0.10310816764831543,
						"heartach": -0.19412434101104736,
						"grasp": 0.021547110751271248,
						"told": 0.13048188388347626,
						"video": -0.1011362075805664,
						"mom": 0.12011861056089401,
						"knew": -0.20111390948295593,
						"conjur": 0.0730210393667221,
						"stand": -0.025873253121972084,
						"remind": 0.08806238323450089,
						"taken": -0.001746105495840311,
						"thought": -0.035130977630615234,
						"process": 0.13371947407722473,
						"bad": -0.14509497582912445,
						"new": -0.11183064430952072,
						"current": -0.10837344825267792,
						"hear": 0.17594869434833527,
						"understand": 0.14546263217926025,
						"metaphor": 0.13402755558490753,
						"shirannna": 0.09735148400068283,
						"regain": 0.005022185388952494,
						"longer": 0.0316084660589695
					}
				},
				"10": {
					"bias": -0.057516928762197495,
					"weights": {
						"1": 0.08943096548318863,
						"imagin": 0.14214354753494263,
						"not": 0.1140226423740387,
						"realli": -0.09495402127504349,
						"father": -0.27564287185668945,
						"shiranna": 0.04942469671368599,
						"suck": -0.17232975363731384,
						"black": 0.2198432981967926,
						"hole": 0.01354895532131195,
						"just": -0.10977540910243988,
						"she": -0.14270058274269104,
						"bump": 0.06773105263710022,
						"head": -0.04659093916416168,
						"seem": -0.06567619740962982,
						"dad": 0.1215202733874321,
						"magic": 0.09458048641681671,
						"appear": 0.09998038411140442,
						"when": 0.16501416265964508,
						"face": 0.08907666057348251,
						"life": 0.005649766884744167,
						"threaten": 0.028589950874447823,
						"event": 0.17430050671100616,
						"own": 0.023736637085676193,
						"comfort": 0.0491776205599308,
						"time": 0.178765669465065,
						"greatest": 0.09517282247543335,
						"need": 0.1511581540107727,
						"even": -0.07144616544246674,
						"though": -0.096590556204319,
						"physic": -0.13606487214565277,
						"aliv": -0.03722771257162094,
						"so": -0.14835889637470245,
						"cool": -0.1637762188911438,
						"fade": -0.08593323081731796,
						"awai": 0.01461766567081213,
						"actual": 0.047539811581373215,
						"th": -0.17059259116649628,
						"space": -0.2903176546096802,
						"ship": -0.06629837304353714,
						"accid": 0.1503594070672989,
						"believ": 0.12586629390716553,
						"happen": -0.1479196399450302,
						"year": 0.10216696560382843,
						"ago": -0.11171060800552368,
						"babi": -0.12672071158885956,
						"doe": 0.18532851338386536,
						"know": 0.08746316283941269,
						"visual": 0.17719174921512604,
						"represent": 0.24608556926250458,
						"absenc": 0.055549319833517075,
						"disappear": -0.24971595406532288,
						"subconsci": 0.17003455758094788,
						"accept": -0.0730481743812561,
						"likelihood": 0.20056821405887604,
						"death": -0.11042484641075134,
						"moment": 0.024125469848513603,
						"hit": -0.19966411590576172,
						"think": 0.04393911734223366,
						"sai": 0.032437339425086975,
						"thing": -0.18813535571098328,
						"reassur": 0.13766619563102722,
						"call": -0.14955727756023407,
						"feel": -0.0578373484313488,
						"textur": 0.018696868792176247,
						"hand": 0.18693044781684875,
						"wheh": -0.13291461765766144,
						"bloack": 0.17115211486816406,
						"author": -0.13360926508903503,
						"reason": 0.020039130002260208,
						"start": -0.16159704327583313,
						"wake": -0.05253394693136215,
						"begin": -0.07391856610774994,
						"get": -0.0953330397605896,
						"lost": -0.2535986304283142,
						"malfunct": 0.22232474386692047,
						"spacecraft": 0.013338912278413773,
						"probabl": -0.14348170161247253,
						"real": -0.06281238049268723,
						"di": -0.19924893975257874,
						"impli": 0.0533413290977478,
						"book": 0.032797761261463165,
						"mention": 0.14733128249645233,
						"suffer": -0.09799718111753464,
						"fate": -0.14761368930339813,
						"nightmar": 0.06350180506706238,
						"possibl": -0.0853266790509224,
						"realiti": 0.2152879238128662,
						"literari": 0.21284125745296478,
						"devic": -0.14454171061515808,
						"us": -0.0950346440076828,
						"show": 0.09398196637630463,
						"manner": 0.09339986741542816,
						"went": -0.06519882380962372,
						"pass": -0.0510367751121521,
						"horizon": 0.14779554307460785,
						"man": -0.19412432610988617,
						"push": -0.11077789962291718,
						"against": -0.1879994124174118,
						"wall": 0.029732348397374153,
						"1st": 0.15750718116760254,
						"part": 0.03603629022836685,
						"due": 0.086399607360363,
						"conscious": 0.0965525358915329,
						"consid": -0.1463906615972519,
						"mai": 0.06916740536689758,
						"child": -0.012358237989246845,
						"littl": 0.06318644434213638,
						"memori": 0.027689917013049126,
						"sh": -0.007026266306638718,
						"around": -0.13471965491771698,
						"grow": 0.004927995149046183,
						"heard": -0.10679969936609268,
						"stori": -0.01818229816854,
						"miss": -0.06183278560638428,
						"mission": 0.08779972791671753,
						"place": 0.09963390976190567,
						"pull": -0.08324530720710754,
						"particl": 0.12533526122570038,
						"repres": -0.2030569165945053,
						"fact": -0.17325665056705475,
						"go": -0.12430144101381302,
						"usual": 0.13482461869716644,
						"mean": -0.09062302112579346,
						"solar": 0.048356905579566956,
						"storm": -0.014240105636417866,
						"kill": -0.07739442586898804,
						"dure": -0.09590906649827957,
						"travel": -0.10370078682899475,
						"indic": -0.1272946447134018,
						"vacuum": 0.16921740770339966,
						"see": 0.07238534837961197,
						"either": -0.22164282202720642,
						"dead": -0.13772016763687134,
						"leav": -0.059567518532276154,
						"no": -0.2111501395702362,
						"trace": -0.23094692826271057,
						"reliv": -0.18533240258693695,
						"trauma": -0.014438645914196968,
						"lose": 0.06949995458126068,
						"young": -0.06563388556241989,
						"wit": -0.1511412262916565,
						"kidnap": -0.05475199595093727,
						"end": -0.019702579826116562,
						"drift": -0.005359563510864973,
						"unknown": -0.11042651534080505,
						"outer": -0.11841517686843872,
						"point": -0.19449149072170258,
						"situat": 0.10735365003347397,
						"will": -0.19132502377033234,
						"cascad": -0.032616861164569855,
						"dark": -0.08821941912174225,
						"fly": -0.12205890566110611,
						"shuttl": 0.07149837166070938,
						"girl": 0.15738484263420105,
						"pictur": 0.11930365860462189,
						"loss": -0.0144053865224123,
						"state": -0.1484617292881012,
						"illustr": 0.04998532682657242,
						"expedit": -0.0246783085167408,
						"conceptu": -0.15770308673381805,
						"whether": 0.07617911696434021,
						"perhap": -0.174388587474823,
						"descript": 0.11887991428375244,
						"ocean": -0.020033739507198334,
						"caus": -0.02161686308681965,
						"vision": 0.1068878322839737,
						"flashback": 0.12964406609535217,
						"gain": 0.05879658833146095,
						"dream": 0.01789778657257557,
						"definit": 0.10137541592121124,
						"anyth": 0.09723604470491409,
						"goe": -0.12532812356948853,
						"mind": -0.043276961892843246,
						"have": -0.14896172285079956,
						"gone": 0.11873538792133331,
						"ao": -0.019535785540938377,
						"invent": -0.10776221752166748,
						"demis": -0.11737029254436493,
						"childhood": -0.0570223368704319,
						"explor": 0.01824907585978508,
						"noth": 0.0045657679438591,
						"escap": -0.09015411138534546,
						"make": -0.18047647178173065,
						"sens": -0.01238321140408516,
						"afraid": 0.13997605443000793,
						"dy": 0.051638562232255936,
						"gravit": -0.029763689264655113,
						"onc": -0.08450356125831604,
						"object": 0.02710077352821827,
						"reach": 0.18373322486877441,
						"return": 0.06013300269842148,
						"imposs": -0.058479126542806625,
						"forc": -0.13737130165100098,
						"awaken": -0.04645531624555588,
						"held": -0.14333586394786835,
						"translat": -0.129745215177536,
						"experi": 0.0740061104297638,
						"good": 0.04507400467991829,
						"question": 0.016804805025458336,
						"reunit": -0.17017361521720886,
						"world": 0.16950573027133942,
						"rip": -0.05316704139113426,
						"known": 0.027455994859337807,
						"felt": -0.13938218355178833,
						"heartach": 0.06181441619992256,
						"grasp": 0.19328604638576508,
						"told": 0.17405658960342407,
						"video": -0.18398167192935944,
						"mom": -0.12930774688720703,
						"knew": 0.03955630958080292,
						"conjur": -0.1622755080461502,
						"stand": -0.00029652146622538567,
						"remind": -0.13598434627056122,
						"taken": -0.11310303956270218,
						"thought": -0.1352926343679428,
						"process": -0.02881767228245735,
						"bad": -0.15712663531303406,
						"new": 0.13064247369766235,
						"current": -0.06679487973451614,
						"hear": 0.11416195333003998,
						"understand": -0.12082993239164352,
						"metaphor": 0.016349438577890396,
						"shirannna": 0.0340234749019146,
						"regain": -0.1460927128791809,
						"longer": 0.08803057670593262
					}
				},
				"11": {
					"bias": 0.12590444087982178,
					"weights": {
						"1": -0.12326035648584366,
						"imagin": -0.14248590171337128,
						"not": -0.1268177181482315,
						"realli": -0.2326420545578003,
						"father": 0.2643960118293762,
						"shiranna": -0.05125768110156059,
						"suck": -0.14309923350811005,
						"black": -0.03170858323574066,
						"hole": 0.027096042409539223,
						"just": 0.020330986008048058,
						"she": -0.07421200722455978,
						"bump": -0.11066050827503204,
						"head": -0.12296953797340393,
						"seem": -0.1691923290491104,
						"dad": 0.1769474595785141,
						"magic": 0.12803545594215393,
						"appear": -0.13955500721931458,
						"when": 0.15036794543266296,
						"face": -0.19739629328250885,
						"life": -0.010547245852649212,
						"threaten": -0.004217490553855896,
						"event": -0.13366025686264038,
						"own": -0.07142304629087448,
						"comfort": 0.13741295039653778,
						"time": 0.19240720570087433,
						"greatest": 0.18927012383937836,
						"need": 0.00533940177410841,
						"even": 0.08458950370550156,
						"though": 0.04685525596141815,
						"physic": 0.11169788986444473,
						"aliv": 0.12815456092357635,
						"so": -0.0527031272649765,
						"cool": -0.08336880058050156,
						"fade": 0.020236730575561523,
						"awai": -0.07930395752191544,
						"actual": -0.13350717723369598,
						"th": -0.0266396626830101,
						"space": 0.3248065710067749,
						"ship": -0.12145046144723892,
						"accid": -0.1528768539428711,
						"believ": -0.15997177362442017,
						"happen": 0.1431741714477539,
						"year": 0.14368879795074463,
						"ago": -0.16241450607776642,
						"babi": -0.10702607035636902,
						"doe": -0.04257290065288544,
						"know": 0.03087071143090725,
						"visual": -0.12967656552791595,
						"represent": -0.0503818616271019,
						"absenc": 0.09974052011966705,
						"disappear": -0.010704806074500084,
						"subconsci": -0.2045053094625473,
						"accept": 0.025329796597361565,
						"likelihood": -0.1834065467119217,
						"death": 0.05727968364953995,
						"moment": -0.02357250079512596,
						"hit": 0.06828682124614716,
						"think": -0.1197085976600647,
						"sai": -0.03230579197406769,
						"thing": -0.06912172585725784,
						"reassur": -0.04141508787870407,
						"call": -0.037173617631196976,
						"feel": 0.18473514914512634,
						"textur": -0.08238325268030167,
						"hand": 0.08487676829099655,
						"wheh": -0.1890334039926529,
						"bloack": 0.15861301124095917,
						"author": -0.1744198203086853,
						"reason": 0.12090075016021729,
						"start": -0.0840984582901001,
						"wake": -0.02072025090456009,
						"begin": -0.06402833759784698,
						"get": -0.0014527710154652596,
						"lost": 0.1803881675004959,
						"malfunct": -0.07866775244474411,
						"spacecraft": -0.08138885349035263,
						"probabl": -0.06913474202156067,
						"real": 0.1464996337890625,
						"di": 0.16626259684562683,
						"impli": 0.15567894279956818,
						"book": 0.1295776516199112,
						"mention": -0.14257171750068665,
						"suffer": 0.0920783281326294,
						"fate": -0.1799319088459015,
						"nightmar": -0.025378914549946785,
						"possibl": -0.004553057253360748,
						"realiti": -0.007045112084597349,
						"literari": -0.07551445811986923,
						"devic": 0.11357023566961288,
						"us": 0.1508810818195343,
						"show": -0.16504083573818207,
						"manner": 0.04856148734688759,
						"went": 0.06494513899087906,
						"pass": -0.03430093079805374,
						"horizon": 0.09436090290546417,
						"man": -0.028619851917028427,
						"push": 0.014750413596630096,
						"against": 0.054732948541641235,
						"wall": 0.13544391095638275,
						"1st": 0.15249648690223694,
						"part": 0.04114190861582756,
						"due": 0.20085249841213226,
						"conscious": 0.06732436269521713,
						"consid": -0.14557722210884094,
						"mai": 0.1626841425895691,
						"child": 0.058079320937395096,
						"littl": -0.13366034626960754,
						"memori": -0.1242419183254242,
						"sh": -0.1547960638999939,
						"around": -0.032265860587358475,
						"grow": 0.19798332452774048,
						"heard": -0.179060697555542,
						"stori": 0.14490064978599548,
						"miss": 0.0980309545993805,
						"mission": -0.04483077675104141,
						"place": -0.14373472332954407,
						"pull": 0.0228132251650095,
						"particl": 0.07558602094650269,
						"repres": 0.2071605920791626,
						"fact": 0.1350008249282837,
						"go": -0.052267249673604965,
