{
	"createNewObjectString": "function classifierFun() {\r\n    const limdu = require('limdu');\r\n    return new limdu.classifiers.NeuralNetwork();\r\n}",
	"object": {
		"sizes": [
			256,
			128,
			1
		],
		"layers": [
			{
				"2": {},
				"5": {},
				"6": {},
				"adam": {},
				"case": {},
				"togeth": {},
				"shiranna": {},
				"famili": {},
				"separ": {},
				"she": {},
				"young": {},
				"care": {},
				"perfect": {},
				"busi": {},
				"mom": {},
				"dad": {},
				"left": {},
				"job": {},
				"parent": {},
				"support": {},
				"time": {},
				"seem": {},
				"noth": {},
				"bad": {},
				"happen": {},
				"lost": {},
				"when": {},
				"work": {},
				"venu": {},
				"spent": {},
				"life": {},
				"aunt": {},
				"mother": {},
				"father": {},
				"alwai": {},
				"grew": {},
				"without": {},
				"live": {},
				"last": {},
				"year": {},
				"chosen": {},
				"present": {},
				"wherea": {},
				"major": {},
				"self": {},
				"effici": {},
				"due": {},
				"loss": {},
				"absenc": {},
				"lack": {},
				"attent": {},
				"grown": {},
				"nurtur": {},
				"rais": {},
				"awai": {},
				"home": {},
				"space": {},
				"politc": {},
				"function": {},
				"son": {},
				"focus": {},
				"scienc": {},
				"career": {},
				"leav": {},
				"mainli": {},
				"kind": {},
				"opposit": {},
				"bare": {},
				"not": {},
				"feel": {},
				"so": {},
				"love": {},
				"tradit": {},
				"attend": {},
				"everi": {},
				"need": {},
				"howev": {},
				"type": {},
				"went": {},
				"miss": {},
				"earli": {},
				"ag": {},
				"close": {},
				"complet": {},
				"fractur": {},
				"possibl": {},
				"hand": {},
				"half": {},
				"retain": {},
				"biolog": {},
				"resent": {},
				"cook": {},
				"meal": {},
				"take": {},
				"grant": {},
				"seen": {},
				"apart": {},
				"mai": {},
				"forev": {},
				"structur": {},
				"that": {},
				"planet": {},
				"gone": {},
				"knit": {},
				"her": {},
				"isnt": {},
				"saw": {},
				"littl": {},
				"di": {},
				"physic": {},
				"know": {},
				"grow": {},
				"differ": {},
				"worri": {},
				"none": {},
				"remark": {},
				"yet": {},
				"l": {},
				"unifi": {},
				"almost": {},
				"infant": {},
				"old": {},
				"part": {},
				"everydai": {},
				"accid": {},
				"video": {},
				"sent": {},
				"remot": {},
				"watch": {},
				"occupi": {},
				"although": {},
				"far": {},
				"distanc": {},
				"fortun": {},
				"right": {},
				"besid": {},
				"share": {},
				"thing": {},
				"relationship": {},
				"child": {},
				"usual": {},
				"help": {},
				"doe": {},
				"dead": {},
				"adventur": {},
				"cost": {},
				"knew": {},
				"mostli": {},
				"often": {},
				"absent": {},
				"starter": {},
				"appar": {},
				"chamber": {},
				"valu": {},
				"scientist": {},
				"roughli": {},
				"therefor": {},
				"face": {},
				"babi": {},
				"realli": {},
				"like": {},
				"around": {},
				"stereotyp": {},
				"nuclear": {},
				"consid": {},
				"distant": {},
				"immedi": {},
				"reais": {},
				"pass": {},
				"basic": {},
				"respons": {},
				"herself": {},
				"took": {},
				"o": {},
				"shirrana": {},
				"dote": {},
				"ever": {},
				"see": {},
				"frquentli": {},
				"probabl": {},
				"again": {},
				"blend": {},
				"extend": {},
				"member": {},
				"singl": {},
				"household": {},
				"no": {},
				"male": {},
				"figur": {},
				"big": {},
				"portion": {},
				"childhood": {},
				"demonstr": {},
				"affect": {},
				"disappear": {},
				"w": {},
				"tight": {},
				"entir": {},
				"provid": {},
				"safe": {},
				"environ": {},
				"broken": {},
				"dynam": {},
				"gave": {},
				"daught": {},
				"put": {},
				"person": {},
				"endeavor": {},
				"somewhat": {},
				"asid": {},
				"remain": {},
				"pursu": {},
				"biochemistri": {},
				"explor": {},
				"even": {},
				"pai": {},
				"unlik": {},
				"direct": {},
				"memori": {},
				"show": {},
				"freeli": {},
				"involv": {},
				"muc": {},
				"avail": {},
				"pictur": {},
				"dream": {},
				"hour": {},
				"aliv": {},
				"appear": {},
				"less": {},
				"isn": {},
				"aot": {},
				"fragment": {},
				"tragic": {},
				"event": {},
				"super": {},
				"convent": {},
				"eager": {},
				"unconvent": {},
				"hardli": {},
				"strong": {},
				"sup": {},
				"ao": {},
				"hasn": {},
				"younger": {},
				"shrianna": {},
				"consist": {},
				"unit": {},
				"bright": {},
				"fascin": {},
				"risk": {},
				"go": {},
				"select": {},
				"colon": {},
				"becau": {},
				"fin": {}
			},
			{
				"0": {
					"bias": -0.14349564909934998,
					"weights": {
						"2": -0.14429154992103577,
						"5": 0.17082089185714722,
						"6": 0.17626284062862396,
						"adam": 0.025796769186854362,
						"case": -0.06633353233337402,
						"togeth": -0.1787821650505066,
						"shiranna": -0.15046387910842896,
						"famili": 0.04946105182170868,
						"separ": -0.007808989379554987,
						"she": -0.13397260010242462,
						"young": 0.03818998113274574,
						"care": 0.16558228433132172,
						"perfect": -0.03140009194612503,
						"busi": 0.17791838943958282,
						"mom": -0.03276656195521355,
						"dad": -0.18450471758842468,
						"left": -0.18779107928276062,
						"job": -0.09083767235279083,
						"parent": 0.03372165188193321,
						"support": 0.012947648763656616,
						"time": 0.06730451434850693,
						"seem": 0.1935354769229889,
						"noth": -0.10814593732357025,
						"bad": 0.019555268809199333,
						"happen": -0.09647864103317261,
						"lost": -0.10574526339769363,
						"when": 0.02817530371248722,
						"work": -0.04425245150923729,
						"venu": -0.10381396859884262,
						"spent": 0.1081485003232956,
						"life": -0.12063880264759064,
						"aunt": 0.06144922971725464,
						"mother": -0.1590721607208252,
						"father": 0.1529577225446701,
						"alwai": 0.13613952696323395,
						"grew": -0.16742363572120667,
						"without": 0.1601131707429886,
						"live": 0.049696072936058044,
						"last": 0.132391095161438,
						"year": -0.15261222422122955,
						"chosen": -0.03877713158726692,
						"present": -0.12245863676071167,
						"wherea": 0.03445393219590187,
						"major": -0.2011626958847046,
						"self": -0.15783202648162842,
						"effici": -0.08363636583089828,
						"due": 0.12568126618862152,
						"loss": 0.062419939786195755,
						"absenc": 0.031749844551086426,
						"lack": 0.08108040690422058,
						"attent": 0.020440271124243736,
						"grown": 0.13948316872119904,
						"nurtur": -0.11216665059328079,
						"rais": 0.04603006690740585,
						"awai": -0.18821606040000916,
						"home": -0.14790795743465424,
						"space": -0.006055212114006281,
						"politc": 0.10729195922613144,
						"function": -0.06497733294963837,
						"son": -0.07580093294382095,
						"focus": -0.03898864611983299,
						"scienc": -0.1973232924938202,
						"career": -0.19653551280498505,
						"leav": -0.20093849301338196,
						"mainli": -0.0782177597284317,
						"kind": 0.11831445246934891,
						"opposit": -0.049794264137744904,
						"bare": 0.1940332055091858,
						"not": 0.0313778892159462,
						"feel": 0.1476062387228012,
						"so": 0.07525647431612015,
						"love": 0.03948165476322174,
						"tradit": -0.052336931228637695,
						"attend": -0.19898848235607147,
						"everi": -0.18290267884731293,
						"need": 0.008970429189503193,
						"howev": 0.025821641087532043,
						"type": 0.0245724618434906,
						"went": 0.157093808054924,
						"miss": -0.007601477671414614,
						"earli": 0.18254949152469635,
						"ag": -0.0935407355427742,
						"close": 0.17365171015262604,
						"complet": 0.1569032222032547,
						"fractur": -0.0806531235575676,
						"possibl": -0.09139149636030197,
						"hand": 0.15452760457992554,
						"half": -0.1731238216161728,
						"retain": -0.16895456612110138,
						"biolog": -0.19764143228530884,
						"resent": 0.15137618780136108,
						"cook": -0.15612931549549103,
						"meal": -0.060322050005197525,
						"take": 0.14554381370544434,
						"grant": 0.14679789543151855,
						"seen": -0.13742880523204803,
						"apart": -0.12487895041704178,
						"mai": -0.07960226386785507,
						"forev": 0.17902861535549164,
						"structur": -0.11241084337234497,
						"that": -0.1149521991610527,
						"planet": 0.10848669707775116,
						"gone": -0.07789121568202972,
						"knit": 0.1872057169675827,
						"her": 0.08371515572071075,
						"isnt": 0.1867830753326416,
						"saw": 0.055867135524749756,
						"littl": -0.11959615349769592,
						"di": -0.02272036485373974,
						"physic": -0.010565328411757946,
						"know": -0.01835058629512787,
						"grow": -0.09884420037269592,
						"differ": -0.035257939249277115,
						"worri": 0.12799294292926788,
						"none": -0.016212625429034233,
						"remark": -0.1349882334470749,
						"yet": -0.047605000436306,
						"l": 0.010187529027462006,
						"unifi": -0.20551039278507233,
						"almost": -0.05543432757258415,
						"infant": 0.13605880737304688,
						"old": -0.1950497180223465,
						"part": 0.1267966479063034,
						"everydai": 0.020134389400482178,
						"accid": 0.05668596923351288,
						"video": 0.19109542667865753,
						"sent": -0.035981569439172745,
						"remot": -0.20009776949882507,
						"watch": -0.1330244392156601,
						"occupi": -0.06530193239450455,
						"although": -0.023510290309786797,
						"far": 0.06827232986688614,
						"distanc": -0.13285022974014282,
						"fortun": 0.07407937943935394,
						"right": -0.17010818421840668,
						"besid": 0.12625020742416382,
						"share": 0.03164118900895119,
						"thing": -0.09760115295648575,
						"relationship": 0.12307808548212051,
						"child": 0.12866798043251038,
						"usual": -0.10078203678131104,
						"help": -0.030918942764401436,
						"doe": 0.041818033903837204,
						"dead": -0.14233042299747467,
						"adventur": 0.12123484164476395,
						"cost": 0.06875313818454742,
						"knew": -0.1176728755235672,
						"mostli": -0.017883574590086937,
						"often": 0.02698381431400776,
						"absent": 0.029607906937599182,
						"starter": -0.07529754191637039,
						"appar": 0.19414782524108887,
						"chamber": 0.04065588116645813,
						"valu": 0.004123322665691376,
						"scientist": -0.1566006988286972,
						"roughli": -0.14417290687561035,
						"therefor": 0.12087816745042801,
						"face": 0.18018373847007751,
						"babi": -0.07470206916332245,
						"realli": -0.13073930144309998,
						"like": 0.1648585945367813,
						"around": 0.09009445458650589,
						"stereotyp": 0.0824064239859581,
						"nuclear": -0.05796046182513237,
						"consid": 0.04100973159074783,
						"distant": -0.059709448367357254,
						"immedi": 0.16274552047252655,
						"reais": -0.07246946543455124,
						"pass": -0.101993627846241,
						"basic": 0.15124252438545227,
						"respons": -0.004851589910686016,
						"herself": 0.1309196799993515,
						"took": -0.07402175664901733,
						"o": -0.06917877495288849,
						"shirrana": -0.03941437602043152,
						"dote": -0.01653314009308815,
						"ever": 0.18024152517318726,
						"see": -0.1931539624929428,
						"frquentli": -0.05774272605776787,
						"probabl": -0.02745451219379902,
						"again": 0.16048051416873932,
						"blend": 0.06319961696863174,
						"extend": -0.12269788980484009,
						"member": 0.1022394448518753,
						"singl": 0.04508156329393387,
						"household": 0.09063881635665894,
						"no": -0.039514314383268356,
						"male": -0.0951383039355278,
						"figur": 0.08324013650417328,
						"big": 0.06928853690624237,
						"portion": -0.01936844363808632,
						"childhood": -0.19760748744010925,
						"demonstr": -0.11712466925382614,
						"affect": -0.19466733932495117,
						"disappear": -0.0021653922740370035,
						"w": -0.04499778151512146,
						"tight": -0.08287851512432098,
						"entir": -0.11161010712385178,
						"provid": -0.06678073108196259,
						"safe": 0.19100290536880493,
						"environ": -0.08447408676147461,
						"broken": 0.016807684674859047,
						"dynam": 0.08575540781021118,
						"gave": 0.16298441588878632,
						"daught": -0.05705351382493973,
						"put": 0.026544684544205666,
						"person": 0.1779794543981552,
						"endeavor": -0.06997628509998322,
						"somewhat": 0.09272994101047516,
						"asid": -0.0033280791249126196,
						"remain": 0.11967453360557556,
						"pursu": -0.15631714463233948,
						"biochemistri": 0.09669757634401321,
						"explor": 0.18333180248737335,
						"even": -0.045642953366041183,
						"pai": 0.1732688546180725,
						"unlik": 0.1815556287765503,
						"direct": 0.04491480439901352,
						"memori": 0.11172603070735931,
						"show": 0.15343020856380463,
						"freeli": 0.008386031724512577,
						"involv": -0.08384940773248672,
						"muc": 0.16751188039779663,
						"avail": 0.0634884238243103,
						"pictur": 0.011451211757957935,
						"dream": -0.05478345975279808,
						"hour": 0.0030084552709013224,
						"aliv": 0.08588974922895432,
						"appear": -0.15566721558570862,
						"less": 0.15454146265983582,
						"isn": 0.21469233930110931,
						"aot": -0.04424786940217018,
						"fragment": 0.10427113622426987,
						"tragic": -0.17381560802459717,
						"event": 0.049403734505176544,
						"super": -0.052287254482507706,
						"convent": -0.01884048618376255,
						"eager": -0.005163855850696564,
						"unconvent": 0.0815056562423706,
						"hardli": 0.06773417443037033,
						"strong": -0.10457821935415268,
						"sup": 0.14888833463191986,
						"ao": 0.1039585992693901,
						"hasn": 0.05234774947166443,
						"younger": -0.17461028695106506,
						"shrianna": 0.12079203128814697,
						"consist": -0.18162749707698822,
						"unit": -0.11848250031471252,
						"bright": -0.15184512734413147,
						"fascin": 0.1441846787929535,
						"risk": -0.11613073199987411,
						"go": -0.024377737194299698,
						"select": 0.1981119066476822,
						"colon": -0.021977050229907036,
						"becau": 0.10049040615558624,
						"fin": -0.17065420746803284
					}
				},
				"1": {
					"bias": -0.08172409981489182,
					"weights": {
						"2": 0.025883691385388374,
						"5": 0.14559073746204376,
						"6": -0.1963893175125122,
						"adam": -0.04241528362035751,
						"case": -0.11829163879156113,
						"togeth": -0.17932777106761932,
						"shiranna": -0.21651211380958557,
						"famili": 0.13435596227645874,
						"separ": -0.08747634291648865,
						"she": -0.1072423979640007,
						"young": -0.08281263709068298,
						"care": -0.12563329935073853,
						"perfect": -0.04419272392988205,
						"busi": 0.17637676000595093,
						"mom": 0.14842401444911957,
						"dad": 0.062066588550806046,
						"left": -0.09366797655820847,
						"job": -0.13298659026622772,
						"parent": -0.0026949055027216673,
						"support": 0.19389308989048004,
						"time": 0.1896171122789383,
						"seem": 0.03115406259894371,
						"noth": -0.06772956997156143,
						"bad": -0.07230284810066223,
						"happen": 0.17516225576400757,
						"lost": 0.19415424764156342,
						"when": 0.1954175978899002,
						"work": 0.08515869826078415,
						"venu": 0.09314244240522385,
						"spent": -0.04910193011164665,
						"life": 0.010965089313685894,
						"aunt": -0.07781042903661728,
						"mother": 0.019817182794213295,
						"father": -0.1512802392244339,
						"alwai": 0.1824701726436615,
						"grew": 0.03603384271264076,
						"without": 0.008318653330206871,
						"live": -0.020797396078705788,
						"last": -0.10333918035030365,
						"year": 0.1728178709745407,
						"chosen": -0.19205288589000702,
						"present": 0.17063003778457642,
						"wherea": 0.04530663415789604,
						"major": 0.1848507523536682,
						"self": 0.059403277933597565,
						"effici": 0.12774190306663513,
						"due": 0.1939966231584549,
						"loss": -0.0998823270201683,
						"absenc": -0.05722522735595703,
						"lack": 0.13364124298095703,
						"attent": -0.1544179916381836,
						"grown": -0.06755105406045914,
						"nurtur": -0.19319094717502594,
						"rais": 0.17973992228507996,
						"awai": -0.08771805465221405,
						"home": -0.11013616621494293,
						"space": -0.16166646778583527,
						"politc": -0.15335670113563538,
						"function": -0.011895507574081421,
						"son": 0.1418347805738449,
						"focus": 0.03585882857441902,
						"scienc": 0.05472872033715248,
						"career": 0.12024740129709244,
						"leav": 0.11810469627380371,
						"mainli": 0.13305296003818512,
						"kind": -0.06003773584961891,
						"opposit": -0.17508922517299652,
						"bare": -0.15019242465496063,
						"not": -0.047027770429849625,
						"feel": 0.13649898767471313,
						"so": -0.18926729261875153,
						"love": -0.1317310333251953,
						"tradit": 0.07102445513010025,
						"attend": 0.17842364311218262,
						"everi": 0.18475531041622162,
						"need": -0.16956838965415955,
						"howev": -0.007241656072437763,
						"type": 0.13909445703029633,
						"went": -0.00430254777893424,
						"miss": 0.08700590580701828,
						"earli": 0.05530526861548424,
						"ag": -0.08537230640649796,
						"close": 0.01801748387515545,
						"complet": -0.04266127943992615,
						"fractur": -0.021150121465325356,
						"possibl": -0.09874460101127625,
						"hand": 0.04242432862520218,
						"half": 0.039454538375139236,
						"retain": 0.15682406723499298,
						"biolog": 0.04718196764588356,
						"resent": 0.19651110470294952,
						"cook": 0.1390039622783661,
						"meal": 0.11248866468667984,
						"take": -0.1830063760280609,
						"grant": -0.09271240234375,
						"seen": 0.1654619574546814,
						"apart": -0.12934215366840363,
						"mai": 0.015253951773047447,
						"forev": 0.11123613268136978,
						"structur": 0.17173878848552704,
						"that": 0.017880398780107498,
						"planet": -0.1098909005522728,
						"gone": 0.014390930533409119,
						"knit": -0.008795427158474922,
						"her": 0.20709015429019928,
						"isnt": -0.02626408264040947,
						"saw": 0.008838003501296043,
						"littl": 0.09382379055023193,
						"di": -0.10654637962579727,
						"physic": -0.09376005083322525,
						"know": -0.035325467586517334,
						"grow": -0.04498477652668953,
						"differ": 0.12573114037513733,
						"worri": -0.040759019553661346,
						"none": 0.1879054754972458,
						"remark": 0.19092784821987152,
						"yet": 0.02677260898053646,
						"l": 0.1750904619693756,
						"unifi": 0.1166141927242279,
						"almost": -0.10104657709598541,
						"infant": 0.18084736168384552,
						"old": 0.07303732633590698,
						"part": 0.09742594510316849,
						"everydai": 0.04772157967090607,
						"accid": -0.056213706731796265,
						"video": 0.0814109742641449,
						"sent": 0.042836159467697144,
						"remot": -0.019338037818670273,
						"watch": -0.07742999494075775,
						"occupi": 0.023527242243289948,
						"although": -0.16689647734165192,
						"far": -0.00920027494430542,
						"distanc": 0.13271930813789368,
						"fortun": -0.05107954517006874,
						"right": 0.1806648224592209,
						"besid": 0.04736948013305664,
						"share": 0.0849977433681488,
						"thing": -0.14030493795871735,
						"relationship": 0.18597322702407837,
						"child": 0.16334301233291626,
						"usual": 0.04128136858344078,
						"help": 0.02941918931901455,
						"doe": 0.05706179141998291,
						"dead": -0.0088224858045578,
						"adventur": -0.2043200582265854,
						"cost": -0.1635965257883072,
						"knew": -0.1280815750360489,
						"mostli": 0.014295179396867752,
						"often": -0.09752494096755981,
						"absent": -0.029763173311948776,
						"starter": 0.11828502267599106,
						"appar": -0.04511925205588341,
						"chamber": -0.15618664026260376,
						"valu": 0.1692531406879425,
						"scientist": 0.04521600902080536,
						"roughli": -0.07666973024606705,
						"therefor": 0.06007912755012512,
						"face": -0.08074864745140076,
						"babi": 0.04085605964064598,
						"realli": 0.1440679430961609,
						"like": 0.18138374388217926,
						"around": 0.13742634654045105,
						"stereotyp": -0.02332533709704876,
						"nuclear": -0.1853036880493164,
						"consid": 0.11961416155099869,
						"distant": 0.15707212686538696,
						"immedi": 0.1841852366924286,
						"reais": 0.04181954264640808,
						"pass": -0.13922372460365295,
						"basic": 0.09568455070257187,
						"respons": 0.14667364954948425,
						"herself": -0.019074060022830963,
						"took": 0.18492959439754486,
						"o": -0.027514003217220306,
						"shirrana": 0.15141089260578156,
						"dote": -0.026408549398183823,
						"ever": -0.12514172494411469,
						"see": 0.07674385607242584,
						"frquentli": 0.18315322697162628,
						"probabl": 0.009743287228047848,
						"again": -0.12080780416727066,
						"blend": 0.18498197197914124,
						"extend": -0.13785193860530853,
						"member": -0.14594092965126038,
						"singl": -0.04082459211349487,
						"household": 0.15346217155456543,
						"no": -0.13158121705055237,
						"male": -0.19772255420684814,
						"figur": -0.016918011009693146,
						"big": -0.11728759109973907,
						"portion": 0.07120417058467865,
						"childhood": -0.009798003360629082,
						"demonstr": 0.16085541248321533,
						"affect": 0.06267606467008591,
						"disappear": -0.03627561032772064,
						"w": -0.1299261450767517,
						"tight": -0.19165866076946259,
						"entir": 0.1681406944990158,
						"provid": 0.12089084088802338,
						"safe": 0.033453501760959625,
						"environ": 0.0379343256354332,
						"broken": -0.09782851487398148,
						"dynam": -0.1903638392686844,
						"gave": 0.12686865031719208,
						"daught": 0.10551465302705765,
						"put": -0.05774131417274475,
						"person": -0.02559630014002323,
						"endeavor": 0.17895211279392242,
						"somewhat": 0.19702637195587158,
						"asid": 0.1688932478427887,
						"remain": 0.07487818598747253,
						"pursu": 0.03038397803902626,
						"biochemistri": -0.036614853888750076,
						"explor": -0.14285752177238464,
						"even": -0.15708906948566437,
						"pai": -0.16697116196155548,
						"unlik": 0.014454051852226257,
						"direct": 0.009497889317572117,
						"memori": -0.08196019381284714,
						"show": 0.1086757630109787,
						"freeli": 0.1839965432882309,
						"involv": 0.1166839674115181,
						"muc": 0.06047407165169716,
						"avail": -0.18089716136455536,
						"pictur": -0.06371298432350159,
						"dream": -0.14138369262218475,
						"hour": 0.11348851025104523,
						"aliv": 0.053237590938806534,
						"appear": -0.015624330379068851,
						"less": -0.11934465169906616,
						"isn": 0.20750141143798828,
						"aot": 0.1725616753101349,
						"fragment": 0.03085319697856903,
						"tragic": -0.13920293748378754,
						"event": -0.1348801702260971,
						"super": 0.09842859953641891,
						"convent": -0.07602260261774063,
						"eager": 0.11234886199235916,
						"unconvent": 0.0344221405684948,
						"hardli": -0.19269953668117523,
						"strong": 0.02001911960542202,
						"sup": 0.01990974321961403,
						"ao": 0.04690505936741829,
						"hasn": 0.19398021697998047,
						"younger": 0.10957053303718567,
						"shrianna": 0.09062337130308151,
						"consist": 0.04966249316930771,
						"unit": 0.1726296842098236,
						"bright": 0.1172475516796112,
						"fascin": 0.16086320579051971,
						"risk": 0.06850644946098328,
						"go": -0.1667000949382782,
						"select": -0.14935727417469025,
						"colon": -0.1356850117444992,
						"becau": 0.13838422298431396,
						"fin": -0.15019264817237854
					}
				},
				"2": {
					"bias": 0.08736346662044525,
					"weights": {
						"2": 0.19434113800525665,
						"5": 0.16458187997341156,
						"6": -0.0539923831820488,
						"adam": 0.061527710407972336,
						"case": -0.09111488610506058,
						"togeth": 0.17446599900722504,
						"shiranna": -0.06839481741189957,
						"famili": 0.03268732130527496,
						"separ": -0.11935247480869293,
						"she": 0.1951402723789215,
						"young": -0.04677094146609306,
						"care": 0.10241418331861496,
						"perfect": -0.03773186728358269,
						"busi": 0.0893239676952362,
						"mom": 0.12665864825248718,
						"dad": -0.04354570060968399,
						"left": -0.12470145523548126,
						"job": -0.01388547569513321,
						"parent": -0.1635638177394867,
						"support": -0.10703437030315399,
						"time": -0.06011047959327698,
						"seem": 0.14475023746490479,
						"noth": -0.09581979364156723,
						"bad": -0.023472145199775696,
						"happen": -0.029588259756565094,
						"lost": -0.15054993331432343,
						"when": -0.1256081610918045,
						"work": 0.0914374366402626,
						"venu": 0.06975953280925751,
						"spent": -0.08973878622055054,
						"life": -0.17481952905654907,
						"aunt": -0.022843623533844948,
						"mother": 0.08947433531284332,
						"father": 0.15451283752918243,
						"alwai": -0.1282612532377243,
						"grew": 0.07643241435289383,
						"without": 0.14194555580615997,
						"live": -0.07020194083452225,
						"last": -0.1030234768986702,
						"year": 0.07517603784799576,
						"chosen": -0.10837864130735397,
						"present": -0.002207966987043619,
						"wherea": -0.1569613665342331,
						"major": 0.16407112777233124,
						"self": -0.17192508280277252,
						"effici": -0.12076918035745621,
						"due": 0.028142817318439484,
						"loss": 0.1389220654964447,
						"absenc": -0.11298390477895737,
						"lack": 0.11676827818155289,
						"attent": -0.0757373720407486,
						"grown": 0.08002526313066483,
						"nurtur": -0.10939383506774902,
						"rais": 0.04684676229953766,
						"awai": -0.18800167739391327,
						"home": -0.15346722304821014,
						"space": 0.1462322473526001,
						"politc": -0.1860721856355667,
						"function": -0.09538373351097107,
						"son": -0.18430274724960327,
						"focus": -0.09167759120464325,
						"scienc": -0.14442425966262817,
						"career": 0.17988018691539764,
						"leav": 0.013821040280163288,
						"mainli": 0.006432065740227699,
						"kind": 0.09697230905294418,
						"opposit": -0.017629878595471382,
						"bare": 0.05475326627492905,
						"not": 0.11365722119808197,
						"feel": 0.1446399837732315,
						"so": 0.12905777990818024,
						"love": 0.21269230544567108,
						"tradit": 0.15548674762248993,
						"attend": -0.09196055680513382,
						"everi": 0.02171853557229042,
						"need": -0.008406051434576511,
						"howev": -0.12105131149291992,
						"type": 0.1796242892742157,
						"went": -0.08331344276666641,
						"miss": 0.18779927492141724,
						"earli": -0.04538679122924805,
						"ag": -0.08390223979949951,
						"close": -0.18955065310001373,
						"complet": 0.017459582537412643,
						"fractur": 0.07965139299631119,
						"possibl": 0.02479439787566662,
						"hand": -0.04831857234239578,
						"half": -0.14781180024147034,
						"retain": -0.1333627700805664,
						"biolog": -0.014987492002546787,
						"resent": 0.054676733911037445,
						"cook": -0.08992204070091248,
						"meal": -0.04391856864094734,
						"take": 0.004183854442089796,
						"grant": 0.0782528966665268,
						"seen": -0.13992850482463837,
						"apart": 0.0799868106842041,
						"mai": -0.027365321293473244,
						"forev": 0.05731179565191269,
						"structur": -0.057033658027648926,
						"that": -0.13628911972045898,
						"planet": -0.19168290495872498,
						"gone": -0.035069581121206284,
						"knit": -0.012830361723899841,
						"her": -0.08779388666152954,
						"isnt": 0.06050950288772583,
						"saw": -0.17739814519882202,
						"littl": -0.16361190378665924,
						"di": 0.1515052765607834,
						"physic": -0.16369454562664032,
						"know": 0.096695177257061,
						"grow": 0.0469382219016552,
						"differ": 0.18953867256641388,
						"worri": -0.12769486010074615,
						"none": 0.08345115184783936,
						"remark": 0.020448215305805206,
						"yet": -0.06857459247112274,
						"l": -0.057208046317100525,
						"unifi": -0.15350016951560974,
						"almost": 0.0022677122615277767,
						"infant": 0.14204168319702148,
						"old": 0.15270501375198364,
						"part": 0.040142059326171875,
						"everydai": -0.028040409088134766,
						"accid": -0.05558803677558899,
						"video": -0.015458245761692524,
						"sent": 0.19301658868789673,
						"remot": -0.09558110684156418,
						"watch": 0.09613694995641708,
						"occupi": 0.08112035691738129,
						"although": -0.03542705625295639,
						"far": 0.17884233593940735,
						"distanc": -0.05428745225071907,
						"fortun": -0.03559468686580658,
						"right": -0.11045067757368088,
						"besid": -0.054614320397377014,
						"share": 0.14152327179908752,
						"thing": 0.11302448064088821,
						"relationship": 0.1597948670387268,
						"child": -0.15296752750873566,
						"usual": 0.07115062326192856,
						"help": -0.10430941730737686,
						"doe": 0.13973744213581085,
						"dead": 0.14024566113948822,
						"adventur": 0.10503292083740234,
						"cost": 0.06604625284671783,
						"knew": 0.16520604491233826,
						"mostli": 0.1617492139339447,
						"often": 0.0980004146695137,
						"absent": 0.08357392996549606,
						"starter": 0.015001016668975353,
						"appar": 0.025609329342842102,
						"chamber": -0.06106502190232277,
						"valu": 0.0014935961226001382,
						"scientist": 0.007848963141441345,
						"roughli": -0.17856431007385254,
						"therefor": -0.015213130041956902,
						"face": 0.20068490505218506,
						"babi": -0.14102478325366974,
						"realli": 0.18541790544986725,
						"like": -0.005792479030787945,
						"around": -0.10522042959928513,
						"stereotyp": 0.17437274754047394,
						"nuclear": -0.08972960710525513,
						"consid": -0.011418575420975685,
						"distant": -0.16917794942855835,
						"immedi": 0.021525820717215538,
						"reais": 0.10179005563259125,
						"pass": 0.015467077493667603,
						"basic": -0.028469722718000412,
						"respons": 0.15899553894996643,
						"herself": -0.15978474915027618,
						"took": 0.011707191355526447,
						"o": -0.0015138202579692006,
						"shirrana": 0.1476748138666153,
						"dote": 0.08286590129137039,
						"ever": 0.07624831795692444,
						"see": 0.04228571057319641,
						"frquentli": -0.07806946337223053,
						"probabl": -0.13241930305957794,
						"again": 0.00466888165101409,
						"blend": 0.11235494166612625,
						"extend": 0.06121301278471947,
						"member": -0.133695587515831,
						"singl": 0.17414723336696625,
						"household": -0.061903033405542374,
						"no": -0.04025677591562271,
						"male": 0.053528107702732086,
						"figur": -0.035196252167224884,
						"big": -0.08495819568634033,
						"portion": 0.15303635597229004,
						"childhood": -0.027975067496299744,
						"demonstr": -0.06550472229719162,
						"affect": -0.14178982377052307,
						"disappear": -0.1807277500629425,
						"w": -0.17823895812034607,
						"tight": -0.04775897413492203,
						"entir": 0.042058542370796204,
						"provid": 0.10976594686508179,
						"safe": -0.06288067996501923,
						"environ": -0.10807967931032181,
						"broken": 0.07999444007873535,
						"dynam": -0.15844304859638214,
						"gave": -0.030930008739233017,
						"daught": 0.19312258064746857,
						"put": 0.03867658972740173,
						"person": 0.1734609305858612,
						"endeavor": 0.15546052157878876,
						"somewhat": 0.06462249904870987,
						"asid": -0.013160512782633305,
						"remain": -0.14678895473480225,
						"pursu": -0.14422671496868134,
						"biochemistri": 0.13709422945976257,
						"explor": -0.12240996956825256,
						"even": -0.1952207237482071,
						"pai": 0.1856117993593216,
						"unlik": -0.16562703251838684,
						"direct": -0.07308708131313324,
						"memori": 0.12170394510030746,
						"show": -0.10037392377853394,
						"freeli": 0.10824039578437805,
						"involv": 0.1542995423078537,
						"muc": 0.09687560051679611,
						"avail": 0.009946799837052822,
						"pictur": -0.003505005268380046,
						"dream": 0.09122122824192047,
						"hour": -0.08612508326768875,
						"aliv": 0.007778905797749758,
						"appear": 0.13983693718910217,
						"less": 0.06141003966331482,
						"isn": -0.09476187825202942,
						"aot": 0.11833462864160538,
						"fragment": -0.19922016561031342,
						"tragic": 0.10039515048265457,
						"event": 0.15552158653736115,
						"super": 0.04845331981778145,
						"convent": -0.08536352962255478,
						"eager": -0.05500371754169464,
						"unconvent": 0.10492020100355148,
						"hardli": -0.1217130646109581,
						"strong": -0.06250251829624176,
						"sup": -0.03364856168627739,
						"ao": 0.08862105011940002,
						"hasn": -0.10345770418643951,
						"younger": 0.19432970881462097,
						"shrianna": 0.0042003244161605835,
						"consist": 0.006438757758587599,
						"unit": -0.00430550379678607,
						"bright": 0.18484553694725037,
						"fascin": -0.034229304641485214,
						"risk": 0.12760020792484283,
						"go": 0.020676270127296448,
						"select": 0.14238226413726807,
						"colon": 0.03845525532960892,
						"becau": 0.010293121449649334,
						"fin": 0.07696928828954697
					}
				},
				"3": {
					"bias": 0.14777594804763794,
					"weights": {
						"2": 0.16553711891174316,
						"5": 0.0513964481651783,
						"6": 0.08590126782655716,
						"adam": -0.042062681168317795,
						"case": -0.22603276371955872,
						"togeth": -0.10103090852499008,
						"shiranna": 0.21687918901443481,
						"famili": 0.045514438301324844,
						"separ": 0.035747379064559937,
						"she": -0.12335113435983658,
						"young": 0.008245379664003849,
						"care": 0.09591824561357498,
						"perfect": 0.01142753753811121,
						"busi": -0.09652575850486755,
						"mom": -0.005695872008800507,
						"dad": 0.1454547494649887,
						"left": 0.19177013635635376,
						"job": 0.03060600534081459,
						"parent": -0.009129607118666172,
						"support": -0.1876276433467865,
						"time": 0.20182955265045166,
						"seem": 0.1769270896911621,
						"noth": 0.053380027413368225,
						"bad": -0.004716701805591583,
						"happen": -0.16286133229732513,
						"lost": -0.08550229668617249,
						"when": 0.17740783095359802,
						"work": -0.07722151279449463,
						"venu": -0.10362749546766281,
						"spent": 0.19374041259288788,
						"life": 0.05764641985297203,
						"aunt": -0.08509838581085205,
						"mother": 0.0025336272083222866,
						"father": -0.033945489674806595,
						"alwai": -0.16532427072525024,
						"grew": -0.17613020539283752,
						"without": 0.06317581981420517,
						"live": -0.001373151084408164,
						"last": -0.09134400635957718,
						"year": 0.07086841017007828,
						"chosen": 0.19354040920734406,
						"present": 0.19752132892608643,
						"wherea": 0.031336162239313126,
						"major": -0.09150537103414536,
						"self": 0.08796282112598419,
						"effici": 0.003276051254943013,
						"due": 0.1874592900276184,
						"loss": -0.026583796367049217,
						"absenc": 0.04678177088499069,
						"lack": -0.17646870017051697,
						"attent": 0.09255106002092361,
						"grown": 0.006182620767503977,
						"nurtur": -0.15067586302757263,
						"rais": 0.12552790343761444,
						"awai": 0.17303763329982758,
						"home": -0.17618143558502197,
						"space": 0.055915866047143936,
						"politc": 0.17756076157093048,
						"function": 0.07011093199253082,
						"son": -0.08672284334897995,
						"focus": 0.19551047682762146,
						"scienc": 0.08279960602521896,
						"career": -0.02743491716682911,
						"leav": 0.18617509305477142,
						"mainli": -0.03263362869620323,
						"kind": 0.18211530148983002,
						"opposit": 0.16124825179576874,
						"bare": -0.09232752025127411,
						"not": -0.09629499167203903,
						"feel": -0.18894751369953156,
						"so": 0.10742286592721939,
						"love": 0.1258653700351715,
						"tradit": 0.06179216504096985,
						"attend": 0.06649862974882126,
						"everi": 0.092484250664711,
						"need": -0.007660209201276302,
						"howev": 0.010406236164271832,
						"type": -0.1595253348350525,
						"went": -0.12841852009296417,
						"miss": 0.1754882037639618,
						"earli": -0.08536724746227264,
						"ag": 0.08943111449480057,
						"close": 0.18870480358600616,
						"complet": -0.12787288427352905,
						"fractur": -0.016596706584095955,
						"possibl": 0.031362928450107574,
						"hand": 0.10535741597414017,
						"half": 0.1791374683380127,
						"retain": -0.17274300754070282,
						"biolog": -0.0833202376961708,
						"resent": 0.07504355907440186,
						"cook": -0.056232862174510956,
						"meal": -0.10836638510227203,
						"take": 0.05718599259853363,
						"grant": -0.1343483030796051,
						"seen": -0.06469225138425827,
						"apart": -0.16452491283416748,
						"mai": -0.020556915551424026,
						"forev": 0.1730106920003891,
						"structur": 0.1749117076396942,
						"that": -0.010160488076508045,
						"planet": 0.10169882327318192,
						"gone": -0.10344772040843964,
						"knit": 0.07175477594137192,
						"her": 0.052427396178245544,
						"isnt": -0.19430674612522125,
						"saw": 0.14893761277198792,
						"littl": -0.20721885561943054,
						"di": -0.034636303782463074,
						"physic": 0.00579172233119607,
						"know": 0.059663962572813034,
						"grow": 0.10150770843029022,
						"differ": -0.0141192227602005,
						"worri": -0.15384285151958466,
						"none": -0.06267953664064407,
						"remark": -0.15371155738830566,
						"yet": 0.08811761438846588,
						"l": -0.010713445022702217,
						"unifi": -0.10584049671888351,
						"almost": 0.1880238950252533,
						"infant": -0.025723934173583984,
						"old": 0.05987512320280075,
						"part": 0.19340075552463531,
						"everydai": 0.012977133505046368,
						"accid": 0.15260715782642365,
						"video": -0.005711772944778204,
						"sent": 0.06180636212229729,
						"remot": 0.021397771313786507,
						"watch": -0.028215527534484863,
						"occupi": 0.09664812684059143,
						"although": 0.17304210364818573,
						"far": 0.053578101098537445,
						"distanc": 0.20092955231666565,
						"fortun": -0.15043164789676666,
						"right": -0.09780462086200714,
						"besid": 0.15124326944351196,
						"share": 0.1227426752448082,
						"thing": -0.1555323302745819,
						"relationship": -0.026358602568507195,
						"child": -0.09315341711044312,
						"usual": -0.09936196357011795,
						"help": 0.059783581644296646,
						"doe": 0.09058544784784317,
						"dead": 0.0726776123046875,
						"adventur": -0.15102991461753845,
						"cost": 0.16706274449825287,
						"knew": 0.13035975396633148,
						"mostli": -0.04881802201271057,
						"often": -0.0846446231007576,
						"absent": 0.01983802579343319,
						"starter": 0.13836047053337097,
						"appar": -0.13344232738018036,
						"chamber": 0.008276756852865219,
						"valu": 0.15310850739479065,
						"scientist": -0.16099610924720764,
						"roughli": -0.04911203309893608,
						"therefor": -0.054002951830625534,
						"face": -0.0625583603978157,
						"babi": -0.1812605857849121,
						"realli": 0.18847347795963287,
						"like": -0.06736262142658234,
						"around": 0.04980146139860153,
						"stereotyp": -0.19526050984859467,
						"nuclear": -0.1754954755306244,
						"consid": -0.11712779849767685,
						"distant": -0.11854575574398041,
						"immedi": 0.06619061529636383,
						"reais": 0.039497870951890945,
						"pass": -0.10515682399272919,
						"basic": -0.09996134042739868,
						"respons": -0.02684812992811203,
						"herself": 0.09692954272031784,
						"took": -0.15434202551841736,
						"o": 0.033849943429231644,
						"shirrana": 0.15574397146701813,
						"dote": 0.16692857444286346,
						"ever": -0.13539646565914154,
						"see": 0.1928827315568924,
						"frquentli": -0.09635233134031296,
						"probabl": -0.10112934559583664,
						"again": 0.18334795534610748,
						"blend": 0.11608877032995224,
						"extend": -0.03870594501495361,
						"member": -0.18628354370594025,
						"singl": 0.03156866133213043,
						"household": 0.07554777711629868,
						"no": 0.020375065505504608,
						"male": -0.0571390837430954,
						"figur": -0.14678293466567993,
						"big": 0.06955504417419434,
						"portion": -0.17484301328659058,
						"childhood": 0.11805298924446106,
						"demonstr": -0.13958923518657684,
						"affect": 0.08360651135444641,
						"disappear": 0.1603083610534668,
						"w": -0.18163388967514038,
						"tight": 0.18603666126728058,
						"entir": -0.13789665699005127,
						"provid": -0.08577422797679901,
						"safe": -0.14183151721954346,
						"environ": -0.1284654140472412,
						"broken": -0.08893759548664093,
						"dynam": 0.17486856877803802,
						"gave": 0.14070653915405273,
						"daught": -0.06372340023517609,
						"put": -0.18082311749458313,
						"person": -0.15394234657287598,
						"endeavor": -0.18762743473052979,
						"somewhat": -0.09015738219022751,
						"asid": 0.09568845480680466,
						"remain": -0.16325049102306366,
						"pursu": -0.03966175764799118,
						"biochemistri": 0.08725368231534958,
						"explor": 0.04979502409696579,
						"even": -0.19562889635562897,
						"pai": 0.010779897682368755,
						"unlik": -0.057284269481897354,
						"direct": -0.04476368799805641,
						"memori": -0.11730595678091049,
						"show": 0.16154882311820984,
						"freeli": 0.04880950227379799,
						"involv": -0.07120287418365479,
						"muc": 0.14793121814727783,
						"avail": -0.02443903684616089,
						"pictur": -0.012645263224840164,
						"dream": -0.12873117625713348,
						"hour": -0.12499050796031952,
						"aliv": 0.18165098130702972,
						"appear": -0.18014568090438843,
						"less": 0.06583132594823837,
						"isn": -0.04093778133392334,
						"aot": 0.13267667591571808,
						"fragment": -0.07965070009231567,
						"tragic": 0.16511665284633636,
						"event": -0.02567901834845543,
						"super": 0.10897961258888245,
						"convent": -0.10217536240816116,
						"eager": -0.13531126081943512,
						"unconvent": -0.09024609625339508,
						"hardli": 0.04456567391753197,
						"strong": -0.08856354653835297,
						"sup": 0.10570208728313446,
						"ao": 0.119137242436409,
						"hasn": -0.09269427508115768,
						"younger": -0.08004354685544968,
						"shrianna": 0.15645846724510193,
						"consist": 0.14179468154907227,
						"unit": -0.14574383199214935,
						"bright": 0.11443708091974258,
						"fascin": 0.011034737341105938,
						"risk": -0.17362894117832184,
						"go": -0.0637473464012146,
						"select": -0.10621500015258789,
						"colon": -0.18423432111740112,
						"becau": 0.0035990355536341667,
						"fin": 0.03522299602627754
					}
				},
				"4": {
					"bias": 0.18767140805721283,
					"weights": {
						"2": -0.1881728619337082,
						"5": -0.19537150859832764,
						"6": -0.0018996926955878735,
						"adam": 0.10967859625816345,
						"case": 0.08019033074378967,
						"togeth": -0.091337189078331,
						"shiranna": -0.1012970432639122,
						"famili": 0.07167643308639526,
						"separ": -0.03683391958475113,
						"she": 0.11172623187303543,
						"young": -0.1742144227027893,
						"care": -0.02183395065367222,
						"perfect": 0.04276275634765625,
						"busi": -0.18607883155345917,
						"mom": 0.1887652724981308,
						"dad": -0.04144397750496864,
						"left": 0.05688393861055374,
						"job": 0.11908774822950363,
						"parent": -0.17562691867351532,
						"support": 0.13200300931930542,
						"time": 0.12879356741905212,
						"seem": -0.14460216462612152,
						"noth": 0.060768064111471176,
						"bad": -0.010753913782536983,
						"happen": 0.06436559557914734,
						"lost": -0.09161420166492462,
						"when": -0.026008492335677147,
						"work": 0.10366107523441315,
						"venu": -0.13969871401786804,
						"spent": -0.07247059047222137,
						"life": -0.17568939924240112,
						"aunt": -0.04318181052803993,
						"mother": -0.07238364219665527,
						"father": -0.08006823807954788,
						"alwai": 0.10538458079099655,
						"grew": -0.14365048706531525,
						"without": -0.20028412342071533,
						"live": -0.014755887910723686,
						"last": 0.11510752886533737,
						"year": -0.12681594491004944,
						"chosen": 0.19052773714065552,
						"present": 0.06462879478931427,
						"wherea": 0.13084812462329865,
						"major": 0.13189643621444702,
						"self": -0.13848385214805603,
						"effici": 0.01660761423408985,
						"due": -0.058171167969703674,
						"loss": 0.026400724425911903,
						"absenc": -0.14075171947479248,
						"lack": 0.09394700825214386,
						"attent": 0.07762034982442856,
						"grown": 0.07526396960020065,
						"nurtur": -0.09525850415229797,
						"rais": -0.06637819856405258,
						"awai": 0.0317651703953743,
						"home": 0.13989825546741486,
						"space": 0.1769694834947586,
						"politc": 0.01677892915904522,
						"function": -0.1817447394132614,
						"son": -0.057748083025217056,
						"focus": -0.15703034400939941,
						"scienc": 0.1962321251630783,
						"career": 0.14395171403884888,
						"leav": -0.15857838094234467,
						"mainli": 0.18820413947105408,
						"kind": -0.1056710034608841,
						"opposit": -0.08044569939374924,
						"bare": 0.006280665751546621,
						"not": 0.06878440082073212,
						"feel": -0.11319159716367722,
						"so": -0.016998568549752235,
						"love": 0.1564604789018631,
						"tradit": -0.16070812940597534,
						"attend": 0.14321675896644592,
						"everi": 0.02009267359972,
						"need": -0.027111785486340523,
						"howev": -0.18971748650074005,
						"type": 0.19693107903003693,
						"went": 0.17362016439437866,
						"miss": 0.07673622667789459,
						"earli": -0.030073512345552444,
						"ag": 0.10550626367330551,
						"close": 0.052571892738342285,
						"complet": 0.17688554525375366,
						"fractur": -0.16780118644237518,
						"possibl": 0.08272122591733932,
						"hand": 0.06311779469251633,
						"half": 0.07635190337896347,
						"retain": 0.12411303073167801,
						"biolog": 0.14841818809509277,
						"resent": -0.19297079741954803,
						"cook": -0.1005423367023468,
						"meal": 0.05755874142050743,
						"take": 0.03271213546395302,
						"grant": -0.11346805095672607,
						"seen": 0.11336899548768997,
						"apart": 0.004197798203676939,
						"mai": -0.038576390594244,
						"forev": 0.16732759773731232,
						"structur": 0.002001912798732519,
						"that": -0.10107268393039703,
						"planet": 0.1525052785873413,
						"gone": 0.06694430857896805,
						"knit": 0.013425447978079319,
						"her": 0.13272669911384583,
						"isnt": -0.1431233137845993,
						"saw": -0.12187725305557251,
						"littl": 0.006123616360127926,
						"di": 0.19601623713970184,
						"physic": 0.07314257323741913,
						"know": -0.11724035441875458,
						"grow": -0.061047833412885666,
						"differ": 0.15866057574748993,
						"worri": 0.047467466443777084,
						"none": 0.1504824459552765,
						"remark": -0.04321829974651337,
						"yet": -0.07414495944976807,
						"l": -0.025365017354488373,
						"unifi": -0.11597947031259537,
						"almost": -0.018663199618458748,
						"infant": -0.02563023567199707,
						"old": 0.16797420382499695,
						"part": 0.04966520145535469,
						"everydai": -0.1724664568901062,
						"accid": 0.1449677050113678,
						"video": 0.1648245006799698,
						"sent": -0.08818991482257843,
						"remot": 0.08537785708904266,
						"watch": -0.17509233951568604,
						"occupi": 0.025105705484747887,
						"although": 0.1445050984621048,
						"far": 0.09153661131858826,
						"distanc": 0.008100121282041073,
						"fortun": -0.1530960351228714,
						"right": -0.18097327649593353,
						"besid": -0.0677127093076706,
						"share": 0.06985189765691757,
						"thing": -0.1327913999557495,
						"relationship": 0.03272436186671257,
						"child": 0.18493087589740753,
						"usual": 0.14699235558509827,
						"help": 0.1698053628206253,
						"doe": 0.19791260361671448,
						"dead": 0.029541857540607452,
						"adventur": 0.015438904985785484,
						"cost": -0.07622085511684418,
						"knew": -0.18644024431705475,
						"mostli": 0.07839812338352203,
						"often": 0.07456459105014801,
						"absent": -0.09140557795763016,
						"starter": -0.09286294877529144,
						"appar": 0.08828100562095642,
						"chamber": -0.13897639513015747,
						"valu": -0.1038547083735466,
						"scientist": 0.06396894156932831,
						"roughli": 0.08382090926170349,
						"therefor": 0.09038626402616501,
						"face": -0.07447712868452072,
						"babi": 0.1784224957227707,
						"realli": -0.1926906406879425,
						"like": 0.10487548261880875,
						"around": 0.10639682412147522,
						"stereotyp": 0.14812585711479187,
						"nuclear": 0.03709399327635765,
						"consid": 0.029028108343482018,
						"distant": -0.04455771669745445,
						"immedi": -0.054852839559316635,
						"reais": 0.0321541391313076,
						"pass": -0.042228035628795624,
						"basic": -0.0792846605181694,
						"respons": 0.0006276124622672796,
						"herself": -0.052103251218795776,
						"took": 0.11299184709787369,
						"o": -0.007286044768989086,
						"shirrana": -0.04379331320524216,
						"dote": -0.00030791552853770554,
						"ever": -0.13142946362495422,
						"see": 0.19749298691749573,
						"frquentli": 0.025758011266589165,
						"probabl": 0.03067220374941826,
						"again": 0.05792950466275215,
						"blend": 0.1814071387052536,
						"extend": 0.0744197815656662,
						"member": 0.07396113127470016,
						"singl": -0.1491333395242691,
						"household": 0.19806775450706482,
						"no": 0.0435883030295372,
						"male": 0.049331486225128174,
						"figur": 0.13102321326732635,
						"big": 0.13471314311027527,
						"portion": 0.1784050166606903,
						"childhood": -0.15027855336666107,
						"demonstr": 0.007520765066146851,
						"affect": 0.06455603986978531,
						"disappear": -0.06349698454141617,
						"w": -0.10784829407930374,
						"tight": -0.04735882207751274,
						"entir": -0.19775889813899994,
						"provid": -0.00915430672466755,
						"safe": 0.14438137412071228,
						"environ": -0.18899039924144745,
						"broken": -0.10894840955734253,
						"dynam": 0.009984606876969337,
						"gave": -0.17044876515865326,
						"daught": -0.11811759322881699,
						"put": 0.018134893849492073,
						"person": -0.012915034778416157,
						"endeavor": 0.03908894583582878,
						"somewhat": -0.10434860736131668,
						"asid": 0.18108634650707245,
						"remain": 0.0418277271091938,
						"pursu": -0.016515536233782768,
						"biochemistri": -0.04924213886260986,
						"explor": 0.06691503524780273,
						"even": 0.16948825120925903,
						"pai": 0.12190824747085571,
						"unlik": 0.12619635462760925,
						"direct": -0.00555560365319252,
						"memori": -0.08167748898267746,
						"show": -0.13657644391059875,
						"freeli": 0.19440802931785583,
						"involv": 0.17328466475009918,
						"muc": -0.04391906410455704,
						"avail": 0.1569732278585434,
						"pictur": -0.009886620566248894,
						"dream": 0.13019457459449768,
						"hour": -0.06683360040187836,
						"aliv": 0.19883349537849426,
						"appear": 0.16518183052539825,
						"less": 0.10519371926784515,
						"isn": -0.13761723041534424,
						"aot": -0.08263430744409561,
						"fragment": 0.13157474994659424,
						"tragic": 0.1745070219039917,
						"event": -0.19407451152801514,
						"super": -0.0576474592089653,
						"convent": 0.07022485882043839,
						"eager": 0.08017467707395554,
						"unconvent": 0.12696808576583862,
						"hardli": 0.06183112412691116,
						"strong": 0.0013141422532498837,
						"sup": 0.017429623752832413,
						"ao": -0.15786585211753845,
						"hasn": -0.015539413318037987,
						"younger": -0.005717762280255556,
						"shrianna": -0.1453733742237091,
						"consist": -0.19862885773181915,
						"unit": -0.18444222211837769,
						"bright": 0.004351383540779352,
						"fascin": 0.19906115531921387,
						"risk": -0.19516144692897797,
						"go": 0.16605812311172485,
						"select": 0.06576588749885559,
						"colon": -0.1623583436012268,
						"becau": 0.06816557049751282,
						"fin": 0.055719487369060516
					}
				},
				"5": {
					"bias": 0.1144818663597107,
					"weights": {
						"2": 0.20348459482192993,
						"5": -0.11967472732067108,
						"6": 0.1370740681886673,
						"adam": 0.16130483150482178,
						"case": 0.12810541689395905,
						"togeth": -0.1786058098077774,
						"shiranna": 0.03426960110664368,
						"famili": 0.24835288524627686,
						"separ": 0.12224108725786209,
						"she": 0.08247280865907669,
						"young": -0.12613064050674438,
						"care": -0.17555846273899078,
						"perfect": -0.09148230403661728,
						"busi": -0.036232490092515945,
						"mom": -0.05073953792452812,
						"dad": -0.11514576524496078,
						"left": -0.011119076050817966,
						"job": 0.09302188456058502,
						"parent": 0.14091913402080536,
						"support": -0.14787670969963074,
						"time": -0.16332951188087463,
						"seem": -0.13334313035011292,
						"noth": -0.0010851627448573709,
						"bad": -0.1283694952726364,
						"happen": -0.03352895751595497,
						"lost": 0.18814672529697418,
						"when": 0.04408520087599754,
						"work": 0.06171932443976402,
						"venu": 0.1851736158132553,
						"spent": -0.12976603209972382,
						"life": -0.17575402557849884,
						"aunt": 0.1474018394947052,
						"mother": -0.061972759664058685,
						"father": 0.15032483637332916,
						"alwai": 0.1026945412158966,
						"grew": 0.06457985192537308,
						"without": 0.10812333226203918,
						"live": -0.047961533069610596,
						"last": -0.1145816221833229,
						"year": 0.13982708752155304,
						"chosen": -0.12529262900352478,
						"present": -0.18975242972373962,
						"wherea": -0.1232866644859314,
						"major": -0.18525028228759766,
						"self": 0.11581092327833176,
						"effici": -0.002064500469714403,
						"due": -0.19495312869548798,
						"loss": -0.13677285611629486,
						"absenc": -0.021545173600316048,
						"lack": -0.06791368871927261,
						"attent": 0.20725412666797638,
						"grown": 0.12679028511047363,
						"nurtur": 0.020989229902625084,
						"rais": 0.09949354827404022,
						"awai": 0.04202524945139885,
						"home": -0.04967928305268288,
						"space": 0.003713136538863182,
						"politc": 0.06440632045269012,
						"function": 0.016747532412409782,
						"son": -0.05850179120898247,
						"focus": 0.16430439054965973,
						"scienc": -0.04704039543867111,
						"career": 0.18882153928279877,
						"leav": -0.0012836401583626866,
						"mainli": 0.12926848232746124,
						"kind": -0.18108457326889038,
						"opposit": 0.0006775534129701555,
						"bare": -0.17889930307865143,
						"not": 0.09509630501270294,
						"feel": -0.0363740511238575,
						"so": 0.03988076001405716,
						"love": 0.20297293365001678,
						"tradit": -0.16415825486183167,
						"attend": -0.1297876536846161,
						"everi": 0.09024354815483093,
						"need": 0.17974694073200226,
						"howev": 0.16234804689884186,
						"type": 0.09289583563804626,
						"went": 0.1910967230796814,
						"miss": 0.03706102445721626,
						"earli": 0.014824483543634415,
						"ag": 0.1918792575597763,
						"close": -0.014456617645919323,
						"complet": -0.10458843410015106,
						"fractur": 0.08868392556905746,
						"possibl": 0.09256362169981003,
						"hand": -0.11241542547941208,
						"half": -0.18406488001346588,
						"retain": 0.08788562566041946,
						"biolog": -0.1733720302581787,
						"resent": -0.04879773035645485,
						"cook": -0.19312159717082977,
						"meal": -0.1847410351037979,
						"take": 0.20660614967346191,
						"grant": 0.019762905314564705,
						"seen": 0.04877458140254021,
						"apart": 0.17388200759887695,
						"mai": -0.16079840064048767,
						"forev": 0.06238102912902832,
						"structur": 0.14275023341178894,
						"that": -0.13029739260673523,
						"planet": 0.14649495482444763,
						"gone": 0.06687689572572708,
						"knit": 0.048380181193351746,
						"her": -0.02337699942290783,
						"isnt": 0.10336767137050629,
						"saw": 0.049238257110118866,
						"littl": -0.1552438735961914,
						"di": 0.012222264893352985,
						"physic": 0.18094681203365326,
						"know": -0.08811626583337784,
						"grow": -0.12189892679452896,
						"differ": -0.04968264326453209,
						"worri": 0.192129984498024,
						"none": -0.10240481793880463,
						"remark": -0.04065977409482002,
						"yet": -0.0032985324505716562,
						"l": -0.023503495380282402,
						"unifi": 0.13477811217308044,
						"almost": 0.01710817962884903,
						"infant": 0.12833862006664276,
						"old": 0.17080463469028473,
						"part": 0.19345687329769135,
						"everydai": -0.09247974306344986,
						"accid": -0.01589115522801876,
						"video": -0.015125044621527195,
						"sent": -0.02509128488600254,
						"remot": -0.10786350816488266,
						"watch": 0.06522957235574722,
						"occupi": -0.04286714270710945,
						"although": 0.03605001047253609,
						"far": 0.03672410175204277,
						"distanc": 0.025688588619232178,
						"fortun": -0.05764878913760185,
						"right": -0.15531368553638458,
						"besid": 0.1385679394006729,
						"share": 0.040755484253168106,
						"thing": -0.012396903708577156,
						"relationship": 0.06475134193897247,
						"child": -0.049091678112745285,
						"usual": 0.03717094287276268,
						"help": -0.1776973158121109,
						"doe": -0.08715741336345673,
						"dead": -0.07041935622692108,
						"adventur": 0.1326526254415512,
						"cost": 0.01130686141550541,
						"knew": -0.13829289376735687,
						"mostli": 0.025206509977579117,
						"often": 0.09848592430353165,
						"absent": 0.193787083029747,
						"starter": -0.1672641634941101,
						"appar": 0.015508303418755531,
						"chamber": 0.19913895428180695,
						"valu": -0.07058696448802948,
						"scientist": 0.16020497679710388,
						"roughli": -0.06425396353006363,
						"therefor": -0.18450146913528442,
						"face": 0.10842427611351013,
						"babi": 0.19223231077194214,
						"realli": -0.06062262877821922,
						"like": 0.026520604267716408,
						"around": 0.027326922863721848,
						"stereotyp": 0.16289032995700836,
						"nuclear": 0.016899248585104942,
						"consid": -0.02959679625928402,
						"distant": 0.0904458537697792,
						"immedi": -0.08666826039552689,
						"reais": -0.07148059457540512,
						"pass": -0.19527211785316467,
						"basic": -0.05598139017820358,
						"respons": -0.14849317073822021,
						"herself": 0.12624862790107727,
						"took": 0.014431607909500599,
						"o": 0.17264722287654877,
						"shirrana": -0.22332490980625153,
						"dote": 0.11427272111177444,
						"ever": 0.15802578628063202,
						"see": 0.07364726066589355,
						"frquentli": 0.196480855345726,
						"probabl": 0.08105143904685974,
						"again": -0.09773522615432739,
						"blend": -0.011294188909232616,
						"extend": 0.02042459137737751,
						"member": -0.04018325358629227,
						"singl": -0.15707817673683167,
						"household": -0.11052017658948898,
						"no": 0.12923437356948853,
						"male": -0.16842465102672577,
						"figur": -0.19333265721797943,
						"big": -0.08827631175518036,
						"portion": 0.005641008261591196,
						"childhood": -0.18571442365646362,
						"demonstr": 0.0015242809895426035,
						"affect": 0.11872262507677078,
						"disappear": -0.038720473647117615,
						"w": 0.1467318832874298,
						"tight": 0.022371787577867508,
						"entir": 0.058047302067279816,
						"provid": 0.01415685098618269,
						"safe": 0.04188764467835426,
						"environ": 0.14413835108280182,
						"broken": -0.092143215239048,
						"dynam": -0.17745710909366608,
						"gave": -0.15939028561115265,
						"daught": 0.15004470944404602,
						"put": -0.08062168210744858,
						"person": 0.17235822975635529,
						"endeavor": -0.006802261341363192,
						"somewhat": -0.1822766214609146,
						"asid": 0.024449188262224197,
						"remain": -0.015883883461356163,
						"pursu": -0.16894608736038208,
						"biochemistri": -0.02224884368479252,
						"explor": -0.1545654833316803,
						"even": -0.003375969361513853,
						"pai": -0.08761241286993027,
						"unlik": 0.1228502094745636,
						"direct": 0.11873972415924072,
						"memori": 0.14375022053718567,
						"show": 0.11861176788806915,
						"freeli": -0.01697867177426815,
						"involv": 0.09716116636991501,
						"muc": -0.14064930379390717,
						"avail": 0.045510463416576385,
						"pictur": 0.11654716730117798,
						"dream": -0.18617425858974457,
						"hour": 0.08629929274320602,
						"aliv": 0.047268565744161606,
						"appear": -0.07770649343729019,
						"less": -0.15918448567390442,
						"isn": -0.10640951991081238,
						"aot": -0.037189844995737076,
						"fragment": -0.19704200327396393,
						"tragic": -0.04896298423409462,
						"event": 0.02875582128763199,
						"super": 0.18898577988147736,
						"convent": -0.1909562349319458,
						"eager": 0.1472678929567337,
						"unconvent": -0.03257674351334572,
						"hardli": -0.053722016513347626,
						"strong": -0.070561483502388,
						"sup": 0.13980793952941895,
						"ao": -0.0023998450487852097,
						"hasn": -0.13190114498138428,
						"younger": 0.16470694541931152,
						"shrianna": 0.05346374586224556,
						"consist": 0.013961665332317352,
						"unit": -0.11446963995695114,
						"bright": 0.12083667516708374,
						"fascin": -0.06083152815699577,
						"risk": 0.0857926532626152,
						"go": -0.09616116434335709,
						"select": 0.1095915362238884,
						"colon": -0.0864400863647461,
						"becau": 0.16692444682121277,
						"fin": -0.18498964607715607
					}
				},
				"6": {
					"bias": -0.05942264571785927,
					"weights": {
						"2": 0.10957299172878265,
						"5": -0.11009860038757324,
						"6": -0.13049112260341644,
						"adam": 0.0825565829873085,
						"case": 0.004321977961808443,
						"togeth": -0.05422060936689377,
						"shiranna": 0.03606889024376869,
						"famili": -0.11820346862077713,
						"separ": -0.205681711435318,
						"she": 0.0030966848134994507,
						"young": -0.11327825486660004,
						"care": -0.0046478030271828175,
						"perfect": 0.02946440689265728,
						"busi": -0.11138395220041275,
						"mom": -0.12352178990840912,
						"dad": -0.0026169922202825546,
						"left": 0.048127494752407074,
						"job": 0.06379979103803635,
						"parent": -0.02982044406235218,
						"support": -0.05786111205816269,
						"time": 0.08001913875341415,
						"seem": 0.12234711647033691,
						"noth": 0.06770557165145874,
						"bad": 0.16375285387039185,
						"happen": -0.0038252477534115314,
						"lost": 0.17395053803920746,
						"when": -0.0583588145673275,
						"work": -0.14632126688957214,
						"venu": -0.13399456441402435,
						"spent": -0.1592649668455124,
						"life": -0.1756703406572342,
						"aunt": 0.2137211114168167,
						"mother": 0.05605752766132355,
						"father": 0.07765784859657288,
						"alwai": -0.00426913145929575,
						"grew": -0.102248415350914,
						"without": 0.09843821823596954,
						"live": -0.10255944728851318,
						"last": 0.1485757827758789,
						"year": 0.04159640893340111,
						"chosen": -0.036469873040914536,
						"present": -0.03488285467028618,
						"wherea": -0.11522034555673599,
						"major": 0.16709019243717194,
						"self": 0.15633511543273926,
						"effici": 0.08223679661750793,
						"due": 0.06585285812616348,
						"loss": -0.18720418214797974,
						"absenc": -0.19720123708248138,
						"lack": -0.11642207205295563,
						"attent": 0.10584183782339096,
						"grown": 0.10809671133756638,
						"nurtur": -0.11884542554616928,
						"rais": 0.12017139047384262,
						"awai": -0.13511762022972107,
						"home": -0.15131592750549316,
						"space": 0.09597533941268921,
						"politc": 0.11056745797395706,
						"function": 0.018466437235474586,
						"son": -0.1952880471944809,
						"focus": -0.1169251874089241,
						"scienc": 0.008028139360249043,
						"career": -0.18673771619796753,
						"leav": 0.07030943781137466,
						"mainli": 0.013594408519566059,
						"kind": 0.06341028958559036,
						"opposit": -0.042945269495248795,
						"bare": 0.057521287351846695,
						"not": 0.1846408098936081,
						"feel": 0.09867054969072342,
						"so": -0.016208553686738014,
						"love": 0.1355261653661728,
						"tradit": -0.14908245205879211,
						"attend": 0.0100429467856884,
						"everi": 0.09054361283779144,
						"need": 0.0031740283593535423,
						"howev": -0.041985321789979935,
						"type": 0.16172952950000763,
						"went": -0.12774674594402313,
						"miss": -0.049598973244428635,
						"earli": -0.0873996913433075,
						"ag": 0.1650972217321396,
						"close": -0.10302004963159561,
						"complet": 0.08860719203948975,
						"fractur": -0.18269190192222595,
						"possibl": -0.15573962032794952,
						"hand": -0.0997295007109642,
						"half": 0.10497457534074783,
						"retain": -0.04175925999879837,
						"biolog": 0.12459398806095123,
						"resent": 0.02000132016837597,
						"cook": -0.13066060841083527,
						"meal": -0.13746850192546844,
						"take": 0.1018817275762558,
						"grant": -0.07666485756635666,
						"seen": 0.06630587577819824,
						"apart": 0.03796902671456337,
						"mai": 0.04474091902375221,
						"forev": 0.02699771337211132,
						"structur": -0.17219607532024384,
						"that": 0.025906985625624657,
						"planet": 0.1422673910856247,
						"gone": -0.08441576361656189,
						"knit": -0.1813456118106842,
						"her": -0.21257412433624268,
						"isnt": 0.019986487925052643,
						"saw": 0.18166479468345642,
						"littl": 0.1058066189289093,
						"di": -0.08880986273288727,
						"physic": 0.1999455690383911,
						"know": -0.12375884503126144,
						"grow": -0.1837741583585739,
						"differ": -0.11318075656890869,
						"worri": -0.1320880949497223,
						"none": 0.11890511214733124,
						"remark": 0.14617013931274414,
						"yet": 0.05838063359260559,
						"l": 0.010853868909180164,
						"unifi": 0.1794680655002594,
						"almost": 0.18809925019741058,
						"infant": 0.12370102107524872,
						"old": -0.16738861799240112,
						"part": 0.010030611418187618,
						"everydai": -0.14494125545024872,
						"accid": 0.04083501547574997,
						"video": 0.030695484951138496,
						"sent": -0.050578225404024124,
						"remot": -0.001235715695656836,
						"watch": -0.03149981051683426,
						"occupi": 0.131807342171669,
						"although": 0.05427197366952896,
						"far": 0.08834410458803177,
						"distanc": 0.05513174831867218,
						"fortun": -0.1878034770488739,
						"right": 0.1856357753276825,
						"besid": 0.1998067945241928,
						"share": -0.06665998697280884,
						"thing": 0.03362201526761055,
						"relationship": 0.194296196103096,
						"child": 0.1546616107225418,
						"usual": -0.10330749303102493,
						"help": -0.15525315701961517,
						"doe": 0.05982203409075737,
						"dead": 0.14217877388000488,
						"adventur": 0.11091163009405136,
						"cost": -0.06792275607585907,
						"knew": 0.039357222616672516,
						"mostli": -0.16156677901744843,
						"often": 0.13529939949512482,
						"absent": -0.10439950972795486,
						"starter": 0.09192529320716858,
						"appar": -0.18099015951156616,
						"chamber": -0.03776278719305992,
						"valu": -0.03317437320947647,
						"scientist": -0.06500764936208725,
						"roughli": -0.09812980145215988,
						"therefor": 0.05831445753574371,
						"face": -0.19495321810245514,
						"babi": 0.16278988122940063,
						"realli": -0.033816758543252945,
						"like": -0.08271057158708572,
						"around": 0.12130968272686005,
						"stereotyp": -0.14674803614616394,
						"nuclear": 0.18652595579624176,
						"consid": 0.006869854871183634,
						"distant": -0.08829691261053085,
						"immedi": -0.042762573808431625,
						"reais": -0.08889079838991165,
						"pass": 0.09896104782819748,
						"basic": -0.123918317258358,
						"respons": -0.10507475584745407,
						"herself": -0.12783050537109375,
						"took": 0.04858621209859848,
						"o": -0.1977953016757965,
						"shirrana": -0.07870355248451233,
						"dote": -0.14043447375297546,
						"ever": -0.04016111046075821,
						"see": 0.02215534634888172,
						"frquentli": 0.10354037582874298,
						"probabl": 0.068834587931633,
						"again": -0.1775801032781601,
						"blend": -0.07397109270095825,
						"extend": -0.08350146561861038,
						"member": 0.10535534471273422,
						"singl": -0.07069477438926697,
						"household": -0.10031148791313171,
						"no": -0.0787908285856247,
						"male": 0.038158074021339417,
						"figur": -0.04767942801117897,
						"big": 0.06574507057666779,
						"portion": -0.1967192441225052,
						"childhood": 0.031007040292024612,
						"demonstr": 0.17960305511951447,
						"affect": -0.13210488855838776,
						"disappear": 0.1878175288438797,
						"w": -0.10257771611213684,
						"tight": 0.1894845962524414,
						"entir": 0.16079825162887573,
						"provid": -0.15473578870296478,
						"safe": -0.12850521504878998,
						"environ": 0.11707455664873123,
						"broken": -0.1678670346736908,
						"dynam": 0.1587354987859726,
						"gave": 0.009292772971093655,
						"daught": 0.03882194310426712,
						"put": -0.08456506580114365,
						"person": -0.15540243685245514,
						"endeavor": -0.01600523665547371,
						"somewhat": 0.16539886593818665,
						"asid": -0.047736756503582,
						"remain": -0.10209755599498749,
						"pursu": -0.092128686606884,
						"biochemistri": 0.03820545971393585,
						"explor": 0.13387806713581085,
						"even": -0.17210888862609863,
						"pai": -0.010015872307121754,
						"unlik": 0.10130402445793152,
						"direct": -0.17298658192157745,
						"memori": 0.16201743483543396,
						"show": -0.10267261415719986,
						"freeli": -0.1979478895664215,
						"involv": -0.1789468377828598,
						"muc": -0.039758529514074326,
						"avail": 0.020456861704587936,
						"pictur": 0.09903906285762787,
						"dream": -0.041095033288002014,
						"hour": 0.17137183248996735,
						"aliv": -0.13647523522377014,
						"appear": -0.03290906921029091,
						"less": -0.19031444191932678,
						"isn": 0.17975252866744995,
						"aot": 0.06069021672010422,
						"fragment": -0.0663844496011734,
						"tragic": -0.04284146800637245,
						"event": -0.025870496407151222,
						"super": -0.03475469723343849,
						"convent": -0.06849287450313568,
						"eager": 0.09383638948202133,
						"unconvent": 0.054703354835510254,
						"hardli": -0.15535397827625275,
						"strong": -0.016475729644298553,
						"sup": -0.028061402961611748,
						"ao": -0.04697037115693092,
						"hasn": -0.16977395117282867,
						"younger": -0.04549607262015343,
						"shrianna": -0.16539281606674194,
						"consist": -0.03813212737441063,
						"unit": 0.14362488687038422,
						"bright": 0.1348651498556137,
						"fascin": 0.020732611417770386,
						"risk": 0.1795220673084259,
						"go": 0.00715509383007884,
						"select": 0.10818742215633392,
						"colon": 0.18862220644950867,
						"becau": 0.0824369564652443,
						"fin": 0.18322642147541046
					}
				},
				"7": {
					"bias": 0.1556759476661682,
					"weights": {
						"2": 0.05548501014709473,
						"5": 0.17353452742099762,
						"6": 0.0630490705370903,
						"adam": 0.14686892926692963,
						"case": -0.118736632168293,
						"togeth": 0.15110383927822113,
						"shiranna": 0.023881923407316208,
						"famili": 0.15122026205062866,
						"separ": -0.17341721057891846,
						"she": 0.012315592728555202,
						"young": 0.12880942225456238,
						"care": 0.04279661178588867,
						"perfect": -0.12522225081920624,
						"busi": -0.0443635918200016,
						"mom": 0.17569394409656525,
						"dad": 0.03333710506558418,
						"left": 0.16759251058101654,
						"job": -0.12760679423809052,
						"parent": 0.16341646015644073,
						"support": -0.19217826426029205,
						"time": -0.13801898062229156,
						"seem": 0.1433648318052292,
						"noth": 0.00042106289765797555,
						"bad": 0.04836830869317055,
						"happen": -0.025584645569324493,
						"lost": 0.16900305449962616,
						"when": 0.10609125345945358,
						"work": 0.06565260887145996,
						"venu": -0.024936290457844734,
						"spent": 0.11281885206699371,
						"life": -0.057005755603313446,
						"aunt": -0.014827224425971508,
						"mother": -0.01232247892767191,
						"father": -0.15593868494033813,
						"alwai": -0.16638605296611786,
						"grew": -0.10392829030752182,
						"without": 0.018617337569594383,
						"live": -0.1937791407108307,
						"last": -0.18758557736873627,
						"year": 0.10764425247907639,
						"chosen": -0.09983418136835098,
						"present": -0.1980697363615036,
						"wherea": -0.021611178293824196,
						"major": 0.15981346368789673,
						"self": 0.1404547244310379,
						"effici": 0.15658076107501984,
						"due": 0.18003003299236298,
						"loss": -0.14473126828670502,
						"absenc": -0.0006029169308021665,
						"lack": 0.11647432297468185,
						"attent": -0.06261443346738815,
						"grown": 0.0175922978669405,
						"nurtur": 0.023497430607676506,
						"rais": -0.08685373514890671,
						"awai": 0.10154839605093002,
						"home": 0.1660015732049942,
						"space": -0.030732112005352974,
						"politc": -0.12835925817489624,
						"function": 0.18170510232448578,
						"son": 0.19313715398311615,
						"focus": 0.18235577642917633,
						"scienc": -0.0991559773683548,
						"career": 0.12049654126167297,
						"leav": 0.18458421528339386,
						"mainli": -0.04132824391126633,
						"kind": -0.12100505083799362,
						"opposit": 0.014926298521459103,
						"bare": 0.05673480033874512,
						"not": 0.15590494871139526,
						"feel": 0.117550790309906,
						"so": -0.11987915635108948,
						"love": -0.11541279405355453,
						"tradit": -0.010237889364361763,
						"attend": -0.18798744678497314,
						"everi": -0.11691109091043472,
						"need": 0.16891111433506012,
						"howev": 0.010189536027610302,
						"type": -0.16553345322608948,
						"went": -0.10843533277511597,
						"miss": 0.0672374740242958,
						"earli": -0.019701750949025154,
						"ag": -0.0450948141515255,
						"close": -0.18471504747867584,
						"complet": 0.04210926964879036,
						"fractur": 0.07608791440725327,
						"possibl": -0.15260674059391022,
						"hand": -0.1918310970067978,
						"half": -0.043307434767484665,
						"retain": 0.01830231584608555,
						"biolog": 0.06947797536849976,
						"resent": 0.0036117499694228172,
						"cook": 0.014323050156235695,
						"meal": 0.16648095846176147,
						"take": 0.12675973773002625,
						"grant": 0.06407525390386581,
						"seen": -0.16562102735042572,
						"apart": 0.006766824517399073,
						"mai": -0.06269461661577225,
						"forev": -0.09123600274324417,
						"structur": -0.06416493654251099,
						"that": -0.022005492821335793,
						"planet": -0.011337598785758018,
						"gone": 0.10236740857362747,
						"knit": -0.17855681478977203,
						"her": -0.0762333944439888,
						"isnt": 0.07063237577676773,
						"saw": -0.1715673804283142,
						"littl": -0.04320623725652695,
						"di": -0.12339325249195099,
						"physic": 0.01746775582432747,
						"know": 0.19104866683483124,
						"grow": -0.06671516597270966,
						"differ": -0.0948643684387207,
						"worri": 0.06283050030469894,
						"none": 0.08716438710689545,
						"remark": 0.16880647838115692,
						"yet": -0.1226867064833641,
						"l": 0.19302013516426086,
						"unifi": -0.1321621835231781,
						"almost": -0.10326135903596878,
						"infant": 0.06243652105331421,
						"old": 0.16369007527828217,
						"part": -0.19684210419654846,
						"everydai": 0.12091440707445145,
						"accid": 0.10015324503183365,
						"video": 0.18900330364704132,
						"sent": -0.09360438585281372,
						"remot": -0.004576052539050579,
						"watch": -0.09649448096752167,
						"occupi": -0.19363807141780853,
						"although": 0.1836940050125122,
						"far": 0.1653885692358017,
						"distanc": 0.14207784831523895,
						"fortun": 0.03772088140249252,
						"right": 0.07088866084814072,
						"besid": -0.07321809232234955,
						"share": -0.122334785759449,
						"thing": -0.17661847174167633,
						"relationship": 0.0629214271903038,
						"child": 0.030492642894387245,
						"usual": -0.124053955078125,
						"help": 0.0041069709695875645,
						"doe": 0.09303168207406998,
						"dead": 0.020629363134503365,
						"adventur": -0.17965275049209595,
						"cost": -0.18617494404315948,
						"knew": 0.19419486820697784,
						"mostli": -0.13120229542255402,
						"often": 0.1586216539144516,
						"absent": -0.1962684690952301,
						"starter": -0.0011488316813483834,
						"appar": 0.05461355671286583,
						"chamber": 0.13204649090766907,
						"valu": 0.03623628243803978,
						"scientist": 0.04355263710021973,
						"roughli": 0.02188275195658207,
						"therefor": -0.19193831086158752,
						"face": 0.09798197448253632,
						"babi": -0.12399643659591675,
						"realli": -0.19009047746658325,
						"like": 0.18525873124599457,
						"around": -0.1310012936592102,
						"stereotyp": 0.027078328654170036,
						"nuclear": 0.13187843561172485,
						"consid": -0.05302562192082405,
						"distant": 0.16968375444412231,
						"immedi": -0.08495841175317764,
						"reais": 0.14127092063426971,
						"pass": -0.01694801263511181,
						"basic": 0.10388082265853882,
						"respons": 0.15456007421016693,
						"herself": 0.04906831681728363,
						"took": 0.14651869237422943,
						"o": -0.15672454237937927,
						"shirrana": 0.17954020202159882,
						"dote": 0.18221724033355713,
						"ever": -0.1170923039317131,
						"see": 0.08665093779563904,
						"frquentli": 0.08056574314832687,
						"probabl": -0.0015484008472412825,
						"again": -0.05367506667971611,
						"blend": -0.08422625064849854,
						"extend": 0.0729045644402504,
						"member": -0.16292902827262878,
						"singl": -0.008094661869108677,
						"household": 0.006429268047213554,
						"no": -0.02863636240363121,
						"male": 0.004171331878751516,
						"figur": -0.11062123626470566,
						"big": -0.17612208425998688,
						"portion": 0.15166930854320526,
						"childhood": -0.02232462354004383,
						"demonstr": 0.19101271033287048,
						"affect": 0.13025341928005219,
						"disappear": 0.03677208349108696,
						"w": 0.14131827652454376,
						"tight": -0.029322443529963493,
						"entir": 0.1269279569387436,
						"provid": -0.08968424052000046,
						"safe": 0.1640234887599945,
						"environ": 0.14630126953125,
						"broken": 0.10272672772407532,
						"dynam": 0.07310044020414352,
						"gave": 0.1042288988828659,
						"daught": 0.06860698759555817,
						"put": 0.002696843584999442,
						"person": -0.033562492579221725,
						"endeavor": 0.0968913584947586,
						"somewhat": 0.11131936311721802,
						"asid": 0.15383727848529816,
						"remain": -0.06203756853938103,
						"pursu": -0.15710818767547607,
						"biochemistri": 0.14185039699077606,
						"explor": -0.037806835025548935,
						"even": 0.1532500684261322,
						"pai": -0.05453605204820633,
						"unlik": 0.09951288253068924,
						"direct": 0.011316885240375996,
						"memori": 0.1274779587984085,
						"show": 0.08238868415355682,
						"freeli": -0.0016782870516180992,
						"involv": 0.05275159701704979,
						"muc": 0.18102945387363434,
						"avail": -0.06496506929397583,
						"pictur": -0.1556924730539322,
						"dream": 0.13892026245594025,
						"hour": 0.11038801819086075,
						"aliv": -0.08264078199863434,
						"appear": -0.1993362307548523,
						"less": -0.007990500889718533,
						"isn": -0.18755051493644714,
						"aot": -0.14223028719425201,
						"fragment": -0.10722137987613678,
						"tragic": -0.04586812108755112,
						"event": -0.10298861563205719,
						"super": 0.10357017815113068,
						"convent": -0.16296949982643127,
						"eager": -0.12529246509075165,
						"unconvent": 0.10372326523065567,
						"hardli": -0.11954670399427414,
						"strong": 0.03796178847551346,
						"sup": -0.15175926685333252,
						"ao": 0.1024455800652504,
						"hasn": 0.10079873353242874,
						"younger": 0.07464180141687393,
						"shrianna": 0.06830570846796036,
						"consist": 0.15842153131961823,
						"unit": -0.0784824937582016,
						"bright": 0.14643049240112305,
						"fascin": -0.17303933203220367,
						"risk": 0.08283144980669022,
						"go": -0.10288741439580917,
						"select": 0.06682252883911133,
						"colon": 0.1742408722639084,
						"becau": -0.02345491200685501,
						"fin": 0.09896004945039749
					}
				},
				"8": {
					"bias": 0.10428956151008606,
					"weights": {
						"2": 0.0987825095653534,
						"5": -0.1832696497440338,
						"6": -0.10423377901315689,
						"adam": 0.04033636674284935,
						"case": 0.1723962128162384,
						"togeth": -0.023691382259130478,
						"shiranna": 0.04233573377132416,
						"famili": 0.11874706298112869,
						"separ": -0.032106492668390274,
						"she": 0.0920286774635315,
						"young": 0.1656116396188736,
						"care": -0.15038231015205383,
						"perfect": -0.17137683928012848,
						"busi": 0.010665563866496086,
						"mom": 0.0969993993639946,
						"dad": -0.10970336943864822,
						"left": 0.05823193117976189,
						"job": -0.15592047572135925,
						"parent": -0.09290015697479248,
						"support": 0.0601244680583477,
						"time": -0.015281060710549355,
						"seem": 0.18511614203453064,
						"noth": -0.06787315756082535,
						"bad": 0.10053738951683044,
						"happen": 0.13148941099643707,
						"lost": -0.04504629224538803,
						"when": 0.1610238403081894,
						"work": 0.1589774787425995,
						"venu": -0.180787593126297,
						"spent": -0.1920173019170761,
						"life": 0.14068441092967987,
						"aunt": 0.03107059933245182,
						"mother": 0.04905013367533684,
						"father": 0.16462558507919312,
						"alwai": 0.09946874529123306,
						"grew": -0.15352283418178558,
						"without": 0.01696688123047352,
						"live": -0.07509791105985641,
						"last": 0.026201093569397926,
						"year": 0.06926918774843216,
						"chosen": -0.1661931276321411,
						"present": 0.06357516348361969,
						"wherea": -0.09321065992116928,
						"major": 0.03100791946053505,
						"self": -0.0661543756723404,
						"effici": -0.012836312875151634,
						"due": -0.02930966019630432,
						"loss": 0.02910398691892624,
						"absenc": 0.1817755252122879,
						"lack": -0.17132961750030518,
						"attent": -0.06529717892408371,
						"grown": -0.01468619890511036,
						"nurtur": -0.1502964049577713,
						"rais": -0.12796927988529205,
						"awai": 0.016499942168593407,
						"home": -0.1581631302833557,
						"space": -0.04814045503735542,
						"politc": -0.11635373532772064,
						"function": -0.193028062582016,
						"son": 0.13598167896270752,
						"focus": -0.06332822144031525,
						"scienc": 0.10611100494861603,
						"career": 0.14215250313282013,
						"leav": -0.05515960231423378,
						"mainli": 0.2022891640663147,
						"kind": -0.07492116838693619,
						"opposit": 0.11026079207658768,
						"bare": 0.19560174643993378,
						"not": 0.011773915961384773,
						"feel": -0.046587780117988586,
						"so": -0.06699774414300919,
						"love": -0.07163336873054504,
						"tradit": -0.04526962712407112,
						"attend": 0.1563953459262848,
						"everi": 0.20027455687522888,
						"need": -0.029159890487790108,
						"howev": 0.014589020051062107,
						"type": 0.1400805413722992,
						"went": 0.1080901101231575,
						"miss": 0.016009686514735222,
						"earli": -0.03646446391940117,
						"ag": 0.05534001439809799,
						"close": -0.13362817466259003,
						"complet": -0.1147097647190094,
						"fractur": 0.1601708084344864,
						"possibl": -0.012200281955301762,
						"hand": 0.12760481238365173,
						"half": -0.17070604860782623,
						"retain": -0.11440896987915039,
						"biolog": 0.0705467164516449,
						"resent": 0.06563057750463486,
						"cook": 0.003977223299443722,
						"meal": 0.07877010852098465,
						"take": -0.16871358454227448,
						"grant": 0.01685217395424843,
						"seen": 0.11109942942857742,
						"apart": 0.11707055568695068,
						"mai": -0.04898950457572937,
						"forev": -0.03427984565496445,
						"structur": 0.20199546217918396,
						"that": -0.1381339132785797,
						"planet": -0.1786687970161438,
						"gone": -0.12016908824443817,
						"knit": 0.17306573688983917,
						"her": -0.11919072270393372,
						"isnt": -0.09989053010940552,
						"saw": -0.03319476917386055,
						"littl": 0.17204710841178894,
						"di": 0.0666615292429924,
						"physic": 0.13976578414440155,
						"know": 0.08597227185964584,
						"grow": 0.04009988158941269,
						"differ": 0.0199473537504673,
						"worri": 0.006723785772919655,
						"none": 0.058589477092027664,
						"remark": -0.07387284189462662,
						"yet": -0.16507960855960846,
						"l": 0.10584180057048798,
						"unifi": 0.1736578345298767,
						"almost": 0.032856184989213943,
						"infant": 0.1448880285024643,
						"old": 0.08271785825490952,
						"part": -0.028239242732524872,
						"everydai": 0.10977023839950562,
						"accid": -0.02542729116976261,
						"video": -0.007252211216837168,
						"sent": 0.15939728915691376,
						"remot": 0.07050394266843796,
						"watch": 0.06879869103431702,
						"occupi": 0.0142927011474967,
						"although": 0.009436148218810558,
						"far": 0.033625394105911255,
						"distanc": -0.08868715167045593,
						"fortun": -0.0991169735789299,
						"right": -0.008174777962267399,
						"besid": 0.07966582477092743,
						"share": -0.025700630620121956,
						"thing": 0.18876509368419647,
						"relationship": -0.17901524901390076,
						"child": 0.05979893356561661,
						"usual": 0.02002263069152832,
						"help": 0.09869197010993958,
						"doe": -0.0032820706255733967,
						"dead": 0.10209380090236664,
						"adventur": 0.04642988368868828,
						"cost": 0.15053677558898926,
						"knew": 0.011266450397670269,
						"mostli": 0.0753708928823471,
						"often": 0.13855420053005219,
						"absent": -0.15247517824172974,
						"starter": -0.035024482756853104,
						"appar": 0.12001992762088776,
						"chamber": 0.15602624416351318,
						"valu": -0.08598582446575165,
						"scientist": 0.01693125069141388,
						"roughli": -0.0457073375582695,
						"therefor": 0.12268523871898651,
						"face": 0.012130380608141422,
						"babi": -0.13306008279323578,
						"realli": -0.15701495110988617,
						"like": 0.1248047947883606,
						"around": -0.0017718704184517264,
						"stereotyp": -0.06035507470369339,
						"nuclear": 0.026991192251443863,
						"consid": 0.1463906168937683,
						"distant": 0.16695308685302734,
						"immedi": 0.15313997864723206,
						"reais": 0.1844329833984375,
						"pass": -0.042744409292936325,
						"basic": -0.031487081199884415,
						"respons": 0.159580796957016,
						"herself": 0.11424653977155685,
						"took": 0.11792626231908798,
						"o": 0.16984890401363373,
						"shirrana": -0.008772516623139381,
						"dote": -0.034737728536129,
						"ever": 0.10842853784561157,
						"see": -0.07695011794567108,
						"frquentli": -0.014480293728411198,
						"probabl": -0.08279821276664734,
						"again": -0.055190734565258026,
						"blend": -0.08987537026405334,
						"extend": -0.0550793819129467,
						"member": -0.15829545259475708,
						"singl": 0.10858253389596939,
						"household": 0.13944950699806213,
						"no": 0.037940770387649536,
						"male": -0.05008522421121597,
						"figur": 0.17448246479034424,
						"big": -0.16386063396930695,
						"portion": 0.019217533990740776,
						"childhood": -0.16239871084690094,
						"demonstr": -0.07462971657514572,
						"affect": -0.13964995741844177,
						"disappear": 0.051976609975099564,
						"w": 0.12083382904529572,
						"tight": -0.02084209956228733,
						"entir": 0.1998894214630127,
						"provid": 0.1632508933544159,
						"safe": 0.013285672292113304,
						"environ": -0.13022232055664062,
						"broken": 0.11670784652233124,
						"dynam": 0.18244214355945587,
						"gave": -0.10774978250265121,
						"daught": -0.1348528116941452,
						"put": -0.029200421646237373,
						"person": -0.11955690383911133,
						"endeavor": 0.0006702509708702564,
						"somewhat": -0.013700970448553562,
						"asid": -0.18874908983707428,
						"remain": 0.11341799050569534,
						"pursu": -0.005440910812467337,
						"biochemistri": -0.1913229376077652,
						"explor": -0.04250055551528931,
						"even": -0.021966202184557915,
						"pai": -0.003942427225410938,
						"unlik": 0.04107147827744484,
						"direct": 0.07556866109371185,
						"memori": -0.15413199365139008,
						"show": 0.1542593538761139,
						"freeli": 0.019068636000156403,
						"involv": 0.14340506494045258,
						"muc": -0.07369659096002579,
						"avail": 0.0569826140999794,
						"pictur": 0.12740719318389893,
						"dream": -0.16015425324440002,
						"hour": -0.12756870687007904,
						"aliv": 0.11797580122947693,
						"appear": 0.12033125013113022,
						"less": -0.13068591058254242,
						"isn": -0.05275200679898262,
						"aot": 0.10283368825912476,
						"fragment": -0.05729531869292259,
						"tragic": 0.05780547484755516,
						"event": 0.14582863450050354,
						"super": 0.15306976437568665,
						"convent": 0.19585436582565308,
						"eager": 0.041772328317165375,
						"unconvent": -0.05065207928419113,
						"hardli": 0.09237532317638397,
						"strong": -0.14571979641914368,
						"sup": -0.11766815185546875,
						"ao": 0.09476884454488754,
						"hasn": 0.0931386947631836,
						"younger": 0.0010715563548728824,
						"shrianna": 0.031669676303863525,
						"consist": 0.17151327431201935,
						"unit": 0.11865299195051193,
						"bright": 0.05346310883760452,
						"fascin": -0.14572443068027496,
						"risk": 0.18344438076019287,
						"go": 0.11022023856639862,
						"select": -0.12915998697280884,
						"colon": 0.19042013585567474,
						"becau": -0.16980768740177155,
						"fin": -0.13066142797470093
					}
				},
				"9": {
					"bias": 0.0114824790507555,
					"weights": {
						"2": -0.14132189750671387,
						"5": -0.10134810209274292,
						"6": -0.1369093656539917,
						"adam": 0.10619716346263885,
						"case": 0.0028077976312488317,
						"togeth": -0.08984252065420151,
						"shiranna": 0.032497338950634,
						"famili": -0.0259479321539402,
						"separ": -0.04419231414794922,
						"she": -0.13925236463546753,
						"young": 0.13695810735225677,
						"care": -0.13637107610702515,
						"perfect": -0.005303104408085346,
						"busi": 0.13089877367019653,
						"mom": -0.02371250092983246,
						"dad": 0.19123753905296326,
						"left": 0.1989774852991104,
						"job": -0.1620902717113495,
						"parent": 0.20866762101650238,
						"support": 0.0054351529106497765,
						"time": -0.15285006165504456,
						"seem": 0.001632164348848164,
						"noth": 0.038804683834314346,
						"bad": 0.1235860139131546,
						"happen": -0.1775559037923813,
						"lost": -0.008494299836456776,
						"when": -0.07143737375736237,
						"work": 0.12009613960981369,
						"venu": 0.13011375069618225,
						"spent": -0.06918200850486755,
						"life": 0.10420341789722443,
						"aunt": -0.13864587247371674,
						"mother": -0.004084080923348665,
						"father": -0.09330588579177856,
						"alwai": 0.007179217413067818,
						"grew": 0.1744503527879715,
						"without": -0.15345077216625214,
						"live": 0.20080487430095673,
						"last": 0.06709481030702591,
						"year": -0.021112367510795593,
						"chosen": -0.02409614436328411,
						"present": 0.1945219337940216,
						"wherea": 0.04988320171833038,
						"major": -0.18845058977603912,
						"self": 0.13909639418125153,
						"effici": 0.06749995797872543,
						"due": -0.09165595471858978,
						"loss": -0.049517922103405,
						"absenc": -0.10982495546340942,
						"lack": -0.18493470549583435,
						"attent": 0.08678840100765228,
						"grown": 0.009267794899642467,
						"nurtur": 0.13675452768802643,
						"rais": -0.10230622440576553,
						"awai": 0.207645982503891,
						"home": 0.12315820157527924,
						"space": -0.05606280267238617,
						"politc": -0.1688140481710434,
						"function": 0.16901130974292755,
						"son": 0.05683210492134094,
						"focus": 0.02115342766046524,
						"scienc": 0.05659471079707146,
						"career": 0.16728758811950684,
						"leav": -0.02919064275920391,
						"mainli": -0.17304638028144836,
						"kind": -0.004709034692496061,
						"opposit": -0.029353227466344833,
						"bare": 0.1867215633392334,
						"not": -0.028377246111631393,
						"feel": 0.17575176060199738,
						"so": 0.1234474927186966,
						"love": 0.12614305317401886,
						"tradit": -0.01194058544933796,
						"attend": -0.10645443946123123,
						"everi": -0.10406366735696793,
						"need": -0.13369253277778625,
						"howev": -0.0637892410159111,
						"type": -0.10664375871419907,
						"went": 0.12169710546731949,
						"miss": -0.04075467213988304,
						"earli": 0.1451934576034546,
						"ag": -0.06912602484226227,
						"close": 0.18089509010314941,
						"complet": 0.1167931780219078,
						"fractur": -0.16002896428108215,
						"possibl": -0.11029355973005295,
						"hand": -0.16232185065746307,
						"half": -0.14133812487125397,
						"retain": 0.03495144844055176,
						"biolog": 0.05856865644454956,
						"resent": 0.029645051807165146,
						"cook": 0.15297004580497742,
						"meal": 0.006980943493545055,
						"take": -0.05668896064162254,
						"grant": -0.04075273871421814,
						"seen": 0.12202093750238419,
						"apart": 0.06743553280830383,
						"mai": 0.05896086245775223,
						"forev": -0.07334589213132858,
						"structur": -0.07278576493263245,
						"that": -0.1889057755470276,
						"planet": -0.06032984331250191,
						"gone": -0.07431960105895996,
						"knit": -0.04841650649905205,
						"her": -0.1906781643629074,
						"isnt": -0.0363791361451149,
						"saw": -0.0263996459543705,
						"littl": 0.15789209306240082,
						"di": -0.07664722949266434,
						"physic": -0.06887326389551163,
						"know": -0.016956830397248268,
						"grow": 0.13445501029491425,
						"differ": -0.00388496951200068,
						"worri": -0.19621096551418304,
						"none": -0.18163125216960907,
						"remark": 0.1421399712562561,
						"yet": 0.1863684207201004,
						"l": -0.10369432717561722,
						"unifi": 0.18190208077430725,
						"almost": 0.07666829973459244,
						"infant": -0.0009916485287249088,
						"old": 0.12517370283603668,
						"part": -0.017194077372550964,
						"everydai": -0.14396558701992035,
						"accid": -0.020381763577461243,
						"video": -0.031200338155031204,
						"sent": 0.16112476587295532,
						"remot": 0.05481894686818123,
						"watch": 0.10546217113733292,
						"occupi": 0.0018373681232333183,
						"although": 0.055610690265893936,
						"far": -0.029717883095145226,
						"distanc": 0.18004435300827026,
						"fortun": 0.09110651165246964,
						"right": 0.09800473600625992,
						"besid": -0.06393522769212723,
						"share": -0.02112432010471821,
						"thing": 0.10399603098630905,
						"relationship": 0.09627784788608551,
						"child": -0.11520370841026306,
						"usual": 0.05631626397371292,
						"help": -0.13289684057235718,
						"doe": -0.025154264643788338,
						"dead": 0.16394734382629395,
						"adventur": 0.08441082388162613,
						"cost": -0.11613043397665024,
						"knew": 0.02426373027265072,
						"mostli": -0.009366103447973728,
						"often": -0.19415397942066193,
						"absent": 0.08079232275485992,
						"starter": 0.09482376277446747,
						"appar": 0.10619054734706879,
						"chamber": -0.05936925485730171,
						"valu": 0.13728319108486176,
						"scientist": -0.025098703801631927,
						"roughli": -0.08204801380634308,
						"therefor": 0.09421776235103607,
						"face": 0.07724221795797348,
						"babi": -0.010879562236368656,
						"realli": 0.036507364362478256,
						"like": -0.1741221845149994,
						"around": -0.013787629082798958,
						"stereotyp": 0.129482701420784,
						"nuclear": 0.19214706122875214,
						"consid": -0.1819750964641571,
						"distant": 0.09048569202423096,
						"immedi": -0.0198346097022295,
						"reais": -0.052887335419654846,
						"pass": -0.14867523312568665,
						"basic": -0.18827880918979645,
						"respons": -0.17190462350845337,
						"herself": 0.06394964456558228,
						"took": -0.19641005992889404,
						"o": 0.00740050757303834,
						"shirrana": 0.13906842470169067,
						"dote": -0.008573026396334171,
						"ever": 0.1944418102502823,
						"see": 0.009956050664186478,
						"frquentli": -0.08667749166488647,
						"probabl": -0.0616486594080925,
						"again": -0.14370396733283997,
						"blend": -0.029153065755963326,
						"extend": 0.18298493325710297,
						"member": 0.11423850059509277,
						"singl": -0.07746707648038864,
						"household": -0.0744631290435791,
						"no": 0.15723475813865662,
						"male": 0.09037110209465027,
						"figur": -0.08229165524244308,
						"big": 0.09079767763614655,
						"portion": -0.19048631191253662,
						"childhood": -0.005225843284279108,
						"demonstr": 0.08022279292345047,
						"affect": 0.08791650086641312,
						"disappear": 0.0637141689658165,
						"w": -0.027417190372943878,
						"tight": 0.19387103617191315,
						"entir": 0.07695615291595459,
						"provid": -0.1169464960694313,
						"safe": 0.04060628265142441,
						"environ": 0.12040012329816818,
						"broken": 0.12170278280973434,
						"dynam": -0.1148497685790062,
						"gave": -0.16876958310604095,
						"daught": 0.08087507635354996,
						"put": -0.1928047090768814,
						"person": 0.18743501603603363,
						"endeavor": -0.09396389871835709,
						"somewhat": 0.033551301807165146,
						"asid": 0.11470408737659454,
						"remain": -0.14681345224380493,
						"pursu": 0.1324707269668579,
						"biochemistri": 0.06550571322441101,
						"explor": 0.03683945909142494,
						"even": -0.019437449052929878,
						"pai": 0.09653603285551071,
						"unlik": -0.05006539076566696,
						"direct": -0.07652956247329712,
						"memori": -0.1834201067686081,
						"show": -0.15917666256427765,
						"freeli": -0.13455736637115479,
						"involv": 0.003604915924370289,
						"muc": 0.1978510320186615,
						"avail": 0.006681414321064949,
						"pictur": 0.1314975917339325,
						"dream": 0.1273772269487381,
						"hour": -0.06150653213262558,
						"aliv": 0.12527844309806824,
						"appear": -0.0943576917052269,
						"less": -0.10891379415988922,
						"isn": -0.17671196162700653,
						"aot": 0.12767736613750458,
						"fragment": 0.03878641501069069,
						"tragic": 0.15645335614681244,
						"event": -0.047701384872198105,
						"super": 0.17951440811157227,
						"convent": 0.17014914751052856,
						"eager": 0.10435168445110321,
						"unconvent": 0.1743013858795166,
						"hardli": -0.023877626284956932,
						"strong": -0.13781732320785522,
						"sup": -0.03062455728650093,
						"ao": 0.1013055369257927,
						"hasn": -0.15724875032901764,
						"younger": -0.0767490491271019,
						"shrianna": 0.17044579982757568,
						"consist": 0.08501823246479034,
						"unit": -0.16257242858409882,
						"bright": -0.00620634900406003,
						"fascin": 0.03631209209561348,
						"risk": -0.11667869985103607,
						"go": -0.12024158239364624,
						"select": 0.17178656160831451,
						"colon": -0.07342363148927689,
						"becau": -0.03200981393456459,
						"fin": -0.0008134972886182368
					}
				},
				"10": {
					"bias": 0.10696709901094437,
					"weights": {
						"2": 0.17205747961997986,
						"5": 0.01875404082238674,
						"6": -0.14216186106204987,
						"adam": -0.2406427413225174,
						"case": -0.1654973030090332,
						"togeth": 0.17477741837501526,
						"shiranna": -0.09702632576227188,
						"famili": -0.17548981308937073,
						"separ": 0.07623887062072754,
						"she": -0.09268698841333389,
						"young": 0.20524655282497406,
						"care": 0.05350537970662117,
						"perfect": -0.13587920367717743,
						"busi": 0.009959396906197071,
						"mom": 0.0043617356568574905,
						"dad": -0.20684611797332764,
						"left": 0.04325960576534271,
						"job": -0.14075876772403717,
						"parent": -0.16439083218574524,
						"support": -0.19826355576515198,
						"time": -0.023582207038998604,
						"seem": -0.0992007628083229,
						"noth": -0.1710609793663025,
						"bad": 0.059966396540403366,
						"happen": -0.1571383774280548,
						"lost": -0.021486729383468628,
