{
	"createNewObjectString": "function classifierFun() {\r\n    const limdu = require('limdu');\r\n    return new limdu.classifiers.NeuralNetwork();\r\n}",
	"object": {
		"sizes": [
			256,
			128,
			1
		],
		"layers": [
			{
				"2": {},
				"5": {},
				"6": {},
				"adam": {},
				"case": {},
				"togeth": {},
				"shiranna": {},
				"famili": {},
				"separ": {},
				"she": {},
				"young": {},
				"care": {},
				"perfect": {},
				"busi": {},
				"mom": {},
				"dad": {},
				"left": {},
				"job": {},
				"parent": {},
				"support": {},
				"time": {},
				"seem": {},
				"noth": {},
				"bad": {},
				"happen": {},
				"lost": {},
				"when": {},
				"work": {},
				"venu": {},
				"spent": {},
				"life": {},
				"aunt": {},
				"mother": {},
				"father": {},
				"alwai": {},
				"grew": {},
				"without": {},
				"live": {},
				"last": {},
				"year": {},
				"chosen": {},
				"present": {},
				"wherea": {},
				"major": {},
				"self": {},
				"effici": {},
				"due": {},
				"loss": {},
				"absenc": {},
				"lack": {},
				"attent": {},
				"grown": {},
				"nurtur": {},
				"rais": {},
				"awai": {},
				"home": {},
				"space": {},
				"politc": {},
				"function": {},
				"son": {},
				"focus": {},
				"scienc": {},
				"career": {},
				"leav": {},
				"mainli": {},
				"kind": {},
				"opposit": {},
				"bare": {},
				"not": {},
				"feel": {},
				"so": {},
				"love": {},
				"tradit": {},
				"attend": {},
				"everi": {},
				"need": {},
				"howev": {},
				"type": {},
				"went": {},
				"miss": {},
				"earli": {},
				"ag": {},
				"close": {},
				"complet": {},
				"fractur": {},
				"possibl": {},
				"hand": {},
				"half": {},
				"retain": {},
				"biolog": {},
				"resent": {},
				"cook": {},
				"meal": {},
				"take": {},
				"grant": {},
				"seen": {},
				"apart": {},
				"mai": {},
				"forev": {},
				"structur": {},
				"that": {},
				"planet": {},
				"gone": {},
				"knit": {},
				"her": {},
				"isnt": {},
				"saw": {},
				"littl": {},
				"di": {},
				"physic": {},
				"know": {},
				"grow": {},
				"differ": {},
				"worri": {},
				"none": {},
				"remark": {},
				"yet": {},
				"l": {},
				"unifi": {},
				"almost": {},
				"infant": {},
				"old": {},
				"part": {},
				"everydai": {},
				"accid": {},
				"video": {},
				"sent": {},
				"remot": {},
				"watch": {},
				"occupi": {},
				"although": {},
				"far": {},
				"distanc": {},
				"fortun": {},
				"right": {},
				"besid": {},
				"share": {},
				"thing": {},
				"relationship": {},
				"child": {},
				"usual": {},
				"help": {},
				"doe": {},
				"dead": {},
				"adventur": {},
				"cost": {},
				"knew": {},
				"mostli": {},
				"often": {},
				"absent": {},
				"starter": {},
				"appar": {},
				"chamber": {},
				"valu": {},
				"scientist": {},
				"roughli": {},
				"therefor": {},
				"face": {},
				"babi": {},
				"realli": {},
				"like": {},
				"around": {},
				"stereotyp": {},
				"nuclear": {},
				"consid": {},
				"distant": {},
				"immedi": {},
				"reais": {},
				"pass": {},
				"basic": {},
				"respons": {},
				"herself": {},
				"took": {},
				"o": {},
				"shirrana": {},
				"dote": {},
				"ever": {},
				"see": {},
				"frquentli": {},
				"probabl": {},
				"again": {},
				"blend": {},
				"extend": {},
				"member": {},
				"singl": {},
				"household": {},
				"no": {},
				"male": {},
				"figur": {},
				"big": {},
				"portion": {},
				"childhood": {},
				"demonstr": {},
				"affect": {},
				"disappear": {},
				"w": {},
				"tight": {},
				"entir": {},
				"provid": {},
				"safe": {},
				"environ": {},
				"broken": {},
				"dynam": {},
				"gave": {},
				"daught": {},
				"put": {},
				"person": {},
				"endeavor": {},
				"somewhat": {},
				"asid": {},
				"remain": {},
				"pursu": {},
				"biochemistri": {},
				"explor": {},
				"even": {},
				"pai": {},
				"unlik": {},
				"direct": {},
				"memori": {},
				"show": {},
				"freeli": {},
				"involv": {},
				"muc": {},
				"avail": {},
				"pictur": {},
				"dream": {},
				"hour": {},
				"aliv": {},
				"appear": {},
				"less": {},
				"isn": {},
				"aot": {},
				"fragment": {},
				"tragic": {},
				"event": {},
				"super": {},
				"convent": {},
				"eager": {},
				"unconvent": {},
				"hardli": {},
				"strong": {},
				"sup": {},
				"ao": {},
				"hasn": {},
				"younger": {},
				"shrianna": {},
				"consist": {},
				"unit": {},
				"bright": {},
				"fascin": {},
				"risk": {},
				"go": {},
				"select": {},
				"colon": {},
				"becau": {},
				"fin": {}
			},
			{
				"0": {
					"bias": -0.16791056096553802,
					"weights": {
						"2": -0.13933469355106354,
						"5": -0.1582556813955307,
						"6": -0.11453346163034439,
						"adam": 0.047925207763910294,
						"case": -0.15376460552215576,
						"togeth": 0.20918045938014984,
						"shiranna": -0.2680496871471405,
						"famili": -0.04203055799007416,
						"separ": 0.06200588122010231,
						"she": 0.050339676439762115,
						"young": -0.029964959248900414,
						"care": -0.09627822786569595,
						"perfect": 0.1398952305316925,
						"busi": -0.08993085473775864,
						"mom": 0.10474193841218948,
						"dad": -0.09694389253854752,
						"left": 0.07888972014188766,
						"job": 0.08360933512449265,
						"parent": -0.20267660915851593,
						"support": 0.12372994422912598,
						"time": 0.07114868611097336,
						"seem": -0.03567453473806381,
						"noth": -0.08375304937362671,
						"bad": -0.18338224291801453,
						"happen": -0.05935421586036682,
						"lost": -0.20602092146873474,
						"when": -0.11542031913995743,
						"work": 0.014474627561867237,
						"venu": -0.19771189987659454,
						"spent": 0.05041465908288956,
						"life": -0.06058767810463905,
						"aunt": -0.20154838263988495,
						"mother": -0.2352346032857895,
						"father": 0.04451093450188637,
						"alwai": -0.039523910731077194,
						"grew": -0.19804242253303528,
						"without": -0.17461428046226501,
						"live": -0.2407400757074356,
						"last": -0.02002282440662384,
						"year": -0.18608000874519348,
						"chosen": -0.05865919217467308,
						"present": 0.10123717039823532,
						"wherea": 0.004601567983627319,
						"major": -0.10347611457109451,
						"self": -0.19746072590351105,
						"effici": -0.11857720464468002,
						"due": 0.01629895716905594,
						"loss": -0.19210457801818848,
						"absenc": -0.06881912797689438,
						"lack": -0.04578583687543869,
						"attent": 0.0687202662229538,
						"grown": -0.12351752072572708,
						"nurtur": -0.13773635029792786,
						"rais": 0.17957893013954163,
						"awai": 0.0898161232471466,
						"home": 0.1700078248977661,
						"space": -0.023195968940854073,
						"politc": -0.17369328439235687,
						"function": -0.16186122596263885,
						"son": -0.008107508532702923,
						"focus": 0.03141707554459572,
						"scienc": -0.011198037303984165,
						"career": -0.1914379894733429,
						"leav": -0.006510497536510229,
						"mainli": 0.19288577139377594,
						"kind": -0.03672907501459122,
						"opposit": 0.12530027329921722,
						"bare": -0.18457792699337006,
						"not": -0.20080259442329407,
						"feel": -0.10648731142282486,
						"so": -0.005423512775450945,
						"love": 0.15240831673145294,
						"tradit": -0.07618401199579239,
						"attend": -0.07773050665855408,
						"everi": 0.14077888429164886,
						"need": -0.05154874920845032,
						"howev": 0.08968351781368256,
						"type": 0.10348233580589294,
						"went": 0.012501321732997894,
						"miss": 0.18785004317760468,
						"earli": 0.07385525107383728,
						"ag": -0.06044500693678856,
						"close": 0.12505091726779938,
						"complet": -0.10822092741727829,
						"fractur": -0.1435464769601822,
						"possibl": -0.05817149952054024,
						"hand": 0.022934939712285995,
						"half": 0.15665383636951447,
						"retain": -0.02696172147989273,
						"biolog": -0.1548921912908554,
						"resent": 0.1103002279996872,
						"cook": 0.060147371143102646,
						"meal": -0.028922012075781822,
						"take": -0.19690102338790894,
						"grant": -0.1717618852853775,
						"seen": -0.15491734445095062,
						"apart": -0.011383464559912682,
						"mai": -0.1504390984773636,
						"forev": 0.18520386517047882,
						"structur": 0.13378195464611053,
						"that": 0.0558197908103466,
						"planet": -0.18028214573860168,
						"gone": -0.07915783673524857,
						"knit": -0.08419984579086304,
						"her": -0.14073500037193298,
						"isnt": 0.07150398194789886,
						"saw": 0.1704738736152649,
						"littl": 0.049486927688121796,
						"di": -0.18703562021255493,
						"physic": -0.018765507265925407,
						"know": 0.15879811346530914,
						"grow": -0.19411586225032806,
						"differ": -0.19227197766304016,
						"worri": 0.051012638956308365,
						"none": -0.17441385984420776,
						"remark": -0.11629084497690201,
						"yet": -0.06602291017770767,
						"l": -0.18577039241790771,
						"unifi": -0.1922653764486313,
						"almost": 0.04577375575900078,
						"infant": -0.17624959349632263,
						"old": -0.1680106818675995,
						"part": 0.18446257710456848,
						"everydai": -0.060725875198841095,
						"accid": 0.08328268676996231,
						"video": -0.008333643898367882,
						"sent": 0.06442040950059891,
						"remot": -0.06718067824840546,
						"watch": 0.1872209906578064,
						"occupi": 0.004496470559388399,
						"although": 0.13861340284347534,
						"far": -0.19665585458278656,
						"distanc": 0.10683269053697586,
						"fortun": 0.1246785968542099,
						"right": 0.039406780153512955,
						"besid": 0.18558204174041748,
						"share": -0.06762377917766571,
						"thing": 0.148172989487648,
						"relationship": 0.08656766265630722,
						"child": 0.15741240978240967,
						"usual": -0.009454875253140926,
						"help": 0.17336086928844452,
						"doe": -0.07955958694219589,
						"dead": 0.026766277849674225,
						"adventur": 0.1654868870973587,
						"cost": 0.052622999995946884,
						"knew": -0.1892240345478058,
						"mostli": 0.14007173478603363,
						"often": -0.14045995473861694,
						"absent": 0.0654522031545639,
						"starter": 0.0029989362228661776,
						"appar": -0.048691410571336746,
						"chamber": 0.1138685792684555,
						"valu": 0.011360644362866879,
						"scientist": 0.11838269978761673,
						"roughli": -0.007314710877835751,
						"therefor": -0.05359053984284401,
						"face": -0.09501349180936813,
						"babi": -0.16324234008789062,
						"realli": -0.1728285849094391,
						"like": -0.023281853646039963,
						"around": 0.017091577872633934,
						"stereotyp": -0.09092292934656143,
						"nuclear": 0.020999735221266747,
						"consid": 0.16797703504562378,
						"distant": 0.06651758402585983,
						"immedi": 0.16033300757408142,
						"reais": 0.12500624358654022,
						"pass": 0.0794561505317688,
						"basic": 0.0034389295615255833,
						"respons": -0.16781286895275116,
						"herself": -0.17278148233890533,
						"took": -0.1711895614862442,
						"o": -0.09328527748584747,
						"shirrana": 0.10428692400455475,
						"dote": -0.14774306118488312,
						"ever": -0.006865319795906544,
						"see": -0.043149709701538086,
						"frquentli": 0.10211661458015442,
						"probabl": -0.1431497484445572,
						"again": -0.07444489747285843,
						"blend": 0.09073945879936218,
						"extend": -0.1518099457025528,
						"member": -0.09526482969522476,
						"singl": -0.0642629936337471,
						"household": -0.08505958318710327,
						"no": 0.08456261456012726,
						"male": 0.14931613206863403,
						"figur": 0.1487622708082199,
						"big": -0.056585099548101425,
						"portion": 0.004320589825510979,
						"childhood": 0.08893457055091858,
						"demonstr": 0.06223548948764801,
						"affect": 0.14944280683994293,
						"disappear": 0.16806043684482574,
						"w": 0.12345735728740692,
						"tight": -0.10751008987426758,
						"entir": -0.1339731514453888,
						"provid": -0.18170592188835144,
						"safe": 0.15913093090057373,
						"environ": 0.05284353345632553,
						"broken": -0.08454710245132446,
						"dynam": 0.023477142676711082,
						"gave": -0.07146528363227844,
						"daught": -0.06929372996091843,
						"put": 0.17949193716049194,
						"person": -0.042897455394268036,
						"endeavor": 0.06012836471199989,
						"somewhat": 0.03897027298808098,
						"asid": 0.18155062198638916,
						"remain": -0.07579785585403442,
						"pursu": -0.11902374774217606,
						"biochemistri": -0.15840455889701843,
						"explor": -0.17443841695785522,
						"even": -0.11920006573200226,
						"pai": 0.13638965785503387,
						"unlik": 0.14834080636501312,
						"direct": 0.13886983692646027,
						"memori": -0.08966335654258728,
						"show": 0.06360330432653427,
						"freeli": -0.02579866535961628,
						"involv": -0.04095917567610741,
						"muc": 0.0244597177952528,
						"avail": 0.1297972947359085,
						"pictur": -0.058301959186792374,
						"dream": -0.16993771493434906,
						"hour": -0.04593564569950104,
						"aliv": -0.11192072927951813,
						"appear": 0.037655945867300034,
						"less": 0.15545861423015594,
						"isn": 0.15937092900276184,
						"aot": 0.1765379011631012,
						"fragment": 0.10074999928474426,
						"tragic": 0.19264429807662964,
						"event": 0.011785819195210934,
						"super": 0.14559215307235718,
						"convent": 0.03652527183294296,
						"eager": 0.12128877639770508,
						"unconvent": 0.19097900390625,
						"hardli": 0.05928972363471985,
						"strong": 0.04577585682272911,
						"sup": -0.0018126544309780002,
						"ao": 0.09360295534133911,
						"hasn": -0.018468549475073814,
						"younger": -0.14849665760993958,
						"shrianna": 0.13351555168628693,
						"consist": -0.18474441766738892,
						"unit": 0.06524103879928589,
						"bright": -0.030284039676189423,
						"fascin": 0.1774962991476059,
						"risk": 0.09525053203105927,
						"go": -0.11212802678346634,
						"select": 0.18485362827777863,
						"colon": 0.1922534853219986,
						"becau": -0.06430605053901672,
						"fin": 0.06447742879390717
					}
				},
				"1": {
					"bias": 0.00761642400175333,
					"weights": {
						"2": 0.03773453086614609,
						"5": 0.044392772018909454,
						"6": -0.10404728353023529,
						"adam": -0.04818090796470642,
						"case": 0.10850130021572113,
						"togeth": -0.005288789048790932,
						"shiranna": -0.18616271018981934,
						"famili": 0.029138963669538498,
						"separ": 0.0151362931355834,
						"she": 0.05277344211935997,
						"young": 0.04705135151743889,
						"care": 0.10326573997735977,
						"perfect": -0.04857712611556053,
						"busi": -0.02388416975736618,
						"mom": 0.16167284548282623,
						"dad": -0.04402303323149681,
						"left": 0.050839196890592575,
						"job": -0.029427096247673035,
						"parent": -0.1461544781923294,
						"support": -0.052866339683532715,
						"time": -0.06456189602613449,
						"seem": -0.08062722533941269,
						"noth": -0.16865985095500946,
						"bad": -0.13677601516246796,
						"happen": -0.14077343046665192,
						"lost": -0.1413079798221588,
						"when": -0.05538218468427658,
						"work": 0.10713724046945572,
						"venu": 0.14497165381908417,
						"spent": 0.10445939004421234,
						"life": -0.1680762767791748,
						"aunt": 0.0806124359369278,
						"mother": -0.10407143831253052,
						"father": -0.0904272049665451,
						"alwai": 0.014309322461485863,
						"grew": -0.10446151345968246,
						"without": 0.18238286674022675,
						"live": -0.11344365030527115,
						"last": -0.10046614706516266,
						"year": -0.21546097099781036,
						"chosen": 0.08303619176149368,
						"present": -0.11544956266880035,
						"wherea": -0.05888683721423149,
						"major": -0.04624797776341438,
						"self": -0.08570007234811783,
						"effici": 0.010425824671983719,
						"due": -0.11056781560182571,
						"loss": -0.02496391162276268,
						"absenc": -0.17577196657657623,
						"lack": 0.1554269939661026,
						"attent": -0.04373965412378311,
						"grown": -0.13584646582603455,
						"nurtur": 0.09751153737306595,
						"rais": -0.10202955454587936,
						"awai": -0.020764144137501717,
						"home": 0.01828915812075138,
						"space": -0.19484397768974304,
						"politc": -0.038690339773893356,
						"function": -0.05764729529619217,
						"son": -0.20352789759635925,
						"focus": 0.10342313349246979,
						"scienc": 0.18399986624717712,
						"career": -0.021103855222463608,
						"leav": -0.05710688978433609,
						"mainli": -0.10338649898767471,
						"kind": -0.1532459408044815,
						"opposit": -0.06241517513990402,
						"bare": 0.05935925990343094,
						"not": -0.09032974392175674,
						"feel": -0.051799189299345016,
						"so": -0.06951754540205002,
						"love": -0.13130639493465424,
						"tradit": 0.18722738325595856,
						"attend": 0.14785410463809967,
						"everi": -0.19176289439201355,
						"need": -0.035514604300260544,
						"howev": -0.19041581451892853,
						"type": -0.11573318392038345,
						"went": 0.010659024119377136,
						"miss": -0.12183701246976852,
						"earli": 0.06693185865879059,
						"ag": -0.006440354976803064,
						"close": -0.003433734644204378,
						"complet": -0.07462617754936218,
						"fractur": -0.044876523315906525,
						"possibl": 0.15673133730888367,
						"hand": 0.02746286801993847,
						"half": -0.0655452087521553,
						"retain": -0.016921214759349823,
						"biolog": 0.039662908762693405,
						"resent": -0.1642262190580368,
						"cook": -0.012031827121973038,
						"meal": -0.11451756954193115,
						"take": 0.0829136073589325,
						"grant": 0.1429668664932251,
						"seen": 0.1690751016139984,
						"apart": 0.057606421411037445,
						"mai": 0.07721427083015442,
						"forev": 0.1479836106300354,
						"structur": 0.1485445648431778,
						"that": -0.15155953168869019,
						"planet": -0.10264518111944199,
						"gone": -0.04973924905061722,
						"knit": 0.09221407771110535,
						"her": -0.00852216873317957,
						"isnt": 0.15354976058006287,
						"saw": -0.10204032063484192,
						"littl": 0.21702320873737335,
						"di": -0.18414275348186493,
						"physic": -0.09517140686511993,
						"know": -0.15292051434516907,
						"grow": -0.11044534295797348,
						"differ": -0.05163359269499779,
						"worri": -0.07838462293148041,
						"none": 0.11122573912143707,
						"remark": -0.18363241851329803,
						"yet": -0.10545400530099869,
						"l": 0.18720754981040955,
						"unifi": -0.007894574664533138,
						"almost": 0.1438966989517212,
						"infant": -0.08279059082269669,
						"old": -0.05527392029762268,
						"part": -0.17829956114292145,
						"everydai": -0.03159834444522858,
						"accid": 0.00021150882821530104,
						"video": -0.1740950047969818,
						"sent": -0.054823048412799835,
						"remot": 0.0580383725464344,
						"watch": 0.1680554300546646,
						"occupi": -0.07357154041528702,
						"although": 0.013529480434954166,
						"far": -0.052865125238895416,
						"distanc": 0.1197281926870346,
						"fortun": 0.12603072822093964,
						"right": -0.12260500341653824,
						"besid": 0.18980515003204346,
						"share": -0.1293499767780304,
						"thing": -0.02567449025809765,
						"relationship": -0.2046571671962738,
						"child": 0.18326763808727264,
						"usual": 0.0559820830821991,
						"help": 0.10839110612869263,
						"doe": -0.009377215057611465,
						"dead": 0.13011443614959717,
						"adventur": -0.15269361436367035,
						"cost": 0.04387165606021881,
						"knew": 0.053976237773895264,
						"mostli": -0.043234918266534805,
						"often": 0.06700577586889267,
						"absent": 0.09348142892122269,
						"starter": 0.05247499421238899,
						"appar": -0.03202344849705696,
						"chamber": -0.18519006669521332,
						"valu": 0.06117556244134903,
						"scientist": -0.03232128545641899,
						"roughli": 0.11357492953538895,
						"therefor": 0.08953838795423508,
						"face": -0.12400373816490173,
						"babi": -0.194740891456604,
						"realli": -0.13571052253246307,
						"like": 0.15463438630104065,
						"around": 0.11949090659618378,
						"stereotyp": -0.15810252726078033,
						"nuclear": -0.17067353427410126,
						"consid": -0.12421846389770508,
						"distant": 0.18372225761413574,
						"immedi": -0.17516376078128815,
						"reais": 0.1959521621465683,
						"pass": -0.015501542948186398,
						"basic": 0.00009662359661888331,
						"respons": -0.18219801783561707,
						"herself": -0.09837867319583893,
						"took": 0.058931026607751846,
						"o": -0.07269234210252762,
						"shirrana": 0.03776722773909569,
						"dote": -0.16689461469650269,
						"ever": 0.11247146874666214,
						"see": -0.16141703724861145,
						"frquentli": 0.08671590685844421,
						"probabl": -0.16687391698360443,
						"again": -0.08983511477708817,
						"blend": -0.17764487862586975,
						"extend": -0.04544397071003914,
						"member": 0.11279042810201645,
						"singl": -0.010274532251060009,
						"household": -0.12051359564065933,
						"no": 0.05144447460770607,
						"male": 0.08345334976911545,
						"figur": 0.15390709042549133,
						"big": 0.12561248242855072,
						"portion": 0.1628040373325348,
						"childhood": 0.16645240783691406,
						"demonstr": -0.07981642335653305,
						"affect": 0.18303996324539185,
						"disappear": -0.1144939437508583,
						"w": 0.08599980175495148,
						"tight": -0.0941876694560051,
						"entir": -0.14945825934410095,
						"provid": -0.09446654468774796,
						"safe": 0.052294470369815826,
						"environ": -0.17947712540626526,
						"broken": -0.050611257553100586,
						"dynam": -0.11007741093635559,
						"gave": -0.15839803218841553,
						"daught": 0.1742926836013794,
						"put": -0.1078093871474266,
						"person": -0.13003993034362793,
						"endeavor": -0.05140535905957222,
						"somewhat": -0.19637344777584076,
						"asid": 0.033729031682014465,
						"remain": 0.18568962812423706,
						"pursu": -0.050894830375909805,
						"biochemistri": 0.044115953147411346,
						"explor": -0.043132536113262177,
						"even": -0.03304680064320564,
						"pai": 0.11543059349060059,
						"unlik": -0.1498371809720993,
						"direct": 0.0008104454027488828,
						"memori": -0.02845800668001175,
						"show": -0.032179977744817734,
						"freeli": 0.06533892452716827,
						"involv": -0.019464360550045967,
						"muc": -0.02616950310766697,
						"avail": -0.008137795142829418,
						"pictur": -0.18735536932945251,
						"dream": 0.05787360668182373,
						"hour": -0.058566052466630936,
						"aliv": 0.00600691232830286,
						"appear": 0.16434922814369202,
						"less": 0.09412071108818054,
						"isn": 0.18537472188472748,
						"aot": 0.0031179217621684074,
						"fragment": 0.20542211830615997,
						"tragic": -0.008581523783504963,
						"event": 0.07336720824241638,
						"super": 0.18269449472427368,
						"convent": 0.012481193989515305,
						"eager": -0.13810352981090546,
						"unconvent": -0.19229015707969666,
						"hardli": 0.12603364884853363,
						"strong": -0.16746710240840912,
						"sup": -0.13524717092514038,
						"ao": -0.05179271474480629,
						"hasn": 0.05252711847424507,
						"younger": -0.09103526175022125,
						"shrianna": -0.17570188641548157,
						"consist": 0.07582004368305206,
						"unit": 0.01694304123520851,
						"bright": 0.19756382703781128,
						"fascin": -0.1481809914112091,
						"risk": 0.1870247721672058,
						"go": -0.16428205370903015,
						"select": -0.19910070300102234,
						"colon": -0.09060779213905334,
						"becau": 0.13730072975158691,
						"fin": -0.15204961597919464
					}
				},
				"2": {
					"bias": 0.03219406679272652,
					"weights": {
						"2": 0.0301474891602993,
						"5": 0.09980805963277817,
						"6": -0.0905429944396019,
						"adam": -0.2544614374637604,
						"case": 0.02278788574039936,
						"togeth": 0.1899290829896927,
						"shiranna": -0.23662038147449493,
						"famili": 0.10172178596258163,
						"separ": 0.16587857902050018,
						"she": 0.17833712697029114,
						"young": 0.2069561779499054,
						"care": -0.12100881338119507,
						"perfect": 0.18722105026245117,
						"busi": -0.03461148962378502,
						"mom": -0.23130285739898682,
						"dad": 0.09819754213094711,
						"left": 0.027852792292833328,
						"job": 0.13150684535503387,
						"parent": -0.06742621213197708,
						"support": -0.057170700281858444,
						"time": 0.07604390382766724,
						"seem": 0.037209104746580124,
						"noth": -0.1682303100824356,
						"bad": 0.03610952943563461,
						"happen": -0.0148737458512187,
						"lost": 0.14355650544166565,
						"when": -0.004172991029918194,
						"work": -0.18070736527442932,
						"venu": 0.14186222851276398,
						"spent": -0.12655138969421387,
						"life": 0.1178373470902443,
						"aunt": -0.20323196053504944,
						"mother": 0.02205802872776985,
						"father": -0.10272946953773499,
						"alwai": 0.014844384975731373,
						"grew": -0.046741828322410583,
						"without": -0.07783957570791245,
						"live": -0.17745183408260345,
						"last": -0.08621042221784592,
						"year": -0.1403098851442337,
						"chosen": -0.00624249828979373,
						"present": -0.20268140733242035,
						"wherea": -0.177083820104599,
						"major": 0.19199033081531525,
						"self": -0.08203388750553131,
						"effici": -0.11072874069213867,
						"due": 0.18689009547233582,
						"loss": -0.010124285705387592,
						"absenc": 0.02482600137591362,
						"lack": 0.12116330116987228,
						"attent": 0.11951520293951035,
						"grown": -0.09601590037345886,
						"nurtur": -0.1924557238817215,
						"rais": 0.07505824416875839,
						"awai": -0.17528606951236725,
						"home": 0.1556548923254013,
						"space": 0.006759789772331715,
						"politc": -0.17851188778877258,
						"function": -0.013973573222756386,
						"son": 0.05404963344335556,
						"focus": 0.08557101339101791,
						"scienc": 0.11192847043275833,
						"career": -0.1430131494998932,
						"leav": 0.12768733501434326,
						"mainli": 0.01674078218638897,
						"kind": -0.08376011252403259,
						"opposit": 0.14294439554214478,
						"bare": -0.1697925478219986,
						"not": 0.004172384273260832,
						"feel": -0.11866462230682373,
						"so": -0.15213508903980255,
						"love": -0.05116578936576843,
						"tradit": 0.09037814289331436,
						"attend": -0.1832217574119568,
						"everi": -0.05933668464422226,
						"need": 0.14011386036872864,
						"howev": 0.1758127212524414,
						"type": -0.025257283821702003,
						"went": -0.031055878847837448,
						"miss": 0.11644606292247772,
						"earli": 0.11861072480678558,
						"ag": -0.12023985385894775,
						"close": -0.01201597135514021,
						"complet": 0.1608501821756363,
						"fractur": -0.04232337325811386,
						"possibl": 0.10256105661392212,
						"hand": 0.19508977234363556,
						"half": -0.1722061187028885,
						"retain": 0.13948103785514832,
						"biolog": 0.14041320979595184,
						"resent": -0.1427658498287201,
						"cook": -0.155812069773674,
						"meal": -0.11822540313005447,
						"take": 0.12088792771100998,
						"grant": 0.014206764288246632,
						"seen": 0.06673643738031387,
						"apart": -0.15243692696094513,
						"mai": -0.19085806608200073,
						"forev": 0.1313837319612503,
						"structur": -0.11374583840370178,
						"that": -0.0015691149746999145,
						"planet": -0.11096847802400589,
						"gone": -0.07127588987350464,
						"knit": 0.15237247943878174,
						"her": 0.1767600178718567,
						"isnt": 0.009623648598790169,
						"saw": 0.0199712086468935,
						"littl": 0.17933619022369385,
						"di": 0.1114468201994896,
						"physic": 0.08871477097272873,
						"know": -0.030635369941592216,
						"grow": -0.05029238387942314,
						"differ": -0.04650100693106651,
						"worri": 0.11399661004543304,
						"none": -0.07910887897014618,
						"remark": -0.010542850010097027,
						"yet": -0.18016716837882996,
						"l": 0.05078417435288429,
						"unifi": -0.18246085941791534,
						"almost": 0.02822117507457733,
						"infant": 0.10464100539684296,
						"old": 0.16975602507591248,
						"part": -0.07534949481487274,
						"everydai": -0.1453677862882614,
						"accid": -0.17524290084838867,
						"video": 0.14039839804172516,
						"sent": 0.12801478803157806,
						"remot": -0.0874909907579422,
						"watch": -0.18994328379631042,
						"occupi": -0.08821266144514084,
						"although": -0.005452732089906931,
						"far": 0.011053217574954033,
						"distanc": 0.0887652188539505,
						"fortun": 0.04119733348488808,
						"right": -0.05412987992167473,
						"besid": -0.12478809803724289,
						"share": -0.17714037001132965,
						"thing": -0.10158688575029373,
						"relationship": -0.004355814307928085,
						"child": -0.051512256264686584,
						"usual": -0.19512198865413666,
						"help": -0.1178436130285263,
						"doe": 0.09548888355493546,
						"dead": 0.060629431158304214,
						"adventur": 0.17436076700687408,
						"cost": 0.17135125398635864,
						"knew": 0.16926144063472748,
						"mostli": -0.023495346307754517,
						"often": 0.007744914386421442,
						"absent": 0.06962291151285172,
						"starter": 0.1856897622346878,
						"appar": 0.11659999191761017,
						"chamber": -0.10086087882518768,
						"valu": 0.005274644587188959,
						"scientist": -0.1404924839735031,
						"roughli": 0.11208747327327728,
						"therefor": -0.07399026304483414,
						"face": -0.11289430409669876,
						"babi": -0.17765627801418304,
						"realli": 0.02527010627090931,
						"like": -0.1104220375418663,
						"around": -0.049667906016111374,
						"stereotyp": 0.02905031107366085,
						"nuclear": 0.10518598556518555,
						"consid": 0.10292080789804459,
						"distant": -0.08198932558298111,
						"immedi": -0.005827180575579405,
						"reais": -0.05584549158811569,
						"pass": 0.17521227896213531,
						"basic": 0.17790083587169647,
						"respons": 0.1341037005186081,
						"herself": -0.013023901730775833,
						"took": 0.018131066113710403,
						"o": -0.025586159899830818,
						"shirrana": 0.09441472589969635,
						"dote": -0.17185787856578827,
						"ever": 0.03478027135133743,
						"see": 0.11811931431293488,
						"frquentli": -0.04408308118581772,
						"probabl": 0.13744765520095825,
						"again": 0.023187585175037384,
						"blend": 0.0014862359967082739,
						"extend": 0.13124889135360718,
						"member": 0.002078176476061344,
						"singl": 0.1803608536720276,
						"household": 0.12877483665943146,
						"no": 0.18173497915267944,
						"male": -0.20269781351089478,
						"figur": -0.1123804897069931,
						"big": 0.03950031101703644,
						"portion": 0.09538646787405014,
						"childhood": 0.14851787686347961,
						"demonstr": 0.034828703850507736,
						"affect": 0.1825515776872635,
						"disappear": -0.08674312382936478,
						"w": -0.04883641377091408,
						"tight": 0.02558772638440132,
						"entir": -0.15313859283924103,
						"provid": 0.13720089197158813,
						"safe": -0.1012033000588417,
						"environ": -0.12388099730014801,
						"broken": 0.12916484475135803,
						"dynam": 0.08785665035247803,
						"gave": -0.04075036942958832,
						"daught": 0.08061406016349792,
						"put": -0.06890672445297241,
						"person": -0.00790912751108408,
						"endeavor": -0.1619521975517273,
						"somewhat": 0.11137818545103073,
						"asid": 0.16817247867584229,
						"remain": -0.029810143634676933,
						"pursu": -0.1048179492354393,
						"biochemistri": -0.11713201552629471,
						"explor": 0.17530256509780884,
						"even": 0.16653169691562653,
						"pai": -0.042937397956848145,
						"unlik": 0.04106515645980835,
						"direct": 0.13184195756912231,
						"memori": 0.08570735901594162,
						"show": -0.18380306661128998,
						"freeli": 0.07193908095359802,
						"involv": 0.09354657679796219,
						"muc": 0.18527737259864807,
						"avail": 0.04502946883440018,
						"pictur": 0.1332462579011917,
						"dream": 0.16781461238861084,
						"hour": 0.10139118134975433,
						"aliv": 0.06655941158533096,
						"appear": -0.18233227729797363,
						"less": 0.13200733065605164,
						"isn": -0.15181051194667816,
						"aot": -0.1259997934103012,
						"fragment": 0.18245072662830353,
						"tragic": 0.11113996803760529,
						"event": -0.13292738795280457,
						"super": -0.043440867215394974,
						"convent": -0.022060565650463104,
						"eager": -0.07517257332801819,
						"unconvent": 0.0034568514674901962,
						"hardli": -0.17650482058525085,
						"strong": 0.054881200194358826,
						"sup": 0.04660908132791519,
						"ao": 0.16090187430381775,
						"hasn": 0.14340300858020782,
						"younger": -0.012742539867758751,
						"shrianna": -0.10947594046592712,
						"consist": -0.10052177309989929,
						"unit": 0.14993150532245636,
						"bright": 0.01561467070132494,
						"fascin": -0.17073093354701996,
						"risk": 0.07029978185892105,
						"go": 0.025584811344742775,
						"select": -0.12146519124507904,
						"colon": -0.09586717933416367,
						"becau": 0.15824441611766815,
						"fin": -0.11729969829320908
					}
				},
				"3": {
					"bias": 0.03756297007203102,
					"weights": {
						"2": -0.12921997904777527,
						"5": -0.165467768907547,
						"6": -0.05721396580338478,
						"adam": -0.11129919439554214,
						"case": -0.06448723375797272,
						"togeth": -0.07761494070291519,
						"shiranna": 0.09961742162704468,
						"famili": 0.07108621299266815,
						"separ": 0.05453295260667801,
						"she": 0.1308685839176178,
						"young": -0.1798013597726822,
						"care": 0.005863450933247805,
						"perfect": 0.19141249358654022,
						"busi": -0.11678788810968399,
						"mom": 0.17130893468856812,
						"dad": 0.2076343297958374,
						"left": 0.05610276013612747,
						"job": 0.1855514794588089,
						"parent": 0.1709708571434021,
						"support": -0.10997740179300308,
						"time": 0.1316310316324234,
						"seem": 0.012766383588314056,
						"noth": 0.11222751438617706,
						"bad": 0.002981109544634819,
						"happen": 0.08501209318637848,
						"lost": -0.15324340760707855,
						"when": 0.03608180955052376,
						"work": 0.1445072889328003,
						"venu": -0.16045048832893372,
						"spent": 0.03650727495551109,
						"life": 0.11252792924642563,
						"aunt": -0.031668853014707565,
						"mother": 0.09734558314085007,
						"father": 0.09727369993925095,
						"alwai": 0.008618269115686417,
						"grew": 0.0692758858203888,
						"without": -0.16161642968654633,
						"live": 0.12997806072235107,
						"last": 0.015352830290794373,
						"year": -0.13314609229564667,
						"chosen": -0.1769871562719345,
						"present": -0.059545230120420456,
						"wherea": -0.18570077419281006,
						"major": 0.09600046277046204,
						"self": -0.04339790716767311,
						"effici": 0.1587897390127182,
						"due": 0.16779541969299316,
						"loss": 0.1639774739742279,
						"absenc": 0.08358381688594818,
						"lack": 0.09686610847711563,
						"attent": 0.20701445639133453,
						"grown": -0.05996333062648773,
						"nurtur": 0.11715181171894073,
						"rais": 0.20102515816688538,
						"awai": -0.09826905280351639,
						"home": -0.18167904019355774,
						"space": -0.05480211228132248,
						"politc": 0.15764646232128143,
						"function": 0.021540191024541855,
						"son": -0.008614253252744675,
						"focus": -0.18936486542224884,
						"scienc": -0.17511619627475739,
						"career": -0.17141401767730713,
						"leav": 0.08019568771123886,
						"mainli": 0.07651364058256149,
						"kind": -0.1510079950094223,
						"opposit": 0.09100036323070526,
						"bare": 0.03866612911224365,
						"not": 0.12799467146396637,
						"feel": -0.06790802627801895,
						"so": -0.059607360512018204,
						"love": 0.21126487851142883,
						"tradit": -0.07452532649040222,
						"attend": 0.06432262063026428,
						"everi": -0.08910315483808517,
						"need": -0.1101556345820427,
						"howev": 0.1093858852982521,
						"type": -0.12757696211338043,
						"went": 0.00013676022354047745,
						"miss": 0.19652840495109558,
						"earli": 0.10052797198295593,
						"ag": -0.06138473004102707,
						"close": 0.06796841323375702,
						"complet": -0.14758209884166718,
						"fractur": -0.18098939955234528,
						"possibl": 0.17051643133163452,
						"hand": -0.05523117259144783,
						"half": 0.05050978064537048,
						"retain": 0.05622987076640129,
						"biolog": 0.04809211567044258,
						"resent": -0.09085606038570404,
						"cook": -0.16989867389202118,
						"meal": -0.004710291977971792,
						"take": 0.11764414608478546,
						"grant": 0.08719054609537125,
						"seen": -0.030669867992401123,
						"apart": -0.1634143590927124,
						"mai": 0.06446288526058197,
						"forev": -0.08121468871831894,
						"structur": 0.014054490253329277,
						"that": -0.14604224264621735,
						"planet": 0.03176493942737579,
						"gone": 0.15052901208400726,
						"knit": -0.10157060623168945,
						"her": 0.1148834079504013,
						"isnt": 0.0842711552977562,
						"saw": 0.03752625361084938,
						"littl": 0.04589161276817322,
						"di": -0.17194779217243195,
						"physic": -0.17365364730358124,
						"know": 0.029056141152977943,
						"grow": -0.10700436681509018,
						"differ": -0.10310973227024078,
						"worri": 0.003236309625208378,
						"none": -0.1950245350599289,
						"remark": -0.1747397780418396,
						"yet": -0.03296421095728874,
						"l": -0.15608082711696625,
						"unifi": -0.09738866239786148,
						"almost": 0.015538616105914116,
						"infant": 0.05232847109436989,
						"old": -0.00400919234380126,
						"part": -0.00985505897551775,
						"everydai": -0.0804096907377243,
						"accid": 0.0007522681262344122,
						"video": 0.04581646993756294,
						"sent": -0.10818138718605042,
						"remot": 0.16132016479969025,
						"watch": -0.06198948621749878,
						"occupi": 0.08626894652843475,
						"although": -0.009775384329259396,
						"far": 0.03824298828840256,
						"distanc": -0.08839540928602219,
						"fortun": -0.17894309759140015,
						"right": 0.0003000177093781531,
						"besid": -0.04273035004734993,
						"share": -0.0748043954372406,
						"thing": 0.1685771942138672,
						"relationship": 0.10441017150878906,
						"child": 0.16758473217487335,
						"usual": 0.10429566353559494,
						"help": 0.07272883504629135,
						"doe": 0.08147037774324417,
						"dead": -0.08953627943992615,
						"adventur": 0.1167309433221817,
						"cost": 0.12070992588996887,
						"knew": -0.10153811424970627,
						"mostli": 0.005542134400457144,
						"often": -0.07572107762098312,
						"absent": 0.17738604545593262,
						"starter": -0.0009332538465969265,
						"appar": -0.07317788898944855,
						"chamber": 0.0923972874879837,
						"valu": -0.07235231250524521,
						"scientist": -0.18137194216251373,
						"roughli": -0.09953714907169342,
						"therefor": -0.08525671809911728,
						"face": 0.17082339525222778,
						"babi": 0.10319971293210983,
						"realli": -0.05469323322176933,
						"like": -0.08561912178993225,
						"around": -0.06799189746379852,
						"stereotyp": 0.1344863921403885,
						"nuclear": -0.17585325241088867,
						"consid": -0.06757353991270065,
						"distant": 0.17473091185092926,
						"immedi": 0.17564080655574799,
						"reais": 0.19333083927631378,
						"pass": -0.07717515528202057,
						"basic": 0.010721480473876,
						"respons": 0.11769148707389832,
						"herself": 0.1950383335351944,
						"took": 0.1871391087770462,
						"o": 0.08586381375789642,
						"shirrana": 0.14714330434799194,
						"dote": 0.1674673855304718,
						"ever": 0.1018114686012268,
						"see": 0.009393222630023956,
						"frquentli": -0.06761573255062103,
						"probabl": 0.030118495225906372,
						"again": -0.03732672706246376,
						"blend": 0.15328656136989594,
						"extend": -0.10406684875488281,
						"member": -0.06623732298612595,
						"singl": 0.05511061102151871,
						"household": -0.02196265198290348,
						"no": 0.196833997964859,
						"male": -0.03806539252400398,
						"figur": -0.07748214900493622,
						"big": -0.021673385053873062,
						"portion": -0.09633557498455048,
						"childhood": 0.17255987226963043,
						"demonstr": -0.15966404974460602,
						"affect": -0.08008380234241486,
						"disappear": 0.18063095211982727,
						"w": -0.058557044714689255,
						"tight": -0.05765342712402344,
						"entir": -0.003985177725553513,
						"provid": -0.016317352652549744,
						"safe": 0.15838292241096497,
						"environ": -0.08664331585168839,
						"broken": -0.014834363013505936,
						"dynam": 0.1595321148633957,
						"gave": -0.03086007386445999,
						"daught": 0.13903066515922546,
						"put": 0.10719553381204605,
						"person": -0.10727677494287491,
						"endeavor": 0.16678740084171295,
						"somewhat": -0.07747549563646317,
						"asid": 0.1329602301120758,
						"remain": 0.18782949447631836,
						"pursu": -0.08200650662183762,
						"biochemistri": 0.09867376834154129,
						"explor": 0.03760964795947075,
						"even": 0.14662283658981323,
						"pai": -0.11452805995941162,
						"unlik": -0.15067161619663239,
						"direct": -0.08138956129550934,
						"memori": 0.1915140599012375,
						"show": -0.1313064843416214,
						"freeli": -0.12063369899988174,
						"involv": 0.1506604552268982,
						"muc": -0.09401367604732513,
						"avail": -0.10247732698917389,
						"pictur": 0.040191564708948135,
						"dream": -0.017720337957143784,
						"hour": -0.1506209671497345,
						"aliv": 0.09388270229101181,
						"appear": -0.022911937907338142,
						"less": -0.08795888721942902,
						"isn": -0.062115248292684555,
						"aot": -0.016246667131781578,
						"fragment": -0.0047561596147716045,
						"tragic": 0.042693305760622025,
						"event": -0.03286945819854736,
						"super": -0.1270119547843933,
						"convent": -0.02658703923225403,
						"eager": 0.1420379877090454,
						"unconvent": -0.03610220551490784,
						"hardli": -0.07849038392305374,
						"strong": -0.057661302387714386,
						"sup": -0.0639682188630104,
						"ao": -0.0703381821513176,
						"hasn": 0.06850029528141022,
						"younger": -0.08789004385471344,
						"shrianna": -0.13574351370334625,
						"consist": 0.014872773550450802,
						"unit": -0.12095910310745239,
						"bright": 0.016842767596244812,
						"fascin": 0.1066441684961319,
						"risk": -0.058497488498687744,
						"go": 0.1267053484916687,
						"select": 0.027245867997407913,
						"colon": -0.0017226447816938162,
						"becau": 0.009678815491497517,
						"fin": 0.16476593911647797
					}
				},
				"4": {
					"bias": 0.014708630740642548,
					"weights": {
						"2": -0.16230399906635284,
						"5": -0.1382489949464798,
						"6": -0.14956992864608765,
						"adam": 0.0014032028848305345,
						"case": 0.20047080516815186,
						"togeth": 0.11820497363805771,
						"shiranna": 0.1322726309299469,
						"famili": -0.18209920823574066,
						"separ": 0.15709416568279266,
						"she": 0.1703871637582779,
						"young": 0.18129432201385498,
						"care": -0.027320602908730507,
						"perfect": 0.1156531572341919,
						"busi": -0.15937389433383942,
						"mom": -0.06284797936677933,
						"dad": 0.03350922465324402,
						"left": 0.13317535817623138,
						"job": 0.17038792371749878,
						"parent": 0.15391094982624054,
						"support": -0.008670210838317871,
						"time": 0.004356055520474911,
						"seem": -0.05032390356063843,
						"noth": -0.0639258474111557,
						"bad": -0.06523128598928452,
						"happen": -0.1583983451128006,
						"lost": 0.08805280178785324,
						"when": -0.10242503881454468,
						"work": -0.1833774596452713,
						"venu": -0.12198072671890259,
						"spent": 0.1657702475786209,
						"life": 0.009352786466479301,
						"aunt": -0.19759370386600494,
						"mother": 0.1507006734609604,
						"father": -0.05111012980341911,
						"alwai": -0.017809145152568817,
						"grew": 0.18959078192710876,
						"without": 0.19595293700695038,
						"live": 0.04411322996020317,
						"last": 0.055132899433374405,
						"year": -0.1759999394416809,
						"chosen": -0.04221620783209801,
						"present": -0.010931199416518211,
						"wherea": -0.07131686806678772,
						"major": -0.020430084317922592,
						"self": -0.05334150418639183,
						"effici": 0.03350195288658142,
						"due": -0.08556972444057465,
						"loss": -0.14808844029903412,
						"absenc": -0.016994234174489975,
						"lack": -0.025062210857868195,
						"attent": -0.17313562333583832,
						"grown": 0.0345161110162735,
						"nurtur": 0.13781461119651794,
						"rais": 0.044140707701444626,
						"awai": -0.011884020641446114,
						"home": -0.13153773546218872,
						"space": 0.05231805518269539,
						"politc": -0.10333067923784256,
						"function": 0.13340876996517181,
						"son": -0.07283901423215866,
						"focus": -0.06675819307565689,
						"scienc": -0.13600297272205353,
						"career": -0.08412788063287735,
						"leav": 0.13548064231872559,
						"mainli": -0.046906519681215286,
						"kind": 0.09831094741821289,
						"opposit": -0.02899598330259323,
						"bare": 0.10810836404561996,
						"not": 0.04501315578818321,
						"feel": -0.14367394149303436,
						"so": -0.08937111496925354,
						"love": 0.12620140612125397,
						"tradit": -0.10937006026506424,
						"attend": -0.10112456977367401,
						"everi": -0.12490958720445633,
						"need": 0.10117097198963165,
						"howev": -0.1982220560312271,
						"type": 0.08968187868595123,
						"went": 0.15856988728046417,
						"miss": 0.08706969022750854,
						"earli": 0.08046119660139084,
						"ag": -0.009971088729798794,
						"close": -0.1039610505104065,
						"complet": 0.13925616443157196,
						"fractur": -0.1067560613155365,
						"possibl": -0.11826353520154953,
						"hand": -0.16671839356422424,
						"half": 0.025752320885658264,
						"retain": 0.11587516963481903,
						"biolog": 0.001374883926473558,
						"resent": 0.04826933890581131,
						"cook": -0.19857138395309448,
						"meal": 0.142682746052742,
						"take": 0.16744758188724518,
						"grant": -0.05485939607024193,
						"seen": -0.17882758378982544,
						"apart": 0.12055755406618118,
						"mai": -0.096504807472229,
						"forev": -0.03576679155230522,
						"structur": 0.175204336643219,
						"that": -0.02017901837825775,
						"planet": -0.16086965799331665,
						"gone": 0.0353708453476429,
						"knit": -0.07986908406019211,
						"her": -0.09533092379570007,
						"isnt": -0.192159041762352,
						"saw": -0.04621373862028122,
						"littl": 0.08703365921974182,
						"di": -0.006258009467273951,
						"physic": 0.08399559557437897,
						"know": -0.192785382270813,
						"grow": 0.10496967285871506,
						"differ": -0.03664284944534302,
						"worri": -0.13596923649311066,
						"none": 0.19327357411384583,
						"remark": -0.03488388657569885,
						"yet": -0.1663215011358261,
						"l": -0.16856658458709717,
						"unifi": 0.0922931358218193,
						"almost": -0.1496516913175583,
						"infant": -0.11697281152009964,
						"old": 0.040490373969078064,
						"part": -0.030457502231001854,
						"everydai": 0.19040843844413757,
						"accid": 0.01908048242330551,
						"video": 0.13049651682376862,
						"sent": -0.024776263162493706,
						"remot": 0.07269743829965591,
						"watch": 0.009265756234526634,
						"occupi": -0.12708361446857452,
						"although": 0.05846991389989853,
						"far": -0.08008906245231628,
						"distanc": -0.10921727865934372,
						"fortun": 0.12001374363899231,
						"right": 0.06932573020458221,
						"besid": -0.13217873871326447,
						"share": 0.0029299501329660416,
						"thing": 0.0344855897128582,
						"relationship": 0.009747696109116077,
						"child": -0.06646151095628738,
						"usual": -0.11889822036027908,
						"help": -0.09190281480550766,
						"doe": 0.05167774483561516,
						"dead": 0.015406430698931217,
						"adventur": -0.2016340047121048,
						"cost": -0.179430291056633,
						"knew": 0.1316567361354828,
						"mostli": -0.07877643406391144,
						"often": 0.19076180458068848,
						"absent": -0.14065226912498474,
						"starter": -0.026397116482257843,
						"appar": 0.054165761917829514,
						"chamber": -0.05703137069940567,
						"valu": -0.055092938244342804,
						"scientist": -0.15275946259498596,
						"roughli": -0.13527950644493103,
						"therefor": -0.035819344222545624,
						"face": 0.03852654993534088,
						"babi": 0.12939225137233734,
						"realli": 0.11009078472852707,
						"like": 0.17115642130374908,
						"around": 0.19481682777404785,
						"stereotyp": -0.17930537462234497,
						"nuclear": -0.06883708387613297,
						"consid": -0.07411545515060425,
						"distant": -0.19570292532444,
						"immedi": 0.0773659273982048,
						"reais": -0.02468441240489483,
						"pass": 0.18351256847381592,
						"basic": -0.16590644419193268,
						"respons": 0.10983075946569443,
						"herself": -0.04055573046207428,
						"took": -0.15409760177135468,
						"o": 0.0709371343255043,
						"shirrana": -0.15719766914844513,
						"dote": 0.05845361575484276,
						"ever": -0.006852396763861179,
						"see": 0.05948272719979286,
						"frquentli": -0.1705680787563324,
						"probabl": 0.045122526586055756,
						"again": -0.003919166512787342,
						"blend": -0.15128539502620697,
						"extend": -0.0859731137752533,
						"member": 0.1450657993555069,
						"singl": 0.1037394106388092,
						"household": 0.05893050506711006,
						"no": -0.07394713908433914,
						"male": -0.1542046070098877,
						"figur": 0.013200657442212105,
						"big": 0.06907330453395844,
						"portion": -0.04626404866576195,
						"childhood": -0.14748214185237885,
						"demonstr": -0.18827609717845917,
						"affect": -0.09470275789499283,
						"disappear": 0.07964378595352173,
						"w": -0.16883039474487305,
						"tight": 0.13763023912906647,
						"entir": 0.061872825026512146,
						"provid": -0.09427983313798904,
						"safe": 0.10493715107440948,
						"environ": -0.054461341351270676,
						"broken": 0.1869254857301712,
						"dynam": -0.17848549783229828,
						"gave": 0.13802692294120789,
						"daught": -0.17054302990436554,
						"put": 0.061609864234924316,
						"person": 0.01694701611995697,
						"endeavor": -0.1405668407678604,
						"somewhat": 0.004851918201893568,
						"asid": -0.0013291344512254,
						"remain": -0.03334706649184227,
						"pursu": 0.0891004353761673,
						"biochemistri": 0.1622704267501831,
						"explor": -0.003862817771732807,
						"even": -0.17748267948627472,
						"pai": 0.14203450083732605,
						"unlik": -0.03228325769305229,
						"direct": -0.028182776644825935,
						"memori": 0.17932894825935364,
						"show": -0.12389067560434341,
						"freeli": 0.004136045463383198,
						"involv": -0.04954875260591507,
						"muc": -0.19520598649978638,
						"avail": 0.01630476489663124,
						"pictur": -0.1046312227845192,
						"dream": 0.15129300951957703,
						"hour": 0.1468460112810135,
						"aliv": 0.11013314872980118,
						"appear": -0.016701720654964447,
						"less": -0.1808847188949585,
						"isn": 0.19284753501415253,
						"aot": -0.18140065670013428,
						"fragment": 0.14888781309127808,
						"tragic": -0.11521393805742264,
						"event": 0.02771175652742386,
						"super": -0.06988879293203354,
						"convent": 0.14022980630397797,
						"eager": 0.0975642278790474,
						"unconvent": -0.03890053927898407,
						"hardli": 0.09479732066392899,
						"strong": -0.149552583694458,
						"sup": -0.1430799663066864,
						"ao": -0.10184527188539505,
						"hasn": 0.09743387997150421,
						"younger": -0.1035587340593338,
						"shrianna": 0.10271957516670227,
						"consist": -0.12528221309185028,
						"unit": 0.10091532766819,
						"bright": -0.0630079135298729,
						"fascin": -0.0268634632229805,
						"risk": 0.1966966837644577,
						"go": 0.1808243989944458,
						"select": -0.029282614588737488,
						"colon": 0.06463989615440369,
						"becau": -0.1964760571718216,
						"fin": 0.1718633621931076
					}
				},
				"5": {
					"bias": 0.18857139348983765,
					"weights": {
						"2": 0.010043112561106682,
						"5": -0.07459323108196259,
						"6": 0.058608364313840866,
						"adam": -0.19399045407772064,
						"case": -0.0005583231104537845,
						"togeth": 0.06116744130849838,
						"shiranna": -0.22756312787532806,
						"famili": -0.04335403814911842,
						"separ": -0.11803251504898071,
						"she": -0.17942628264427185,
						"young": 0.18690747022628784,
						"care": 0.06279314309358597,
						"perfect": -0.02635398879647255,
						"busi": 0.1462266445159912,
						"mom": 0.13231268525123596,
						"dad": -0.026425356045365334,
						"left": 0.13878242671489716,
						"job": 0.0999714806675911,
						"parent": -0.03777618706226349,
						"support": -0.1277114301919937,
						"time": -0.03498544916510582,
						"seem": -0.10999678075313568,
						"noth": -0.027307983487844467,
						"bad": -0.016936998814344406,
						"happen": -0.19334594905376434,
						"lost": 0.17387624084949493,
						"when": 0.05378052592277527,
						"work": -0.05987222120165825,
						"venu": 0.1501079499721527,
						"spent": 0.06452631950378418,
						"life": 0.05255407840013504,
						"aunt": 0.11124544590711594,
						"mother": -0.15499454736709595,
						"father": -0.11112843453884125,
						"alwai": -0.1617051512002945,
						"grew": 0.056725963950157166,
						"without": -0.06468036770820618,
						"live": 0.019699908792972565,
						"last": -0.009252873249351978,
						"year": -0.2177574634552002,
						"chosen": 0.01417685579508543,
						"present": -0.1318112015724182,
						"wherea": 0.16468872129917145,
						"major": 0.1391426920890808,
						"self": 0.03736727312207222,
						"effici": 0.19448144733905792,
						"due": 0.14899928867816925,
						"loss": 0.19589562714099884,
						"absenc": 0.19693903625011444,
						"lack": -0.13967110216617584,
						"attent": 0.15358243882656097,
						"grown": -0.057423654943704605,
						"nurtur": -0.08556049317121506,
						"rais": -0.1293811947107315,
						"awai": -0.04557577148079872,
						"home": 0.04538629949092865,
						"space": 0.05412372201681137,
						"politc": -0.005199141800403595,
						"function": -0.00382313528098166,
						"son": -0.026136673986911774,
						"focus": 0.06245504692196846,
						"scienc": -0.1915411353111267,
						"career": 0.011970391497015953,
						"leav": -0.03626807779073715,
						"mainli": -0.003277808427810669,
						"kind": 0.1456429809331894,
						"opposit": 0.12364456057548523,
						"bare": 0.13731010258197784,
						"not": -0.2056349664926529,
						"feel": 0.062003567814826965,
						"so": -0.16602785885334015,
						"love": -0.09286199510097504,
						"tradit": -0.04032342880964279,
						"attend": -0.060162052512168884,
						"everi": 0.07695216685533524,
						"need": 0.06209537759423256,
						"howev": -0.02934969589114189,
						"type": 0.17036935687065125,
						"went": 0.02820122428238392,
						"miss": 0.17986907064914703,
						"earli": 0.03393377363681793,
						"ag": 0.07736480236053467,
						"close": 0.08232377469539642,
						"complet": 0.14472231268882751,
						"fractur": 0.1575196534395218,
						"possibl": -0.16495978832244873,
						"hand": 0.1082930713891983,
						"half": -0.1850120723247528,
						"retain": 0.08548874408006668,
						"biolog": 0.1950908601284027,
						"resent": -0.06061680242419243,
						"cook": -0.14393162727355957,
						"meal": 0.14477506279945374,
						"take": -0.06516474485397339,
						"grant": 0.14107951521873474,
						"seen": 0.023743748664855957,
						"apart": 0.17767713963985443,
						"mai": 0.022420188412070274,
						"forev": -0.19350452721118927,
						"structur": -0.21209532022476196,
						"that": -0.02454509027302265,
						"planet": 0.059934161603450775,
						"gone": 0.1313239485025406,
						"knit": 0.04089036583900452,
						"her": 0.1457444727420807,
						"isnt": 0.10914593189954758,
						"saw": -0.09568849205970764,
						"littl": -0.023613300174474716,
						"di": -0.09678854048252106,
						"physic": -0.16779449582099915,
						"know": 0.1576177030801773,
						"grow": 0.17515866458415985,
						"differ": 0.08638229966163635,
						"worri": 0.08257041126489639,
						"none": 0.12206538021564484,
						"remark": 0.12690970301628113,
						"yet": -0.03462429344654083,
						"l": -0.05017724633216858,
						"unifi": 0.17376534640789032,
						"almost": -0.04230531305074692,
						"infant": 0.1784498691558838,
						"old": -0.0012796394294127822,
						"part": 0.16191233694553375,
						"everydai": -0.057642605155706406,
						"accid": 0.03577256575226784,
						"video": -0.09945820271968842,
						"sent": -0.028358932584524155,
						"remot": 0.1359250396490097,
						"watch": -0.053717464208602905,
						"occupi": -0.05912172049283981,
						"although": 0.03691732883453369,
						"far": 0.13694645464420319,
						"distanc": -0.0997265875339508,
						"fortun": 0.15026165544986725,
						"right": 0.002915521152317524,
						"besid": -0.0786396935582161,
						"share": 0.0543622151017189,
						"thing": 0.1321592479944229,
						"relationship": -0.11381105333566666,
						"child": -0.010067848488688469,
						"usual": 0.0046671717427670956,
						"help": 0.10639902949333191,
						"doe": -0.21067588031291962,
						"dead": -0.17504645884037018,
						"adventur": -0.05696812644600868,
						"cost": -0.01974993757903576,
						"knew": -0.11968541145324707,
						"mostli": -0.006682849954813719,
						"often": 0.04234495759010315,
						"absent": -0.16092361509799957,
						"starter": 0.11769767105579376,
						"appar": 0.07115727663040161,
						"chamber": -0.07099224627017975,
						"valu": 0.11792968958616257,
						"scientist": -0.10935746133327484,
						"roughli": -0.09750421345233917,
						"therefor": -0.06743483990430832,
						"face": -0.1585524082183838,
						"babi": 0.010564661584794521,
						"realli": 0.04078425094485283,
						"like": -0.08807157725095749,
						"around": 0.09614922851324081,
						"stereotyp": -0.18494683504104614,
						"nuclear": -0.0024861253332346678,
						"consid": 0.10813885927200317,
						"distant": 0.06607279926538467,
						"immedi": -0.1220141351222992,
						"reais": -0.10472673177719116,
						"pass": -0.09787813574075699,
						"basic": 0.016535582020878792,
						"respons": -0.179029643535614,
						"herself": 0.14852280914783478,
						"took": -0.14585091173648834,
						"o": -0.028405427932739258,
						"shirrana": 0.10861573368310928,
						"dote": -0.14872625470161438,
						"ever": -0.05039387568831444,
						"see": 0.09732969850301743,
						"frquentli": 0.07702790945768356,
						"probabl": -0.06784722208976746,
						"again": 0.14883892238140106,
						"blend": 0.0715334489941597,
						"extend": 0.026429569348692894,
						"member": 0.1800280213356018,
						"singl": -0.14844395220279694,
						"household": -0.12391152232885361,
						"no": 0.13629384338855743,
						"male": -0.19439922273159027,
						"figur": -0.14722350239753723,
						"big": 0.1874132603406906,
						"portion": -0.10102999955415726,
						"childhood": 0.12876299023628235,
						"demonstr": -0.03679531440138817,
						"affect": 0.15744242072105408,
						"disappear": -0.11846146732568741,
						"w": 0.13854680955410004,
						"tight": 0.1317615956068039,
						"entir": 0.011912987567484379,
						"provid": -0.19108591973781586,
						"safe": 0.0976596549153328,
						"environ": 0.007643668446689844,
						"broken": -0.07729076594114304,
						"dynam": 0.14784714579582214,
						"gave": -0.004577815532684326,
						"daught": -0.19618122279644012,
						"put": 0.15841613709926605,
						"person": 0.0736214816570282,
						"endeavor": 0.09519825130701065,
						"somewhat": -0.08969880640506744,
						"asid": -0.05153663828969002,
						"remain": 0.16787083446979523,
						"pursu": -0.1190357431769371,
						"biochemistri": -0.030040429905056953,
						"explor": 0.07400383055210114,
						"even": -0.1713290959596634,
						"pai": -0.03650079667568207,
						"unlik": 0.04507594555616379,
						"direct": 0.17015841603279114,
						"memori": -0.10857608914375305,
						"show": 0.01712382771074772,
						"freeli": -0.19295471906661987,
						"involv": -0.020903630182147026,
						"muc": 0.002446289174258709,
						"avail": 0.02678615041077137,
						"pictur": -0.1745343953371048,
						"dream": -0.09352804720401764,
						"hour": 0.08215199410915375,
						"aliv": -0.03394191339612007,
						"appear": -0.16240184009075165,
						"less": 0.12367518246173859,
						"isn": 0.056299980729818344,
						"aot": -0.12146254628896713,
						"fragment": -0.07359842211008072,
						"tragic": 0.04640175402164459,
						"event": -0.05196753889322281,
						"super": 0.13993191719055176,
						"convent": -0.10516741126775742,
						"eager": -0.0552590973675251,
						"unconvent": 0.08570253849029541,
						"hardli": 0.11552807688713074,
						"strong": -0.03686335310339928,
						"sup": -0.0006180963828228414,
						"ao": -0.09803305566310883,
						"hasn": 0.05888785794377327,
						"younger": 0.14397259056568146,
						"shrianna": -0.13850314915180206,
						"consist": 0.04530153423547745,
						"unit": -0.14052121341228485,
						"bright": -0.009146720170974731,
						"fascin": 0.05950251966714859,
						"risk": 0.06195477023720741,
						"go": -0.18740753829479218,
						"select": 0.19365422427654266,
						"colon": -0.11464051157236099,
						"becau": -0.13814347982406616,
						"fin": 0.0954071506857872
					}
				},
				"6": {
					"bias": 0.14451326429843903,
					"weights": {
						"2": 0.14009933173656464,
						"5": 0.12828847765922546,
						"6": -0.02592773362994194,
						"adam": -0.07592254877090454,
						"case": -0.21444399654865265,
						"togeth": -0.028497738763689995,
						"shiranna": 0.18024718761444092,
						"famili": -0.05658635124564171,
						"separ": 0.10551103949546814,
						"she": 0.011621219106018543,
						"young": 0.005783090367913246,
						"care": 0.1848670095205307,
						"perfect": -0.00016533819143660367,
						"busi": 0.11378774791955948,
						"mom": -0.039978452026844025,
						"dad": 0.13239812850952148,
						"left": -0.17459648847579956,
						"job": -0.014846223406493664,
						"parent": -0.11171990633010864,
						"support": -0.1397094577550888,
						"time": 0.12081363052129745,
						"seem": 0.009482965804636478,
						"noth": -0.0024643007200211287,
						"bad": 0.051139820367097855,
						"happen": 0.11037158221006393,
						"lost": -0.1346469223499298,
						"when": 0.057351142168045044,
						"work": -0.06537061184644699,
						"venu": -0.16681137681007385,
						"spent": -0.11846733838319778,
						"life": 0.13265518844127655,
						"aunt": -0.06858770549297333,
						"mother": 0.24030445516109467,
						"father": -0.04093194007873535,
						"alwai": -0.14043797552585602,
						"grew": 0.010784265585243702,
						"without": 0.023988137021660805,
						"live": 0.03673660755157471,
						"last": -0.019639935344457626,
						"year": 0.15241867303848267,
						"chosen": -0.12791869044303894,
						"present": -0.12844841182231903,
						"wherea": -0.12407186627388,
						"major": -0.12278886884450912,
						"self": -0.17343150079250336,
						"effici": -0.17482373118400574,
						"due": -0.11802314966917038,
						"loss": -0.09726474434137344,
						"absenc": 0.07364153861999512,
						"lack": -0.08905980736017227,
						"attent": -0.05432131886482239,
						"grown": 0.04406753554940224,
						"nurtur": -0.11235124617815018,
						"rais": -0.04884582385420799,
						"awai": 0.06907841563224792,
						"home": 0.11587836593389511,
						"space": -0.06668726354837418,
						"politc": -0.045291703194379807,
						"function": 0.08155692368745804,
						"son": -0.17944882810115814,
						"focus": 0.020052781328558922,
						"scienc": -0.006108586210757494,
						"career": 0.14963597059249878,
						"leav": -0.10480748862028122,
						"mainli": -0.1868780255317688,
						"kind": 0.16663789749145508,
						"opposit": 0.12438098341226578,
						"bare": 0.004740532953292131,
						"not": 0.06255105882883072,
						"feel": 0.09177626669406891,
						"so": 0.07567980885505676,
						"love": 0.14290720224380493,
						"tradit": -0.17051315307617188,
						"attend": -0.016389179974794388,
						"everi": -0.0649457722902298,
						"need": 0.14428968727588654,
						"howev": 0.20022036135196686,
						"type": -0.05311356484889984,
						"went": -0.055877890437841415,
						"miss": -0.18933670222759247,
						"earli": 0.16680052876472473,
						"ag": 0.04451553151011467,
						"close": -0.03660019859671593,
						"complet": 0.13153377175331116,
						"fractur": 0.10654283314943314,
						"possibl": -0.014619741588830948,
						"hand": -0.17261378467082977,
						"half": -0.062072522938251495,
						"retain": 0.15111133456230164,
						"biolog": -0.1391451209783554,
						"resent": -0.1519072949886322,
						"cook": 0.021013086661696434,
						"meal": 0.18018588423728943,
						"take": -0.13148121535778046,
						"grant": 0.09333121031522751,
						"seen": -0.08878573030233383,
						"apart": -0.10641857236623764,
						"mai": 0.11129719018936157,
						"forev": -0.013365420512855053,
						"structur": -0.15275947749614716,
						"that": 0.18028762936592102,
						"planet": 0.09348301589488983,
						"gone": -0.04551868140697479,
						"knit": 0.021677546203136444,
						"her": 0.012334296479821205,
						"isnt": 0.052533090114593506,
						"saw": -0.06957746297121048,
						"littl": -0.08874864876270294,
						"di": -0.14291517436504364,
						"physic": 0.11035218834877014,
						"know": 0.06261678040027618,
						"grow": 0.16097740828990936,
						"differ": -0.06413531303405762,
						"worri": 0.07614098489284515,
						"none": 0.1589842289686203,
						"remark": 0.11590873450040817,
						"yet": 0.035150665789842606,
						"l": -0.1539887934923172,
						"unifi": 0.11304934322834015,
						"almost": -0.14868976175785065,
						"infant": -0.08440186083316803,
						"old": 0.10542777180671692,
						"part": 0.09345944970846176,
						"everydai": 0.10672294348478317,
						"accid": -0.003267712891101837,
						"video": 0.09042011201381683,
						"sent": 0.1879669576883316,
						"remot": 0.09424246102571487,
						"watch": -0.100763238966465,
						"occupi": -0.10649490356445312,
						"although": 0.17269772291183472,
						"far": -0.014638617634773254,
						"distanc": -0.10849771648645401,
						"fortun": 0.017686961218714714,
						"right": -0.14232034981250763,
						"besid": 0.10564783215522766,
						"share": -0.01762106642127037,
						"thing": -0.06879930198192596,
						"relationship": 0.0550181120634079,
						"child": 0.12770217657089233,
						"usual": 0.1591349095106125,
						"help": -0.1476365476846695,
						"doe": -0.17499461770057678,
						"dead": -0.047850944101810455,
						"adventur": 0.2053556889295578,
						"cost": -0.0554613433778286,
						"knew": 0.025745267048478127,
						"mostli": -0.030976902693510056,
						"often": 0.12348587810993195,
						"absent": 0.18202227354049683,
						"starter": -0.05097862333059311,
						"appar": 0.16104459762573242,
						"chamber": 0.12589240074157715,
						"valu": 0.03311426565051079,
						"scientist": 0.19785647094249725,
						"roughli": 0.042715732008218765,
						"therefor": -0.16865649819374084,
						"face": 0.09049829840660095,
						"babi": 0.17753969132900238,
						"realli": 0.17454753816127777,
						"like": 0.022218063473701477,
						"around": 0.010117761790752411,
						"stereotyp": -0.06360059976577759,
						"nuclear": -0.17782120406627655,
						"consid": -0.09774091094732285,
						"distant": -0.09262055158615112,
						"immedi": -0.029046734794974327,
						"reais": -0.07209431380033493,
						"pass": 0.07831154018640518,
						"basic": -0.03845744952559471,
						"respons": 0.05799455568194389,
						"herself": -0.06801557540893555,
						"took": -0.016895540058612823,
						"o": -0.16909773647785187,
						"shirrana": 0.1253385841846466,
						"dote": -0.11422493308782578,
						"ever": -0.18777352571487427,
						"see": 0.18750563263893127,
						"frquentli": 0.14619286358356476,
						"probabl": -0.0588974729180336,
						"again": -0.13764560222625732,
						"blend": -0.13376836478710175,
						"extend": 0.16156069934368134,
						"member": 0.06963591277599335,
						"singl": -0.14039482176303864,
						"household": -0.09051232039928436,
						"no": -0.12681624293327332,
						"male": -0.09348591417074203,
						"figur": -0.08791092783212662,
						"big": -0.1048392802476883,
						"portion": -0.1447601169347763,
						"childhood": 0.09095962345600128,
						"demonstr": 0.04325758293271065,
						"affect": -0.1904062181711197,
						"disappear": -0.09165990352630615,
						"w": -0.08094620704650879,
						"tight": 0.06084533780813217,
						"entir": 0.15382443368434906,
						"provid": 0.12079757452011108,
						"safe": 0.011044908314943314,
						"environ": -0.13166794180870056,
						"broken": -0.04310343787074089,
						"dynam": 0.1480041742324829,
						"gave": 0.012549436651170254,
						"daught": 0.052586786448955536,
						"put": 0.04798601195216179,
						"person": -0.19047844409942627,
						"endeavor": -0.1943162977695465,
						"somewhat": -0.15378913283348083,
						"asid": 0.008099022321403027,
						"remain": 0.1991376280784607,
						"pursu": -0.11760890483856201,
						"biochemistri": -0.05782812088727951,
						"explor": -0.17421582341194153,
						"even": 0.12338791787624359,
						"pai": -0.025918064638972282,
						"unlik": -0.16691084206104279,
						"direct": 0.0989658534526825,
						"memori": 0.15272550284862518,
						"show": -0.0065011740662157536,
						"freeli": 0.1831384003162384,
						"involv": -0.02139793336391449,
						"muc": -0.06124325469136238,
						"avail": -0.16389930248260498,
						"pictur": 0.025242824107408524,
						"dream": 0.1284368634223938,
						"hour": -0.10553599894046783,
						"aliv": -0.006767030339688063,
						"appear": 0.09499959647655487,
						"less": 0.017577040940523148,
						"isn": -0.02424595318734646,
						"aot": 0.11307859420776367,
						"fragment": -0.029728060588240623,
						"tragic": 0.09060686826705933,
						"event": 0.06025630608201027,
						"super": 0.18668515980243683,
						"convent": 0.08483674377202988,
						"eager": -0.14221887290477753,
						"unconvent": 0.15867917239665985,
						"hardli": -0.15112826228141785,
						"strong": 0.07670082151889801,
						"sup": -0.05790271237492561,
						"ao": -0.0478479266166687,
						"hasn": -0.05351080745458603,
						"younger": -0.034570686519145966,
						"shrianna": 0.002186686499044299,
						"consist": -0.10746456682682037,
						"unit": -0.11014784127473831,
						"bright": 0.0844108834862709,
						"fascin": -0.134465292096138,
						"risk": -0.0045766583643853664,
						"go": 0.10462349653244019,
						"select": 0.19970065355300903,
						"colon": -0.138668030500412,
						"becau": -0.11721184849739075,
						"fin": -0.05352453514933586
					}
				},
				"7": {
					"bias": -0.1386396735906601,
					"weights": {
						"2": 0.19235923886299133,
						"5": 0.14114391803741455,
						"6": 0.13719141483306885,
						"adam": -0.05133375898003578,
						"case": 0.1489659994840622,
						"togeth": -0.06629034876823425,
						"shiranna": 0.14114153385162354,
						"famili": 0.07545805722475052,
						"separ": 0.05901317670941353,
						"she": 0.12349218875169754,
						"young": 0.08449876308441162,
						"care": 0.11790520697832108,
						"perfect": -0.07356683164834976,
						"busi": 0.029040802270174026,
						"mom": -0.17017340660095215,
						"dad": -0.0726814791560173,
						"left": 0.06306151300668716,
						"job": -0.014428017660975456,
						"parent": -0.11785060167312622,
						"support": -0.1305762082338333,
						"time": -0.030496036633849144,
						"seem": 0.03215162828564644,
						"noth": 0.1390017718076706,
						"bad": -0.19653655588626862,
						"happen": -0.15194939076900482,
						"lost": -0.1494370847940445,
						"when": -0.007840501144528389,
						"work": 0.21611641347408295,
						"venu": 0.0824432373046875,
						"spent": -0.14159968495368958,
						"life": 0.14790919423103333,
						"aunt": 0.10576045513153076,
						"mother": -0.10301276296377182,
						"father": 0.11172792315483093,
						"alwai": 0.11180662363767624,
						"grew": -0.03386053070425987,
						"without": 0.10834866017103195,
						"live": 0.06581729650497437,
						"last": -0.09940362721681595,
						"year": -0.1681698113679886,
						"chosen": 0.0794157087802887,
						"present": -0.05457111820578575,
						"wherea": 0.047129273414611816,
						"major": -0.0004601366526912898,
						"self": 0.0955124944448471,
						"effici": 0.1905941516160965,
						"due": 0.1800999790430069,
						"loss": 0.057342734187841415,
						"absenc": -0.07079344987869263,
						"lack": -0.1824542135000229,
						"attent": 0.162495955824852,
						"grown": 0.05177086219191551,
						"nurtur": -0.10720838606357574,
						"rais": 0.10741210728883743,
						"awai": 0.11052704602479935,
						"home": 0.05652059614658356,
						"space": -0.08729419112205505,
						"politc": -0.09335703402757645,
						"function": 0.12108732759952545,
						"son": -0.17690284550189972,
						"focus": -0.18926316499710083,
						"scienc": 0.15159840881824493,
						"career": -0.18877144157886505,
						"leav": -0.11702859401702881,
						"mainli": -0.0556984543800354,
						"kind": 0.05927655100822449,
						"opposit": -0.08805486559867859,
						"bare": -0.0723818838596344,
						"not": -0.16090774536132812,
						"feel": -0.15843230485916138,
						"so": 0.1877150535583496,
						"love": 0.04213755950331688,
						"tradit": 0.185612291097641,
						"attend": 0.06382835656404495,
						"everi": -0.17412316799163818,
						"need": 0.12756779789924622,
						"howev": -0.12991082668304443,
						"type": 0.11566278338432312,
						"went": 0.193372905254364,
						"miss": -0.02568334899842739,
						"earli": -0.12196551263332367,
						"ag": 0.17662517726421356,
						"close": 0.18126051127910614,
						"complet": -0.03983983397483826,
						"fractur": 0.1815478801727295,
						"possibl": 0.05804552510380745,
						"hand": -0.06877423822879791,
						"half": 0.18696154654026031,
						"retain": 0.09970412403345108,
						"biolog": -0.12922510504722595,
						"resent": 0.06919503957033157,
						"cook": 0.1276388317346573,
						"meal": 0.03040413372218609,
						"take": 0.09665057808160782,
						"grant": -0.15674136579036713,
						"seen": 0.17780287563800812,
						"apart": -0.06684363633394241,
						"mai": 0.04185717925429344,
						"forev": -0.028084730729460716,
						"structur": 0.0806003138422966,
						"that": 0.012382246553897858,
						"planet": -0.07639340311288834,
						"gone": 0.0935855433344841,
						"knit": -0.017220513895154,
						"her": 0.12572932243347168,
						"isnt": -0.13414692878723145,
						"saw": 0.016694482415914536,
						"littl": -0.16911551356315613,
						"di": -0.16049990057945251,
						"physic": -0.07440224289894104,
						"know": 0.08628401160240173,
						"grow": 0.12231656163930893,
						"differ": 0.14785504341125488,
						"worri": -0.05575606971979141,
						"none": 0.1856488138437271,
						"remark": 0.00759779941290617,
						"yet": -0.16068336367607117,
						"l": -0.19372600317001343,
						"unifi": 0.0020061114337295294,
						"almost": -0.10889866948127747,
						"infant": -0.055811718106269836,
						"old": 0.08495793491601944,
						"part": 0.15234093368053436,
						"everydai": -0.10671443492174149,
						"accid": -0.11633937060832977,
						"video": 0.11841719597578049,
						"sent": -0.06020461395382881,
						"remot": -0.12187781929969788,
						"watch": -0.15737025439739227,
						"occupi": -0.1656353920698166,
						"although": -0.040872640907764435,
						"far": 0.09619266539812088,
						"distanc": 0.1089402362704277,
						"fortun": 0.04084815829992294,
						"right": -0.0987701416015625,
						"besid": 0.15140381455421448,
						"share": -0.05952325463294983,
						"thing": 0.14605575799942017,
						"relationship": 0.07493047416210175,
						"child": 0.06331302970647812,
						"usual": 0.04193143919110298,
						"help": -0.06894722580909729,
						"doe": 0.00024327919527422637,
						"dead": 0.08245570212602615,
						"adventur": 0.08758993446826935,
						"cost": -0.17772464454174042,
						"knew": 0.18317954242229462,
						"mostli": -0.1403830200433731,
						"often": 0.09456305205821991,
						"absent": 0.17306794226169586,
						"starter": 0.1688508689403534,
						"appar": 0.17277149856090546,
						"chamber": -0.031345561146736145,
						"valu": 0.19585473835468292,
						"scientist": -0.0713258758187294,
						"roughli": 0.014135750941932201,
						"therefor": -0.06908009201288223,
						"face": 0.19505879282951355,
						"babi": -0.1520191878080368,
						"realli": -0.11241690814495087,
						"like": 0.005330034997314215,
						"around": 0.031720392405986786,
						"stereotyp": 0.16654059290885925,
						"nuclear": 0.017873825505375862,
						"consid": 0.15209707617759705,
						"distant": 0.05022187530994415,
						"immedi": -0.043976057320833206,
						"reais": 0.18708175420761108,
						"pass": -0.16153760254383087,
						"basic": 0.1884152740240097,
						"respons": -0.18137744069099426,
						"herself": -0.10450764000415802,
						"took": -0.027282599359750748,
						"o": -0.08521611988544464,
						"shirrana": -0.07199080288410187,
						"dote": -0.010538600385189056,
						"ever": 0.07734451442956924,
						"see": 0.0291633028537035,
						"frquentli": 0.07654326409101486,
						"probabl": -0.1285540908575058,
						"again": 0.1317562609910965,
						"blend": -0.0871398001909256,
						"extend": -0.18485288321971893,
						"member": -0.04989538714289665,
						"singl": -0.06653869152069092,
						"household": -0.11366307735443115,
						"no": -0.15642525255680084,
						"male": -0.0907372385263443,
						"figur": -0.005964410956948996,
						"big": -0.14194022119045258,
						"portion": -0.12267854809761047,
						"childhood": 0.1440320760011673,
						"demonstr": -0.16603882610797882,
						"affect": 0.11024272441864014,
						"disappear": -0.12283946573734283,
						"w": -0.10308755934238434,
						"tight": 0.003440324915573001,
						"entir": -0.06026805192232132,
						"provid": 0.01318235695362091,
						"safe": -0.10543311387300491,
						"environ": 0.01606494002044201,
						"broken": -0.09467127174139023,
						"dynam": 0.13929182291030884,
						"gave": -0.0414409302175045,
						"daught": 0.19102168083190918,
						"put": 0.11943818628787994,
						"person": 0.04358867555856705,
						"endeavor": 0.027317559346556664,
						"somewhat": -0.0675726905465126,
						"asid": 0.05741937458515167,
						"remain": 0.07436671108007431,
						"pursu": -0.017929682508111,
						"biochemistri": -0.0422186441719532,
						"explor": 0.14155098795890808,
						"even": 0.12284538149833679,
						"pai": -0.17873607575893402,
						"unlik": 0.16176535189151764,
						"direct": 0.07548468559980392,
						"memori": -0.02650291845202446,
						"show": 0.1846606582403183,
						"freeli": 0.07946976274251938,
						"involv": 0.08368612080812454,
						"muc": 0.036333002150058746,
						"avail": -0.14822451770305634,
						"pictur": 0.009452536702156067,
						"dream": -0.04433395713567734,
						"hour": 0.00005401080125011504,
						"aliv": -0.11952322721481323,
						"appear": 0.15112316608428955,
						"less": -0.1423126459121704,
						"isn": -0.10541293025016785,
						"aot": -0.12512949109077454,
						"fragment": 0.00410931371152401,
						"tragic": -0.0363292396068573,
						"event": 0.13407659530639648,
						"super": -0.07818415015935898,
						"convent": 0.16210496425628662,
						"eager": -0.17933447659015656,
						"unconvent": 0.139740988612175,
						"hardli": -0.13058146834373474,
						"strong": 0.010263722389936447,
						"sup": -0.061189115047454834,
						"ao": 0.052626535296440125,
						"hasn": 0.09411034733057022,
						"younger": -0.13701920211315155,
						"shrianna": -0.03172338381409645,
						"consist": 0.18913090229034424,
						"unit": 0.15183718502521515,
						"bright": -0.07093410193920135,
						"fascin": 0.14758095145225525,
						"risk": -0.09919467568397522,
						"go": 0.06563645601272583,
						"select": -0.033393699675798416,
						"colon": 0.07306546717882156,
						"becau": 0.041635897010564804,
						"fin": 0.15895482897758484
					}
				},
				"8": {
					"bias": 0.06316536664962769,
					"weights": {
						"2": -0.11105457693338394,
						"5": -0.1625176966190338,
						"6": 0.09769522398710251,
						"adam": 0.16381949186325073,
						"case": 0.1042485460639,
						"togeth": 0.1350533664226532,
						"shiranna": 0.24988409876823425,
						"famili": -0.08559088408946991,
						"separ": 0.12812797725200653,
						"she": -0.051622580736875534,
						"young": -0.06212979555130005,
						"care": 0.11307922005653381,
						"perfect": -0.16901537775993347,
						"busi": 0.13229802250862122,
						"mom": -0.14146268367767334,
						"dad": -0.08268463611602783,
						"left": 0.1892441362142563,
						"job": 0.029941044747829437,
						"parent": 0.008194184862077236,
						"support": 0.1940726786851883,
						"time": -0.040616314858198166,
						"seem": -0.07344545423984528,
						"noth": -0.1586899608373642,
						"bad": 0.08006465435028076,
						"happen": 0.16569848358631134,
						"lost": 0.03654668107628822,
						"when": -0.059339653700590134,
						"work": -0.07826094329357147,
						"venu": -0.12553367018699646,
						"spent": 0.1815844625234604,
						"life": -0.0019379487494006753,
						"aunt": 0.027083534747362137,
						"mother": 0.1219596341252327,
						"father": 0.1651729792356491,
						"alwai": -0.05074518546462059,
						"grew": -0.05511742830276489,
						"without": -0.1700616329908371,
						"live": 0.030950186774134636,
						"last": 0.027816293761134148,
						"year": 0.08770011365413666,
						"chosen": -0.18247053027153015,
						"present": 0.10681526362895966,
						"wherea": 0.017861559987068176,
						"major": 0.11259950697422028,
						"self": 0.013232136145234108,
						"effici": -0.048191022127866745,
						"due": 0.0746506005525589,
						"loss": -0.10759449750185013,
						"absenc": -0.19770202040672302,
						"lack": 0.009762144647538662,
						"attent": 0.16664132475852966,
						"grown": -0.006361500825732946,
						"nurtur": 0.1974555253982544,
						"rais": -0.10972395539283752,
						"awai": 0.206039696931839,
						"home": -0.13592678308486938,
						"space": -0.08660238981246948,
						"politc": -0.1737147867679596,
						"function": -0.18769268691539764,
						"son": -0.10549764335155487,
						"focus": 0.014438923448324203,
						"scienc": 0.06626047939062119,
						"career": -0.13627828657627106,
						"leav": -0.029801277443766594,
						"mainli": 0.011092321947216988,
						"kind": -0.1146622896194458,
						"opposit": -0.09542348235845566,
						"bare": 0.1289517879486084,
						"not": 0.22179166972637177,
						"feel": -0.04064471274614334,
						"so": -0.14307469129562378,
						"love": -0.10212311148643494,
						"tradit": 0.07536458969116211,
						"attend": 0.1729232370853424,
						"everi": 0.16419333219528198,
						"need": 0.20160536468029022,
						"howev": -0.02456851117312908,
						"type": -0.13662627339363098,
						"went": 0.1438363492488861,
						"miss": 0.14629964530467987,
						"earli": 0.029752148315310478,
						"ag": -0.12087809294462204,
						"close": 0.1116747036576271,
						"complet": -0.10932719707489014,
						"fractur": 0.02697533555328846,
						"possibl": -0.04786006361246109,
						"hand": -0.005540929269045591,
						"half": 0.06411518901586533,
						"retain": -0.17724502086639404,
						"biolog": 0.11566253751516342,
						"resent": -0.02713598683476448,
						"cook": -0.19304293394088745,
						"meal": -0.17051976919174194,
						"take": 0.054687440395355225,
						"grant": -0.07353714853525162,
						"seen": 0.0459982194006443,
						"apart": 0.17503967881202698,
						"mai": -0.07231252640485764,
						"forev": -0.007256133947521448,
						"structur": 0.18263918161392212,
						"that": -0.1434919387102127,
						"planet": 0.030040979385375977,
						"gone": -0.17843355238437653,
						"knit": 0.13944731652736664,
						"her": 0.0635935366153717,
						"isnt": -0.0661521777510643,
						"saw": -0.06837058812379837,
						"littl": 0.06829768419265747,
						"di": 0.05164903402328491,
						"physic": 0.03824743255972862,
						"know": 0.1440040022134781,
						"grow": -0.08458935469388962,
						"differ": 0.10551614314317703,
						"worri": 0.0970737561583519,
						"none": 0.08302703499794006,
						"remark": -0.19196386635303497,
						"yet": 0.02445715293288231,
						"l": 0.1714194267988205,
						"unifi": 0.05377645790576935,
						"almost": -0.09125050902366638,
						"infant": 0.15321461856365204,
						"old": 0.025399990379810333,
						"part": -0.022921379655599594,
						"everydai": -0.017510704696178436,
						"accid": 0.10969537496566772,
						"video": -0.047117047011852264,
						"sent": -0.17523588240146637,
						"remot": 0.048082135617733,
						"watch": 0.1018436998128891,
						"occupi": 0.10845436155796051,
						"although": 0.19685325026512146,
						"far": 0.08044413477182388,
						"distanc": -0.037789735943078995,
						"fortun": 0.09876596182584763,
						"right": -0.0716996043920517,
						"besid": 0.07263852655887604,
						"share": 0.17709656059741974,
						"thing": 0.15427280962467194,
						"relationship": 0.11250822991132736,
						"child": -0.15981300175189972,
						"usual": 0.19297833740711212,
						"help": 0.05911809951066971,
						"doe": 0.16160975396633148,
						"dead": 0.11918304115533829,
						"adventur": -0.13020716607570648,
						"cost": -0.17844298481941223,
						"knew": 0.07355164736509323,
						"mostli": -0.1962439864873886,
						"often": -0.13277165591716766,
						"absent": -0.014582502655684948,
						"starter": -0.029747342690825462,
						"appar": 0.003420753637328744,
						"chamber": 0.009742174297571182,
						"valu": 0.014101747423410416,
						"scientist": 0.18713296949863434,
						"roughli": 0.025589780882000923,
						"therefor": 0.07434012740850449,
						"face": -0.11835905909538269,
						"babi": -0.17487607896327972,
						"realli": -0.009950987994670868,
						"like": 0.11760605126619339,
						"around": -0.16878721117973328,
						"stereotyp": 0.12731242179870605,
						"nuclear": 0.048360828310251236,
						"consid": 0.1408979296684265,
						"distant": 0.08059097826480865,
						"immedi": -0.19634711742401123,
						"reais": -0.032920461148023605,
						"pass": -0.09625447541475296,
						"basic": 0.09949541091918945,
						"respons": 0.10008323937654495,
						"herself": 0.11580798774957657,
						"took": 0.04431096464395523,
						"o": -0.11355920881032944,
						"shirrana": -0.16826020181179047,
						"dote": -0.033223383128643036,
						"ever": 0.13102243840694427,
						"see": -0.05630938336253166,
						"frquentli": 0.18767863512039185,
						"probabl": 0.08902790397405624,
						"again": -0.19087184965610504,
						"blend": -0.003647191682830453,
						"extend": -0.025320084765553474,
						"member": -0.12458357959985733,
						"singl": 0.19546404480934143,
						"household": 0.025165965780615807,
						"no": 0.10011590272188187,
						"male": 0.09859807044267654,
						"figur": -0.04256114736199379,
						"big": -0.06177676096558571,
						"portion": 0.0056053693406283855,
						"childhood": 0.1001533716917038,
						"demonstr": -0.14044252038002014,
						"affect": -0.13219289481639862,
						"disappear": -0.028150221332907677,
						"w": -0.19019441306591034,
						"tight": -0.018258215859532356,
						"entir": -0.029621195048093796,
						"provid": 0.006054235622286797,
						"safe": 0.0486457534134388,
						"environ": 0.10324190557003021,
						"broken": -0.06128168851137161,
						"dynam": -0.14170940220355988,
						"gave": 0.1829507201910019,
						"daught": -0.10969273746013641,
						"put": 0.06874522566795349,
						"person": -0.1150212213397026,
						"endeavor": 0.18823865056037903,
						"somewhat": 0.16486500203609467,
						"asid": 0.15918979048728943,
						"remain": -0.19308853149414062,
						"pursu": -0.08104457706212997,
						"biochemistri": -0.19386832416057587,
						"explor": -0.0988602265715599,
						"even": -0.16831041872501373,
						"pai": 0.12467546761035919,
						"unlik": -0.13906581699848175,
						"direct": 0.07639210671186447,
						"memori": 0.046724021434783936,
						"show": -0.0376264862716198,
						"freeli": -0.1368360072374344,
						"involv": -0.14040225744247437,
						"muc": -0.12847457826137543,
						"avail": -0.007353775203227997,
						"pictur": 0.012147820554673672,
						"dream": -0.12839390337467194,
						"hour": 0.17600226402282715,
						"aliv": 0.14689812064170837,
						"appear": -0.10817819833755493,
						"less": 0.1868339478969574,
						"isn": -0.1964794248342514,
						"aot": 0.05931098014116287,
						"fragment": -0.12799671292304993,
						"tragic": -0.10282017290592194,
						"event": 0.2013515681028366,
						"super": -0.09089353680610657,
						"convent": 0.09796345233917236,
						"eager": 0.14369966089725494,
						"unconvent": 0.07143939286470413,
						"hardli": -0.11640812456607819,
						"strong": -0.14459457993507385,
						"sup": 0.04360474646091461,
						"ao": -0.07947588711977005,
						"hasn": -0.00932365097105503,
						"younger": -0.0763046145439148,
						"shrianna": 0.06720736622810364,
						"consist": 0.1459151953458786,
						"unit": -0.12604141235351562,
						"bright": -0.042816780507564545,
						"fascin": -0.014833408407866955,
						"risk": -0.0018213270232081413,
						"go": -0.06666553020477295,
						"select": -0.06359318643808365,
						"colon": -0.08728776127099991,
						"becau": -0.0074041299521923065,
						"fin": 0.029287800192832947
					}
				},
				"9": {
					"bias": 0.131919726729393,
					"weights": {
						"2": -0.040860116481781006,
						"5": 0.050392843782901764,
						"6": -0.17663736641407013,
						"adam": -0.07374832034111023,
						"case": -0.03433716669678688,
						"togeth": 0.020597150549292564,
						"shiranna": -0.0001477363839512691,
						"famili": 0.10180001705884933,
						"separ": -0.004137822892516851,
						"she": 0.18040092289447784,
						"young": 0.12231606245040894,
						"care": 0.0455336831510067,
						"perfect": 0.18095828592777252,
						"busi": -0.12733376026153564,
						"mom": -0.19749917089939117,
						"dad": -0.14932666718959808,
						"left": -0.1065402626991272,
						"job": -0.07232160866260529,
						"parent": -0.053141478449106216,
						"support": 0.09089164435863495,
						"time": 0.0010661394335329533,
						"seem": 0.16267730295658112,
						"noth": 0.08965577185153961,
						"bad": 0.1030898168683052,
						"happen": -0.08152002841234207,
						"lost": -0.034076470881700516,
						"when": -0.0919533371925354,
						"work": 0.19159770011901855,
						"venu": -0.1808745563030243,
						"spent": 0.12046943604946136,
						"life": -0.06307155638933182,
						"aunt": -0.13353174924850464,
						"mother": 0.12056493014097214,
						"father": 0.16015693545341492,
						"alwai": 0.07509563863277435,
						"grew": -0.18107138574123383,
						"without": 0.07537295669317245,
						"live": 0.1300642490386963,
						"last": 0.05766381695866585,
						"year": 0.017063165083527565,
						"chosen": -0.14319612085819244,
						"present": -0.055691178888082504,
						"wherea": 0.17829744517803192,
						"major": 0.039450809359550476,
						"self": 0.055533479899168015,
						"effici": 0.055463068187236786,
						"due": 0.00044006534153595567,
						"loss": 0.1826828122138977,
						"absenc": 0.04419013857841492,
						"lack": 0.03405039384961128,
						"attent": 0.15567973256111145,
						"grown": -0.08328936249017715,
						"nurtur": -0.1868114322423935,
						"rais": -0.029164645820856094,
						"awai": 0.13021215796470642,
						"home": -0.0024718143977224827,
						"space": -0.19954746961593628,
						"politc": 0.18509945273399353,
						"function": 0.12466272711753845,
						"son": -0.05604499578475952,
						"focus": 0.021988246589899063,
						"scienc": 0.017688600346446037,
						"career": -0.11705908179283142,
						"leav": 0.12865036725997925,
						"mainli": 0.1561894565820694,
						"kind": -0.04319529980421066,
						"opposit": -0.137780100107193,
						"bare": 0.09162633121013641,
						"not": -0.13738684356212616,
						"feel": 0.03929800167679787,
						"so": 0.09259483963251114,
						"love": -0.19180108606815338,
						"tradit": -0.02710091881453991,
						"attend": -0.08785799145698547,
						"everi": 0.09150730818510056,
						"need": 0.10659217089414597,
						"howev": 0.07933727651834488,
						"type": -0.018481211736798286,
						"went": -0.027571488171815872,
						"miss": -0.10421685129404068,
						"earli": 0.19909214973449707,
						"ag": -0.03889654949307442,
						"close": 0.11914214491844177,
						"complet": 0.14552319049835205,
						"fractur": -0.06149516999721527,
						"possibl": 0.19650176167488098,
						"hand": 0.0549166314303875,
						"half": 0.005183466710150242,
						"retain": 0.12531448900699615,
						"biolog": -0.11481717228889465,
						"resent": 0.07564094662666321,
						"cook": 0.06772293150424957,
						"meal": 0.10860621184110641,
						"take": -0.0958222821354866,
						"grant": 0.11641915887594223,
						"seen": -0.09275074303150177,
						"apart": 0.08031129837036133,
						"mai": 0.06234868988394737,
						"forev": 0.145059734582901,
						"structur": -0.1863698661327362,
						"that": 0.16319863498210907,
						"planet": -0.016710253432393074,
						"gone": -0.0027011106722056866,
						"knit": -0.1728963553905487,
						"her": 0.17543815076351166,
						"isnt": 0.07685337960720062,
						"saw": 0.022480113431811333,
						"littl": 0.0780387595295906,
						"di": 0.03885193169116974,
						"physic": 0.03820052742958069,
						"know": 0.08054687082767487,
						"grow": -0.047003794461488724,
						"differ": -0.17030861973762512,
						"worri": -0.14176622033119202,
						"none": -0.0757814571261406,
						"remark": 0.16010776162147522,
						"yet": -0.08831190317869186,
						"l": -0.0863102525472641,
						"unifi": 0.03800521418452263,
						"almost": 0.07757555693387985,
						"infant": 0.12395234405994415,
						"old": 0.15330570936203003,
						"part": 0.05118124559521675,
						"everydai": -0.09213824570178986,
						"accid": -0.18766383826732635,
						"video": 0.15849706530570984,
						"sent": 0.19210189580917358,
						"remot": 0.14952005445957184,
						"watch": 0.12792938947677612,
						"occupi": 0.11976657062768936,
						"although": -0.1957091987133026,
						"far": 0.06573546677827835,
						"distanc": -0.17688347399234772,
						"fortun": -0.056307122111320496,
						"right": 0.034798115491867065,
						"besid": 0.11572717130184174,
						"share": -0.1123705804347992,
						"thing": -0.04894794896245003,
						"relationship": 0.013774536550045013,
						"child": -0.17189180850982666,
						"usual": -0.07425133138895035,
						"help": 0.02081422507762909,
						"doe": -0.06867235153913498,
						"dead": -0.029682133346796036,
						"adventur": -0.1755347102880478,
						"cost": -0.19311504065990448,
						"knew": 0.11133987456560135,
						"mostli": -0.18679562211036682,
						"often": 0.00915004312992096,
						"absent": 0.006846501491963863,
						"starter": 0.1965940147638321,
						"appar": -0.02973226271569729,
						"chamber": -0.16535402834415436,
						"valu": 0.05194856971502304,
						"scientist": -0.19450221955776215,
						"roughli": -0.034758735448122025,
						"therefor": -0.13302110135555267,
						"face": 0.05954217538237572,
						"babi": 0.13825471699237823,
						"realli": 0.008454984985291958,
						"like": 0.11940902471542358,
						"around": -0.16658446192741394,
						"stereotyp": -0.11322327703237534,
						"nuclear": -0.1392437368631363,
						"consid": -0.1391889899969101,
						"distant": -0.14134488999843597,
						"immedi": -0.16547255218029022,
						"reais": -0.14566002786159515,
						"pass": -0.14751486480236053,
						"basic": -0.09659553319215775,
						"respons": -0.05211685225367546,
						"herself": -0.17055773735046387,
						"took": -0.0823272243142128,
						"o": 0.14085137844085693,
						"shirrana": -0.06053748354315758,
						"dote": 0.025392981246113777,
						"ever": 0.015328104607760906,
						"see": -0.0528639517724514,
						"frquentli": 0.07482937723398209,
						"probabl": 0.11477667838335037,
						"again": -0.1831192970275879,
						"blend": 0.06040402129292488,
						"extend": 0.07760719954967499,
						"member": -0.019911423325538635,
						"singl": 0.1028645858168602,
						"household": 0.06262890994548798,
						"no": 0.010807830840349197,
						"male": 0.13914364576339722,
						"figur": -0.12500712275505066,
						"big": 0.1092526912689209,
						"portion": 0.1488553136587143,
						"childhood": -0.12259791046380997,
						"demonstr": 0.06546787172555923,
						"affect": -0.13937677443027496,
						"disappear": 0.039532214403152466,
						"w": 0.03823400288820267,
						"tight": -0.10528982430696487,
						"entir": -0.0842028260231018,
						"provid": -0.12128563225269318,
						"safe": -0.0025288681499660015,
						"environ": 0.08739297091960907,
						"broken": -0.13163016736507416,
						"dynam": -0.0975070595741272,
						"gave": 0.05454514920711517,
						"daught": 0.10173875093460083,
						"put": 0.019032981246709824,
						"person": -0.10532436519861221,
						"endeavor": -0.01242850162088871,
						"somewhat": -0.14913074672222137,
						"asid": -0.039099257439374924,
						"remain": 0.19095823168754578,
						"pursu": -0.146792933344841,
						"biochemistri": 0.10943771153688431,
						"explor": -0.1748565137386322,
						"even": -0.09045221656560898,
						"pai": -0.15014229714870453,
						"unlik": 0.1653357744216919,
						"direct": -0.13814404606819153,
						"memori": -0.1934683471918106,
						"show": -0.05577707663178444,
						"freeli": 0.1327541470527649,
						"involv": 0.03653889521956444,
						"muc": -0.1394498646259308,
						"avail": -0.1493852138519287,
						"pictur": -0.17628274857997894,
						"dream": -0.16553732752799988,
						"hour": -0.1647721379995346,
						"aliv": -0.03044947236776352,
						"appear": -0.022190868854522705,
						"less": -0.09753849357366562,
						"isn": 0.08117427676916122,
						"aot": 0.1262175440788269,
						"fragment": -0.13348978757858276,
						"tragic": 0.024525048211216927,
						"event": 0.10165334492921829,
						"super": 0.017611593008041382,
						"convent": -0.013409892097115517,
						"eager": 0.11631406098604202,
						"unconvent": 0.012155039235949516,
						"hardli": 0.012740816920995712,
						"strong": -0.05424518138170242,
						"sup": -0.11707841604948044,
						"ao": 0.16512909531593323,
						"hasn": -0.0818004384636879,
						"younger": 0.14156636595726013,
						"shrianna": 0.14035719633102417,
						"consist": -0.13162682950496674,
						"unit": 0.19514720141887665,
						"bright": 0.19267074763774872,
						"fascin": -0.026150837540626526,
						"risk": 0.04445868730545044,
						"go": -0.06273850798606873,
						"select": 0.05551481992006302,
						"colon": 0.0876605212688446,
						"becau": -0.19757266342639923,
						"fin": 0.016224835067987442
					}
				},
				"10": {
					"bias": -0.16152580082416534,
					"weights": {
						"2": -0.1305522471666336,
						"5": -0.1544037014245987,
						"6": 0.04400913044810295,
						"adam": -0.09595346450805664,
						"case": 0.20666751265525818,
						"togeth": 0.07342766970396042,
						"shiranna": -0.24500225484371185,
						"famili": -0.12198114395141602,
						"separ": 0.20649933815002441,
						"she": -0.1707756221294403,
						"young": 0.1742320954799652,
						"care": -0.004511411301791668,
						"perfect": 0.03957190364599228,
						"busi": -0.15529577434062958,
						"mom": -0.22250951826572418,
						"dad": -0.17739008367061615,
						"left": -0.16238395869731903,
						"job": 0.11747394502162933,
						"parent": 0.005820262711495161,
						"support": -0.04484845697879791,
						"time": -0.07058177143335342,
						"seem": -0.07683849334716797,
						"noth": 0.19660542905330658,
						"bad": 0.15254336595535278,
