{
	"createNewObjectString": "function classifierFun() {\r\n    const limdu = require('limdu');\r\n    return new limdu.classifiers.NeuralNetwork();\r\n}",
	"object": {
		"sizes": [
			155,
			77,
			1
		],
		"layers": [
			{
				"11": {},
				"she": {},
				"scare": {},
				"feel": {},
				"speed": {},
				"space": {},
				"shuttl": {},
				"rememb": {},
				"mom": {},
				"want": {},
				"meet": {},
				"soon": {},
				"shiranna": {},
				"excit": {},
				"nervou": {},
				"take": {},
				"off": {},
				"try": {},
				"brave": {},
				"mother": {},
				"anxiou": {},
				"determin": {},
				"attempt": {},
				"remain": {},
				"posit": {},
				"mayb": {},
				"littl": {},
				"unsettl": {},
				"though": {},
				"resolv": {},
				"us": {},
				"year": {},
				"old": {},
				"afraid": {},
				"vulner": {},
				"felt": {},
				"thrill": {},
				"terrifi": {},
				"time": {},
				"howev": {},
				"quit": {},
				"even": {},
				"affect": {},
				"heart": {},
				"rate": {},
				"temperatur": {},
				"unknown": {},
				"love": {},
				"pair": {},
				"comfort": {},
				"statist": {},
				"success": {},
				"mission": {},
				"appear": {},
				"realli": {},
				"appreci": {},
				"girl": {},
				"seem": {},
				"alon": {},
				"earth": {},
				"world": {},
				"companion": {},
				"prog": {},
				"travel": {},
				"go": {},
				"trip": {},
				"confid": {},
				"evidenc": {},
				"increas": {},
				"bodi": {},
				"narrat": {},
				"make": {},
				"abundantli": {},
				"clear": {},
				"worri": {},
				"launch": {},
				"will": {},
				"end": {},
				"think": {},
				"do": {},
				"state": {},
				"combin": {},
				"emot": {},
				"includ": {},
				"wari": {},
				"nervous": {},
				"awar": {},
				"surround": {},
				"anticip": {},
				"sens": {},
				"seek": {},
				"solac": {},
				"infer": {},
				"serv": {},
				"function": {},
				"ted": {},
				"convinc": {},
				"herself": {},
				"okai": {},
				"need": {},
				"yet": {},
				"journei": {},
				"embark": {},
				"part": {},
				"someth": {},
				"not": {},
				"done": {},
				"give": {},
				"pep": {},
				"talk": {},
				"eager": {},
				"begin": {},
				"visit": {},
				"read": {},
				"assum": {},
				"shirana": {},
				"leav": {},
				"station": {},
				"young": {},
				"text": {},
				"impli": {},
				"mai": {},
				"human": {},
				"awai": {},
				"home": {},
				"interpret": {},
				"ag": {},
				"sign": {},
				"matur": {},
				"know": {},
				"prep": {},
				"squeez": {},
				"robot": {},
				"tell": {},
				"began": {},
				"ahead": {},
				"frighten": {},
				"possibl": {},
				"it": {},
				"destin": {},
				"1st": {},
				"simultan": {},
				"acceler": {},
				"evid": {},
				"p": {},
				"r": {},
				"ao": {},
				"determinatio": {},
				"reassur": {},
				"experi": {},
				"apprehens": {},
				"stop": {},
				"d": {},
				"degre": {},
				"express": {}
			},
			{
				"0": {
					"bias": 0.05555281788110733,
					"weights": {
						"11": -0.07805844396352768,
						"she": 0.023101693019270897,
						"scare": 0.11777082085609436,
						"feel": -0.13941046595573425,
						"speed": -0.07442942261695862,
						"space": 0.05117160454392433,
						"shuttl": 0.023888494819402695,
						"rememb": 0.04109041392803192,
						"mom": -0.21732911467552185,
						"want": -0.014910402707755566,
						"meet": 0.09074223041534424,
						"soon": -0.0054268669337034225,
						"shiranna": 0.030077019706368446,
						"excit": 0.3504687547683716,
						"nervou": 0.006208784878253937,
						"take": 0.17252850532531738,
						"off": -0.036353372037410736,
						"try": -0.009732584469020367,
						"brave": -0.033595792949199677,
						"mother": 0.18466173112392426,
						"anxiou": -0.04950469359755516,
						"determin": 0.11061496287584305,
						"attempt": -0.14992861449718475,
						"remain": -0.09427822381258011,
						"posit": 0.11003037542104721,
						"mayb": 0.051939088851213455,
						"littl": -0.09919019788503647,
						"unsettl": 0.019343335181474686,
						"though": 0.009778935462236404,
						"resolv": -0.0163850337266922,
						"us": -0.16666147112846375,
						"year": -0.182378351688385,
						"old": -0.08507965505123138,
						"afraid": 0.0013953341403976083,
						"vulner": 0.11599604785442352,
						"felt": 0.04099898412823677,
						"thrill": 0.2038394659757614,
						"terrifi": -0.05018402636051178,
						"time": 0.2237970381975174,
						"howev": 0.058447569608688354,
						"quit": -0.10229163616895676,
						"even": -0.16372531652450562,
						"affect": -0.03303597494959831,
						"heart": 0.14999455213546753,
						"rate": 0.060004398226737976,
						"temperatur": -0.13923588395118713,
						"unknown": -0.08302034437656403,
						"love": 0.09557778388261795,
						"pair": 0.20812572538852692,
						"comfort": 0.13839632272720337,
						"statist": -0.15317122638225555,
						"success": -0.024791939184069633,
						"mission": 0.0026839396450668573,
						"appear": 0.0771125927567482,
						"realli": -0.1485336273908615,
						"appreci": 0.06247107312083244,
						"girl": 0.11457067728042603,
						"seem": -0.14744919538497925,
						"alon": 0.14499153196811676,
						"earth": -0.08848002552986145,
						"world": 0.11435962468385696,
						"companion": -0.10621830075979233,
						"prog": 0.1703859269618988,
						"travel": -0.07102292031049728,
						"go": -0.017137590795755386,
						"trip": 0.19313263893127441,
						"confid": 0.030388154089450836,
						"evidenc": 0.044709958136081696,
						"increas": 0.10932767391204834,
						"bodi": 0.053753431886434555,
						"narrat": 0.18867714703083038,
						"make": -0.03310152515769005,
						"abundantli": -0.13479317724704742,
						"clear": -0.06898240745067596,
						"worri": 0.1457839161157608,
						"launch": -0.1149650365114212,
						"will": 0.08432701975107193,
						"end": -0.0326271578669548,
						"think": 0.10328131169080734,
						"do": -0.18123939633369446,
						"state": -0.14351409673690796,
						"combin": -0.17951102554798126,
						"emot": 0.057280056178569794,
						"includ": 0.057021453976631165,
						"wari": 0.07450161129236221,
						"nervous": -0.08525494486093521,
						"awar": -0.1688334345817566,
						"surround": -0.09897693991661072,
						"anticip": 0.17854958772659302,
						"sens": 0.04272929206490517,
						"seek": -0.06611908972263336,
						"solac": -0.17094655334949493,
						"infer": -0.012304157018661499,
						"serv": -0.0054414961487054825,
						"function": -0.1829766035079956,
						"ted": -0.0401056706905365,
						"convinc": -0.19010508060455322,
						"herself": -0.1720033884048462,
						"okai": 0.1362142115831375,
						"need": 0.061570849269628525,
						"yet": 0.11305159330368042,
						"journei": -0.14495432376861572,
						"embark": 0.06837646663188934,
						"part": -0.00290803425014019,
						"someth": 0.13948772847652435,
						"not": 0.11831232160329819,
						"done": 0.08016040921211243,
						"give": -0.1982119083404541,
						"pep": -0.0878591537475586,
						"talk": -0.15288615226745605,
						"eager": -0.003936560358852148,
						"begin": 0.18936006724834442,
						"visit": 0.11005092412233353,
						"read": 0.10985846817493439,
						"assum": -0.07123584300279617,
						"shirana": 0.19426187872886658,
						"leav": 0.061500683426856995,
						"station": -0.10981149971485138,
						"young": -0.09947332739830017,
						"text": 0.1131051555275917,
						"impli": -0.04107829928398132,
						"mai": 0.14792531728744507,
						"human": -0.17745423316955566,
						"awai": -0.02817646972835064,
						"home": -0.018461240455508232,
						"interpret": -0.03245050087571144,
						"ag": 0.1439664512872696,
						"sign": -0.17293071746826172,
						"matur": 0.010667942464351654,
						"know": -0.17733825743198395,
						"prep": -0.11674880236387253,
						"squeez": 0.0740240290760994,
						"robot": 0.10886631906032562,
						"tell": 0.1015700176358223,
						"began": -0.0387188196182251,
						"ahead": 0.10931552946567535,
						"frighten": -0.17212437093257904,
						"possibl": -0.07803892344236374,
						"it": -0.059153564274311066,
						"destin": 0.041266944259405136,
						"1st": 0.17562846839427948,
						"simultan": -0.16136464476585388,
						"acceler": -0.13338647782802582,
						"evid": 0.018076978623867035,
						"p": 0.05311601236462593,
						"r": -0.04838230833411217,
						"ao": 0.0006671497249044478,
						"determinatio": -0.021389776840806007,
						"reassur": -0.09177741408348083,
						"experi": -0.09842877089977264,
						"apprehens": -0.15497127175331116,
						"stop": -0.17145031690597534,
						"d": 0.09615377336740494,
						"degre": -0.028534062206745148,
						"express": 0.09336966276168823
					}
				},
				"1": {
					"bias": -0.0651610717177391,
					"weights": {
						"11": -0.05495454743504524,
						"she": 0.04084518924355507,
						"scare": 0.09126105904579163,
						"feel": -0.028855832293629646,
						"speed": -0.049352891743183136,
						"space": -0.024609362706542015,
						"shuttl": 0.11177125573158264,
						"rememb": -0.02516322396695614,
						"mom": 0.022642742842435837,
						"want": -0.0824301689863205,
						"meet": 0.06284124404191971,
						"soon": 0.1441461145877838,
						"shiranna": -0.100239098072052,
						"excit": -0.12768590450286865,
						"nervou": -0.1722797453403473,
						"take": -0.03501175716519356,
						"off": -0.1879827380180359,
						"try": 0.17781361937522888,
						"brave": 0.12837913632392883,
						"mother": -0.15244248509407043,
						"anxiou": -0.22124184668064117,
						"determin": 0.18160314857959747,
						"attempt": -0.12070664018392563,
						"remain": -0.16399522125720978,
						"posit": -0.0047000437043607235,
						"mayb": 0.13824793696403503,
						"littl": 0.16811373829841614,
						"unsettl": 0.05647524818778038,
						"though": 0.00837863888591528,
						"resolv": -0.10405728965997696,
						"us": -0.0481908842921257,
						"year": -0.09903347492218018,
						"old": 0.03646214306354523,
						"afraid": 0.12600691616535187,
						"vulner": 0.14220057427883148,
						"felt": 0.002928166650235653,
						"thrill": 0.015988225117325783,
						"terrifi": 0.1483691781759262,
						"time": -0.01883603073656559,
						"howev": 0.11139896512031555,
						"quit": -0.13839693367481232,
						"even": -0.10267619043588638,
						"affect": -0.00877291988581419,
						"heart": -0.12231165170669556,
						"rate": -0.14633074402809143,
						"temperatur": 0.04202086851000786,
						"unknown": 0.182277649641037,
						"love": -0.18686136603355408,
						"pair": -0.18216167390346527,
						"comfort": 0.02682880498468876,
						"statist": 0.05742181837558746,
						"success": 0.05605194345116615,
						"mission": 0.06284095346927643,
						"appear": -0.13703317940235138,
						"realli": -0.12534694373607635,
						"appreci": -0.09694822132587433,
						"girl": -0.18381597101688385,
						"seem": -0.13721014559268951,
						"alon": -0.16910207271575928,
						"earth": -0.03402584418654442,
						"world": -0.08602184802293777,
						"companion": -0.12003644555807114,
						"prog": -0.18780986964702606,
						"travel": 0.0741686224937439,
						"go": -0.04556351527571678,
						"trip": 0.023280398920178413,
						"confid": -0.007260185666382313,
						"evidenc": -0.0837029442191124,
						"increas": -0.14218571782112122,
						"bodi": 0.04020101949572563,
						"narrat": -0.177664116024971,
						"make": -0.04431753233075142,
						"abundantli": 0.06405845284461975,
						"clear": 0.029782278463244438,
						"worri": -0.16163989901542664,
						"launch": -0.0236520916223526,
						"will": -0.11499247699975967,
						"end": -0.15933668613433838,
						"think": -0.03025639057159424,
						"do": 0.2124406397342682,
						"state": -0.07981225103139877,
						"combin": -0.06840575486421585,
						"emot": 0.1276053786277771,
						"includ": 0.09990206360816956,
						"wari": -0.12189055234193802,
						"nervous": -0.15813076496124268,
						"awar": 0.17760561406612396,
						"surround": -0.15193068981170654,
						"anticip": -0.05271349847316742,
						"sens": -0.06792934238910675,
						"seek": 0.11714913696050644,
						"solac": -0.1852179914712906,
						"infer": 0.18904636800289154,
						"serv": 0.06260151416063309,
						"function": 0.1263725608587265,
						"ted": 0.19056108593940735,
						"convinc": 0.005522324237972498,
						"herself": -0.0856032446026802,
						"okai": 0.06266753375530243,
						"need": 0.19246192276477814,
						"yet": 0.14033985137939453,
						"journei": -0.12186945974826813,
						"embark": 0.17358392477035522,
						"part": 0.12430524080991745,
						"someth": -0.1372072994709015,
						"not": 0.04461545869708061,
						"done": 0.025385158136487007,
						"give": 0.07944011688232422,
						"pep": 0.1744174063205719,
						"talk": -0.023913627490401268,
						"eager": 0.1376296430826187,
						"begin": -0.0068155089393258095,
						"visit": 0.017531851306557655,
						"read": -0.16925747692584991,
						"assum": -0.12982608377933502,
						"shirana": -0.12637163698673248,
						"leav": 0.12017062306404114,
						"station": 0.018940377980470657,
						"young": 0.0715670958161354,
						"text": -0.03179771453142166,
						"impli": -0.04974100738763809,
						"mai": 0.1100940853357315,
						"human": -0.026947423815727234,
						"awai": -0.1831294149160385,
						"home": -0.1934521198272705,
						"interpret": -0.09702756255865097,
						"ag": 0.1843017190694809,
						"sign": 0.1658506840467453,
						"matur": -0.08465541154146194,
						"know": -0.14033448696136475,
						"prep": -0.10206527262926102,
						"squeez": -0.1039983257651329,
						"robot": 0.09755145758390427,
						"tell": 0.18981890380382538,
						"began": 0.21175497770309448,
						"ahead": 0.11316069215536118,
						"frighten": -0.020927639678120613,
						"possibl": -0.08932358771562576,
						"it": -0.008757284842431545,
						"destin": -0.06276478618383408,
						"1st": 0.15508051216602325,
						"simultan": -0.1978321671485901,
						"acceler": -0.07211221009492874,
						"evid": -0.12511959671974182,
						"p": 0.1150054782629013,
						"r": -0.14065326750278473,
						"ao": 0.1382756531238556,
						"determinatio": 0.1527264565229416,
						"reassur": 0.0687275156378746,
						"experi": -0.01645546592772007,
						"apprehens": -0.08462561666965485,
						"stop": 0.08094855397939682,
						"d": 0.21046528220176697,
						"degre": -0.17208954691886902,
						"express": -0.08940598368644714
					}
				},
				"2": {
					"bias": 0.1546105593442917,
					"weights": {
						"11": -0.10452508181333542,
						"she": 0.15831854939460754,
						"scare": -0.09690233319997787,
						"feel": -0.07527398318052292,
						"speed": -0.14320974051952362,
						"space": -0.0794319435954094,
						"shuttl": 0.1468343883752823,
						"rememb": 0.07237105816602707,
						"mom": -0.09266819059848785,
						"want": -0.17725984752178192,
						"meet": 0.14394289255142212,
						"soon": -0.17286503314971924,
						"shiranna": 0.011427361518144608,
						"excit": 0.1606127917766571,
						"nervou": -0.14177745580673218,
						"take": -0.15159790217876434,
						"off": 0.15538303554058075,
						"try": -0.0914592444896698,
						"brave": 0.05086429789662361,
						"mother": 0.19734080135822296,
						"anxiou": 0.039640873670578,
						"determin": -0.11461550742387772,
						"attempt": 0.09719187766313553,
						"remain": 0.09766228497028351,
						"posit": -0.129794180393219,
						"mayb": -0.0018072302918881178,
						"littl": -0.0009084559278562665,
						"unsettl": -0.1421872228384018,
						"though": -0.19838713109493256,
						"resolv": 0.10808184742927551,
						"us": 0.032938145101070404,
						"year": 0.04257533699274063,
						"old": -0.11574719846248627,
						"afraid": -0.07751002162694931,
						"vulner": -0.0951189398765564,
						"felt": 0.2044466882944107,
						"thrill": -0.019484147429466248,
						"terrifi": -0.17981116473674774,
						"time": 0.20436154305934906,
						"howev": 0.012194011360406876,
						"quit": 0.14848211407661438,
						"even": -0.06033873185515404,
						"affect": 0.055955540388822556,
						"heart": 0.13660408556461334,
						"rate": -0.0448254756629467,
						"temperatur": -0.15851061046123505,
						"unknown": -0.01736818440258503,
						"love": 0.12746012210845947,
						"pair": 0.05887385085225105,
						"comfort": -0.03260643035173416,
						"statist": 0.09020932763814926,
						"success": -0.19444909691810608,
						"mission": 0.15777114033699036,
						"appear": -0.02583542838692665,
						"realli": 0.10853180289268494,
						"appreci": 0.019971506670117378,
						"girl": 0.054504647850990295,
						"seem": 0.11109104752540588,
						"alon": 0.19106937944889069,
						"earth": -0.03133394569158554,
						"world": -0.19222787022590637,
						"companion": 0.044827330857515335,
						"prog": 0.18849855661392212,
						"travel": -0.18363739550113678,
						"go": -0.14549879729747772,
						"trip": 0.16175223886966705,
						"confid": 0.18392349779605865,
						"evidenc": -0.1361774504184723,
						"increas": -0.005588469561189413,
						"bodi": -0.005257903132587671,
						"narrat": -0.02973956987261772,
						"make": -0.00937459897249937,
						"abundantli": 0.008122943341732025,
						"clear": 0.05515419691801071,
						"worri": -0.18761767446994781,
						"launch": -0.1199851855635643,
						"will": -0.15502417087554932,
						"end": 0.11357209086418152,
						"think": 0.12991462647914886,
						"do": -0.09663055092096329,
						"state": 0.023673497140407562,
						"combin": -0.09961014986038208,
						"emot": -0.024924354627728462,
						"includ": -0.04228578507900238,
						"wari": 0.19858327507972717,
						"nervous": 0.07872603088617325,
						"awar": -0.18172401189804077,
						"surround": -0.11307799071073532,
						"anticip": -0.15615339577198029,
						"sens": -0.03339292109012604,
						"seek": -0.029012367129325867,
						"solac": 0.0821429118514061,
						"infer": -0.12505985796451569,
						"serv": -0.12153104692697525,
						"function": -0.1860937625169754,
						"ted": 0.1631915420293808,
						"convinc": 0.046179044991731644,
						"herself": -0.009545392356812954,
						"okai": -0.05155660957098007,
						"need": 0.1361311972141266,
						"yet": 0.17011220753192902,
						"journei": -0.09841491281986237,
						"embark": 0.1096307635307312,
						"part": 0.17921437323093414,
						"someth": 0.02023348957300186,
						"not": 0.050553545355796814,
						"done": 0.04615480452775955,
						"give": -0.17618940770626068,
						"pep": -0.10454721748828888,
						"talk": -0.1106133982539177,
						"eager": -0.1912023276090622,
						"begin": -0.03431056812405586,
						"visit": -0.11402632296085358,
						"read": -0.03253614902496338,
						"assum": -0.04593334719538689,
						"shirana": 0.1262601763010025,
						"leav": 0.03868313878774643,
						"station": 0.13627776503562927,
						"young": -0.18082758784294128,
						"text": -0.12603512406349182,
						"impli": 0.1601042002439499,
						"mai": -0.16431134939193726,
						"human": 0.19704465568065643,
						"awai": 0.19010795652866364,
						"home": 0.160883367061615,
						"interpret": -0.004980006255209446,
						"ag": -0.007910951972007751,
						"sign": 0.019528266042470932,
						"matur": -0.12846672534942627,
						"know": -0.07784966379404068,
						"prep": -0.08470110595226288,
						"squeez": -0.14370590448379517,
						"robot": -0.11493566632270813,
						"tell": -0.022783920168876648,
						"began": -0.15859706699848175,
						"ahead": -0.13848410546779633,
						"frighten": -0.06740143150091171,
						"possibl": -0.1554783582687378,
						"it": 0.009009541012346745,
						"destin": 0.20026062428951263,
						"1st": -0.07179655134677887,
						"simultan": 0.04236451908946037,
						"acceler": 0.052251897752285004,
						"evid": 0.15231820940971375,
						"p": -0.1160062924027443,
						"r": -0.1726631373167038,
						"ao": 0.09752874821424484,
						"determinatio": 0.1179005578160286,
						"reassur": -0.10303295403718948,
						"experi": 0.09812138229608536,
						"apprehens": 0.09620854258537292,
						"stop": -0.1840379238128662,
						"d": 0.15099981427192688,
						"degre": 0.035535357892513275,
						"express": -0.17120550572872162
					}
				},
				"3": {
					"bias": -0.017064105719327927,
					"weights": {
						"11": -0.0022848970256745815,
						"she": 0.17558695375919342,
						"scare": -0.1841413825750351,
						"feel": -0.1749851405620575,
						"speed": -0.03105948306620121,
						"space": 0.12458295375108719,
						"shuttl": -0.0891374945640564,
						"rememb": 0.14868523180484772,
						"mom": 0.05263696238398552,
						"want": -0.08575470745563507,
						"meet": -0.13317224383354187,
						"soon": -0.0944858267903328,
						"shiranna": -0.07664218544960022,
						"excit": 0.030714021995663643,
						"nervou": 0.0896381139755249,
						"take": 0.07298185676336288,
						"off": -0.08583786338567734,
						"try": 0.11553357541561127,
						"brave": 0.1349562555551529,
						"mother": 0.08128438144922256,
						"anxiou": 0.0015387777239084244,
						"determin": 0.07299162447452545,
						"attempt": 0.14683957397937775,
						"remain": 0.059000998735427856,
						"posit": -0.09488353878259659,
						"mayb": 0.16289566457271576,
						"littl": 0.12381678074598312,
						"unsettl": -0.155653178691864,
						"though": -0.12125492095947266,
						"resolv": 0.10212467610836029,
						"us": -0.18803849816322327,
						"year": -0.13975919783115387,
						"old": -0.18013669550418854,
						"afraid": 0.10303937643766403,
						"vulner": 0.12432444840669632,
						"felt": -0.10571619123220444,
						"thrill": 0.08687035739421844,
						"terrifi": 0.02464543655514717,
						"time": 0.0092465840280056,
						"howev": -0.10776233673095703,
						"quit": -0.09605547785758972,
						"even": 0.13142840564250946,
						"affect": 0.027516106143593788,
						"heart": -0.03862476721405983,
						"rate": -0.15327894687652588,
						"temperatur": -0.15366502106189728,
						"unknown": -0.03997521102428436,
						"love": 0.003073024097830057,
						"pair": 0.10654286295175552,
						"comfort": 0.11245748400688171,
						"statist": -0.13152317702770233,
						"success": -0.18005530536174774,
						"mission": 0.15710245072841644,
						"appear": 0.10826507210731506,
						"realli": 0.04800094664096832,
						"appreci": 0.12697049975395203,
						"girl": -0.058322519063949585,
						"seem": -0.107119619846344,
						"alon": -0.08262128382921219,
						"earth": -0.05502188578248024,
						"world": 0.10860637575387955,
						"companion": -0.12859675288200378,
						"prog": -0.10693057626485825,
						"travel": 0.13769736886024475,
						"go": 0.12251092493534088,
						"trip": 0.08798060566186905,
						"confid": -0.03714004158973694,
						"evidenc": 0.10369518399238586,
						"increas": -0.05421145632863045,
						"bodi": -0.1908094584941864,
						"narrat": -0.16482345759868622,
						"make": -0.10487814247608185,
						"abundantli": -0.16173042356967926,
						"clear": -0.08545689284801483,
						"worri": 0.034481246024370193,
						"launch": 0.09007053077220917,
						"will": -0.18918313086032867,
						"end": -0.06309130042791367,
						"think": 0.06259073317050934,
						"do": -0.204498291015625,
						"state": 0.20224988460540771,
						"combin": -0.01875428482890129,
						"emot": 0.13423815369606018,
						"includ": 0.1861579716205597,
						"wari": 0.09102842211723328,
						"nervous": 0.1814928650856018,
						"awar": 0.12692876160144806,
						"surround": -0.0009601383353583515,
						"anticip": -0.1935352236032486,
						"sens": 0.05452278256416321,
						"seek": 0.081307053565979,
						"solac": 0.049848951399326324,
						"infer": -0.10928917676210403,
						"serv": 0.1769532561302185,
						"function": 0.1284213364124298,
						"ted": 0.011801700107753277,
						"convinc": 0.06865142285823822,
						"herself": 0.16687771677970886,
						"okai": 0.18428553640842438,
						"need": 0.1673247516155243,
						"yet": 0.05445559695363045,
						"journei": -0.06562568992376328,
						"embark": 0.18954598903656006,
						"part": -0.022778576239943504,
						"someth": -0.1510918289422989,
						"not": 0.11962909251451492,
						"done": -0.07440009713172913,
						"give": 0.018549423664808273,
						"pep": -0.06423476338386536,
						"talk": 0.00020380808564368635,
						"eager": -0.16632328927516937,
						"begin": 0.18340036273002625,
						"visit": 0.11072580516338348,
						"read": 0.06416624039411545,
						"assum": 0.13164208829402924,
						"shirana": -0.1767677515745163,
						"leav": -0.14881497621536255,
						"station": -0.13853304088115692,
						"young": -0.20157082378864288,
						"text": 0.1749240607023239,
						"impli": -0.1853824257850647,
						"mai": -0.02962378039956093,
						"human": 0.07013383507728577,
						"awai": 0.18328545987606049,
						"home": -0.11730891466140747,
						"interpret": -0.11568742990493774,
						"ag": -0.04553115367889404,
						"sign": 0.07248539477586746,
						"matur": -0.04942651093006134,
						"know": -0.17805831134319305,
						"prep": -0.0460348017513752,
						"squeez": 0.034492217004299164,
						"robot": 0.02086166851222515,
						"tell": 0.05414954200387001,
						"began": 0.07157628983259201,
						"ahead": -0.13632351160049438,
						"frighten": 0.07152713090181351,
						"possibl": 0.1864119917154312,
						"it": -0.14286787807941437,
						"destin": 0.13025005161762238,
						"1st": -0.07377113401889801,
						"simultan": 0.03806929662823677,
						"acceler": -0.10604427009820938,
						"evid": 0.1590515673160553,
						"p": 0.1423121988773346,
						"r": 0.0251033753156662,
						"ao": 0.00046833508531562984,
						"determinatio": -0.09662837535142899,
						"reassur": -0.08415687829256058,
						"experi": 0.2042146623134613,
						"apprehens": -0.0002531070786062628,
						"stop": -0.03381237015128136,
						"d": 0.07691378891468048,
						"degre": -0.1396894007921219,
						"express": -0.012697869911789894
					}
				},
				"4": {
					"bias": 0.043552253395318985,
					"weights": {
						"11": 0.0691695585846901,
						"she": -0.024164851754903793,
						"scare": -0.10016655921936035,
						"feel": -0.19040387868881226,
						"speed": 0.19808542728424072,
						"space": -0.08457566052675247,
						"shuttl": 0.07681208103895187,
						"rememb": 0.036287061870098114,
						"mom": -0.19752004742622375,
						"want": -0.10935010015964508,
						"meet": -0.03194437921047211,
						"soon": 0.10913638025522232,
						"shiranna": 0.11458341777324677,
						"excit": -0.009994274005293846,
						"nervou": 0.13192106783390045,
						"take": 0.0670493021607399,
						"off": -0.13405373692512512,
						"try": 0.13990920782089233,
						"brave": -0.07616417855024338,
						"mother": 0.0014658933505415916,
						"anxiou": -0.04724447801709175,
						"determin": -0.18932346999645233,
						"attempt": 0.11203418672084808,
						"remain": 0.15708214044570923,
						"posit": 0.10365520417690277,
						"mayb": -0.184822678565979,
						"littl": -0.17266766726970673,
						"unsettl": 0.0006763209239579737,
						"though": 0.12794716656208038,
						"resolv": -0.18134941160678864,
						"us": -0.07553547620773315,
						"year": 0.1403227150440216,
						"old": -0.14098486304283142,
						"afraid": -0.09369651228189468,
						"vulner": -0.05932868644595146,
						"felt": 0.16980628669261932,
						"thrill": 0.0640592947602272,
						"terrifi": 0.030502790585160255,
						"time": -0.1043170765042305,
						"howev": -0.13825663924217224,
						"quit": -0.0825701430439949,
						"even": 0.007605267222970724,
						"affect": 0.09786190837621689,
						"heart": 0.16818983852863312,
						"rate": -0.03627491742372513,
						"temperatur": -0.06052475795149803,
						"unknown": -0.07626281678676605,
						"love": 0.15382881462574005,
						"pair": -0.023101814091205597,
						"comfort": -0.012919587083160877,
						"statist": -0.19496287405490875,
						"success": -0.08566634356975555,
						"mission": -0.09010033309459686,
						"appear": 0.08880430459976196,
						"realli": 0.1971176117658615,
						"appreci": 0.19928766787052155,
						"girl": 0.1093679666519165,
						"seem": 0.192914679646492,
						"alon": 0.013480092398822308,
						"earth": -0.06552005559206009,
						"world": -0.07470041513442993,
						"companion": 0.05193670839071274,
						"prog": 0.0705428421497345,
						"travel": -0.025974540039896965,
						"go": 0.19345462322235107,
						"trip": -0.1396503895521164,
						"confid": 0.052802592515945435,
						"evidenc": -0.16155146062374115,
						"increas": -0.09062294661998749,
						"bodi": -0.08416927605867386,
						"narrat": 0.06299595534801483,
						"make": 0.09025837481021881,
						"abundantli": -0.04119262471795082,
						"clear": 0.05563829094171524,
						"worri": -0.16616734862327576,
						"launch": -0.020303629338741302,
						"will": 0.12304293364286423,
						"end": -0.13574807345867157,
						"think": 0.03260059654712677,
						"do": -0.08334029465913773,
						"state": 0.1004105880856514,
						"combin": 0.10586588084697723,
						"emot": -0.0853872299194336,
						"includ": -0.1605607122182846,
						"wari": -0.15421395003795624,
						"nervous": -0.0145978769287467,
						"awar": -0.16221389174461365,
						"surround": -0.14896991848945618,
						"anticip": -0.14759792387485504,
						"sens": 0.12765704095363617,
						"seek": -0.08405235409736633,
						"solac": 0.008647700771689415,
						"infer": -0.15424442291259766,
						"serv": 0.15388309955596924,
						"function": 0.19061417877674103,
						"ted": 0.0037876740097999573,
						"convinc": 0.012926471419632435,
						"herself": 0.19689136743545532,
						"okai": -0.007382264360785484,
						"need": 0.04844026640057564,
						"yet": -0.11810870468616486,
						"journei": -0.013324620202183723,
						"embark": -0.1669011414051056,
						"part": 0.13866674900054932,
						"someth": -0.06681378930807114,
						"not": -0.12642322480678558,
						"done": -0.015530635602772236,
						"give": -0.1201503574848175,
						"pep": -0.12725593149662018,
						"talk": 0.19499264657497406,
						"eager": 0.09722702950239182,
						"begin": 0.12436427175998688,
						"visit": -0.1799529492855072,
						"read": -0.10417687892913818,
						"assum": 0.13464537262916565,
						"shirana": -0.11456349492073059,
						"leav": -0.18771478533744812,
						"station": 0.19007651507854462,
						"young": -0.050585221499204636,
						"text": 0.08751645684242249,
						"impli": -0.051981378346681595,
						"mai": -0.048676978796720505,
						"human": -0.1845775842666626,
						"awai": -0.1380653828382492,
						"home": 0.010192393325269222,
						"interpret": 0.024221105501055717,
						"ag": -0.15902769565582275,
						"sign": -0.16298145055770874,
						"matur": -0.004636050667613745,
						"know": -0.03387827053666115,
						"prep": -0.1962265521287918,
						"squeez": -0.03815096244215965,
						"robot": 0.17216916382312775,
						"tell": 0.10042610764503479,
						"began": 0.08932936936616898,
						"ahead": 0.01891145296394825,
						"frighten": 0.16548854112625122,
						"possibl": 0.15129771828651428,
						"it": -0.019339285790920258,
						"destin": -0.08515039086341858,
						"1st": 0.05908562242984772,
						"simultan": -0.11499858647584915,
						"acceler": -0.11197918653488159,
						"evid": -0.010785982012748718,
						"p": -0.11711464077234268,
						"r": 0.18421727418899536,
						"ao": 0.1847345232963562,
						"determinatio": 0.0834977775812149,
						"reassur": -0.0028521972708404064,
						"experi": -0.07122745364904404,
						"apprehens": 0.1298229992389679,
						"stop": -0.09332975000143051,
						"d": -0.20017008483409882,
						"degre": -0.1005326434969902,
						"express": -0.1458078771829605
					}
				},
				"5": {
					"bias": 0.10302584618330002,
					"weights": {
						"11": 0.0360991470515728,
						"she": 0.010291451588273048,
						"scare": -0.06732530891895294,
						"feel": -0.03728127479553223,
						"speed": 0.052765049040317535,
						"space": 0.057628508657217026,
						"shuttl": 0.06490463763475418,
						"rememb": 0.08388412743806839,
						"mom": -0.06183287128806114,
						"want": 0.06266137957572937,
						"meet": 0.00180208554957062,
						"soon": 0.07555343210697174,
						"shiranna": 0.2176353931427002,
						"excit": -0.15773631632328033,
						"nervou": 0.03849668428301811,
						"take": -0.018719272688031197,
						"off": 0.07606685161590576,
						"try": -0.033875104039907455,
						"brave": -0.12398426234722137,
						"mother": -0.1348918378353119,
						"anxiou": -0.026179738342761993,
						"determin": -0.04383746534585953,
						"attempt": 0.12987805902957916,
						"remain": -0.15367217361927032,
						"posit": 0.008216471411287785,
						"mayb": 0.07013139873743057,
						"littl": 0.1600874811410904,
						"unsettl": -0.1665623039007187,
						"though": -0.06093955039978027,
						"resolv": -0.17360861599445343,
						"us": -0.0402272567152977,
						"year": 0.07758618146181107,
						"old": 0.013048763386905193,
						"afraid": -0.04236843064427376,
						"vulner": -0.13603846728801727,
						"felt": -0.039759065955877304,
						"thrill": -0.004421045538038015,
						"terrifi": -0.2378881573677063,
						"time": 0.056093379855155945,
						"howev": 0.10133642703294754,
						"quit": -0.19009815156459808,
						"even": 0.10614647716283798,
						"affect": -0.08570269495248795,
						"heart": -0.057736992835998535,
						"rate": -0.06121562048792839,
						"temperatur": -0.15957224369049072,
						"unknown": 0.12903174757957458,
						"love": -0.05861622840166092,
						"pair": -0.007665884681046009,
						"comfort": 0.06973233073949814,
						"statist": 0.04414939135313034,
						"success": 0.09538111835718155,
						"mission": 0.13984879851341248,
						"appear": 0.02419593371450901,
						"realli": 0.12084656953811646,
						"appreci": 0.15553446114063263,
						"girl": -0.1455463171005249,
						"seem": 0.07893997430801392,
						"alon": -0.0963667631149292,
						"earth": 0.15588077902793884,
						"world": -0.1306120902299881,
						"companion": -0.06405078619718552,
						"prog": 0.11535369604825974,
						"travel": -0.14509627223014832,
						"go": -0.06989596039056778,
						"trip": -0.001949781784787774,
						"confid": -0.04160259664058685,
						"evidenc": 0.04265976324677467,
						"increas": -0.15230770409107208,
						"bodi": -0.07772897928953171,
						"narrat": -0.18359938263893127,
						"make": 0.14271672070026398,
						"abundantli": 0.09680985659360886,
						"clear": 0.0478680394589901,
						"worri": 0.02991625852882862,
						"launch": 0.08790759742259979,
						"will": -0.07355379313230515,
						"end": -0.18702872097492218,
						"think": 0.14129336178302765,
						"do": -0.09975185245275497,
						"state": 0.05373121798038483,
						"combin": -0.18990805745124817,
						"emot": 0.04951242357492447,
						"includ": -0.05453641340136528,
						"wari": 0.030636657029390335,
						"nervous": 0.07390204071998596,
						"awar": 0.05071024224162102,
						"surround": -0.06350812315940857,
						"anticip": 0.07701661437749863,
						"sens": -0.0822698101401329,
						"seek": -0.009807080961763859,
						"solac": 0.06965990364551544,
						"infer": -0.11304814368486404,
						"serv": 0.19175001978874207,
						"function": -0.19957463443279266,
						"ted": 0.057865846902132034,
						"convinc": 0.09935690462589264,
						"herself": -0.019363513216376305,
						"okai": 0.006976304110139608,
						"need": -0.06140882149338722,
						"yet": -0.02388363517820835,
						"journei": 0.07547822594642639,
						"embark": -0.04753538593649864,
						"part": -0.17435267567634583,
						"someth": 0.003187395865097642,
						"not": -0.1443970501422882,
						"done": -0.18932978808879852,
						"give": 0.012772715650498867,
						"pep": 0.07118010520935059,
						"talk": -0.15716040134429932,
						"eager": 0.059329334646463394,
						"begin": 0.03910323232412338,
						"visit": 0.11349891126155853,
						"read": 0.0353570431470871,
						"assum": 0.011987313628196716,
						"shirana": -0.02231905423104763,
						"leav": -0.03812525048851967,
						"station": 0.031426772475242615,
						"young": 0.11052206158638,
						"text": -0.12168989330530167,
						"impli": -0.0984797403216362,
						"mai": 0.016470368951559067,
						"human": -0.105343297123909,
						"awai": 0.028844079002738,
						"home": 0.05943988263607025,
						"interpret": 0.16359573602676392,
						"ag": 0.13728173077106476,
						"sign": -0.18898393213748932,
						"matur": 0.08563000708818436,
						"know": -0.09746506065130234,
						"prep": 0.005064746830612421,
						"squeez": 0.06979242712259293,
						"robot": 0.16465575993061066,
						"tell": 0.009786637499928474,
						"began": 0.06330680847167969,
						"ahead": -0.1697605848312378,
						"frighten": 0.04272688925266266,
						"possibl": -0.08394070714712143,
						"it": 0.17135180532932281,
						"destin": 0.17101682722568512,
						"1st": -0.11710868775844574,
						"simultan": 0.07589570432901382,
						"acceler": -0.10848234593868256,
						"evid": -0.13047458231449127,
						"p": 0.05410296097397804,
						"r": -0.12251143157482147,
						"ao": -0.043044112622737885,
						"determinatio": 0.02535216324031353,
						"reassur": -0.18840177357196808,
						"experi": 0.1877514123916626,
						"apprehens": -0.12955161929130554,
						"stop": -0.06476346403360367,
						"d": -0.07625744491815567,
						"degre": 0.04919850453734398,
						"express": -0.03348229080438614
					}
				},
				"6": {
					"bias": 0.0188632532954216,
					"weights": {
						"11": 0.18237264454364777,
						"she": 0.11441842466592789,
						"scare": -0.18504191935062408,
						"feel": 0.06389656662940979,
						"speed": 0.04907151684165001,
						"space": 0.1185188740491867,
						"shuttl": -0.007716724649071693,
						"rememb": 0.06826503574848175,
						"mom": 0.035571660846471786,
						"want": 0.021431317552924156,
						"meet": 0.1669595092535019,
						"soon": -0.001810276648029685,
						"shiranna": 0.03729790821671486,
						"excit": 0.3336857855319977,
						"nervou": -0.09540694206953049,
						"take": 0.04683802276849747,
						"off": 0.07316114008426666,
						"try": -0.1623006910085678,
						"brave": -0.08936607092618942,
						"mother": 0.024466220289468765,
						"anxiou": 0.06830019503831863,
						"determin": 0.20932473242282867,
						"attempt": 0.08100768178701401,
						"remain": 0.12009274959564209,
						"posit": -0.04289981722831726,
						"mayb": 0.14276252686977386,
						"littl": -0.1926860362291336,
						"unsettl": 0.007115150336176157,
						"though": 0.12438441067934036,
						"resolv": -0.18740078806877136,
						"us": 0.14960280060768127,
						"year": 0.1210356280207634,
						"old": -0.1351272463798523,
						"afraid": 0.2034240961074829,
						"vulner": 0.10472971946001053,
						"felt": -0.158673956990242,
						"thrill": -0.08511480689048767,
						"terrifi": 0.21832439303398132,
						"time": 0.08070505410432816,
						"howev": 0.12664633989334106,
						"quit": -0.0835617259144783,
						"even": 0.06975220143795013,
						"affect": 0.12013863027095795,
						"heart": 0.13597343862056732,
						"rate": -0.15951818227767944,
						"temperatur": 0.14811594784259796,
						"unknown": -0.06019185110926628,
						"love": -0.07923790067434311,
						"pair": -0.002147279679775238,
						"comfort": 0.15902858972549438,
						"statist": -0.0845944732427597,
						"success": 0.1310005784034729,
						"mission": 0.04671588912606239,
						"appear": 0.19757573306560516,
						"realli": -0.02836539037525654,
						"appreci": -0.02464868314564228,
						"girl": 0.17464683949947357,
						"seem": -0.146266907453537,
						"alon": -0.19124934077262878,
						"earth": -0.05841071158647537,
						"world": 0.11402639746665955,
						"companion": 0.02771785669028759,
						"prog": 0.017102986574172974,
						"travel": 0.10967468470335007,
						"go": -0.04748409613966942,
						"trip": 0.1431359350681305,
						"confid": -0.13958220183849335,
						"evidenc": -0.17922960221767426,
						"increas": 0.08116865158081055,
						"bodi": 0.05744881182909012,
						"narrat": -0.10951127856969833,
						"make": -0.1078614890575409,
						"abundantli": -0.08540508896112442,
						"clear": 0.1835397332906723,
						"worri": 0.10468992590904236,
						"launch": 0.2001127302646637,
						"will": -0.025014005601406097,
						"end": 0.025418642908334732,
						"think": 0.11747249960899353,
						"do": 0.1308082640171051,
						"state": 0.1166079193353653,
						"combin": -0.10764438658952713,
						"emot": 0.15834417939186096,
						"includ": 0.17289067804813385,
						"wari": 0.06219961494207382,
						"nervous": -0.10618151724338531,
						"awar": 0.10904444754123688,
						"surround": -0.05565423145890236,
						"anticip": 0.17076937854290009,
						"sens": 0.08008967339992523,
						"seek": 0.07233686745166779,
						"solac": 0.08412279933691025,
						"infer": -0.11093708872795105,
						"serv": 0.0885610356926918,
						"function": -0.009873203933238983,
						"ted": -0.13201722502708435,
						"convinc": -0.12266401946544647,
						"herself": -0.09598222374916077,
						"okai": 0.15205712616443634,
						"need": -0.05848877876996994,
						"yet": 0.20433378219604492,
						"journei": 0.15696777403354645,
						"embark": -0.08020520210266113,
						"part": 0.18425707519054413,
						"someth": 0.11799813061952591,
						"not": -0.14299051463603973,
						"done": 0.1966404765844345,
						"give": -0.08083008974790573,
						"pep": -0.15169338881969452,
						"talk": -0.16873463988304138,
						"eager": 0.03771661967039108,
						"begin": 0.03381245583295822,
						"visit": -0.06420066952705383,
						"read": -0.003204281674697995,
						"assum": 0.09144425392150879,
						"shirana": 0.036230526864528656,
						"leav": -0.18178078532218933,
						"station": -0.03436064347624779,
						"young": -0.07326140254735947,
						"text": 0.09897388517856598,
						"impli": -0.14241544902324677,
						"mai": 0.11960157006978989,
						"human": 0.07870620489120483,
						"awai": -0.19423367083072662,
						"home": -0.18962712585926056,
						"interpret": 0.09613723307847977,
						"ag": -0.06114938110113144,
						"sign": 0.13233649730682373,
						"matur": 0.08755998313426971,
						"know": 0.06631460040807724,
						"prep": 0.039550598710775375,
						"squeez": 0.1262989491224289,
						"robot": 0.10701283067464828,
						"tell": -0.03799973055720329,
						"began": -0.14484736323356628,
						"ahead": 0.1989658772945404,
						"frighten": -0.08031870424747467,
						"possibl": 0.07816405594348907,
						"it": -0.0999465361237526,
						"destin": -0.07035426795482635,
						"1st": 0.14282384514808655,
						"simultan": 0.05572468414902687,
						"acceler": 0.15890894830226898,
						"evid": 0.0028283672872930765,
						"p": -0.011976216919720173,
						"r": 0.07563222199678421,
						"ao": -0.14746373891830444,
						"determinatio": 0.09764888137578964,
						"reassur": -0.15069344639778137,
						"experi": 0.14393045008182526,
						"apprehens": -0.04456856846809387,
						"stop": -0.02576942928135395,
						"d": -0.04364960268139839,
						"degre": 0.18533790111541748,
						"express": -0.18066748976707458
					}
				},
				"7": {
					"bias": 0.07844899594783783,
					"weights": {
						"11": 0.09421075135469437,
						"she": -0.11597344279289246,
						"scare": -0.17226314544677734,
						"feel": 0.13926276564598083,
						"speed": -0.07819831371307373,
						"space": -0.0753234252333641,
						"shuttl": 0.025694018229842186,
						"rememb": 0.08180107921361923,
						"mom": 0.09777787327766418,
						"want": 0.1834765374660492,
						"meet": -0.17572444677352905,
						"soon": -0.03659180551767349,
						"shiranna": -0.11240038275718689,
						"excit": 0.3325888216495514,
						"nervou": 0.14255143702030182,
						"take": -0.06338067352771759,
						"off": 0.10293802618980408,
						"try": 0.19712015986442566,
						"brave": -0.010948621667921543,
						"mother": -0.004329950548708439,
						"anxiou": 0.1760701686143875,
						"determin": -0.13891249895095825,
						"attempt": -0.17459052801132202,
						"remain": -0.0698087215423584,
						"posit": -0.08646419644355774,
						"mayb": -0.11806804686784744,
						"littl": -0.030628664419054985,
						"unsettl": -0.10745299607515335,
						"though": 0.18014898896217346,
						"resolv": 0.08457784354686737,
						"us": 0.18068774044513702,
						"year": -0.18124237656593323,
						"old": 0.15355578064918518,
						"afraid": 0.17520390450954437,
						"vulner": 0.05798886716365814,
						"felt": 0.2186429500579834,
						"thrill": 0.26076406240463257,
						"terrifi": 0.05931350588798523,
						"time": 0.07061883062124252,
						"howev": 0.16935104131698608,
						"quit": -0.07943057268857956,
						"even": 0.04473034292459488,
						"affect": 0.20085859298706055,
						"heart": -0.13597093522548676,
						"rate": 0.1481788009405136,
						"temperatur": 0.14003048837184906,
						"unknown": 0.19502338767051697,
						"love": -0.1289675384759903,
						"pair": -0.007119311019778252,
						"comfort": -0.07907374948263168,
						"statist": 0.10052894055843353,
						"success": 0.14308421313762665,
						"mission": 0.12469425797462463,
						"appear": -0.02922302484512329,
						"realli": -0.09057889133691788,
						"appreci": 0.03355436772108078,
						"girl": 0.11383123695850372,
						"seem": 0.054910678416490555,
						"alon": 0.030294645577669144,
						"earth": 0.11141306906938553,
						"world": -0.09596483409404755,
						"companion": -0.14721204340457916,
						"prog": 0.0612727627158165,
						"travel": -0.07466238737106323,
						"go": 0.032098181545734406,
						"trip": 0.017944738268852234,
						"confid": -0.1629479080438614,
						"evidenc": 0.00956740789115429,
						"increas": 0.037697210907936096,
						"bodi": 0.05084865912795067,
						"narrat": 0.0671696662902832,
						"make": 0.19471023976802826,
						"abundantli": -0.06325466185808182,
						"clear": -0.11125191301107407,
						"worri": -0.0762801542878151,
						"launch": -0.15765894949436188,
						"will": 0.10971394181251526,
						"end": -0.1473744511604309,
						"think": 0.09494701772928238,
						"do": 0.019126376137137413,
						"state": -0.1905793696641922,
						"combin": 0.00956034753471613,
						"emot": 0.1839280128479004,
						"includ": 0.1786556988954544,
						"wari": 0.11038868129253387,
						"nervous": 0.13060680031776428,
						"awar": 0.2033848911523819,
						"surround": 0.11213695257902145,
						"anticip": 0.11012271791696548,
						"sens": 0.16349275410175323,
						"seek": 0.18998970091342926,
						"solac": -0.05787097290158272,
						"infer": -0.026812346652150154,
						"serv": -0.11368366330862045,
						"function": -0.12759548425674438,
						"ted": 0.03706590458750725,
						"convinc": -0.036133937537670135,
						"herself": -0.10026108473539352,
						"okai": -0.09572382271289825,
						"need": -0.02289440669119358,
						"yet": 0.15727879106998444,
						"journei": -0.12219559401273727,
						"embark": -0.1509385108947754,
						"part": -0.1556045264005661,
						"someth": 0.017200570553541183,
						"not": 0.09563387930393219,
						"done": -0.09187953919172287,
						"give": -0.024251362308859825,
						"pep": 0.17816771566867828,
						"talk": -0.12471815198659897,
						"eager": -0.11961782723665237,
						"begin": 0.00390857458114624,
						"visit": -0.04068602994084358,
						"read": -0.09252552688121796,
						"assum": -0.15388676524162292,
						"shirana": -0.16972613334655762,
						"leav": 0.08096297830343246,
						"station": -0.046640027314424515,
						"young": -0.18531613051891327,
						"text": -0.07600230723619461,
						"impli": 0.18717314302921295,
						"mai": -0.1648753583431244,
						"human": 0.16505220532417297,
						"awai": -0.18407376110553741,
						"home": 0.005899804178625345,
						"interpret": -0.12021270394325256,
						"ag": 0.15850886702537537,
						"sign": -0.1416243463754654,
						"matur": 0.18405380845069885,
						"know": 0.07221818715333939,
						"prep": 0.01345800794661045,
						"squeez": -0.06083572655916214,
						"robot": 0.008583256974816322,
						"tell": -0.19802621006965637,
						"began": -0.18106302618980408,
						"ahead": 0.13630813360214233,
						"frighten": 0.12467154115438461,
						"possibl": -0.15068939328193665,
						"it": -0.08360655605792999,
						"destin": 0.018869515508413315,
						"1st": -0.08133154362440109,
						"simultan": 0.12083520740270615,
						"acceler": 0.08808508515357971,
						"evid": 0.025564204901456833,
						"p": 0.06400664895772934,
						"r": -0.09647849947214127,
						"ao": -0.04165581241250038,
						"determinatio": -0.11857152730226517,
						"reassur": -0.15676862001419067,
						"experi": 0.14840544760227203,
						"apprehens": 0.07877319306135178,
						"stop": -0.15656015276908875,
						"d": -0.17653046548366547,
						"degre": -0.08170028030872345,
						"express": -0.09968560189008713
					}
				},
				"8": {
					"bias": -0.010035447776317596,
					"weights": {
						"11": 0.08641823381185532,
						"she": 0.20775102078914642,
						"scare": 0.06840326637029648,
						"feel": -0.06934992223978043,
						"speed": 0.09300877898931503,
						"space": -0.21229591965675354,
						"shuttl": 0.06617722660303116,
						"rememb": -0.10503081232309341,
						"mom": 0.0184535663574934,
						"want": -0.004947894252836704,
						"meet": 0.09429380297660828,
						"soon": -0.18705223500728607,
						"shiranna": -0.07664398103952408,
						"excit": -0.3753112256526947,
						"nervou": -0.00562133826315403,
						"take": 0.08755985647439957,
						"off": -0.1677701473236084,
						"try": 0.07656962424516678,
						"brave": -0.14224399626255035,
						"mother": -0.013989510014653206,
						"anxiou": -0.05009082332253456,
						"determin": -0.1826685667037964,
						"attempt": -0.03019309788942337,
						"remain": 0.047275323420763016,
						"posit": 0.0312457587569952,
						"mayb": -0.14014451205730438,
						"littl": -0.08330937474966049,
						"unsettl": 0.059148259460926056,
						"though": -0.1309220790863037,
						"resolv": 0.079389788210392,
						"us": 0.12205629795789719,
						"year": 0.037353821098804474,
						"old": 0.1580873280763626,
						"afraid": 0.03967975080013275,
						"vulner": -0.10822667181491852,
						"felt": -0.11275632679462433,
						"thrill": -0.3304252326488495,
						"terrifi": -0.11394152045249939,
						"time": 0.00031535798916593194,
						"howev": -0.049069635570049286,
						"quit": -0.06554217636585236,
						"even": 0.14549265801906586,
						"affect": 0.0004096835618838668,
						"heart": 0.1671212762594223,
						"rate": -0.15051445364952087,
						"temperatur": 0.07855818420648575,
						"unknown": -0.059844087809324265,
						"love": -0.042462822049856186,
						"pair": -0.1352219432592392,
						"comfort": 0.050029970705509186,
						"statist": -0.14170701801776886,
						"success": -0.04459066316485405,
						"mission": -0.09413312375545502,
						"appear": -0.07547939568758011,
						"realli": -0.02211480401456356,
						"appreci": 0.19021400809288025,
						"girl": 0.13294556736946106,
						"seem": 0.10327930003404617,
						"alon": -0.0717497244477272,
						"earth": -0.19736222922801971,
						"world": -0.08644213527441025,
						"companion": -0.13500657677650452,
						"prog": -0.16964001953601837,
						"travel": -0.07790160179138184,
						"go": 0.04829219728708267,
						"trip": -0.14816465973854065,
						"confid": -0.04926225170493126,
						"evidenc": -0.027618201449513435,
						"increas": 0.06181154027581215,
						"bodi": 0.1046096682548523,
						"narrat": -0.16460560262203217,
						"make": 0.03931267559528351,
						"abundantli": 0.02333768643438816,
						"clear": -0.07950802147388458,
						"worri": -0.032281309366226196,
						"launch": -0.16821761429309845,
						"will": -0.0010351536329835653,
						"end": 0.045682087540626526,
						"think": 0.06960723549127579,
						"do": 0.23338185250759125,
						"state": 0.15465623140335083,
						"combin": -0.09110935032367706,
						"emot": -0.12039553374052048,
						"includ": -0.1477634757757187,
						"wari": 0.10010211169719696,
						"nervous": -0.107058584690094,
						"awar": 0.025847800076007843,
						"surround": 0.1379341185092926,
						"anticip": -0.2066059559583664,
						"sens": 0.17941264808177948,
						"seek": 0.05473411828279495,
						"solac": 0.10094892978668213,
						"infer": 0.007141690701246262,
						"serv": -0.1344064623117447,
						"function": 0.13176868855953217,
						"ted": -0.1699177324771881,
						"convinc": -0.06611119955778122,
						"herself": 0.06389326602220535,
						"okai": 0.03772078454494476,
						"need": 0.1131073459982872,
						"yet": -0.0189613439142704,
						"journei": 0.07269177585840225,
						"embark": 0.15423008799552917,
						"part": 0.0826515182852745,
						"someth": -0.09182443469762802,
						"not": 0.08854521811008453,
						"done": 0.079576276242733,
						"give": 0.0905725359916687,
						"pep": -0.14726701378822327,
						"talk": 0.0788639634847641,
						"eager": -0.14452387392520905,
						"begin": 0.10165807604789734,
						"visit": 0.09936477988958359,
						"read": 0.10551638901233673,
						"assum": -0.0968933179974556,
						"shirana": 0.16852334141731262,
						"leav": 0.07316479831933975,
						"station": 0.12758997082710266,
						"young": -0.13428112864494324,
						"text": -0.12017689645290375,
						"impli": 0.08496813476085663,
						"mai": 0.010788830928504467,
						"human": -0.00027082132874056697,
						"awai": -0.0636465772986412,
						"home": -0.06984733045101166,
						"interpret": 0.19844934344291687,
						"ag": 0.13291919231414795,
						"sign": -0.024546753615140915,
						"matur": -0.13805469870567322,
						"know": -0.08347634971141815,
						"prep": 0.025352688506245613,
						"squeez": -0.13775542378425598,
						"robot": -0.11814402043819427,
						"tell": 0.07587668299674988,
						"began": 0.1723996251821518,
						"ahead": 0.04050811380147934,
						"frighten": 0.1736660748720169,
						"possibl": 0.1805037260055542,
						"it": 0.017437610775232315,
						"destin": 0.1907026320695877,
						"1st": 0.1514611840248108,
						"simultan": -0.009561784565448761,
						"acceler": -0.0306846983730793,
						"evid": -0.12198754400014877,
						"p": -0.18371424078941345,
						"r": -0.11639620363712311,
						"ao": 0.14555761218070984,
						"determinatio": -0.029997240751981735,
						"reassur": -0.03668134659528732,
						"experi": -0.1905406415462494,
						"apprehens": 0.002470758045092225,
						"stop": 0.04675690084695816,
						"d": -0.04396764561533928,
						"degre": -0.0714825764298439,
						"express": -0.08390500396490097
					}
				},
				"9": {
					"bias": -0.07673865556716919,
					"weights": {
						"11": 0.14654266834259033,
						"she": -0.02965668961405754,
						"scare": -0.13622139394283295,
						"feel": 0.08134662359952927,
						"speed": 0.1074395477771759,
						"space": 0.10423268377780914,
						"shuttl": -0.19520436227321625,
						"rememb": 0.11373142153024673,
						"mom": -0.17673726379871368,
						"want": -0.14165402948856354,
						"meet": -0.1517518162727356,
						"soon": 0.06658625602722168,
						"shiranna": -0.19433939456939697,
						"excit": 0.6771041750907898,
						"nervou": 0.10539716482162476,
						"take": -0.015895936638116837,
						"off": 0.03102198615670204,
						"try": 0.10766129940748215,
						"brave": 0.10022929310798645,
						"mother": 0.07176969945430756,
						"anxiou": 0.14257675409317017,
						"determin": -0.017630519345402718,
						"attempt": -0.12691916525363922,
						"remain": 0.012029117904603481,
						"posit": -0.0036064470186829567,
						"mayb": -0.13091887533664703,
						"littl": -0.17563530802726746,
						"unsettl": 0.1508055031299591,
						"though": -0.041061002761125565,
						"resolv": 0.107918880879879,
						"us": -0.024311479181051254,
						"year": -0.1264539361000061,
						"old": -0.05400347337126732,
						"afraid": 0.04212290421128273,
						"vulner": -0.014660032466053963,
						"felt": 0.08611892908811569,
						"thrill": 0.0673179030418396,
						"terrifi": 0.07119068503379822,
						"time": 0.09173598140478134,
						"howev": -0.14129842817783356,
						"quit": 0.0077102878130972385,
						"even": -0.09369078278541565,
						"affect": 0.01776191219687462,
						"heart": 0.05823855102062225,
						"rate": 0.2171720415353775,
						"temperatur": 0.013431589119136333,
						"unknown": 0.13146406412124634,
						"love": 0.001760581973940134,
						"pair": 0.16688334941864014,
						"comfort": -0.16746801137924194,
						"statist": -0.1859470158815384,
						"success": -0.13736391067504883,
						"mission": 0.024534234777092934,
						"appear": 0.026326866820454597,
						"realli": -0.10329757630825043,
						"appreci": 0.1773824244737625,
						"girl": -0.036397095769643784,
						"seem": -0.000885607791133225,
						"alon": -0.02156716212630272,
						"earth": 0.10971540957689285,
						"world": 0.03345519304275513,
						"companion": 0.11112574487924576,
						"prog": 0.0333411768078804,
						"travel": -0.07480926811695099,
						"go": -0.027823705226182938,
						"trip": 0.1019376739859581,
						"confid": -0.03380903974175453,
						"evidenc": 0.15500855445861816,
						"increas": -0.008351300843060017,
						"bodi": 0.012183833867311478,
						"narrat": -0.08902540802955627,
						"make": 0.13178640604019165,
						"abundantli": 0.18589885532855988,
						"clear": 0.09519504010677338,
						"worri": 0.1433994323015213,
						"launch": -0.07863590866327286,
						"will": 0.012664501555263996,
						"end": 0.04100065305829048,
						"think": 0.003948204219341278,
						"do": -0.0433475561439991,
						"state": -0.04240589588880539,
						"combin": -0.07032541930675507,
						"emot": -0.017436558380723,
						"includ": 0.09382016956806183,
						"wari": -0.089755117893219,
						"nervous": -0.04015493392944336,
						"awar": 0.14772841334342957,
						"surround": 0.20034965872764587,
						"anticip": 0.18438875675201416,
						"sens": 0.03837085887789726,
						"seek": 0.061450690031051636,
						"solac": -0.1793886423110962,
						"infer": 0.13190957903862,
						"serv": 0.19280382990837097,
						"function": -0.049642451107501984,
						"ted": -0.0827355608344078,
						"convinc": 0.05375412479043007,
						"herself": 0.11977427452802658,
						"okai": -0.18508587777614594,
						"need": 0.13845494389533997,
						"yet": 0.08108031749725342,
						"journei": -0.147396519780159,
						"embark": 0.09837007522583008,
						"part": 0.05903715640306473,
						"someth": 0.14406011998653412,
						"not": 0.1132580116391182,
						"done": 0.11127880215644836,
						"give": -0.11125528067350388,
						"pep": -0.11900646239519119,
						"talk": -0.15310870110988617,
						"eager": 0.03486583009362221,
						"begin": 0.08606059849262238,
						"visit": -0.1658313274383545,
						"read": -0.016898145899176598,
						"assum": -0.1542005091905594,
						"shirana": -0.18954867124557495,
						"leav": 0.04460792616009712,
						"station": 0.0555533692240715,
						"young": -0.19958867132663727,
						"text": -0.15978214144706726,
						"impli": 0.1505696326494217,
						"mai": 0.1008683443069458,
						"human": -0.1831725835800171,
						"awai": -0.16975028812885284,
						"home": -0.18552573025226593,
						"interpret": -0.11949628591537476,
						"ag": -0.10659462958574295,
						"sign": -0.10864301770925522,
						"matur": 0.18552909791469574,
						"know": 0.0932222455739975,
						"prep": 0.14711204171180725,
						"squeez": 0.1731882244348526,
						"robot": -0.15496769547462463,
						"tell": -0.21005336940288544,
						"began": 0.1352555751800537,
						"ahead": 0.18923749029636383,
						"frighten": -0.08425778150558472,
						"possibl": -0.16365693509578705,
						"it": 0.06980015337467194,
						"destin": -0.015529903583228588,
						"1st": 0.07199642062187195,
						"simultan": 0.013809793628752232,
						"acceler": -0.05306585133075714,
						"evid": 0.05338982120156288,
						"p": -0.04037942737340927,
						"r": 0.06472259759902954,
						"ao": 0.1647098958492279,
						"determinatio": -0.14705905318260193,
						"reassur": -0.06312964111566544,
						"experi": 0.1576000303030014,
						"apprehens": 0.08093063533306122,
						"stop": 0.007365652360022068,
						"d": -0.19103623926639557,
						"degre": 0.1368263065814972,
						"express": 0.008728515356779099
					}
				},
				"10": {
					"bias": -0.05710610747337341,
					"weights": {
						"11": 0.18760445713996887,
						"she": -0.13977336883544922,
						"scare": -0.1499607115983963,
						"feel": 0.052741605788469315,
						"speed": -0.03855850175023079,
						"space": -0.18098825216293335,
						"shuttl": -0.10692823678255081,
						"rememb": -0.02461269311606884,
						"mom": -0.04274957627058029,
						"want": -0.10635969787836075,
						"meet": 0.05107646808028221,
						"soon": 0.19119803607463837,
						"shiranna": 0.017558475956320763,
						"excit": 0.3087257742881775,
						"nervou": 0.1247682124376297,
						"take": 0.09512552618980408,
						"off": -0.08600948005914688,
						"try": -0.14869433641433716,
						"brave": 0.05026187747716904,
						"mother": -0.0192983727902174,
						"anxiou": -0.09798787534236908,
						"determin": -0.12789161503314972,
						"attempt": -0.023430200293660164,
						"remain": -0.08156630396842957,
						"posit": -0.05179974064230919,
						"mayb": 0.05688142031431198,
						"littl": 0.09082203358411789,
						"unsettl": 0.20310111343860626,
						"though": 0.057969387620687485,
						"resolv": 0.040314141660928726,
						"us": -0.059552326798439026,
						"year": 0.059517551213502884,
						"old": -0.1020517572760582,
						"afraid": 0.06609861552715302,
						"vulner": -0.048657629638910294,
						"felt": 0.06635521352291107,
						"thrill": -0.04095873981714249,
						"terrifi": 0.07626418024301529,
						"time": 0.13285121321678162,
						"howev": 0.025339823216199875,
						"quit": -0.17241525650024414,
						"even": 0.11184174567461014,
						"affect": -0.09079305082559586,
						"heart": -0.009970113635063171,
						"rate": 0.0831821858882904,
						"temperatur": -0.0005322762881405652,
						"unknown": -0.03543917462229729,
						"love": -0.10446451604366302,
						"pair": 0.08269403874874115,
						"comfort": -0.03847172111272812,
						"statist": 0.0688890740275383,
						"success": -0.01675301417708397,
						"mission": 0.15196481347084045,
						"appear": 0.14334093034267426,
						"realli": -0.09296660125255585,
						"appreci": -0.05163166671991348,
						"girl": 0.19161184132099152,
						"seem": -0.10872780531644821,
						"alon": -0.14195479452610016,
						"earth": 0.014894278720021248,
						"world": -0.04520192742347717,
						"companion": -0.17249169945716858,
						"prog": 0.1865505874156952,
						"travel": 0.0016218052478507161,
						"go": 0.0771867111325264,
						"trip": -0.010140089318156242,
						"confid": -0.08959923684597015,
						"evidenc": -0.146412655711174,
						"increas": 0.03391542285680771,
						"bodi": 0.04850763827562332,
						"narrat": -0.1898372769355774,
						"make": 0.1778009980916977,
						"abundantli": 0.20390744507312775,
						"clear": 0.06997425854206085,
						"worri": -0.08325804769992828,
						"launch": 0.08872037380933762,
						"will": -0.13275787234306335,
						"end": 0.07129818946123123,
						"think": -0.1863781362771988,
						"do": 0.011966437101364136,
						"state": -0.1701490432024002,
						"combin": 0.012114735320210457,
						"emot": 0.06708310544490814,
						"includ": 0.06473009288311005,
						"wari": 0.023299766704440117,
						"nervous": -0.07462617009878159,
						"awar": -0.09757939726114273,
						"surround": -0.10558140277862549,
						"anticip": -0.016920369118452072,
						"sens": 0.17710614204406738,
						"seek": 0.10623946040868759,
						"solac": -0.07961360365152359,
						"infer": 0.1986008733510971,
						"serv": -0.0822000727057457,
						"function": -0.1745855212211609,
						"ted": -0.08826795965433121,
						"convinc": 0.18834011256694794,
						"herself": -0.05731337144970894,
						"okai": -0.09968453645706177,
						"need": 0.024726316332817078,
						"yet": 0.025676826015114784,
						"journei": -0.04020129144191742,
						"embark": -0.16185861825942993,
						"part": 0.09711901843547821,
						"someth": 0.1506480872631073,
						"not": 0.1459859013557434,
						"done": 0.007967725396156311,
						"give": -0.11018170416355133,
						"pep": -0.11746755242347717,
						"talk": -0.06274822354316711,
						"eager": -0.08469130098819733,
						"begin": -0.09545309096574783,
						"visit": 0.12697438895702362,
						"read": -0.09870807081460953,
						"assum": -0.15692032873630524,
						"shirana": 0.08160645514726639,
						"leav": -0.002039969665929675,
						"station": 0.16157463192939758,
						"young": 0.19453498721122742,
						"text": -0.138467937707901,
						"impli": -0.18327942490577698,
						"mai": -0.020908845588564873,
						"human": 0.0019712112843990326,
						"awai": 0.16521215438842773,
						"home": -0.07765816897153854,
						"interpret": -0.05898313596844673,
						"ag": 0.13896898925304413,
						"sign": -0.1188555508852005,
						"matur": 0.06863278150558472,
						"know": -0.10000065714120865,
						"prep": -0.14266736805438995,
						"squeez": -0.01503308117389679,
						"robot": 0.1124592274427414,
						"tell": 0.10596498847007751,
						"began": -0.15074816346168518,
						"ahead": -0.0604616217315197,
						"frighten": -0.029667828232049942,
						"possibl": 0.15666678547859192,
						"it": 0.10702736675739288,
						"destin": -0.17211148142814636,
						"1st": 0.198080912232399,
						"simultan": 0.17974302172660828,
						"acceler": -0.11846105754375458,
						"evid": -0.1692659556865692,
						"p": 0.19205449521541595,
						"r": 0.008959629572927952,
						"ao": -0.16789861023426056,
						"determinatio": -0.11641786247491837,
						"reassur": -0.13008466362953186,
						"experi": 0.05051766335964203,
						"apprehens": -0.06290353834629059,
						"stop": 0.0672476515173912,
						"d": -0.2555929124355316,
						"degre": -0.049026008695364,
						"express": 0.08683663606643677
					}
				},
				"11": {
					"bias": -0.2002718597650528,
					"weights": {
						"11": -0.1455957144498825,
						"she": 0.046632956713438034,
						"scare": 0.018461203202605247,
						"feel": -0.009682119823992252,
						"speed": -0.10981113463640213,
						"space": -0.1881655603647232,
						"shuttl": -0.06761477142572403,
						"rememb": 0.004011738114058971,
						"mom": 0.09042288362979889,
						"want": -0.09065353870391846,
						"meet": -0.12592323124408722,
						"soon": -0.09919260442256927,
						"shiranna": 0.1580483764410019,
						"excit": -0.14621010422706604,
						"nervou": -0.026234539225697517,
						"take": 0.105921670794487,
						"off": 0.14448082447052002,
						"try": -0.12263454496860504,
						"brave": -0.205091655254364,
						"mother": -0.023078802973031998,
						"anxiou": 0.0103549063205719,
						"determin": 0.02866237424314022,
						"attempt": 0.1449357569217682,
						"remain": 0.01184525154531002,
						"posit": -0.07971898466348648,
						"mayb": 0.09161444753408432,
						"littl": -0.05272288620471954,
						"unsettl": 0.08028420060873032,
						"though": 0.14929869771003723,
						"resolv": 0.17255157232284546,
						"us": -0.09863405674695969,
						"year": 0.18935085833072662,
						"old": -0.1603543907403946,
						"afraid": 0.0614016018807888,
						"vulner": -0.1196429505944252,
						"felt": 0.049354176968336105,
						"thrill": -0.01224382035434246,
						"terrifi": -0.14713571965694427,
						"time": -0.16233985126018524,
						"howev": 0.02505735494196415,
						"quit": -0.08246588706970215,
						"even": 0.15864087641239166,
						"affect": 0.16977538168430328,
						"heart": 0.170254647731781,
						"rate": 0.031876228749752045,
						"temperatur": 0.18754450976848602,
						"unknown": 0.10268077254295349,
						"love": 0.04253622889518738,
						"pair": -0.03925409913063049,
						"comfort": 0.12099328637123108,
						"statist": -0.11907882988452911,
						"success": -0.16352024674415588,
						"mission": 0.1983593851327896,
						"appear": -0.13593903183937073,
						"realli": -0.17573417723178864,
						"appreci": -0.17150770127773285,
						"girl": 0.092363640666008,
						"seem": -0.11193550378084183,
						"alon": 0.1712123304605484,
						"earth": -0.09180468320846558,
						"world": -0.19902287423610687,
						"companion": -0.1377856284379959,
						"prog": 0.13852626085281372,
						"travel": -0.07199805974960327,
						"go": -0.05158108100295067,
						"trip": 0.18923360109329224,
						"confid": 0.08516019582748413,
						"evidenc": -0.20436570048332214,
						"increas": -0.18633663654327393,
						"bodi": -0.18991811573505402,
						"narrat": 0.14968985319137573,
						"make": -0.09126030653715134,
						"abundantli": -0.08465176820755005,
						"clear": -0.10024679452180862,
						"worri": -0.20571908354759216,
						"launch": 0.08216112852096558,
						"will": 0.02563796378672123,
						"end": -0.05529198795557022,
						"think": 0.007750828750431538,
						"do": 0.19925938546657562,
						"state": 0.10235415399074554,
						"combin": -0.11228958517313004,
						"emot": 0.04313556104898453,
						"includ": -0.11985155194997787,
						"wari": -0.025509392842650414,
						"nervous": -0.019335944205522537,
						"awar": -0.07021358609199524,
						"surround": -0.13820518553256989,
						"anticip": 0.14407987892627716,
						"sens": 0.0023691151291131973,
						"seek": -0.09502162784337997,
						"solac": 0.05889291316270828,
						"infer": 0.11813870072364807,
						"serv": 0.11824837327003479,
						"function": -0.07381611317396164,
						"ted": -0.12582795321941376,
						"convinc": 0.0946405827999115,
						"herself": -0.046106260269880295,
						"okai": -0.16669908165931702,
						"need": -0.03968588262796402,
						"yet": -0.06288977712392807,
						"journei": 0.09939649701118469,
						"embark": 0.07029573619365692,
						"part": -0.03192562982439995,
						"someth": -0.15923166275024414,
						"not": -0.17500551044940948,
						"done": 0.17381836473941803,
						"give": -0.17800553143024445,
						"pep": 0.0009469302603974938,
						"talk": -0.13738270103931427,
						"eager": 0.10265465080738068,
						"begin": 0.06198424473404884,
						"visit": -0.03475651890039444,
						"read": 0.0634998008608818,
						"assum": -0.07459264993667603,
						"shirana": 0.19738134741783142,
						"leav": 0.05128707364201546,
						"station": -0.009703379124403,
						"young": 0.018222231417894363,
						"text": 0.13291636109352112,
						"impli": 0.17795656621456146,
						"mai": 0.1466664969921112,
						"human": -0.08521103113889694,
						"awai": -0.0595424585044384,
						"home": 0.12392888218164444,
						"interpret": -0.13046877086162567,
						"ag": -0.1997576653957367,
						"sign": 0.07405662536621094,
						"matur": 0.06783794611692429,
						"know": -0.06421301513910294,
						"prep": -0.15931685268878937,
						"squeez": -0.16563400626182556,
						"robot": -0.15336985886096954,
						"tell": 0.16059359908103943,
						"began": 0.055656157433986664,
						"ahead": -0.008846153505146503,
						"frighten": -0.00840040110051632,
						"possibl": -0.17919610440731049,
						"it": -0.11980234086513519,
						"destin": 0.05898366868495941,
						"1st": -0.14211216568946838,
						"simultan": 0.010591463185846806,
						"acceler": -0.14051133394241333,
						"evid": 0.0032005286775529385,
						"p": 0.16151538491249084,
						"r": 0.12068207561969757,
						"ao": 0.1254546344280243,
						"determinatio": -0.1226436048746109,
						"reassur": -0.18872541189193726,
						"experi": -0.019313659518957138,
						"apprehens": -0.0466725192964077,
						"stop": -0.18550533056259155,
						"d": 0.046725522726774216,
						"degre": -0.08695028722286224,
						"express": -0.18680492043495178
					}
				},
				"12": {
					"bias": 0.13888901472091675,
					"weights": {
						"11": 0.08567479252815247,
						"she": 0.1800607591867447,
						"scare": -0.17800982296466827,
						"feel": -0.10299625992774963,
						"speed": 0.02842121757566929,
						"space": 0.0896301120519638,
						"shuttl": -0.15510062873363495,
						"rememb": -0.07300575822591782,
						"mom": -0.2018406242132187,
						"want": -0.0368986614048481,
						"meet": 0.13162553310394287,
						"soon": -0.05872983857989311,
						"shiranna": 0.059202905744314194,
						"excit": 0.02419518679380417,
						"nervou": 0.06090899556875229,
						"take": -0.1040436252951622,
						"off": 0.17622672021389008,
						"try": 0.14992769062519073,
						"brave": -0.012154636904597282,
						"mother": 0.213551327586174,
						"anxiou": -0.04687804356217384,
						"determin": -0.1269899308681488,
						"attempt": -0.19288629293441772,
						"remain": -0.013714469969272614,
						"posit": 0.1607261598110199,
						"mayb": 0.08803696185350418,
						"littl": 0.10070113092660904,
						"unsettl": -0.029890229925513268,
						"though": 0.16500264406204224,
						"resolv": 0.04392150789499283,
						"us": -0.08351698517799377,
						"year": -0.15548059344291687,
						"old": 0.16894285380840302,
						"afraid": -0.003606205340474844,
						"vulner": 0.07342318445444107,
						"felt": 0.19612814486026764,
						"thrill": -0.021980032324790955,
						"terrifi": -0.056676384061574936,
						"time": -0.17996685206890106,
						"howev": 0.18066655099391937,
						"quit": 0.13775195181369781,
						"even": -0.08812135457992554,
						"affect": 0.15452280640602112,
						"heart": -0.14620529115200043,
						"rate": -0.09441494941711426,
						"temperatur": -0.0015863667940720916,
						"unknown": -0.06922588497400284,
						"love": -0.1221715584397316,
						"pair": -0.11787459999322891,
						"comfort": 0.04479260742664337,
						"statist": 0.19926394522190094,
						"success": 0.007246691267937422,
						"mission": -0.1906798928976059,
						"appear": -0.07111989706754684,
						"realli": 0.12961553037166595,
						"appreci": 0.18401846289634705,
						"girl": -0.09768102318048477,
						"seem": -0.13866089284420013,
						"alon": 0.08575576543807983,
						"earth": -0.15090517699718475,
						"world": -0.11740738153457642,
						"companion": 0.1782284528017044,
						"prog": -0.08411789685487747,
						"travel": 0.02234274335205555,
						"go": 0.08598180115222931,
						"trip": -0.008187241852283478,
						"confid": -0.06314000487327576,
						"evidenc": -0.026671158149838448,
						"increas": 0.15712444484233856,
						"bodi": 0.04390909895300865,
						"narrat": -0.05786051228642464,
						"make": -0.0829811841249466,
						"abundantli": 0.14161251485347748,
						"clear": 0.017863541841506958,
						"worri": 0.17415675520896912,
						"launch": 0.18178650736808777,
						"will": -0.1654413342475891,
						"end": 0.1095917820930481,
						"think": -0.10265926271677017,
						"do": -0.024653658270835876,
						"state": -0.09471936523914337,
						"combin": -0.1379920393228531,
						"emot": 0.11505784839391708,
						"includ": 0.12742029130458832,
						"wari": -0.06995061784982681,
						"nervous": 0.2036108374595642,
						"awar": 0.00856899656355381,
						"surround": -0.07578929513692856,
						"anticip": 0.1812850385904312,
						"sens": -0.08646044880151749,
						"seek": 0.11326606571674347,
						"solac": 0.13221830129623413,
						"infer": 0.17150841653347015,
						"serv": -0.17687323689460754,
						"function": 0.061511922627687454,
						"ted": -0.15743079781532288,
						"convinc": -0.009482129476964474,
						"herself": -0.15178805589675903,
						"okai": -0.008347881957888603,
						"need": -0.025409050285816193,
						"yet": 0.20511826872825623,
						"journei": -0.1430654376745224,
						"embark": 0.0033881256822496653,
						"part": 0.16102498769760132,
						"someth": 0.11516036838293076,
						"not": 0.12183789163827896,
						"done": 0.12987442314624786,
						"give": 0.17211104929447174,
						"pep": 0.05136087164282799,
						"talk": -0.17268893122673035,
						"eager": -0.09124980866909027,
						"begin": -0.03225674480199814,
						"visit": 0.19602230191230774,
						"read": 0.18299703299999237,
						"assum": 0.03634903207421303,
						"shirana": 0.1414199024438858,
						"leav": -0.05272708460688591,
						"station": 0.06837084144353867,
						"young": 0.035540658980607986,
						"text": 0.0693996250629425,
						"impli": -0.18308770656585693,
						"mai": -0.08997152745723724,
						"human": -0.05438892915844917,
						"awai": -0.1411232352256775,
						"home": 0.12311744689941406,
						"interpret": -0.009703080169856548,
						"ag": -0.024952242150902748,
						"sign": -0.12595069408416748,
						"matur": -0.15354064106941223,
						"know": -0.1876964122056961,
						"prep": 0.18088454008102417,
						"squeez": -0.18310706317424774,
						"robot": 0.0881802886724472,
						"tell": -0.08375195413827896,
						"began": 0.1101238876581192,
						"ahead": 0.19046035408973694,
						"frighten": 0.14993546903133392,
						"possibl": 0.1347513347864151,
						"it": -0.04163636639714241,
						"destin": -0.03487781435251236,
						"1st": -0.10499104857444763,
						"simultan": -0.038208939135074615,
						"acceler": -0.02055656909942627,
						"evid": -0.1232498437166214,
						"p": -0.01128708478063345,
						"r": 0.06263511627912521,
						"ao": 0.02847142331302166,
						"determinatio": -0.17677997052669525,
						"reassur": -0.08664687722921371,
						"experi": 0.18168537318706512,
						"apprehens": -0.009587633423507214,
						"stop": 0.16701573133468628,
						"d": 0.07272374629974365,
						"degre": -0.12155523896217346,
						"express": 0.04059848189353943
					}
				},
				"13": {
					"bias": 0.11913855373859406,
					"weights": {
						"11": -0.06211652606725693,
						"she": -0.14888113737106323,
						"scare": -0.12082062661647797,
						"feel": -0.11214539408683777,
						"speed": -0.09721169620752335,
						"space": -0.022261736914515495,
						"shuttl": -0.0207916758954525,
						"rememb": 0.1578054279088974,
						"mom": 0.06028740480542183,
						"want": 0.00432086456567049,
						"meet": 0.03368474915623665,
						"soon": -0.012260903604328632,
						"shiranna": 0.18053500354290009,
						"excit": -0.12293494492769241,
						"nervou": -0.16684074699878693,
						"take": 0.030292507261037827,
						"off": -0.0954560860991478,
						"try": -0.19078510999679565,
						"brave": -0.0638301894068718,
						"mother": 0.04466766491532326,
						"anxiou": -0.18075759708881378,
						"determin": -0.19883683323860168,
						"attempt": 0.16752463579177856,
						"remain": -0.12050101161003113,
						"posit": 0.11737249046564102,
						"mayb": -0.16032680869102478,
						"littl": -0.03562949597835541,
						"unsettl": 0.05211828276515007,
						"though": -0.15082234144210815,
						"resolv": -0.14549870789051056,
						"us": 0.08179870992898941,
						"year": -0.1504494696855545,
						"old": -0.036487728357315063,
						"afraid": -0.1954275518655777,
						"vulner": -0.04048648849129677,
						"felt": -0.03591713309288025,
						"thrill": 0.010341771878302097,
						"terrifi": 0.17102189362049103,
						"time": -0.15848663449287415,
						"howev": 0.18214775621891022,
						"quit": 0.018943393602967262,
						"even": 0.1564207822084427,
						"affect": 0.1563020795583725,
						"heart": -0.17689821124076843,
						"rate": 0.06935588270425797,
						"temperatur": 0.13340076804161072,
						"unknown": -0.02693365514278412,
						"love": -0.1924200803041458,
						"pair": 0.11776642501354218,
						"comfort": -0.059585414826869965,
						"statist": 0.006209303624927998,
						"success": -0.03485250100493431,
						"mission": 0.06344301998615265,
						"appear": -0.16008026897907257,
						"realli": -0.023091072216629982,
						"appreci": -0.053759366273880005,
						"girl": 0.016080869361758232,
						"seem": 0.02210407517850399,
						"alon": -0.1948499232530594,
						"earth": -0.06434029340744019,
						"world": 0.19089552760124207,
						"companion": -0.16481426358222961,
						"prog": -0.10665316879749298,
						"travel": 0.057959169149398804,
						"go": 0.1300133317708969,
						"trip": 0.12666292488574982,
						"confid": -0.05641203746199608,
						"evidenc": 0.02507948875427246,
						"increas": 0.03628169372677803,
						"bodi": -0.10907524079084396,
						"narrat": 0.17909252643585205,
						"make": 0.1325167715549469,
						"abundantli": -0.005078901536762714,
						"clear": -0.04933938756585121,
						"worri": 0.037933092564344406,
						"launch": 0.06246507912874222,
						"will": 0.07354847341775894,
						"end": 0.02676057443022728,
						"think": -0.06394416838884354,
						"do": 0.0626489520072937,
						"state": 0.05703982338309288,
						"combin": 0.04203314706683159,
						"emot": -0.04972483962774277,
						"includ": -0.1401454210281372,
						"wari": -0.15249308943748474,
						"nervous": -0.03497970104217529,
						"awar": 0.08033314347267151,
						"surround": -0.07723657041788101,
						"anticip": -0.1462111473083496,
						"sens": 0.14148187637329102,
						"seek": 0.08105428516864777,
						"solac": 0.08976076543331146,
						"infer": -0.08204221725463867,
						"serv": 0.07033341377973557,
						"function": -0.15268637239933014,
						"ted": -0.12117376923561096,
						"convinc": -0.1278032809495926,
						"herself": -0.1980019211769104,
						"okai": -0.1487375795841217,
						"need": 0.031223658472299576,
						"yet": 0.17997580766677856,
						"journei": -0.07172516733407974,
						"embark": 0.1095392256975174,
						"part": -0.16480442881584167,
						"someth": 0.19927936792373657,
						"not": -0.048358116298913956,
						"done": 0.11411450058221817,
						"give": -0.04488007351756096,
						"pep": -0.0669482871890068,
						"talk": 0.10919886827468872,
						"eager": -0.09843999892473221,
						"begin": -0.04620952159166336,
						"visit": 0.1555119752883911,
						"read": -0.006048663053661585,
						"assum": -0.086504265666008,
						"shirana": 0.04475551098585129,
						"leav": 0.1481524407863617,
						"station": 0.16949696838855743,
						"young": 0.13991205394268036,
						"text": -0.18445424735546112,
						"impli": 0.010806781239807606,
						"mai": -0.1802344024181366,
						"human": 0.1250341385602951,
						"awai": -0.10084804892539978,
						"home": 0.1786695271730423,
						"interpret": -0.06656870990991592,
						"ag": -0.13934196531772614,
						"sign": 0.04687945544719696,
						"matur": 0.14131729304790497,
						"know": -0.059060852974653244,
						"prep": 0.06806761771440506,
						"squeez": -0.06086685135960579,
						"robot": -0.06617758423089981,
						"tell": -0.012557062320411205,
						"began": 0.013795516453683376,
						"ahead": -0.18590115010738373,
						"frighten": 0.01465296559035778,
						"possibl": -0.029754163697361946,
						"it": -0.126674085855484,
						"destin": -0.04887964576482773,
						"1st": -0.09048225730657578,
						"simultan": 0.04018394649028778,
						"acceler": 0.18538445234298706,
						"evid": 0.06140848621726036,
						"p": -0.17964674532413483,
						"r": 0.09167448431253433,
						"ao": -0.19647055864334106,
						"determinatio": 0.10066037625074387,
						"reassur": -0.19375665485858917,
						"experi": -0.15873147547245026,
						"apprehens": -0.17564792931079865,
						"stop": 0.046631596982479095,
						"d": 0.2107946127653122,
						"degre": -0.18233196437358856,
						"express": 0.15196068584918976
					}
				},
				"14": {
					"bias": 0.16330640017986298,
					"weights": {
						"11": -0.007508073002099991,
						"she": -0.16293969750404358,
						"scare": -0.019400186836719513,
						"feel": -0.13961730897426605,
						"speed": -0.19525152444839478,
						"space": -0.04127192869782448,
						"shuttl": -0.1252608746290207,
						"rememb": 0.08511708676815033,
						"mom": -0.16756953299045563,
						"want": 0.00932401418685913,
						"meet": -0.13100959360599518,
						"soon": -0.10261053591966629,
						"shiranna": 0.13077205419540405,
						"excit": -0.2282639890909195,
						"nervou": 0.020791882649064064,
						"take": -0.05404938757419586,
						"off": 0.11807729303836823,
						"try": 0.06707650423049927,
						"brave": -0.11076359450817108,
						"mother": 0.09391171485185623,
						"anxiou": -0.21535538136959076,
						"determin": 0.028128614649176598,
						"attempt": -0.030005069449543953,
						"remain": -0.12280980497598648,
						"posit": 0.08317658305168152,
						"mayb": -0.0810888409614563,
						"littl": 0.04022075980901718,
						"unsettl": 0.19187089800834656,
						"though": 0.022432930767536163,
						"resolv": -0.17555442452430725,
						"us": -0.047588929533958435,
						"year": -0.10417000204324722,
						"old": 0.019673211500048637,
						"afraid": 0.05839535966515541,
						"vulner": 0.11811123788356781,
						"felt": -0.18645432591438293,
						"thrill": -0.1713906228542328,
						"terrifi": 0.14069275557994843,
						"time": -0.1665317267179489,
						"howev": -0.0935639962553978,
						"quit": 0.1761663556098938,
						"even": -0.028581742197275162,
						"affect": -0.06029710918664932,
						"heart": 0.11970454454421997,
						"rate": -0.17075105011463165,
						"temperatur": 0.171124666929245,
						"unknown": -0.009918727912008762,
						"love": -0.03722019121050835,
						"pair": -0.06320849806070328,
						"comfort": 0.057911235839128494,
						"statist": 0.105096235871315,
						"success": -0.030784254893660545,
						"mission": 0.08584865182638168,
						"appear": 0.02103211171925068,
						"realli": -0.159826397895813,
						"appreci": -0.13545700907707214,
						"girl": -0.15688171982765198,
						"seem": -0.1833304762840271,
						"alon": 0.08092286437749863,
						"earth": 0.18871605396270752,
						"world": -0.1195826306939125,
						"companion": 0.05552958324551582,
						"prog": -0.0032104095444083214,
						"travel": 0.16067476570606232,
						"go": 0.11813144385814667,
						"trip": -0.1907215565443039,
						"confid": -0.03173050656914711,
						"evidenc": -0.17654457688331604,
						"increas": -0.054325126111507416,
						"bodi": 0.03460196778178215,
						"narrat": -0.07672711461782455,
						"make": 0.18265318870544434,
						"abundantli": -0.01588534004986286,
						"clear": 0.048871055245399475,
						"worri": -0.04909597337245941,
						"launch": -0.13531702756881714,
						"will": 0.09317424893379211,
						"end": -0.17224539816379547,
						"think": 0.05835351347923279,
						"do": 0.14237695932388306,
						"state": -0.18781611323356628,
						"combin": 0.15527625381946564,
						"emot": -0.10449898988008499,
						"includ": 0.18870261311531067,
						"wari": -0.12499883025884628,
						"nervous": 0.1067141741514206,
						"awar": -0.11552131175994873,
						"surround": -0.18415869772434235,
						"anticip": 0.13798503577709198,
						"sens": -0.048764172941446304,
						"seek": 0.14747396111488342,
						"solac": -0.19748352468013763,
						"infer": -0.19337597489356995,
						"serv": 0.0988803580403328,
						"function": 0.007265482563525438,
						"ted": -0.02578035183250904,
						"convinc": 0.18667428195476532,
						"herself": 0.09473849087953568,
						"okai": 0.13490889966487885,
						"need": -0.0343901626765728,
						"yet": 0.10212378203868866,
						"journei": -0.02204761654138565,
						"embark": -0.15649905800819397,
						"part": 0.15217509865760803,
						"someth": 0.11670724302530289,
						"not": 0.20562389492988586,
						"done": -0.20362600684165955,
						"give": 0.16835957765579224,
						"pep": -0.09970266371965408,
						"talk": -0.16504794359207153,
						"eager": -0.1575189232826233,
						"begin": 0.0024633274879306555,
						"visit": -0.18370559811592102,
						"read": -0.09829279035329819,
						"assum": -0.20490218698978424,
						"shirana": -0.03579544648528099,
						"leav": -0.1386193186044693,
						"station": -0.09488004446029663,
						"young": -0.028574271127581596,
						"text": 0.19085054099559784,
						"impli": -0.11465144902467728,
						"mai": -0.17699088156223297,
						"human": 0.09648507088422775,
						"awai": 0.032854143530130386,
						"home": 0.19915653765201569,
						"interpret": -0.15212062001228333,
						"ag": 0.12580271065235138,
						"sign": -0.14392119646072388,
						"matur": 0.15741801261901855,
						"know": -0.1290847510099411,
						"prep": 0.17429928481578827,
						"squeez": 0.14382268488407135,
						"robot": -0.13415712118148804,
						"tell": 0.09732531011104584,
						"began": -0.0896831750869751,
						"ahead": 0.024297641590237617,
						"frighten": 0.1619473248720169,
						"possibl": 0.016125159338116646,
						"it": -0.09276331961154938,
						"destin": -0.14717957377433777,
						"1st": -0.17323146760463715,
						"simultan": 0.05282997712492943,
						"acceler": -0.01044414471834898,
						"evid": -0.15517356991767883,
						"p": 0.03219935670495033,
						"r": 0.029232671484351158,
						"ao": -0.10591790080070496,
						"determinatio": 0.08587721735239029,
						"reassur": 0.09645799547433853,
						"experi": -0.004845859948545694,
						"apprehens": 0.014702999033033848,
						"stop": 0.1815369874238968,
						"d": 0.0837341845035553,
						"degre": 0.051803845912218094,
						"express": 0.057759229093790054
					}
				},
				"15": {
					"bias": 0.05688359960913658,
					"weights": {
						"11": -0.054756708443164825,
						"she": 0.06072267144918442,
						"scare": -0.10664253681898117,
						"feel": 0.17952357232570648,
						"speed": 0.05339982733130455,
						"space": 0.15662240982055664,
						"shuttl": -0.14124886691570282,
						"rememb": 0.09016986936330795,
						"mom": -0.10266882181167603,
						"want": 0.06629269570112228,
						"meet": -0.015209958888590336,
						"soon": 0.12484150379896164,
						"shiranna": -0.018291188403964043,
						"excit": 0.47769102454185486,
						"nervou": -0.06129050254821777,
						"take": -0.12431661784648895,
						"off": 0.1693975329399109,
						"try": 0.22031112015247345,
						"brave": 0.10062795132398605,
						"mother": 0.01179547980427742,
						"anxiou": 0.0934782549738884,
						"determin": 0.09061647206544876,
						"attempt": 0.116336390376091,
						"remain": -0.11529745906591415,
						"posit": 0.01502237468957901,
						"mayb": -0.14337031543254852,
						"littl": -0.15724560618400574,
						"unsettl": -0.022815721109509468,
						"though": 0.10079268366098404,
						"resolv": 0.08631978929042816,
						"us": -0.1063074991106987,
						"year": 0.13432928919792175,
						"old": -0.0723213255405426,
						"afraid": -0.08084257692098618,
						"vulner": 0.03136386722326279,
						"felt": 0.06643173843622208,
						"thrill": 0.2647841274738312,
						"terrifi": 0.049585964530706406,
						"time": 0.13347752392292023,
						"howev": 0.06430362164974213,
						"quit": 0.14564542472362518,
						"even": -0.045367058366537094,
						"affect": -0.07016699761152267,
						"heart": -0.06258561462163925,
						"rate": 0.051613010466098785,
						"temperatur": -0.0011580240679904819,
						"unknown": 0.015542559325695038,
						"love": 0.16324512660503387,
						"pair": 0.07763294875621796,
						"comfort": -0.1812700629234314,
						"statist": -0.10806476324796677,
						"success": -0.14428943395614624,
						"mission": -0.08862228691577911,
						"appear": 0.16666994988918304,
						"realli": 0.13866576552391052,
						"appreci": -0.010744615457952023,
						"girl": 0.1660681515932083,
						"seem": 0.1639958769083023,
						"alon": -0.03021831065416336,
						"earth": -0.16792364418506622,
						"world": -0.06771355122327805,
						"companion": 0.06828628480434418,
						"prog": 0.083735890686512,
						"travel": -0.05838284268975258,
						"go": 0.0037224183324724436,
						"trip": 0.11524058133363724,
						"confid": -0.04021388664841652,
						"evidenc": -0.11556953191757202,
						"increas": 0.00712607940658927,
						"bodi": -0.06459113955497742,
						"narrat": 0.1777666211128235,
						"make": -0.07227983325719833,
						"abundantli": 0.1358361542224884,
						"clear": -0.18101783096790314,
						"worri": 0.022341249510645866,
						"launch": 0.0849643275141716,
						"will": -0.09429279714822769,
						"end": 0.16643381118774414,
						"think": -0.20618583261966705,
						"do": -0.007770719472318888,
						"state": 0.16467168927192688,
						"combin": -0.18097814917564392,
						"emot": -0.18454119563102722,
						"includ": 0.10470850765705109,
						"wari": 0.009333047084510326,
						"nervous": 0.18111027777194977,
						"awar": -0.17778122425079346,
						"surround": 0.19969506561756134,
						"anticip": -0.0817810669541359,
						"sens": 0.03798289969563484,
						"seek": -0.15994037687778473,
						"solac": -0.11284378916025162,
						"infer": -0.1883154958486557,
						"serv": 0.022527089342474937,
						"function": 0.11031296849250793,
						"ted": 0.1814069151878357,
						"convinc": -0.1933366358280182,
						"herself": -0.04164058715105057,
						"okai": 0.032983798533678055,
						"need": -0.06527701765298843,
						"yet": -0.03634776547551155,
						"journei": 0.1313989907503128,
						"embark": 0.20801091194152832,
						"part": -0.1562301516532898,
						"someth": 0.15877415239810944,
						"not": -0.17249660193920135,
						"done": 0.03815186396241188,
						"give": 0.02480875886976719,
						"pep": 0.18984942138195038,
						"talk": 0.026256920769810677,
						"eager": 0.044964518398046494,
						"begin": -0.18019214272499084,
						"visit": -0.126386821269989,
						"read": -0.041100483387708664,
						"assum": 0.022876625880599022,
						"shirana": 0.05449274182319641,
						"leav": -0.1304488480091095,
						"station": 0.1124967485666275,
						"young": -0.12995754182338715,
						"text": -0.10971201211214066,
						"impli": -0.08279524743556976,
						"mai": 0.08133570104837418,
						"human": 0.08605088293552399,
						"awai": -0.18720178306102753,
						"home": -0.06694085896015167,
						"interpret": -0.11144865304231644,
						"ag": 0.03800954297184944,
						"sign": 0.13459831476211548,
						"matur": -0.04121791198849678,
						"know": 0.07739045470952988,
						"prep": -0.18493562936782837,
						"squeez": 0.06499786674976349,
						"robot": -0.12259702384471893,
						"tell": 0.1657492220401764,
						"began": -0.21338167786598206,
						"ahead": 0.0363280214369297,
						"frighten": -0.13373222947120667,
						"possibl": -0.004843887407332659,
						"it": 0.13903473317623138,
						"destin": 0.10627703368663788,
						"1st": 0.07293982058763504,
						"simultan": 0.05208517983555794,
						"acceler": 0.024974271655082703,
						"evid": 0.07827040553092957,
						"p": 0.020162096247076988,
						"r": -0.0039382753893733025,
						"ao": 0.05586182326078415,
						"determinatio": -0.09933801740407944,
						"reassur": -0.07581962645053864,
						"experi": 0.14848554134368896,
						"apprehens": -0.03699405863881111,
						"stop": -0.07207466661930084,
						"d": 0.04692598432302475,
						"degre": 0.2076951563358307,
						"express": 0.15024076402187347
					}
				},
				"16": {
					"bias": -0.14614062011241913,
					"weights": {
						"11": -0.06182622164487839,
						"she": -0.17597395181655884,
						"scare": -0.10541364550590515,
						"feel": 0.19612444937229156,
						"speed": -0.17909623682498932,
						"space": -0.04427687078714371,
						"shuttl": 0.1950981318950653,
						"rememb": -0.016897104680538177,
						"mom": -0.025876520201563835,
						"want": -0.16044065356254578,
						"meet": 0.19038201868534088,
						"soon": 0.11908704787492752,
						"shiranna": -0.0437634252011776,
						"excit": 0.22537602484226227,
						"nervou": -0.03402423486113548,
						"take": -0.014799821190536022,
						"off": -0.0952744260430336,
						"try": -0.1513972282409668,
						"brave": -0.10597587376832962,
						"mother": 0.18253159523010254,
						"anxiou": -0.13035519421100616,
						"determin": 0.17652234435081482,
						"attempt": 0.026973791420459747,
						"remain": 0.08394655585289001,
						"posit": 0.05963468551635742,
						"mayb": -0.1607058197259903,
						"littl": 0.05208779498934746,
						"unsettl": -0.054245151579380035,
						"though": 0.02564314566552639,
						"resolv": 0.1971680372953415,
						"us": -0.13596826791763306,
						"year": 0.20032280683517456,
						"old": 0.09612254798412323,
						"afraid": -0.15989190340042114,
						"vulner": 0.011785367503762245,
						"felt": 0.19547782838344574,
						"thrill": 0.05049429461359978,
						"terrifi": -0.046662867069244385,
						"time": 0.17947076261043549,
						"howev": 0.07841607928276062,
						"quit": -0.11491752415895462,
						"even": -0.19722215831279755,
						"affect": 0.12459652870893478,
						"heart": 0.030855664983391762,
						"rate": -0.0029468112625181675,
						"temperatur": -0.1684611290693283,
						"unknown": -0.0013135472545400262,
						"love": -0.1890943944454193,
						"pair": -0.06608736515045166,
						"comfort": 0.06541075557470322,
						"statist": -0.13625772297382355,
						"success": -0.1351909339427948,
						"mission": 0.10311716794967651,
						"appear": -0.16091330349445343,
						"realli": 0.039259836077690125,
						"appreci": 0.13435333967208862,
						"girl": 0.08911924064159393,
						"seem": -0.1748306304216385,
						"alon": -0.041369933634996414,
						"earth": 0.03417102247476578,
						"world": 0.1237705796957016,
						"companion": -0.12343727052211761,
						"prog": 0.009906805120408535,
						"travel": -0.041555870324373245,
						"go": -0.1509764939546585,
						"trip": -0.0850534737110138,
						"confid": 0.00013111108273733407,
						"evidenc": -0.15964367985725403,
						"increas": -0.037242237478494644,
						"bodi": 0.023449143394827843,
						"narrat": 0.1428470015525818,
						"make": -0.19247779250144958,
						"abundantli": -0.12347973883152008,
						"clear": 0.20328207314014435,
						"worri": -0.06490198522806168,
						"launch": -0.19723749160766602,
						"will": -0.23449595272541046,
						"end": -0.1404501348733902,
						"think": 0.14672710001468658,
						"do": 0.024874569848179817,
						"state": 0.06537144631147385,
						"combin": -0.14491085708141327,
						"emot": 0.015997612848877907,
						"includ": 0.12865179777145386,
						"wari": 0.09725195914506912,
						"nervous": 0.18166205286979675,
						"awar": 0.082279272377491,
						"surround": 0.09726071357727051,
						"anticip": -0.08088020235300064,
						"sens": 0.1870383769273758,
						"seek": -0.1470818668603897,
						"solac": 0.013860509730875492,
						"infer": 0.049574606120586395,
						"serv": -0.0776662528514862,
						"function": -0.05573544651269913,
						"ted": -0.10451120883226395,
						"convinc": 0.01194886863231659,
						"herself": 0.1381167322397232,
						"okai": 0.07242197543382645,
						"need": 0.1252531111240387,
						"yet": 0.024803096428513527,
						"journei": 0.18001104891300201,
						"embark": 0.022669970989227295,
						"part": 0.1291840672492981,
						"someth": -0.09417109191417694,
						"not": 0.06001174822449684,
						"done": -0.023722849786281586,
						"give": 0.05114728957414627,
						"pep": 0.0553625263273716,
						"talk": -0.14200331270694733,
						"eager": 0.17051440477371216,
						"begin": -0.18183691799640656,
						"visit": 0.010870314203202724,
						"read": 0.017631806433200836,
						"assum": -0.10117708891630173,
						"shirana": 0.18165910243988037,
						"leav": 0.1851319670677185,
						"station": -0.15679936110973358,
						"young": 0.11772637814283371,
						"text": 0.1360364407300949,
						"impli": -0.041171468794345856,
						"mai": 0.08157448470592499,
						"human": 0.06353902071714401,
						"awai": -0.03339320048689842,
						"home": 0.06168567016720772,
						"interpret": -0.008736822754144669,
						"ag": -0.19918927550315857,
						"sign": 0.20483306050300598,
						"matur": -0.05389457195997238,
						"know": 0.12889325618743896,
						"prep": -0.1860647350549698,
						"squeez": -0.14344878494739532,
						"robot": -0.1555265337228775,
						"tell": -0.14349855482578278,
						"began": -0.04527178034186363,
						"ahead": -0.09749477356672287,
						"frighten": -0.192031130194664,
						"possibl": 0.15059462189674377,
						"it": -0.02123119682073593,
