{
	"createNewObjectString": "function classifierFun() {\r\n    const limdu = require('limdu');\r\n    return new limdu.classifiers.NeuralNetwork();\r\n}",
	"object": {
		"sizes": [
			318,
			159,
			1
		],
		"layers": [
			{
				"1": {},
				"think": {},
				"when": {},
				"shiranna": {},
				"realiz": {},
				"she": {},
				"knowledg": {},
				"save": {},
				"everyon": {},
				"just": {},
				"shift": {},
				"overdr": {},
				"drew": {},
				"upon": {},
				"learn": {},
				"father": {},
				"entir": {},
				"life": {},
				"fight": {},
				"flight": {},
				"scenario": {},
				"move": {},
				"total": {},
				"panic": {},
				"fear": {},
				"feel": {},
				"confid": {},
				"answer": {},
				"problem": {},
				"rememb": {},
				"old": {},
				"textbook": {},
				"inspir": {},
				"made": {},
				"decis": {},
				"counter": {},
				"consid": {},
				"idea": {},
				"child": {},
				"hope": {},
				"adult": {},
				"know": {},
				"do": {},
				"chang": {},
				"recogn": {},
				"good": {},
				"impress": {},
				"short": {},
				"span": {},
				"time": {},
				"overcom": {},
				"nerv": {},
				"doubt": {},
				"successfulli": {},
				"journei": {},
				"outer": {},
				"space": {},
				"new": {},
				"acquaint": {},
				"reli": {},
				"emot": {},
				"resourc": {},
				"persever": {},
				"posit": {},
				"contribut": {},
				"person": {},
				"fortitud": {},
				"dad": {},
				"book": {},
				"mom": {},
				"comment": {},
				"brilliant": {},
				"engin": {},
				"relationship": {},
				"occur": {},
				"past": {},
				"help": {},
				"dream": {},
				"remind": {},
				"inform": {},
				"write": {},
				"rescu": {},
				"afraid": {},
				"greatli": {},
				"event": {},
				"caus": {},
				"nightmar": {},
				"memori": {},
				"parent": {},
				"need": {},
				"situat": {},
				"initi": {},
				"repli": {},
				"show": {},
				"valid": {},
				"theori": {},
				"accept": {},
				"suggest": {},
				"start": {},
				"discuss": {},
				"solv": {},
				"found": {},
				"solut": {},
				"felt": {},
				"proud": {},
				"share": {},
				"pair": {},
				"cheeki": {},
				"reprogram": {},
				"circuit": {},
				"panel": {},
				"1st": {},
				"acquir": {},
				"take": {},
				"action": {},
				"actual": {},
				"listen": {},
				"becam": {},
				"bad": {},
				"connect": {},
				"someth": {},
				"fathr": {},
				"method": {},
				"thu": {},
				"happi": {},
				"prais": {},
				"special": {},
				"gave": {},
				"abil": {},
				"return": {},
				"research": {},
				"work": {},
				"amplifi": {},
				"abl": {},
				"recal": {},
				"vital": {},
				"detail": {},
				"whole": {},
				"ship": {},
				"read": {},
				"have": {},
				"vision": {},
				"enough": {},
				"engag": {},
				"alreadi": {},
				"done": {},
				"gradual": {},
				"grown": {},
				"note": {},
				"left": {},
				"behind": {},
				"grow": {},
				"current": {},
				"predica": {},
				"mention": {},
				"solenoid": {},
				"s": {},
				"solanoid": {},
				"sai": {},
				"geniu": {},
				"introduc": {},
				"cheek": {},
				"becom": {},
				"sure": {},
				"herself": {},
				"realli": {},
				"voic": {},
				"gain": {},
				"us": {},
				"without": {},
				"intimid": {},
				"fact": {},
				"knew": {},
				"mother": {},
				"kept": {},
				"provid": {},
				"artifici": {},
				"intellig": {},
				"robot": {},
				"confus": {},
				"paralyz": {},
				"sens": {},
				"serious": {},
				"addition": {},
				"mai": {},
				"it": {},
				"passeng": {},
				"took": {},
				"owner": {},
				"rare": {},
				"valuabl": {},
				"plan": {},
				"will": {},
				"develop": {},
				"grew": {},
				"so": {},
				"doe": {},
				"not": {},
				"helpless": {},
				"go": {},
				"die": {},
				"anymor": {},
				"aunt": {},
				"given": {},
				"form": {},
				"boost": {},
				"self": {},
				"esteem": {},
				"result": {},
				"scientif": {},
				"paper": {},
				"author": {},
				"due": {},
				"top": {},
				"ad": {},
				"braveri": {},
				"wrote": {},
				"daughter": {},
				"impart": {},
				"taught": {},
				"began": {},
				"onc": {},
				"everybodi": {},
				"aboard": {},
				"begin": {},
				"give": {},
				"recognit": {},
				"even": {},
				"scare": {},
				"frighten": {},
				"better": {},
				"possibl": {},
				"remedi": {},
				"thank": {},
				"studi": {},
				"nobodi": {},
				"els": {},
				"memeori": {},
				"capabl": {},
				"smart": {},
				"though": {},
				"unorthodox": {},
				"propos": {},
				"room": {},
				"increas": {},
				"innov": {},
				"crisi": {},
				"receiv": {},
				"unsur": {},
				"enter": {},
				"right": {},
				"thing": {},
				"reassur": {},
				"regard": {},
				"real": {},
				"option": {},
				"lend": {},
				"great": {},
				"man": {},
				"believ": {},
				"fate": {},
				"higher": {},
				"coupl": {},
				"back": {},
				"order": {},
				"notic": {},
				"no": {},
				"longer": {},
				"nervou": {},
				"come": {},
				"close": {},
				"challeng": {},
				"face": {},
				"saw": {},
				"pai": {},
				"attent": {},
				"introduct": {},
				"probabl": {},
				"trigger": {},
				"suddenli": {},
				"look": {},
				"admir": {},
				"float": {},
				"off": {},
				"technolog": {},
				"advanc": {},
				"recit": {},
				"shown": {},
				"interest": {},
				"encourag": {},
				"di": {},
				"lost": {},
				"purpos": {},
				"tool": {},
				"own": {},
				"appar": {},
				"scienc": {},
				"whiz": {},
				"understand": {},
				"spaceship": {},
				"onboard": {},
				"includ": {},
				"t": {},
				"crew": {},
				"mean": {},
				"appli": {},
				"stronger": {},
				"moment": {},
				"process": {},
				"led": {},
				"journal": {},
				"travel": {},
				"reaction": {},
				"relat": {},
				"pick": {},
				"chunk": {},
				"sourc": {},
				"happen": {}
			},
			{
				"0": {
					"bias": -0.19349069893360138,
					"weights": {
						"1": -0.13343395292758942,
						"think": -0.09664102643728256,
						"when": 0.1719370186328888,
						"shiranna": -0.08983342349529266,
						"realiz": 0.09952905774116516,
						"she": -0.09071026742458344,
						"knowledg": -0.12396720796823502,
						"save": 0.11665330827236176,
						"everyon": 0.10181069374084473,
						"just": 0.09383279085159302,
						"shift": -0.14697125554084778,
						"overdr": 0.050788380205631256,
						"drew": 0.057973142713308334,
						"upon": 0.02401997148990631,
						"learn": 0.042945027351379395,
						"father": 0.09488929063081741,
						"entir": 0.007820187136530876,
						"life": -0.1615687906742096,
						"fight": 0.05766671895980835,
						"flight": -0.10584203153848648,
						"scenario": -0.08820506185293198,
						"move": 0.18639631569385529,
						"total": -0.011960707604885101,
						"panic": 0.18073059618473053,
						"fear": -0.13707245886325836,
						"feel": 0.13179700076580048,
						"confid": 0.1548144817352295,
						"answer": 0.14670507609844208,
						"problem": -0.11271213740110397,
						"rememb": 0.08840427547693253,
						"old": -0.06224014237523079,
						"textbook": 0.0031507222447544336,
						"inspir": 0.05877875164151192,
						"made": 0.02157347835600376,
						"decis": 0.04730012267827988,
						"counter": 0.05874117091298103,
						"consid": -0.14995288848876953,
						"idea": 0.1765822172164917,
						"child": -0.04617463797330856,
						"hope": 0.09683483093976974,
						"adult": 0.08087155222892761,
						"know": -0.0729009285569191,
						"do": 0.1336020678281784,
						"chang": -0.09459932148456573,
						"recogn": 0.07242729514837265,
						"good": -0.08678782731294632,
						"impress": -0.05755731090903282,
						"short": -0.18286508321762085,
						"span": 0.1756879687309265,
						"time": -0.1744026392698288,
						"overcom": -0.084084652364254,
						"nerv": -0.016951633617281914,
						"doubt": -0.07767853140830994,
						"successfulli": 0.03574623540043831,
						"journei": -0.06745889037847519,
						"outer": 0.16705098748207092,
						"space": 0.06840234994888306,
						"new": 0.09642850607633591,
						"acquaint": -0.034826669842004776,
						"reli": -0.12969829142093658,
						"emot": -0.10747550427913666,
						"resourc": -0.1666909158229828,
						"persever": 0.1127915158867836,
						"posit": 0.08537518233060837,
						"contribut": -0.18608395755290985,
						"person": -0.053411152213811874,
						"fortitud": -0.0027939300052821636,
						"dad": -0.18766234815120697,
						"book": 0.12030848115682602,
						"mom": 0.05923454463481903,
						"comment": -0.1732599139213562,
						"brilliant": -0.01051303930580616,
						"engin": -0.017714906483888626,
						"relationship": 0.16972579061985016,
						"occur": 0.09180902689695358,
						"past": 0.07457353174686432,
						"help": 0.12439961731433868,
						"dream": 0.10878202319145203,
						"remind": -0.12107439339160919,
						"inform": -0.18983283638954163,
						"write": -0.12780338525772095,
						"rescu": -0.18694135546684265,
						"afraid": 0.004664786625653505,
						"greatli": -0.18827451765537262,
						"event": -0.06874138861894608,
						"caus": 0.1927385926246643,
						"nightmar": 0.03837073966860771,
						"memori": 0.20706406235694885,
						"parent": -0.12095923721790314,
						"need": 0.12621477246284485,
						"situat": -0.08534318208694458,
						"initi": 0.09346438944339752,
						"repli": 0.029796641319990158,
						"show": 0.07176215201616287,
						"valid": -0.024813229218125343,
						"theori": 0.16899500787258148,
						"accept": 0.041895363479852676,
						"suggest": -0.11882226169109344,
						"start": 0.09039909392595291,
						"discuss": 0.1984180510044098,
						"solv": 0.09489785879850388,
						"found": -0.026651913300156593,
						"solut": -0.026398606598377228,
						"felt": 0.030122194439172745,
						"proud": 0.08556395769119263,
						"share": 0.05244375765323639,
						"pair": 0.08538412302732468,
						"cheeki": -0.10942497104406357,
						"reprogram": -0.024542132392525673,
						"circuit": -0.15722180902957916,
						"panel": 0.11009641736745834,
						"1st": -0.13305792212486267,
						"acquir": 0.02619558945298195,
						"take": 0.06843430548906326,
						"action": 0.0728711262345314,
						"actual": -0.1094156950712204,
						"listen": -0.03539020195603371,
						"becam": 0.07791312038898468,
						"bad": 0.12206192314624786,
						"connect": -0.021868394687771797,
						"someth": -0.08894839882850647,
						"fathr": -0.023439837619662285,
						"method": 0.030304914340376854,
						"thu": 0.10350537300109863,
						"happi": 0.006084022112190723,
						"prais": 0.10506494343280792,
						"special": -0.08541086316108704,
						"gave": -0.007657431066036224,
						"abil": 0.012651940807700157,
						"return": -0.08768274635076523,
						"research": 0.19035257399082184,
						"work": -0.11998356133699417,
						"amplifi": 0.02445940673351288,
						"abl": -0.10588590800762177,
						"recal": 0.044957078993320465,
						"vital": -0.06858163326978683,
						"detail": 0.18645386397838593,
						"whole": -0.10031236708164215,
						"ship": 0.14785990118980408,
						"read": 0.13889718055725098,
						"have": -0.06024777889251709,
						"vision": 0.11092614382505417,
						"enough": -0.12067719548940659,
						"engag": 0.1832074224948883,
						"alreadi": 0.1267046183347702,
						"done": -0.14763204753398895,
						"gradual": 0.15658369660377502,
						"grown": 0.16698351502418518,
						"note": 0.025382770225405693,
						"left": 0.1707231104373932,
						"behind": 0.031514186412096024,
						"grow": -0.06669508665800095,
						"current": -0.024676095694303513,
						"predica": 0.12379969656467438,
						"mention": -0.18530087172985077,
						"solenoid": -0.09989487379789352,
						"s": -0.19702085852622986,
						"solanoid": -0.08211930841207504,
						"sai": -0.12912188470363617,
						"geniu": 0.1482635885477066,
						"introduc": 0.051226723939180374,
						"cheek": -0.0027549525257200003,
						"becom": 0.09437418729066849,
						"sure": 0.050017308443784714,
						"herself": -0.1925915777683258,
						"realli": -0.021087776869535446,
						"voic": 0.030799798667430878,
						"gain": -0.013282928615808487,
						"us": -0.10787329822778702,
						"without": 0.15599507093429565,
						"intimid": 0.18949484825134277,
						"fact": -0.11666528880596161,
						"knew": -0.011392618529498577,
						"mother": 0.18268294632434845,
						"kept": -0.03606928139925003,
						"provid": 0.0641670897603035,
						"artifici": 0.08747483789920807,
						"intellig": 0.11977910995483398,
						"robot": -0.09831185638904572,
						"confus": 0.14286433160305023,
						"paralyz": 0.01729942299425602,
						"sens": 0.13171221315860748,
						"serious": -0.11743281781673431,
						"addition": 0.07116798311471939,
						"mai": -0.11496975272893906,
						"it": -0.1323450803756714,
						"passeng": 0.1352793574333191,
						"took": -0.14775463938713074,
						"owner": -0.1647827923297882,
						"rare": 0.13927890360355377,
						"valuabl": 0.06053203344345093,
						"plan": -0.03833930194377899,
						"will": -0.17074112594127655,
						"develop": 0.06269245594739914,
						"grew": -0.016099078580737114,
						"so": 0.10967487096786499,
						"doe": 0.01482727937400341,
						"not": 0.09137047082185745,
						"helpless": -0.002889174735173583,
						"go": -0.17403703927993774,
						"die": 0.07699453830718994,
						"anymor": 0.13711528480052948,
						"aunt": 0.027398526668548584,
						"given": -0.17614397406578064,
						"form": 0.030938182026147842,
						"boost": -0.141023188829422,
						"self": 0.1703345775604248,
						"esteem": 0.01068366039544344,
						"result": -0.10991102457046509,
						"scientif": 0.10111047327518463,
						"paper": 0.1768368035554886,
						"author": -0.04430941864848137,
						"due": 0.14904190599918365,
						"top": -0.0025481078773736954,
						"ad": -0.16387450695037842,
						"braveri": 0.06020078435540199,
						"wrote": -0.019164832308888435,
						"daughter": -0.18297195434570312,
						"impart": -0.18953537940979004,
						"taught": -0.19316790997982025,
						"began": 0.016319742426276207,
						"onc": 0.013916848227381706,
						"everybodi": -0.10640125721693039,
						"aboard": 0.0374622717499733,
						"begin": -0.0063180201686918736,
						"give": -0.1318216174840927,
						"recognit": 0.034092508256435394,
						"even": 0.04778880253434181,
						"scare": -0.08091680705547333,
						"frighten": 0.1868922859430313,
						"better": 0.17233487963676453,
						"possibl": 0.07276184856891632,
						"remedi": -0.13578683137893677,
						"thank": -0.11282407492399216,
						"studi": -0.15076960623264313,
						"nobodi": 0.1879674345254898,
						"els": -0.08202055096626282,
						"memeori": 0.15998303890228271,
						"capabl": 0.036704689264297485,
						"smart": 0.08505574613809586,
						"though": 0.0385182648897171,
						"unorthodox": -0.11184372007846832,
						"propos": 0.18201369047164917,
						"room": -0.1930834949016571,
						"increas": 0.0010176509385928512,
						"innov": -0.15052083134651184,
						"crisi": 0.1953974962234497,
						"receiv": 0.15971875190734863,
						"unsur": -0.17514656484127045,
						"enter": -0.04172959178686142,
						"right": -0.1847381293773651,
						"thing": 0.03925878554582596,
						"reassur": -0.046763040125370026,
						"regard": -0.011748162098228931,
						"real": -0.09229456633329391,
						"option": 0.10782360285520554,
						"lend": -0.03598807379603386,
						"great": 0.008772068656980991,
						"man": 0.1826976239681244,
						"believ": -0.1923789381980896,
						"fate": -0.07235277444124222,
						"higher": 0.16017955541610718,
						"coupl": -0.08879292011260986,
						"back": -0.024281995370984077,
						"order": 0.10828883945941925,
						"notic": 0.021090468391776085,
						"no": -0.18834814429283142,
						"longer": 0.09945666044950485,
						"nervou": -0.07867041975259781,
						"come": 0.08878136426210403,
						"close": -0.11137640476226807,
						"challeng": 0.05641261488199234,
						"face": -0.12525682151317596,
						"saw": -0.02360156923532486,
						"pai": 0.0679357498884201,
						"attent": 0.022324327379465103,
						"introduct": -0.18939043581485748,
						"probabl": 0.09628135710954666,
						"trigger": -0.02023763209581375,
						"suddenli": -0.10996230691671371,
						"look": -0.05052387714385986,
						"admir": 0.05304175242781639,
						"float": -0.16923277080059052,
						"off": 0.010058445855975151,
						"technolog": 0.1072092354297638,
						"advanc": 0.06775525212287903,
						"recit": -0.11111611127853394,
						"shown": -0.005951962433755398,
						"interest": 0.10237589478492737,
						"encourag": 0.0644143670797348,
						"di": -0.04266975447535515,
						"lost": 0.17977285385131836,
						"purpos": 0.047558121383190155,
						"tool": 0.10088033229112625,
						"own": 0.14627398550510406,
						"appar": -0.05487838387489319,
						"scienc": 0.12632358074188232,
						"whiz": 0.0021427096799016,
						"understand": 0.11830884963274002,
						"spaceship": 0.09364379942417145,
						"onboard": -0.07938701659440994,
						"includ": 0.17942434549331665,
						"t": -0.13836419582366943,
						"crew": -0.1340678483247757,
						"mean": -0.05879959464073181,
						"appli": -0.13908499479293823,
						"stronger": 0.1502547711133957,
						"moment": 0.1561487317085266,
						"process": -0.05708809942007065,
						"led": 0.003713532816618681,
						"journal": 0.018129481002688408,
						"travel": 0.1098090410232544,
						"reaction": -0.13928662240505219,
						"relat": -0.04159238934516907,
						"pick": -0.037496160715818405,
						"chunk": 0.1316518634557724,
						"sourc": -0.15971778333187103,
						"happen": -0.01633155718445778
					}
				},
				"1": {
					"bias": -0.07683901488780975,
					"weights": {
						"1": 0.18688930571079254,
						"think": 0.06924180686473846,
						"when": -0.10816929489374161,
						"shiranna": 0.19329218566417694,
						"realiz": -0.1539602130651474,
						"she": 0.06661323457956314,
						"knowledg": 0.10514627397060394,
						"save": -0.0229567289352417,
						"everyon": 0.19910790026187897,
						"just": -0.12540794909000397,
						"shift": -0.08062837272882462,
						"overdr": 0.0824243351817131,
						"drew": 0.08799856156110764,
						"upon": 0.0829693153500557,
						"learn": -0.18208201229572296,
						"father": 0.06591913104057312,
						"entir": 0.18179433047771454,
						"life": 0.14362560212612152,
						"fight": 0.06557077169418335,
						"flight": -0.2005101442337036,
						"scenario": 0.03525068983435631,
						"move": 0.08980610966682434,
						"total": 0.20343464612960815,
						"panic": 0.04440438374876976,
						"fear": 0.20590458810329437,
						"feel": -0.04414421319961548,
						"confid": 0.07972967624664307,
						"answer": -0.04589562490582466,
						"problem": 0.015877777710556984,
						"rememb": 0.08430714160203934,
						"old": -0.09486179798841476,
						"textbook": -0.10503964126110077,
						"inspir": 0.1090802475810051,
						"made": -0.1304062008857727,
						"decis": 0.1173722967505455,
						"counter": 0.04179955646395683,
						"consid": -0.020723816007375717,
						"idea": -0.16195569932460785,
						"child": -0.03395719453692436,
						"hope": -0.17289558053016663,
						"adult": 0.14683115482330322,
						"know": 0.16253678500652313,
						"do": -0.011905018240213394,
						"chang": 0.09284485876560211,
						"recogn": -0.1746947020292282,
						"good": -0.16546416282653809,
						"impress": 0.03316139057278633,
						"short": -0.10941411554813385,
						"span": 0.046588122844696045,
						"time": 0.04023972526192665,
						"overcom": 0.05595362186431885,
						"nerv": -0.17118245363235474,
						"doubt": 0.11884741485118866,
						"successfulli": -0.12496742606163025,
						"journei": -0.03154320642352104,
						"outer": -0.15247894823551178,
						"space": -0.0023112487979233265,
						"new": 0.033325571566820145,
						"acquaint": 0.02246139757335186,
						"reli": 0.1394464373588562,
						"emot": 0.18246647715568542,
						"resourc": -0.11161048710346222,
						"persever": -0.19079427421092987,
						"posit": -0.012515709735453129,
						"contribut": 0.18389740586280823,
						"person": -0.055996377021074295,
						"fortitud": 0.0028346132021397352,
						"dad": 0.07525761425495148,
						"book": 0.136518195271492,
						"mom": 0.07778383046388626,
						"comment": 0.13638734817504883,
						"brilliant": 0.015333944000303745,
						"engin": 0.10331340879201889,
						"relationship": 0.11706677824258804,
						"occur": -0.19919335842132568,
						"past": 0.16582845151424408,
						"help": -0.14230415225028992,
						"dream": 0.14615707099437714,
						"remind": -0.08778790384531021,
						"inform": 0.09352564066648483,
						"write": -0.1714969426393509,
						"rescu": -0.1672574281692505,
						"afraid": 0.14363344013690948,
						"greatli": 0.18649055063724518,
						"event": -0.11171703040599823,
						"caus": 0.020307084545493126,
						"nightmar": 0.15017002820968628,
						"memori": -0.03426381200551987,
						"parent": -0.03431335464119911,
						"need": 0.16170541942119598,
						"situat": 0.04990741237998009,
						"initi": 0.1963828206062317,
						"repli": -0.14253033697605133,
						"show": 0.14754752814769745,
						"valid": -0.07628021389245987,
						"theori": 0.04451567307114601,
						"accept": 0.03604581952095032,
						"suggest": -0.14995621144771576,
						"start": 0.07904449105262756,
						"discuss": 0.17380063235759735,
						"solv": -0.1846596598625183,
						"found": 0.06520906090736389,
						"solut": -0.08546586334705353,
						"felt": -0.0038855010643601418,
						"proud": -0.024822911247611046,
						"share": -0.17642329633235931,
						"pair": -0.09972047805786133,
						"cheeki": 0.19530296325683594,
						"reprogram": 0.14033626019954681,
						"circuit": 0.1170906275510788,
						"panel": -0.12152408063411713,
						"1st": 0.1397612988948822,
						"acquir": -0.15896810591220856,
						"take": 0.09182697534561157,
						"action": 0.12322244793176651,
						"actual": -0.07400047779083252,
						"listen": 0.09515015780925751,
						"becam": 0.1401088386774063,
						"bad": -0.03233083710074425,
						"connect": 0.199931800365448,
						"someth": 0.10737341642379761,
						"fathr": -0.11092128604650497,
						"method": -0.13121557235717773,
						"thu": -0.026728428900241852,
						"happi": -0.038607653230428696,
						"prais": -0.18149302899837494,
						"special": 0.11486852914094925,
						"gave": -0.13462486863136292,
						"abil": 0.10358773916959763,
						"return": 0.10795462131500244,
						"research": 0.17411944270133972,
						"work": -0.13433131575584412,
						"amplifi": 0.0066391113214194775,
						"abl": 0.2009713351726532,
						"recal": -0.08981676399707794,
						"vital": -0.07429448515176773,
						"detail": -0.12961547076702118,
						"whole": 0.20514264702796936,
						"ship": -0.04999053105711937,
						"read": 0.034494806081056595,
						"have": 0.15349572896957397,
						"vision": 0.19243505597114563,
						"enough": -0.04942885786294937,
						"engag": -0.0031666557770222425,
						"alreadi": 0.16132138669490814,
						"done": -0.08605212718248367,
						"gradual": 0.1435687094926834,
						"grown": -0.013779831118881702,
						"note": -0.016243476420640945,
						"left": 0.1698199063539505,
						"behind": 0.1651712954044342,
						"grow": -0.1462811827659607,
						"current": 0.18101345002651215,
						"predica": 0.1682954579591751,
						"mention": 0.16428963840007782,
						"solenoid": 0.08036705106496811,
						"s": 0.022747157141566277,
						"solanoid": 0.1554538458585739,
						"sai": 0.06010342389345169,
						"geniu": -0.11722133308649063,
						"introduc": 0.10272776335477829,
						"cheek": -0.19705843925476074,
						"becom": 0.2027035802602768,
						"sure": -0.154638409614563,
						"herself": 0.17775040864944458,
						"realli": -0.018370524048805237,
						"voic": 0.13118976354599,
						"gain": -0.11832299083471298,
						"us": -0.12963776290416718,
						"without": 0.13441886007785797,
						"intimid": 0.05918502062559128,
						"fact": -0.17970822751522064,
						"knew": 0.11004231870174408,
						"mother": -0.013545149937272072,
						"kept": 0.13736571371555328,
						"provid": -0.05999740585684776,
						"artifici": 0.19412286579608917,
						"intellig": 0.09376214444637299,
						"robot": 0.021306438371539116,
						"confus": 0.0868210718035698,
						"paralyz": -0.13444016873836517,
						"sens": -0.1606900691986084,
						"serious": 0.1439458280801773,
						"addition": -0.0064862631261348724,
						"mai": 0.055362094193696976,
						"it": -0.10527649521827698,
						"passeng": 0.14119409024715424,
						"took": 0.016901932656764984,
						"owner": -0.0006901112501509488,
						"rare": -0.03825824707746506,
						"valuabl": -0.04657023772597313,
						"plan": -0.17376762628555298,
						"will": -0.16845427453517914,
						"develop": 0.09561268240213394,
						"grew": -0.14801692962646484,
						"so": 0.17864008247852325,
						"doe": -0.035739004611968994,
						"not": 0.0727761909365654,
						"helpless": -0.07940967381000519,
						"go": 0.13949966430664062,
						"die": -0.023753942921757698,
						"anymor": -0.06406335532665253,
						"aunt": -0.17583540081977844,
						"given": 0.09096753597259521,
						"form": 0.003981046844273806,
						"boost": 0.13363219797611237,
						"self": -0.03433358669281006,
						"esteem": -0.07011787593364716,
						"result": -0.019382234662771225,
						"scientif": 0.16116461157798767,
						"paper": 0.08192751556634903,
						"author": 0.16522791981697083,
						"due": -0.033076174557209015,
						"top": 0.09124785661697388,
						"ad": 0.018728183582425117,
						"braveri": -0.09111430495977402,
						"wrote": -0.017072491347789764,
						"daughter": 0.06448910385370255,
						"impart": 0.11068375408649445,
						"taught": 0.18777866661548615,
						"began": -0.11292833834886551,
						"onc": 0.061297472566366196,
						"everybodi": 0.15135321021080017,
						"aboard": -0.04126804694533348,
						"begin": 0.10571781545877457,
						"give": -0.18306009471416473,
						"recognit": -0.13740403950214386,
						"even": -0.04997239261865616,
						"scare": 0.11526348441839218,
						"frighten": 0.13839635252952576,
						"better": 0.02128603309392929,
						"possibl": 0.1103147491812706,
						"remedi": -0.09916062653064728,
						"thank": 0.028068039566278458,
						"studi": 0.023179735988378525,
						"nobodi": -0.05212739109992981,
						"els": -0.16500048339366913,
						"memeori": 0.05734081193804741,
						"capabl": 0.17227701842784882,
						"smart": -0.009140334092080593,
						"though": 0.024516787379980087,
						"unorthodox": 0.09933923184871674,
						"propos": -0.1892562210559845,
						"room": -0.0161692313849926,
						"increas": -0.008220666088163853,
						"innov": -0.048334792256355286,
						"crisi": -0.14963482320308685,
						"receiv": -0.0750531256198883,
						"unsur": 0.15283139050006866,
						"enter": -0.14382584393024445,
						"right": -0.13500240445137024,
						"thing": -0.07108138501644135,
						"reassur": 0.04121838137507439,
						"regard": -0.15567517280578613,
						"real": -0.05357284098863602,
						"option": 0.10292591154575348,
						"lend": -0.03618920221924782,
						"great": 0.06237908452749252,
						"man": 0.05244288593530655,
						"believ": -0.10760316997766495,
						"fate": 0.15418541431427002,
						"higher": -0.10043903440237045,
						"coupl": 0.16622595489025116,
						"back": -0.18476934731006622,
						"order": 0.08442038297653198,
						"notic": -0.175972580909729,
						"no": 0.11002261191606522,
						"longer": -0.025944402441382408,
						"nervou": -0.17239783704280853,
						"come": -0.022292571142315865,
						"close": -0.0608312226831913,
						"challeng": 0.14476138353347778,
						"face": 0.030239790678024292,
						"saw": 0.13648292422294617,
						"pai": 0.16252478957176208,
						"attent": 0.13670745491981506,
						"introduct": -0.09276445209980011,
						"probabl": 0.046530187129974365,
						"trigger": 0.06471775472164154,
						"suddenli": -0.01636769063770771,
						"look": 0.13265852630138397,
						"admir": -0.10116996616125107,
						"float": 0.014835427515208721,
						"off": -0.11077745258808136,
						"technolog": 0.023971552029252052,
						"advanc": -0.08994033187627792,
						"recit": -0.13812576234340668,
						"shown": 0.09585877507925034,
						"interest": -0.0705699548125267,
						"encourag": 0.05412861332297325,
						"di": 0.1877252757549286,
						"lost": -0.18219757080078125,
						"purpos": -0.15760238468647003,
						"tool": -0.20025727152824402,
						"own": -0.14194265007972717,
						"appar": -0.07520995289087296,
						"scienc": 0.08609170466661453,
						"whiz": -0.14690867066383362,
						"understand": 0.146965891122818,
						"spaceship": 0.146450936794281,
						"onboard": -0.14383144676685333,
						"includ": -0.16628623008728027,
						"t": -0.09550977498292923,
						"crew": -0.027419568970799446,
						"mean": -0.17220354080200195,
						"appli": 0.19054380059242249,
						"stronger": 0.06650497764348984,
						"moment": 0.023783884942531586,
						"process": -0.10541165620088577,
						"led": 0.13679365813732147,
						"journal": 0.12110437452793121,
						"travel": -0.13450287282466888,
						"reaction": -0.16403231024742126,
						"relat": 0.10595940053462982,
						"pick": 0.15167421102523804,
						"chunk": 0.1319907158613205,
						"sourc": 0.12199300527572632,
						"happen": -0.011239316314458847
					}
				},
				"2": {
					"bias": -0.19299276173114777,
					"weights": {
						"1": 0.13311798870563507,
						"think": 0.11700873076915741,
						"when": 0.022124644368886948,
						"shiranna": 0.1104964017868042,
						"realiz": -0.021168062463402748,
						"she": 0.08826365321874619,
						"knowledg": -0.11474846303462982,
						"save": -0.1658843457698822,
						"everyon": -0.12789012491703033,
						"just": 0.10656541585922241,
						"shift": -0.09673307836055756,
						"overdr": -0.1666945517063141,
						"drew": -0.04342851787805557,
						"upon": 0.12214880436658859,
						"learn": 0.015580662526190281,
						"father": 0.0977066233754158,
						"entir": -0.13019874691963196,
						"life": 0.1126040369272232,
						"fight": -0.012038500979542732,
						"flight": 0.08005817234516144,
						"scenario": 0.0775308609008789,
						"move": 0.010964137502014637,
						"total": 0.17488157749176025,
						"panic": 0.07867289334535599,
						"fear": -0.17645950615406036,
						"feel": 0.16111409664154053,
						"confid": 0.04198366403579712,
						"answer": -0.1627098172903061,
						"problem": 0.039855144917964935,
						"rememb": -0.010333213955163956,
						"old": 0.15028783679008484,
						"textbook": 0.09056436270475388,
						"inspir": 0.08366474509239197,
						"made": -0.1806560456752777,
						"decis": -0.18258239328861237,
						"counter": 0.06559761613607407,
						"consid": 0.13495928049087524,
						"idea": -0.13838855922222137,
						"child": -0.005889232270419598,
						"hope": 0.20115064084529877,
						"adult": 0.009507318027317524,
						"know": -0.0978044867515564,
						"do": -0.15374311804771423,
						"chang": 0.1566251814365387,
						"recogn": 0.0769328698515892,
						"good": -0.14668020606040955,
						"impress": -0.09528452157974243,
						"short": -0.08548770844936371,
						"span": -0.01666932739317417,
						"time": -0.1827339380979538,
						"overcom": 0.09931597113609314,
						"nerv": 0.04296093434095383,
						"doubt": -0.12429378181695938,
						"successfulli": -0.10719393193721771,
						"journei": 0.20059673488140106,
						"outer": 0.022897960618138313,
						"space": -0.027884062379598618,
						"new": 0.06557808071374893,
						"acquaint": 0.06655380874872208,
						"reli": -0.031933460384607315,
						"emot": -0.04173799231648445,
						"resourc": 0.01999565027654171,
						"persever": 0.08276277035474777,
						"posit": -0.009337945841252804,
						"contribut": 0.1344929337501526,
						"person": -0.17859245836734772,
						"fortitud": 0.1905306726694107,
						"dad": -0.13750576972961426,
						"book": 0.010467133484780788,
						"mom": -0.19740015268325806,
						"comment": -0.04903358966112137,
						"brilliant": -0.20144104957580566,
						"engin": 0.15005232393741608,
						"relationship": -0.07625104486942291,
						"occur": 0.07777412235736847,
						"past": -0.14265190064907074,
						"help": 0.1627725213766098,
						"dream": 0.13599874079227448,
						"remind": -0.10947389900684357,
						"inform": 0.1673561930656433,
						"write": -0.11097732931375504,
						"rescu": 0.08613939583301544,
						"afraid": -0.16306844353675842,
						"greatli": -0.020939912647008896,
						"event": -0.07767187803983688,
						"caus": 0.1288532316684723,
						"nightmar": 0.13372240960597992,
						"memori": -0.14991503953933716,
						"parent": -0.04669972136616707,
						"need": 0.09746833890676498,
						"situat": -0.1453673541545868,
						"initi": 0.0659933090209961,
						"repli": 0.032820925116539,
						"show": -0.10457096248865128,
						"valid": 0.1367628127336502,
						"theori": 0.190767303109169,
						"accept": 0.05360332876443863,
						"suggest": -0.10537097603082657,
						"start": -0.02765963412821293,
						"discuss": -0.10789015144109726,
						"solv": 0.00023181184951681644,
						"found": 0.16859152913093567,
						"solut": -0.1215217262506485,
						"felt": 0.17566357553005219,
						"proud": -0.19100479781627655,
						"share": 0.15080952644348145,
						"pair": -0.053145937621593475,
						"cheeki": 0.18782413005828857,
						"reprogram": 0.0766477957367897,
						"circuit": 0.18979042768478394,
						"panel": -0.1862151324748993,
						"1st": 0.04632117226719856,
						"acquir": 0.05252151936292648,
						"take": 0.16891436278820038,
						"action": 0.03218340873718262,
						"actual": 0.016614345833659172,
						"listen": -0.008709350600838661,
						"becam": -0.02043953910470009,
						"bad": -0.051454588770866394,
						"connect": -0.0003109460521955043,
						"someth": 0.039908524602651596,
						"fathr": -0.06843892484903336,
						"method": -0.016786864027380943,
						"thu": 0.19780896604061127,
						"happi": 0.16104227304458618,
						"prais": 0.10179205983877182,
						"special": 0.00735324714332819,
						"gave": -0.08651954680681229,
						"abil": -0.168227881193161,
						"return": -0.10053963214159012,
						"research": 0.13858464360237122,
						"work": -0.09905242919921875,
						"amplifi": -0.11445001512765884,
						"abl": 0.14411066472530365,
						"recal": 0.11853764951229095,
						"vital": -0.17795176804065704,
						"detail": -0.09970271587371826,
						"whole": -0.0953458622097969,
						"ship": 0.20538045465946198,
						"read": -0.1290011703968048,
						"have": 0.12070581316947937,
						"vision": 0.12460917234420776,
						"enough": -0.11244431138038635,
						"engag": -0.17134912312030792,
						"alreadi": -0.047329775989055634,
						"done": 0.008181077428162098,
						"gradual": -0.09622520208358765,
						"grown": 0.09352217614650726,
						"note": 0.01655464433133602,
						"left": 0.0021986165083944798,
						"behind": 0.012867934070527554,
						"grow": 0.011677179485559464,
						"current": -0.15543736517429352,
						"predica": 0.0057807015255093575,
						"mention": -0.1083599254488945,
						"solenoid": -0.05223807692527771,
						"s": 0.1650143265724182,
						"solanoid": -0.06775017827749252,
						"sai": -0.057427335530519485,
						"geniu": 0.1398019790649414,
						"introduc": 0.0986361876130104,
						"cheek": 0.12530802190303802,
						"becom": -0.07926207035779953,
						"sure": 0.1828600913286209,
						"herself": -0.09304431080818176,
						"realli": -0.08423173427581787,
						"voic": 0.11547722667455673,
						"gain": -0.08157216012477875,
						"us": 0.20302918553352356,
						"without": -0.12477713823318481,
						"intimid": -0.17745794355869293,
						"fact": 0.09671429544687271,
						"knew": 0.04624497517943382,
						"mother": -0.03303555026650429,
						"kept": 0.10951805114746094,
						"provid": 0.09972837567329407,
						"artifici": 0.14873334765434265,
						"intellig": -0.1611458659172058,
						"robot": -0.1820649355649948,
						"confus": -0.028374267742037773,
						"paralyz": -0.03557034209370613,
						"sens": 0.15931306779384613,
						"serious": 0.020946895703673363,
						"addition": -0.04566316306591034,
						"mai": 0.06547164916992188,
						"it": 0.1514853984117508,
						"passeng": -0.09889793395996094,
						"took": 0.18726012110710144,
						"owner": -0.04415556415915489,
						"rare": -0.050840314477682114,
						"valuabl": -0.08794061839580536,
						"plan": -0.05917232111096382,
						"will": 0.006563513074070215,
						"develop": 0.08618971705436707,
						"grew": -0.17737296223640442,
						"so": 0.07147495448589325,
						"doe": 0.097512386739254,
						"not": 0.0574532113969326,
						"helpless": 0.03574974089860916,
						"go": 0.16972574591636658,
						"die": 0.0021252892911434174,
						"anymor": -0.0101668955758214,
						"aunt": -0.16228383779525757,
						"given": 0.15566080808639526,
						"form": 0.06775449216365814,
						"boost": -0.041460223495960236,
						"self": -0.19374461472034454,
						"esteem": -0.05170353874564171,
						"result": -0.03678512945771217,
						"scientif": -0.07852053642272949,
						"paper": -0.006680263672024012,
						"author": -0.05821092426776886,
						"due": 0.04313722997903824,
						"top": -0.016611436381936073,
						"ad": -0.13676662743091583,
						"braveri": 0.0221670214086771,
						"wrote": 0.016702944412827492,
						"daughter": -0.08910287916660309,
						"impart": 0.04773038253188133,
						"taught": 0.008890784345567226,
						"began": 0.1108737513422966,
						"onc": 0.03424043953418732,
						"everybodi": 0.015243114903569221,
						"aboard": -0.0771029070019722,
						"begin": 0.16411548852920532,
						"give": 0.13872411847114563,
						"recognit": 0.1564304381608963,
						"even": 0.0008894689381122589,
						"scare": 0.1443859040737152,
						"frighten": 0.04879624396562576,
						"better": 0.016416534781455994,
						"possibl": 0.02077263779938221,
						"remedi": 0.04800213873386383,
						"thank": -0.0030928105115890503,
						"studi": -0.15704184770584106,
						"nobodi": 0.0684528648853302,
						"els": -0.14483973383903503,
						"memeori": -0.0594232976436615,
						"capabl": 0.12847420573234558,
						"smart": -0.0809808224439621,
						"though": 0.12242190539836884,
						"unorthodox": 0.07132884114980698,
						"propos": -0.044050201773643494,
						"room": 0.04160865396261215,
						"increas": -0.16777868568897247,
						"innov": -0.03749523311853409,
						"crisi": -0.09341630339622498,
						"receiv": -0.1601322889328003,
						"unsur": -0.04913797229528427,
						"enter": 0.18088699877262115,
						"right": -0.14978259801864624,
						"thing": 0.19462355971336365,
						"reassur": -0.010961607098579407,
						"regard": 0.07582838833332062,
						"real": 0.14793846011161804,
						"option": -0.008359146304428577,
						"lend": 0.16035912930965424,
						"great": 0.06442524492740631,
						"man": -0.09659267216920853,
						"believ": -0.08433014154434204,
						"fate": -0.03787565976381302,
						"higher": 0.15300996601581573,
						"coupl": 0.1890486627817154,
						"back": 0.1596866250038147,
						"order": 0.0330452062189579,
						"notic": 0.19014684855937958,
						"no": 0.1880818009376526,
						"longer": -0.014123417437076569,
						"nervou": -0.18124766647815704,
						"come": -0.1822645217180252,
						"close": -0.014652119018137455,
						"challeng": -0.051940448582172394,
						"face": -0.20113377273082733,
						"saw": 0.18869014084339142,
						"pai": 0.13324740529060364,
						"attent": 0.17797978222370148,
						"introduct": -0.16613706946372986,
						"probabl": 0.019132021814584732,
						"trigger": -0.09804600477218628,
						"suddenli": -0.021569203585386276,
						"look": 0.016893232241272926,
						"admir": -0.09916609525680542,
						"float": 0.10691109299659729,
						"off": 0.13947021961212158,
						"technolog": 0.06872992217540741,
						"advanc": -0.02364545315504074,
						"recit": 0.09628032147884369,
						"shown": -0.11379946023225784,
						"interest": 0.14950568974018097,
						"encourag": 0.0935668870806694,
						"di": -0.04280736297369003,
						"lost": 0.08272204548120499,
						"purpos": -0.1344004124403,
						"tool": 0.16880573332309723,
						"own": -0.17127113044261932,
						"appar": 0.08408743888139725,
						"scienc": 0.07637552917003632,
						"whiz": -0.15966640412807465,
						"understand": -0.022011777386069298,
						"spaceship": 0.009812122210860252,
						"onboard": 0.12243882566690445,
						"includ": 0.013270625844597816,
						"t": 0.04460204392671585,
						"crew": 0.10130082815885544,
						"mean": 0.040883902460336685,
						"appli": -0.17284582555294037,
						"stronger": -0.11818742007017136,
						"moment": 0.0016181599348783493,
						"process": 0.04772377759218216,
						"led": -0.0946790874004364,
						"journal": -0.1315714418888092,
						"travel": -0.005586685612797737,
						"reaction": 0.11886280030012131,
						"relat": -0.1330307126045227,
						"pick": -0.1936260610818863,
						"chunk": -0.1751289665699005,
						"sourc": -0.02802969329059124,
						"happen": 0.027138670906424522
					}
				},
				"3": {
					"bias": -0.1330450028181076,
					"weights": {
						"1": -0.03900692239403725,
						"think": 0.07101570814847946,
						"when": 0.1318623125553131,
						"shiranna": 0.1602896749973297,
						"realiz": 0.02371472865343094,
						"she": -0.033850982785224915,
						"knowledg": -0.006339421030133963,
						"save": 0.0244032833725214,
						"everyon": 0.09114740043878555,
						"just": -0.04845995455980301,
						"shift": 0.01734730415046215,
						"overdr": 0.09189344942569733,
						"drew": -0.16042838990688324,
						"upon": -0.18953995406627655,
						"learn": 0.18857236206531525,
						"father": 0.16969048976898193,
						"entir": 0.009232361800968647,
						"life": 0.16354690492153168,
						"fight": 0.12250503152608871,
						"flight": 0.04282670468091965,
						"scenario": 0.07677630335092545,
						"move": -0.1702197641134262,
						"total": -0.16440226137638092,
						"panic": 0.07834115624427795,
						"fear": -0.13222600519657135,
						"feel": -0.1687694787979126,
						"confid": 0.028232146054506302,
						"answer": 0.18543091416358948,
						"problem": 0.03501804918050766,
						"rememb": -0.21404999494552612,
						"old": 0.17787174880504608,
						"textbook": 0.02231183648109436,
						"inspir": 0.0123156001791358,
						"made": -0.18229630589485168,
						"decis": -0.08733311295509338,
						"counter": -0.16810059547424316,
						"consid": -0.18935035169124603,
						"idea": 0.01756034605205059,
						"child": 0.026676403358578682,
						"hope": -0.07788483053445816,
						"adult": -0.03982701897621155,
						"know": 0.11510243266820908,
						"do": 0.14915521442890167,
						"chang": 0.17082110047340393,
						"recogn": -0.12562035024166107,
						"good": -0.2114482969045639,
						"impress": -0.1418585628271103,
						"short": 0.026170985773205757,
						"span": -0.018127501010894775,
						"time": 0.15011318027973175,
						"overcom": 0.14439618587493896,
						"nerv": 0.015591065399348736,
						"doubt": 0.04779019579291344,
						"successfulli": -0.032671283930540085,
						"journei": -0.13711395859718323,
						"outer": -0.10577350854873657,
						"space": -0.12624645233154297,
						"new": -0.15711939334869385,
						"acquaint": 0.15467162430286407,
						"reli": -0.10556264221668243,
						"emot": -0.12395064532756805,
						"resourc": 0.15060363709926605,
						"persever": 0.19286108016967773,
						"posit": -0.13267837464809418,
						"contribut": -0.07230507582426071,
						"person": -0.16219443082809448,
						"fortitud": 0.016114739701151848,
						"dad": 0.046462830156087875,
						"book": -0.13581658899784088,
						"mom": -0.10375284403562546,
						"comment": 0.05942600220441818,
						"brilliant": -0.07719395309686661,
						"engin": 0.12969039380550385,
						"relationship": 0.15591846406459808,
						"occur": 0.053539108484983444,
						"past": 0.06173684075474739,
						"help": 0.02336033806204796,
						"dream": 0.13664934039115906,
						"remind": 0.14766021072864532,
						"inform": -0.18581774830818176,
						"write": -0.02599584311246872,
						"rescu": 0.1464940309524536,
						"afraid": 0.19644923508167267,
						"greatli": -0.11259004473686218,
						"event": -0.14453493058681488,
						"caus": -0.1336192935705185,
						"nightmar": 0.018224593251943588,
						"memori": -0.07125619053840637,
						"parent": 0.10121927410364151,
						"need": -0.10894801467657089,
						"situat": 0.032361868768930435,
						"initi": -0.11164604872465134,
						"repli": -0.07455623149871826,
						"show": 0.17753443121910095,
						"valid": -0.14949902892112732,
						"theori": 0.04920339211821556,
						"accept": -0.16036199033260345,
						"suggest": 0.15446588397026062,
						"start": 0.0023075342178344727,
						"discuss": -0.2013501077890396,
						"solv": 0.11416561901569366,
						"found": -0.12237891554832458,
						"solut": 0.07969171553850174,
						"felt": 0.0494886189699173,
						"proud": 0.02434798888862133,
						"share": 0.1019795760512352,
						"pair": -0.08579416573047638,
						"cheeki": 0.1453503668308258,
						"reprogram": 0.030235692858695984,
						"circuit": -0.13022683560848236,
						"panel": -0.008742643520236015,
						"1st": 0.00891880039125681,
						"acquir": -0.18410101532936096,
						"take": 0.1674387902021408,
						"action": -0.10313873738050461,
						"actual": 0.060119763016700745,
						"listen": 0.004493304993957281,
						"becam": 0.17637848854064941,
						"bad": -0.1948201060295105,
						"connect": -0.10981979221105576,
						"someth": -0.05638075992465019,
						"fathr": -0.1766979694366455,
						"method": -0.14326466619968414,
						"thu": -0.10356631875038147,
						"happi": -0.004298683721572161,
						"prais": -0.13009145855903625,
						"special": 0.07552403211593628,
						"gave": 0.17864641547203064,
						"abil": -0.015965865924954414,
						"return": 0.1048036590218544,
						"research": -0.04141019657254219,
						"work": 0.11003793030977249,
						"amplifi": -0.11262526363134384,
						"abl": -0.14227375388145447,
						"recal": -0.09988849610090256,
						"vital": 0.014962953515350819,
						"detail": 0.03964290767908096,
						"whole": 0.13425466418266296,
						"ship": -0.015428495593369007,
						"read": 0.0980110839009285,
						"have": -0.16759784519672394,
						"vision": 0.1776307225227356,
						"enough": 0.0380881242454052,
						"engag": 0.10692480206489563,
						"alreadi": 0.10241246968507767,
						"done": 0.027521999552845955,
						"gradual": 0.12626314163208008,
						"grown": -0.12597183883190155,
						"note": 0.052886489778757095,
						"left": -0.04962878301739693,
						"behind": 0.057005804032087326,
						"grow": 0.14356453716754913,
						"current": -0.09489315748214722,
						"predica": -0.09189485013484955,
						"mention": -0.04517960920929909,
						"solenoid": -0.1229933649301529,
						"s": -0.1856820434331894,
						"solanoid": 0.08338508009910583,
						"sai": -0.049103427678346634,
						"geniu": 0.10061065107584,
						"introduc": 0.07003718614578247,
						"cheek": 0.16796022653579712,
						"becom": 0.0931641012430191,
						"sure": 0.17727552354335785,
						"herself": 0.014433428645133972,
						"realli": 0.11582828313112259,
						"voic": 0.0019994929898530245,
						"gain": 0.16881871223449707,
						"us": -0.06818950176239014,
						"without": -0.05858956277370453,
						"intimid": 0.13540233671665192,
						"fact": -0.14757753908634186,
						"knew": -0.13826365768909454,
						"mother": 0.0888676866889,
						"kept": -0.12051226943731308,
						"provid": 0.027607828378677368,
						"artifici": -0.13953402638435364,
						"intellig": -0.007519271690398455,
						"robot": -0.06631121784448624,
						"confus": 0.1490040123462677,
						"paralyz": -0.03774993121623993,
						"sens": -0.009270752780139446,
						"serious": -0.0037632661405950785,
						"addition": -0.05191667750477791,
						"mai": -0.13082490861415863,
						"it": 0.1926366686820984,
						"passeng": 0.055584002286195755,
						"took": -0.02893449179828167,
						"owner": -0.03200969099998474,
						"rare": -0.12473881244659424,
						"valuabl": 0.03083694353699684,
						"plan": -0.015248582698404789,
						"will": 0.06018465757369995,
						"develop": -0.1575419157743454,
						"grew": 0.00451694568619132,
						"so": -0.026674887165427208,
						"doe": 0.025060752406716347,
						"not": -0.07713466882705688,
						"helpless": 0.013295509852468967,
						"go": -0.1503266543149948,
						"die": -0.18678805232048035,
						"anymor": -0.0023787259124219418,
						"aunt": 0.03014405257999897,
						"given": 0.18941068649291992,
						"form": -0.13821999728679657,
						"boost": -0.028986286371946335,
						"self": -0.08002535253763199,
						"esteem": -0.12764491140842438,
						"result": -0.022390423342585564,
						"scientif": 0.12131107598543167,
						"paper": 0.02810547687113285,
						"author": 0.15998955070972443,
						"due": 0.06645940989255905,
						"top": 0.09703855961561203,
						"ad": 0.12901978194713593,
						"braveri": 0.1537889987230301,
						"wrote": 0.028081031516194344,
						"daughter": 0.11782894283533096,
						"impart": -0.10455407202243805,
						"taught": -0.012212499976158142,
						"began": 0.17629863321781158,
						"onc": -0.02792542427778244,
						"everybodi": 0.08084477484226227,
						"aboard": 0.10628760606050491,
						"begin": 0.07969872653484344,
						"give": -0.07426078617572784,
						"recognit": 0.1471417248249054,
						"even": 0.08244787156581879,
						"scare": -0.04986443370580673,
						"frighten": 0.010546918958425522,
						"better": 0.0051884884014725685,
						"possibl": 0.07839139550924301,
						"remedi": 0.13831371068954468,
						"thank": -0.11108958721160889,
						"studi": -0.15635450184345245,
						"nobodi": 0.027131473645567894,
						"els": 0.07316133379936218,
						"memeori": -0.1508374959230423,
						"capabl": -0.17739886045455933,
						"smart": -0.043359238654375076,
						"though": -0.18259789049625397,
						"unorthodox": -0.18612068891525269,
						"propos": -0.04631775990128517,
						"room": -0.029769644141197205,
						"increas": 0.01357811875641346,
						"innov": 0.08552101999521255,
						"crisi": -0.0232559684664011,
						"receiv": 0.07855848222970963,
						"unsur": 0.024417497217655182,
						"enter": -0.07900824397802353,
						"right": -0.13715916872024536,
						"thing": 0.1074945256114006,
						"reassur": 0.06615626066923141,
						"regard": -0.09348569810390472,
						"real": 0.021509230136871338,
						"option": 0.12296392768621445,
						"lend": 0.1359262466430664,
						"great": 0.09196336567401886,
						"man": -0.02607690542936325,
						"believ": 0.023398548364639282,
						"fate": -0.1938401758670807,
						"higher": -0.06690753251314163,
						"coupl": 0.0023808691184967756,
						"back": 0.006809052545577288,
						"order": 0.17864783108234406,
						"notic": -0.12836933135986328,
						"no": 0.09277023375034332,
						"longer": -0.08775624632835388,
						"nervou": -0.005968804471194744,
						"come": -0.03748568519949913,
						"close": 0.14910058677196503,
						"challeng": 0.0802903100848198,
						"face": 0.03852671757340431,
						"saw": -0.03756352886557579,
						"pai": 0.02996017597615719,
						"attent": -0.17498469352722168,
						"introduct": -0.0682903304696083,
						"probabl": 0.11575242877006531,
						"trigger": 0.027477335184812546,
						"suddenli": 0.049285970628261566,
						"look": -0.037489160895347595,
						"admir": -0.028814135119318962,
						"float": 0.157781720161438,
						"off": -0.16059163212776184,
						"technolog": -0.11348126828670502,
						"advanc": 0.1110825464129448,
						"recit": -0.1369352787733078,
						"shown": -0.067916639149189,
						"interest": -0.15122219920158386,
						"encourag": -0.08506263792514801,
						"di": -0.030057961121201515,
						"lost": 0.07891155034303665,
						"purpos": 0.18041209876537323,
						"tool": -0.013563412241637707,
						"own": -0.1321009248495102,
						"appar": 0.17089471220970154,
						"scienc": -0.17840716242790222,
						"whiz": -0.04583371803164482,
						"understand": -0.13681727647781372,
						"spaceship": -0.11173202097415924,
						"onboard": 0.12965019047260284,
						"includ": 0.04418051242828369,
						"t": -0.11689340323209763,
						"crew": -0.14542578160762787,
						"mean": -0.01968838833272457,
						"appli": -0.2002258598804474,
						"stronger": 0.15097090601921082,
						"moment": 0.0016768105560913682,
						"process": 0.02465140074491501,
						"led": 0.03228376805782318,
						"journal": -0.13805361092090607,
						"travel": -0.10482731461524963,
						"reaction": -0.13429482281208038,
						"relat": 0.15507976710796356,
						"pick": 0.03408593311905861,
						"chunk": -0.0019880933687090874,
						"sourc": 0.007464133203029633,
						"happen": -0.18213999271392822
					}
				},
				"4": {
					"bias": 0.1490594744682312,
					"weights": {
						"1": -0.1909186840057373,
						"think": -0.16352897882461548,
						"when": -0.12029903382062912,
						"shiranna": 0.1255672723054886,
						"realiz": -0.07064641267061234,
						"she": 0.05591495335102081,
						"knowledg": -0.0050303759053349495,
						"save": -0.011666840873658657,
						"everyon": -0.017163367941975594,
						"just": 0.13627827167510986,
						"shift": -0.15010178089141846,
						"overdr": -0.021157925948500633,
						"drew": 0.1184149906039238,
						"upon": -0.11598736047744751,
						"learn": -0.052572961896657944,
						"father": -0.2016969919204712,
						"entir": 0.135965034365654,
						"life": 0.04445156082510948,
						"fight": -0.03243747726082802,
						"flight": 0.05391393229365349,
						"scenario": 0.09320308268070221,
						"move": 0.1290050745010376,
						"total": -0.023515921086072922,
						"panic": 0.06366614252328873,
						"fear": -0.12411008030176163,
						"feel": -0.1557316929101944,
						"confid": 0.1387094408273697,
						"answer": -0.031962279230356216,
						"problem": -0.14718009531497955,
						"rememb": -0.08067082613706589,
						"old": -0.16201183199882507,
						"textbook": -0.09138866513967514,
						"inspir": 0.030294794589281082,
						"made": 0.12119908630847931,
						"decis": -0.14949540793895721,
						"counter": 0.14323315024375916,
						"consid": -0.15125389397144318,
						"idea": -0.11392279714345932,
						"child": -0.08480249345302582,
						"hope": 0.1493021547794342,
						"adult": -0.17015454173088074,
						"know": 0.15246205031871796,
						"do": 0.016589412465691566,
						"chang": -0.027914468199014664,
						"recogn": 0.016523048281669617,
						"good": 0.05290335416793823,
						"impress": -0.18859010934829712,
						"short": 0.17535369098186493,
						"span": -0.02816142700612545,
						"time": -0.025973448529839516,
						"overcom": -0.041908059269189835,
						"nerv": -0.11378335952758789,
						"doubt": -0.15303000807762146,
						"successfulli": 0.1957065314054489,
						"journei": -0.10196118801832199,
						"outer": 0.009464642032980919,
						"space": -0.13533253967761993,
						"new": 0.06847459077835083,
						"acquaint": -0.18977610766887665,
						"reli": -0.15330466628074646,
						"emot": -0.015677934512495995,
						"resourc": -0.16435565054416656,
						"persever": -0.010484384372830391,
						"posit": 0.10019779950380325,
						"contribut": -0.018601277843117714,
						"person": -0.13132938742637634,
						"fortitud": -0.01070812065154314,
						"dad": -0.02000374160706997,
						"book": -0.1578916609287262,
						"mom": -0.04685063660144806,
						"comment": -0.14991910755634308,
						"brilliant": -0.11487314850091934,
						"engin": 0.08794795721769333,
						"relationship": 0.15027591586112976,
						"occur": -0.07653864473104477,
						"past": -0.05216774344444275,
						"help": 0.03014214150607586,
						"dream": 0.04556724429130554,
						"remind": 0.1833888441324234,
						"inform": -0.06725842505693436,
						"write": -0.18416975438594818,
						"rescu": -0.053224220871925354,
						"afraid": -0.06550713628530502,
						"greatli": -0.037100132554769516,
						"event": -0.03962884843349457,
						"caus": 0.05470133200287819,
						"nightmar": 0.0951654240489006,
						"memori": 0.020677611231803894,
						"parent": 0.13246415555477142,
						"need": 0.04362182691693306,
						"situat": -0.08494780957698822,
						"initi": -0.13942290842533112,
						"repli": -0.005360734649002552,
						"show": 0.024135641753673553,
						"valid": -0.08948296308517456,
						"theori": 0.06081564724445343,
						"accept": 0.063053660094738,
						"suggest": 0.16249071061611176,
						"start": 0.015254206955432892,
						"discuss": 0.005663401912897825,
						"solv": -0.11532998830080032,
						"found": -0.05158209800720215,
						"solut": 0.028726281598210335,
						"felt": -0.14144468307495117,
						"proud": -0.057754360139369965,
						"share": -0.13595432043075562,
						"pair": -0.1023717150092125,
						"cheeki": 0.0385061614215374,
						"reprogram": -0.16803915798664093,
						"circuit": -0.19957605004310608,
						"panel": 0.14058493077754974,
						"1st": -0.08705462515354156,
						"acquir": 0.19712908565998077,
						"take": 0.0016591445310041308,
						"action": -0.1772211343050003,
						"actual": -0.07973389327526093,
						"listen": 0.1855858564376831,
						"becam": 0.039905402809381485,
						"bad": -0.10919858515262604,
						"connect": -0.04939168691635132,
						"someth": 0.19017969071865082,
						"fathr": -0.14972235262393951,
						"method": -0.17184749245643616,
						"thu": -0.1122894287109375,
						"happi": 0.0031697400845587254,
						"prais": -0.1956602931022644,
						"special": 0.12433518469333649,
						"gave": 0.07150832563638687,
						"abil": -0.06784156709909439,
						"return": 0.0636363998055458,
						"research": -0.05153125897049904,
						"work": 0.07465782016515732,
						"amplifi": -0.18134593963623047,
						"abl": 0.011421610601246357,
						"recal": 0.09520214796066284,
						"vital": 0.014033038169145584,
						"detail": -0.09511039406061172,
						"whole": 0.13399380445480347,
						"ship": -0.13586196303367615,
						"read": 0.14593271911144257,
						"have": -0.03388700261712074,
						"vision": 0.1296074092388153,
						"enough": -0.12089608609676361,
						"engag": 0.06535381078720093,
						"alreadi": 0.1832539588212967,
						"done": 0.11857505142688751,
						"gradual": 0.18837402760982513,
						"grown": 0.0873417779803276,
						"note": 0.1814960539340973,
						"left": -0.0012718553189188242,
						"behind": -0.16935253143310547,
						"grow": -0.17022070288658142,
						"current": -0.18576481938362122,
						"predica": 0.0007351253880187869,
						"mention": -0.006533266510814428,
						"solenoid": -0.008980345912277699,
						"s": 0.15419262647628784,
						"solanoid": 0.0722353383898735,
						"sai": 0.15251889824867249,
						"geniu": -0.06339152157306671,
						"introduc": 0.12125696241855621,
						"cheek": -0.018494535237550735,
						"becom": 0.10795232653617859,
						"sure": -0.06052137166261673,
						"herself": 0.08734405040740967,
						"realli": -0.06659077107906342,
						"voic": 0.1641884744167328,
						"gain": -0.04236781597137451,
						"us": 0.07538122683763504,
						"without": 0.024923650547862053,
						"intimid": -0.18876336514949799,
						"fact": 0.18405890464782715,
						"knew": 0.04775402322411537,
						"mother": 0.1695747822523117,
						"kept": 0.11409883201122284,
						"provid": 0.10941082239151001,
						"artifici": -0.08310343325138092,
						"intellig": 0.11502551287412643,
						"robot": -0.010958614759147167,
						"confus": 0.11175810545682907,
						"paralyz": -0.0628838762640953,
						"sens": -0.06967662274837494,
						"serious": 0.07647091150283813,
						"addition": -0.10422070324420929,
						"mai": 0.05869005247950554,
						"it": 0.15195217728614807,
						"passeng": 0.00028612371534109116,
						"took": -0.01133797038346529,
						"owner": 0.017072482034564018,
						"rare": 0.17898261547088623,
						"valuabl": 0.15005870163440704,
						"plan": 0.19357940554618835,
						"will": -0.05037742108106613,
						"develop": 0.19188009202480316,
						"grew": -0.10827115178108215,
						"so": 0.1854153275489807,
						"doe": 0.02332969941198826,
						"not": 0.04141160100698471,
						"helpless": -0.003061746247112751,
						"go": 0.003798470599576831,
						"die": 0.017088787630200386,
						"anymor": -0.02940741553902626,
						"aunt": 0.03490963578224182,
						"given": 0.08806761354207993,
						"form": 0.14556878805160522,
						"boost": 0.013851279392838478,
						"self": 0.1571352183818817,
						"esteem": -0.08189889043569565,
						"result": 0.008605154231190681,
						"scientif": -0.18071432411670685,
						"paper": 0.17412498593330383,
						"author": 0.07027359306812286,
						"due": 0.19229483604431152,
						"top": 0.12266795337200165,
						"ad": 0.008364439941942692,
						"braveri": 0.005239429883658886,
						"wrote": 0.012936065904796124,
						"daughter": 0.13779619336128235,
						"impart": 0.10076742619276047,
						"taught": -0.11219944804906845,
						"began": 0.06820964813232422,
						"onc": -0.19081231951713562,
						"everybodi": 0.06669139862060547,
						"aboard": 0.17446178197860718,
						"begin": -0.12472332268953323,
						"give": 0.12096690386533737,
						"recognit": 0.05538018047809601,
						"even": 0.1978446990251541,
						"scare": -0.06861182302236557,
						"frighten": -0.055180054157972336,
						"better": -0.13853515684604645,
						"possibl": 0.03790989890694618,
						"remedi": 0.12013699114322662,
						"thank": -0.1554059088230133,
						"studi": 0.0633186399936676,
						"nobodi": 0.08817271888256073,
						"els": -0.09215935319662094,
						"memeori": 0.08336210995912552,
						"capabl": -0.0973740816116333,
						"smart": 0.010167713277041912,
						"though": 0.030560331419110298,
						"unorthodox": -0.09159951657056808,
						"propos": 0.18794360756874084,
						"room": 0.06069348752498627,
						"increas": 0.014284281991422176,
						"innov": 0.14376753568649292,
						"crisi": 0.14718201756477356,
						"receiv": 0.008062614127993584,
						"unsur": -0.07797205448150635,
						"enter": 0.1241818517446518,
						"right": -0.05323313921689987,
						"thing": -0.008303319104015827,
						"reassur": 0.13948260247707367,
						"regard": 0.09533491730690002,
						"real": 0.18522170186042786,
						"option": 0.06076647341251373,
						"lend": -0.04801755025982857,
						"great": 0.12827017903327942,
						"man": -0.14300429821014404,
						"believ": 0.19745095074176788,
						"fate": -0.16696199774742126,
						"higher": -0.18623824417591095,
						"coupl": 0.15333771705627441,
						"back": 0.010907711461186409,
						"order": -0.01858268864452839,
						"notic": 0.14776340126991272,
						"no": -0.11707693338394165,
						"longer": 0.11985301971435547,
						"nervou": 0.09210071712732315,
						"come": 0.1680823564529419,
						"close": -0.13449299335479736,
						"challeng": -0.14740316569805145,
						"face": -0.09916923195123672,
						"saw": 0.05177432671189308,
						"pai": 0.17668578028678894,
						"attent": 0.045398980379104614,
						"introduct": 0.08437413722276688,
						"probabl": 0.17235057055950165,
						"trigger": 0.17757485806941986,
						"suddenli": 0.1143026277422905,
						"look": 0.18341639637947083,
						"admir": -0.052169885486364365,
						"float": 0.06281054019927979,
						"off": 0.11343499273061752,
						"technolog": -0.01513754390180111,
						"advanc": -0.11755207926034927,
						"recit": -0.11831696331501007,
						"shown": -0.17750415205955505,
						"interest": -0.01837419718503952,
						"encourag": -0.19751793146133423,
						"di": 0.09070099890232086,
						"lost": 0.07368754595518112,
						"purpos": 0.12637959420681,
						"tool": 0.09608057886362076,
						"own": 0.044447388499975204,
						"appar": 0.15601198375225067,
						"scienc": 0.030063828453421593,
						"whiz": -0.05476314201951027,
						"understand": -0.07475810497999191,
						"spaceship": 0.17452427744865417,
						"onboard": 0.003428127383813262,
						"includ": -0.003246358595788479,
						"t": 0.13319113850593567,
						"crew": -0.1686491072177887,
						"mean": 0.09422720968723297,
						"appli": -0.04822365194559097,
						"stronger": 0.15366043150424957,
						"moment": 0.13141435384750366,
						"process": -0.010001523420214653,
						"led": -0.06581845134496689,
						"journal": 0.1348208785057068,
						"travel": 0.1799754649400711,
						"reaction": 0.017022324725985527,
						"relat": -0.023454243317246437,
						"pick": -0.006046007387340069,
						"chunk": -0.024481000378727913,
						"sourc": 0.07213106751441956,
						"happen": 0.14848913252353668
					}
				},
				"5": {
					"bias": -0.21207958459854126,
					"weights": {
						"1": 0.1291307657957077,
						"think": 0.20558002591133118,
						"when": 0.03305542841553688,
						"shiranna": 0.16575202345848083,
						"realiz": -0.14558270573616028,
						"she": 0.13165482878684998,
						"knowledg": 0.199373260140419,
						"save": -0.09985813498497009,
						"everyon": -0.12863817811012268,
						"just": -0.003438167506828904,
						"shift": -0.08124428242444992,
						"overdr": -0.01653304509818554,
						"drew": -0.1931559294462204,
						"upon": 0.12521162629127502,
						"learn": -0.18992963433265686,
						"father": 0.05672639608383179,
						"entir": 0.14526300132274628,
						"life": 0.03013494610786438,
						"fight": -0.04088778421282768,
						"flight": -0.11152937263250351,
						"scenario": 0.17676907777786255,
						"move": 0.20142675936222076,
						"total": 0.017675336450338364,
						"panic": 0.04121888801455498,
						"fear": 0.1947266012430191,
						"feel": 0.05353463813662529,
						"confid": -0.023440072312951088,
						"answer": 0.18099480867385864,
						"problem": -0.1616644412279129,
						"rememb": -0.10360492020845413,
						"old": 0.08467258512973785,
						"textbook": -0.025924576446413994,
						"inspir": -0.014380393549799919,
						"made": -0.12790146470069885,
						"decis": 0.15993496775627136,
						"counter": 0.02279798313975334,
						"consid": 0.10345511883497238,
						"idea": -0.1768529713153839,
						"child": 0.029461173340678215,
						"hope": 0.1519126445055008,
						"adult": -0.12680107355117798,
						"know": -0.010904151946306229,
						"do": 0.008912320248782635,
						"chang": -0.029914291575551033,
						"recogn": 0.05634897202253342,
						"good": 0.06249384209513664,
						"impress": 0.16994638741016388,
						"short": -0.19504095613956451,
						"span": -0.1522885262966156,
						"time": -0.1267915815114975,
						"overcom": 0.14211583137512207,
						"nerv": -0.10511281341314316,
						"doubt": 0.1535215675830841,
						"successfulli": 0.06096012145280838,
						"journei": -0.056653231382369995,
						"outer": -0.18839791417121887,
						"space": -0.11640696227550507,
						"new": -0.20005908608436584,
						"acquaint": -0.18837586045265198,
						"reli": 0.13414575159549713,
						"emot": 0.004936364945024252,
						"resourc": 0.1095566600561142,
						"persever": 0.14967849850654602,
						"posit": -0.01266931276768446,
						"contribut": -0.07925257831811905,
						"person": 0.007040191441774368,
						"fortitud": 0.18118442595005035,
						"dad": -0.09772415459156036,
						"book": -0.17370881140232086,
						"mom": -0.06395990401506424,
						"comment": -0.1554677039384842,
						"brilliant": -0.07070665806531906,
						"engin": -0.025194846093654633,
						"relationship": -0.1336359679698944,
						"occur": 0.028838256374001503,
						"past": -0.11551123112440109,
						"help": 0.04535588249564171,
						"dream": -0.02170521207153797,
						"remind": -0.13586260378360748,
						"inform": 0.1894284337759018,
						"write": -0.0342126302421093,
						"rescu": 0.032038960605859756,
						"afraid": 0.11004816740751266,
						"greatli": 0.16281594336032867,
						"event": 0.030204346403479576,
						"caus": -0.1740773618221283,
						"nightmar": -0.015231604687869549,
						"memori": 0.21294289827346802,
						"parent": 0.17871426045894623,
						"need": -0.04579754173755646,
						"situat": 0.05695695802569389,
						"initi": -0.20052774250507355,
						"repli": 0.02937399409711361,
						"show": 0.1522548794746399,
						"valid": 0.09785761684179306,
						"theori": 0.14287734031677246,
						"accept": -0.08369234949350357,
						"suggest": 0.0969550684094429,
						"start": -0.039768803864717484,
						"discuss": -0.021495340391993523,
						"solv": -0.052240993827581406,
						"found": 0.0020425962284207344,
						"solut": -0.05230076238512993,
						"felt": 0.14202861487865448,
						"proud": 0.11248756945133209,
						"share": -0.01607796736061573,
						"pair": -0.13834117352962494,
						"cheeki": 0.038400426506996155,
						"reprogram": 0.05338990315794945,
						"circuit": -0.07382538169622421,
						"panel": -0.12073791027069092,
						"1st": -0.07809191942214966,
						"acquir": -0.04002826288342476,
						"take": 0.09682681411504745,
						"action": 0.09641899913549423,
						"actual": 0.20353344082832336,
						"listen": 0.045050300657749176,
						"becam": -0.015734635293483734,
						"bad": -0.14970362186431885,
						"connect": 0.05594877526164055,
						"someth": 0.006940067280083895,
						"fathr": 0.16269996762275696,
						"method": 0.1726720929145813,
						"thu": 0.14440397918224335,
						"happi": 0.10089554637670517,
						"prais": -0.11504727602005005,
						"special": 0.17497482895851135,
						"gave": -0.08779234439134598,
						"abil": 0.1772831827402115,
						"return": -0.161458358168602,
						"research": 0.09364162385463715,
						"work": -0.06217304244637489,
						"amplifi": -0.17546425759792328,
						"abl": -0.030367808416485786,
						"recal": -0.1470949500799179,
						"vital": 0.0899747833609581,
						"detail": 0.12276164442300797,
						"whole": -0.008108767680823803,
						"ship": -0.12455374002456665,
						"read": -0.12189013510942459,
						"have": -0.16708478331565857,
						"vision": -0.06891623884439468,
						"enough": -0.1082065999507904,
						"engag": -0.1340930163860321,
						"alreadi": 0.07388388365507126,
						"done": -0.12373004108667374,
						"gradual": -0.056726474314928055,
						"grown": 0.028965122997760773,
						"note": 0.1315217763185501,
						"left": 0.14765478670597076,
						"behind": 0.1871689409017563,
						"grow": -0.07454231381416321,
						"current": 0.112472765147686,
						"predica": 0.05999693647027016,
						"mention": -0.17017924785614014,
						"solenoid": -0.07069601118564606,
						"s": -0.1713707000017166,
						"solanoid": -0.1784033328294754,
						"sai": -0.005727996118366718,
						"geniu": -0.16302013397216797,
						"introduc": 0.15883642435073853,
						"cheek": 0.14307458698749542,
						"becom": 0.160349041223526,
						"sure": 0.032038263976573944,
						"herself": -0.19578802585601807,
						"realli": 0.023518262431025505,
						"voic": 0.09605556726455688,
						"gain": -0.0633845254778862,
						"us": 0.1530916690826416,
						"without": 0.09948316961526871,
						"intimid": -0.19207540154457092,
						"fact": -0.16805416345596313,
						"knew": -0.14514291286468506,
						"mother": 0.03326664865016937,
						"kept": -0.13747264444828033,
						"provid": -0.13815154135227203,
						"artifici": -0.026073642075061798,
						"intellig": 0.13141681253910065,
						"robot": 0.1634843498468399,
						"confus": -0.11039958149194717,
						"paralyz": -0.024933984503149986,
						"sens": 0.05641990900039673,
						"serious": -0.11794940382242203,
						"addition": -0.042049504816532135,
						"mai": -0.011894436553120613,
						"it": -0.09370971471071243,
						"passeng": -0.12358797341585159,
						"took": -0.11022013425827026,
						"owner": -0.09063208103179932,
						"rare": -0.13180017471313477,
						"valuabl": 0.03563634306192398,
						"plan": 0.12926271557807922,
						"will": -0.12224431335926056,
						"develop": -0.0052133905701339245,
						"grew": -0.057921845465898514,
						"so": -0.08789435774087906,
						"doe": -0.182600736618042,
						"not": -0.011133688502013683,
						"helpless": -0.13737419247627258,
						"go": 0.0797942653298378,
						"die": -0.051330968737602234,
						"anymor": 0.021323828026652336,
						"aunt": -0.10001290589570999,
						"given": -0.06384456902742386,
						"form": 0.10585152357816696,
						"boost": -0.11429527401924133,
						"self": 0.18057914078235626,
						"esteem": 0.11508268862962723,
						"result": -0.17473150789737701,
						"scientif": -0.06609049439430237,
						"paper": -0.01179267093539238,
						"author": 0.0665610060095787,
						"due": -0.03807685896754265,
						"top": 0.040897220373153687,
						"ad": 0.046422574669122696,
						"braveri": 0.07023686915636063,
						"wrote": 0.1374218463897705,
						"daughter": -0.18299336731433868,
						"impart": -0.15975937247276306,
						"taught": -0.11937910318374634,
						"began": -0.017901381477713585,
						"onc": -0.1323007196187973,
						"everybodi": 0.15030673146247864,
						"aboard": 0.054857250303030014,
						"begin": 0.10899288952350616,
						"give": -0.15529870986938477,
						"recognit": 0.08261461555957794,
						"even": 0.12388449162244797,
						"scare": 0.1083332821726799,
						"frighten": -0.13077525794506073,
						"better": 0.03769592195749283,
						"possibl": 0.040178947150707245,
						"remedi": -0.10463346540927887,
						"thank": 0.08824527263641357,
						"studi": -0.17530737817287445,
						"nobodi": -0.10743771493434906,
						"els": -0.1788831204175949,
						"memeori": -0.12510335445404053,
						"capabl": -0.0984419509768486,
						"smart": -0.04804128408432007,
						"though": -0.006453665904700756,
						"unorthodox": -0.012179957702755928,
						"propos": 0.03566829115152359,
						"room": -0.11033641546964645,
						"increas": 0.10201012343168259,
						"innov": -0.14921312034130096,
						"crisi": -0.14943352341651917,
						"receiv": -0.14437685906887054,
						"unsur": 0.17284764349460602,
						"enter": -0.15828639268875122,
						"right": 0.10951469838619232,
						"thing": 0.07650456577539444,
						"reassur": 0.001821005716919899,
						"regard": -0.09673048555850983,
						"real": -0.06747337430715561,
						"option": -0.16327296197414398,
						"lend": -0.18122057616710663,
						"great": 0.15867668390274048,
						"man": -0.2087142914533615,
						"believ": 0.031162822619080544,
						"fate": -0.13934800028800964,
						"higher": -0.134435772895813,
						"coupl": 0.06456077843904495,
						"back": -0.05170062929391861,
						"order": 0.16865435242652893,
						"notic": -0.06872902810573578,
						"no": 0.08296962082386017,
						"longer": -0.1402982771396637,
						"nervou": -0.07504265755414963,
						"come": -0.04458810016512871,
						"close": 0.005220618098974228,
						"challeng": 0.12265143543481827,
						"face": -0.19992348551750183,
						"saw": 0.08655685931444168,
						"pai": -0.06545862555503845,
						"attent": 0.03856247290968895,
						"introduct": 0.07865938544273376,
						"probabl": -0.1542116105556488,
						"trigger": 0.15264932811260223,
						"suddenli": -0.04852444306015968,
						"look": -0.07499932497739792,
						"admir": 0.12126383930444717,
						"float": -0.13539496064186096,
						"off": -0.03725850209593773,
						"technolog": -0.09801768511533737,
						"advanc": 0.0745256319642067,
						"recit": 0.06521948426961899,
						"shown": 0.15873844921588898,
						"interest": -0.12999720871448517,
						"encourag": 0.11820627003908157,
						"di": -0.000007056649792502867,
						"lost": -0.016550246626138687,
						"purpos": 0.18350425362586975,
						"tool": -0.07325688004493713,
						"own": 0.11242783069610596,
						"appar": 0.04364263638854027,
						"scienc": 0.1483287513256073,
						"whiz": -0.02720951847732067,
						"understand": 0.05486246198415756,
						"spaceship": 0.1232229620218277,
						"onboard": -0.02767382748425007,
						"includ": 0.06335292756557465,
						"t": -0.16381169855594635,
						"crew": 0.08264748007059097,
						"mean": 0.12008331716060638,
						"appli": -0.04499731957912445,
						"stronger": -0.07877302169799805,
						"moment": -0.0831858366727829,
						"process": 0.16182135045528412,
						"led": 0.20495320856571198,
						"journal": 0.022690877318382263,
						"travel": -0.09480804949998856,
						"reaction": 0.090876504778862,
						"relat": 0.006892745848745108,
						"pick": 0.045308854430913925,
						"chunk": -0.0012223136145621538,
						"sourc": -0.1285819411277771,
						"happen": -0.20137861371040344
					}
				},
				"6": {
					"bias": 0.18127097189426422,
					"weights": {
						"1": -0.045376602560281754,
						"think": 0.04980223998427391,
						"when": -0.037652596831321716,
						"shiranna": 0.0029111464973539114,
						"realiz": 0.1837220937013626,
						"she": -0.061162080615758896,
						"knowledg": 0.09619032591581345,
						"save": -0.07296911627054214,
						"everyon": 0.19894500076770782,
						"just": 0.17703892290592194,
						"shift": -0.05334550142288208,
						"overdr": 0.004510773811489344,
						"drew": -0.08461640775203705,
						"upon": 0.09920913726091385,
						"learn": -0.16696017980575562,
						"father": -0.06786437332630157,
						"entir": 0.06973623484373093,
						"life": 0.06201783940196037,
						"fight": -0.028195342049002647,
						"flight": 0.19363398849964142,
						"scenario": -0.01514403335750103,
						"move": -0.08643467724323273,
						"total": -0.1829725205898285,
						"panic": 0.11143746972084045,
						"fear": -0.10486389696598053,
						"feel": 0.1178802102804184,
						"confid": -0.18293936550617218,
						"answer": -0.12092570215463638,
						"problem": -0.18799646198749542,
						"rememb": -0.08899206668138504,
						"old": -0.052217788994312286,
						"textbook": 0.022206339985132217,
						"inspir": 0.10986845195293427,
						"made": -0.028275376185774803,
						"decis": 0.16798973083496094,
						"counter": 0.012903435155749321,
						"consid": 0.06559142470359802,
						"idea": -0.1840924471616745,
						"child": -0.060333047062158585,
						"hope": -0.19160005450248718,
						"adult": 0.031326279044151306,
						"know": 0.15053622424602509,
						"do": 0.10346776992082596,
						"chang": -0.011473902501165867,
						"recogn": -0.13816499710083008,
						"good": 0.04596404358744621,
						"impress": -0.010030579753220081,
						"short": -0.1745080053806305,
						"span": -0.13803179562091827,
						"time": -0.08011510223150253,
						"overcom": 0.12392021715641022,
						"nerv": 0.17323438823223114,
						"doubt": 0.018782299011945724,
						"successfulli": 0.01149123813956976,
						"journei": 0.003006099024787545,
						"outer": 0.1196768581867218,
						"space": 0.16136783361434937,
						"new": -0.14820359647274017,
						"acquaint": 0.013756553642451763,
						"reli": -0.1946713626384735,
						"emot": 0.19563066959381104,
						"resourc": -0.04247051477432251,
						"persever": -0.03261495381593704,
						"posit": -0.0771179050207138,
						"contribut": -0.11924289911985397,
						"person": -0.10528627038002014,
						"fortitud": 0.11432181298732758,
						"dad": -0.1096939668059349,
						"book": -0.11020711809396744,
						"mom": -0.012126479297876358,
						"comment": 0.10179593414068222,
						"brilliant": -0.09637187421321869,
						"engin": -0.02637346088886261,
						"relationship": -0.05949588865041733,
						"occur": -0.031055238097906113,
						"past": -0.1964137703180313,
						"help": -0.11318661272525787,
						"dream": -0.008634553290903568,
						"remind": 0.21819336712360382,
						"inform": -0.14261001348495483,
						"write": 0.05728614330291748,
						"rescu": 0.16989661753177643,
						"afraid": 0.09484723210334778,
						"greatli": -0.12515220046043396,
						"event": 0.04030454903841019,
						"caus": 0.06725391745567322,
						"nightmar": -0.006492845714092255,
						"memori": 0.04241406172513962,
						"parent": -0.05100188031792641,
						"need": 0.05953342095017433,
						"situat": 0.0387239046394825,
						"initi": 0.09884952008724213,
						"repli": -0.08787840604782104,
						"show": -0.13688798248767853,
						"valid": 0.11654931306838989,
						"theori": 0.16207335889339447,
						"accept": -0.14856509864330292,
						"suggest": -0.20854011178016663,
						"start": 0.08119412511587143,
						"discuss": -0.13946793973445892,
						"solv": 0.05826118215918541,
						"found": 0.023844441398978233,
						"solut": 0.03218086436390877,
						"felt": 0.0911283865571022,
						"proud": 0.12493287771940231,
						"share": -0.15924832224845886,
						"pair": 0.03781029209494591,
						"cheeki": 0.1714034378528595,
						"reprogram": -0.01066153310239315,
						"circuit": -0.09512977302074432,
						"panel": -0.14647670090198517,
						"1st": -0.17626464366912842,
						"acquir": -0.11612119525671005,
						"take": 0.11327587068080902,
						"action": 0.09660739451646805,
						"actual": -0.13666075468063354,
						"listen": -0.11831261217594147,
						"becam": 0.04031669348478317,
						"bad": -0.03309308737516403,
						"connect": -0.07755737006664276,
						"someth": -0.08301056176424026,
						"fathr": 0.15220798552036285,
						"method": 0.1163976714015007,
						"thu": 0.08619976788759232,
						"happi": -0.2209450602531433,
						"prais": 0.017621565610170364,
						"special": 0.08599556237459183,
						"gave": 0.16790837049484253,
						"abil": 0.022680649533867836,
						"return": 0.11652281880378723,
						"research": -0.12840880453586578,
						"work": 0.08938182145357132,
						"amplifi": -0.1467680186033249,
						"abl": -0.02347693219780922,
						"recal": -0.17419464886188507,
						"vital": -0.08897124975919724,
						"detail": -0.13666808605194092,
						"whole": -0.16925396025180817,
						"ship": 0.0947105884552002,
						"read": -0.1010826826095581,
						"have": 0.18200278282165527,
						"vision": -0.08198975026607513,
						"enough": -0.026166072115302086,
						"engag": -0.037742260843515396,
						"alreadi": 0.17581124603748322,
						"done": 0.015079990029335022,
						"gradual": 0.05587220564484596,
						"grown": -0.06296613067388535,
						"note": 0.10133901238441467,
						"left": 0.1678878217935562,
						"behind": -0.19878315925598145,
						"grow": -0.025156008079648018,
						"current": 0.17898109555244446,
						"predica": -0.12036880850791931,
						"mention": 0.09503018856048584,
						"solenoid": 0.026681626215577126,
						"s": -0.05788089707493782,
						"solanoid": -0.16074728965759277,
						"sai": -0.11131317168474197,
						"geniu": -0.015544401481747627,
						"introduc": -0.04333185404539108,
						"cheek": -0.19778001308441162,
						"becom": 0.026823172345757484,
						"sure": -0.13890163600444794,
						"herself": 0.12827594578266144,
						"realli": -0.06942242383956909,
						"voic": 0.02260386385023594,
						"gain": 0.07083205878734589,
						"us": -0.07093704491853714,
						"without": 0.0843585878610611,
						"intimid": -0.021874798461794853,
						"fact": -0.060130614787340164,
						"knew": -0.1953180581331253,
						"mother": -0.02116175927221775,
						"kept": -0.15125279128551483,
						"provid": -0.1358007788658142,
						"artifici": 0.041211359202861786,
						"intellig": -0.044780950993299484,
						"robot": -0.18783624470233917,
						"confus": -0.17842261493206024,
						"paralyz": -0.033383890986442566,
						"sens": 0.055502843111753464,
						"serious": -0.14732900261878967,
						"addition": 0.04864058643579483,
						"mai": -0.18011444807052612,
						"it": 0.1267969161272049,
						"passeng": -0.14893853664398193,
						"took": -0.08939002454280853,
						"owner": -0.0718163475394249,
						"rare": -0.06651530414819717,
						"valuabl": -0.004192202351987362,
						"plan": -0.09637193381786346,
						"will": 0.13779695332050323,
						"develop": -0.12940752506256104,
						"grew": -0.0656038373708725,
						"so": 0.007025499828159809,
						"doe": 0.08834318816661835,
						"not": 0.18032990396022797,
						"helpless": 0.07003513723611832,
						"go": 0.1912020593881607,
						"die": 0.024356650188565254,
						"anymor": 0.035131338983774185,
						"aunt": 0.011103151366114616,
						"given": -0.1301075667142868,
						"form": -0.1192193254828453,
						"boost": 0.1272696852684021,
						"self": -0.08987163007259369,
						"esteem": -0.046541742980480194,
						"result": 0.05830056965351105,
						"scientif": -0.19750022888183594,
						"paper": -0.030024705454707146,
						"author": -0.1548750400543213,
						"due": -0.10852877050638199,
						"top": -0.16082952916622162,
						"ad": -0.015406843274831772,
						"braveri": -0.17452920973300934,
						"wrote": 0.06520429998636246,
						"daughter": 0.078498974442482,
						"impart": 0.031001906841993332,
						"taught": 0.15017104148864746,
						"began": -0.025070035830140114,
						"onc": -0.14181777834892273,
						"everybodi": 0.19733308255672455,
						"aboard": 0.0742020234465599,
						"begin": -0.0318525992333889,
						"give": -0.011240355670452118,
						"recognit": 0.034503307193517685,
						"even": 0.03397493064403534,
						"scare": 0.07062657922506332,
						"frighten": 0.14577773213386536,
						"better": -0.013790169730782509,
						"possibl": -0.11840368807315826,
						"remedi": -0.13571512699127197,
						"thank": 0.06856585294008255,
						"studi": -0.1958957463502884,
						"nobodi": -0.07610325515270233,
						"els": 0.07230396568775177,
						"memeori": -0.1802304983139038,
						"capabl": 0.09496235102415085,
						"smart": 0.0952117070555687,
						"though": 0.1123533695936203,
						"unorthodox": 0.05780382081866264,
						"propos": 0.04612243175506592,
						"room": -0.08751515299081802,
						"increas": -0.06565304100513458,
						"innov": 0.12112998962402344,
						"crisi": 0.16499201953411102,
						"receiv": 0.11212056875228882,
						"unsur": 0.07913631200790405,
						"enter": -0.06280834972858429,
						"right": 0.03456322103738785,
						"thing": 0.14269831776618958,
						"reassur": 0.18539002537727356,
						"regard": 0.052757635712623596,
						"real": 0.15284641087055206,
						"option": -0.18422682583332062,
						"lend": -0.04894743114709854,
						"great": 0.11178256571292877,
						"man": 0.03048643283545971,
						"believ": -0.13088321685791016,
						"fate": -0.08012159168720245,
						"higher": -0.06403013318777084,
						"coupl": 0.07006104290485382,
						"back": 0.17509281635284424,
						"order": -0.18519973754882812,
						"notic": 0.17261169850826263,
						"no": -0.06021057069301605,
						"longer": 0.16939987242221832,
						"nervou": -0.18464551866054535,
						"come": 0.09659744799137115,
						"close": 0.03839470073580742,
						"challeng": 0.21023644506931305,
						"face": 0.030668634921312332,
						"saw": 0.0026788651011884212,
						"pai": -0.0365142747759819,
						"attent": 0.12846000492572784,
						"introduct": -0.05921514332294464,
						"probabl": 0.15922124683856964,
						"trigger": 0.06936173141002655,
						"suddenli": -0.08870179206132889,
						"look": -0.09863363206386566,
						"admir": -0.10465501248836517,
						"float": -0.09353483468294144,
						"off": -0.1570516973733902,
						"technolog": -0.00014186841144692153,
						"advanc": 0.07310035824775696,
						"recit": -0.0644167959690094,
						"shown": 0.01446162723004818,
						"interest": -0.05121966078877449,
						"encourag": 0.10096842795610428,
						"di": 0.06732141226530075,
						"lost": 0.15983887016773224,
						"purpos": 0.09158974885940552,
						"tool": 0.1978481560945511,
						"own": -0.10759687423706055,
						"appar": 0.15290530025959015,
						"scienc": -0.10218778997659683,
						"whiz": -0.1518915891647339,
						"understand": 0.15960559248924255,
						"spaceship": 0.04740982875227928,
						"onboard": 0.19318163394927979,
						"includ": -0.16440491378307343,
						"t": -0.040825385600328445,
						"crew": -0.04739399626851082,
						"mean": -0.13457418978214264,
						"appli": -0.024766402319073677,
						"stronger": 0.02880636788904667,
						"moment": -0.11040706187486649,
						"process": 0.045014187693595886,
						"led": -0.013833729550242424,
						"journal": 0.07244562357664108,
						"travel": -0.1492285430431366,
						"reaction": -0.0239854846149683,
						"relat": 0.06483718752861023,
						"pick": 0.0712931901216507,
						"chunk": -0.03264102712273598,
						"sourc": -0.10177380591630936,
						"happen": -0.004745528567582369
					}
				},
				"7": {
					"bias": -0.07049049437046051,
					"weights": {
						"1": -0.17926859855651855,
						"think": -0.008198256604373455,
						"when": 0.00042178307194262743,
						"shiranna": -0.16438987851142883,
						"realiz": -0.09554712474346161,
						"she": -0.07207972556352615,
						"knowledg": 0.059783462435007095,
						"save": 0.20107264816761017,
						"everyon": 0.19707909226417542,
						"just": 0.007248341105878353,
						"shift": -0.13495966792106628,
						"overdr": -0.07413383573293686,
						"drew": -0.058083925396203995,
						"upon": 0.18312811851501465,
						"learn": 0.07380933314561844,
						"father": -0.006015478633344173,
						"entir": -0.20386472344398499,
						"life": 0.04887467995285988,
						"fight": 0.002419658936560154,
						"flight": -0.13351264595985413,
						"scenario": 0.14461813867092133,
						"move": -0.1740882694721222,
						"total": -0.0196648221462965,
						"panic": -0.005861552897840738,
						"fear": 0.08539313822984695,
						"feel": 0.1293991506099701,
						"confid": -0.019677642732858658,
						"answer": 0.10694490373134613,
						"problem": -0.11857528239488602,
						"rememb": 0.01659090258181095,
						"old": 0.16389575600624084,
						"textbook": -0.06018146127462387,
						"inspir": -0.04644410312175751,
						"made": -0.0824054405093193,
						"decis": -0.15719422698020935,
						"counter": -0.19032932817935944,
						"consid": 0.1671447604894638,
						"idea": 0.1812099814414978,
						"child": -0.1340608447790146,
						"hope": 0.07981018722057343,
						"adult": -0.14088870584964752,
						"know": -0.12355228513479233,
						"do": 0.09094557911157608,
						"chang": 0.025546573102474213,
						"recogn": 0.17498840391635895,
						"good": 0.19231395423412323,
						"impress": 0.00860681477934122,
						"short": -0.20974361896514893,
						"span": -0.16283419728279114,
						"time": 0.14006878435611725,
						"overcom": -0.04288673400878906,
						"nerv": 0.13822637498378754,
						"doubt": -0.15980295836925507,
						"successfulli": 0.00525645911693573,
						"journei": 0.05748407170176506,
						"outer": 0.03898800536990166,
						"space": -0.08483254164457321,
						"new": -0.09242701530456543,
						"acquaint": 0.1775052398443222,
						"reli": 0.0851011648774147,
						"emot": -0.022375211119651794,
						"resourc": 0.16788825392723083,
						"persever": -0.19758956134319305,
						"posit": 0.13805252313613892,
						"contribut": -0.19831180572509766,
						"person": -0.13871406018733978,
						"fortitud": 0.11338727921247482,
						"dad": 0.041653502732515335,
						"book": -0.00979999452829361,
						"mom": 0.1527722328901291,
						"comment": 0.14384731650352478,
						"brilliant": 0.18587133288383484,
						"engin": 0.17188508808612823,
						"relationship": -0.19803938269615173,
						"occur": 0.06524211168289185,
						"past": 0.12445946782827377,
						"help": 0.19270046055316925,
						"dream": 0.08745216578245163,
						"remind": -0.08816225826740265,
						"inform": 0.047668397426605225,
						"write": 0.0579865463078022,
						"rescu": -0.0736660286784172,
						"afraid": 0.1843801736831665,
						"greatli": -0.15852367877960205,
						"event": -0.10769739747047424,
						"caus": -0.17547664046287537,
						"nightmar": 0.12353472411632538,
						"memori": 0.0853518396615982,
						"parent": 0.06065105274319649,
						"need": 0.11602065712213516,
						"situat": -0.17350000143051147,
						"initi": 0.1238873228430748,
						"repli": -0.022105643525719643,
						"show": 0.20043395459651947,
						"valid": -0.06198488175868988,
						"theori": 0.005688569042831659,
						"accept": -0.033102236688137054,
						"suggest": -0.036904942244291306,
						"start": 0.13095952570438385,
						"discuss": -0.14240793883800507,
						"solv": -0.0631207823753357,
						"found": -0.1926174908876419,
						"solut": 0.14402633905410767,
						"felt": 0.20219643414020538,
						"proud": -0.071109838783741,
						"share": 0.12297186255455017,
						"pair": 0.07692061364650726,
						"cheeki": 0.09464846551418304,
						"reprogram": -0.08397136628627777,
						"circuit": 0.011181053705513477,
						"panel": -0.042154595255851746,
						"1st": -0.19103386998176575,
						"acquir": -0.045563600957393646,
						"take": -0.12198521941900253,
						"action": -0.176146000623703,
						"actual": -0.1361674964427948,
						"listen": -0.13242384791374207,
						"becam": -0.05694250762462616,
						"bad": -0.12163718044757843,
						"connect": -0.07684303820133209,
						"someth": 0.0649820864200592,
						"fathr": -0.02304527722299099,
						"method": 0.07719128578901291,
						"thu": 0.10115619748830795,
						"happi": 0.05204455181956291,
						"prais": -0.1463485062122345,
						"special": -0.026203466579318047,
						"gave": 0.16310711205005646,
						"abil": 0.07334060221910477,
						"return": -0.09013824909925461,
						"research": -0.12710599601268768,
						"work": -0.01974775828421116,
						"amplifi": 0.031080622225999832,
						"abl": -0.09219682961702347,
						"recal": 0.0056873769499361515,
						"vital": -0.13300040364265442,
						"detail": 0.03431494161486626,
						"whole": 0.06323962658643723,
						"ship": -0.17151926457881927,
						"read": -0.14922162890434265,
						"have": 0.028202904388308525,
						"vision": -0.06085977703332901,
						"enough": 0.19635885953903198,
						"engag": 0.19038406014442444,
						"alreadi": 0.13375145196914673,
						"done": -0.06502538174390793,
						"gradual": 0.09230542182922363,
						"grown": -0.12187240272760391,
						"note": -0.12915174663066864,
						"left": -0.08827828615903854,
						"behind": 0.17105717957019806,
						"grow": 0.043160781264305115,
						"current": 0.03211531415581703,
						"predica": -0.06860726326704025,
						"mention": -0.05838621035218239,
						"solenoid": -0.05705471709370613,
						"s": -0.06908364593982697,
						"solanoid": -0.1662655472755432,
						"sai": 0.09663405269384384,
						"geniu": -0.15731950104236603,
						"introduc": 0.0005960536072961986,
						"cheek": -0.1498410701751709,
						"becom": 0.17349249124526978,
						"sure": 0.052711259573698044,
						"herself": 0.19567318260669708,
						"realli": 0.15277758240699768,
						"voic": -0.07408017665147781,
						"gain": -0.13625465333461761,
						"us": -0.036461833864450455,
						"without": 0.13143475353717804,
						"intimid": -0.08692092448472977,
						"fact": 0.11086943745613098,
						"knew": -0.13586464524269104,
						"mother": 0.18586982786655426,
						"kept": 0.07491760700941086,
						"provid": -0.19074738025665283,
						"artifici": -0.13410302996635437,
						"intellig": -0.12787438929080963,
						"robot": 0.15482524037361145,
						"confus": 0.08296490460634232,
						"paralyz": 0.13006894290447235,
						"sens": 0.19861632585525513,
						"serious": 0.18993739783763885,
						"addition": -0.11265596747398376,
						"mai": -0.18629424273967743,
						"it": 0.03384753689169884,
						"passeng": 0.09517177194356918,
						"took": 0.19169262051582336,
						"owner": -0.1520109623670578,
						"rare": 0.12363281100988388,
						"valuabl": -0.05051952973008156,
						"plan": 0.06950758397579193,
						"will": -0.10248155146837234,
						"develop": 0.09393322467803955,
						"grew": 0.09858593344688416,
						"so": 0.04750160127878189,
						"doe": 0.06131601706147194,
						"not": 0.0604175329208374,
						"helpless": 0.13813000917434692,
						"go": 0.050229478627443314,
						"die": 0.10301567614078522,
						"anymor": 0.11807076632976532,
						"aunt": 0.008091929368674755,
						"given": 0.12347428500652313,
						"form": 0.004087090492248535,
						"boost": -0.038637399673461914,
						"self": -0.04031877592206001,
						"esteem": 0.053133636713027954,
						"result": 0.12172703444957733,
						"scientif": -0.18199989199638367,
						"paper": 0.11605796962976456,
						"author": 0.045701537281274796,
						"due": -0.0592343807220459,
						"top": 0.003951782826334238,
						"ad": 0.19102180004119873,
						"braveri": 0.031259700655937195,
						"wrote": -0.18699392676353455,
						"daughter": 0.12695974111557007,
						"impart": 0.1741700917482376,
						"taught": 0.1224912703037262,
						"began": 0.1603073924779892,
						"onc": 0.11261507868766785,
						"everybodi": -0.17723727226257324,
						"aboard": -0.11375615745782852,
						"begin": -0.10197615623474121,
						"give": 0.12466438859701157,
						"recognit": 0.0070839133113622665,
						"even": 0.0497550293803215,
						"scare": 0.06530441343784332,
						"frighten": 0.1235874816775322,
						"better": 0.19840732216835022,
						"possibl": -0.01535725872963667,
						"remedi": -0.057140592485666275,
						"thank": 0.12745290994644165,
						"studi": -0.12832967936992645,
						"nobodi": -0.05217018723487854,
						"els": -0.06829167157411575,
						"memeori": 0.1342284083366394,
						"capabl": 0.10541343688964844,
						"smart": -0.15445886552333832,
						"though": -0.12854434549808502,
						"unorthodox": -0.17365561425685883,
						"propos": -0.12935757637023926,
						"room": 0.02908364124596119,
						"increas": -0.005102705210447311,
						"innov": -0.08431904762983322,
						"crisi": -0.17793649435043335,
						"receiv": 0.0970880389213562,
						"unsur": -0.04765337333083153,
						"enter": 0.11778347939252853,
						"right": -0.029206549748778343,
						"thing": -0.030616313219070435,
						"reassur": 0.08126721531152725,
						"regard": -0.044315628707408905,
						"real": -0.18073521554470062,
						"option": -0.06048702821135521,
						"lend": 0.1827256977558136,
						"great": 0.03926630690693855,
						"man": 0.07531123608350754,
						"believ": -0.15493202209472656,
						"fate": -0.09936154633760452,
						"higher": -0.07504616677761078,
						"coupl": -0.01782985031604767,
						"back": -0.08982663601636887,
						"order": 0.059967342764139175,
						"notic": -0.14975669980049133,
						"no": -0.009474464692175388,
						"longer": -0.1502103954553604,
						"nervou": 0.1952703297138214,
						"come": 0.09019595384597778,
						"close": 0.07731924206018448,
						"challeng": -0.010772819630801678,
						"face": -0.18038952350616455,
						"saw": -0.13153789937496185,
						"pai": 0.19946259260177612,
						"attent": 0.17962336540222168,
						"introduct": -0.14050139486789703,
						"probabl": -0.054496340453624725,
						"trigger": -0.0532202422618866,
						"suddenli": 0.19229580461978912,
						"look": 0.12589216232299805,
						"admir": 0.17922717332839966,
						"float": -0.053335804492235184,
						"off": 0.17196254432201385,
						"technolog": -0.026749467477202415,
						"advanc": 0.12618891894817352,
						"recit": -0.1570141315460205,
						"shown": -0.0689031109213829,
						"interest": 0.014283350668847561,
						"encourag": -0.1849346160888672,
						"di": 0.08548413962125778,
						"lost": -0.032255131751298904,
						"purpos": -0.05477853864431381,
						"tool": -0.1034715473651886,
						"own": 0.07095758616924286,
						"appar": -0.08173791319131851,
						"scienc": 0.1573937088251114,
						"whiz": 0.04524591937661171,
						"understand": 0.10790766775608063,
						"spaceship": -0.01680511049926281,
						"onboard": 0.0956006869673729,
						"includ": 0.12679752707481384,
						"t": -0.001843535341322422,
						"crew": 0.004220601171255112,
						"mean": -0.031291764229536057,
						"appli": -0.1386556625366211,
						"stronger": 0.05246386304497719,
						"moment": -0.17255590856075287,
						"process": -0.05705513805150986,
						"led": 0.03492465242743492,
						"journal": 0.0607575960457325,
						"travel": -0.08512075990438461,
