{
	"createNewObjectString": "function classifierFun() {\r\n    const limdu = require('limdu');\r\n    return new limdu.classifiers.NeuralNetwork();\r\n}",
	"object": {
		"sizes": [
			137,
			68,
			1
		],
		"layers": [
			{
				"11": {},
				"crush": {},
				"probabl": {},
				"like": {},
				"embarrass": {},
				"aunt": {},
				"introduc": {},
				"girl": {},
				"mom": {},
				"talk": {},
				"show": {},
				"sheepish": {},
				"when": {},
				"meet": {},
				"new": {},
				"person": {},
				"nervou": {},
				"mayb": {},
				"adam": {},
				"cheek": {},
				"flush": {},
				"shy": {},
				"shiranna": {},
				"due": {},
				"mother": {},
				"attempt": {},
				"someon": {},
				"around": {},
				"ag": {},
				"differ": {},
				"gender": {},
				"boi": {},
				"thought": {},
				"cute": {},
				"own": {},
				"nerv": {},
				"wrack": {},
				"feel": {},
				"strang": {},
				"invit": {},
				"teenag": {},
				"think": {},
				"try": {},
				"help": {},
				"friend": {},
				"mai": {},
				"even": {},
				"bit": {},
				"young": {},
				"man": {},
				"son": {},
				"know": {},
				"sure": {},
				"weightless": {},
				"perhap": {},
				"just": {},
				"skin": {},
				"type": {},
				"she": {},
				"venu": {},
				"proceed": {},
				"number": {},
				"somersault": {},
				"gravit": {},
				"bodi": {},
				"need": {},
				"o2": {},
				"increas": {},
				"amount": {},
				"red": {},
				"blood": {},
				"cell": {},
				"enough": {},
				"look": {},
				"felt": {},
				"ladi": {},
				"seem": {},
				"insist": {},
				"w": {},
				"akward": {},
				"awkward": {},
				"obvious": {},
				"doe": {},
				"introduct": {},
				"becam": {},
				"float": {},
				"base": {},
				"similar": {},
				"action": {},
				"particular": {},
				"though": {},
				"not": {},
				"state": {},
				"passag": {},
				"infer": {},
				"year": {},
				"old": {},
				"make": {},
				"uncomfort": {},
				"thu": {},
				"space": {},
				"flight": {},
				"either": {},
				"forward": {},
				"especi": {},
				"possibl": {},
				"immedi": {},
				"interest": {},
				"want": {},
				"stranger": {},
				"peer": {},
				"psycholog": {},
				"respons": {},
				"trigger": {},
				"experienc": {},
				"emot": {},
				"sens": {},
				"nervous": {},
				"anticip": {},
				"result": {},
				"check": {},
				"embarass": {},
				"blush": {},
				"met": {},
				"appear": {},
				"shrianna": {},
				"embarras": {},
				"do": {},
				"ask": {},
				"reason": {},
				"kind": {},
				"natur": {},
				"typic": {},
				"made": {},
				"front": {},
				"sheranna": {},
				"imbarasemnet": {}
			},
			{
				"0": {
					"bias": 0.03443952277302742,
					"weights": {
						"11": 0.14385280013084412,
						"crush": -0.16017913818359375,
						"probabl": 0.22915150225162506,
						"like": -0.05341411009430885,
						"embarrass": -0.10697261989116669,
						"aunt": -0.0059757959097623825,
						"introduc": 0.17123821377754211,
						"girl": -0.2446930706501007,
						"mom": -0.07274270802736282,
						"talk": -0.13592107594013214,
						"show": -0.014844722114503384,
						"sheepish": 0.05865521728992462,
						"when": 0.12981146574020386,
						"meet": -0.08691338449716568,
						"new": -0.17494754493236542,
						"person": 0.12282583117485046,
						"nervou": 0.2773907482624054,
						"mayb": -0.17213474214076996,
						"adam": 0.09265047311782837,
						"cheek": -0.09887390583753586,
						"flush": -0.2108132243156433,
						"shy": -0.08893561363220215,
						"shiranna": -0.1520576775074005,
						"due": -0.17368260025978088,
						"mother": -0.13870349526405334,
						"attempt": 0.0028405364137142897,
						"someon": -0.01197778433561325,
						"around": -0.014896970242261887,
						"ag": -0.01935177482664585,
						"differ": -0.0557875782251358,
						"gender": 0.00356758339330554,
						"boi": 0.09176825731992722,
						"thought": 0.02200694940984249,
						"cute": -0.12338505685329437,
						"own": -0.00618601031601429,
						"nerv": 0.19052250683307648,
						"wrack": -0.1918160617351532,
						"feel": 0.14062394201755524,
						"strang": -0.02530335634946823,
						"invit": 0.043209679424762726,
						"teenag": -0.07569634914398193,
						"think": 0.0020601190626621246,
						"try": -0.13174286484718323,
						"help": -0.07688134163618088,
						"friend": 0.06561068445444107,
						"mai": 0.013259157538414001,
						"even": 0.028117896988987923,
						"bit": -0.09880887717008591,
						"young": -0.17525430023670197,
						"man": 0.15861906111240387,
						"son": 0.022896459326148033,
						"know": 0.12023857980966568,
						"sure": -0.023520756512880325,
						"weightless": 0.057179857045412064,
						"perhap": 0.10422962158918381,
						"just": 0.1842186152935028,
						"skin": 0.0677402913570404,
						"type": -0.006960168015211821,
						"she": 0.1489497870206833,
						"venu": -0.07769760489463806,
						"proceed": -0.011082162149250507,
						"number": 0.09457345306873322,
						"somersault": -0.053464364260435104,
						"gravit": -0.16164667904376984,
						"bodi": 0.18997706472873688,
						"need": 0.1410912573337555,
						"o2": -0.14446087181568146,
						"increas": 0.17123004794120789,
						"amount": -0.09772739559412003,
						"red": 0.06728602945804596,
						"blood": -0.032035451382398605,
						"cell": 0.10263293236494064,
						"enough": 0.20236891508102417,
						"look": 0.1615704447031021,
						"felt": -0.009575451724231243,
						"ladi": -0.024458972737193108,
						"seem": 0.1119019165635109,
						"insist": -0.15735410153865814,
						"w": 0.06447555124759674,
						"akward": -0.0937480553984642,
						"awkward": -0.15632227063179016,
						"obvious": 0.14450547099113464,
						"doe": -0.09442011266946793,
						"introduct": 0.09097025543451309,
						"becam": 0.11527317017316818,
						"float": 0.19710072875022888,
						"base": -0.17181944847106934,
						"similar": 0.05705138295888901,
						"action": 0.15106827020645142,
						"particular": 0.14023298025131226,
						"though": -0.17485110461711884,
						"not": 0.0985901951789856,
						"state": -0.10109120607376099,
						"passag": 0.03904751315712929,
						"infer": 0.008532267063856125,
						"year": 0.1853180229663849,
						"old": 0.01130120363086462,
						"make": -0.08367650210857391,
						"uncomfort": 0.003268794622272253,
						"thu": -0.13729740679264069,
						"space": -0.05469179153442383,
						"flight": 0.12103668600320816,
						"either": -0.049071550369262695,
						"forward": -0.19146232306957245,
						"especi": 0.19381383061408997,
						"possibl": -0.04505797475576401,
						"immedi": -0.09879445284605026,
						"interest": 0.014190330170094967,
						"want": -0.17477329075336456,
						"stranger": -0.19355866312980652,
						"peer": -0.1405007541179657,
						"psycholog": -0.0740327388048172,
						"respons": -0.00574072590097785,
						"trigger": -0.01819332130253315,
						"experienc": -0.016863910481333733,
						"emot": -0.05910171568393707,
						"sens": -0.03207038342952728,
						"nervous": 0.04266812279820442,
						"anticip": 0.05812613293528557,
						"result": 0.12828753888607025,
						"check": 0.10077162832021713,
						"embarass": 0.19603043794631958,
						"blush": 0.1392020583152771,
						"met": -0.00941916462033987,
						"appear": 0.19344671070575714,
						"shrianna": 0.16719625890254974,
						"embarras": -0.07800038158893585,
						"do": 0.016893479973077774,
						"ask": 0.14248232543468475,
						"reason": 0.12338855117559433,
						"kind": -0.1643984466791153,
						"natur": 0.043119125068187714,
						"typic": 0.16155847907066345,
						"made": -0.17478488385677338,
						"front": -0.11681413650512695,
						"sheranna": 0.18723607063293457,
						"imbarasemnet": -0.17039120197296143
					}
				},
				"1": {
					"bias": -0.07703585177659988,
					"weights": {
						"11": 0.17054881155490875,
						"crush": 0.10952098667621613,
						"probabl": -0.09517713636159897,
						"like": 0.06993433833122253,
						"embarrass": -0.12035112828016281,
						"aunt": 0.15238209068775177,
						"introduc": 0.13771161437034607,
						"girl": 0.1171630248427391,
						"mom": -0.09704610705375671,
						"talk": 0.14398805797100067,
						"show": -0.1623833328485489,
						"sheepish": -0.07322851568460464,
						"when": -0.07673559337854385,
						"meet": 0.08469054102897644,
						"new": 0.013450329191982746,
						"person": -0.041120417416095734,
						"nervou": -0.07270605117082596,
						"mayb": -0.16114534437656403,
						"adam": -0.010716171935200691,
						"cheek": 0.08700720220804214,
						"flush": 0.08634693920612335,
						"shy": -0.120583176612854,
						"shiranna": -0.1808902621269226,
						"due": -0.06695114076137543,
						"mother": -0.12430509179830551,
						"attempt": 0.06499535590410233,
						"someon": -0.07048804312944412,
						"around": 0.04095156490802765,
						"ag": -0.07314170151948929,
						"differ": 0.0991348922252655,
						"gender": -0.16506049036979675,
						"boi": -0.045478157699108124,
						"thought": 0.1504521667957306,
						"cute": -0.09099572896957397,
						"own": 0.05010611563920975,
						"nerv": 0.11752569675445557,
						"wrack": -0.16390931606292725,
						"feel": -0.050566963851451874,
						"strang": 0.18144679069519043,
						"invit": 0.17252986133098602,
						"teenag": 0.10138647258281708,
						"think": 0.08466200530529022,
						"try": 0.07893233001232147,
						"help": -0.17403936386108398,
						"friend": -0.12384282052516937,
						"mai": 0.06246117874979973,
						"even": -0.1725393384695053,
						"bit": -0.19835421442985535,
						"young": 0.05933263525366783,
						"man": -0.05143788829445839,
						"son": -0.06802890449762344,
						"know": 0.07888830453157425,
						"sure": 0.1544051319360733,
						"weightless": -0.024170981720089912,
						"perhap": -0.009204861707985401,
						"just": -0.12396091222763062,
						"skin": 0.18116135895252228,
						"type": 0.059152815490961075,
						"she": 0.17233803868293762,
						"venu": -0.08287019282579422,
						"proceed": -0.1477425992488861,
						"number": -0.11150748282670975,
						"somersault": 0.06978237628936768,
						"gravit": 0.10483880341053009,
						"bodi": -0.061656031757593155,
						"need": 0.13828687369823456,
						"o2": -0.12941773235797882,
						"increas": 0.07188047468662262,
						"amount": -0.1707325577735901,
						"red": -0.17589618265628815,
						"blood": 0.04912196844816208,
						"cell": -0.09475479274988174,
						"enough": 0.07720363885164261,
						"look": 0.012313534505665302,
						"felt": 0.1911199390888214,
						"ladi": -0.08017954230308533,
						"seem": -0.1887393593788147,
						"insist": 0.17765295505523682,
						"w": 0.06911385804414749,
						"akward": 0.15766333043575287,
						"awkward": 0.1366613209247589,
						"obvious": -0.16300450265407562,
						"doe": -0.06254158169031143,
						"introduct": -0.004911442752927542,
						"becam": -0.10035884380340576,
						"float": 0.17668431997299194,
						"base": -0.007280467543751001,
						"similar": -0.003029239596799016,
						"action": -0.19835332036018372,
						"particular": 0.08232658356428146,
						"though": 0.013533787801861763,
						"not": 0.0020887211430817842,
						"state": -0.007259226404130459,
						"passag": 0.11002716422080994,
						"infer": -0.045407138764858246,
						"year": -0.10792259126901627,
						"old": 0.12167385220527649,
						"make": -0.0021663703955709934,
						"uncomfort": -0.18576841056346893,
						"thu": -0.13145999610424042,
						"space": -0.1043945774435997,
						"flight": -0.13389438390731812,
						"either": -0.15947367250919342,
						"forward": -0.10655110329389572,
						"especi": -0.015056302770972252,
						"possibl": 0.018487291410565376,
						"immedi": 0.011641295626759529,
						"interest": -0.03744899854063988,
						"want": -0.05489187315106392,
						"stranger": -0.07333656400442123,
						"peer": 0.08486021310091019,
						"psycholog": -0.07168498635292053,
						"respons": -0.06494569778442383,
						"trigger": -0.1373411864042282,
						"experienc": 0.03593430668115616,
						"emot": -0.1478302925825119,
						"sens": 0.17531709372997284,
						"nervous": 0.15906096994876862,
						"anticip": -0.045846667140722275,
						"result": -0.10018656402826309,
						"check": 0.05008042976260185,
						"embarass": -0.13257984817028046,
						"blush": -0.12364108115434647,
						"met": -0.19701024889945984,
						"appear": -0.06490136682987213,
						"shrianna": -0.014830845408141613,
						"embarras": -0.16506363451480865,
						"do": -0.050405677407979965,
						"ask": 0.1885908842086792,
						"reason": 0.006021453998982906,
						"kind": 0.13494880497455597,
						"natur": 0.043452125042676926,
						"typic": -0.15552064776420593,
						"made": -0.15383267402648926,
						"front": 0.1487293690443039,
						"sheranna": 0.19764026999473572,
						"imbarasemnet": 0.15442922711372375
					}
				},
				"2": {
					"bias": -0.1383897215127945,
					"weights": {
						"11": 0.052514590322971344,
						"crush": 0.09422405064105988,
						"probabl": -0.1916271448135376,
						"like": -0.05841660499572754,
						"embarrass": 0.03954954445362091,
						"aunt": 0.03543355315923691,
						"introduc": -0.0450521744787693,
						"girl": 0.1141015812754631,
						"mom": -0.13430848717689514,
						"talk": -0.1946435570716858,
						"show": 0.025013333186507225,
						"sheepish": -0.1667460948228836,
						"when": 0.016136731952428818,
						"meet": -0.054696790874004364,
						"new": 0.08883781731128693,
						"person": 0.1748272031545639,
						"nervou": 0.12200797349214554,
						"mayb": -0.05039073899388313,
						"adam": -0.1090540662407875,
						"cheek": 0.09599874913692474,
						"flush": 0.13728730380535126,
						"shy": -0.013962452299892902,
						"shiranna": 0.17435643076896667,
						"due": -0.09463083744049072,
						"mother": -0.07581282407045364,
						"attempt": -0.10873997956514359,
						"someon": -0.1328999102115631,
						"around": 0.17432773113250732,
						"ag": -0.04269063472747803,
						"differ": -0.19587405025959015,
						"gender": 0.09504762291908264,
						"boi": -0.13578222692012787,
						"thought": -0.11486425250768661,
						"cute": 0.10153207927942276,
						"own": 0.08534000813961029,
						"nerv": -0.10555968433618546,
						"wrack": 0.020570460706949234,
						"feel": -0.114010289311409,
						"strang": 0.0782591849565506,
						"invit": -0.18107324838638306,
						"teenag": -0.07631168514490128,
						"think": 0.07245364785194397,
						"try": -0.1251785010099411,
						"help": -0.018069766461849213,
						"friend": 0.04023798927664757,
						"mai": 0.16551265120506287,
						"even": 0.15843647718429565,
						"bit": 0.06536407768726349,
						"young": -0.18190567195415497,
						"man": 0.007057267241179943,
						"son": -0.0691332146525383,
						"know": 0.026148853823542595,
						"sure": -0.07971547544002533,
						"weightless": 0.1736149936914444,
						"perhap": -0.029987432062625885,
						"just": -0.1309206187725067,
						"skin": -0.1455613672733307,
						"type": 0.13066217303276062,
						"she": 0.13699831068515778,
						"venu": 0.14566175639629364,
						"proceed": -0.038790516555309296,
						"number": -0.07737956196069717,
						"somersault": 0.09113289415836334,
						"gravit": -0.16180655360221863,
						"bodi": -0.0611116886138916,
						"need": 0.05693747475743294,
						"o2": -0.0013974168105050921,
						"increas": -0.14393673837184906,
						"amount": 0.18528659641742706,
						"red": 0.1767900586128235,
						"blood": -0.16816997528076172,
						"cell": -0.13530759513378143,
						"enough": 0.10655280202627182,
						"look": 0.10198230296373367,
						"felt": 0.11376462876796722,
						"ladi": 0.08734603226184845,
						"seem": -0.08767851442098618,
						"insist": 0.10762897878885269,
						"w": -0.11246086657047272,
						"akward": -0.05023637413978577,
						"awkward": 0.1360631138086319,
						"obvious": -0.06173545867204666,
						"doe": -0.05076337605714798,
						"introduct": -0.1225849986076355,
						"becam": -0.12356361001729965,
						"float": -0.11950621753931046,
						"base": -0.08256456255912781,
						"similar": 0.19316036999225616,
						"action": 0.10568521171808243,
						"particular": -0.13337713479995728,
						"though": -0.01643427088856697,
						"not": 0.0030093351379036903,
						"state": -0.09310171008110046,
						"passag": 0.03440843150019646,
						"infer": 0.15690715610980988,
						"year": 0.09507925808429718,
						"old": 0.1543702334165573,
						"make": 0.1521407663822174,
						"uncomfort": -0.11492469906806946,
						"thu": -0.17354609072208405,
						"space": -0.04807461425662041,
						"flight": 0.17723873257637024,
						"either": -0.06466450542211533,
						"forward": 0.1767524629831314,
						"especi": 0.1490364521741867,
						"possibl": -0.026574745774269104,
						"immedi": 0.1007809042930603,
						"interest": -0.10896896570920944,
						"want": -0.1673240065574646,
						"stranger": -0.09462851285934448,
						"peer": 0.1853961944580078,
						"psycholog": 0.11047515273094177,
						"respons": -0.1487441509962082,
						"trigger": -0.10484616458415985,
						"experienc": 0.08927550911903381,
						"emot": -0.10992901027202606,
						"sens": 0.07935285568237305,
						"nervous": -0.06623680889606476,
						"anticip": 0.03175998479127884,
						"result": -0.016637373715639114,
						"check": -0.09156554937362671,
						"embarass": 0.0942479819059372,
						"blush": 0.1865316927433014,
						"met": -0.05167347937822342,
						"appear": -0.08598898351192474,
						"shrianna": 0.09036298841238022,
						"embarras": 0.11596253514289856,
						"do": 0.18043923377990723,
						"ask": 0.15474458038806915,
						"reason": -0.033766549080610275,
						"kind": 0.19814865291118622,
						"natur": -0.09145807474851608,
						"typic": 0.04633558914065361,
						"made": 0.17044053971767426,
						"front": 0.13163059949874878,
						"sheranna": 0.05903656408190727,
						"imbarasemnet": -0.1827995777130127
					}
				},
				"3": {
					"bias": -0.024340493604540825,
					"weights": {
						"11": -0.1504211276769638,
						"crush": -0.06728404015302658,
						"probabl": -0.27024590969085693,
						"like": 0.018688533455133438,
						"embarrass": 0.18099109828472137,
						"aunt": 0.14389903843402863,
						"introduc": 0.11368375271558762,
						"girl": 0.031089095398783684,
						"mom": 0.2034863829612732,
						"talk": -0.09482387453317642,
						"show": -0.1632562279701233,
						"sheepish": 0.14790944755077362,
						"when": 0.13967351615428925,
						"meet": 0.1705615371465683,
						"new": 0.05716078728437424,
						"person": 0.06610563397407532,
						"nervou": -0.33820581436157227,
						"mayb": -0.09416390210390091,
						"adam": 0.03522080183029175,
						"cheek": 0.223887100815773,
						"flush": 0.16771848499774933,
						"shy": 0.11696377396583557,
						"shiranna": 0.06965456157922745,
						"due": 0.18568801879882812,
						"mother": 0.11751355975866318,
						"attempt": 0.13393013179302216,
						"someon": -0.09204819798469543,
						"around": -0.13414625823497772,
						"ag": -0.09976741671562195,
						"differ": 0.020498337224125862,
						"gender": 0.113823302090168,
						"boi": -0.16710834205150604,
						"thought": -0.16472528874874115,
						"cute": -0.09919896721839905,
						"own": 0.031070223078131676,
						"nerv": 0.1140589490532875,
						"wrack": 0.13056060671806335,
						"feel": -0.10698482394218445,
						"strang": 0.0595814548432827,
						"invit": -0.18063101172447205,
						"teenag": 0.10382041335105896,
						"think": 0.20166505873203278,
						"try": -0.1356656402349472,
						"help": -0.18391990661621094,
						"friend": -0.06570456922054291,
						"mai": 0.07463759183883667,
						"even": -0.02671816758811474,
						"bit": 0.1368407905101776,
						"young": 0.18309371173381805,
						"man": 0.11825232207775116,
						"son": -0.12278060615062714,
						"know": -0.09909989684820175,
						"sure": -0.12109771370887756,
						"weightless": -0.033235784620046616,
						"perhap": -0.15282423794269562,
						"just": -0.09311846643686295,
						"skin": -0.13823235034942627,
						"type": -0.1617894172668457,
						"she": 0.04342535883188248,
						"venu": -0.05443724989891052,
						"proceed": 0.024144001305103302,
						"number": 0.06017375364899635,
						"somersault": -0.1892598569393158,
						"gravit": 0.005477165337651968,
						"bodi": 0.12719480693340302,
						"need": 0.03108377568423748,
						"o2": -0.18215800821781158,
						"increas": -0.19546730816364288,
						"amount": 0.1464565098285675,
						"red": 0.12917600572109222,
						"blood": -0.12160241603851318,
						"cell": -0.06578631699085236,
						"enough": -0.05136989429593086,
						"look": -0.06877951323986053,
						"felt": 0.12498553097248077,
						"ladi": -0.009099806658923626,
						"seem": 0.17463822662830353,
						"insist": -0.19413135945796967,
						"w": -0.0010324484901502728,
						"akward": 0.03551483899354935,
						"awkward": 0.0945025235414505,
						"obvious": -0.09250876307487488,
						"doe": -0.13438227772712708,
						"introduct": 0.14331278204917908,
						"becam": 0.048899345099925995,
						"float": -0.09599124640226364,
						"base": 0.15036657452583313,
						"similar": 0.13706059753894806,
						"action": -0.03802157938480377,
						"particular": 0.16915908455848694,
						"though": 0.01939503662288189,
						"not": -0.1509159952402115,
						"state": -0.12920650839805603,
						"passag": 0.11686305701732635,
						"infer": -0.15542738139629364,
						"year": -0.1865551620721817,
						"old": 0.1367800086736679,
						"make": -0.005861814599484205,
						"uncomfort": -0.12647178769111633,
						"thu": -0.18577136099338531,
						"space": -0.035053979605436325,
						"flight": 0.05345070734620094,
						"either": -0.13056424260139465,
						"forward": 0.16049878299236298,
						"especi": -0.18303558230400085,
						"possibl": 0.06815491616725922,
						"immedi": -0.09439549595117569,
						"interest": 0.17206797003746033,
						"want": -0.13414239883422852,
						"stranger": 0.04488934576511383,
						"peer": 0.15593533217906952,
						"psycholog": -0.16876816749572754,
						"respons": -0.1582089215517044,
						"trigger": 0.18639159202575684,
						"experienc": -0.056820616126060486,
						"emot": -0.14162753522396088,
						"sens": -0.047829706221818924,
						"nervous": 0.13747245073318481,
						"anticip": -0.17920145392417908,
						"result": -0.04267492517828941,
						"check": -0.1244082823395729,
						"embarass": -0.08939711004495621,
						"blush": 0.06901880353689194,
						"met": -0.07276860624551773,
						"appear": 0.16891257464885712,
						"shrianna": 0.09327121824026108,
						"embarras": -0.02490081824362278,
						"do": -0.1027337983250618,
						"ask": 0.03500153124332428,
						"reason": -0.13071544468402863,
						"kind": -0.01696738973259926,
						"natur": -0.1985892951488495,
						"typic": -0.1253812462091446,
						"made": -0.02549222856760025,
						"front": 0.028653087094426155,
						"sheranna": 0.1403941959142685,
						"imbarasemnet": 0.05201917886734009
					}
				},
				"4": {
					"bias": 0.05859053507447243,
					"weights": {
						"11": 0.013558709062635899,
						"crush": -0.179538294672966,
						"probabl": 0.10837335139513016,
						"like": 0.1806410253047943,
						"embarrass": 0.11617844551801682,
						"aunt": 0.18661178648471832,
						"introduc": -0.15643875300884247,
						"girl": -0.13967755436897278,
						"mom": -0.09102540463209152,
						"talk": 0.08164092898368835,
						"show": -0.10863670706748962,
						"sheepish": 0.1522989720106125,
						"when": 0.05460108816623688,
						"meet": -0.19479838013648987,
						"new": 0.13463373482227325,
						"person": 0.0692756175994873,
						"nervou": 0.13903598487377167,
						"mayb": -0.18033821880817413,
						"adam": 0.0711563229560852,
						"cheek": -0.11937960982322693,
						"flush": -0.06383615732192993,
						"shy": -0.06605885177850723,
						"shiranna": 0.17797870934009552,
						"due": -0.1313144862651825,
						"mother": -0.0769248977303505,
						"attempt": -0.021324224770069122,
						"someon": -0.19049771130084991,
						"around": -0.17615965008735657,
						"ag": -0.026233667507767677,
						"differ": -0.153618723154068,
						"gender": 0.05589165538549423,
						"boi": 0.00464298902079463,
						"thought": 0.12589363753795624,
						"cute": 0.11760690063238144,
						"own": -0.10045648366212845,
						"nerv": 0.07056039571762085,
						"wrack": 0.1273738294839859,
						"feel": -0.12154089659452438,
						"strang": 0.10742707550525665,
						"invit": -0.03800743445754051,
						"teenag": 0.08196766674518585,
						"think": 0.01435175258666277,
						"try": -0.019072774797677994,
						"help": -0.07463560998439789,
						"friend": -0.04967627301812172,
						"mai": -0.05797504633665085,
						"even": -0.10751785337924957,
						"bit": -0.17261028289794922,
						"young": 0.10635628551244736,
						"man": -0.026310818269848824,
						"son": -0.11598193645477295,
						"know": 0.05475937947630882,
						"sure": 0.1440802663564682,
						"weightless": -0.06467544287443161,
						"perhap": -0.027517223730683327,
						"just": -0.029292671009898186,
						"skin": -0.1605719029903412,
						"type": 0.019423050805926323,
						"she": 0.0711919367313385,
						"venu": -0.0728965625166893,
						"proceed": 0.21224622428417206,
						"number": -0.03758860379457474,
						"somersault": -0.015562980435788631,
						"gravit": 0.15799178183078766,
						"bodi": 0.13069014251232147,
						"need": -0.009323220700025558,
						"o2": -0.07616778463125229,
						"increas": 0.028229333460330963,
						"amount": 0.04748893529176712,
						"red": 0.21617117524147034,
						"blood": -0.1158069521188736,
						"cell": -0.12214582413434982,
						"enough": -0.0882275328040123,
						"look": -0.04005920886993408,
						"felt": -0.15722496807575226,
						"ladi": 0.0870697945356369,
						"seem": -0.0502995029091835,
						"insist": 0.007661626674234867,
						"w": 0.15145793557167053,
						"akward": -0.14552238583564758,
						"awkward": -0.10276675224304199,
						"obvious": 0.15718013048171997,
						"doe": 0.0705021321773529,
						"introduct": 0.17742349207401276,
						"becam": -0.13211704790592194,
						"float": 0.0718173161149025,
						"base": -0.17324674129486084,
						"similar": -0.19158238172531128,
						"action": -0.09882447868585587,
						"particular": 0.1190233826637268,
						"though": -0.11385054886341095,
						"not": -0.18859052658081055,
						"state": 0.04715907946228981,
						"passag": -0.018414512276649475,
						"infer": -0.08888775110244751,
						"year": -0.13960863649845123,
						"old": 0.13600437343120575,
						"make": -0.06843353062868118,
						"uncomfort": -0.027805406600236893,
						"thu": 0.16304032504558563,
						"space": 0.1364639699459076,
						"flight": -0.043637581169605255,
						"either": 0.13045595586299896,
						"forward": 0.10059501230716705,
						"especi": 0.12125089764595032,
						"possibl": -0.10634420812129974,
						"immedi": -0.07194559276103973,
						"interest": -0.18653129041194916,
						"want": -0.18022072315216064,
						"stranger": 0.08031062036752701,
						"peer": -0.1578272134065628,
						"psycholog": -0.03169277310371399,
						"respons": 0.10685834288597107,
						"trigger": 0.030136920511722565,
						"experienc": 0.049470361322164536,
						"emot": -0.08481448888778687,
						"sens": 0.03972135856747627,
						"nervous": 0.14383140206336975,
						"anticip": -0.1299065798521042,
						"result": -0.04720332846045494,
						"check": -0.15714094042778015,
						"embarass": 0.03098931908607483,
						"blush": 0.04322732985019684,
						"met": 0.11841723322868347,
						"appear": -0.19893468916416168,
						"shrianna": 0.13632118701934814,
						"embarras": 0.07642089575529099,
						"do": 0.08932605385780334,
						"ask": -0.045655325055122375,
						"reason": 0.1608794778585434,
						"kind": 0.10320446640253067,
						"natur": -0.12405755370855331,
						"typic": 0.13590575754642487,
						"made": 0.11773514002561569,
						"front": -0.006930612958967686,
						"sheranna": -0.0033087339252233505,
						"imbarasemnet": 0.15178200602531433
					}
				},
				"5": {
					"bias": -0.08150151371955872,
					"weights": {
						"11": 0.154176265001297,
						"crush": -0.19444996118545532,
						"probabl": 0.0406087301671505,
						"like": 0.059347882866859436,
						"embarrass": -0.29569804668426514,
						"aunt": -0.14002497494220734,
						"introduc": -0.14659887552261353,
						"girl": -0.09870824962854385,
						"mom": -0.07505016028881073,
						"talk": 0.19153524935245514,
						"show": 0.0782848447561264,
						"sheepish": 0.08376851677894592,
						"when": -0.177323117852211,
						"meet": 0.019714850932359695,
						"new": -0.1708376258611679,
						"person": 0.10163029283285141,
						"nervou": 0.18876011669635773,
						"mayb": 0.012996452860534191,
						"adam": -0.13016164302825928,
						"cheek": -0.159216046333313,
						"flush": -0.08121056854724884,
						"shy": -0.29155296087265015,
						"shiranna": -0.19356419146060944,
						"due": -0.16412228345870972,
						"mother": -0.06812866032123566,
						"attempt": 0.027703244239091873,
						"someon": -0.1383640319108963,
						"around": 0.07169695198535919,
						"ag": -0.13715413212776184,
						"differ": -0.1276034116744995,
						"gender": 0.1434449851512909,
						"boi": 0.11902356892824173,
						"thought": 0.0389825738966465,
						"cute": 0.051690828055143356,
						"own": -0.14426225423812866,
						"nerv": -0.04114934056997299,
						"wrack": 0.054475460201501846,
						"feel": -0.19461682438850403,
						"strang": 0.046956539154052734,
						"invit": -0.08397733420133591,
						"teenag": 0.00883104931563139,
						"think": -0.05634969100356102,
						"try": -0.0008821854135021567,
						"help": 0.16217352449893951,
						"friend": -0.012154378928244114,
						"mai": 0.11123315989971161,
						"even": 0.13574737310409546,
						"bit": 0.051347747445106506,
						"young": 0.09336520731449127,
						"man": -0.11976399272680283,
						"son": -0.08416625112295151,
						"know": 0.18134364485740662,
						"sure": 0.004623300861567259,
						"weightless": -0.039319269359111786,
						"perhap": -0.03868339583277702,
						"just": -0.09995958209037781,
						"skin": 0.17803268134593964,
						"type": 0.12025423347949982,
						"she": -0.1996946483850479,
						"venu": -0.04202476516366005,
						"proceed": 0.22520232200622559,
						"number": -0.04323272779583931,
						"somersault": 0.19262541830539703,
						"gravit": 0.01833660714328289,
						"bodi": 0.05879724770784378,
						"need": -0.0006515085115097463,
						"o2": 0.14143718779087067,
						"increas": 0.16896149516105652,
						"amount": 0.0906185582280159,
						"red": 0.05015559494495392,
						"blood": -0.06192116066813469,
						"cell": 0.203571617603302,
						"enough": -0.1484866440296173,
						"look": -0.010115337558090687,
						"felt": -0.00908728688955307,
						"ladi": 0.08013404160737991,
						"seem": 0.10510782897472382,
						"insist": -0.032694894820451736,
						"w": 0.13765943050384521,
						"akward": 0.017108600586652756,
						"awkward": 0.01642264984548092,
						"obvious": -0.02827581577003002,
						"doe": -0.02316833846271038,
						"introduct": -0.11650800704956055,
						"becam": 0.1658773273229599,
						"float": 0.16812224686145782,
						"base": -0.1489361673593521,
						"similar": -0.18704761564731598,
						"action": 0.1393640786409378,
						"particular": 0.045307036489248276,
						"though": 0.04250021278858185,
						"not": -0.033648326992988586,
						"state": 0.1806117594242096,
						"passag": -0.13464725017547607,
						"infer": 0.15379612147808075,
						"year": 0.1201186552643776,
						"old": -0.010266831144690514,
						"make": -0.05755371227860451,
						"uncomfort": -0.16896472871303558,
						"thu": 0.1599610596895218,
						"space": -0.08163372427225113,
						"flight": 0.09882493317127228,
						"either": 0.01620071567595005,
						"forward": -0.1166824996471405,
						"especi": -0.012732859700918198,
						"possibl": -0.17538753151893616,
						"immedi": 0.17844778299331665,
						"interest": 0.16170281171798706,
						"want": 0.07636407762765884,
						"stranger": 0.16924592852592468,
						"peer": 0.034217558801174164,
						"psycholog": 0.1814812272787094,
						"respons": 0.19397559762001038,
						"trigger": -0.09633445739746094,
						"experienc": 0.07470887899398804,
						"emot": -0.054748158901929855,
						"sens": 0.09742578864097595,
						"nervous": -0.05454672500491142,
						"anticip": 0.18818236887454987,
						"result": -0.011667280457913876,
						"check": 0.05800144374370575,
						"embarass": 0.007095429114997387,
						"blush": -0.10708203166723251,
						"met": -0.1909979283809662,
						"appear": -0.08016525954008102,
						"shrianna": 0.021963447332382202,
						"embarras": -0.11361656337976456,
						"do": -0.09463672339916229,
						"ask": -0.11873625963926315,
						"reason": -0.09807846695184708,
						"kind": 0.04885333031415939,
						"natur": -0.039081163704395294,
						"typic": -0.06471344828605652,
						"made": -0.026969492435455322,
						"front": -0.16414351761341095,
						"sheranna": -0.054451603442430496,
						"imbarasemnet": 0.011430279351770878
					}
				},
				"6": {
					"bias": -0.13689446449279785,
					"weights": {
						"11": 0.10939158499240875,
						"crush": -0.08517789095640182,
						"probabl": 0.12922930717468262,
						"like": 0.07470749318599701,
						"embarrass": 0.15749825537204742,
						"aunt": -0.08525682240724564,
						"introduc": -0.10674470663070679,
						"girl": 0.21358755230903625,
						"mom": -0.14141301810741425,
						"talk": 0.0968530997633934,
						"show": 0.1080799326300621,
						"sheepish": -0.09942188858985901,
						"when": -0.07320956140756607,
						"meet": 0.052886586636304855,
						"new": 0.004957808181643486,
						"person": 0.1747766137123108,
						"nervou": 0.08018098771572113,
						"mayb": 0.009665820747613907,
						"adam": 0.039582449942827225,
						"cheek": -0.02310282364487648,
						"flush": 0.15433654189109802,
						"shy": 0.19358693063259125,
						"shiranna": 0.036394067108631134,
						"due": 0.1442413032054901,
						"mother": -0.0005688800592906773,
						"attempt": -0.19036756455898285,
						"someon": 0.09225758165121078,
						"around": -0.054597627371549606,
						"ag": 0.012834308668971062,
						"differ": 0.18095643818378448,
						"gender": -0.10324471443891525,
						"boi": -0.13552163541316986,
						"thought": -0.011133089661598206,
						"cute": -0.17429548501968384,
						"own": 0.008689015172421932,
						"nerv": 0.11317934095859528,
						"wrack": 0.029856843873858452,
						"feel": 0.07911121100187302,
						"strang": -0.061367202550172806,
						"invit": 0.16316425800323486,
						"teenag": 0.07431431114673615,
						"think": 0.1274009346961975,
						"try": 0.05025371164083481,
						"help": -0.16431939601898193,
						"friend": -0.04391441494226456,
						"mai": 0.08858153969049454,
						"even": 0.09746526181697845,
						"bit": 0.18544051051139832,
						"young": -0.11975320428609848,
						"man": 0.05290725827217102,
						"son": -0.13275180757045746,
						"know": 0.16855141520500183,
						"sure": -0.10935046523809433,
						"weightless": -0.15252408385276794,
						"perhap": -0.010103605687618256,
						"just": -0.15815061330795288,
						"skin": 0.1377352923154831,
						"type": -0.2169753462076187,
						"she": -0.005160955712199211,
						"venu": 0.013315769843757153,
						"proceed": 0.0650855004787445,
						"number": 0.1385423094034195,
						"somersault": 0.10199335962533951,
						"gravit": 0.11618229746818542,
						"bodi": 0.05533653125166893,
						"need": -0.15013153851032257,
						"o2": -0.14101088047027588,
						"increas": -0.06020945683121681,
						"amount": -0.1901600956916809,
						"red": -0.04549598693847656,
						"blood": -0.02572755329310894,
						"cell": 0.18395517766475677,
						"enough": -0.15172594785690308,
						"look": -0.18753701448440552,
						"felt": 0.09145522117614746,
						"ladi": -0.08168555796146393,
						"seem": 0.07366860657930374,
						"insist": -0.1719302535057068,
						"w": -0.01715383678674698,
						"akward": 0.11691787838935852,
						"awkward": 0.12407645583152771,
						"obvious": 0.05064401403069496,
						"doe": 0.16707086563110352,
						"introduct": 0.19532854855060577,
						"becam": -0.005798372905701399,
						"float": 0.1648217886686325,
						"base": 0.04767867550253868,
						"similar": -0.13360165059566498,
						"action": -0.06110173463821411,
						"particular": -0.016019552946090698,
						"though": -0.14927935600280762,
						"not": 0.07377047836780548,
						"state": 0.19748751819133759,
						"passag": 0.08357138931751251,
						"infer": 0.04297621175646782,
						"year": -0.04899749532341957,
						"old": -0.07806616276502609,
						"make": 0.1536640226840973,
						"uncomfort": -0.17484800517559052,
						"thu": -0.15220870077610016,
						"space": 0.14135904610157013,
						"flight": -0.023348500952124596,
						"either": -0.0159140732139349,
						"forward": -0.07234866917133331,
						"especi": 0.18971876800060272,
						"possibl": 0.13127557933330536,
						"immedi": 0.1145680844783783,
						"interest": -0.1489245891571045,
						"want": 0.011980199255049229,
						"stranger": 0.10032820701599121,
						"peer": 0.1431722342967987,
						"psycholog": -0.14918529987335205,
						"respons": 0.12024392187595367,
						"trigger": -0.03273148462176323,
						"experienc": 0.0885867327451706,
						"emot": 0.15492478013038635,
						"sens": -0.02669314295053482,
						"nervous": 0.006854758597910404,
						"anticip": 0.16850098967552185,
						"result": -0.11907128989696503,
						"check": 0.1267905831336975,
						"embarass": -0.03540312126278877,
						"blush": -0.01010485365986824,
						"met": 0.0031815783586353064,
						"appear": 0.07868243753910065,
						"shrianna": 0.06172339245676994,
						"embarras": 0.1336190104484558,
						"do": -0.11422332376241684,
						"ask": -0.1928788274526596,
						"reason": -0.06509546935558319,
						"kind": -0.1293032467365265,
						"natur": -0.1624571681022644,
						"typic": -0.10127706825733185,
						"made": -0.18621602654457092,
						"front": -0.029796486720442772,
						"sheranna": 0.18965959548950195,
						"imbarasemnet": 0.1924748420715332
					}
				},
				"7": {
					"bias": -0.12667568027973175,
					"weights": {
						"11": 0.019227253273129463,
						"crush": -0.07229653000831604,
						"probabl": 0.10178429633378983,
						"like": -0.2071407437324524,
						"embarrass": -0.18094699084758759,
						"aunt": 0.1009969487786293,
						"introduc": -0.012811044231057167,
						"girl": -0.19959606230258942,
						"mom": 0.044151563197374344,
						"talk": 0.18985062837600708,
						"show": -0.03723614290356636,
						"sheepish": 0.013397807255387306,
						"when": -0.015056407079100609,
						"meet": 0.14009509980678558,
						"new": 0.18227842450141907,
						"person": 0.013779481872916222,
						"nervou": 0.24685651063919067,
						"mayb": -0.12210313230752945,
						"adam": -0.005039336159825325,
						"cheek": -0.13814634084701538,
						"flush": 0.05962608754634857,
						"shy": 0.09030523151159286,
						"shiranna": -0.1270284354686737,
						"due": 0.08381708711385727,
						"mother": -0.11420691013336182,
						"attempt": -0.17352820932865143,
						"someon": 0.18180419504642487,
						"around": -0.05035887286067009,
						"ag": 0.020084448158740997,
						"differ": 0.11658042669296265,
						"gender": -0.17622245848178864,
						"boi": -0.035739466547966,
						"thought": -0.18078507483005524,
						"cute": 0.1497122198343277,
						"own": 0.051908157765865326,
						"nerv": 0.16953307390213013,
						"wrack": 0.006154502276331186,
						"feel": -0.127291738986969,
						"strang": -0.037714384496212006,
						"invit": 0.016349319368600845,
						"teenag": 0.0579383485019207,
						"think": 0.10152754187583923,
						"try": -0.1661084145307541,
						"help": -0.0861080065369606,
						"friend": 0.059911832213401794,
						"mai": -0.01326444186270237,
						"even": -0.08963575959205627,
						"bit": 0.19425088167190552,
						"young": 0.13489775359630585,
						"man": 0.19028757512569427,
						"son": 0.08665860444307327,
						"know": -0.04781471937894821,
						"sure": 0.12263209372758865,
						"weightless": 0.2142793834209442,
						"perhap": 0.1844407021999359,
						"just": 0.18897752463817596,
						"skin": 0.028485789895057678,
						"type": -0.12293926626443863,
						"she": 0.12137962877750397,
						"venu": -0.0755896270275116,
						"proceed": -0.11671905964612961,
						"number": -0.004874371457844973,
						"somersault": 0.25090789794921875,
						"gravit": 0.06920918822288513,
						"bodi": -0.09376320987939835,
						"need": 0.04744768142700195,
						"o2": -0.040369074791669846,
						"increas": 0.08858684450387955,
						"amount": 0.09685445576906204,
						"red": -0.0946030244231224,
						"blood": -0.13665562868118286,
						"cell": 0.15180604159832,
						"enough": -0.10139598697423935,
						"look": 0.13078734278678894,
						"felt": -0.09164609014987946,
						"ladi": 0.0767863318324089,
						"seem": -0.14261974394321442,
						"insist": -0.044953927397727966,
						"w": 0.02454770728945732,
						"akward": 0.126872256398201,
						"awkward": -0.14386874437332153,
						"obvious": -0.09484616667032242,
						"doe": -0.10970336198806763,
						"introduct": -0.20290382206439972,
						"becam": -0.15961386263370514,
						"float": 0.028158478438854218,
						"base": 0.10764375329017639,
						"similar": 0.18271315097808838,
						"action": 0.1421222984790802,
						"particular": 0.17187151312828064,
						"though": 0.13991180062294006,
						"not": -0.09812135994434357,
						"state": 0.03931667283177376,
						"passag": 0.1980372667312622,
						"infer": 0.008934324607253075,
						"year": 0.13551807403564453,
						"old": -0.009741454385221004,
						"make": -0.10291081666946411,
						"uncomfort": 0.1870194673538208,
						"thu": -0.06143856421113014,
						"space": -0.15510675311088562,
						"flight": -0.014446746557950974,
						"either": 0.0593407042324543,
						"forward": 0.14449386298656464,
						"especi": 0.007870500907301903,
						"possibl": -0.1897273063659668,
						"immedi": -0.06887985020875931,
						"interest": -0.07412974536418915,
						"want": -0.18606983125209808,
						"stranger": 0.14880765974521637,
						"peer": -0.0627814307808876,
						"psycholog": -0.01159947644919157,
						"respons": -0.17515142261981964,
						"trigger": 0.03081350587308407,
						"experienc": 0.028571030125021935,
						"emot": -0.02133934199810028,
						"sens": 0.05817396938800812,
						"nervous": -0.08135733008384705,
						"anticip": 0.07481236755847931,
						"result": 0.0498129203915596,
						"check": -0.12086399644613266,
						"embarass": 0.16478456556797028,
						"blush": -0.11499398201704025,
						"met": -0.03754144534468651,
						"appear": 0.18136601150035858,
						"shrianna": 0.013291262090206146,
						"embarras": 0.09206556528806686,
						"do": -0.07450447231531143,
						"ask": 0.11478262394666672,
						"reason": 0.04026659205555916,
						"kind": -0.009263044223189354,
						"natur": 0.07366982847452164,
						"typic": 0.15175829827785492,
						"made": -0.0719810202717781,
						"front": -0.15069226920604706,
						"sheranna": 0.05919008329510689,
						"imbarasemnet": 0.08938255161046982
					}
				},
				"8": {
					"bias": -0.11695677787065506,
					"weights": {
						"11": -0.1410016566514969,
						"crush": 0.09907421469688416,
						"probabl": -0.27750951051712036,
						"like": 0.29116860032081604,
						"embarrass": 0.5171834826469421,
						"aunt": -0.022659029811620712,
						"introduc": 0.12456275522708893,
						"girl": -0.030544918030500412,
						"mom": -0.047516830265522,
						"talk": 0.07559263706207275,
						"show": -0.13444723188877106,
						"sheepish": -0.18230490386486053,
						"when": 0.16208554804325104,
						"meet": 0.26569873094558716,
						"new": -0.1422887146472931,
						"person": -0.035942330956459045,
						"nervou": -0.2585803270339966,
						"mayb": -0.15644092857837677,
						"adam": 0.12449533492326736,
						"cheek": 0.24212659895420074,
						"flush": 0.11430925130844116,
						"shy": 0.4163687527179718,
						"shiranna": 0.05566518008708954,
						"due": -0.18117432296276093,
						"mother": 0.1039048284292221,
						"attempt": -0.1461360603570938,
						"someon": -0.045764122158288956,
						"around": 0.1521877646446228,
						"ag": 0.2694767117500305,
						"differ": -0.18815720081329346,
						"gender": -0.07707270234823227,
						"boi": 0.11814799904823303,
						"thought": 0.01981515623629093,
						"cute": 0.3050459921360016,
						"own": -0.08977477252483368,
						"nerv": -0.0674326941370964,
						"wrack": 0.14673054218292236,
						"feel": 0.0313529446721077,
						"strang": 0.2000967115163803,
						"invit": -0.14283286035060883,
						"teenag": -0.08935041725635529,
						"think": -0.12133298069238663,
						"try": 0.023671580478549004,
						"help": 0.0019812684040516615,
						"friend": 0.09627886861562729,
						"mai": 0.2023291140794754,
						"even": -0.09050819277763367,
						"bit": -0.008519596420228481,
						"young": -0.11728350818157196,
						"man": 0.07512398064136505,
						"son": -0.06968261301517487,
						"know": -0.02894076704978943,
						"sure": 0.03499128296971321,
						"weightless": -0.3561585545539856,
						"perhap": -0.02163560315966606,
						"just": -0.04972067102789879,
						"skin": -0.26108986139297485,
						"type": 0.008172858506441116,
						"she": 0.12848402559757233,
						"venu": 0.0013740952126681805,
						"proceed": -0.38564223051071167,
						"number": -0.21080999076366425,
						"somersault": -0.09312396496534348,
						"gravit": -0.1547490805387497,
						"bodi": -0.11297527700662613,
						"need": -0.10088782757520676,
						"o2": -0.2543455958366394,
						"increas": -0.00854312814772129,
						"amount": 0.08579486608505249,
						"red": -0.19576509296894073,
						"blood": 0.09222643822431564,
						"cell": -0.156568244099617,
						"enough": -0.23628561198711395,
						"look": 0.058757148683071136,
						"felt": -0.06925876438617706,
						"ladi": 0.10146141797304153,
						"seem": 0.0680195540189743,
						"insist": 0.06202731281518936,
						"w": 0.032948706299066544,
						"akward": 0.12558487057685852,
						"awkward": 0.10642950236797333,
						"obvious": -0.1907902956008911,
						"doe": 0.1495232731103897,
						"introduct": -0.08709409087896347,
						"becam": -0.17181168496608734,
						"float": -0.08542486280202866,
						"base": -0.006560853216797113,
						"similar": 0.14554649591445923,
						"action": 0.17945004999637604,
						"particular": -0.026723749935626984,
						"though": -0.12055251002311707,
						"not": 0.005645267199724913,
						"state": -0.07756313681602478,
						"passag": 0.20002393424510956,
						"infer": 0.04270892217755318,
						"year": 0.18278685212135315,
						"old": -0.053435854613780975,
						"make": 0.15627439320087433,
						"uncomfort": 0.06037769094109535,
						"thu": -0.11123715341091156,
						"space": 0.05626572668552399,
						"flight": -0.15047214925289154,
						"either": 0.12471631914377213,
						"forward": 0.0919729620218277,
						"especi": 0.0378456711769104,
						"possibl": 0.1840696632862091,
						"immedi": -0.022586742416024208,
						"interest": 0.0997764840722084,
						"want": 0.0704754889011383,
						"stranger": -0.13969168066978455,
						"peer": 0.07235229015350342,
						"psycholog": 0.1814536601305008,
						"respons": -0.0004789357481058687,
						"trigger": -0.09700985252857208,
						"experienc": -0.035558778792619705,
						"emot": 0.15295341610908508,
						"sens": -0.11446686089038849,
						"nervous": 0.022238070145249367,
						"anticip": 0.07189521938562393,
						"result": 0.0620843879878521,
						"check": 0.048096731305122375,
						"embarass": 0.10535451769828796,
						"blush": 0.1696539968252182,
						"met": 0.11149726063013077,
						"appear": 0.022772081196308136,
						"shrianna": 0.17711789906024933,
						"embarras": 0.050398603081703186,
						"do": -0.011343820951879025,
						"ask": 0.18997670710086823,
						"reason": 0.1125260517001152,
						"kind": 0.05520983785390854,
						"natur": -0.1621914952993393,
						"typic": 0.09020831435918808,
						"made": 0.06447596848011017,
						"front": -0.0926566943526268,
						"sheranna": 0.1867915540933609,
						"imbarasemnet": 0.16197469830513
					}
				},
				"9": {
					"bias": 0.17668229341506958,
					"weights": {
						"11": 0.11491892486810684,
						"crush": 0.11460363864898682,
						"probabl": 0.02985813468694687,
						"like": -0.13812638819217682,
						"embarrass": 0.06342991441488266,
						"aunt": 0.043256305158138275,
						"introduc": -0.06822997331619263,
						"girl": 0.19508317112922668,
						"mom": -0.0823703333735466,
						"talk": 0.15536147356033325,
						"show": 0.03052453324198723,
						"sheepish": 0.12867635488510132,
						"when": -0.1100226640701294,
						"meet": -0.023779960349202156,
						"new": -0.12744781374931335,
						"person": 0.11686286330223083,
						"nervou": -0.02353811264038086,
						"mayb": -0.13133911788463593,
						"adam": 0.10950817912817001,
						"cheek": -0.13891732692718506,
						"flush": 0.009446135722100735,
						"shy": 0.1360284984111786,
						"shiranna": -0.06333424150943756,
						"due": -0.003732068929821253,
						"mother": 0.18305577337741852,
						"attempt": 0.17801828682422638,
						"someon": 0.1403110921382904,
						"around": -0.04318685084581375,
						"ag": 0.03216015547513962,
						"differ": -0.129277765750885,
						"gender": -0.06503820419311523,
						"boi": 0.07742690294981003,
						"thought": 0.06054409593343735,
						"cute": 0.013340884819626808,
						"own": -0.010840827599167824,
						"nerv": -0.17865385115146637,
						"wrack": -0.05979897081851959,
						"feel": 0.11397244036197662,
						"strang": 0.17638376355171204,
						"invit": -0.11447005718946457,
						"teenag": -0.013956930488348007,
						"think": -0.18377844989299774,
						"try": -0.09053295105695724,
						"help": -0.03528295457363129,
						"friend": -0.004514671396464109,
						"mai": -0.1350257843732834,
						"even": -0.11665819585323334,
						"bit": 0.14659124612808228,
						"young": 0.1368531435728073,
						"man": -0.04112076386809349,
						"son": 0.0005313625442795455,
						"know": -0.18588502705097198,
						"sure": -0.1747225970029831,
						"weightless": -0.056655388325452805,
						"perhap": -0.13978838920593262,
						"just": -0.22904759645462036,
						"skin": 0.0005243840278126299,
						"type": -0.05012644827365875,
						"she": 0.16583195328712463,
						"venu": 0.027301793918013573,
						"proceed": 0.11427803337574005,
						"number": 0.12247449159622192,
						"somersault": 0.004652966279536486,
						"gravit": -0.21926799416542053,
						"bodi": 0.16254682838916779,
						"need": 0.02235690876841545,
						"o2": 0.07983123511075974,
						"increas": 0.02134191058576107,
						"amount": 0.1373608261346817,
						"red": -0.040594082325696945,
						"blood": -0.050364166498184204,
						"cell": -0.08108449727296829,
						"enough": -0.12673528492450714,
						"look": -0.06801784038543701,
						"felt": -0.10623325407505035,
						"ladi": 0.15370921790599823,
						"seem": 0.02433970384299755,
						"insist": 0.18706203997135162,
						"w": 0.0036759867798537016,
						"akward": 0.15582598745822906,
						"awkward": -0.1709335446357727,
						"obvious": -0.012362456880509853,
						"doe": 0.10862208902835846,
						"introduct": 0.03757608309388161,
						"becam": -0.14335957169532776,
						"float": 0.09344881027936935,
						"base": 0.035526081919670105,
						"similar": 0.1725424975156784,
						"action": 0.1287863552570343,
						"particular": -0.11328312009572983,
						"though": -0.07737278938293457,
						"not": 0.08652382344007492,
						"state": 0.03927141800522804,
						"passag": -0.03550221771001816,
						"infer": 0.1416308432817459,
						"year": -0.014721455983817577,
						"old": -0.07297524064779282,
						"make": 0.023008467629551888,
						"uncomfort": -0.13918884098529816,
						"thu": -0.05839450657367706,
						"space": -0.16920165717601776,
						"flight": -0.11986779421567917,
						"either": -0.10595009475946426,
						"forward": 0.18280373513698578,
						"especi": 0.14123114943504333,
						"possibl": -0.02234816737473011,
						"immedi": -0.03793482482433319,
						"interest": -0.16301633417606354,
						"want": -0.14860254526138306,
						"stranger": -0.03325411677360535,
						"peer": -0.11172222346067429,
						"psycholog": 0.1572391241788864,
						"respons": 0.11365401744842529,
						"trigger": 0.08279911428689957,
						"experienc": -0.022409943863749504,
						"emot": -0.0765983983874321,
						"sens": 0.0004711919464170933,
						"nervous": -0.08840125054121017,
						"anticip": 0.03679469972848892,
						"result": -0.10545556247234344,
						"check": -0.012143402360379696,
						"embarass": -0.02797338180243969,
						"blush": -0.126555398106575,
						"met": -0.006087836343795061,
						"appear": -0.18617333471775055,
						"shrianna": -0.03082878701388836,
						"embarras": 0.10082625597715378,
						"do": 0.052874572575092316,
						"ask": 0.15431076288223267,
						"reason": 0.13284192979335785,
						"kind": 0.10076413303613663,
						"natur": -0.08769194781780243,
						"typic": 0.13182909786701202,
						"made": 0.12405119836330414,
						"front": -0.11986923962831497,
						"sheranna": -0.16470003128051758,
						"imbarasemnet": -0.03492956981062889
					}
				},
				"10": {
					"bias": -0.03947274014353752,
					"weights": {
						"11": -0.07468754053115845,
						"crush": 0.12076208740472794,
						"probabl": -0.11787756532430649,
						"like": -0.06205548346042633,
						"embarrass": 0.4195091724395752,
						"aunt": 0.1312553882598877,
						"introduc": -0.04028970003128052,
						"girl": 0.01984385959804058,
						"mom": 0.13503310084342957,
						"talk": -0.18600578606128693,
						"show": -0.10561026632785797,
						"sheepish": 0.13627438247203827,
						"when": -0.04322290048003197,
						"meet": 0.29967111349105835,
						"new": -0.008809557184576988,
						"person": -0.15231837332248688,
						"nervou": -0.16072672605514526,
						"mayb": 0.08021721988916397,
						"adam": 0.2216571420431137,
						"cheek": 0.2414705753326416,
						"flush": -0.07103241980075836,
						"shy": 0.333873987197876,
						"shiranna": 0.018485914915800095,
						"due": 0.14871017634868622,
						"mother": 0.0637609213590622,
						"attempt": -0.057853467762470245,
						"someon": -0.10039140284061432,
						"around": 0.21260112524032593,
						"ag": 0.04835134744644165,
						"differ": -0.10727221518754959,
						"gender": -0.10252147167921066,
						"boi": -0.14058735966682434,
						"thought": 0.04422875493764877,
						"cute": 0.12488656491041183,
						"own": -0.032719992101192474,
						"nerv": -0.02952244132757187,
						"wrack": -0.006574648432433605,
						"feel": 0.10665266215801239,
						"strang": 0.1384987235069275,
						"invit": -0.1383584886789322,
						"teenag": -0.15225890278816223,
						"think": 0.20913615822792053,
						"try": -0.08710837364196777,
						"help": 0.16992418467998505,
						"friend": -0.024141818284988403,
						"mai": 0.2577989995479584,
						"even": -0.15093955397605896,
						"bit": -0.0283867958933115,
						"young": -0.13053855299949646,
						"man": 0.057629264891147614,
						"son": 0.20085659623146057,
						"know": 0.04242771491408348,
						"sure": -0.010409638285636902,
						"weightless": -0.3314967453479767,
						"perhap": -0.05535747855901718,
						"just": -0.18435393273830414,
						"skin": 0.0526130348443985,
						"type": -0.2737635672092438,
						"she": -0.052486058324575424,
						"venu": -0.12658920884132385,
						"proceed": -0.2142069786787033,
						"number": -0.12086004763841629,
						"somersault": -0.00767458276823163,
						"gravit": -0.21303655207157135,
						"bodi": 0.1030266061425209,
						"need": -0.11566481739282608,
						"o2": -0.08339857310056686,
						"increas": -0.16227707266807556,
						"amount": 0.1072477325797081,
						"red": 0.08238030970096588,
						"blood": -0.1887039691209793,
						"cell": 0.00943851750344038,
						"enough": -0.22081613540649414,
						"look": -0.10104238241910934,
						"felt": 0.08928363025188446,
						"ladi": 0.10968279838562012,
						"seem": 0.17819131910800934,
						"insist": -0.012541974894702435,
						"w": -0.009720043279230595,
						"akward": -0.0353376679122448,
						"awkward": -0.0713372677564621,
						"obvious": -0.1658833920955658,
						"doe": 0.10414477437734604,
						"introduct": 0.08519460260868073,
						"becam": 0.13978618383407593,
						"float": -0.009790503419935703,
						"base": 0.11341971904039383,
						"similar": -0.0808609127998352,
						"action": -0.04937900975346565,
						"particular": 0.05305037274956703,
						"though": -0.1602182239294052,
						"not": -0.1900201141834259,
						"state": 0.07292646169662476,
						"passag": 0.05717230960726738,
						"infer": 0.15865060687065125,
						"year": -0.19130580127239227,
						"old": 0.021393464878201485,
						"make": -0.040507972240448,
						"uncomfort": 0.1574634462594986,
						"thu": -0.07883664965629578,
						"space": 0.10004798322916031,
						"flight": -0.2835664749145508,
						"either": -0.14699529111385345,
						"forward": -0.1206837072968483,
						"especi": 0.19640186429023743,
						"possibl": 0.054223526269197464,
						"immedi": 0.15905576944351196,
						"interest": 0.16605539619922638,
						"want": -0.06678372621536255,
						"stranger": -0.15108081698417664,
						"peer": -0.009209382347762585,
						"psycholog": -0.10875465720891953,
						"respons": -0.00034654411138035357,
						"trigger": 0.005476208869367838,
						"experienc": 0.19130225479602814,
						"emot": 0.004548585042357445,
						"sens": 0.12614940106868744,
						"nervous": -0.0465828999876976,
						"anticip": 0.10427791625261307,
						"result": -0.04857669025659561,
						"check": -0.06719282269477844,
						"embarass": -0.16926541924476624,
						"blush": 0.23461373150348663,
						"met": -0.03789254650473595,
						"appear": 0.18991942703723907,
						"shrianna": 0.15161941945552826,
						"embarras": -0.052045535296201706,
						"do": 0.05521020665764809,
						"ask": -0.016941653564572334,
						"reason": -0.005780971609055996,
						"kind": -0.05543166771531105,
						"natur": 0.11535660922527313,
						"typic": 0.13850782811641693,
						"made": 0.13297030329704285,
						"front": 0.0661265105009079,
						"sheranna": -0.0011082004057243466,
						"imbarasemnet": 0.0751376524567604
					}
				},
				"11": {
					"bias": -0.14808425307273865,
					"weights": {
						"11": -0.0103025296702981,
						"crush": 0.08621883392333984,
						"probabl": 0.047796230763196945,
						"like": -0.2162438929080963,
						"embarrass": -0.23870883882045746,
						"aunt": 0.06503554433584213,
						"introduc": -0.06445895880460739,
						"girl": -0.23541821539402008,
						"mom": -0.17281891405582428,
						"talk": 0.04871797561645508,
						"show": 0.011675041168928146,
						"sheepish": 0.18582937121391296,
						"when": 0.014649547636508942,
						"meet": -0.06150837615132332,
						"new": 0.02115417830646038,
						"person": -0.14537163078784943,
						"nervou": -0.022315530106425285,
						"mayb": -0.19114792346954346,
						"adam": -0.16865013539791107,
						"cheek": 0.10798395425081253,
						"flush": -0.01008677389472723,
						"shy": 0.046156156808137894,
						"shiranna": 0.004425938706845045,
						"due": -0.08537514507770538,
						"mother": -0.09169705212116241,
						"attempt": 0.19519737362861633,
						"someon": 0.05934774503111839,
						"around": -0.14343227446079254,
						"ag": -0.011086289770901203,
						"differ": 0.061481624841690063,
						"gender": 0.11273777484893799,
						"boi": -0.010587905533611774,
						"thought": -0.012851451523602009,
						"cute": -0.13544529676437378,
						"own": -0.153647780418396,
						"nerv": -0.08435781300067902,
						"wrack": -0.152491956949234,
						"feel": 0.06872083246707916,
						"strang": -0.15292449295520782,
						"invit": -0.12095706164836884,
						"teenag": 0.075379878282547,
						"think": -0.10010677576065063,
						"try": 0.10922680795192719,
						"help": 0.14479142427444458,
						"friend": 0.049477819353342056,
						"mai": 0.055570460855960846,
						"even": -0.1632646769285202,
						"bit": -0.13322371244430542,
						"young": -0.15320564806461334,
						"man": -0.059232018887996674,
						"son": 0.05080602690577507,
						"know": -0.02185363695025444,
						"sure": -0.060260310769081116,
						"weightless": 0.27188822627067566,
						"perhap": 0.07468125224113464,
						"just": 0.18844075500965118,
						"skin": 0.157276451587677,
						"type": 0.17152702808380127,
						"she": -0.2305351346731186,
						"venu": -0.018844490870833397,
						"proceed": -0.1002412885427475,
						"number": -0.1083633303642273,
						"somersault": -0.10503958910703659,
						"gravit": 0.029929865151643753,
						"bodi": 0.06194950267672539,
						"need": 0.219537153840065,
						"o2": 0.13808025419712067,
						"increas": -0.10560862720012665,
						"amount": 0.12356353551149368,
						"red": -0.07719198614358902,
						"blood": -0.019550882279872894,
						"cell": 0.08115542680025101,
						"enough": -0.10024522989988327,
						"look": -0.1117265596985817,
						"felt": -0.1262633502483368,
						"ladi": -0.047803789377212524,
						"seem": -0.1594202220439911,
						"insist": -0.018045561388134956,
						"w": 0.19651851058006287,
						"akward": 0.046728529036045074,
						"awkward": -0.01589794270694256,
						"obvious": 0.08136418461799622,
						"doe": 0.16586118936538696,
						"introduct": 0.006465695332735777,
						"becam": 0.0770527645945549,
						"float": 0.1088540330529213,
						"base": 0.12710309028625488,
						"similar": 0.12016547471284866,
						"action": -0.03232993185520172,
						"particular": -0.11619032919406891,
						"though": 0.05037657171487808,
						"not": 0.11492834985256195,
						"state": -0.04099889099597931,
						"passag": 0.19211436808109283,
						"infer": 0.029801443219184875,
						"year": -0.04627525806427002,
						"old": -0.03152080997824669,
						"make": 0.13479770720005035,
						"uncomfort": -0.0838959664106369,
						"thu": 0.07814507186412811,
						"space": -0.11597965657711029,
						"flight": 0.21169307827949524,
						"either": -0.0599401481449604,
						"forward": -0.17272278666496277,
						"especi": 0.19080910086631775,
						"possibl": -0.14178243279457092,
						"immedi": -0.20025405287742615,
						"interest": -0.1789449155330658,
						"want": 0.17300210893154144,
						"stranger": 0.009345204569399357,
						"peer": 0.09681140631437302,
						"psycholog": -0.07478609681129456,
						"respons": 0.026545971632003784,
						"trigger": -0.1776772141456604,
						"experienc": 0.12975235283374786,
						"emot": -0.10020250827074051,
						"sens": 0.07823330163955688,
						"nervous": -0.09395233541727066,
						"anticip": -0.19828413426876068,
						"result": -0.04630913585424423,
						"check": -0.11917569488286972,
						"embarass": 0.018918510526418686,
						"blush": 0.09102963656187057,
						"met": -0.0800134539604187,
						"appear": -0.02238047868013382,
						"shrianna": 0.042564865201711655,
						"embarras": 0.1914825290441513,
						"do": 0.04980449751019478,
						"ask": 0.09908171743154526,
						"reason": -0.12640999257564545,
						"kind": -0.08307138830423355,
						"natur": -0.04662001505494118,
						"typic": -0.009672330692410469,
						"made": -0.06543663144111633,
						"front": -0.16981099545955658,
						"sheranna": -0.10428223013877869,
						"imbarasemnet": 0.18915113806724548
					}
				},
				"12": {
					"bias": 0.16001154482364655,
					"weights": {
						"11": 0.14488880336284637,
						"crush": -0.1734779328107834,
						"probabl": 0.054314758628606796,
						"like": -0.15846900641918182,
						"embarrass": -0.046189893037080765,
						"aunt": 0.02855096384882927,
						"introduc": 0.14909619092941284,
						"girl": 0.13498695194721222,
						"mom": -0.20694966614246368,
						"talk": 0.10410507768392563,
						"show": -0.12067015469074249,
						"sheepish": -0.040869176387786865,
						"when": -0.1203131303191185,
						"meet": -0.008504367433488369,
						"new": -0.003974088001996279,
						"person": -0.06108510121703148,
						"nervou": 0.19825860857963562,
						"mayb": -0.034260865300893784,
						"adam": -0.22622734308242798,
						"cheek": -0.07026229053735733,
						"flush": -0.06574664264917374,
						"shy": 0.036663562059402466,
						"shiranna": -0.15423128008842468,
						"due": 0.11416410654783249,
						"mother": -0.1829087734222412,
						"attempt": 0.17885494232177734,
						"someon": -0.05917325243353844,
						"around": -0.05349258705973625,
						"ag": 0.013749776408076286,
						"differ": -0.007194495759904385,
						"gender": 0.11911913007497787,
						"boi": 0.07623320072889328,
						"thought": 0.010978864505887032,
						"cute": -0.09037908166646957,
						"own": -0.024204116314649582,
						"nerv": 0.11087556183338165,
						"wrack": -0.06654267758131027,
						"feel": -0.05934815853834152,
						"strang": -0.01819179393351078,
						"invit": -0.18225370347499847,
						"teenag": -0.12467121332883835,
						"think": 0.11419140547513962,
						"try": 0.011424148455262184,
						"help": 0.1917954683303833,
						"friend": 0.05833302065730095,
						"mai": 0.14270327985286713,
						"even": 0.05552373453974724,
						"bit": 0.1513378620147705,
						"young": 0.13820452988147736,
						"man": -0.1386762410402298,
						"son": -0.004265584051609039,
						"know": -0.17283445596694946,
						"sure": 0.12599016726016998,
						"weightless": 0.21771803498268127,
						"perhap": 0.10101277381181717,
						"just": 0.23666568100452423,
						"skin": 0.16453073918819427,
						"type": -0.06625410914421082,
						"she": -0.08149795234203339,
						"venu": 0.25037023425102234,
						"proceed": -0.030199792236089706,
						"number": 0.09965940564870834,
						"somersault": 0.004136926028877497,
						"gravit": 0.21675987541675568,
						"bodi": 0.0643082931637764,
						"need": 0.17919832468032837,
						"o2": 0.05624017491936684,
						"increas": 0.07881888747215271,
						"amount": 0.21502859890460968,
						"red": 0.05942554771900177,
						"blood": -0.007121825125068426,
						"cell": -0.1268376111984253,
						"enough": 0.1538250744342804,
						"look": -0.179812952876091,
						"felt": 0.1478986144065857,
						"ladi": -0.17643508315086365,
						"seem": -0.14423295855522156,
						"insist": 0.17681486904621124,
						"w": 0.11262544989585876,
						"akward": -0.18192839622497559,
						"awkward": 0.12244187295436859,
						"obvious": -0.12062002718448639,
						"doe": -0.147585928440094,
						"introduct": -0.11691908538341522,
						"becam": 0.030776815488934517,
						"float": -0.06497245281934738,
						"base": 0.1494063138961792,
						"similar": -0.17065934836864471,
						"action": 0.0933188647031784,
						"particular": 0.07583049684762955,
						"though": -0.1333833932876587,
						"not": -0.11309397220611572,
						"state": -0.14408357441425323,
						"passag": -0.1366247981786728,
						"infer": -0.10509458184242249,
						"year": -0.09283602237701416,
						"old": 0.031605131924152374,
						"make": -0.14701388776302338,
						"uncomfort": -0.11994572728872299,
						"thu": 0.05226471275091171,
						"space": 0.10959532111883163,
						"flight": -0.04633291810750961,
						"either": 0.028886154294013977,
						"forward": 0.16591724753379822,
						"especi": -0.09690773487091064,
						"possibl": -0.065435491502285,
						"immedi": -0.03364430367946625,
						"interest": -0.06925777345895767,
						"want": -0.06378977000713348,
						"stranger": 0.13835178315639496,
						"peer": 0.07962198555469513,
						"psycholog": 0.09214483946561813,
						"respons": -0.17620645463466644,
						"trigger": -0.09217894077301025,
						"experienc": -0.07750371098518372,
						"emot": 0.03279950097203255,
						"sens": -0.007039040792733431,
						"nervous": -0.14179275929927826,
						"anticip": -0.1151331439614296,
						"result": -0.027990883216261864,
						"check": -0.1303166002035141,
						"embarass": -0.19601581990718842,
						"blush": 0.10551050305366516,
						"met": -0.1848410964012146,
						"appear": 0.04355466365814209,
						"shrianna": -0.12685827910900116,
						"embarras": 0.013324666768312454,
						"do": 0.005409753881394863,
						"ask": -0.09213835000991821,
						"reason": -0.12674061954021454,
						"kind": 0.14021597802639008,
						"natur": 0.027720347046852112,
						"typic": -0.023997733369469643,
						"made": -0.059519290924072266,
						"front": 0.17146071791648865,
						"sheranna": -0.02766719087958336,
						"imbarasemnet": 0.13946983218193054
					}
				},
				"13": {
					"bias": 0.14642097055912018,
					"weights": {
						"11": 0.046286504715681076,
						"crush": 0.11342886090278625,
						"probabl": 0.15121375024318695,
						"like": -0.13796153664588928,
						"embarrass": -0.04494762793183327,
						"aunt": 0.06817977875471115,
						"introduc": 0.15607479214668274,
						"girl": -0.19857998192310333,
						"mom": -0.2333417385816574,
						"talk": -0.17025403678417206,
						"show": 0.05436336621642113,
						"sheepish": -0.1943219006061554,
						"when": -0.007850931026041508,
						"meet": 0.048379067331552505,
						"new": -0.07301151752471924,
						"person": 0.06679540127515793,
						"nervou": 0.3095340132713318,
						"mayb": 0.09380380064249039,
						"adam": -0.1465741991996765,
						"cheek": 0.03247317671775818,
						"flush": -0.2361331284046173,
						"shy": -0.340148001909256,
						"shiranna": 0.03286953270435333,
						"due": 0.059115394949913025,
						"mother": 0.11392515152692795,
						"attempt": -0.16069737076759338,
						"someon": -0.12690973281860352,
						"around": -0.1981198936700821,
						"ag": -0.1980160027742386,
						"differ": 0.0865882858633995,
						"gender": -0.1652008295059204,
						"boi": -0.09919045865535736,
						"thought": -0.027926042675971985,
						"cute": -0.16639229655265808,
						"own": 0.18612658977508545,
						"nerv": 0.07286207377910614,
						"wrack": 0.19205954670906067,
						"feel": -0.002768774051219225,
						"strang": 0.1505836397409439,
						"invit": -0.19605812430381775,
						"teenag": -0.11209715902805328,
						"think": 0.14863745868206024,
						"try": 0.11288352310657501,
						"help": -0.14800606667995453,
						"friend": -0.12467154115438461,
						"mai": 0.05713260546326637,
						"even": -0.17661422491073608,
						"bit": -0.006608148105442524,
						"young": -0.004707475658506155,
						"man": -0.15133965015411377,
						"son": -0.040740966796875,
						"know": 0.15204589068889618,
						"sure": 0.003939272835850716,
						"weightless": 0.08008723706007004,
						"perhap": 0.1561490148305893,
						"just": 0.20555108785629272,
						"skin": 0.12389663606882095,
						"type": 0.14161346852779388,
						"she": -0.13941210508346558,
						"venu": 0.07673559337854385,
						"proceed": 0.07142747193574905,
						"number": 0.0710604265332222,
						"somersault": 0.19507534801959991,
						"gravit": -0.1482439786195755,
						"bodi": -0.028362097218632698,
						"need": 0.22970201075077057,
						"o2": -0.027652215212583542,
						"increas": -0.09976684302091599,
						"amount": -0.09920201450586319,
						"red": -0.07365766912698746,
						"blood": 0.18593871593475342,
						"cell": 0.21162879467010498,
						"enough": 0.086222343146801,
						"look": -0.16413527727127075,
						"felt": 0.044096820056438446,
						"ladi": 0.1035257875919342,
						"seem": 0.12145791202783585,
						"insist": -0.005714212544262409,
						"w": 0.019342783838510513,
						"akward": 0.10428202152252197,
						"awkward": -0.1766686737537384,
						"obvious": -0.19011297821998596,
						"doe": -0.03363144025206566,
						"introduct": 0.05174794793128967,
						"becam": -0.09614377468824387,
						"float": -0.1749284416437149,
						"base": 0.17025896906852722,
						"similar": -0.026527326554059982,
						"action": 0.12137400358915329,
						"particular": 0.09480955451726913,
						"though": -0.15295439958572388,
						"not": 0.15147808194160461,
						"state": -0.14437897503376007,
						"passag": -0.1813354790210724,
						"infer": 0.0813257247209549,
						"year": 0.015529700554907322,
						"old": -0.009221809916198254,
						"make": -0.022378021851181984,
						"uncomfort": -0.07528464496135712,
						"thu": 0.09995998442173004,
						"space": 0.06279091536998749,
						"flight": 0.12351682782173157,
						"either": 0.04672178998589516,
						"forward": -0.08779403567314148,
						"especi": 0.176502525806427,
						"possibl": -0.21775253117084503,
						"immedi": -0.027682552114129066,
						"interest": 0.19020451605319977,
						"want": 0.17486657202243805,
						"stranger": 0.1521972268819809,
						"peer": 0.14158710837364197,
						"psycholog": -0.0314810574054718,
						"respons": 0.12482628226280212,
						"trigger": -0.06696149706840515,
						"experienc": 0.048908066004514694,
						"emot": 0.10704857110977173,
						"sens": -0.0453069694340229,
						"nervous": -0.08497508615255356,
						"anticip": 0.011794328689575195,
						"result": -0.12962819635868073,
						"check": -0.12548144161701202,
						"embarass": 0.14398986101150513,
						"blush": -0.047868937253952026,
						"met": -0.10693401098251343,
						"appear": 0.18773706257343292,
						"shrianna": -0.14974920451641083,
						"embarras": -0.07087063044309616,
						"do": 0.1930588185787201,
						"ask": -0.11417641490697861,
						"reason": 0.07443758100271225,
						"kind": -0.18693110346794128,
						"natur": -0.14970143139362335,
						"typic": 0.17815585434436798,
						"made": -0.04120771586894989,
						"front": 0.1240859180688858,
						"sheranna": 0.11532331258058548,
						"imbarasemnet": -0.14842435717582703
					}
				},
				"14": {
					"bias": 0.18208777904510498,
					"weights": {
						"11": 0.06479467451572418,
						"crush": 0.14862646162509918,
						"probabl": -0.06752913445234299,
						"like": -0.06854362785816193,
						"embarrass": -0.10909993201494217,
						"aunt": 0.19202299416065216,
						"introduc": -0.15783251821994781,
						"girl": 0.14958064258098602,
						"mom": -0.1750093400478363,
						"talk": 0.05234362557530403,
						"show": -0.035672467201948166,
						"sheepish": -0.14049071073532104,
						"when": -0.03758377581834793,
						"meet": -0.14760731160640717,
						"new": -0.17713050544261932,
						"person": -0.1793632060289383,
						"nervou": -0.06428766995668411,
						"mayb": -0.007459460292011499,
						"adam": -0.24002259969711304,
						"cheek": -0.20262421667575836,
						"flush": 0.014594655483961105,
						"shy": -0.24047832190990448,
						"shiranna": 0.12442100048065186,
						"due": -0.08815249055624008,
						"mother": -0.10556576400995255,
						"attempt": -0.015997016802430153,
						"someon": 0.16756053268909454,
						"around": -0.15373030304908752,
						"ag": -0.18302543461322784,
						"differ": -0.00958628673106432,
						"gender": -0.1987500786781311,
						"boi": 0.04515037685632706,
						"thought": -0.08006904274225235,
						"cute": 0.11891895532608032,
						"own": -0.05944017693400383,
						"nerv": 0.004765331279486418,
						"wrack": -0.16231270134449005,
						"feel": 0.13946856558322906,
						"strang": -0.13181771337985992,
						"invit": -0.06976041197776794,
						"teenag": 0.09109501540660858,
						"think": 0.018428504467010498,
						"try": 0.039569564163684845,
						"help": -0.13432613015174866,
						"friend": 0.036658577620983124,
						"mai": -0.039771322160959244,
						"even": -0.10206618905067444,
						"bit": 0.10512138903141022,
						"young": -0.08515653014183044,
						"man": 0.17333270609378815,
						"son": -0.19503483176231384,
						"know": -0.1347566395998001,
						"sure": 0.07565318793058395,
						"weightless": -0.09958374500274658,
						"perhap": -0.16410322487354279,
						"just": 0.04887335002422333,
						"skin": -0.12890765070915222,
						"type": 0.013700735755264759,
						"she": 0.0961431935429573,
						"venu": -0.010982654988765717,
						"proceed": 0.20918995141983032,
						"number": -0.09053274989128113,
						"somersault": -0.10424677282571793,
						"gravit": 0.20992572605609894,
						"bodi": -0.14859971404075623,
						"need": 0.00901202205568552,
						"o2": 0.07504282891750336,
						"increas": 0.13381586968898773,
						"amount": -0.06742294132709503,
						"red": 0.1334000527858734,
						"blood": -0.040180619806051254,
						"cell": 0.17025479674339294,
						"enough": 0.13949406147003174,
						"look": 0.08562459796667099,
						"felt": -0.014171319082379341,
						"ladi": -0.12485601007938385,
						"seem": -0.05890993773937225,
						"insist": 0.10182511806488037,
						"w": 0.12395888566970825,
						"akward": 0.18585802614688873,
						"awkward": 0.1386694610118866,
						"obvious": -0.07221192866563797,
						"doe": 0.020180512219667435,
						"introduct": 0.17515558004379272,
						"becam": -0.0006808399339206517,
						"float": -0.1864708513021469,
						"base": -0.16537629067897797,
						"similar": 0.06744937598705292,
						"action": -0.06601797789335251,
						"particular": -0.03130657598376274,
						"though": -0.007054055575281382,
						"not": -0.09468124061822891,
						"state": -0.17523212730884552,
						"passag": -0.12265840172767639,
						"infer": 0.06325370073318481,
						"year": -0.04744387045502663,
						"old": 0.10083897411823273,
						"make": -0.11293204128742218,
						"uncomfort": 0.003679925110191107,
						"thu": 0.05530521646142006,
						"space": -0.02153158374130726,
						"flight": 0.18802782893180847,
						"either": 0.10978155583143234,
						"forward": -0.06416913866996765,
						"especi": 0.19123418629169464,
						"possibl": 0.1733744889497757,
						"immedi": 0.12445367872714996,
						"interest": 0.1452185958623886,
						"want": 0.029952656477689743,
						"stranger": 0.08562196046113968,
						"peer": -0.07444963604211807,
						"psycholog": 0.004945916589349508,
						"respons": -0.09398603439331055,
						"trigger": -0.11563574522733688,
						"experienc": -0.1463426798582077,
						"emot": 0.05565297603607178,
						"sens": 0.12295305728912354,
						"nervous": -0.17496702075004578,
						"anticip": -0.04129716008901596,
						"result": -0.19248054921627045,
						"check": 0.06905432790517807,
						"embarass": 0.10101234912872314,
						"blush": 0.15283483266830444,
						"met": 0.14945639669895172,
						"appear": 0.040729671716690063,
						"shrianna": 0.04770365729928017,
						"embarras": -0.06921911984682083,
						"do": -0.039057739078998566,
						"ask": -0.16702087223529816,
						"reason": -0.013703799806535244,
						"kind": 0.18662680685520172,
						"natur": 0.019158808514475822,
						"typic": -0.005714260973036289,
						"made": -0.12965801358222961,
						"front": -0.1686190813779831,
						"sheranna": -0.18567480146884918,
						"imbarasemnet": -0.15022575855255127
					}
				},
				"15": {
					"bias": 0.10740747302770615,
					"weights": {
						"11": 0.020500877872109413,
						"crush": 0.08430841565132141,
						"probabl": -0.12682121992111206,
						"like": 0.12181147187948227,
						"embarrass": -0.16474056243896484,
						"aunt": -0.010688208974897861,
						"introduc": -0.08362729847431183,
						"girl": -0.18598124384880066,
						"mom": -0.10801351070404053,
						"talk": -0.16162092983722687,
						"show": -0.10968556255102158,
						"sheepish": 0.1588570773601532,
						"when": -0.09202121198177338,
						"meet": 0.051427289843559265,
						"new": -0.06358448415994644,
						"person": -0.13044799864292145,
						"nervou": 0.0038193531800061464,
						"mayb": -0.2085162103176117,
						"adam": -0.0039016902446746826,
						"cheek": 0.0025037191808223724,
						"flush": 0.006773422937840223,
						"shy": -0.000017971919078263454,
						"shiranna": 0.07240299135446548,
						"due": 0.10017641633749008,
						"mother": -0.18193410336971283,
						"attempt": -0.17060771584510803,
						"someon": -0.030762184411287308,
						"around": -0.031128043308854103,
						"ag": -0.1380707174539566,
						"differ": 0.15994229912757874,
						"gender": -0.10823215544223785,
						"boi": -0.19074691832065582,
						"thought": -0.11516765505075455,
						"cute": -0.045232903212308884,
						"own": -0.15834695100784302,
						"nerv": 0.10561332106590271,
						"wrack": 0.17600227892398834,
						"feel": -0.028055863454937935,
						"strang": -0.0781368836760521,
						"invit": 0.015594465658068657,
						"teenag": -0.16392368078231812,
						"think": -0.053283240646123886,
						"try": -0.12715721130371094,
						"help": 0.04037906229496002,
						"friend": 0.08935137093067169,
						"mai": -0.1372300386428833,
						"even": 0.19437596201896667,
						"bit": 0.043572697788476944,
						"young": -0.1427626758813858,
						"man": 0.038996946066617966,
						"son": 0.00787534099072218,
						"know": 0.1847333312034607,
						"sure": -0.19038382172584534,
						"weightless": 0.28338274359703064,
						"perhap": 0.06655456125736237,
						"just": 0.061355751007795334,
						"skin": -0.09071334451436996,
						"type": -0.13766571879386902,
						"she": 0.09666462242603302,
						"venu": 0.036420758813619614,
						"proceed": 0.005315171554684639,
						"number": -0.11892303079366684,
						"somersault": -0.06139306724071503,
						"gravit": 0.1233803927898407,
						"bodi": 0.16645032167434692,
						"need": 0.14579199254512787,
						"o2": 0.15107960999011993,
						"increas": 0.12295830249786377,
						"amount": 0.15619412064552307,
						"red": 0.16596849262714386,
						"blood": -0.1296592503786087,
						"cell": 0.1248975619673729,
						"enough": 0.016992656514048576,
						"look": 0.14856979250907898,
						"felt": 0.0012331937905400991,
						"ladi": -0.16002190113067627,
						"seem": -0.18041713535785675,
						"insist": 0.017335182055830956,
						"w": 0.03574322164058685,
						"akward": 0.10620639473199844,
						"awkward": 0.08215358108282089,
						"obvious": 0.17843055725097656,
						"doe": 0.12861762940883636,
						"introduct": 0.16976810991764069,
						"becam": 0.09799610078334808,
						"float": -0.04159879311919212,
						"base": -0.15491482615470886,
						"similar": 0.1634664237499237,
						"action": -0.05696071684360504,
						"particular": -0.08056707680225372,
						"though": -0.0010329741053283215,
						"not": -0.04438713937997818,
						"state": -0.011262749321758747,
						"passag": 0.13764981925487518,
						"infer": 0.14018909633159637,
						"year": -0.10170930624008179,
						"old": -0.1070295050740242,
						"make": 0.14765694737434387,
						"uncomfort": 0.07222838699817657,
						"thu": -0.09817206114530563,
						"space": -0.01942952536046505,
						"flight": -0.08411455154418945,
						"either": -0.18426206707954407,
						"forward": -0.10704290121793747,
						"especi": -0.045680493116378784,
						"possibl": -0.21371282637119293,
						"immedi": 0.10130326449871063,
						"interest": -0.03388466313481331,
						"want": 0.03843305632472038,
						"stranger": -0.04341354966163635,
						"peer": 0.09922873973846436,
						"psycholog": -0.05169080197811127,
						"respons": -0.11213802546262741,
						"trigger": 0.17628934979438782,
						"experienc": -0.14440643787384033,
						"emot": 0.08902538567781448,
						"sens": -0.07178386300802231,
						"nervous": -0.10880741477012634,
						"anticip": 0.06913310289382935,
						"result": 0.0263429656624794,
						"check": -0.08739162981510162,
						"embarass": -0.015187269076704979,
						"blush": 0.08342047780752182,
						"met": 0.17355626821517944,
						"appear": 0.08746541291475296,
						"shrianna": 0.16089026629924774,
						"embarras": 0.00824899785220623,
						"do": -0.2016996443271637,
						"ask": -0.18202686309814453,
						"reason": 0.009620919823646545,
						"kind": -0.05219253525137901,
						"natur": -0.13614226877689362,
						"typic": 0.1157158687710762,
						"made": 0.005402260459959507,
						"front": -0.021669041365385056,
						"sheranna": -0.1261342167854309,
						"imbarasemnet": 0.11263585835695267
					}
				},
				"16": {
					"bias": -0.1322522610425949,
					"weights": {
						"11": -0.02876117266714573,
						"crush": 0.030249182134866714,
						"probabl": -0.1394270360469818,
						"like": -0.0517745316028595,
						"embarrass": -0.0403880849480629,
						"aunt": 0.07347827404737473,
						"introduc": -0.09323282539844513,
						"girl": 0.027758607640862465,
						"mom": 0.23025144636631012,
						"talk": 0.07124683260917664,
						"show": 0.1382308155298233,
						"sheepish": -0.048653796315193176,
						"when": -0.12933149933815002,
						"meet": 0.1190410926938057,
						"new": 0.09424788504838943,
						"person": 0.12068422138690948,
						"nervou": -0.25951945781707764,
						"mayb": -0.06397472321987152,
						"adam": -0.107555091381073,
						"cheek": -0.03359067067503929,
						"flush": 0.06991691887378693,
						"shy": 0.2623615860939026,
						"shiranna": 0.11297225207090378,
						"due": -0.13177217543125153,
						"mother": 0.18341191112995148,
						"attempt": 0.08226278424263,
						"someon": -0.08568178117275238,
						"around": -0.06427861005067825,
						"ag": 0.10300639271736145,
						"differ": 0.04462352395057678,
						"gender": -0.19304905831813812,
						"boi": -0.054817795753479004,
						"thought": 0.009049082174897194,
						"cute": -0.16724903881549835,
						"own": -0.1647399216890335,
						"nerv": -0.049780406057834625,
						"wrack": -0.07324223220348358,
						"feel": -0.10346002876758575,
						"strang": 0.024023696780204773,
						"invit": -0.19356538355350494,
						"teenag": 0.20037460327148438,
						"think": -0.016087662428617477,
						"try": -0.09114093333482742,
						"help": -0.0794043317437172,
						"friend": 0.14804723858833313,
						"mai": -0.09925644844770432,
						"even": -0.1881442815065384,
						"bit": 0.061564307659864426,
						"young": -0.060604166239500046,
						"man": -0.10596064478158951,
						"son": -0.013089959509670734,
						"know": 0.10975174605846405,
						"sure": -0.17862413823604584,
						"weightless": -0.006480332929641008,
						"perhap": -0.1683703064918518,
						"just": 0.12020374834537506,
						"skin": -0.2446521818637848,
						"type": -0.21257774531841278,
						"she": -0.1313600242137909,
						"venu": -0.26412275433540344,
						"proceed": -0.043997153639793396,
						"number": -0.21326741576194763,
						"somersault": 0.08979959785938263,
						"gravit": -0.013271468691527843,
						"bodi": 0.049728021025657654,
						"need": -0.1717521697282791,
						"o2": 0.1669432371854782,
						"increas": -0.044174518436193466,
						"amount": -0.0058120316825807095,
						"red": 0.030891668051481247,
						"blood": -0.1121983453631401,
						"cell": -0.22505022585391998,
						"enough": 0.14200443029403687,
						"look": -0.18917188048362732,
						"felt": -0.09649597108364105,
						"ladi": 0.012778515927493572,
						"seem": 0.1939576268196106,
						"insist": 0.010391228832304478,
						"w": 0.09093672782182693,
						"akward": -0.04347369819879532,
						"awkward": -0.09290322661399841,
						"obvious": 0.06971629709005356,
						"doe": 0.08883822709321976,
						"introduct": -0.12220100313425064,
						"becam": 0.16270513832569122,
						"float": 0.030486028641462326,
						"base": -0.04920808970928192,
						"similar": 0.04188688471913338,
						"action": 0.007695063017308712,
						"particular": 0.08565773069858551,
						"though": 0.07447362691164017,
						"not": -0.06069936603307724,
						"state": 0.09217734634876251,
						"passag": -0.0162090752273798,
						"infer": -0.14065907895565033,
						"year": -0.18579532206058502,
						"old": -0.1091977134346962,
						"make": -0.11865843832492828,
						"uncomfort": -0.014187638647854328,
						"thu": -0.05471744015812874,
						"space": 0.019953714683651924,
						"flight": 0.11606688797473907,
						"either": 0.15213897824287415,
						"forward": 0.053009033203125,
						"especi": 0.005886886268854141,
						"possibl": -0.09531714022159576,
						"immedi": -0.11783578991889954,
						"interest": 0.18902941048145294,
						"want": 0.10227487981319427,
						"stranger": 0.09075166285037994,
						"peer": 0.09537401795387268,
						"psycholog": 0.026076575741171837,
						"respons": -0.1857696771621704,
						"trigger": -0.07683037221431732,
						"experienc": -0.1861017495393753,
						"emot": 0.18811701238155365,
						"sens": 0.18322385847568512,
						"nervous": 0.19250144064426422,
						"anticip": 0.010441386140882969,
						"result": 0.04352979734539986,
						"check": 0.06406857818365097,
						"embarass": -0.16882012784481049,
						"blush": 0.164254829287529,
						"met": -0.12043487280607224,
						"appear": -0.11784850060939789,
						"shrianna": 0.185261532664299,
						"embarras": -0.16924114525318146,
						"do": 0.17267663776874542,
						"ask": 0.14601577818393707,
						"reason": -0.09436067938804626,
						"kind": 0.023590557277202606,
						"natur": 0.1917344629764557,
						"typic": 0.0623663105070591,
						"made": -0.04945291578769684,
						"front": -0.14775237441062927,
						"sheranna": 0.00042904162546619773,
						"imbarasemnet": -0.06419901549816132
					}
				},
				"17": {
					"bias": 0.13719378411769867,
					"weights": {
						"11": 0.08030886203050613,
						"crush": -0.1681305468082428,
						"probabl": -0.03999478369951248,
						"like": -0.03203821927309036,
						"embarrass": -0.15315751731395721,
						"aunt": 0.04707251861691475,
						"introduc": 0.16667719185352325,
						"girl": -0.03401793912053108,
						"mom": -0.07981148362159729,
						"talk": 0.062192898243665695,
						"show": 0.07720096409320831,
						"sheepish": -0.039990756660699844,
						"when": -0.17510901391506195,
						"meet": 0.17123204469680786,
						"new": 0.07278254628181458,
						"person": -0.009913723915815353,
						"nervou": 0.03746071457862854,
						"mayb": 0.03297891840338707,
						"adam": 0.1428830474615097,
						"cheek": 0.04047052562236786,
						"flush": 0.1558111310005188,
						"shy": -0.06411859393119812,
						"shiranna": -0.10237138718366623,
						"due": 0.17208965122699738,
						"mother": 0.18008987605571747,
						"attempt": -0.14438298344612122,
						"someon": -0.10364529490470886,
						"around": -0.06998775899410248,
						"ag": -0.028409574180841446,
						"differ": -0.1787225604057312,
						"gender": -0.12210674583911896,
						"boi": 0.09260913729667664,
						"thought": -0.14245930314064026,
						"cute": 0.0355246476829052,
						"own": -0.11345997452735901,
						"nerv": 0.02156359702348709,
						"wrack": 0.17099376022815704,
						"feel": 0.12547290325164795,
						"strang": -0.16423991322517395,
						"invit": -0.07585272938013077,
						"teenag": 0.1338013857603073,
						"think": -0.1429779827594757,
						"try": -0.1876954436302185,
						"help": -0.051907576620578766,
						"friend": -0.0561596155166626,
						"mai": 0.14845137298107147,
						"even": 0.004361079074442387,
						"bit": 0.06716515123844147,
						"young": -0.1427755206823349,
						"man": -0.06821177154779434,
						"son": -0.10566230118274689,
						"know": -0.13326719403266907,
						"sure": 0.14308327436447144,
						"weightless": 0.15195895731449127,
						"perhap": 0.12149390578269958,
						"just": -0.08638256043195724,
						"skin": 0.14789465069770813,
						"type": -0.11641982197761536,
						"she": -0.012270311824977398,
						"venu": -0.0976639911532402,
						"proceed": -0.18178406357765198,
						"number": -0.09707093983888626,
						"somersault": -0.10942352563142776,
						"gravit": -0.15203417837619781,
						"bodi": 0.03847690671682358,
						"need": -0.09005111455917358,
						"o2": -0.018507378175854683,
						"increas": 0.08622430264949799,
						"amount": -0.008360137231647968,
						"red": 0.08623307943344116,
						"blood": 0.1833532154560089,
						"cell": -0.15104565024375916,
						"enough": -0.13569459319114685,
						"look": 0.1641254723072052,
						"felt": 0.20043766498565674,
						"ladi": -0.017664730548858643,
						"seem": -0.08264420181512833,
						"insist": -0.12822437286376953,
						"w": 0.18173711001873016,
						"akward": -0.1972096711397171,
						"awkward": 0.08625370264053345,
						"obvious": -0.15147797763347626,
						"doe": -0.1941688358783722,
						"introduct": -0.059353891760110855,
						"becam": -0.05444996803998947,
						"float": 0.17477796971797943,
						"base": 0.16441771388053894,
						"similar": -0.025540171191096306,
						"action": 0.06240623816847801,
						"particular": -0.101053386926651,
						"though": 0.1494530439376831,
						"not": -0.023861803114414215,
						"state": -0.1567436307668686,
						"passag": -0.13817888498306274,
						"infer": -0.03668803349137306,
						"year": 0.051180895417928696,
						"old": 0.13941659033298492,
						"make": 0.10788676887750626,
						"uncomfort": -0.17483966052532196,
						"thu": 0.05368640273809433,
						"space": -0.13495925068855286,
						"flight": -0.14927227795124054,
						"either": -0.17801915109157562,
						"forward": -0.13703574240207672,
						"especi": 0.1279977262020111,
						"possibl": 0.0312637984752655,
						"immedi": -0.07996069639921188,
						"interest": 0.02207748219370842,
						"want": 0.15685342252254486,
						"stranger": -0.02697969228029251,
						"peer": 0.1761750429868698,
						"psycholog": 0.11349182575941086,
						"respons": -0.12074698507785797,
						"trigger": -0.13851313292980194,
						"experienc": -0.026736456900835037,
						"emot": -0.01185445487499237,
						"sens": -0.06252960860729218,
						"nervous": 0.08477078378200531,
						"anticip": 0.09798143059015274,
						"result": 0.1929948925971985,
						"check": 0.1780252754688263,
						"embarass": 0.095945343375206,
						"blush": 0.04418989270925522,
						"met": -0.1461264044046402,
						"appear": 0.1336653083562851,
						"shrianna": 0.07362636923789978,
						"embarras": -0.13259674608707428,
						"do": 0.03031705692410469,
						"ask": 0.05688687786459923,
						"reason": 0.180452361702919,
						"kind": 0.18707971274852753,
						"natur": -0.008664499036967754,
						"typic": 0.0985332578420639,
						"made": 0.08392827957868576,
						"front": 0.08672422915697098,
						"sheranna": -0.1338774412870407,
						"imbarasemnet": 0.14734722673892975
					}
				},
				"18": {
					"bias": -0.04424052685499191,
					"weights": {
						"11": -0.16223131120204926,
						"crush": 0.05333758145570755,
						"probabl": -0.044525254517793655,
						"like": 0.0426664724946022,
						"embarrass": 0.07057367265224457,
						"aunt": -0.056922201067209244,
						"introduc": -0.05839771032333374,
						"girl": 0.22427020967006683,
						"mom": -0.07763215154409409,
						"talk": -0.11347416788339615,
						"show": -0.1121438667178154,
						"sheepish": -0.10362422466278076,
						"when": -0.01254984363913536,
						"meet": 0.08971992135047913,
						"new": 0.14032141864299774,
						"person": 0.2017429918050766,
						"nervou": -0.3116666376590729,
						"mayb": -0.1117854118347168,
						"adam": 0.14760631322860718,
						"cheek": -0.04650990664958954,
						"flush": -0.0329720564186573,
						"shy": -0.035051025450229645,
						"shiranna": 0.10418068617582321,
						"due": 0.04429939016699791,
						"mother": 0.07201225310564041,
						"attempt": 0.14010563492774963,
						"someon": 0.07182365655899048,
						"around": 0.029297450557351112,
						"ag": 0.0023429919965565205,
						"differ": -0.0686306357383728,
						"gender": 0.06447475403547287,
						"boi": -0.16253814101219177,
						"thought": -0.13917016983032227,
						"cute": 0.24099209904670715,
						"own": -0.020252330228686333,
						"nerv": -0.0062038893811404705,
						"wrack": 0.17599503695964813,
						"feel": -0.026575859636068344,
						"strang": 0.1935279667377472,
						"invit": -0.048994626849889755,
						"teenag": 0.15879438817501068,
						"think": -0.12504597008228302,
						"try": 0.16480319201946259,
						"help": -0.15594102442264557,
						"friend": -0.14012184739112854,
						"mai": 0.21720106899738312,
						"even": 0.16696065664291382,
						"bit": -0.17786940932273865,
						"young": 0.08055848628282547,
						"man": -0.18596221506595612,
						"son": -0.049420591443777084,
						"know": 0.09961241483688354,
						"sure": 0.0035436146426945925,
						"weightless": -0.22620199620723724,
						"perhap": 0.09797463566064835,
						"just": -0.17499949038028717,
						"skin": 0.10662347823381424,
						"type": -0.2635714113712311,
						"she": -0.027014365419745445,
						"venu": -0.2547648251056671,
						"proceed": 0.062231406569480896,
						"number": -0.2489655762910843,
						"somersault": -0.03915742039680481,
						"gravit": -0.11899111419916153,
						"bodi": 0.120242178440094,
						"need": 0.004054049029946327,
						"o2": -0.02877887152135372,
						"increas": -0.0590059719979763,
						"amount": 0.13374358415603638,
						"red": -0.1493903547525406,
						"blood": -0.12972834706306458,
						"cell": -0.11267223209142685,
						"enough": -0.07286133617162704,
						"look": -0.04893403872847557,
						"felt": 0.12136541306972504,
						"ladi": -0.1074277013540268,
						"seem": 0.18281957507133484,
						"insist": -0.15556561946868896,
						"w": 0.14473430812358856,
						"akward": 0.13062560558319092,
						"awkward": -0.08699394017457962,
						"obvious": 0.14998489618301392,
						"doe": -0.0037361839786171913,
						"introduct": 0.07498352974653244,
						"becam": -0.03851627558469772,
						"float": -0.16146981716156006,
						"base": -0.16413427889347076,
						"similar": 0.06480914354324341,
						"action": 0.11651439219713211,
						"particular": 0.01093666534870863,
						"though": -0.16433899104595184,
						"not": -0.08151812851428986,
						"state": -0.009290066547691822,
						"passag": -0.03337099403142929,
						"infer": -0.009392858482897282,
						"year": -0.1381167769432068,
						"old": 0.1375269591808319,
						"make": 0.1737937182188034,
						"uncomfort": 0.012825834564864635,
						"thu": -0.1619434505701065,
						"space": -0.025216180831193924,
						"flight": -0.027381183579564095,
						"either": 0.00664518540725112,
						"forward": 0.034181371331214905,
						"especi": 0.018665339797735214,
						"possibl": 0.19995957612991333,
						"immedi": 0.07217219471931458,
						"interest": -0.12231777608394623,
						"want": -0.11002302169799805,
						"stranger": 0.05006762966513634,
						"peer": 0.06290474534034729,
						"psycholog": -0.05380997806787491,
						"respons": 0.19719518721103668,
						"trigger": -0.014967258088290691,
						"experienc": 0.07485859841108322,
						"emot": 0.13623932003974915,
						"sens": 0.0646154060959816,
						"nervous": 0.09247494488954544,
						"anticip": 0.15432293713092804,
						"result": 0.051215123385190964,
						"check": 0.13210289180278778,
						"embarass": 0.0959121510386467,
						"blush": -0.14795632660388947,
						"met": -0.04041013494133949,
						"appear": 0.026517976075410843,
						"shrianna": -0.1615590751171112,
						"embarras": 0.15078158676624298,
						"do": -0.18590833246707916,
						"ask": -0.008344100788235664,
						"reason": 0.09838217496871948,
						"kind": -0.1806694120168686,
						"natur": -0.12771008908748627,
						"typic": -0.009664124809205532,
						"made": -0.0739351138472557,
						"front": 0.09242726117372513,
						"sheranna": 0.15764957666397095,
						"imbarasemnet": 0.04740452021360397
					}
				},
				"19": {
					"bias": -0.10682495683431625,
					"weights": {
						"11": 0.1974935382604599,
						"crush": -0.03645287826657295,
						"probabl": 0.06693235039710999,
						"like": -0.16656993329524994,
						"embarrass": -0.08348295092582703,
