{
	"createNewObjectString": "function classifierFun() {\r\n    const limdu = require('limdu');\r\n    return new limdu.classifiers.NeuralNetwork();\r\n}",
	"object": {
		"sizes": [
			152,
			76,
			1
		],
		"layers": [
			{
				"11": {},
				"crush": {},
				"probably": {},
				"likes": {},
				"embarrassed": {},
				"aunt": {},
				"introducing": {},
				"girl": {},
				"mom": {},
				"talk": {},
				"showing": {},
				"sheepishness": {},
				"when": {},
				"meeting": {},
				"new": {},
				"person": {},
				"nervous": {},
				"maybe": {},
				"go": {},
				"cheek": {},
				"even": {},
				"shy": {},
				"shiranna": {},
				"flushed": {},
				"due": {},
				"embarrassment": {},
				"mother": {},
				"attempting": {},
				"introduce": {},
				"around": {},
				"age": {},
				"different": {},
				"gender": {},
				"boy": {},
				"thinking": {},
				"cute": {},
				"cheeks": {},
				"own": {},
				"embarrassing": {},
				"nerve": {},
				"wracking": {},
				"feels": {},
				"strange": {},
				"inviting": {},
				"meet": {},
				"teenager": {},
				"think": {},
				"trying": {},
				"help": {},
				"friend": {},
				"may": {},
				"bit": {},
				"introduced": {},
				"young": {},
				"man": {},
				"knows": {},
				"sure": {},
				"weightless": {},
				"perhaps": {},
				"just": {},
				"skin": {},
				"type": {},
				"thinks": {},
				"she": {},
				"venus": {},
				"proceeded": {},
				"number": {},
				"somersaults": {},
				"gravity": {},
				"body": {},
				"needs": {},
				"o2": {},
				"increases": {},
				"amount": {},
				"red": {},
				"blood": {},
				"cell": {},
				"enough": {},
				"looked": {},
				"felt": {},
				"lady": {},
				"seems": {},
				"insistence": {},
				"w": {},
				"akward": {},
				"sense": {},
				"awkward": {},
				"obviously": {},
				"does": {},
				"introduction": {},
				"became": {},
				"floated": {},
				"based": {},
				"similar": {},
				"action": {},
				"particular": {},
				"though": {},
				"not": {},
				"state": {},
				"passage": {},
				"inferred": {},
				"years": {},
				"old": {},
				"makes": {},
				"uncomfortable": {},
				"thus": {},
				"making": {},
				"awkwardness": {},
				"space": {},
				"flight": {},
				"adams": {},
				"either": {},
				"forwardness": {},
				"especially": {},
				"possible": {},
				"immediately": {},
				"interested": {},
				"wants": {},
				"unknown": {},
				"peer": {},
				"psychological": {},
				"response": {},
				"triggered": {},
				"experiencing": {},
				"emotion": {},
				"introduces": {},
				"likely": {},
				"nervousness": {},
				"anticipation": {},
				"result": {},
				"checks": {},
				"embarassed": {},
				"experience": {},
				"blushing": {},
				"met": {},
				"possibly": {},
				"appeared": {},
				"feeling": {},
				"weightlessness": {},
				"shrianna": {},
				"want": {},
				"embarrased": {},
				"doing": {},
				"asked": {},
				"reason": {},
				"kind": {},
				"natural": {},
				"typically": {},
				"made": {},
				"front": {},
				"sheranna": {},
				"imbarasemnet": {}
			},
			{
				"0": {
					"bias": -0.073850616812706,
					"weights": {
						"11": -0.13659796118736267,
						"crush": -0.15463119745254517,
						"probably": -0.18710172176361084,
						"likes": -0.02412189543247223,
						"embarrassed": -0.0061840820126235485,
						"aunt": 0.026722226291894913,
						"introducing": -0.007845889776945114,
						"girl": -0.13684265315532684,
						"mom": 0.19775058329105377,
						"talk": 0.19841045141220093,
						"showing": -0.15238186717033386,
						"sheepishness": 0.18628333508968353,
						"when": -0.0824766680598259,
						"meeting": -0.17265403270721436,
						"new": -0.022683553397655487,
						"person": 0.18471549451351166,
						"nervous": 0.19046233594417572,
						"maybe": -0.054163526743650436,
						"go": -0.1645684689283371,
						"cheek": -0.18518514931201935,
						"even": -0.035392533987760544,
						"shy": 0.1789388507604599,
						"shiranna": -0.14681576192378998,
						"flushed": -0.028624290600419044,
						"due": -0.08715848624706268,
						"embarrassment": 0.10114380717277527,
						"mother": 0.1659412831068039,
						"attempting": 0.0044194976799190044,
						"introduce": 0.0746481642127037,
						"around": -0.015879863873124123,
						"age": 0.008192820474505424,
						"different": 0.1880391240119934,
						"gender": -0.0539478100836277,
						"boy": 0.03160461410880089,
						"thinking": 0.1404295414686203,
						"cute": -0.0732618123292923,
						"cheeks": -0.09877589344978333,
						"own": -0.11027518659830093,
						"embarrassing": -0.11010132730007172,
						"nerve": 0.07286562025547028,
						"wracking": -0.040278978645801544,
						"feels": -0.050661392509937286,
						"strange": -0.19355344772338867,
						"inviting": 0.11065008491277695,
						"meet": -0.06921208649873734,
						"teenager": -0.0009408181649632752,
						"think": -0.07579463720321655,
						"trying": 0.18878936767578125,
						"help": -0.16473813354969025,
						"friend": 0.0034985733218491077,
						"may": 0.026092059910297394,
						"bit": -0.15853363275527954,
						"introduced": -0.1458546221256256,
						"young": -0.12799113988876343,
						"man": -0.15200938284397125,
						"knows": -0.17802651226520538,
						"sure": 0.031265728175640106,
						"weightless": -0.03504704684019089,
						"perhaps": 0.0700666755437851,
						"just": 0.19107262790203094,
						"skin": 0.16135835647583008,
						"type": -0.14169009029865265,
						"thinks": 0.14863798022270203,
						"she": -0.1559029221534729,
						"venus": -0.19288742542266846,
						"proceeded": -0.11014889180660248,
						"number": -0.1975189596414566,
						"somersaults": -0.11767037957906723,
						"gravity": -0.046484410762786865,
						"body": 0.15764358639717102,
						"needs": -0.0546218641102314,
						"o2": -0.12229011952877045,
						"increases": -0.14856216311454773,
						"amount": -0.030854372307658195,
						"red": 0.18768438696861267,
						"blood": -0.0011032870970666409,
						"cell": -0.053658973425626755,
						"enough": 0.1713414192199707,
						"looked": -0.15081146359443665,
						"felt": 0.07120741903781891,
						"lady": -0.015526081435382366,
						"seems": -0.07975585758686066,
						"insistence": 0.10482820868492126,
						"w": -0.012041984125971794,
						"akward": -0.0018437114777043462,
						"sense": -0.0006108916713856161,
						"awkward": 0.1515274941921234,
						"obviously": 0.06533463299274445,
						"does": -0.19371703267097473,
						"introduction": 0.02014772966504097,
						"became": -0.1546095609664917,
						"floated": 0.09524474292993546,
						"based": -0.05483836308121681,
						"similar": -0.08134090900421143,
						"action": 0.15602318942546844,
						"particular": 0.11118073761463165,
						"though": -0.16837017238140106,
						"not": 0.002291896380484104,
						"state": 0.11292261630296707,
						"passage": -0.15878628194332123,
						"inferred": -0.03588851913809776,
						"years": 0.060320351272821426,
						"old": -0.16710300743579865,
						"makes": -0.11375527828931808,
						"uncomfortable": 0.054212503135204315,
						"thus": 0.015997057780623436,
						"making": -0.15912415087223053,
						"awkwardness": -0.009691865183413029,
						"space": 0.18347476422786713,
						"flight": 0.08159839361906052,
						"adams": -0.11345057189464569,
						"either": 0.17025230824947357,
						"forwardness": -0.12101490050554276,
						"especially": 0.12271249294281006,
						"possible": -0.16401666402816772,
						"immediately": 0.06320681422948837,
						"interested": 0.05376499146223068,
						"wants": 0.0886390432715416,
						"unknown": -0.06020238250494003,
						"peer": -0.09759669005870819,
						"psychological": 0.006843444891273975,
						"response": 0.05842045322060585,
						"triggered": 0.09332303702831268,
						"experiencing": 0.17431938648223877,
						"emotion": 0.02977137081325054,
						"introduces": -0.08706945925951004,
						"likely": 0.15592962503433228,
						"nervousness": -0.05805753171443939,
						"anticipation": 0.006406063213944435,
						"result": -0.1966661512851715,
						"checks": 0.12831254303455353,
						"embarassed": -0.012417823076248169,
						"experience": 0.029231322929263115,
						"blushing": 0.11350187659263611,
						"met": -0.15252377092838287,
						"possibly": -0.08735961467027664,
						"appeared": -0.08398740738630295,
						"feeling": 0.04451267793774605,
						"weightlessness": -0.10213440656661987,
						"shrianna": 0.11849705129861832,
						"want": -0.1985998898744583,
						"embarrased": 0.13217276334762573,
						"doing": 0.18934521079063416,
						"asked": 0.1671270877122879,
						"reason": 0.08732360601425171,
						"kind": -0.040792107582092285,
						"natural": 0.08958561718463898,
						"typically": 0.14784486591815948,
						"made": 0.13667398691177368,
						"front": -0.05249975994229317,
						"sheranna": 0.09830097109079361,
						"imbarasemnet": -0.14602679014205933
					}
				},
				"1": {
					"bias": -0.10343646258115768,
					"weights": {
						"11": -0.10978106409311295,
						"crush": 0.04652117192745209,
						"probably": 0.1411808580160141,
						"likes": -0.061436861753463745,
						"embarrassed": -0.192655548453331,
						"aunt": 0.15379565954208374,
						"introducing": -0.16085399687290192,
						"girl": -0.20773495733737946,
						"mom": -0.15327508747577667,
						"talk": -0.035403136163949966,
						"showing": 0.07925063371658325,
						"sheepishness": 0.03587215021252632,
						"when": 0.03670768439769745,
						"meeting": -0.029285425320267677,
						"new": -0.202057883143425,
						"person": -0.15843874216079712,
						"nervous": 0.31288132071495056,
						"maybe": -0.2080867886543274,
						"go": -0.05703215301036835,
						"cheek": -0.013599365949630737,
						"even": -0.19836105406284332,
						"shy": -0.3812166750431061,
						"shiranna": -0.13370737433433533,
						"flushed": -0.2389846295118332,
						"due": -0.11786270886659622,
						"embarrassment": -0.06660284101963043,
						"mother": -0.20918133854866028,
						"attempting": 0.16759955883026123,
						"introduce": 0.00021639300393871963,
						"around": 0.08868083357810974,
						"age": -0.07525087147951126,
						"different": -0.01022079586982727,
						"gender": -0.05821986868977547,
						"boy": -0.14124150574207306,
						"thinking": 0.03829421475529671,
						"cute": -0.0725768655538559,
						"cheeks": 0.0706632062792778,
						"own": -0.058560412377119064,
						"embarrassing": 0.03394298627972603,
						"nerve": -0.04322125017642975,
						"wracking": 0.12077334523200989,
						"feels": -0.028833644464612007,
						"strange": -0.004958939738571644,
						"inviting": -0.018829870969057083,
						"meet": -0.14002130925655365,
						"teenager": 0.0821186751127243,
						"think": 0.18369971215724945,
						"trying": 0.19220596551895142,
						"help": -0.18136198818683624,
						"friend": -0.07355353981256485,
						"may": 0.012908481992781162,
						"bit": 0.054803166538476944,
						"introduced": -0.013684794306755066,
						"young": 0.08754744380712509,
						"man": 0.15021651983261108,
						"knows": 0.16286687552928925,
						"sure": 0.16934548318386078,
						"weightless": 0.17173023521900177,
						"perhaps": 0.07021097838878632,
						"just": 0.12445711344480515,
						"skin": 0.08555519580841064,
						"type": -0.017792891710996628,
						"thinks": -0.209881991147995,
						"she": 0.018317604437470436,
						"venus": 0.1784617006778717,
						"proceeded": 0.19043032824993134,
						"number": 0.27417925000190735,
						"somersaults": -0.06853760778903961,
						"gravity": 0.10965697467327118,
						"body": 0.09166989475488663,
						"needs": 0.06825046986341476,
						"o2": 0.07329889386892319,
						"increases": -0.0844137892127037,
						"amount": 0.14914429187774658,
						"red": -0.0050842249765992165,
						"blood": 0.19658485054969788,
						"cell": 0.2229154258966446,
						"enough": 0.1831454187631607,
						"looked": -0.0722101628780365,
						"felt": 0.07959341257810593,
						"lady": -0.15416119992733002,
						"seems": 0.04025042802095413,
						"insistence": -0.06352546811103821,
						"w": -0.023197118192911148,
						"akward": -0.010346735827624798,
						"sense": -0.060419052839279175,
						"awkward": 0.13042642176151276,
						"obviously": 0.06894992291927338,
						"does": 0.13810612261295319,
						"introduction": 0.06474249064922333,
						"became": -0.15465132892131805,
						"floated": -0.036584723740816116,
						"based": -0.09607535600662231,
						"similar": -0.18678399920463562,
						"action": -0.09106334298849106,
						"particular": -0.05817054584622383,
						"though": -0.1804913580417633,
						"not": -0.1234220638871193,
						"state": -0.12224039435386658,
						"passage": 0.09227423369884491,
						"inferred": 0.007590470369905233,
						"years": -0.10361110419034958,
						"old": 0.11909975856542587,
						"makes": -0.07981081306934357,
						"uncomfortable": 0.07561305165290833,
						"thus": -0.002767092315480113,
						"making": 0.0030894300434738398,
						"awkwardness": 0.08367275446653366,
						"space": -0.12255766242742538,
						"flight": 0.01563022844493389,
						"adams": 0.14968132972717285,
						"either": -0.1264401227235794,
						"forwardness": -0.17220215499401093,
						"especially": 0.09144565463066101,
						"possible": -0.027548369020223618,
						"immediately": 0.002491921652108431,
						"interested": -0.01097952388226986,
						"wants": 0.04364435002207756,
						"unknown": -0.06531131267547607,
						"peer": -0.1653672456741333,
						"psychological": 0.06869164109230042,
						"response": -0.03557458519935608,
						"triggered": -0.12453658133745193,
						"experiencing": -0.19258616864681244,
						"emotion": 0.020339669659733772,
						"introduces": -0.055146150290966034,
						"likely": -0.11105363070964813,
						"nervousness": 0.041362110525369644,
						"anticipation": -0.19262352585792542,
						"result": -0.05751563608646393,
						"checks": -0.01831831783056259,
						"embarassed": -0.18090742826461792,
						"experience": 0.16256199777126312,
						"blushing": 0.007105445023626089,
						"met": -0.023831641301512718,
						"possibly": -0.11181049048900604,
						"appeared": 0.030619319528341293,
						"feeling": -0.014767656102776527,
						"weightlessness": 0.15515412390232086,
						"shrianna": -0.01033521443605423,
						"want": -0.12752346694469452,
						"embarrased": -0.1428452432155609,
						"doing": -0.02291250042617321,
						"asked": -0.09560655057430267,
						"reason": 0.04735951870679855,
						"kind": -0.02546682022511959,
						"natural": -0.017110979184508324,
						"typically": -0.19362609088420868,
						"made": 0.052219491451978683,
						"front": 0.08076609671115875,
						"sheranna": 0.06440804153680801,
						"imbarasemnet": -0.060291461646556854
					}
				},
				"2": {
					"bias": 0.13594555854797363,
					"weights": {
						"11": -0.13880114257335663,
						"crush": 0.07308344542980194,
						"probably": 0.034844789654016495,
						"likes": 0.10473628342151642,
						"embarrassed": 0.16104456782341003,
						"aunt": 0.07897384464740753,
						"introducing": -0.09827680140733719,
						"girl": -0.06104014068841934,
						"mom": -0.01593228057026863,
						"talk": -0.044604528695344925,
						"showing": -0.1774025708436966,
						"sheepishness": -0.190260648727417,
						"when": 0.12297097593545914,
						"meeting": 0.12818120419979095,
						"new": 0.09192149341106415,
						"person": 0.12143588811159134,
						"nervous": -0.23802804946899414,
						"maybe": 0.17850802838802338,
						"go": -0.030365273356437683,
						"cheek": 0.18907570838928223,
						"even": 0.1757621020078659,
						"shy": 0.07236715406179428,
						"shiranna": -0.15385767817497253,
						"flushed": 0.049937859177589417,
						"due": -0.10884277522563934,
						"embarrassment": 0.12887005507946014,
						"mother": 0.04597381129860878,
						"attempting": 0.1176924854516983,
						"introduce": -0.1809510588645935,
						"around": -0.032343149185180664,
						"age": 0.1806022971868515,
						"different": -0.03859200328588486,
						"gender": -0.1752881556749344,
						"boy": 0.06012168899178505,
						"thinking": 0.0015426096506416798,
						"cute": -0.03986871615052223,
						"cheeks": 0.17962408065795898,
						"own": -0.09345507621765137,
						"embarrassing": -0.1141621544957161,
						"nerve": 0.011154179461300373,
						"wracking": -0.012252572923898697,
						"feels": 0.10263214260339737,
						"strange": -0.11057101935148239,
						"inviting": 0.20103080570697784,
						"meet": 0.13496369123458862,
						"teenager": 0.09331243485212326,
						"think": 0.1379571557044983,
						"trying": -0.10127329081296921,
						"help": 0.018048344179987907,
						"friend": 0.1652294248342514,
						"may": 0.03960554674267769,
						"bit": -0.03184700757265091,
						"introduced": 0.20610280334949493,
						"young": -0.18198606371879578,
						"man": 0.020692799240350723,
						"knows": 0.14728578925132751,
						"sure": -0.12196765840053558,
						"weightless": -0.10647699981927872,
						"perhaps": -0.17926616966724396,
						"just": -0.27793824672698975,
						"skin": 0.10938338935375214,
						"type": -0.1116725504398346,
						"thinks": 0.07268568873405457,
						"she": -0.02571202628314495,
						"venus": 0.024389835074543953,
						"proceeded": 0.09037957340478897,
						"number": -0.09319828450679779,
						"somersaults": -0.25028905272483826,
						"gravity": 0.12727274000644684,
						"body": -0.14686821401119232,
						"needs": 0.001996499951928854,
						"o2": 0.1150430291891098,
						"increases": -0.13845320045948029,
						"amount": -0.19353610277175903,
						"red": -0.15076884627342224,
						"blood": 0.11776627600193024,
						"cell": -0.22642536461353302,
						"enough": -0.15953879058361053,
						"looked": 0.15208518505096436,
						"felt": -0.08601881563663483,
						"lady": 0.18796485662460327,
						"seems": 0.11267361789941788,
						"insistence": -0.1673721820116043,
						"w": -0.1859184205532074,
						"akward": -0.11296725273132324,
						"sense": 0.11345341056585312,
						"awkward": 0.18959295749664307,
						"obviously": -0.07711432874202728,
						"does": 0.08087991178035736,
						"introduction": 0.09608401358127594,
						"became": 0.06487204879522324,
						"floated": -0.1784103959798813,
						"based": 0.17694726586341858,
						"similar": -0.006252567749470472,
						"action": -0.0897158607840538,
						"particular": 0.00682033272460103,
						"though": -0.1176232099533081,
						"not": -0.16235125064849854,
						"state": -0.12931649386882782,
						"passage": 0.04652709886431694,
						"inferred": 0.06426488608121872,
						"years": -0.15256190299987793,
						"old": -0.047474343329668045,
						"makes": 0.16306550800800323,
						"uncomfortable": -0.02804476022720337,
						"thus": 0.015341904945671558,
						"making": 0.06496680527925491,
						"awkwardness": 0.10592792928218842,
						"space": -0.012689728289842606,
						"flight": -0.2320144921541214,
						"adams": 0.12314816564321518,
						"either": 0.15337735414505005,
						"forwardness": -0.04459746181964874,
						"especially": 0.054061051458120346,
						"possible": 0.04167585447430611,
						"immediately": -0.11626134812831879,
						"interested": -0.005144915077835321,
						"wants": -0.17109228670597076,
						"unknown": -0.07379914820194244,
						"peer": -0.08174806088209152,
						"psychological": 0.15542355179786682,
						"response": -0.029070604592561722,
						"triggered": -0.1624382585287094,
						"experiencing": 0.08512569218873978,
						"emotion": -0.06432995945215225,
						"introduces": -0.0403980128467083,
						"likely": -0.058625951409339905,
						"nervousness": 0.19616954028606415,
						"anticipation": -0.12920261919498444,
						"result": 0.14376719295978546,
						"checks": -0.19125211238861084,
						"embarassed": 0.09353411942720413,
						"experience": 0.08089200407266617,
						"blushing": 0.16606582701206207,
						"met": -0.004799810238182545,
						"possibly": 0.001492444658651948,
						"appeared": 0.03322584554553032,
						"feeling": -0.10970223695039749,
						"weightlessness": -0.10781420767307281,
						"shrianna": 0.08587055653333664,
						"want": 0.19364674389362335,
						"embarrased": -0.02582988701760769,
						"doing": -0.1034068837761879,
						"asked": -0.0981566533446312,
						"reason": 0.07328473776578903,
						"kind": 0.044250138103961945,
						"natural": -0.04201551526784897,
						"typically": 0.0818769633769989,
						"made": -0.1758328229188919,
						"front": -0.14320093393325806,
						"sheranna": -0.16608096659183502,
						"imbarasemnet": -0.05892623960971832
					}
				},
				"3": {
					"bias": 0.0022231596522033215,
					"weights": {
						"11": -0.08497784286737442,
						"crush": 0.08425839990377426,
						"probably": 0.13244473934173584,
						"likes": 0.09383346885442734,
						"embarrassed": -0.12948086857795715,
						"aunt": -0.07189354300498962,
						"introducing": -0.13925296068191528,
						"girl": -0.0023883874528110027,
						"mom": 0.000871534226462245,
						"talk": -0.01899035833775997,
						"showing": 0.03700050339102745,
						"sheepishness": -0.12378116697072983,
						"when": -0.07413763552904129,
						"meeting": -0.11364825814962387,
						"new": 0.1763797104358673,
						"person": -0.056357480585575104,
						"nervous": -0.10214190930128098,
						"maybe": 0.0068154362961649895,
						"go": -0.15717178583145142,
						"cheek": 0.1690581887960434,
						"even": 0.15432299673557281,
						"shy": -0.1590396612882614,
						"shiranna": -0.15048353374004364,
						"flushed": -0.18528880178928375,
						"due": 0.017681581899523735,
						"embarrassment": 0.08786733448505402,
						"mother": 0.08091341704130173,
						"attempting": 0.03689730167388916,
						"introduce": 0.047810547053813934,
						"around": 0.10496199131011963,
						"age": 0.12357953190803528,
						"different": 0.03130462020635605,
						"gender": 0.0822666734457016,
						"boy": -0.010295270942151546,
						"thinking": -0.1915804147720337,
						"cute": -0.18189871311187744,
						"cheeks": -0.110022634267807,
						"own": -0.006489509250968695,
						"embarrassing": -0.03864356130361557,
						"nerve": 0.10747364908456802,
						"wracking": 0.19463254511356354,
						"feels": 0.04349859803915024,
						"strange": -0.013076024129986763,
						"inviting": -0.046870920807123184,
						"meet": 0.055677108466625214,
						"teenager": 0.015195902436971664,
						"think": 0.09565097838640213,
						"trying": 0.0271020345389843,
						"help": 0.1767527461051941,
						"friend": 0.09027358889579773,
						"may": 0.05355582386255264,
						"bit": -0.1389143466949463,
						"introduced": 0.00010728920460678637,
						"young": -0.11034438759088516,
						"man": -0.12129990011453629,
						"knows": -0.04418640211224556,
						"sure": 0.08342189341783524,
						"weightless": -0.11892560124397278,
						"perhaps": -0.10352997481822968,
						"just": 0.007886843755841255,
						"skin": -0.17717429995536804,
						"type": -0.04707387089729309,
						"thinks": -0.12416104972362518,
						"she": -0.10796777904033661,
						"venus": 0.042179543524980545,
						"proceeded": 0.16998837888240814,
						"number": -0.10975582152605057,
						"somersaults": 0.13137587904930115,
						"gravity": 0.14701375365257263,
						"body": -0.09871339797973633,
						"needs": -0.06888645887374878,
						"o2": -0.07068317383527756,
						"increases": 0.042382996529340744,
						"amount": -0.012364237569272518,
						"red": 0.08166015148162842,
						"blood": -0.17114683985710144,
						"cell": -0.012121343985199928,
						"enough": 0.017619628459215164,
						"looked": 0.11345615237951279,
						"felt": 0.11186036467552185,
						"lady": -0.1844259649515152,
						"seems": -0.09349828958511353,
						"insistence": 0.039661191403865814,
						"w": -0.040822550654411316,
						"akward": -0.13775119185447693,
						"sense": -0.1360851377248764,
						"awkward": 0.19175617396831512,
						"obviously": 0.08916464447975159,
						"does": -0.010847849771380424,
						"introduction": -0.06550991535186768,
						"became": 0.10537144541740417,
						"floated": 0.09638842195272446,
						"based": 0.18561239540576935,
						"similar": -0.06482670456171036,
						"action": -0.125295951962471,
						"particular": 0.18880479037761688,
						"though": 0.085096076130867,
						"not": 0.16546238958835602,
						"state": 0.08884870260953903,
						"passage": 0.12250836193561554,
						"inferred": 0.030555695295333862,
						"years": 0.014709381386637688,
						"old": -0.11502987891435623,
						"makes": 0.10682979971170425,
						"uncomfortable": -0.06659797579050064,
						"thus": -0.1575326770544052,
						"making": 0.17976978421211243,
						"awkwardness": 0.09459197521209717,
						"space": -0.007870348170399666,
						"flight": -0.06295712292194366,
						"adams": -0.08002013713121414,
						"either": -0.06539032608270645,
						"forwardness": -0.19269458949565887,
						"especially": -0.05095365643501282,
						"possible": 0.04232002794742584,
						"immediately": 0.1561129093170166,
						"interested": 0.07667000591754913,
						"wants": -0.11273996531963348,
						"unknown": -0.06452503055334091,
						"peer": 0.19745488464832306,
						"psychological": -0.16585133969783783,
						"response": -0.003828862216323614,
						"triggered": 0.13722698390483856,
						"experiencing": -0.1191311627626419,
						"emotion": 0.10626300424337387,
						"introduces": 0.07542988657951355,
						"likely": 0.15758274495601654,
						"nervousness": -0.1632235199213028,
						"anticipation": -0.16651372611522675,
						"result": -0.16233067214488983,
						"checks": 0.019168362021446228,
						"embarassed": -0.043631069362163544,
						"experience": 0.13805517554283142,
						"blushing": 0.029124075546860695,
						"met": 0.08781345188617706,
						"possibly": 0.17763279378414154,
						"appeared": -0.029414987191557884,
						"feeling": -0.15103501081466675,
						"weightlessness": 0.10850446671247482,
						"shrianna": -0.11367477476596832,
						"want": -0.1971125453710556,
						"embarrased": -0.12854214012622833,
						"doing": 0.03478911891579628,
						"asked": -0.14104290306568146,
						"reason": 0.18080489337444305,
						"kind": 0.009288442321121693,
						"natural": -0.09096915274858475,
						"typically": 0.040173761546611786,
						"made": 0.07819554954767227,
						"front": 0.07489331811666489,
						"sheranna": -0.17363721132278442,
						"imbarasemnet": -0.10856340825557709
					}
				},
				"4": {
					"bias": 0.15214352309703827,
					"weights": {
						"11": -0.18785984814167023,
						"crush": -0.021556250751018524,
						"probably": 0.07691806554794312,
						"likes": -0.025343647226691246,
						"embarrassed": 0.09538349509239197,
						"aunt": 0.07415081560611725,
						"introducing": 0.21820268034934998,
						"girl": 0.07900256663560867,
						"mom": -0.003884305479004979,
						"talk": 0.01929454877972603,
						"showing": -0.18654096126556396,
						"sheepishness": -0.09351548552513123,
						"when": 0.10037924349308014,
						"meeting": 0.12640492618083954,
						"new": 0.17805342376232147,
						"person": 0.04868314042687416,
						"nervous": -0.2769549489021301,
						"maybe": 0.13963177800178528,
						"go": 0.16627267003059387,
						"cheek": 0.20740994811058044,
						"even": 0.11988889425992966,
						"shy": 0.181223064661026,
						"shiranna": -0.13637802004814148,
						"flushed": -0.09200668334960938,
						"due": 0.10085098445415497,
						"embarrassment": 0.09571004658937454,
						"mother": -0.10698313266038895,
						"attempting": 0.09640759229660034,
						"introduce": -0.13335251808166504,
						"around": -0.007512673269957304,
						"age": -0.031888026744127274,
						"different": -0.18619082868099213,
						"gender": 0.028082938864827156,
						"boy": -0.045894522219896317,
						"thinking": 0.18530260026454926,
						"cute": -0.09218735247850418,
						"cheeks": 0.032390713691711426,
						"own": 0.13091136515140533,
						"embarrassing": 0.000018333894331590272,
						"nerve": -0.004684959538280964,
						"wracking": -0.07502484321594238,
						"feels": -0.1366225928068161,
						"strange": 0.19959941506385803,
						"inviting": -0.13443200290203094,
						"meet": 0.11120474338531494,
						"teenager": -0.04951012507081032,
						"think": -0.1808750480413437,
						"trying": 0.030559156090021133,
						"help": -0.019091041758656502,
						"friend": -0.09273159503936768,
						"may": 0.05169001594185829,
						"bit": 0.022045915946364403,
						"introduced": -0.1751665472984314,
						"young": -0.09057912975549698,
						"man": -0.08486894518136978,
						"knows": -0.16370224952697754,
						"sure": 0.06494113057851791,
						"weightless": -0.16707374155521393,
						"perhaps": -0.0027874645311385393,
						"just": -0.19259685277938843,
						"skin": -0.028877388685941696,
						"type": -0.030536480247974396,
						"thinks": -0.17247183620929718,
						"she": 0.13064147531986237,
						"venus": -0.21776461601257324,
						"proceeded": -0.09907393902540207,
						"number": -0.1934874951839447,
						"somersaults": -0.21501947939395905,
						"gravity": 0.1590951681137085,
						"body": 0.09339030832052231,
						"needs": 0.055065419524908066,
						"o2": -0.07548873871564865,
						"increases": 0.03580600768327713,
						"amount": 0.13001862168312073,
						"red": -0.18633121252059937,
						"blood": 0.02792014740407467,
						"cell": -0.16897448897361755,
						"enough": 0.13622750341892242,
						"looked": 0.1574247181415558,
						"felt": 0.14556331932544708,
						"lady": -0.1838015466928482,
						"seems": -0.022317184135317802,
						"insistence": -0.05004962906241417,
						"w": 0.09566240757703781,
						"akward": 0.1297387033700943,
						"sense": 0.10092032700777054,
						"awkward": -0.05036471039056778,
						"obviously": -0.1622384786605835,
						"does": 0.047919172793626785,
						"introduction": 0.14993494749069214,
						"became": 0.19011200964450836,
						"floated": 0.07169049233198166,
						"based": -0.08360417932271957,
						"similar": 0.10233164578676224,
						"action": 0.04033368453383446,
						"particular": 0.036515526473522186,
						"though": -0.07621154934167862,
						"not": -0.07074633985757828,
						"state": -0.1861019879579544,
						"passage": -0.003285104176029563,
						"inferred": -0.03344714641571045,
						"years": 0.07775965332984924,
						"old": -0.14884379506111145,
						"makes": 0.13912519812583923,
						"uncomfortable": -0.07579759508371353,
						"thus": 0.06435102969408035,
						"making": -0.14987632632255554,
						"awkwardness": -0.0988369807600975,
						"space": 0.1370573192834854,
						"flight": 0.02102065272629261,
						"adams": -0.008782860822975636,
						"either": -0.08652270585298538,
						"forwardness": -0.0019835992716252804,
						"especially": 0.018400704488158226,
						"possible": 0.10677620023488998,
						"immediately": 0.19333776831626892,
						"interested": 0.14154517650604248,
						"wants": -0.0585290901362896,
						"unknown": -0.0013430350227281451,
						"peer": 0.011865691281855106,
						"psychological": 0.0835532695055008,
						"response": -0.10830698907375336,
						"triggered": 0.1827881634235382,
						"experiencing": 0.136111781001091,
						"emotion": 0.19721437990665436,
						"introduces": -0.05736992880702019,
						"likely": -0.1435628980398178,
						"nervousness": 0.025085829198360443,
						"anticipation": 0.14511756598949432,
						"result": 0.018434474244713783,
						"checks": 0.1858491450548172,
						"embarassed": -0.09107064455747604,
						"experience": 0.04542010277509689,
						"blushing": -0.0015736711211502552,
						"met": 0.019051747396588326,
						"possibly": 0.04362330585718155,
						"appeared": 0.06396737694740295,
						"feeling": 0.12005364894866943,
						"weightlessness": -0.05456395447254181,
						"shrianna": -0.1053813025355339,
						"want": -0.06989087164402008,
						"embarrased": 0.11834577471017838,
						"doing": -0.09780655056238174,
						"asked": 0.0698624774813652,
						"reason": 0.1351427137851715,
						"kind": -0.17502528429031372,
						"natural": 0.047957491129636765,
						"typically": -0.0312991589307785,
						"made": 0.04762932285666466,
						"front": 0.13098640739917755,
						"sheranna": 0.09428402781486511,
						"imbarasemnet": 0.04200003668665886
					}
				},
				"5": {
					"bias": -0.0001740418520057574,
					"weights": {
						"11": -0.1925099790096283,
						"crush": -0.013692755252122879,
						"probably": 0.1786363124847412,
						"likes": -0.033183977007865906,
						"embarrassed": -0.23349955677986145,
						"aunt": -0.028940780088305473,
						"introducing": -0.16508732736110687,
						"girl": -0.04362812638282776,
						"mom": -0.03858663886785507,
						"talk": 0.1612471342086792,
						"showing": -0.1947631984949112,
						"sheepishness": 0.1444912552833557,
						"when": -0.17965580523014069,
						"meeting": -0.10123871266841888,
						"new": -0.2003990262746811,
						"person": -0.02542959712445736,
						"nervous": 0.25508514046669006,
						"maybe": -0.14197464287281036,
						"go": -0.0819304957985878,
						"cheek": 0.0029387944377958775,
						"even": -0.13501238822937012,
						"shy": -0.2218521684408188,
						"shiranna": -0.18739578127861023,
						"flushed": 0.056924667209386826,
						"due": -0.01248602569103241,
						"embarrassment": 0.07902395725250244,
						"mother": 0.0006938839214853942,
						"attempting": -0.13833379745483398,
						"introduce": 0.150138258934021,
						"around": -0.12039798498153687,
						"age": -0.1594352126121521,
						"different": -0.11239790171384811,
						"gender": 0.03861016407608986,
						"boy": -0.057989925146102905,
						"thinking": -0.12183162569999695,
						"cute": 0.03666748106479645,
						"cheeks": 0.05711129307746887,
						"own": -0.1821901798248291,
						"embarrassing": -0.05818082019686699,
						"nerve": -0.12184315919876099,
						"wracking": -0.17233507335186005,
						"feels": 0.09098845720291138,
						"strange": 0.1683032065629959,
						"inviting": -0.04553134739398956,
						"meet": -0.15561488270759583,
						"teenager": 0.14599761366844177,
						"think": -0.08702326565980911,
						"trying": 0.17022545635700226,
						"help": 0.192047581076622,
						"friend": 0.18727518618106842,
						"may": -0.23413388431072235,
						"bit": 0.08993752300739288,
						"introduced": -0.17689615488052368,
						"young": -0.0321708619594574,
						"man": 0.0419924333691597,
						"knows": -0.17090781033039093,
						"sure": -0.010774148628115654,
						"weightless": -0.087700754404068,
						"perhaps": 0.0016097178449854255,
						"just": 0.07645758241415024,
						"skin": -0.03689664602279663,
						"type": -0.06832821667194366,
						"thinks": -0.2186385989189148,
						"she": 0.12987354397773743,
						"venus": 0.15293075144290924,
						"proceeded": 0.23303885757923126,
						"number": -0.013692746870219707,
						"somersaults": 0.05491151288151741,
						"gravity": -0.022411081939935684,
						"body": 0.007356319110840559,
						"needs": -0.14002229273319244,
						"o2": 0.08187171071767807,
						"increases": -0.046950627118349075,
						"amount": 0.22551190853118896,
						"red": -0.08956843614578247,
						"blood": 0.09523586928844452,
						"cell": -0.07626602053642273,
						"enough": 0.06028134375810623,
						"looked": 0.12581981718540192,
						"felt": 0.07132549583911896,
						"lady": 0.0134528623893857,
						"seems": 0.07878980785608292,
						"insistence": 0.03844423592090607,
						"w": -0.09029954671859741,
						"akward": -0.19123578071594238,
						"sense": 0.004794261418282986,
						"awkward": 0.042232442647218704,
						"obviously": 0.06201314181089401,
						"does": -0.12278896570205688,
						"introduction": -0.17040102183818817,
						"became": 0.007333556190133095,
						"floated": 0.01544339768588543,
						"based": -0.056929703801870346,
						"similar": -0.1168341189622879,
						"action": 0.13988307118415833,
						"particular": -0.052786655724048615,
						"though": 0.002791176550090313,
						"not": 0.05638541653752327,
						"state": -0.19963686168193817,
						"passage": 0.16442427039146423,
						"inferred": 0.08195406943559647,
						"years": 0.0852113738656044,
						"old": 0.17104847729206085,
						"makes": -0.09743980318307877,
						"uncomfortable": 0.05425732210278511,
						"thus": 0.05620909109711647,
						"making": -0.14529936015605927,
						"awkwardness": 0.1294093132019043,
						"space": -0.03006625361740589,
						"flight": 0.18805377185344696,
						"adams": 0.15456999838352203,
						"either": -0.1282496154308319,
						"forwardness": 0.18309186398983002,
						"especially": -0.02645018696784973,
						"possible": 0.0692712664604187,
						"immediately": 0.10016576200723648,
						"interested": 0.1981004923582077,
						"wants": 0.09792681783437729,
						"unknown": -0.19497638940811157,
						"peer": 0.020578747615218163,
						"psychological": 0.09831523150205612,
						"response": -0.1892492175102234,
						"triggered": -0.13575269281864166,
						"experiencing": 0.1126813068985939,
						"emotion": 0.010452719405293465,
						"introduces": 0.19719120860099792,
						"likely": -0.02822248637676239,
						"nervousness": -0.08505111187696457,
						"anticipation": -0.11521203815937042,
						"result": -0.09220797568559647,
						"checks": 0.15558403730392456,
						"embarassed": 0.06714315712451935,
						"experience": -0.02921600267291069,
						"blushing": -0.21656742691993713,
						"met": -0.18595407903194427,
						"possibly": -0.031265776604413986,
						"appeared": -0.10882207751274109,
						"feeling": -0.1186094731092453,
						"weightlessness": 0.11375542730093002,
						"shrianna": 0.19832852482795715,
						"want": -0.14656922221183777,
						"embarrased": 0.02970026805996895,
						"doing": -0.13856473565101624,
						"asked": -0.007522482890635729,
						"reason": 0.08274620026350021,
						"kind": -0.011041752994060516,
						"natural": 0.022186312824487686,
						"typically": 0.1878691166639328,
						"made": -0.045628927648067474,
						"front": -0.18480485677719116,
						"sheranna": -0.12333007156848907,
						"imbarasemnet": -0.1586572825908661
					}
				},
				"6": {
					"bias": -0.1021232083439827,
					"weights": {
						"11": -0.04497668892145157,
						"crush": 0.041763268411159515,
						"probably": -0.05671346187591553,
						"likes": 0.07977725565433502,
						"embarrassed": -0.0036421220283955336,
						"aunt": -0.06819266080856323,
						"introducing": 0.06933628022670746,
						"girl": 0.1620282381772995,
						"mom": 0.07774074375629425,
						"talk": -0.08628781884908676,
						"showing": 0.15180914103984833,
						"sheepishness": -0.016936669126152992,
						"when": 0.1622089445590973,
						"meeting": -0.04512524977326393,
						"new": 0.19084122776985168,
						"person": 0.1801777333021164,
						"nervous": -0.03676486015319824,
						"maybe": -0.03216126561164856,
						"go": 0.26378488540649414,
						"cheek": -0.1166490763425827,
						"even": 0.19878515601158142,
						"shy": 0.08760405331850052,
						"shiranna": -0.03628566861152649,
						"flushed": -0.1564760059118271,
						"due": -0.16318050026893616,
						"embarrassment": -0.16382953524589539,
						"mother": -0.151116281747818,
						"attempting": 0.021469861268997192,
						"introduce": 0.04772141948342323,
						"around": -0.08537319302558899,
						"age": -0.050009585916996,
						"different": -0.13686969876289368,
						"gender": -0.10879798233509064,
						"boy": 0.10575830191373825,
						"thinking": 0.023525897413492203,
						"cute": 0.033239200711250305,
						"cheeks": -0.016304796561598778,
						"own": -0.013345989398658276,
						"embarrassing": -0.18353909254074097,
						"nerve": 0.1551133245229721,
						"wracking": 0.1462651938199997,
						"feels": -0.10127413272857666,
						"strange": -0.05425160750746727,
						"inviting": 0.16389966011047363,
						"meet": -0.12905697524547577,
						"teenager": 0.16035565733909607,
						"think": 0.1199108436703682,
						"trying": -0.14023689925670624,
						"help": -0.1345028579235077,
						"friend": 0.08698456734418869,
						"may": 0.01627233996987343,
						"bit": -0.06085747480392456,
						"introduced": -0.06301160156726837,
						"young": 0.16622166335582733,
						"man": 0.0790274441242218,
						"knows": -0.1293685883283615,
						"sure": -0.055782582610845566,
						"weightless": -0.009969123639166355,
						"perhaps": 0.09920859336853027,
						"just": -0.14587928354740143,
						"skin": -0.22326184809207916,
						"type": -0.1964929848909378,
						"thinks": -0.023557083681225777,
						"she": 0.16428308188915253,
						"venus": -0.13929398357868195,
						"proceeded": -0.18500767648220062,
						"number": -0.015814168378710747,
						"somersaults": -0.21497651934623718,
						"gravity": -0.008939532563090324,
						"body": 0.011205246672034264,
						"needs": 0.11762303113937378,
						"o2": -0.03815341740846634,
						"increases": 0.04313425347208977,
						"amount": -0.23034611344337463,
						"red": -0.020157847553491592,
						"blood": 0.07677420228719711,
						"cell": -0.17349731922149658,
						"enough": -0.15558478236198425,
						"looked": -0.04018862545490265,
						"felt": -0.1846572905778885,
						"lady": 0.080267995595932,
						"seems": 0.19269630312919617,
						"insistence": 0.08180268853902817,
						"w": 0.1726834625005722,
						"akward": 0.03420216590166092,
						"sense": 0.06368251144886017,
						"awkward": 0.15098883211612701,
						"obviously": -0.16301792860031128,
						"does": 0.10134050250053406,
						"introduction": 0.09619036316871643,
						"became": -0.1973760426044464,
						"floated": -0.002272192155942321,
						"based": 0.14529405534267426,
						"similar": 0.019925227388739586,
						"action": -0.15401184558868408,
						"particular": 0.13764896988868713,
						"though": -0.11237183958292007,
						"not": 0.07412436604499817,
						"state": -0.029440905898809433,
						"passage": -0.17945758998394012,
						"inferred": -0.09732730686664581,
						"years": 0.021834254264831543,
						"old": -0.12129216641187668,
						"makes": -0.1374070793390274,
						"uncomfortable": 0.13654012978076935,
						"thus": -0.09383378177881241,
						"making": -0.1484435647726059,
						"awkwardness": -0.09915604442358017,
						"space": -0.08471622318029404,
						"flight": -0.2189095914363861,
						"adams": -0.1532362550497055,
						"either": 0.10146545618772507,
						"forwardness": 0.10746997594833374,
						"especially": -0.011606331914663315,
						"possible": 0.05220215767621994,
						"immediately": 0.17705412209033966,
						"interested": -0.025600513443350792,
						"wants": -0.11727479100227356,
						"unknown": -0.05317600816488266,
						"peer": 0.1466939002275467,
						"psychological": -0.018871407955884933,
						"response": -0.04252511262893677,
						"triggered": -0.17824959754943848,
						"experiencing": -0.11887464672327042,
						"emotion": -0.18103516101837158,
						"introduces": 0.006661972962319851,
						"likely": -0.05657925456762314,
						"nervousness": 0.12169872969388962,
						"anticipation": -0.017178531736135483,
						"result": 0.18404796719551086,
						"checks": -0.13036566972732544,
						"embarassed": 0.04523639753460884,
						"experience": -0.08463191241025925,
						"blushing": 0.14544543623924255,
						"met": 0.013891251757740974,
						"possibly": 0.03265194222331047,
						"appeared": 0.047550544142723083,
						"feeling": -0.0659007728099823,
						"weightlessness": -0.2171340435743332,
						"shrianna": 0.07504020631313324,
						"want": 0.07396801561117172,
						"embarrased": -0.014233626425266266,
						"doing": -0.10354629904031754,
						"asked": 0.042585618793964386,
						"reason": 0.19228611886501312,
						"kind": 0.05925831198692322,
						"natural": -0.13644643127918243,
						"typically": -0.03658744692802429,
						"made": -0.10783973336219788,
						"front": -0.1693054884672165,
						"sheranna": -0.0253310464322567,
						"imbarasemnet": -0.1628992259502411
					}
				},
				"7": {
					"bias": 0.11782696098089218,
					"weights": {
						"11": 0.12304805964231491,
						"crush": -0.1298532485961914,
						"probably": -0.23749138414859772,
						"likes": -0.14800462126731873,
						"embarrassed": 0.0324193499982357,
						"aunt": -0.02818755805492401,
						"introducing": 0.014052222482860088,
						"girl": -0.10090415924787521,
						"mom": 0.043792806565761566,
						"talk": -0.15872681140899658,
						"showing": 0.029168153181672096,
						"sheepishness": -0.049079589545726776,
						"when": -0.1663917750120163,
						"meeting": 0.08415631949901581,
						"new": 0.048261530697345734,
						"person": 0.05326126888394356,
						"nervous": -0.15703798830509186,
						"maybe": -0.011928707361221313,
						"go": 0.28863054513931274,
						"cheek": 0.025104332715272903,
						"even": 0.12758123874664307,
						"shy": -0.04342241212725639,
						"shiranna": -0.16019360721111298,
						"flushed": 0.02845815010368824,
						"due": -0.07378789037466049,
						"embarrassment": 0.029178651049733162,
						"mother": 0.06871525198221207,
						"attempting": 0.06413240730762482,
						"introduce": -0.006764309946447611,
						"around": 0.20999929308891296,
						"age": -0.08215206116437912,
						"different": -0.004088203888386488,
						"gender": 0.10736638307571411,
						"boy": 0.07327795028686523,
						"thinking": -0.11067963391542435,
						"cute": 0.07559403032064438,
						"cheeks": 0.0790141224861145,
						"own": -0.126120924949646,
						"embarrassing": 0.018420912325382233,
						"nerve": -0.16719217598438263,
						"wracking": 0.15060731768608093,
						"feels": 0.005042914766818285,
						"strange": 0.19001078605651855,
						"inviting": 0.007153790909796953,
						"meet": 0.20828208327293396,
						"teenager": 0.10326177626848221,
						"think": 0.0720086544752121,
						"trying": 0.16251738369464874,
						"help": 0.0045355395413935184,
						"friend": 0.1534232795238495,
						"may": 0.06515464931726456,
						"bit": 0.0818420797586441,
						"introduced": -0.015249437652528286,
						"young": 0.1307060569524765,
						"man": -0.10166645050048828,
						"knows": 0.11746886372566223,
						"sure": -0.10622329264879227,
						"weightless": -0.0446305088698864,
						"perhaps": -0.2165234535932541,
						"just": -0.16320747137069702,
						"skin": 0.08192629367113113,
						"type": -0.15623076260089874,
						"thinks": 0.19224056601524353,
						"she": 0.19058986008167267,
						"venus": -0.27000993490219116,
						"proceeded": -0.2442294806241989,
						"number": 0.07741370052099228,
						"somersaults": 0.06535429507493973,
						"gravity": 0.02519606240093708,
						"body": -0.20795901119709015,
						"needs": 0.05664806067943573,
						"o2": -0.12184035778045654,
						"increases": -0.1901615709066391,
						"amount": 0.12242303043603897,
						"red": 0.11589884012937546,
						"blood": 0.09667574614286423,
						"cell": 0.10473718494176865,
						"enough": -0.11544205248355865,
						"looked": -0.13815505802631378,
						"felt": 0.026968766003847122,
						"lady": 0.16142454743385315,
						"seems": -0.09819447249174118,
						"insistence": -0.0903327614068985,
						"w": 0.10963407903909683,
						"akward": -0.12657156586647034,
						"sense": 0.09392141550779343,
						"awkward": 0.12030764669179916,
						"obviously": 0.011061948724091053,
						"does": -0.1188618540763855,
						"introduction": 0.1514347344636917,
						"became": 0.027156498283147812,
						"floated": 0.1260787695646286,
						"based": 0.011181062087416649,
						"similar": 0.0884283110499382,
						"action": -0.09187451750040054,
						"particular": 0.12141720205545425,
						"though": 0.12346944957971573,
						"not": -0.09790173172950745,
						"state": 0.08468570560216904,
						"passage": -0.06234648451209068,
						"inferred": 0.06547770649194717,
						"years": -0.003536369651556015,
						"old": 0.18442679941654205,
						"makes": -0.019106853753328323,
						"uncomfortable": 0.19238361716270447,
						"thus": -0.07873766869306564,
						"making": 0.10286758840084076,
						"awkwardness": -0.0014537964016199112,
						"space": 0.196330726146698,
						"flight": -0.04071139916777611,
						"adams": 0.10935357958078384,
						"either": 0.1187894344329834,
						"forwardness": -0.05221898853778839,
						"especially": -0.11561214178800583,
						"possible": -0.19522981345653534,
						"immediately": 0.19426606595516205,
						"interested": -0.13539955019950867,
						"wants": -0.07678896188735962,
						"unknown": -0.03562212735414505,
						"peer": 0.15091149508953094,
						"psychological": -0.025508828461170197,
						"response": -0.11902869492769241,
						"triggered": 0.02117655798792839,
						"experiencing": -0.14180675148963928,
						"emotion": -0.11053779721260071,
						"introduces": 0.014193544164299965,
						"likely": -0.05349477753043175,
						"nervousness": -0.16751857101917267,
						"anticipation": 0.1358824074268341,
						"result": 0.1384739726781845,
						"checks": 0.05546119809150696,
						"embarassed": -0.014976090751588345,
						"experience": 0.18327665328979492,
						"blushing": 0.03318779170513153,
						"met": -0.0720953643321991,
						"possibly": 0.10116986930370331,
						"appeared": -0.1893700510263443,
						"feeling": 0.013941770419478416,
						"weightlessness": -0.09423809498548508,
						"shrianna": -0.016208412125706673,
						"want": -0.0004698286356870085,
						"embarrased": -0.10550575703382492,
						"doing": -0.03458414971828461,
						"asked": -0.12796254456043243,
						"reason": -0.03982800245285034,
						"kind": 0.02449377067387104,
						"natural": -0.1648094654083252,
						"typically": -0.17849595844745636,
						"made": -0.1942145824432373,
						"front": -0.14880147576332092,
						"sheranna": 0.13227617740631104,
						"imbarasemnet": 0.06214908882975578
					}
				},
				"8": {
					"bias": 0.17851218581199646,
					"weights": {
						"11": -0.19663242995738983,
						"crush": -0.135573148727417,
						"probably": -0.18158119916915894,
						"likes": -0.12065546214580536,
						"embarrassed": 0.1491716355085373,
						"aunt": -0.0006356691010296345,
						"introducing": -0.029052410274744034,
						"girl": -0.09694357961416245,
						"mom": -0.025891801342368126,
						"talk": -0.009590907953679562,
						"showing": 0.09736180305480957,
						"sheepishness": 0.06413935124874115,
						"when": 0.04226168990135193,
						"meeting": 0.045273009687662125,
						"new": 0.1490444839000702,
						"person": 0.10951036214828491,
						"nervous": -0.06413727253675461,
						"maybe": -0.0699506476521492,
						"go": 0.17580224573612213,
						"cheek": 0.11439721286296844,
						"even": 0.10913190990686417,
						"shy": -0.10376419872045517,
						"shiranna": 0.0599234513938427,
						"flushed": -0.16083401441574097,
						"due": -0.1725924015045166,
						"embarrassment": 0.12141631543636322,
						"mother": -0.03114733099937439,
						"attempting": -0.14955489337444305,
						"introduce": -0.01808338612318039,
						"around": -0.0035832233261317015,
						"age": -0.05516029894351959,
						"different": 0.05343439429998398,
						"gender": -0.1613309681415558,
						"boy": 0.1774168163537979,
						"thinking": 0.03372985124588013,
						"cute": -0.16785231232643127,
						"cheeks": -0.14638496935367584,
						"own": -0.0022960545029491186,
						"embarrassing": -0.023194367066025734,
						"nerve": -0.07746104151010513,
						"wracking": 0.046130843460559845,
						"feels": 0.1341690868139267,
						"strange": 0.001217674813233316,
						"inviting": 0.07116608321666718,
						"meet": -0.18212032318115234,
						"teenager": 0.0779954195022583,
						"think": 0.15428104996681213,
						"trying": 0.08046942204236984,
						"help": -0.07639726996421814,
						"friend": 0.16478073596954346,
						"may": 0.08169160038232803,
						"bit": 0.1105194240808487,
						"introduced": 0.13713982701301575,
						"young": 0.16705292463302612,
						"man": 0.10961995273828506,
						"knows": -0.00934005156159401,
						"sure": 0.00589305954053998,
						"weightless": -0.06251169741153717,
						"perhaps": 0.1674342155456543,
						"just": 0.11912345886230469,
						"skin": 0.10719498991966248,
						"type": -0.14638158679008484,
						"thinks": 0.026766462251544,
						"she": 0.012068990617990494,
						"venus": 0.03019232675433159,
						"proceeded": -0.008909141644835472,
						"number": -0.07243117690086365,
						"somersaults": 0.15249525010585785,
						"gravity": -0.034201107919216156,
						"body": 0.17805632948875427,
						"needs": -0.013857870362699032,
						"o2": -0.04377000033855438,
						"increases": 0.0006576587329618633,
						"amount": -0.062173955142498016,
						"red": -0.20262500643730164,
						"blood": -0.01028326153755188,
						"cell": 0.08764291554689407,
						"enough": 0.07114801555871964,
						"looked": -0.09395938366651535,
						"felt": 0.051794204860925674,
						"lady": -0.16711273789405823,
						"seems": 0.01740335300564766,
						"insistence": 0.055923908948898315,
						"w": 0.16908039152622223,
						"akward": 0.05259554088115692,
						"sense": 0.11803440749645233,
						"awkward": 0.08030778169631958,
						"obviously": -0.1618538796901703,
						"does": 0.04186706617474556,
						"introduction": -0.1921042650938034,
						"became": 0.14723151922225952,
						"floated": 0.1990124136209488,
						"based": 0.12766872346401215,
						"similar": -0.019957514479756355,
						"action": 0.01625470444560051,
						"particular": -0.002690246095880866,
						"though": -0.09773791581392288,
						"not": 0.0695289596915245,
						"state": -0.16406042873859406,
						"passage": 0.15255168080329895,
						"inferred": 0.0976027175784111,
						"years": 0.004992163274437189,
						"old": 0.06382446736097336,
						"makes": -0.010972278192639351,
						"uncomfortable": 0.06628958135843277,
						"thus": -0.13923567533493042,
						"making": 0.12794291973114014,
						"awkwardness": 0.08590956032276154,
						"space": -0.1266169548034668,
						"flight": -0.19633792340755463,
						"adams": 0.13074037432670593,
						"either": -0.13884687423706055,
						"forwardness": -0.015952616930007935,
						"especially": -0.08285520225763321,
						"possible": 0.09497924149036407,
						"immediately": 0.1663552075624466,
						"interested": -0.07507552206516266,
						"wants": -0.13029560446739197,
						"unknown": -0.049916088581085205,
						"peer": -0.1527164876461029,
						"psychological": -0.1544673889875412,
						"response": 0.02754848636686802,
						"triggered": -0.18603216111660004,
						"experiencing": 0.1610369235277176,
						"emotion": -0.19814369082450867,
						"introduces": 0.09908491373062134,
						"likely": -0.07197979837656021,
						"nervousness": 0.028576238080859184,
						"anticipation": -0.07343507558107376,
						"result": 0.10604190081357956,
						"checks": -0.013803711161017418,
						"embarassed": 0.10176114737987518,
						"experience": -0.0890493243932724,
						"blushing": 0.03790431469678879,
						"met": -0.18789635598659515,
						"possibly": -0.1719866394996643,
						"appeared": -0.11278165876865387,
						"feeling": 0.03502017632126808,
						"weightlessness": -0.0036213162820786238,
						"shrianna": 0.017911961302161217,
						"want": -0.17283107340335846,
						"embarrased": 0.19381842017173767,
						"doing": -0.11014732718467712,
						"asked": -0.12423425167798996,
						"reason": -0.13467852771282196,
						"kind": 0.01061712671071291,
						"natural": -0.11145796626806259,
						"typically": 0.1536596119403839,
						"made": 0.031368158757686615,
						"front": 0.0763111338019371,
						"sheranna": 0.146016463637352,
						"imbarasemnet": 0.04494127631187439
					}
				},
				"9": {
					"bias": -0.060473233461380005,
					"weights": {
						"11": 0.16872256994247437,
						"crush": 0.014851715415716171,
						"probably": -0.10670560598373413,
						"likes": -0.11539845913648605,
						"embarrassed": -0.13250768184661865,
						"aunt": 0.11031283438205719,
						"introducing": 0.14782166481018066,
						"girl": -0.10093995928764343,
						"mom": 0.046794116497039795,
						"talk": 0.07255121320486069,
						"showing": -0.007302678190171719,
						"sheepishness": 0.08549778163433075,
						"when": 0.010503994300961494,
						"meeting": -0.07710472494363785,
						"new": -0.029486166313290596,
						"person": -0.05547086149454117,
						"nervous": -0.04175378382205963,
						"maybe": -0.07042136788368225,
						"go": 0.05287153273820877,
						"cheek": 0.09012233465909958,
						"even": 0.10269723832607269,
						"shy": 0.13550156354904175,
						"shiranna": 0.17917148768901825,
						"flushed": 0.18680870532989502,
						"due": 0.038504116237163544,
						"embarrassment": 0.08815474063158035,
						"mother": 0.07398241758346558,
						"attempting": -0.041268154978752136,
						"introduce": -0.06700710207223892,
						"around": 0.07218433171510696,
						"age": 0.048706892877817154,
						"different": -0.15406900644302368,
						"gender": 0.031890515238046646,
						"boy": 0.1599072515964508,
						"thinking": -0.13965652883052826,
						"cute": -0.16179817914962769,
						"cheeks": 0.137205109000206,
						"own": -0.07783340662717819,
						"embarrassing": 0.012774118222296238,
						"nerve": 0.025980357080698013,
						"wracking": 0.1283103972673416,
						"feels": -0.1460864543914795,
						"strange": -0.1882680207490921,
						"inviting": 0.16506390273571014,
						"meet": -0.17725197970867157,
						"teenager": 0.09142289310693741,
						"think": 0.05132691189646721,
						"trying": 0.08263403177261353,
						"help": -0.08488447219133377,
						"friend": 0.146402046084404,
						"may": 0.20930510759353638,
						"bit": 0.09412966668605804,
						"introduced": 0.14989294111728668,
						"young": 0.16834983229637146,
						"man": -0.01257837563753128,
						"knows": -0.0020782595966011286,
						"sure": -0.19361169636249542,
						"weightless": -0.005299918819218874,
						"perhaps": -0.10818707942962646,
						"just": -0.2119339406490326,
						"skin": 0.07797076553106308,
						"type": 0.09891815483570099,
						"thinks": -0.05996426194906235,
						"she": 0.02368408627808094,
						"venus": 0.06467815488576889,
						"proceeded": 0.047046463936567307,
						"number": 0.0005226373905315995,
						"somersaults": 0.10706710070371628,
						"gravity": -0.1530362367630005,
						"body": 0.0665692538022995,
						"needs": 0.14161229133605957,
						"o2": 0.067732073366642,
						"increases": -0.15797269344329834,
						"amount": 0.09635444730520248,
						"red": 0.04486970603466034,
						"blood": 0.15321047604084015,
						"cell": 0.11871688812971115,
						"enough": 0.15409277379512787,
						"looked": -0.044325269758701324,
						"felt": 0.014929738827049732,
						"lady": 0.09014194458723068,
						"seems": -0.08378520607948303,
						"insistence": -0.18882760405540466,
						"w": 0.046251870691776276,
						"akward": -0.08071785420179367,
						"sense": -0.13836057484149933,
						"awkward": 0.19663912057876587,
						"obviously": -0.06531330943107605,
						"does": -0.06971567869186401,
						"introduction": 0.16036179661750793,
						"became": -0.13763028383255005,
						"floated": 0.09706652164459229,
						"based": 0.05729884281754494,
						"similar": -0.1690041571855545,
						"action": -0.024183357134461403,
						"particular": -0.18297208845615387,
						"though": 0.18899375200271606,
						"not": 0.056958429515361786,
						"state": -0.02328457683324814,
						"passage": -0.07516182214021683,
						"inferred": 0.0861150398850441,
						"years": -0.037517525255680084,
						"old": -0.04553217068314552,
						"makes": -0.11854881793260574,
						"uncomfortable": -0.1642402708530426,
						"thus": -0.015972496941685677,
						"making": 0.1919051855802536,
						"awkwardness": -0.1396801769733429,
						"space": 0.1066499873995781,
						"flight": -0.11637981235980988,
						"adams": -0.17760281264781952,
						"either": 0.01932305470108986,
						"forwardness": 0.12224242836236954,
						"especially": -0.12247391045093536,
						"possible": -0.1619957685470581,
						"immediately": -0.010486392304301262,
						"interested": 0.14541715383529663,
						"wants": 0.04788662865757942,
						"unknown": -0.15141955018043518,
						"peer": 0.1604202538728714,
						"psychological": -0.09335248172283173,
						"response": -0.0862669125199318,
						"triggered": 0.15722857415676117,
						"experiencing": -0.009088986553251743,
						"emotion": 0.03912410885095596,
						"introduces": 0.1927361786365509,
						"likely": -0.11004942655563354,
						"nervousness": -0.1823030263185501,
						"anticipation": -0.10065466910600662,
						"result": -0.013690875843167305,
						"checks": 0.1306433379650116,
						"embarassed": -0.18266217410564423,
						"experience": 0.11331288516521454,
						"blushing": 0.14296138286590576,
						"met": 0.04287007078528404,
						"possibly": 0.18945077061653137,
						"appeared": 0.18827079236507416,
						"feeling": -0.03322047367691994,
						"weightlessness": 0.10061436891555786,
						"shrianna": 0.04617457836866379,
						"want": 0.05948764085769653,
						"embarrased": -0.13305042684078217,
						"doing": -0.010207892395555973,
						"asked": 0.08771823346614838,
						"reason": 0.01569654978811741,
						"kind": 0.15399186313152313,
						"natural": 0.15584811568260193,
						"typically": -0.002754123182967305,
						"made": 0.10125423967838287,
						"front": -0.09228727966547012,
						"sheranna": 0.01811233162879944,
						"imbarasemnet": 0.12483303248882294
					}
				},
				"10": {
					"bias": -0.0007304671453312039,
					"weights": {
						"11": 0.01152932271361351,
						"crush": -0.08110909163951874,
						"probably": 0.07167323678731918,
						"likes": 0.22391630709171295,
						"embarrassed": -0.04143158346414566,
						"aunt": -0.1328197866678238,
						"introducing": 0.02837163582444191,
						"girl": 0.23634684085845947,
						"mom": -0.08097413927316666,
						"talk": 0.031541984528303146,
						"showing": 0.1739630401134491,
						"sheepishness": 0.20203198492527008,
						"when": -0.06085141748189926,
						"meeting": 0.052521999925374985,
						"new": 0.1291443407535553,
						"person": 0.14906397461891174,
						"nervous": -0.2134891003370285,
						"maybe": -0.1779029816389084,
						"go": 0.09035269916057587,
						"cheek": 0.13744673132896423,
						"even": 0.21366964280605316,
						"shy": 0.1287887990474701,
						"shiranna": -0.09576719254255295,
						"flushed": 0.1927482783794403,
						"due": 0.11917490512132645,
						"embarrassment": 0.16086573898792267,
						"mother": -0.038422271609306335,
						"attempting": 0.06350308656692505,
						"introduce": 0.19328573346138,
						"around": 0.04201626405119896,
						"age": 0.23153625428676605,
						"different": 0.17440301179885864,
						"gender": -0.036712709814310074,
						"boy": -0.01767742447555065,
						"thinking": 0.11586473137140274,
						"cute": 0.021770881488919258,
						"cheeks": 0.15241967141628265,
						"own": 0.05587659776210785,
						"embarrassing": 0.1490858942270279,
						"nerve": 0.151709645986557,
						"wracking": -0.053800661116838455,
						"feels": 0.11481661349534988,
						"strange": 0.20232848823070526,
						"inviting": -0.1060308888554573,
						"meet": 0.036597348749637604,
						"teenager": -0.14301370084285736,
						"think": -0.07081898301839828,
						"trying": 0.1194457858800888,
						"help": 0.09795114398002625,
						"friend": 0.15107640624046326,
						"may": 0.0466054305434227,
						"bit": -0.08393916487693787,
						"introduced": 0.18990279734134674,
						"young": 0.19941069185733795,
						"man": -0.11268080025911331,
						"knows": 0.12146589905023575,
						"sure": 0.08874227106571198,
						"weightless": 0.03611515462398529,
						"perhaps": 0.07648612558841705,
						"just": -0.044555529952049255,
						"skin": 0.10600751638412476,
						"type": -0.1322748064994812,
						"thinks": -0.17026428878307343,
						"she": 0.13565826416015625,
						"venus": -0.23570241034030914,
						"proceeded": 0.1077638640999794,
						"number": -0.15797658264636993,
						"somersaults": -0.137625053524971,
						"gravity": 0.02500920742750168,
						"body": -0.08085721731185913,
						"needs": -0.2307463139295578,
						"o2": -0.007164833601564169,
						"increases": -0.1930893212556839,
						"amount": 0.06797844916582108,
						"red": 0.16033954918384552,
						"blood": -0.07911281287670135,
						"cell": -0.09185125678777695,
						"enough": -0.13520881533622742,
						"looked": -0.0006457761046476662,
						"felt": 0.20367282629013062,
						"lady": -0.06534329056739807,
						"seems": 0.1789243072271347,
						"insistence": -0.13538376986980438,
						"w": -0.07966363430023193,
						"akward": -0.1897640973329544,
						"sense": 0.18026888370513916,
						"awkward": -0.032649289816617966,
						"obviously": 0.1981634795665741,
						"does": 0.009199708700180054,
						"introduction": -0.13282470405101776,
						"became": -0.18985508382320404,
						"floated": -0.11227834224700928,
						"based": -0.01615375466644764,
						"similar": -0.07847767323255539,
						"action": 0.13684478402137756,
						"particular": 0.07677704095840454,
						"though": -0.17146283388137817,
						"not": -0.06051934137940407,
						"state": -0.016901079565286636,
						"passage": -0.09546445310115814,
						"inferred": -0.050813671201467514,
						"years": 0.15792131423950195,
						"old": 0.16275431215763092,
						"makes": -0.1323520988225937,
						"uncomfortable": 0.15499402582645416,
						"thus": -0.07278358191251755,
						"making": 0.09990014135837555,
						"awkwardness": 0.08472932875156403,
						"space": -0.16836655139923096,
						"flight": 0.00002306224632775411,
						"adams": 0.14743921160697937,
						"either": 0.09166646748781204,
						"forwardness": -0.028791356831789017,
						"especially": -0.05331980437040329,
						"possible": -0.16400766372680664,
						"immediately": -0.1712675243616104,
						"interested": -0.0269735436886549,
						"wants": -0.07464004307985306,
						"unknown": -0.07130740582942963,
						"peer": 0.013257645070552826,
						"psychological": 0.118055559694767,
						"response": 0.156985342502594,
						"triggered": -0.18426023423671722,
						"experiencing": -0.11360570043325424,
						"emotion": -0.09456226974725723,
						"introduces": 0.10185776650905609,
						"likely": 0.08979416638612747,
						"nervousness": 0.18248483538627625,
						"anticipation": -0.07863045483827591,
						"result": 0.09773408621549606,
						"checks": 0.04178706184029579,
						"embarassed": -0.06009494885802269,
						"experience": 0.03669048473238945,
						"blushing": -0.06954400986433029,
						"met": 0.025928650051355362,
						"possibly": 0.027510609477758408,
						"appeared": 0.0771954283118248,
						"feeling": 0.18492217361927032,
						"weightlessness": -0.2738586366176605,
						"shrianna": -0.021705174818634987,
						"want": -0.09880321472883224,
						"embarrased": 0.17006126046180725,
						"doing": 0.013413097709417343,
						"asked": -0.03548167273402214,
						"reason": 0.1402544230222702,
						"kind": 0.14601266384124756,
						"natural": 0.15141548216342926,
						"typically": -0.05520515888929367,
						"made": 0.028424065560102463,
						"front": 0.02001427859067917,
						"sheranna": -0.1531948745250702,
						"imbarasemnet": 0.007033978123217821
					}
				},
				"11": {
					"bias": 0.002738497219979763,
					"weights": {
						"11": 0.026627901941537857,
						"crush": -0.13986103236675262,
						"probably": 0.11592113226652145,
						"likes": -0.08147191256284714,
						"embarrassed": 0.11872238665819168,
						"aunt": -0.18926361203193665,
						"introducing": 0.052243370562791824,
						"girl": 0.10010197013616562,
						"mom": -0.14824718236923218,
						"talk": 0.18613460659980774,
						"showing": 0.050072360783815384,
						"sheepishness": 0.08204974234104156,
						"when": -0.13946646451950073,
						"meeting": 0.002205217955633998,
						"new": 0.08245451748371124,
						"person": -0.0060450355522334576,
						"nervous": -0.10753143578767776,
						"maybe": 0.07977213710546494,
						"go": 0.09587731957435608,
						"cheek": -0.17615526914596558,
						"even": 0.13648326694965363,
						"shy": 0.23102036118507385,
						"shiranna": 0.03304125368595123,
						"flushed": 0.048155494034290314,
						"due": 0.09598804265260696,
						"embarrassment": -0.028672408312559128,
						"mother": -0.011247451417148113,
						"attempting": 0.04828070476651192,
						"introduce": -0.08283397555351257,
						"around": -0.006756347604095936,
						"age": -0.11052657663822174,
						"different": -0.16515083611011505,
						"gender": -0.06242889165878296,
						"boy": -0.17556418478488922,
						"thinking": 0.09850994497537613,
						"cute": 0.16850967705249786,
						"cheeks": -0.09943563491106033,
						"own": -0.15457138419151306,
						"embarrassing": 0.14525334537029266,
						"nerve": -0.16379356384277344,
						"wracking": -0.016744041815400124,
						"feels": 0.018239712342619896,
						"strange": -0.054161008447408676,
						"inviting": 0.14924781024456024,
						"meet": 0.04722282290458679,
						"teenager": 0.15927164256572723,
						"think": -0.01957436464726925,
						"trying": 0.1412045955657959,
						"help": -0.1962927281856537,
						"friend": -0.1077854111790657,
						"may": 0.05815844610333443,
						"bit": 0.1361314356327057,
						"introduced": 0.03421095758676529,
						"young": 0.03253169730305672,
						"man": 0.15278606116771698,
						"knows": -0.18463778495788574,
						"sure": -0.17559076845645905,
						"weightless": 0.013773245736956596,
						"perhaps": 0.07364429533481598,
						"just": -0.07745806127786636,
						"skin": 0.003954495768994093,
						"type": -0.0702168345451355,
						"thinks": -0.010183297097682953,
						"she": -0.10524709522724152,
						"venus": -0.08811156451702118,
						"proceeded": -0.23781640827655792,
						"number": -0.12211638689041138,
						"somersaults": -0.027464555576443672,
						"gravity": -0.22417253255844116,
						"body": -0.030303893610835075,
						"needs": -0.1690797507762909,
						"o2": -0.09765198826789856,
						"increases": -0.0653894916176796,
						"amount": 0.025278815999627113,
						"red": 0.15902207791805267,
						"blood": -0.014007260091602802,
						"cell": 0.001400552224367857,
						"enough": -0.040263205766677856,
						"looked": -0.03087368607521057,
						"felt": 0.13632817566394806,
						"lady": 0.08766444772481918,
						"seems": -0.16995252668857574,
						"insistence": 0.0180948618799448,
						"w": -0.1936509758234024,
						"akward": 0.07450126856565475,
						"sense": 0.1657983362674713,
						"awkward": -0.06119902431964874,
						"obviously": 0.1624685674905777,
						"does": -0.03209786117076874,
						"introduction": -0.0765850841999054,
						"became": -0.11031048744916916,
						"floated": -0.1256144642829895,
						"based": 0.10966853052377701,
						"similar": 0.07404527813196182,
						"action": -0.19672136008739471,
						"particular": 0.13670338690280914,
						"though": 0.18925295770168304,
						"not": -0.054043758660554886,
						"state": -0.1683523803949356,
						"passage": -0.14718571305274963,
						"inferred": 0.08748161792755127,
						"years": 0.045275285840034485,
						"old": -0.03274068608880043,
						"makes": -0.1368962824344635,
						"uncomfortable": -0.10945651680231094,
						"thus": 0.061288077384233475,
						"making": -0.12733536958694458,
						"awkwardness": 0.16126161813735962,
						"space": -0.16522659361362457,
						"flight": -0.1818339228630066,
						"adams": -0.01844821125268936,
						"either": -0.1814218908548355,
						"forwardness": -0.16894575953483582,
						"especially": -0.042417094111442566,
						"possible": 0.06620580703020096,
						"immediately": -0.13951373100280762,
						"interested": 0.04924219846725464,
						"wants": -0.1828794628381729,
						"unknown": -0.0019536283798515797,
						"peer": 0.07901088893413544,
						"psychological": -0.1618412286043167,
						"response": 0.08528515696525574,
						"triggered": 0.010402725078165531,
						"experiencing": 0.057240214198827744,
						"emotion": -0.14744891226291656,
						"introduces": -0.1142675057053566,
						"likely": 0.10465491563081741,
						"nervousness": 0.1591459959745407,
						"anticipation": 0.008279765024781227,
						"result": 0.0016478520119562745,
						"checks": -0.04701437056064606,
						"embarassed": 0.07140973210334778,
						"experience": -0.18283303081989288,
						"blushing": -0.17213474214076996,
						"met": 0.048002589493989944,
						"possibly": -0.0742533951997757,
						"appeared": -0.04550504684448242,
						"feeling": -0.19426654279232025,
						"weightlessness": -0.09679096192121506,
						"shrianna": -0.08824443072080612,
						"want": 0.08105582743883133,
						"embarrased": 0.13665808737277985,
						"doing": 0.00928177498281002,
						"asked": -0.12340988218784332,
						"reason": 0.06934311985969543,
						"kind": 0.16723378002643585,
						"natural": -0.022900059819221497,
						"typically": 0.11641713976860046,
						"made": 0.03426937758922577,
						"front": -0.14436496794223785,
						"sheranna": 0.012514611706137657,
						"imbarasemnet": -0.1565844714641571
					}
				},
				"12": {
					"bias": -0.03837769478559494,
					"weights": {
						"11": -0.03451067954301834,
						"crush": -0.11965592950582504,
						"probably": 0.1912427842617035,
						"likes": -0.07127898931503296,
						"embarrassed": -0.20779326558113098,
						"aunt": 0.11852112412452698,
						"introducing": -0.08673680573701859,
						"girl": -0.18133489787578583,
						"mom": -0.17008841037750244,
						"talk": 0.05507595092058182,
						"showing": -0.18073919415473938,
						"sheepishness": 0.1801380068063736,
						"when": -0.08730825036764145,
						"meeting": 0.07512364536523819,
						"new": -0.19210700690746307,
						"person": -0.07539230585098267,
						"nervous": 0.0527459941804409,
						"maybe": 0.1722400039434433,
						"go": 0.1739061325788498,
						"cheek": 0.02659401297569275,
						"even": -0.030622709542512894,
						"shy": -0.04055815562605858,
						"shiranna": 0.1943676918745041,
						"flushed": 0.13505852222442627,
						"due": 0.1520313322544098,
						"embarrassment": -0.06886854767799377,
						"mother": 0.054481033235788345,
						"attempting": 0.12720854580402374,
						"introduce": -0.09755758196115494,
						"around": -0.10744006931781769,
						"age": -0.1712276190519333,
						"different": 0.09257573634386063,
						"gender": -0.0648258775472641,
						"boy": 0.0027531504165381193,
						"thinking": 0.19109171628952026,
						"cute": 0.09660311788320541,
						"cheeks": -0.18590499460697174,
						"own": 0.07784983515739441,
						"embarrassing": -0.18217463791370392,
						"nerve": 0.04303022846579552,
						"wracking": 0.0972616970539093,
						"feels": 0.11993388831615448,
						"strange": 0.13397392630577087,
						"inviting": 0.025453360751271248,
						"meet": 0.011416321620345116,
						"teenager": -0.1389043778181076,
						"think": 0.15123715996742249,
						"trying": -0.022186491638422012,
						"help": 0.19710280001163483,
						"friend": -0.11747162789106369,
						"may": -0.010744154453277588,
						"bit": 0.12127577513456345,
						"introduced": 0.014522232115268707,
						"young": 0.12998545169830322,
						"man": 0.09237205982208252,
						"knows": 0.0664878785610199,
						"sure": -0.09637191146612167,
						"weightless": 0.11676319688558578,
						"perhaps": 0.029948754236102104,
						"just": 0.1572820395231247,
						"skin": 0.01754278875887394,
						"type": -0.035609614104032516,
						"thinks": 0.021693173795938492,
						"she": 0.13954921066761017,
						"venus": 0.17593994736671448,
						"proceeded": 0.15313215553760529,
						"number": 0.1860193908214569,
						"somersaults": -0.10424386709928513,
						"gravity": 0.01501566544175148,
						"body": 0.13105730712413788,
						"needs": 0.04525735601782799,
						"o2": 0.08121669292449951,
						"increases": -0.006383921485394239,
						"amount": -0.1808377504348755,
						"red": 0.038729142397642136,
						"blood": -0.09517744928598404,
						"cell": -0.04299788549542427,
						"enough": 0.10904202610254288,
						"looked": -0.17717769742012024,
						"felt": -0.15016883611679077,
						"lady": -0.13132931292057037,
						"seems": 0.07724256068468094,
						"insistence": 0.15967927873134613,
						"w": 0.132969930768013,
						"akward": -0.06435798108577728,
						"sense": -0.16384895145893097,
						"awkward": 0.07532218098640442,
						"obviously": -0.17945830523967743,
						"does": 0.17084680497646332,
						"introduction": 0.007146432530134916,
						"became": 0.12646545469760895,
						"floated": 0.02063896879553795,
						"based": 0.09258966892957687,
						"similar": 0.04432744160294533,
						"action": -0.009475717321038246,
						"particular": 0.003451273776590824,
						"though": 0.1797919124364853,
						"not": -0.10078199952840805,
						"state": 0.05730918049812317,
						"passage": 0.18153630197048187,
						"inferred": 0.09330057352781296,
						"years": -0.1524830311536789,
						"old": -0.03964800760149956,
						"makes": 0.001160970190539956,
						"uncomfortable": 0.03635084629058838,
						"thus": -0.14157134294509888,
						"making": 0.195797398686409,
						"awkwardness": 0.0799141675233841,
						"space": -0.061300307512283325,
						"flight": -0.0088460398837924,
						"adams": -0.16768629848957062,
						"either": 0.1391308754682541,
						"forwardness": 0.16862358152866364,
						"especially": 0.07843846082687378,
						"possible": 0.06102569028735161,
						"immediately": 0.17793117463588715,
						"interested": 0.15706583857536316,
						"wants": 0.10503917187452316,
						"unknown": 0.08273899555206299,
						"peer": -0.1840183138847351,
						"psychological": -0.046685609966516495,
						"response": -0.02035900391638279,
						"triggered": 0.1115211471915245,
						"experiencing": -0.09800439327955246,
						"emotion": -0.16653555631637573,
						"introduces": 0.010850850492715836,
						"likely": 0.07489883899688721,
						"nervousness": -0.14115063846111298,
						"anticipation": -0.04989481344819069,
						"result": -0.09359059482812881,
						"checks": -0.14270444214344025,
						"embarassed": 0.08582790195941925,
						"experience": -0.12313185632228851,
						"blushing": -0.07066516578197479,
						"met": -0.09225455671548843,
						"possibly": 0.0406341478228569,
						"appeared": 0.12215719372034073,
						"feeling": 0.12943214178085327,
						"weightlessness": 0.009905452840030193,
						"shrianna": -0.0176018625497818,
						"want": -0.19480425119400024,
						"embarrased": 0.09671842306852341,
						"doing": -0.19219806790351868,
						"asked": -0.12542420625686646,
						"reason": -0.048633746802806854,
						"kind": -0.1228778138756752,
						"natural": 0.040632329881191254,
						"typically": 0.11483680456876755,
						"made": 0.05739407241344452,
						"front": -0.020303288474678993,
						"sheranna": 0.17970284819602966,
						"imbarasemnet": 0.11848881095647812
					}
				},
				"13": {
					"bias": -0.1882922351360321,
					"weights": {
						"11": 0.04402873292565346,
						"crush": 0.007386190816760063,
						"probably": -0.2427985966205597,
						"likes": 0.16346250474452972,
						"embarrassed": 0.11333339661359787,
						"aunt": -0.10643833130598068,
						"introducing": 0.06593865901231766,
						"girl": -0.055125683546066284,
						"mom": 0.20405590534210205,
						"talk": 0.18989114463329315,
						"showing": 0.1787043809890747,
						"sheepishness": -0.05886879563331604,
						"when": -0.09896671026945114,
						"meeting": -0.08536658436059952,
						"new": -0.16058635711669922,
						"person": -0.018977409228682518,
						"nervous": -0.22961433231830597,
						"maybe": 0.07536287605762482,
						"go": 0.20921041071414948,
						"cheek": 0.20337334275245667,
						"even": 0.16161146759986877,
						"shy": 0.05217563360929489,
						"shiranna": -0.027745449915528297,
						"flushed": -0.028437050059437752,
						"due": -0.13262420892715454,
						"embarrassment": 0.17071841657161713,
						"mother": 0.14209817349910736,
						"attempting": -0.11291621625423431,
						"introduce": 0.17632976174354553,
						"around": 0.08626734465360641,
						"age": -0.013935224153101444,
						"different": -0.006927794311195612,
						"gender": -0.1417282521724701,
						"boy": 0.0437743179500103,
						"thinking": 0.16967318952083588,
						"cute": -0.05133519321680069,
						"cheeks": -0.024537622928619385,
						"own": 0.1781047135591507,
						"embarrassing": 0.10560127347707748,
						"nerve": -0.1497316211462021,
						"wracking": -0.05762101337313652,
						"feels": 0.133932963013649,
						"strange": -0.08524636924266815,
						"inviting": 0.04367218166589737,
						"meet": 0.07372090965509415,
						"teenager": -0.1505906730890274,
						"think": 0.1245119497179985,
						"trying": 0.17494450509548187,
						"help": -0.047579411417245865,
						"friend": 0.03922104462981224,
						"may": -0.07636149227619171,
						"bit": -0.07301508635282516,
						"introduced": -0.02596965990960598,
						"young": 0.19408249855041504,
						"man": -0.0770614743232727,
						"knows": -0.14036564528942108,
						"sure": -0.13570453226566315,
						"weightless": -0.13981622457504272,
						"perhaps": -0.03781033679842949,
						"just": 0.0877714604139328,
						"skin": -0.0726848691701889,
						"type": 0.0239136703312397,
						"thinks": -0.14214512705802917,
						"she": 0.11441591382026672,
						"venus": -0.24046404659748077,
						"proceeded": 0.001548834377899766,
						"number": -0.040288012474775314,
						"somersaults": 0.027211792767047882,
						"gravity": -0.02375813201069832,
						"body": 0.006235761102288961,
						"needs": -0.02734973095357418,
						"o2": -0.04522448033094406,
						"increases": 0.06593508273363113,
						"amount": 0.014764229767024517,
						"red": 0.07810472697019577,
						"blood": -0.11443373560905457,
						"cell": -0.14611630141735077,
						"enough": -0.18904700875282288,
						"looked": 0.07559656351804733,
						"felt": -0.09425272047519684,
						"lady": -0.10585366934537888,
						"seems": 0.022446895018219948,
						"insistence": -0.09937725961208344,
						"w": -0.015474866144359112,
						"akward": -0.1836683303117752,
						"sense": 0.18465232849121094,
						"awkward": -0.07466692477464676,
						"obviously": 0.1321941614151001,
						"does": 0.1470390260219574,
						"introduction": -0.013729484751820564,
						"became": -0.06472016125917435,
						"floated": 0.16875779628753662,
						"based": -0.08452722430229187,
						"similar": -0.1726371943950653,
						"action": 0.15583789348602295,
						"particular": -0.0759415403008461,
						"though": 0.16358192265033722,
						"not": 0.140626922249794,
						"state": -0.10097979754209518,
						"passage": -0.09188596159219742,
						"inferred": -0.1287248581647873,
						"years": 0.026372134685516357,
						"old": -0.19411048293113708,
						"makes": 0.18511062860488892,
						"uncomfortable": -0.11278022825717926,
						"thus": 0.03858466446399689,
						"making": -0.10195542126893997,
						"awkwardness": -0.18748973309993744,
						"space": -0.17652808129787445,
						"flight": -0.029862143099308014,
						"adams": 0.14076364040374756,
						"either": -0.040204007178545,
						"forwardness": -0.16874481737613678,
						"especially": -0.13684098422527313,
						"possible": 0.14314468204975128,
						"immediately": 0.07899123430252075,
						"interested": 0.09488686919212341,
						"wants": 0.12033955007791519,
						"unknown": 0.15213371813297272,
						"peer": 0.18300943076610565,
						"psychological": 0.12105821073055267,
						"response": 0.08814588934183121,
						"triggered": -0.04946514219045639,
						"experiencing": 0.08051980286836624,
						"emotion": 0.1550990492105484,
						"introduces": -0.08110281825065613,
						"likely": 0.011345054022967815,
						"nervousness": 0.19610732793807983,
						"anticipation": 0.11563573777675629,
						"result": 0.042720481753349304,
						"checks": -0.16184775531291962,
						"embarassed": 0.1742698848247528,
						"experience": 0.029451318085193634,
						"blushing": 0.022784318774938583,
						"met": 0.18846748769283295,
						"possibly": -0.07921235263347626,
						"appeared": -0.19425617158412933,
						"feeling": -0.006602151785045862,
						"weightlessness": -0.19410881400108337,
						"shrianna": 0.0495227612555027,
						"want": -0.011329654604196548,
						"embarrased": 0.10840273648500443,
						"doing": 0.08665037155151367,
						"asked": -0.10066890716552734,
						"reason": -0.10285405069589615,
						"kind": 0.19824010133743286,
						"natural": -0.02953372895717621,
						"typically": -0.14472630620002747,
						"made": -0.14763735234737396,
						"front": -0.09611830115318298,
						"sheranna": -0.10319539159536362,
						"imbarasemnet": 0.1852983683347702
					}
				},
				"14": {
					"bias": 0.02937832847237587,
					"weights": {
						"11": -0.07521211355924606,
						"crush": 0.18560656905174255,
						"probably": -0.11808572709560394,
						"likes": 0.05545210465788841,
						"embarrassed": -0.013028536923229694,
						"aunt": -0.18862824141979218,
						"introducing": 0.05830702185630798,
						"girl": -0.030629180371761322,
						"mom": -0.046037204563617706,
						"talk": 0.1528422236442566,
						"showing": 0.04297152906656265,
						"sheepishness": -0.1179596483707428,
						"when": -0.10101374238729477,
						"meeting": 0.03395551070570946,
						"new": -0.15773695707321167,
						"person": 0.14197231829166412,
						"nervous": -0.12858790159225464,
						"maybe": 0.004124577157199383,
						"go": 0.1143210157752037,
						"cheek": 0.17872948944568634,
						"even": 0.0035738919395953417,
						"shy": -0.05224956199526787,
						"shiranna": -0.1409211903810501,
						"flushed": 0.0027638408355414867,
						"due": 0.03672552481293678,
						"embarrassment": 0.028272485360503197,
						"mother": 0.12234114110469818,
						"attempting": 0.16072089970111847,
						"introduce": 0.19214476644992828,
						"around": -0.16166001558303833,
						"age": 0.07723581790924072,
						"different": -0.18113701045513153,
						"gender": -0.17506635189056396,
						"boy": 0.1963363140821457,
						"thinking": 0.10871215164661407,
						"cute": 0.07558349519968033,
						"cheeks": 0.1436128169298172,
						"own": 0.025556081905961037,
						"embarrassing": 0.004601838532835245,
						"nerve": 0.12972652912139893,
						"wracking": -0.13002818822860718,
						"feels": 0.18010535836219788,
						"strange": -0.1124831959605217,
						"inviting": 0.07352644950151443,
						"meet": -0.11595078557729721,
						"teenager": 0.1800634115934372,
						"think": -0.1714695692062378,
						"trying": -0.0932517945766449,
						"help": 0.10237506777048111,
						"friend": -0.10044969618320465,
						"may": 0.1844555139541626,
						"bit": 0.0537957139313221,
						"introduced": -0.010959009639918804,
						"young": 0.14609791338443756,
						"man": -0.17333237826824188,
						"knows": 0.10220745205879211,
						"sure": 0.03217075765132904,
						"weightless": -0.04756910726428032,
						"perhaps": 0.039037469774484634,
						"just": 0.016954025253653526,
						"skin": -0.006798536982387304,
						"type": -0.23550841212272644,
						"thinks": -0.06589306890964508,
						"she": -0.0169218797236681,
						"venus": 0.11160725355148315,
						"proceeded": 0.0212599728256464,
						"number": 0.10027141869068146,
						"somersaults": -0.0632130429148674,
						"gravity": -0.11274933069944382,
						"body": -0.06628111004829407,
						"needs": -0.04068414121866226,
						"o2": -0.054073140025138855,
						"increases": -0.051075004041194916,
						"amount": -0.2268616110086441,
						"red": -0.026265641674399376,
						"blood": -0.03625626116991043,
						"cell": -0.09307973831892014,
						"enough": -0.04284336045384407,
						"looked": -0.07493481785058975,
						"felt": -0.17519278824329376,
						"lady": -0.00331346713937819,
						"seems": 0.08011609315872192,
						"insistence": 0.05536062642931938,
						"w": 0.004115619231015444,
						"akward": 0.08124058693647385,
						"sense": 0.05746011808514595,
						"awkward": 0.16087500751018524,
						"obviously": 0.11567249149084091,
						"does": 0.15036895871162415,
						"introduction": 0.1306503862142563,
						"became": 0.09825949370861053,
						"floated": -0.19195665419101715,
						"based": -0.08420431613922119,
						"similar": -0.07353094220161438,
						"action": -0.19773434102535248,
						"particular": -0.10436959564685822,
						"though": 0.09662014991044998,
						"not": 0.1426495462656021,
						"state": 0.16224609315395355,
						"passage": -0.05084443837404251,
						"inferred": 0.0339558944106102,
						"years": 0.1176862046122551,
						"old": 0.13368135690689087,
						"makes": -0.07162770628929138,
						"uncomfortable": 0.1284000277519226,
						"thus": 0.1683063507080078,
						"making": 0.10362744331359863,
						"awkwardness": 0.16634619235992432,
						"space": -0.1616692841053009,
						"flight": -0.1901116520166397,
						"adams": 0.04490405321121216,
						"either": 0.05972679331898689,
						"forwardness": 0.04101474955677986,
						"especially": -0.05275203660130501,
						"possible": -0.11087027192115784,
						"immediately": 0.029325032606720924,
						"interested": 0.11156830191612244,
						"wants": -0.0477481447160244,
						"unknown": 0.07581047713756561,
						"peer": 0.07373854517936707,
						"psychological": -0.0682489275932312,
						"response": -0.05871007591485977,
						"triggered": -0.022289862856268883,
						"experiencing": -0.17527608573436737,
						"emotion": -0.10104555636644363,
						"introduces": -0.1353767365217209,
						"likely": -0.019172105938196182,
						"nervousness": -0.020452070981264114,
						"anticipation": -0.04830886051058769,
						"result": 0.12469841539859772,
						"checks": -0.011346402578055859,
						"embarassed": -0.07367846369743347,
						"experience": -0.14478953182697296,
						"blushing": 0.09535634517669678,
						"met": -0.1386810690164566,
						"possibly": 0.17216141521930695,
						"appeared": -0.09590638428926468,
						"feeling": 0.17411138117313385,
						"weightlessness": -0.2523355484008789,
						"shrianna": 0.17888449132442474,
						"want": -0.12583881616592407,
						"embarrased": 0.04936689883470535,
						"doing": 0.08538835495710373,
						"asked": 0.005715211853384972,
						"reason": -0.045628197491168976,
						"kind": -0.18295754492282867,
						"natural": 0.017398711293935776,
						"typically": -0.16170218586921692,
						"made": 0.06614112108945847,
						"front": 0.15412886440753937,
						"sheranna": -0.18118387460708618,
						"imbarasemnet": 0.15261687338352203
					}
				},
				"15": {
					"bias": -0.018896542489528656,
					"weights": {
						"11": -0.1427641659975052,
						"crush": -0.006533419247716665,
						"probably": 0.1664290577173233,
						"likes": -0.030767979100346565,
						"embarrassed": 0.0341256819665432,
						"aunt": 0.09108775854110718,
						"introducing": 0.1515786349773407,
						"girl": 0.07522421330213547,
						"mom": 0.11391433328390121,
						"talk": 0.09504207968711853,
						"showing": -0.09790924936532974,
						"sheepishness": -0.08055626600980759,
						"when": 0.12748509645462036,
						"meeting": 0.050315480679273605,
						"new": -0.00018030460341833532,
						"person": 0.05210910364985466,
						"nervous": -0.14128729701042175,
						"maybe": 0.1860707849264145,
						"go": -0.002525257645174861,
						"cheek": 0.052532874047756195,
						"even": -0.023465033620595932,
						"shy": -0.007559230551123619,
						"shiranna": 0.10159967094659805,
						"flushed": -0.032074619084596634,
						"due": 0.026678552851080894,
						"embarrassment": 0.028391290456056595,
						"mother": 0.17433740198612213,
						"attempting": 0.023606136441230774,
						"introduce": 0.06626089662313461,
						"around": -0.11646806448698044,
						"age": -0.10652902722358704,
						"different": 0.1945720911026001,
						"gender": 0.07954563945531845,
						"boy": -0.09291979670524597,
						"thinking": 0.002858622930943966,
						"cute": 0.1732393205165863,
						"cheeks": -0.019219443202018738,
						"own": 0.16559594869613647,
						"embarrassing": -0.12782669067382812,
						"nerve": 0.15035337209701538,
						"wracking": 0.06738265603780746,
						"feels": 0.19634899497032166,
						"strange": 0.04630433768033981,
						"inviting": 0.12326005846261978,
						"meet": -0.06697245687246323,
						"teenager": -0.0587754026055336,
						"think": 0.028438352048397064,
						"trying": -0.009889502078294754,
						"help": 0.14444100856781006,
						"friend": -0.05942051485180855,
						"may": -0.11256242543458939,
						"bit": -0.11137983947992325,
						"introduced": 0.07987555861473083,
						"young": -0.015549189411103725,
						"man": 0.016538158059120178,
						"knows": 0.08674992620944977,
						"sure": -0.033611368387937546,
						"weightless": -0.16217327117919922,
						"perhaps": 0.16282705962657928,
						"just": 0.07172207534313202,
						"skin": -0.13651615381240845,
						"type": 0.13805842399597168,
						"thinks": 0.08155176043510437,
						"she": -0.030386904254555702,
						"venus": 0.011994383297860622,
						"proceeded": 0.13328038156032562,
						"number": -0.19191917777061462,
						"somersaults": 0.05082793906331062,
						"gravity": 0.032332099974155426,
						"body": -0.0720209851861,
						"needs": -0.14529377222061157,
						"o2": -0.05843961611390114,
						"increases": 0.15437370538711548,
						"amount": -0.17701101303100586,
						"red": -0.05475256219506264,
						"blood": -0.1276812106370926,
						"cell": 0.06818439066410065,
						"enough": -0.18539302051067352,
						"looked": -0.10724104940891266,
						"felt": -0.035139452666044235,
						"lady": -0.05446238815784454,
						"seems": 0.09237390011548996,
						"insistence": -0.015990151092410088,
						"w": 0.12451068311929703,
						"akward": -0.07141764461994171,
						"sense": -0.18848150968551636,
						"awkward": -0.05716102570295334,
						"obviously": 0.08693007379770279,
						"does": -0.04526333510875702,
						"introduction": 0.16692063212394714,
						"became": -0.07958638668060303,
						"floated": 0.14740999042987823,
						"based": 0.06453340500593185,
						"similar": -0.008588157594203949,
						"action": -0.1873343586921692,
						"particular": -0.19590070843696594,
						"though": -0.17719246447086334,
						"not": 0.13940131664276123,
						"state": 0.13336040079593658,
						"passage": -0.1713736355304718,
						"inferred": -0.06852518022060394,
						"years": -0.02655802294611931,
						"old": -0.08972547203302383,
						"makes": -0.15234526991844177,
						"uncomfortable": -0.05084614083170891,
						"thus": 0.011082072742283344,
						"making": 0.023610977455973625,
						"awkwardness": -0.06918240338563919,
						"space": 0.11900568008422852,
						"flight": -0.2038642317056656,
						"adams": 0.09862750768661499,
						"either": 0.016114529222249985,
						"forwardness": 0.1454874724149704,
						"especially": -0.10251782089471817,
						"possible": 0.06945225596427917,
						"immediately": -0.12411302328109741,
						"interested": -0.03461277112364769,
						"wants": 0.17486286163330078,
						"unknown": -0.17063333094120026,
						"peer": -0.00582187669351697,
						"psychological": 0.10671775788068771,
						"response": -0.19753298163414001,
						"triggered": 0.08603277057409286,
						"experiencing": -0.059068962931632996,
						"emotion": 0.07455068081617355,
						"introduces": 0.19897451996803284,
						"likely": -0.0051902886480093,
						"nervousness": 0.10500811040401459,
						"anticipation": 0.05959179252386093,
						"result": -0.034197598695755005,
						"checks": -0.12102857977151871,
						"embarassed": -0.006802910473197699,
						"experience": 0.12152352184057236,
						"blushing": -0.07975336909294128,
						"met": -0.031468573957681656,
						"possibly": -0.0031553292647004128,
						"appeared": 0.1975773423910141,
						"feeling": 0.07625356316566467,
						"weightlessness": -0.1406724900007248,
						"shrianna": -0.1890910416841507,
						"want": -0.07682838290929794,
						"embarrased": -0.04156811535358429,
						"doing": -0.16122592985630035,
						"asked": -0.041392263025045395,
						"reason": 0.021418992429971695,
						"kind": -0.0571458525955677,
						"natural": 0.1406068503856659,
						"typically": -0.01764664612710476,
						"made": 0.10932901501655579,
						"front": 0.10695701837539673,
						"sheranna": -0.176268070936203,
						"imbarasemnet": -0.0030706131365150213
					}
				},
				"16": {
					"bias": 0.07879320532083511,
					"weights": {
						"11": 0.12156577408313751,
						"crush": -0.17038539052009583,
						"probably": 0.11393040418624878,
						"likes": -0.14578010141849518,
						"embarrassed": -0.2362220585346222,
						"aunt": -0.0678393766283989,
						"introducing": -0.2040708214044571,
						"girl": -0.24020934104919434,
						"mom": 0.05464329198002815,
						"talk": 0.018301058560609818,
						"showing": 0.15503014624118805,
						"sheepishness": 0.0023928822483867407,
						"when": -0.14506277441978455,
						"meeting": 0.045892711728811264,
						"new": -0.11009831726551056,
						"person": -0.03355035185813904,
						"nervous": 0.14771048724651337,
						"maybe": -0.0845833271741867,
						"go": -0.005423030350357294,
						"cheek": 0.1458449810743332,
						"even": 0.13505719602108002,
						"shy": 0.03805556520819664,
						"shiranna": 0.10979264974594116,
						"flushed": -0.05689721181988716,
						"due": 0.06700695306062698,
						"embarrassment": -0.1631188690662384,
						"mother": -0.19114437699317932,
						"attempting": 0.03602144867181778,
						"introduce": -0.14533081650733948,
						"around": -0.09585905820131302,
						"age": 0.001936539076268673,
						"different": 0.13607874512672424,
						"gender": -0.1265227496623993,
						"boy": 0.019889257848262787,
						"thinking": 0.10166652500629425,
						"cute": -0.20877321064472198,
						"cheeks": 0.03143874555826187,
						"own": -0.028455330058932304,
						"embarrassing": 0.1839909851551056,
						"nerve": -0.10329196602106094,
						"wracking": -0.05168677121400833,
						"feels": 0.04024907946586609,
						"strange": -0.0388147309422493,
						"inviting": -0.19132673740386963,
						"meet": 0.09983982145786285,
						"teenager": -0.16294841468334198,
						"think": 0.10732545703649521,
						"trying": 0.01960526593029499,
						"help": -0.11906509846448898,
						"friend": -0.14478924870491028,
						"may": 0.14158783853054047,
						"bit": 0.12354620546102524,
						"introduced": 0.10530012100934982,
						"young": 0.030257193371653557,
						"man": -0.1623925417661667,
						"knows": -0.17163464426994324,
						"sure": 0.03827742487192154,
						"weightless": 0.08303695917129517,
						"perhaps": 0.012028040364384651,
						"just": -0.08074649423360825,
						"skin": 0.1940838247537613,
						"type": -0.038132764399051666,
						"thinks": -0.16712753474712372,
						"she": -0.21858461201190948,
						"venus": -0.011632455512881279,
						"proceeded": 0.06338215619325638,
						"number": -0.09378600865602493,
						"somersaults": 0.18059441447257996,
						"gravity": -0.018050717189908028,
						"body": 0.05237474665045738,
						"needs": -0.027241632342338562,
						"o2": 0.0052497852593660355,
						"increases": -0.11159435659646988,
						"amount": 0.017139997333288193,
						"red": -0.14937065541744232,
						"blood": -0.13223981857299805,
						"cell": 0.10281764715909958,
						"enough": -0.13898086547851562,
						"looked": 0.025992142036557198,
						"felt": 0.06870158761739731,
						"lady": -0.027465417981147766,
						"seems": 0.00847191084176302,
						"insistence": -0.15113916993141174,
