{
	"createNewObjectString": "function classifierFun() {\r\n    const limdu = require('limdu');\r\n    return new limdu.classifiers.NeuralNetwork();\r\n}",
	"object": {
		"sizes": [
			222,
			111,
			1
		],
		"layers": [
			{
				"1": {},
				"2": {},
				"225": {},
				"short": {},
				"go": {},
				"shiranna": {},
				"hibernated": {},
				"so": {},
				"time": {},
				"will": {},
				"hand": {},
				"fast": {},
				"journey": {},
				"venus": {},
				"long": {},
				"however": {},
				"stop": {},
				"going": {},
				"space": {},
				"station": {},
				"maybe": {},
				"near": {},
				"future": {},
				"eventually": {},
				"life": {},
				"became": {},
				"injection": {},
				"took": {},
				"story": {},
				"keep": {},
				"forever": {},
				"think": {},
				"already": {},
				"far": {},
				"earth": {},
				"takes": {},
				"day": {},
				"around": {},
				"trip": {},
				"believe": {},
				"even": {},
				"though": {},
				"engineering": {},
				"not": {},
				"epic": {},
				"drawn": {},
				"climax": {},
				"away": {},
				"passenger": {},
				"hibernate": {},
				"until": {},
				"arrive": {},
				"seem": {},
				"due": {},
				"fact": {},
				"place": {},
				"sleep": {},
				"quite": {},
				"reality": {},
				"scared": {},
				"lost": {},
				"father": {},
				"brave": {},
				"person": {},
				"hibernation": {},
				"brief": {},
				"necessary": {},
				"chamber": {},
				"whole": {},
				"needle": {},
				"shake": {},
				"muscle": {},
				"needed": {},
				"inactive": {},
				"extended": {},
				"remain": {},
				"may": {},
				"given": {},
				"medication": {},
				"help": {},
				"atrophy": {},
				"week": {},
				"month": {},
				"depending": {},
				"spacecraft": {},
				"travels": {},
				"celestial": {},
				"body": {},
				"staggering": {},
				"literary": {},
				"device": {},
				"itself": {},
				"suggests": {},
				"thus": {},
				"lengthy": {},
				"muscles": {},
				"why": {},
				"danger": {},
				"reason": {},
				"getting": {},
				"ready": {},
				"coma": {},
				"hence": {},
				"want": {},
				"kept": {},
				"physically": {},
				"safe": {},
				"putting": {},
				"assumed": {},
				"home": {},
				"atrophying": {},
				"extremely": {},
				"aipossibly": {},
				"year": {},
				"decades": {},
				"aisince": {},
				"requires": {},
				"stimulant": {},
				"human": {},
				"deterioration": {},
				"typically": {},
				"happens": {},
				"non": {},
				"u": {},
				"predict": {},
				"decade": {},
				"programed": {},
				"inject": {},
				"drug": {},
				"deteriorating": {},
				"disuse": {},
				"inferring": {},
				"difficult": {},
				"no": {},
				"sense": {},
				"immediate": {},
				"talk": {},
				"without": {},
				"relaxer": {},
				"means": {},
				"situation": {},
				"traveler": {},
				"everyone": {},
				"use": {},
				"asleep": {},
				"causes": {},
				"entire": {},
				"order": {},
				"fall": {},
				"resources": {},
				"consumed": {},
				"embark": {},
				"placed": {},
				"includes": {},
				"g": {},
				"needs": {},
				"piercing": {},
				"hold": {},
				"occurs": {},
				"during": {},
				"nonuse": {},
				"knocked": {},
				"worried": {},
				"done": {},
				"voyage": {},
				"longer": {},
				"pretty": {},
				"preparation": {},
				"intense": {},
				"child": {},
				"separated": {},
				"adult": {},
				"differing": {},
				"goes": {},
				"faster": {},
				"when": {},
				"sleeping": {},
				"aging": {},
				"kid": {},
				"told": {},
				"suggesting": {},
				"occupants": {},
				"designed": {},
				"forced": {},
				"position": {},
				"flight": {},
				"enter": {},
				"pod": {},
				"quickly": {},
				"required": {},
				"include": {},
				"avoid": {},
				"hyperbaric": {},
				"own": {},
				"part": {},
				"text": {},
				"says": {},
				"hooked": {},
				"normally": {},
				"animal": {},
				"appears": {},
				"relative": {},
				"term": {},
				"idea": {},
				"having": {},
				"something": {},
				"weightlessness": {},
				"assumin": {},
				"wouldn": {},
				"aot": {},
				"called": {},
				"bears": {},
				"winter": {},
				"lasts": {},
				"cheeky": {},
				"pointed": {},
				"atro": {},
				"stasis": {},
				"indicated": {},
				"chambers": {},
				"assume": {},
				"somewhat": {}
			},
			{
				"0": {
					"bias": 0.15020842850208282,
					"weights": {
						"1": 0.1526581346988678,
						"2": 0.14310641586780548,
						"225": -0.05475849285721779,
						"short": -0.20629899203777313,
						"go": 0.09964658319950104,
						"shiranna": -0.08615121990442276,
						"hibernated": -0.02589779905974865,
						"so": 0.20126494765281677,
						"time": 0.0845494493842125,
						"will": -0.18464896082878113,
						"hand": -0.08415935188531876,
						"fast": -0.17309075593948364,
						"journey": 0.10310867428779602,
						"venus": -0.12164110690355301,
						"long": 0.15962913632392883,
						"however": -0.12394901365041733,
						"stop": 0.035916272550821304,
						"going": 0.00391883309930563,
						"space": 0.09434034675359726,
						"station": 0.017420141026377678,
						"maybe": 0.024787340313196182,
						"near": -0.1800321340560913,
						"future": 0.004274402279406786,
						"eventually": -0.019224755465984344,
						"life": -0.024817656725645065,
						"became": 0.12211364507675171,
						"injection": -0.0670587569475174,
						"took": 0.19529062509536743,
						"story": 0.06766588985919952,
						"keep": -0.027899958193302155,
						"forever": 0.10528101772069931,
						"think": -0.12829962372779846,
						"already": 0.027115177363157272,
						"far": -0.07110556960105896,
						"earth": -0.07106481492519379,
						"takes": 0.06574656814336777,
						"day": 0.07207748293876648,
						"around": -0.021912477910518646,
						"trip": -0.043974850326776505,
						"believe": -0.0767996683716774,
						"even": 0.06904281675815582,
						"though": 0.12769457697868347,
						"engineering": 0.13221877813339233,
						"not": -0.1493435502052307,
						"epic": 0.19444355368614197,
						"drawn": 0.028243929147720337,
						"climax": 0.1177826002240181,
						"away": 0.14296206831932068,
						"passenger": 0.006976590491831303,
						"hibernate": 0.011303745210170746,
						"until": 0.0016299517592415214,
						"arrive": 0.17965319752693176,
						"seem": -0.14033204317092896,
						"due": -0.1822585016489029,
						"fact": 0.151617169380188,
						"place": 0.17153151333332062,
						"sleep": -0.05751655250787735,
						"quite": -0.15087005496025085,
						"reality": 0.1559773087501526,
						"scared": -0.06520483642816544,
						"lost": -0.07114961743354797,
						"father": -0.027156058698892593,
						"brave": -0.07314977049827576,
						"person": -0.10114873945713043,
						"hibernation": -0.10073074698448181,
						"brief": 0.03644724562764168,
						"necessary": 0.00055069470545277,
						"chamber": -0.06468790769577026,
						"whole": 0.00755726546049118,
						"needle": 0.01543167233467102,
						"shake": -0.13554063439369202,
						"muscle": -0.13283653557300568,
						"needed": 0.18131865561008453,
						"inactive": 0.03163303807377815,
						"extended": -0.11612708866596222,
						"remain": -0.029642092064023018,
						"may": -0.1006498783826828,
						"given": 0.1033439040184021,
						"medication": 0.03942379727959633,
						"help": -0.08864766359329224,
						"atrophy": -0.10700200498104095,
						"week": -0.03309746831655502,
						"month": -0.011716000735759735,
						"depending": -0.055533621460199356,
						"spacecraft": -0.16824400424957275,
						"travels": -0.015058708377182484,
						"celestial": 0.1439305990934372,
						"body": 0.1098485216498375,
						"staggering": 0.013831978663802147,
						"literary": 0.12392421811819077,
						"device": -0.19432665407657623,
						"itself": 0.024755889549851418,
						"suggests": 0.04491624981164932,
						"thus": 0.11004748195409775,
						"lengthy": 0.06864975392818451,
						"muscles": 0.11700155586004257,
						"why": 0.12151140719652176,
						"danger": 0.14865605533123016,
						"reason": 0.16873390972614288,
						"getting": -0.004711139481514692,
						"ready": -0.07995500415563583,
						"coma": -0.000511509133502841,
						"hence": 0.1267704963684082,
						"want": -0.05414355546236038,
						"kept": -0.007685716729611158,
						"physically": -0.10808708518743515,
						"safe": 0.07170616090297699,
						"putting": -0.18503673374652863,
						"assumed": 0.16087017953395844,
						"home": 0.1287793219089508,
						"atrophying": 0.045045193284749985,
						"extremely": 0.15903447568416595,
						"aipossibly": -0.1341191679239273,
						"year": 0.11198927462100983,
						"decades": 0.04069770872592926,
						"aisince": 0.15395645797252655,
						"requires": -0.03245063126087189,
						"stimulant": -0.09308212995529175,
						"human": 0.01565483957529068,
						"deterioration": 0.07771077752113342,
						"typically": 0.09479591250419617,
						"happens": 0.169671431183815,
						"non": 0.08152270317077637,
						"u": 0.08526375144720078,
						"predict": 0.047678157687187195,
						"decade": 0.14733119308948517,
						"programed": -0.1347074955701828,
						"inject": 0.057922255247831345,
						"drug": 0.09202589839696884,
						"deteriorating": -0.0435815304517746,
						"disuse": 0.11490082740783691,
						"inferring": 0.0862242802977562,
						"difficult": -0.18148815631866455,
						"no": -0.06720970571041107,
						"sense": -0.2178780436515808,
						"immediate": -0.09911986440420151,
						"talk": 0.15556515753269196,
						"without": -0.08969876170158386,
						"relaxer": 0.14588569104671478,
						"means": -0.08403722941875458,
						"situation": -0.10573872178792953,
						"traveler": -0.13019397854804993,
						"everyone": -0.1858886033296585,
						"use": 0.08948381245136261,
						"asleep": -0.18224754929542542,
						"causes": 0.1993519365787506,
						"entire": -0.09510638564825058,
						"order": 0.10427415370941162,
						"fall": 0.06229032203555107,
						"resources": -0.10158070921897888,
						"consumed": 0.06200287863612175,
						"embark": 0.14902354776859283,
						"placed": -0.10997374355792999,
						"includes": -0.007728034630417824,
						"g": -0.08108417689800262,
						"needs": 0.10151736438274384,
						"piercing": 0.05859427526593208,
						"hold": 0.012631113640964031,
						"occurs": -0.10570164024829865,
						"during": -0.13803637027740479,
						"nonuse": -0.038887869566679,
						"knocked": 0.13709522783756256,
						"worried": 0.1515883058309555,
						"done": -0.042267970740795135,
						"voyage": -0.07989088445901871,
						"longer": -0.08833350241184235,
						"pretty": 0.03318294137716293,
						"preparation": 0.020548490807414055,
						"intense": 0.005185598041862249,
						"child": -0.08600785583257675,
						"separated": -0.18402209877967834,
						"adult": 0.14577671885490417,
						"differing": 0.019383864477276802,
						"goes": -0.19908933341503143,
						"faster": 0.15034547448158264,
						"when": -0.1107516884803772,
						"sleeping": 0.04761219769716263,
						"aging": -0.02602333202958107,
						"kid": 0.0739138126373291,
						"told": -0.17059311270713806,
						"suggesting": 0.1672956496477127,
						"occupants": -0.19034402072429657,
						"designed": 0.19845294952392578,
						"forced": 0.2001584768295288,
						"position": -0.18739116191864014,
						"flight": -0.1168595626950264,
						"enter": 0.1294184923171997,
						"pod": 0.0629575103521347,
						"quickly": -0.012939664535224438,
						"required": -0.13679303228855133,
						"include": -0.07748408615589142,
						"avoid": -0.09591199457645416,
						"hyperbaric": 0.06459938734769821,
						"own": 0.09147379547357559,
						"part": -0.13216018676757812,
						"text": -0.17104338109493256,
						"says": -0.19053752720355988,
						"hooked": -0.195484459400177,
						"normally": 0.010603556409478188,
						"animal": -0.1593935638666153,
						"appears": -0.030136719346046448,
						"relative": -0.19807139039039612,
						"term": -0.020196113735437393,
						"idea": -0.07162123173475266,
						"having": 0.10615319013595581,
						"something": -0.16969050467014313,
						"weightlessness": -0.15408945083618164,
						"assumin": -0.12174396961927414,
						"wouldn": 0.0563107430934906,
						"aot": 0.15376076102256775,
						"called": -0.16730107367038727,
						"bears": -0.11677051335573196,
						"winter": 0.014092168770730495,
						"lasts": 0.052703071385622025,
						"cheeky": 0.002668345347046852,
						"pointed": -0.18382999300956726,
						"atro": 0.08980529755353928,
						"stasis": -0.09326845407485962,
						"indicated": -0.05345851182937622,
						"chambers": -0.19485574960708618,
						"assume": -0.038315460085868835,
						"somewhat": -0.19617173075675964
					}
				},
				"1": {
					"bias": -0.1834414303302765,
					"weights": {
						"1": -0.011357715353369713,
						"2": -0.06298930197954178,
						"225": -0.07008079439401627,
						"short": -0.13916878402233124,
						"go": -0.09133503586053848,
						"shiranna": -0.1257290095090866,
						"hibernated": 0.1061035767197609,
						"so": 0.18612942099571228,
						"time": 0.0330081544816494,
						"will": 0.07869020849466324,
						"hand": -0.014511174522340298,
						"fast": -0.015557930804789066,
						"journey": 0.02893499843776226,
						"venus": -0.19438625872135162,
						"long": 0.2004813551902771,
						"however": 0.16366073489189148,
						"stop": -0.06735420227050781,
						"going": 0.12171708047389984,
						"space": 0.005918307229876518,
						"station": -0.13675493001937866,
						"maybe": -0.009069511666893959,
						"near": -0.06030767783522606,
						"future": 0.07677290588617325,
						"eventually": 0.16886740922927856,
						"life": -0.09169907867908478,
						"became": -0.119381844997406,
						"injection": -0.0721244364976883,
						"took": 0.0892186388373375,
						"story": -0.26791658997535706,
						"keep": -0.12162220478057861,
						"forever": -0.10267633199691772,
						"think": -0.17354950308799744,
						"already": -0.1625264286994934,
						"far": -0.13273879885673523,
						"earth": -0.03936386480927467,
						"takes": 0.10722224414348602,
						"day": 0.03893616423010826,
						"around": -0.10644711554050446,
						"trip": -0.051424480974674225,
						"believe": -0.05009618028998375,
						"even": 0.16711215674877167,
						"though": -0.11865338683128357,
						"engineering": 0.05398954451084137,
						"not": 0.14048947393894196,
						"epic": -0.1651245653629303,
						"drawn": -0.11225316673517227,
						"climax": -0.09529348462820053,
						"away": 0.2058868706226349,
						"passenger": 0.09321540594100952,
						"hibernate": 0.008003883063793182,
						"until": 0.207254096865654,
						"arrive": 0.09090835601091385,
						"seem": 0.19081130623817444,
						"due": 0.09415379911661148,
						"fact": -0.16027644276618958,
						"place": 0.03584657236933708,
						"sleep": -0.022558249533176422,
						"quite": -0.02263912558555603,
						"reality": 0.14145994186401367,
						"scared": -0.12274719029664993,
						"lost": 0.009801320731639862,
						"father": 0.14490662515163422,
						"brave": 0.11850995570421219,
						"person": -0.1718568652868271,
						"hibernation": 0.1275913566350937,
						"brief": 0.11592726409435272,
						"necessary": 0.13765501976013184,
						"chamber": -0.064174585044384,
						"whole": 0.0646575540304184,
						"needle": 0.16059152781963348,
						"shake": -0.11387110501527786,
						"muscle": -0.11810994148254395,
						"needed": 0.15579117834568024,
						"inactive": -0.06500454246997833,
						"extended": 0.17564736306667328,
						"remain": 0.1874394714832306,
						"may": -0.08202917873859406,
						"given": 0.0504678450524807,
						"medication": -0.12059949338436127,
						"help": -0.033096302300691605,
						"atrophy": -0.09196368604898453,
						"week": 0.012403873726725578,
						"month": 0.005200945306569338,
						"depending": 0.009871565736830235,
						"spacecraft": 0.11151905357837677,
						"travels": -0.11392131447792053,
						"celestial": 0.15271586179733276,
						"body": -0.11411594599485397,
						"staggering": 0.09166606515645981,
						"literary": 0.08079157024621964,
						"device": 0.06255688518285751,
						"itself": -0.15861669182777405,
						"suggests": -0.1916351616382599,
						"thus": 0.15625275671482086,
						"lengthy": -0.06630833446979523,
						"muscles": 0.07084288448095322,
						"why": 0.006771432235836983,
						"danger": 0.17989222705364227,
						"reason": 0.1527407467365265,
						"getting": -0.06434083729982376,
						"ready": -0.18244987726211548,
						"coma": 0.04672815278172493,
						"hence": -0.03570583090186119,
						"want": -0.13105252385139465,
						"kept": 0.018656844273209572,
						"physically": 0.18258541822433472,
						"safe": 0.10978827625513077,
						"putting": 0.13486208021640778,
						"assumed": 0.12562048435211182,
						"home": 0.16600416600704193,
						"atrophying": -0.1865582913160324,
						"extremely": 0.16428889334201813,
						"aipossibly": 0.19716380536556244,
						"year": -0.006307195406407118,
						"decades": -0.12108168005943298,
						"aisince": 0.1583985686302185,
						"requires": 0.09346571564674377,
						"stimulant": 0.1594511717557907,
						"human": -0.006315539125353098,
						"deterioration": -0.16762356460094452,
						"typically": -0.14712189137935638,
						"happens": 0.06807776540517807,
						"non": -0.13811396062374115,
						"u": 0.053013838827610016,
						"predict": 0.11674944311380386,
						"decade": -0.03625275939702988,
						"programed": 0.1786414384841919,
						"inject": -0.1169949620962143,
						"drug": 0.09036039561033249,
						"deteriorating": -0.19592216610908508,
						"disuse": 0.1305529773235321,
						"inferring": 0.08360230177640915,
						"difficult": 0.06588143110275269,
						"no": 0.0091834282502532,
						"sense": -0.17060486972332,
						"immediate": -0.036768436431884766,
						"talk": 0.044914718717336655,
						"without": 0.12748943269252777,
						"relaxer": -0.08579763025045395,
						"means": 0.12153079360723495,
						"situation": -0.09543714672327042,
						"traveler": -0.17630040645599365,
						"everyone": 0.1324533373117447,
						"use": -0.06573443859815598,
						"asleep": -0.23947879672050476,
						"causes": 0.002580581232905388,
						"entire": -0.04290144518017769,
						"order": 0.028930269181728363,
						"fall": 0.1482498049736023,
						"resources": -0.156742125749588,
						"consumed": 0.13523070514202118,
						"embark": -0.0004982094978913665,
						"placed": -0.107485331594944,
						"includes": -0.16223359107971191,
						"g": 0.04754864051938057,
						"needs": 0.1384684443473816,
						"piercing": 0.11316452920436859,
						"hold": 0.16027118265628815,
						"occurs": 0.12724675238132477,
						"during": 0.027858156710863113,
						"nonuse": -0.0870484858751297,
						"knocked": 0.03516632318496704,
						"worried": 0.13683336973190308,
						"done": -0.10620508342981339,
						"voyage": 0.1231280043721199,
						"longer": 0.13160419464111328,
						"pretty": 0.20188122987747192,
						"preparation": 0.1307673305273056,
						"intense": -0.015953557565808296,
						"child": 0.12403097003698349,
						"separated": -0.13939139246940613,
						"adult": -0.15808220207691193,
						"differing": 0.07824690639972687,
						"goes": -0.03849738836288452,
						"faster": 0.13304823637008667,
						"when": -0.19872529804706573,
						"sleeping": -0.10469724237918854,
						"aging": 0.045336902141571045,
						"kid": 0.007227599620819092,
						"told": 0.05470618978142738,
						"suggesting": 0.11841993033885956,
						"occupants": 0.19038355350494385,
						"designed": -0.12768225371837616,
						"forced": 0.08079847693443298,
						"position": -0.17963820695877075,
						"flight": -0.02922682836651802,
						"enter": 0.005534772295504808,
						"pod": -0.03490542247891426,
						"quickly": -0.05811506137251854,
						"required": -0.02022285759449005,
						"include": -0.0011085253208875656,
						"avoid": 0.009309684857726097,
						"hyperbaric": -0.13109619915485382,
						"own": -0.03429571911692619,
						"part": -0.14008551836013794,
						"text": -0.18349376320838928,
						"says": 0.12187409400939941,
						"hooked": -0.027165966108441353,
						"normally": 0.05945395678281784,
						"animal": 0.15146254003047943,
						"appears": -0.16565783321857452,
						"relative": -0.1608446091413498,
						"term": 0.015597001649439335,
						"idea": -0.16547651588916779,
						"having": -0.009918473660945892,
						"something": 0.11744856834411621,
						"weightlessness": -0.13927963376045227,
						"assumin": -0.1984335333108902,
						"wouldn": 0.08619888871908188,
						"aot": -0.09330534189939499,
						"called": 0.037828072905540466,
						"bears": 0.08103074133396149,
						"winter": 0.19409160315990448,
						"lasts": 0.0855649933218956,
						"cheeky": 0.1430358588695526,
						"pointed": 0.07513512670993805,
						"atro": 0.06758743524551392,
						"stasis": 0.009428659453988075,
						"indicated": 0.10154262185096741,
						"chambers": 0.13886640965938568,
						"assume": -0.0644388422369957,
						"somewhat": -0.18936626613140106
					}
				},
				"2": {
					"bias": 0.1543976366519928,
					"weights": {
						"1": 0.053249020129442215,
						"2": -0.12968559563159943,
						"225": -0.024602321907877922,
						"short": 0.10639453679323196,
						"go": -0.057611335068941116,
						"shiranna": -0.18810732662677765,
						"hibernated": 0.04074636101722717,
						"so": -0.1227959617972374,
						"time": -0.054532285779714584,
						"will": 0.06034589931368828,
						"hand": 0.1913696974515915,
						"fast": -0.050235964357852936,
						"journey": 0.07094164192676544,
						"venus": -0.05912411957979202,
						"long": 0.024807920679450035,
						"however": -0.05290623754262924,
						"stop": -0.003627186408266425,
						"going": -0.1480904370546341,
						"space": 0.02913111448287964,
						"station": -0.14041593670845032,
						"maybe": -0.16938889026641846,
						"near": -0.033199626952409744,
						"future": -0.16854360699653625,
						"eventually": 0.015415046364068985,
						"life": 0.17369812726974487,
						"became": -0.1107567772269249,
						"injection": 0.20858843624591827,
						"took": 0.015307695604860783,
						"story": 0.09815042465925217,
						"keep": -0.22997796535491943,
						"forever": 0.053233735263347626,
						"think": 0.11970879882574081,
						"already": -0.18958696722984314,
						"far": 0.16619445383548737,
						"earth": -0.07464717328548431,
						"takes": -0.14559486508369446,
						"day": 0.12902404367923737,
						"around": -0.22128616273403168,
						"trip": 0.12544293701648712,
						"believe": 0.055719777941703796,
						"even": 0.010973974131047726,
						"though": -0.11194594204425812,
						"engineering": 0.16493603587150574,
						"not": -0.10249384492635727,
						"epic": 0.1034403070807457,
						"drawn": 0.03079625777900219,
						"climax": -0.03365882858633995,
						"away": 0.19468919932842255,
						"passenger": -0.1272224336862564,
						"hibernate": 0.09610564261674881,
						"until": 0.00414271978661418,
						"arrive": 0.0021141734905540943,
						"seem": 0.11358169466257095,
						"due": -0.15854644775390625,
						"fact": 0.0037664324045181274,
						"place": 0.21646852791309357,
						"sleep": -0.09917499870061874,
						"quite": -0.15673203766345978,
						"reality": -0.06920697540044785,
						"scared": 0.1122010126709938,
						"lost": -0.07841308414936066,
						"father": 0.1454881727695465,
						"brave": 0.1139926016330719,
						"person": 0.1928834617137909,
						"hibernation": 0.18705323338508606,
						"brief": -0.165689155459404,
						"necessary": -0.10227417200803757,
						"chamber": -0.14263787865638733,
						"whole": -0.03307255730032921,
						"needle": 0.1508566290140152,
						"shake": 0.0334552526473999,
						"muscle": -0.11010255664587021,
						"needed": -0.1279153674840927,
						"inactive": -0.005744205787777901,
						"extended": -0.06035873293876648,
						"remain": -0.022179123014211655,
						"may": 0.19162102043628693,
						"given": -0.05508338287472725,
						"medication": -0.16223926842212677,
						"help": -0.13173776865005493,
						"atrophy": -0.01131084281951189,
						"week": -0.06284964084625244,
						"month": 0.12194686383008957,
						"depending": -0.11778534203767776,
						"spacecraft": 0.11618643254041672,
						"travels": 0.11465835571289062,
						"celestial": -0.11392942816019058,
						"body": -0.1469172090291977,
						"staggering": 0.11658818274736404,
						"literary": -0.1759813278913498,
						"device": -0.07384049892425537,
						"itself": 0.08255777508020401,
						"suggests": 0.10010386258363724,
						"thus": -0.19647757709026337,
						"lengthy": 0.06192538142204285,
						"muscles": 0.11703424155712128,
						"why": -0.062043361365795135,
						"danger": -0.01809293031692505,
						"reason": 0.006479824427515268,
						"getting": 0.13527919352054596,
						"ready": 0.0553448460996151,
						"coma": -0.029909346252679825,
						"hence": -0.0595780573785305,
						"want": -0.08167017996311188,
						"kept": -0.11530902981758118,
						"physically": -0.01082234364002943,
						"safe": -0.04063301533460617,
						"putting": 0.18687668442726135,
						"assumed": -0.013385573402047157,
						"home": 0.07050702720880508,
						"atrophying": 0.16074837744235992,
						"extremely": 0.0197720006108284,
						"aipossibly": 0.07610764354467392,
						"year": 0.021899137645959854,
						"decades": -0.06269943714141846,
						"aisince": -0.028761913999915123,
						"requires": -0.021743444725871086,
						"stimulant": 0.021375887095928192,
						"human": 0.1317342221736908,
						"deterioration": -0.003703862428665161,
						"typically": 0.06373939663171768,
						"happens": -0.06888885051012039,
						"non": 0.1361609399318695,
						"u": -0.15692222118377686,
						"predict": 0.063279889523983,
						"decade": 0.1401587277650833,
						"programed": -0.028385737910866737,
						"inject": 0.03629772365093231,
						"drug": 0.12219592928886414,
						"deteriorating": -0.1305677890777588,
						"disuse": -0.17973262071609497,
						"inferring": -0.10253841429948807,
						"difficult": 0.007034103851765394,
						"no": 0.14370037615299225,
						"sense": 0.07586798071861267,
						"immediate": 0.13255546987056732,
						"talk": -0.18848969042301178,
						"without": 0.13605579733848572,
						"relaxer": 0.09622832387685776,
						"means": 0.1909884512424469,
						"situation": -0.178209587931633,
						"traveler": -0.09537225216627121,
						"everyone": 0.11811064183712006,
						"use": 0.07945515960454941,
						"asleep": -0.059560853987932205,
						"causes": 0.023875044658780098,
						"entire": 0.04639888182282448,
						"order": 0.13967587053775787,
						"fall": -0.023413965478539467,
						"resources": 0.001388315111398697,
						"consumed": -0.055532876402139664,
						"embark": 0.06069154664874077,
						"placed": -0.17775091528892517,
						"includes": -0.1908767819404602,
						"g": -0.17739346623420715,
						"needs": -0.1410987377166748,
						"piercing": 0.03770658001303673,
						"hold": 0.03423373028635979,
						"occurs": -0.018647415563464165,
						"during": -0.09244932234287262,
						"nonuse": -0.08734164386987686,
						"knocked": 0.18267382681369781,
						"worried": 0.09904754906892776,
						"done": 0.1677732914686203,
						"voyage": -0.12483643740415573,
						"longer": -0.1412428319454193,
						"pretty": 0.15651245415210724,
						"preparation": -0.08846530318260193,
						"intense": 0.048085279762744904,
						"child": 0.027668045833706856,
						"separated": -0.10011148452758789,
						"adult": -0.10815692692995071,
						"differing": -0.0797380656003952,
						"goes": 0.14519082009792328,
						"faster": -0.02395225316286087,
						"when": -0.14605861902236938,
						"sleeping": 0.05605490133166313,
						"aging": -0.11506639420986176,
						"kid": 0.15265540778636932,
						"told": -0.08286599069833755,
						"suggesting": 0.10362141579389572,
						"occupants": 0.17628200352191925,
						"designed": 0.06384330987930298,
						"forced": -0.10053527355194092,
						"position": -0.08012997359037399,
						"flight": -0.1390126645565033,
						"enter": 0.11312170326709747,
						"pod": 0.032812099903821945,
						"quickly": -0.07419339567422867,
						"required": 0.1303633451461792,
						"include": -0.19039718806743622,
						"avoid": 0.10162962973117828,
						"hyperbaric": 0.11731690913438797,
						"own": -0.035163599997758865,
						"part": 0.11621144413948059,
						"text": -0.17043349146842957,
						"says": -0.06674535572528839,
						"hooked": 0.0937507227063179,
						"normally": 0.1393541693687439,
						"animal": -0.00864502228796482,
						"appears": -0.13123975694179535,
						"relative": 0.07204996049404144,
						"term": -0.09854341298341751,
						"idea": -0.146568164229393,
						"having": 0.11860605329275131,
						"something": 0.16323325037956238,
						"weightlessness": 0.1004020944237709,
						"assumin": -0.043137893080711365,
						"wouldn": -0.041379354894161224,
						"aot": 0.15351629257202148,
						"called": -0.02345675230026245,
						"bears": 0.06794322282075882,
						"winter": 0.14080964028835297,
						"lasts": 0.08489595353603363,
						"cheeky": 0.20046430826187134,
						"pointed": -0.006929163821041584,
						"atro": -0.14432883262634277,
						"stasis": -0.176699697971344,
						"indicated": -0.16379402577877045,
						"chambers": 0.1384676694869995,
						"assume": 0.0003135784645564854,
						"somewhat": 0.12891785800457
					}
				},
				"3": {
					"bias": 0.021351803094148636,
					"weights": {
						"1": -0.12328886240720749,
						"2": -0.1421085000038147,
						"225": -0.02217421494424343,
						"short": 0.1420307606458664,
						"go": 0.022394826635718346,
						"shiranna": 0.09516339749097824,
						"hibernated": -0.17661292850971222,
						"so": 0.11879255622625351,
						"time": -0.1717207282781601,
						"will": -0.1433347761631012,
						"hand": -0.008429788053035736,
						"fast": -0.1605835109949112,
						"journey": -0.09036865085363388,
						"venus": 0.17465487122535706,
						"long": 0.20498649775981903,
						"however": 0.02998443879187107,
						"stop": 0.12157263606786728,
						"going": -0.03482932224869728,
						"space": -0.03999953344464302,
						"station": -0.13514341413974762,
						"maybe": 0.0766419768333435,
						"near": 0.14779242873191833,
						"future": -0.20660293102264404,
						"eventually": 0.16594694554805756,
						"life": 0.0529906190931797,
						"became": 0.16090238094329834,
						"injection": -0.19002999365329742,
						"took": 0.12464328110218048,
						"story": -0.19928207993507385,
						"keep": -0.2304956614971161,
						"forever": 0.03670091927051544,
						"think": -0.18182633817195892,
						"already": 0.07245930284261703,
						"far": -0.07262832671403885,
						"earth": -0.08442799001932144,
						"takes": 0.17511002719402313,
						"day": -0.06434125453233719,
						"around": 0.07364573329687119,
						"trip": -0.026855474337935448,
						"believe": -0.06861816346645355,
						"even": 0.05153617635369301,
						"though": -0.10305304825305939,
						"engineering": -0.09457240998744965,
						"not": -0.08139900863170624,
						"epic": -0.019825728610157967,
						"drawn": 0.11279446631669998,
						"climax": -0.0835341066122055,
						"away": 0.09358864277601242,
						"passenger": 0.19469498097896576,
						"hibernate": 0.07628953456878662,
						"until": 0.05057321861386299,
						"arrive": -0.007174670696258545,
						"seem": -0.16689330339431763,
						"due": 0.060930438339710236,
						"fact": -0.11348284035921097,
						"place": -0.1789059340953827,
						"sleep": 0.09050356596708298,
						"quite": 0.161024808883667,
						"reality": -0.026196908205747604,
						"scared": -0.0592632070183754,
						"lost": -0.09649762511253357,
						"father": 0.13835543394088745,
						"brave": -0.049552418291568756,
						"person": 0.14282244443893433,
						"hibernation": -0.08845467120409012,
						"brief": 0.08233144134283066,
						"necessary": 0.021103495731949806,
						"chamber": -0.07013693451881409,
						"whole": -0.12473752349615097,
						"needle": 0.03161013498902321,
						"shake": 0.0769476592540741,
						"muscle": 0.1691867709159851,
						"needed": 0.13327056169509888,
						"inactive": 0.06621804088354111,
						"extended": -0.08175714313983917,
						"remain": -0.1469597965478897,
						"may": 0.02289995737373829,
						"given": 0.016132639721035957,
						"medication": -0.19045084714889526,
						"help": -0.12960760295391083,
						"atrophy": 0.0819307491183281,
						"week": 0.04501480981707573,
						"month": -0.14020854234695435,
						"depending": -0.103753462433815,
						"spacecraft": 0.07543065398931503,
						"travels": 0.019259190186858177,
						"celestial": 0.14516738057136536,
						"body": 0.11442268639802933,
						"staggering": -0.03679380938410759,
						"literary": -0.14742830395698547,
						"device": 0.10944974422454834,
						"itself": -0.1914948970079422,
						"suggests": 0.07766113430261612,
						"thus": 0.19912223517894745,
						"lengthy": 0.06879697740077972,
						"muscles": 0.16854271292686462,
						"why": 0.07362429797649384,
						"danger": -0.12358887493610382,
						"reason": 0.1539301723241806,
						"getting": 0.024654092267155647,
						"ready": 0.004782246891409159,
						"coma": -0.06113438680768013,
						"hence": -0.03303337097167969,
						"want": -0.17236238718032837,
						"kept": 0.1508525013923645,
						"physically": 0.09147568047046661,
						"safe": -0.18526317179203033,
						"putting": -0.01673337258398533,
						"assumed": -0.07911208271980286,
						"home": -0.12475831061601639,
						"atrophying": 0.11861487478017807,
						"extremely": 0.0689982995390892,
						"aipossibly": -0.042694587260484695,
						"year": 0.18415425717830658,
						"decades": 0.1368153989315033,
						"aisince": 0.15379774570465088,
						"requires": -0.12720541656017303,
						"stimulant": 0.10595818608999252,
						"human": -0.1823107749223709,
						"deterioration": 0.17227543890476227,
						"typically": -0.05774080008268356,
						"happens": -0.17758023738861084,
						"non": -0.1277330368757248,
						"u": 0.12325985729694366,
						"predict": 0.15252293646335602,
						"decade": -0.048455577343702316,
						"programed": -0.1302383542060852,
						"inject": 0.010307935066521168,
						"drug": 0.1288883537054062,
						"deteriorating": -0.15711340308189392,
						"disuse": 0.08620022237300873,
						"inferring": -0.06953942775726318,
						"difficult": 0.08124527335166931,
						"no": -0.10028102993965149,
						"sense": -0.17826437950134277,
						"immediate": 0.10790642350912094,
						"talk": -0.15023967623710632,
						"without": -0.0247647762298584,
						"relaxer": -0.009601520374417305,
						"means": -0.18653081357479095,
						"situation": -0.03354894742369652,
						"traveler": -0.16957828402519226,
						"everyone": 0.05489838868379593,
						"use": -0.17083261907100677,
						"asleep": 0.11250443011522293,
						"causes": -0.1323850303888321,
						"entire": -0.0029056945350021124,
						"order": 0.006589606869965792,
						"fall": 0.012516394257545471,
						"resources": -0.002016598591580987,
						"consumed": -0.14048680663108826,
						"embark": 0.17472974956035614,
						"placed": 0.1190914660692215,
						"includes": 0.012298411689698696,
						"g": -0.15683747828006744,
						"needs": -0.1503838449716568,
						"piercing": -0.19842100143432617,
						"hold": 0.13266892731189728,
						"occurs": 0.16086331009864807,
						"during": -0.13818678259849548,
						"nonuse": -0.15135380625724792,
						"knocked": -0.038393061608076096,
						"worried": -0.10968723893165588,
						"done": 0.13524718582630157,
						"voyage": 0.13472925126552582,
						"longer": -0.18967795372009277,
						"pretty": -0.13304458558559418,
						"preparation": -0.11059235781431198,
						"intense": 0.11393041163682938,
						"child": -0.17860861122608185,
						"separated": 0.146635964512825,
						"adult": -0.11365244537591934,
						"differing": 0.07318510860204697,
						"goes": 0.009963137097656727,
						"faster": -0.09009572863578796,
						"when": 0.15490520000457764,
						"sleeping": 0.16019490361213684,
						"aging": 0.1364595890045166,
						"kid": 0.1114787831902504,
						"told": 0.05970165878534317,
						"suggesting": 0.12242739647626877,
						"occupants": 0.06584614515304565,
						"designed": 0.016632895916700363,
						"forced": 0.13742803037166595,
						"position": -0.11765497177839279,
						"flight": -0.1771993786096573,
						"enter": -0.0476873405277729,
						"pod": 0.11559874564409256,
						"quickly": 0.03242087364196777,
						"required": 0.0013760358560830355,
						"include": -0.08874217420816422,
						"avoid": 0.03763808682560921,
						"hyperbaric": 0.09285428375005722,
						"own": 0.0419963113963604,
						"part": 0.19479109346866608,
						"text": 0.013392599299550056,
						"says": -0.16659139096736908,
						"hooked": 0.08376610279083252,
						"normally": 0.16887207329273224,
						"animal": 0.19445256888866425,
						"appears": -0.06201079860329628,
						"relative": -0.19659458100795746,
						"term": 0.1925031542778015,
						"idea": -0.007852676324546337,
						"having": 0.11675912141799927,
						"something": -0.06962697207927704,
						"weightlessness": 0.18826544284820557,
						"assumin": -0.13395263254642487,
						"wouldn": -0.06058933585882187,
						"aot": -0.12838473916053772,
						"called": 0.06358683109283447,
						"bears": -0.05487632378935814,
						"winter": -0.08633381128311157,
						"lasts": -0.02212367206811905,
						"cheeky": 0.19895607233047485,
						"pointed": -0.055283788591623306,
						"atro": -0.19937589764595032,
						"stasis": -0.19915032386779785,
						"indicated": 0.03870067372918129,
						"chambers": 0.19735302031040192,
						"assume": 0.008343362249433994,
						"somewhat": -0.05572184547781944
					}
				},
				"4": {
					"bias": -0.12228082120418549,
					"weights": {
						"1": 0.1038934662938118,
						"2": -0.18043498694896698,
						"225": 0.16679322719573975,
						"short": 0.04415173828601837,
						"go": -0.06645065546035767,
						"shiranna": -0.09186045825481415,
						"hibernated": 0.0367579311132431,
						"so": -0.1748986691236496,
						"time": 0.07993254065513611,
						"will": 0.18146774172782898,
						"hand": 0.011245876550674438,
						"fast": 0.1125524714589119,
						"journey": -0.0419805571436882,
						"venus": -0.1482037752866745,
						"long": 0.09769026190042496,
						"however": -0.10139377415180206,
						"stop": -0.08055071532726288,
						"going": 0.07156093418598175,
						"space": 0.15786980092525482,
						"station": 0.10332643240690231,
						"maybe": -0.041375961154699326,
						"near": -0.18366152048110962,
						"future": -0.09785398095846176,
						"eventually": 0.18820881843566895,
						"life": -0.031104957684874535,
						"became": -0.09252125769853592,
						"injection": -0.021317781880497932,
						"took": 0.0015786954900249839,
						"story": -0.2023974359035492,
						"keep": 0.05092417821288109,
						"forever": -0.06084708496928215,
						"think": -0.08742767572402954,
						"already": -0.16608017683029175,
						"far": 0.18021737039089203,
						"earth": 0.15704962611198425,
						"takes": -0.1783207654953003,
						"day": 0.01191762462258339,
						"around": 0.13578863441944122,
						"trip": -0.08280258625745773,
						"believe": 0.00128187146037817,
						"even": -0.1533213108778,
						"though": 0.15569612383842468,
						"engineering": -0.06497910618782043,
						"not": -0.05005786195397377,
						"epic": 0.06257032603025436,
						"drawn": 0.008400710299611092,
						"climax": -0.17549863457679749,
						"away": -0.07061070948839188,
						"passenger": 0.07276610285043716,
						"hibernate": 0.1766253262758255,
						"until": 0.08413626998662949,
						"arrive": 0.07954251766204834,
						"seem": -0.19536922872066498,
						"due": -0.05650167167186737,
						"fact": 0.1490655094385147,
						"place": 0.08585307002067566,
						"sleep": 0.19520282745361328,
						"quite": -0.17988279461860657,
						"reality": -0.050110526382923126,
						"scared": -0.07564300298690796,
						"lost": -0.1524808555841446,
						"father": 0.15008239448070526,
						"brave": -0.12752500176429749,
						"person": -0.18544642627239227,
						"hibernation": 0.09485477209091187,
						"brief": -0.19029738008975983,
						"necessary": 0.12191853672266006,
						"chamber": -0.13892577588558197,
						"whole": 0.10943882167339325,
						"needle": -0.14948400855064392,
						"shake": -0.03757917135953903,
						"muscle": -0.1002490371465683,
						"needed": 0.18051844835281372,
						"inactive": 0.07191960513591766,
						"extended": -0.0571398064494133,
						"remain": -0.06751920282840729,
						"may": 0.11937232315540314,
						"given": 0.011971712112426758,
						"medication": -0.18711882829666138,
						"help": -0.02119850181043148,
						"atrophy": -0.16169856488704681,
						"week": -0.13164548575878143,
						"month": -0.04195040464401245,
						"depending": -0.037457652390003204,
						"spacecraft": 0.13712872564792633,
						"travels": 0.02352885901927948,
						"celestial": 0.054236944764852524,
						"body": -0.12824487686157227,
						"staggering": 0.011005847714841366,
						"literary": 0.0575525127351284,
						"device": -0.13319087028503418,
						"itself": -0.06010885909199715,
						"suggests": -0.17878584563732147,
						"thus": 0.0260496586561203,
						"lengthy": 0.12121260911226273,
						"muscles": 0.0008347440743818879,
						"why": 0.015633651986718178,
						"danger": 0.13115207850933075,
						"reason": 0.1451553851366043,
						"getting": 0.03172045946121216,
						"ready": 0.1433265209197998,
						"coma": 0.0728711411356926,
						"hence": 0.04654283821582794,
						"want": -0.08906342089176178,
						"kept": -0.030179033055901527,
						"physically": -0.12118304520845413,
						"safe": 0.14327934384346008,
						"putting": 0.19952668249607086,
						"assumed": 0.01728043146431446,
						"home": -0.18839003145694733,
						"atrophying": 0.14094232022762299,
						"extremely": -0.12210024148225784,
						"aipossibly": -0.0072479769587516785,
						"year": -0.03275233879685402,
						"decades": -0.10069874674081802,
						"aisince": -0.08936380594968796,
						"requires": -0.0863119438290596,
						"stimulant": -0.04146342724561691,
						"human": 0.05469003692269325,
						"deterioration": 0.044698216021060944,
						"typically": 0.035751957446336746,
						"happens": -0.15619513392448425,
						"non": -0.14817868173122406,
						"u": 0.05040239170193672,
						"predict": 0.015879888087511063,
						"decade": -0.18813160061836243,
						"programed": 0.17130781710147858,
						"inject": -0.1826532930135727,
						"drug": -0.07118687033653259,
						"deteriorating": -0.10324009507894516,
						"disuse": 0.01653851382434368,
						"inferring": -0.08254726231098175,
						"difficult": 0.12783384323120117,
						"no": 0.18691383302211761,
						"sense": -0.16238343715667725,
						"immediate": -0.10160797089338303,
						"talk": 0.03419444337487221,
						"without": 0.13807077705860138,
						"relaxer": -0.000873417011462152,
						"means": -0.13336844742298126,
						"situation": 0.15054555237293243,
						"traveler": -0.17057380080223083,
						"everyone": -0.0908668264746666,
						"use": -0.037055350840091705,
						"asleep": -0.17388013005256653,
						"causes": 0.12899118661880493,
						"entire": -0.18320368230342865,
						"order": 0.052487365901470184,
						"fall": 0.07090719789266586,
						"resources": 0.14398878812789917,
						"consumed": -0.02473810873925686,
						"embark": 0.04812399670481682,
						"placed": 0.024845123291015625,
						"includes": 0.18552641570568085,
						"g": 0.19478170573711395,
						"needs": -0.1747288852930069,
						"piercing": 0.08381631225347519,
						"hold": 0.008514215238392353,
						"occurs": 0.17371082305908203,
						"during": -0.17448066174983978,
						"nonuse": -0.054283950477838516,
						"knocked": 0.05270754545927048,
						"worried": -0.08333658427000046,
						"done": -0.06457282602787018,
						"voyage": -0.0981321707367897,
						"longer": -0.02821539342403412,
						"pretty": 0.06543738394975662,
						"preparation": -0.18309377133846283,
						"intense": 0.2001972645521164,
						"child": -0.03581007570028305,
						"separated": -0.05058352276682854,
						"adult": -0.11129225790500641,
						"differing": -0.19488555192947388,
						"goes": -0.054780375212430954,
						"faster": 0.026199795305728912,
						"when": -0.05848044529557228,
						"sleeping": -0.175351083278656,
						"aging": -0.1333092898130417,
						"kid": -0.1749778389930725,
						"told": -0.18113593757152557,
						"suggesting": 0.030934268608689308,
						"occupants": 0.12014377862215042,
						"designed": 0.13319098949432373,
						"forced": 0.15812459588050842,
						"position": 0.06667492538690567,
						"flight": 0.17598840594291687,
						"enter": -0.15208834409713745,
						"pod": 0.1620553880929947,
						"quickly": 0.14085733890533447,
						"required": -0.17985333502292633,
						"include": 0.021870082244277,
						"avoid": 0.084376260638237,
						"hyperbaric": 0.09103091806173325,
						"own": -0.08138205111026764,
						"part": -0.17985807359218597,
						"text": 0.024621158838272095,
						"says": 0.12938648462295532,
						"hooked": 0.11741174757480621,
						"normally": -0.07721192389726639,
						"animal": 0.14059975743293762,
						"appears": -0.1367056965827942,
						"relative": -0.07680830359458923,
						"term": 0.004886305890977383,
						"idea": 0.1872347742319107,
						"having": 0.13653278350830078,
						"something": 0.036676980555057526,
						"weightlessness": -0.051829129457473755,
						"assumin": 0.01165232714265585,
						"wouldn": 0.042405616492033005,
						"aot": -0.18684497475624084,
						"called": -0.083852618932724,
						"bears": 0.05715055763721466,
						"winter": -0.005180624779313803,
						"lasts": 0.009187917225062847,
						"cheeky": -0.04220299422740936,
						"pointed": -0.04214339330792427,
						"atro": -0.12616516649723053,
						"stasis": 0.14899158477783203,
						"indicated": -0.05249669775366783,
						"chambers": 0.15012775361537933,
						"assume": -0.05556345358490944,
						"somewhat": 0.0253633800894022
					}
				},
				"5": {
					"bias": 0.11746393144130707,
					"weights": {
						"1": -0.17649167776107788,
						"2": 0.17166851460933685,
						"225": 0.06111055240035057,
						"short": 0.200984388589859,
						"go": -0.014983695931732655,
						"shiranna": -0.12434445321559906,
						"hibernated": -0.013904033228754997,
						"so": 0.12733770906925201,
						"time": -0.125990629196167,
						"will": 0.06293527781963348,
						"hand": 0.1880631297826767,
						"fast": 0.0109165720641613,
						"journey": -0.11030492931604385,
						"venus": 0.13580816984176636,
						"long": -0.20035497844219208,
						"however": -0.10722231864929199,
						"stop": 0.03846395015716553,
						"going": -0.1265450119972229,
						"space": -0.12862031161785126,
						"station": 0.10767129808664322,
						"maybe": -0.14194871485233307,
						"near": -0.04959775507450104,
						"future": 0.013581525534391403,
						"eventually": -0.010358590632677078,
						"life": 0.14559315145015717,
						"became": 0.036887310445308685,
						"injection": -0.09137937426567078,
						"took": 0.07409223914146423,
						"story": 0.1651628017425537,
						"keep": -0.1311175376176834,
						"forever": 0.17147941887378693,
						"think": -0.1752489060163498,
						"already": 0.07331103831529617,
						"far": -0.10972470045089722,
						"earth": 0.19735637307167053,
						"takes": 0.1349429488182068,
						"day": 0.2057579755783081,
						"around": -0.1280943900346756,
						"trip": 0.01353888027369976,
						"believe": -0.11018288880586624,
						"even": -0.06286243349313736,
						"though": -0.19437715411186218,
						"engineering": 0.1294311285018921,
						"not": 0.0636897012591362,
						"epic": -0.11459621787071228,
						"drawn": -0.1561337560415268,
						"climax": 0.13367696106433868,
						"away": -0.0864248275756836,
						"passenger": -0.09987227618694305,
						"hibernate": -0.11165495216846466,
						"until": 0.1289185732603073,
						"arrive": 0.08106406033039093,
						"seem": 0.14681506156921387,
						"due": -0.03376895934343338,
						"fact": -0.003649329300969839,
						"place": 0.16759584844112396,
						"sleep": 0.17338375747203827,
						"quite": 0.016082847490906715,
						"reality": 0.06824710220098495,
						"scared": -0.17979003489017487,
						"lost": 0.08705078810453415,
						"father": -0.15236324071884155,
						"brave": 0.012860782444477081,
						"person": -0.046172864735126495,
						"hibernation": -0.19939029216766357,
						"brief": 0.052903953939676285,
						"necessary": 0.19203682243824005,
						"chamber": 0.09402483701705933,
						"whole": -0.06596772372722626,
						"needle": -0.11335820704698563,
						"shake": 0.09171872586011887,
						"muscle": 0.08400153368711472,
						"needed": -0.09968483448028564,
						"inactive": 0.1545264720916748,
						"extended": -0.19208958745002747,
						"remain": 0.18572783470153809,
						"may": -0.09700462222099304,
						"given": -0.1445343941450119,
						"medication": 0.0324048176407814,
						"help": -0.046495936810970306,
						"atrophy": -0.11624094843864441,
						"week": -0.1669009029865265,
						"month": 0.07309761643409729,
						"depending": -0.10357074439525604,
						"spacecraft": -0.03556172922253609,
						"travels": -0.1887667179107666,
						"celestial": -0.06279230117797852,
						"body": -0.13887661695480347,
						"staggering": 0.13804438710212708,
						"literary": -0.16474585235118866,
						"device": 0.1110427975654602,
						"itself": -0.04105155169963837,
						"suggests": 0.1353246420621872,
						"thus": 0.131602481007576,
						"lengthy": -0.06341184675693512,
						"muscles": 0.15196587145328522,
						"why": 0.0970875695347786,
						"danger": 0.1422443985939026,
						"reason": 0.11022870987653732,
						"getting": -0.08495974540710449,
						"ready": -0.18642453849315643,
						"coma": 0.18228262662887573,
						"hence": 0.08205578476190567,
						"want": -0.16253001987934113,
						"kept": -0.13798971474170685,
						"physically": 0.03951022028923035,
						"safe": 0.046509385108947754,
						"putting": -0.04532698914408684,
						"assumed": 0.06320173293352127,
						"home": -0.040978945791721344,
						"atrophying": 0.16281047463417053,
						"extremely": -0.046468935906887054,
						"aipossibly": -0.11749124526977539,
						"year": -0.16182751953601837,
						"decades": 0.14620165526866913,
						"aisince": 0.09003999829292297,
						"requires": -0.10900068283081055,
						"stimulant": -0.018008995801210403,
						"human": 0.021191289648413658,
						"deterioration": -0.18278180062770844,
						"typically": 0.09586679935455322,
						"happens": -0.15214037895202637,
						"non": -0.055408526211977005,
						"u": -0.14225231111049652,
						"predict": 0.11467236280441284,
						"decade": 0.13717865943908691,
						"programed": 0.08863811939954758,
						"inject": 0.15622495114803314,
						"drug": 0.1397504210472107,
						"deteriorating": 0.05999218672513962,
						"disuse": 0.1399005800485611,
						"inferring": -0.09161855280399323,
						"difficult": -0.17410773038864136,
						"no": -0.07375169545412064,
						"sense": -0.05229441449046135,
						"immediate": -0.18244579434394836,
						"talk": 0.00998674612492323,
						"without": 0.1513291299343109,
						"relaxer": 0.06289275735616684,
						"means": 0.10166527330875397,
						"situation": 0.15191970765590668,
						"traveler": -0.15500521659851074,
						"everyone": 0.14427107572555542,
						"use": -0.033986952155828476,
						"asleep": 0.0794706642627716,
						"causes": -0.09300817549228668,
						"entire": 0.09740446507930756,
						"order": 0.05696002021431923,
						"fall": 0.15111631155014038,
						"resources": 0.017425663769245148,
						"consumed": -0.0593549907207489,
						"embark": 0.060701340436935425,
						"placed": -0.026230957359075546,
						"includes": -0.005948876962065697,
						"g": -0.004741576965898275,
						"needs": -0.03783036395907402,
						"piercing": 0.12877796590328217,
						"hold": -0.14842917025089264,
						"occurs": 0.19458024203777313,
						"during": 0.14055794477462769,
						"nonuse": -0.005454160738736391,
						"knocked": -0.05417102575302124,
						"worried": 0.07677539438009262,
						"done": -0.02845720387995243,
						"voyage": -0.14360357820987701,
						"longer": -0.1979636549949646,
						"pretty": -0.16918441653251648,
						"preparation": -0.013856419362127781,
						"intense": 0.01768212951719761,
						"child": 0.038114454597234726,
						"separated": -0.18189650774002075,
						"adult": -0.15982292592525482,
						"differing": 0.13990575075149536,
						"goes": 0.037751950323581696,
						"faster": -0.151386559009552,
						"when": -0.15326812863349915,
						"sleeping": 0.04294208064675331,
						"aging": 0.03910587355494499,
						"kid": -0.15934716165065765,
						"told": -0.07858836650848389,
						"suggesting": 0.1637631356716156,
						"occupants": 0.07058510929346085,
						"designed": 0.19280867278575897,
						"forced": 0.11165957897901535,
						"position": 0.12335742264986038,
						"flight": 0.1737542599439621,
						"enter": -0.12254100292921066,
						"pod": -0.02590322121977806,
						"quickly": -0.11052132397890091,
						"required": -0.05354701355099678,
						"include": 0.19225001335144043,
						"avoid": 0.0813831239938736,
						"hyperbaric": 0.13675694167613983,
						"own": -0.11660214513540268,
						"part": -0.02847837097942829,
						"text": -0.17843592166900635,
						"says": 0.11892487853765488,
						"hooked": -0.13022205233573914,
						"normally": 0.16797728836536407,
						"animal": 0.1432621330022812,
						"appears": -0.03366963192820549,
						"relative": 0.15993309020996094,
						"term": 0.12492979317903519,
						"idea": 0.08094021677970886,
						"having": -0.03533938527107239,
						"something": 0.01339707337319851,
						"weightlessness": -0.0928487703204155,
						"assumin": -0.10230889916419983,
						"wouldn": 0.006691169459372759,
						"aot": -0.19597481191158295,
						"called": 0.049001146107912064,
						"bears": -0.1050707995891571,
						"winter": -0.17914672195911407,
						"lasts": 0.06597825139760971,
						"cheeky": 0.14613516628742218,
						"pointed": 0.11227938532829285,
						"atro": 0.08300527185201645,
						"stasis": -0.055936411023139954,
						"indicated": -0.14145587384700775,
						"chambers": -0.05038467422127724,
						"assume": -0.08689741045236588,
						"somewhat": 0.05539063364267349
					}
				},
				"6": {
					"bias": 0.1646474003791809,
					"weights": {
						"1": -0.1547970175743103,
						"2": -0.004173133987933397,
						"225": 0.16394059360027313,
						"short": 0.003944692201912403,
						"go": -0.15465997159481049,
						"shiranna": 0.02953217551112175,
						"hibernated": -0.019658876582980156,
						"so": -0.1954870969057083,
						"time": 0.017244992777705193,
						"will": -0.03199053183197975,
						"hand": 0.07083724439144135,
						"fast": -0.16625802218914032,
						"journey": -0.10986939817667007,
						"venus": -0.0021144524216651917,
						"long": 0.04161204397678375,
						"however": -0.03705983608961105,
						"stop": -0.19230438768863678,
						"going": -0.029444551095366478,
						"space": -0.18293283879756927,
						"station": 0.1223507821559906,
						"maybe": -0.13980276882648468,
						"near": 0.19294211268424988,
						"future": 0.19627627730369568,
						"eventually": -0.013055463321506977,
						"life": 0.17426465451717377,
						"became": -0.09956927597522736,
						"injection": -0.16067586839199066,
						"took": -0.10696735233068466,
						"story": -0.14774425327777863,
						"keep": 0.040019407868385315,
						"forever": -0.08708371222019196,
						"think": 0.18219657242298126,
						"already": -0.11176206171512604,
						"far": -0.13013653457164764,
						"earth": 0.07945219427347183,
						"takes": 0.08644700050354004,
						"day": 0.17065295577049255,
						"around": 0.12541837990283966,
						"trip": 0.010829832404851913,
						"believe": -0.017682375386357307,
						"even": -0.18290340900421143,
						"though": 0.09109561890363693,
						"engineering": -0.08718378841876984,
						"not": 0.0845889300107956,
						"epic": -0.1984787881374359,
						"drawn": -0.01596515066921711,
						"climax": 0.17765268683433533,
						"away": -0.07507547736167908,
						"passenger": -0.03471115231513977,
						"hibernate": 0.15270735323429108,
						"until": 0.05642404407262802,
						"arrive": 0.03874657303094864,
						"seem": -0.04219375550746918,
						"due": -0.03254573419690132,
						"fact": -0.08422785997390747,
						"place": -0.008529610931873322,
						"sleep": -0.1527099311351776,
						"quite": 0.049313027411699295,
						"reality": 0.043275125324726105,
						"scared": 0.1650303155183792,
						"lost": 0.086966373026371,
						"father": -0.02782415598630905,
						"brave": -0.029842231422662735,
						"person": -0.1389550268650055,
						"hibernation": -0.18797656893730164,
						"brief": -0.09552942961454391,
						"necessary": 0.19042158126831055,
						"chamber": 0.05301910266280174,
						"whole": -0.007265412248671055,
						"needle": -0.01078869216144085,
						"shake": 0.01403016783297062,
						"muscle": -0.09117278456687927,
						"needed": -0.11323057115077972,
						"inactive": 0.18985635042190552,
						"extended": -0.12621325254440308,
						"remain": -0.14622677862644196,
						"may": 0.08110646903514862,
						"given": 0.1412971466779709,
						"medication": -0.1512182205915451,
						"help": 0.048223551362752914,
						"atrophy": 0.08040890842676163,
						"week": -0.14017687737941742,
						"month": -0.08099754899740219,
						"depending": 0.007619830779731274,
						"spacecraft": -0.18469944596290588,
						"travels": -0.15475305914878845,
						"celestial": -0.05820634588599205,
						"body": -0.03087933175265789,
						"staggering": -0.1341806948184967,
						"literary": -0.11380033940076828,
						"device": 0.16977697610855103,
						"itself": 0.11825639754533768,
						"suggests": -0.07782712578773499,
						"thus": -0.17679056525230408,
						"lengthy": 0.07073241472244263,
						"muscles": 0.07460834085941315,
						"why": -0.02700996771454811,
						"danger": 0.15844959020614624,
						"reason": 0.06777792423963547,
						"getting": -0.16379491984844208,
						"ready": -0.11012150347232819,
						"coma": -0.0011810208670794964,
						"hence": -0.14961481094360352,
						"want": 0.19113798439502716,
						"kept": 0.10245718061923981,
						"physically": 0.12872159481048584,
						"safe": 0.19708573818206787,
						"putting": -0.12926320731639862,
						"assumed": -0.1847556084394455,
						"home": -0.11367975920438766,
						"atrophying": 0.08742343634366989,
						"extremely": 0.11133713275194168,
						"aipossibly": 0.17709197103977203,
						"year": 0.09371519088745117,
						"decades": 0.15127050876617432,
						"aisince": 0.1996171623468399,
						"requires": -0.09315016120672226,
						"stimulant": -0.17063236236572266,
						"human": 0.004633902572095394,
						"deterioration": -0.18197505176067352,
						"typically": 0.139867901802063,
						"happens": -0.08495151251554489,
						"non": -0.09386537224054337,
						"u": -0.08959875255823135,
						"predict": 0.06553983688354492,
						"decade": 0.06329645961523056,
						"programed": 0.11398875713348389,
						"inject": -0.17849001288414001,
						"drug": 0.12200327962636948,
						"deteriorating": 0.033375486731529236,
						"disuse": 0.02152485027909279,
						"inferring": 0.1154792383313179,
						"difficult": -0.039497993886470795,
						"no": -0.09847608953714371,
						"sense": -0.14089563488960266,
						"immediate": -0.16973364353179932,
						"talk": 0.14034968614578247,
						"without": -0.17074497044086456,
						"relaxer": 0.1310332715511322,
						"means": 0.13520540297031403,
						"situation": -0.09209998697042465,
						"traveler": -0.10457730293273926,
						"everyone": -0.10359524190425873,
						"use": -0.006669945549219847,
						"asleep": 0.051192477345466614,
						"causes": -0.00017024725093506277,
						"entire": -0.19216297566890717,
						"order": -0.13838154077529907,
						"fall": 0.18602333962917328,
						"resources": -0.14544735848903656,
						"consumed": 0.059420280158519745,
						"embark": -0.1790154129266739,
						"placed": 0.18467804789543152,
						"includes": -0.07161696255207062,
						"g": 0.08402310311794281,
						"needs": -0.17330750823020935,
						"piercing": 0.19366970658302307,
						"hold": 0.03603888675570488,
						"occurs": 0.17053444683551788,
						"during": 0.16024717688560486,
						"nonuse": -0.16234304010868073,
						"knocked": 0.01394160371273756,
						"worried": -0.1766127049922943,
						"done": -0.052981358021497726,
						"voyage": -0.0650065466761589,
						"longer": 0.06812368333339691,
						"pretty": 0.01131824217736721,
						"preparation": 0.11793263256549835,
						"intense": 0.01925709843635559,
						"child": -0.004226988181471825,
						"separated": -0.17075222730636597,
						"adult": 0.1785062700510025,
						"differing": 0.16308514773845673,
						"goes": -0.008953607641160488,
						"faster": -0.012607363983988762,
						"when": 0.024038538336753845,
						"sleeping": -0.17360074818134308,
						"aging": -0.19976621866226196,
						"kid": 0.15852084755897522,
						"told": 0.15095244348049164,
						"suggesting": 0.0498570054769516,
						"occupants": 0.15172667801380157,
						"designed": 0.07682021707296371,
						"forced": 0.07798701524734497,
						"position": 0.022480454295873642,
						"flight": 0.03207731992006302,
						"enter": -0.08889301866292953,
						"pod": 0.03971952572464943,
						"quickly": -0.06776831299066544,
						"required": -0.13409411907196045,
						"include": -0.0823434591293335,
						"avoid": 0.06598681211471558,
						"hyperbaric": -0.12570226192474365,
						"own": -0.18931853771209717,
						"part": -0.06256083399057388,
						"text": -0.09213531017303467,
						"says": 0.12951384484767914,
						"hooked": 0.14548203349113464,
						"normally": -0.11436750739812851,
						"animal": 0.01684502698481083,
						"appears": -0.04583605006337166,
						"relative": 0.0654774159193039,
						"term": 0.059396207332611084,
						"idea": -0.13021224737167358,
						"having": -0.07451044768095016,
						"something": -0.11110805720090866,
						"weightlessness": -0.1177428737282753,
						"assumin": -0.13979344069957733,
						"wouldn": 0.196023628115654,
						"aot": -0.08958745747804642,
						"called": -0.11273447424173355,
						"bears": 0.15469124913215637,
						"winter": 0.03393443673849106,
						"lasts": 0.05519463121891022,
						"cheeky": -0.19305239617824554,
						"pointed": 0.19051024317741394,
						"atro": 0.009274552576243877,
						"stasis": -0.0655520111322403,
						"indicated": 0.11668380349874496,
						"chambers": -0.2021043300628662,
						"assume": 0.03854354843497276,
						"somewhat": -0.1997789740562439
					}
				},
				"7": {
					"bias": -0.1953340321779251,
					"weights": {
						"1": 0.010152428410947323,
						"2": -0.13496965169906616,
						"225": -0.16925838589668274,
						"short": -0.17180344462394714,
						"go": -0.10421981662511826,
						"shiranna": 0.11315353959798813,
						"hibernated": 0.16126258671283722,
						"so": -0.1898108869791031,
						"time": 0.1816851645708084,
						"will": -0.14050710201263428,
						"hand": -0.023457815870642662,
						"fast": -0.15491318702697754,
						"journey": -0.19038040935993195,
						"venus": -0.051088351756334305,
						"long": -0.030214009806513786,
						"however": -0.18962974846363068,
						"stop": -0.1173274964094162,
						"going": -0.17648711800575256,
						"space": -0.0027078979182988405,
						"station": 0.01931452751159668,
						"maybe": -0.07650145143270493,
						"near": -0.13916803896427155,
						"future": -0.06424137949943542,
						"eventually": -0.062082741409540176,
						"life": 0.14453911781311035,
						"became": -0.17123591899871826,
						"injection": 0.07207105308771133,
						"took": -0.05390635505318642,
						"story": -0.06744443625211716,
						"keep": -0.15126454830169678,
						"forever": -0.07111072540283203,
						"think": -0.01156653556972742,
						"already": 0.16640502214431763,
						"far": -0.05162530392408371,
						"earth": 0.08292888104915619,
						"takes": 0.20175664126873016,
						"day": 0.09344124048948288,
						"around": -0.025279344990849495,
						"trip": 0.0974683091044426,
						"believe": 0.0894429013133049,
						"even": 0.11994808912277222,
						"though": 0.06711064279079437,
						"engineering": 0.02908019721508026,
						"not": -0.013402199372649193,
						"epic": -0.007106080185621977,
						"drawn": 0.13704678416252136,
						"climax": 0.17376479506492615,
						"away": -0.13431410491466522,
						"passenger": -0.10984190553426743,
						"hibernate": 0.11251556873321533,
						"until": 0.11591318249702454,
						"arrive": -0.04933759197592735,
						"seem": 0.06531893461942673,
						"due": -0.12752941250801086,
						"fact": -0.12209568917751312,
						"place": -0.040488481521606445,
						"sleep": -0.049804553389549255,
						"quite": -0.02913026511669159,
						"reality": 0.12812580168247223,
						"scared": 0.06447674334049225,
						"lost": 0.05705883353948593,
						"father": -0.045352499932050705,
						"brave": 0.09019026905298233,
						"person": -0.09449417889118195,
						"hibernation": 0.019534138962626457,
						"brief": 0.1311935931444168,
						"necessary": 0.1183013916015625,
						"chamber": -0.15796193480491638,
						"whole": 0.01827053911983967,
						"needle": 0.03863297030329704,
						"shake": -0.11165069043636322,
						"muscle": 0.09487928450107574,
						"needed": -0.06633445620536804,
						"inactive": 0.14947578310966492,
						"extended": -0.025742141529917717,
						"remain": 0.11488180607557297,
						"may": 0.1334584355354309,
						"given": 0.15361441671848297,
						"medication": 0.04327359050512314,
						"help": 0.011361894197762012,
						"atrophy": -0.024214351549744606,
						"week": -0.10545012354850769,
						"month": -0.010700113140046597,
						"depending": 0.0409025177359581,
						"spacecraft": 0.07203871011734009,
						"travels": 0.03325962275266647,
						"celestial": 0.0867922455072403,
						"body": -0.17236316204071045,
						"staggering": -0.06744382530450821,
						"literary": 0.02165878191590309,
						"device": 0.16031219065189362,
						"itself": -0.18171478807926178,
						"suggests": -0.17617623507976532,
						"thus": 0.19645097851753235,
						"lengthy": 0.08325427770614624,
						"muscles": -0.041312336921691895,
						"why": -0.06300892680883408,
						"danger": 0.17081977427005768,
						"reason": -0.16894827783107758,
						"getting": -0.10179062187671661,
						"ready": -0.017521239817142487,
						"coma": -0.1698008030653,
						"hence": 0.0963347852230072,
						"want": -0.10657519847154617,
						"kept": -0.14485538005828857,
						"physically": 0.03160472214221954,
						"safe": -0.12813423573970795,
						"putting": 0.05661635473370552,
						"assumed": -0.013165885582566261,
						"home": -0.0053278598934412,
						"atrophying": 0.08840130269527435,
						"extremely": 0.09242875128984451,
						"aipossibly": -0.14079834520816803,
						"year": 0.1371164470911026,
						"decades": -0.06773906946182251,
						"aisince": -0.16494692862033844,
						"requires": 0.1493699699640274,
						"stimulant": -0.0072206249460577965,
						"human": -0.007909411564469337,
						"deterioration": 0.12326274067163467,
						"typically": -0.12496203184127808,
						"happens": 0.1705351173877716,
						"non": 0.16548672318458557,
						"u": 0.12651821970939636,
						"predict": -0.16772902011871338,
						"decade": 0.0796111598610878,
						"programed": 0.16199235618114471,
						"inject": -0.10801101475954056,
						"drug": -0.11340392380952835,
						"deteriorating": 0.15452638268470764,
						"disuse": -0.0727919265627861,
						"inferring": 0.13917270302772522,
						"difficult": 0.1065511628985405,
						"no": -0.16863150894641876,
						"sense": -0.06267722696065903,
						"immediate": 0.1533777117729187,
						"talk": -0.06956838071346283,
						"without": 0.19154967367649078,
						"relaxer": -0.10942970216274261,
						"means": -0.16497887670993805,
						"situation": 0.17359933257102966,
						"traveler": -0.06451338529586792,
						"everyone": -0.18230284750461578,
						"use": 0.06537456810474396,
						"asleep": -0.13486646115779877,
						"causes": -0.01657395251095295,
						"entire": -0.03926225006580353,
						"order": -0.1265028566122055,
						"fall": 0.03402504324913025,
						"resources": 0.15247514843940735,
						"consumed": 0.14345839619636536,
						"embark": -0.052983369678258896,
						"placed": -0.1810128390789032,
						"includes": 0.01843787170946598,
						"g": -0.057895854115486145,
						"needs": -0.00204403861425817,
						"piercing": 0.0122586814686656,
						"hold": 0.1746063530445099,
						"occurs": 0.07254676520824432,
						"during": 0.16750898957252502,
						"nonuse": -0.07271721959114075,
						"knocked": -0.17040704190731049,
						"worried": 0.18989014625549316,
						"done": -0.04753682389855385,
						"voyage": -0.12439903616905212,
						"longer": -0.1404324769973755,
						"pretty": -0.09767197072505951,
						"preparation": 0.059386346489191055,
						"intense": 0.015038852579891682,
						"child": 0.19534343481063843,
						"separated": 0.10258840769529343,
						"adult": -0.11494384706020355,
						"differing": 0.18641811609268188,
						"goes": 0.10272951424121857,
						"faster": 0.10988316684961319,
						"when": -0.12656405568122864,
						"sleeping": 0.05774785950779915,
						"aging": 0.14620837569236755,
						"kid": 0.04981390759348869,
						"told": -0.145846888422966,
						"suggesting": 0.1387987732887268,
						"occupants": -0.0627029538154602,
						"designed": -0.10987590998411179,
						"forced": 0.05212949216365814,
						"position": 0.16085347533226013,
						"flight": 0.11671765148639679,
						"enter": 0.025156129151582718,
						"pod": 0.16398261487483978,
						"quickly": -0.010147764347493649,
						"required": -0.12641620635986328,
						"include": -0.17388492822647095,
						"avoid": -0.18681858479976654,
						"hyperbaric": -0.12257003784179688,
						"own": 0.1381501853466034,
						"part": -0.13624867796897888,
						"text": -0.1880718171596527,
						"says": -0.1937059909105301,
						"hooked": 0.19808387756347656,
						"normally": -0.10741564631462097,
						"animal": 0.16420762240886688,
						"appears": -0.07089275121688843,
						"relative": -0.012570072896778584,
						"term": -0.02550715208053589,
						"idea": 0.12946835160255432,
						"having": -0.15811604261398315,
						"something": 0.15156005322933197,
						"weightlessness": -0.01526623871177435,
						"assumin": -0.05103402957320213,
						"wouldn": 0.1497981995344162,
						"aot": -0.07091967016458511,
						"called": 0.17729870975017548,
						"bears": -0.16315697133541107,
						"winter": 0.06404280662536621,
						"lasts": 0.18632660806179047,
						"cheeky": 0.06358703225851059,
						"pointed": -0.15389679372310638,
						"atro": 0.1270364373922348,
						"stasis": -0.06169060617685318,
						"indicated": -0.07069925218820572,
						"chambers": 0.17819157242774963,
						"assume": 0.12010921537876129,
						"somewhat": -0.11929239332675934
					}
				},
				"8": {
					"bias": 0.09236741065979004,
					"weights": {
						"1": -0.03603260964155197,
						"2": -0.02918637916445732,
						"225": 0.14299598336219788,
						"short": 0.1366289108991623,
						"go": -0.21973839402198792,
						"shiranna": -0.019986551254987717,
						"hibernated": 0.09683853387832642,
						"so": -0.053081102669239044,
						"time": -0.16135936975479126,
						"will": -0.1797666996717453,
						"hand": 0.14920584857463837,
						"fast": 0.04452290013432503,
						"journey": 0.10657826066017151,
						"venus": 0.017421936616301537,
						"long": 0.18898184597492218,
						"however": 0.10292533040046692,
						"stop": -0.10208585113286972,
						"going": -0.10572897642850876,
						"space": 0.0022392652463167906,
						"station": 0.14546674489974976,
						"maybe": -0.14787086844444275,
						"near": -0.10171155631542206,
						"future": 0.032696232199668884,
						"eventually": -0.018628031015396118,
						"life": 0.1226380467414856,
						"became": -0.09351524710655212,
						"injection": -0.0019096521427854896,
						"took": -0.11968689411878586,
						"story": 0.09888933598995209,
						"keep": -0.21462854743003845,
						"forever": -0.10596022754907608,
						"think": -0.18860824406147003,
						"already": -0.024197066202759743,
						"far": 0.1411588191986084,
						"earth": -0.1359272003173828,
						"takes": 0.15530894696712494,
						"day": -0.063971608877182,
						"around": -0.019420042634010315,
						"trip": 0.21168191730976105,
						"believe": -0.03417888656258583,
						"even": -0.07849693298339844,
						"though": 0.10143116861581802,
						"engineering": 0.13257832825183868,
						"not": 0.10751716792583466,
						"epic": -0.06868554651737213,
						"drawn": -0.13639576733112335,
						"climax": -0.05766235664486885,
						"away": -0.04052382707595825,
						"passenger": -0.07377361506223679,
						"hibernate": 0.012804939411580563,
						"until": 0.17557556927204132,
						"arrive": -0.08137280493974686,
						"seem": -0.08978990465402603,
						"due": -0.005343210883438587,
						"fact": 0.12078911066055298,
						"place": 0.021990390494465828,
						"sleep": 0.13392962515354156,
						"quite": -0.15764030814170837,
						"reality": -0.19372503459453583,
						"scared": 0.10419807583093643,
						"lost": 0.1974378228187561,
						"father": -0.12096906453371048,
						"brave": -0.09230499714612961,
						"person": -0.14105160534381866,
						"hibernation": 0.085055410861969,
						"brief": -0.01189311221241951,
						"necessary": -0.003917543683201075,
						"chamber": 0.21002177894115448,
						"whole": -0.14587323367595673,
						"needle": 0.1816246211528778,
						"shake": 0.0760422945022583,
						"muscle": -0.08021219074726105,
						"needed": 0.0367157906293869,
						"inactive": 0.1547473818063736,
						"extended": 0.15349271893501282,
						"remain": 0.06291843205690384,
						"may": 0.1971866339445114,
						"given": -0.08750304579734802,
						"medication": -0.0770910382270813,
						"help": -0.18114495277404785,
						"atrophy": 0.1434929221868515,
						"week": -0.14940987527370453,
						"month": 0.04721489176154137,
						"depending": 0.02252023108303547,
						"spacecraft": 0.18553756177425385,
						"travels": -0.07824967801570892,
						"celestial": -0.13941967487335205,
						"body": 0.1058778464794159,
						"staggering": 0.10702303051948547,
						"literary": -0.16952359676361084,
						"device": 0.12272106856107712,
						"itself": 0.09808287024497986,
						"suggests": -0.020828532055020332,
						"thus": 0.049528248608112335,
						"lengthy": -0.07098133862018585,
						"muscles": -0.0627090334892273,
						"why": 0.0297626331448555,
						"danger": 0.02394864894449711,
						"reason": -0.12305563688278198,
						"getting": -0.04483974352478981,
						"ready": 0.1678493171930313,
						"coma": -0.011367104947566986,
						"hence": 0.019867658615112305,
						"want": -0.041259389370679855,
						"kept": 0.15179230272769928,
						"physically": 0.19153565168380737,
						"safe": -0.1921023726463318,
						"putting": 0.167575404047966,
						"assumed": -0.03835981339216232,
						"home": -0.039933737367391586,
						"atrophying": -0.004001286346465349,
						"extremely": 0.0780123621225357,
						"aipossibly": -0.001646585762500763,
						"year": 0.10339359194040298,
						"decades": 0.11841295659542084,
						"aisince": -0.08471702039241791,
						"requires": -0.020262449979782104,
						"stimulant": -0.15775783360004425,
						"human": 0.18894585967063904,
						"deterioration": -0.04503415524959564,
						"typically": -0.16128948330879211,
						"happens": 0.004977383650839329,
						"non": -0.17070657014846802,
						"u": -0.13062193989753723,
						"predict": -0.17897988855838776,
						"decade": 0.07300257682800293,
						"programed": 0.00666788499802351,
						"inject": -0.021059377118945122,
						"drug": 0.1050577238202095,
						"deteriorating": -0.0045797862112522125,
						"disuse": 0.09349456429481506,
						"inferring": -0.021318135783076286,
						"difficult": -0.005831989925354719,
						"no": -0.035493966192007065,
						"sense": -0.17826974391937256,
						"immediate": -0.14017251133918762,
						"talk": -0.14980697631835938,
						"without": 0.165394127368927,
						"relaxer": 0.19419851899147034,
						"means": -0.14595288038253784,
						"situation": 0.004612396005541086,
						"traveler": -0.043230995535850525,
						"everyone": -0.12368389964103699,
						"use": 0.021290965378284454,
						"asleep": 0.10721509158611298,
						"causes": -0.10100098699331284,
						"entire": 0.18526829779148102,
						"order": 0.04126140847802162,
						"fall": 0.07641588896512985,
						"resources": 0.013542745262384415,
						"consumed": 0.17122694849967957,
						"embark": -0.07675021141767502,
						"placed": -0.19129011034965515,
						"includes": -0.10802770406007767,
						"g": 0.027219556272029877,
						"needs": -0.18373629450798035,
						"piercing": -0.12146754562854767,
						"hold": 0.032675836235284805,
						"occurs": -0.0066884346306324005,
						"during": 0.029553299769759178,
						"nonuse": -0.19606634974479675,
						"knocked": -0.0461999885737896,
						"worried": -0.13721200823783875,
						"done": 0.16509631276130676,
						"voyage": 0.07576381415128708,
						"longer": 0.11698827147483826,
						"pretty": 0.0646064504981041,
						"preparation": 0.09828817844390869,
						"intense": -0.18742963671684265,
						"child": -0.14955583214759827,
						"separated": -0.04058104753494263,
						"adult": 0.1399044543504715,
						"differing": -0.11963065713644028,
						"goes": -0.21515534818172455,
						"faster": 0.15388521552085876,
						"when": -0.18952982127666473,
						"sleeping": -0.03252800181508064,
						"aging": -0.07406061142683029,
						"kid": 0.1667856127023697,
						"told": -0.06452862918376923,
						"suggesting": -0.15813186764717102,
						"occupants": -0.13908325135707855,
						"designed": -0.026339514181017876,
						"forced": -0.05305149778723717,
						"position": 0.13041123747825623,
						"flight": 0.1971471905708313,
						"enter": -0.13673606514930725,
						"pod": -0.04322003573179245,
						"quickly": 0.07290849089622498,
						"required": 0.19532833993434906,
						"include": -0.1150449812412262,
						"avoid": -0.09573370218276978,
						"hyperbaric": 0.19000029563903809,
						"own": 0.08252210915088654,
						"part": -0.16892920434474945,
						"text": 0.04368482157588005,
						"says": 0.07895038276910782,
						"hooked": -0.13463403284549713,
						"normally": 0.06747321039438248,
						"animal": -0.11929663270711899,
						"appears": -0.12210360169410706,
						"relative": -0.08315801620483398,
						"term": 0.18567077815532684,
						"idea": 0.1018814742565155,
						"having": -0.06307704746723175,
						"something": -0.12652713060379028,
						"weightlessness": 0.13213595747947693,
						"assumin": 0.12713319063186646,
						"wouldn": -0.18411096930503845,
						"aot": -0.007114460226148367,
						"called": -0.16280439496040344,
						"bears": 0.16723491251468658,
						"winter": 0.0808323323726654,
						"lasts": -0.012490866705775261,
						"cheeky": 0.12294614315032959,
						"pointed": -0.14206428825855255,
						"atro": -0.0635223537683487,
						"stasis": -0.11150401085615158,
						"indicated": -0.076178178191185,
						"chambers": -0.08777297288179398,
						"assume": 0.012376298196613789,
						"somewhat": -0.12513545155525208
					}
				},
				"9": {
					"bias": 0.1315513253211975,
					"weights": {
						"1": -0.1954236924648285,
						"2": -0.14330066740512848,
						"225": -0.07632724195718765,
						"short": 0.15796372294425964,
						"go": 0.19993233680725098,
						"shiranna": 0.044742874801158905,
						"hibernated": -0.14877349138259888,
						"so": -0.09101536124944687,
						"time": -0.06563876569271088,
						"will": 0.053872816264629364,
						"hand": 0.11622299253940582,
						"fast": 0.0893619954586029,
						"journey": -0.04451679810881615,
						"venus": -0.029254473745822906,
						"long": 0.04782009497284889,
						"however": 0.04298195615410805,
						"stop": -0.19678182899951935,
						"going": 0.08724173158407211,
						"space": 0.1483316570520401,
						"station": -0.03294884040951729,
						"maybe": 0.16648802161216736,
						"near": 0.11254433542490005,
						"future": 0.1274973452091217,
						"eventually": 0.05876384302973747,
						"life": 0.19926674664020538,
						"became": -0.1882287561893463,
						"injection": -0.09802427887916565,
						"took": 0.1583426296710968,
						"story": 0.08911623805761337,
						"keep": -0.022187700495123863,
						"forever": 0.10068091750144958,
						"think": 0.004686030559241772,
						"already": 0.1676732450723648,
						"far": -0.10561582446098328,
						"earth": 0.00042273756116628647,
						"takes": -0.030355921015143394,
						"day": 0.06415339559316635,
						"around": -0.17699193954467773,
						"trip": -0.13945996761322021,
						"believe": 0.15457047522068024,
						"even": -0.010456614196300507,
						"though": 0.1861192286014557,
						"engineering": 0.16615243256092072,
						"not": -0.15126322209835052,
						"epic": -0.08848952502012253,
						"drawn": 0.0010282907169312239,
						"climax": -0.0795302465558052,
						"away": 0.12787188589572906,
						"passenger": 0.08861251175403595,
						"hibernate": -0.03560724854469299,
						"until": -0.0707605853676796,
						"arrive": -0.05135825648903847,
						"seem": 0.14464302361011505,
						"due": -0.08092629909515381,
						"fact": -0.12983301281929016,
						"place": -0.03560258820652962,
						"sleep": -0.033144883811473846,
						"quite": -0.020523956045508385,
						"reality": -0.063082255423069,
						"scared": -0.15432916581630707,
						"lost": 0.09933974593877792,
						"father": -0.03240950033068657,
						"brave": -0.18262115120887756,
						"person": -0.01333183329552412,
						"hibernation": 0.0909845307469368,
						"brief": 0.11216222494840622,
						"necessary": -0.0399215891957283,
						"chamber": -0.20194987952709198,
						"whole": 0.05909912288188934,
						"needle": 0.11123058199882507,
						"shake": 0.16091230511665344,
						"muscle": 0.030000045895576477,
						"needed": 0.12693622708320618,
						"inactive": 0.11776003986597061,
						"extended": 0.11382993310689926,
						"remain": 0.007938585244119167,
						"may": -0.007291325367987156,
						"given": -0.039797112345695496,
						"medication": 0.008063077926635742,
						"help": 0.04465562105178833,
						"atrophy": 0.12903515994548798,
						"week": 0.04686702787876129,
						"month": 0.06230511516332626,
						"depending": 0.09110607206821442,
						"spacecraft": 0.15870334208011627,
						"travels": 0.0766315683722496,
						"celestial": -0.16108006238937378,
						"body": -0.12334944307804108,
						"staggering": -0.0073201293125748634,
						"literary": 0.008457856252789497,
						"device": -0.007942923344671726,
						"itself": -0.04484134167432785,
						"suggests": 0.12298732250928879,
						"thus": 0.045507099479436874,
						"lengthy": -0.08002698421478271,
						"muscles": -0.018954601138830185,
						"why": 0.17985548079013824,
						"danger": -0.02458984963595867,
						"reason": 0.14449864625930786,
						"getting": -0.17720477283000946,
						"ready": -0.1195598691701889,
						"coma": -0.11030653864145279,
						"hence": -0.0346779003739357,
						"want": -0.20344014465808868,
						"kept": -0.01863110437989235,
						"physically": -0.1593126505613327,
						"safe": 0.022834591567516327,
						"putting": -0.1495223194360733,
						"assumed": 0.13353516161441803,
						"home": 0.09300459921360016,
						"atrophying": 0.13125908374786377,
						"extremely": -0.17606280744075775,
						"aipossibly": 0.11470189690589905,
						"year": 0.15797579288482666,
						"decades": -0.16090014576911926,
						"aisince": 0.1626800298690796,
						"requires": -0.0596613883972168,
						"stimulant": -0.17690370976924896,
						"human": -0.1939617097377777,
						"deterioration": 0.12065623700618744,
						"typically": 0.04278911277651787,
						"happens": -0.16563065350055695,
						"non": -0.10576330125331879,
						"u": -0.08428437262773514,
						"predict": 0.05338552966713905,
						"decade": 0.032578181475400925,
						"programed": 0.1911875158548355,
						"inject": 0.021475281566381454,
						"drug": 0.11212503910064697,
						"deteriorating": -0.1321631371974945,
						"disuse": 0.1445891559123993,
						"inferring": -0.05935690551996231,
						"difficult": -0.10960933566093445,
						"no": -0.021487116813659668,
						"sense": -0.02648651972413063,
						"immediate": -0.19759871065616608,
						"talk": 0.06246329843997955,
						"without": 0.15664993226528168,
						"relaxer": 0.10741133987903595,
						"means": -0.08223315328359604,
						"situation": -0.11930149048566818,
						"traveler": -0.09117694944143295,
						"everyone": -0.126077800989151,
						"use": -0.17774587869644165,
						"asleep": 0.005096227861940861,
						"causes": 0.10771266371011734,
						"entire": 0.14333704113960266,
						"order": -0.09040538966655731,
						"fall": -0.16129587590694427,
						"resources": -0.03905467689037323,
						"consumed": -0.17023898661136627,
						"embark": -0.041575200855731964,
						"placed": 0.02632787637412548,
						"includes": 0.07573160529136658,
						"g": -0.16796617209911346,
						"needs": 0.1140337660908699,
						"piercing": -0.043262287974357605,
						"hold": 0.17768485844135284,
						"occurs": 0.17683161795139313,
						"during": 0.08756007999181747,
						"nonuse": 0.14433951675891876,
						"knocked": -0.1753486841917038,
						"worried": -0.05005258694291115,
						"done": -0.18272201716899872,
						"voyage": -0.13193689286708832,
						"longer": -0.06828964501619339,
						"pretty": -0.14238634705543518,
						"preparation": -0.18813973665237427,
						"intense": 0.1688222438097,
						"child": -0.13973356783390045,
						"separated": -0.14380112290382385,
						"adult": -0.09728692471981049,
						"differing": -0.10216596722602844,
						"goes": -0.09562871605157852,
						"faster": -0.07154767960309982,
						"when": -0.08187050372362137,
						"sleeping": 0.10655777156352997,
						"aging": -0.16525757312774658,
						"kid": 0.023341301828622818,
						"told": -0.15238100290298462,
						"suggesting": -0.009674387983977795,
						"occupants": 0.08111623674631119,
						"designed": 0.1944849193096161,
						"forced": 0.1226583942770958,
						"position": -0.02058546245098114,
						"flight": -0.03066716156899929,
						"enter": -0.03341533616185188,
						"pod": 0.08116237819194794,
						"quickly": -0.19961458444595337,
						"required": -0.0071211205795407295,
						"include": 0.16947472095489502,
						"avoid": -0.010731647722423077,
						"hyperbaric": -0.0007772009703330696,
						"own": -0.004965237807482481,
						"part": -0.07096157968044281,
						"text": 0.17455986142158508,
						"says": -0.011641694232821465,
						"hooked": 0.16891422867774963,
						"normally": -0.1181982085108757,
						"animal": -0.0156308151781559,
						"appears": 0.01812554895877838,
						"relative": 0.0670994371175766,
						"term": -0.05751996487379074,
						"idea": -0.052771154791116714,
						"having": 0.15553036332130432,
						"something": 0.016819722950458527,
						"weightlessness": -0.08268798887729645,
						"assumin": -0.14914071559906006,
						"wouldn": -0.19321374595165253,
						"aot": 0.08249931037425995,
						"called": 0.10250905901193619,
						"bears": -0.10161682218313217,
						"winter": 0.1326914280653,
						"lasts": -0.13466814160346985,
						"cheeky": -0.09243371337652206,
						"pointed": -0.11303070187568665,
						"atro": 0.012876098975539207,
						"stasis": 0.140796959400177,
						"indicated": -0.1760508269071579,
						"chambers": 0.19568566977977753,
						"assume": -0.056018829345703125,
						"somewhat": 0.11740034073591232
					}
				},
				"10": {
					"bias": -0.006908819545060396,
					"weights": {
						"1": 0.043582841753959656,
						"2": 0.19093886017799377,
						"225": 0.10314608365297318,
						"short": 0.0903957188129425,
						"go": -0.15958720445632935,
						"shiranna": -0.011707807891070843,
						"hibernated": 0.06396454572677612,
						"so": 0.03269048407673836,
						"time": 0.1973695307970047,
						"will": -0.0003318331728223711,
						"hand": 0.13082540035247803,
						"fast": -0.19764772057533264,
						"journey": 0.030309300869703293,
						"venus": -0.1669434905052185,
						"long": -0.01708751544356346,
						"however": 0.02583189122378826,
						"stop": -0.10483331978321075,
						"going": -0.1596132218837738,
						"space": -0.19376273453235626,
						"station": -0.11569954454898834,
						"maybe": -0.167628675699234,
						"near": -0.07509180158376694,
						"future": -0.041551485657691956,
						"eventually": -0.021800633519887924,
						"life": -0.15535058081150055,
						"became": 0.14445693790912628,
						"injection": -0.07479282468557358,
						"took": -0.021640468388795853,
						"story": 0.1897863894701004,
						"keep": -0.035709235817193985,
						"forever": 0.20964975655078888,
						"think": -0.0968858003616333,
						"already": -0.18140599131584167,
						"far": -0.09123342484235764,
						"earth": 0.15182551741600037,
						"takes": 0.20594961941242218,
						"day": 0.20697838068008423,
						"around": -0.13710960745811462,
						"trip": -0.14624983072280884,
						"believe": -0.03470515459775925,
						"even": -0.08170675486326218,
						"though": -0.025504305958747864,
						"engineering": -0.00954699981957674,
						"not": -0.011210666969418526,
						"epic": 0.10919062048196793,
						"drawn": -0.05255690589547157,
						"climax": -0.030865011736750603,
						"away": -0.016513878479599953,
						"passenger": -0.07685761153697968,
						"hibernate": -0.04417567700147629,
						"until": 0.0791773572564125,
						"arrive": -0.09170312434434891,
						"seem": 0.13416920602321625,
						"due": -0.012605245225131512,
						"fact": -0.05569661781191826,
						"place": -0.1923762708902359,
						"sleep": -0.018628736957907677,
						"quite": -0.1947431117296219,
						"reality": -0.1396706998348236,
						"scared": -0.11831820756196976,
						"lost": 0.13116325438022614,
						"father": -0.12644270062446594,
						"brave": -0.19877156615257263,
						"person": -0.13548719882965088,
						"hibernation": -0.16235344111919403,
						"brief": -0.15258385241031647,
						"necessary": -0.07273289561271667,
						"chamber": -0.0060644266195595264,
						"whole": 0.12179543823003769,
						"needle": 0.05880928412079811,
						"shake": 0.08635532855987549,
						"muscle": -0.13989907503128052,
						"needed": 0.0033665683586150408,
						"inactive": -0.1473429650068283,
						"extended": 0.15102271735668182,
						"remain": -0.12415067106485367,
						"may": 0.005008908919990063,
						"given": -0.12742574512958527,
						"medication": 0.04479522630572319,
						"help": -0.07433388382196426,
						"atrophy": 0.18191197514533997,
						"week": -0.15377020835876465,
						"month": 0.05769891291856766,
						"depending": -0.19620774686336517,
						"spacecraft": -0.026830684393644333,
						"travels": -0.19672717154026031,
						"celestial": 0.007060093339532614,
						"body": -0.026036188006401062,
						"staggering": 0.07318954169750214,
						"literary": -0.18289151787757874,
						"device": 0.18778358399868011,
						"itself": 0.06489697098731995,
						"suggests": -0.06295551359653473,
						"thus": 0.13249891996383667,
						"lengthy": 0.0008726066444069147,
						"muscles": -0.1447942554950714,
						"why": 0.06397160142660141,
						"danger": 0.026043927296996117,
						"reason": -0.06562282890081406,
						"getting": -0.11371418833732605,
						"ready": 0.19651314616203308,
						"coma": 0.028971359133720398,
						"hence": -0.10798299312591553,
						"want": -0.007423899602144957,
						"kept": -0.09009634703397751,
						"physically": 0.14062067866325378,
						"safe": 0.13282421231269836,
						"putting": -0.12931139767169952,
						"assumed": 0.026141848415136337,
						"home": 0.03513634204864502,
						"atrophying": 0.07731306552886963,
						"extremely": 0.17345847189426422,
						"aipossibly": -0.12247125804424286,
						"year": 0.03310531750321388,
						"decades": 0.06538557261228561,
						"aisince": -0.08611885458230972,
						"requires": -0.04458877444267273,
						"stimulant": 0.07721520215272903,
						"human": -0.054936427623033524,
						"deterioration": -0.08203467726707458,
						"typically": -0.17072799801826477,
						"happens": -0.05893153324723244,
						"non": -0.18056221306324005,
						"u": 0.12322085350751877,
						"predict": -0.14379610121250153,
						"decade": -0.18801498413085938,
						"programed": -0.17101748287677765,
						"inject": 0.16410791873931885,
						"drug": -0.05192333087325096,
						"deteriorating": -0.1805546134710312,
						"disuse": -0.1823607236146927,
						"inferring": 0.07584565132856369,
						"difficult": -0.13576658070087433,
						"no": -0.02247581258416176,
						"sense": -0.05222829431295395,
						"immediate": -0.06284677237272263,
						"talk": -0.05754872411489487,
						"without": -0.12447275966405869,
						"relaxer": 0.08537063747644424,
						"means": -0.043727174401283264,
						"situation": 0.17691615223884583,
						"traveler": -0.19917835295200348,
						"everyone": 0.18257243931293488,
						"use": -0.06985422968864441,
						"asleep": -0.12787611782550812,
						"causes": -0.05573197081685066,
						"entire": -0.10434749722480774,
						"order": -0.04518682137131691,
						"fall": -0.04744429886341095,
						"resources": 0.19688169658184052,
						"consumed": 0.09086224436759949,
						"embark": -0.15896794199943542,
						"placed": -0.18572764098644257,
						"includes": -0.007654243148863316,
						"g": -0.16993746161460876,
						"needs": 0.14014728367328644,
						"piercing": 0.19403111934661865,
						"hold": 0.19639728963375092,
						"occurs": 0.17358151078224182,
						"during": 0.17908690869808197,
						"nonuse": -0.020770074799656868,
						"knocked": 0.07309167832136154,
						"worried": -0.15393725037574768,
						"done": 0.027648266404867172,
						"voyage": 0.16877683997154236,
						"longer": -0.15376423299312592,
						"pretty": 0.12465646117925644,
						"preparation": 0.04641832783818245,
						"intense": -0.05762411653995514,
						"child": 0.11159098893404007,
						"separated": 0.18095257878303528,
						"adult": -0.12514036893844604,
						"differing": -0.026741208508610725,
						"goes": -0.004477638751268387,
						"faster": 0.1305394321680069,
						"when": -0.004396107979118824,
						"sleeping": 0.052145201712846756,
						"aging": 0.03136054426431656,
						"kid": 0.15800943970680237,
						"told": 0.05049935355782509,
						"suggesting": 0.07822641730308533,
						"occupants": 0.11716221272945404,
						"designed": -0.019371289759874344,
						"forced": -0.15490390360355377,
						"position": 0.028493087738752365,
						"flight": 0.17696911096572876,
						"enter": 0.12109776586294174,
						"pod": -0.14557784795761108,
						"quickly": 0.029042016714811325,
						"required": -0.02802637778222561,
						"include": 0.18056049942970276,
						"avoid": -0.010789807885885239,
						"hyperbaric": 0.03209792450070381,
						"own": 0.14918604493141174,
						"part": 0.039167214184999466,
						"text": 0.02603076584637165,
						"says": -0.15277326107025146,
						"hooked": 0.10830537229776382,
						"normally": 0.03423614054918289,
						"animal": -0.174901083111763,
						"appears": 0.14661383628845215,
						"relative": 0.12061860412359238,
						"term": -0.18091176450252533,
						"idea": 0.1649692803621292,
						"having": 0.057276349514722824,
						"something": 0.18375709652900696,
						"weightlessness": -0.09479296207427979,
						"assumin": 0.1843196004629135,
						"wouldn": -0.04352135583758354,
						"aot": -0.18268194794654846,
						"called": 0.05101030319929123,
						"bears": 0.0834924504160881,
						"winter": 0.15941812098026276,
						"lasts": 0.0975203588604927,
						"cheeky": -0.015572354197502136,
						"pointed": -0.11111227422952652,
						"atro": -0.16239367425441742,
						"stasis": -0.10044096410274506,
						"indicated": -0.17365239560604095,
						"chambers": 0.17771115899085999,
						"assume": 0.09457016736268997,
						"somewhat": -0.00949123129248619
					}
				},
				"11": {
					"bias": 0.00983252190053463,
					"weights": {
						"1": -0.10912726074457169,
						"2": 0.02336489036679268,
						"225": 0.06783696264028549,
						"short": 0.03302213177084923,
						"go": 0.06195781007409096,
						"shiranna": 0.0660543218255043,
						"hibernated": -0.1338552087545395,
						"so": -0.14222951233386993,
						"time": -0.05986780300736427,
						"will": 0.170915424823761,
						"hand": 0.17664432525634766,
						"fast": -0.1206398457288742,
						"journey": 0.08825371414422989,
						"venus": -0.13521693646907806,
						"long": -0.09474654495716095,
						"however": 0.17945489287376404,
						"stop": 0.12179044634103775,
						"going": -0.021147537976503372,
						"space": -0.10987889021635056,
						"station": -0.14258316159248352,
						"maybe": 0.08478277921676636,
						"near": 0.18695689737796783,
						"future": 0.034803956747055054,
						"eventually": -0.006950527895241976,
						"life": -0.0969315618276596,
						"became": 0.021552501246333122,
						"injection": -0.09511858224868774,
						"took": -0.06543891876935959,
						"story": -0.03285026177763939,
						"keep": -0.16813243925571442,
						"forever": 0.2171499878168106,
						"think": 0.13852739334106445,
						"already": -0.17505130171775818,
						"far": 0.052376639097929,
						"earth": 0.0033617550507187843,
						"takes": -0.053175680339336395,
						"day": -0.006112893112003803,
						"around": -0.019741808995604515,
						"trip": 0.06051966920495033,
						"believe": -0.0761629119515419,
						"even": -0.09100847691297531,
						"though": 0.03806275129318237,
						"engineering": 0.17373336851596832,
						"not": 0.05078915134072304,
						"epic": 0.17849215865135193,
						"drawn": -0.18429116904735565,
						"climax": 0.1748589426279068,
						"away": -0.2000044733285904,
						"passenger": -0.2034056931734085,
						"hibernate": 0.048696368932724,
						"until": 0.0893818587064743,
						"arrive": 0.13363860547542572,
						"seem": -0.056419383734464645,
						"due": 0.028406089171767235,
						"fact": 0.09375707805156708,
						"place": -0.048192236572504044,
						"sleep": -0.1898748129606247,
						"quite": 0.18795567750930786,
						"reality": 0.1680329293012619,
						"scared": -0.1700568050146103,
						"lost": 0.15373601019382477,
						"father": -0.07391893863677979,
						"brave": 0.1475825011730194,
						"person": 0.11348778009414673,
						"hibernation": -0.1990201771259308,
						"brief": -0.0584367960691452,
						"necessary": 0.10732027143239975,
						"chamber": 0.07655522227287292,
						"whole": 0.18712598085403442,
						"needle": -0.008265922777354717,
						"shake": -0.02959408052265644,
						"muscle": 0.05260283872485161,
						"needed": 0.12700587511062622,
						"inactive": 0.15689554810523987,
						"extended": 0.12547701597213745,
						"remain": -0.10690651834011078,
						"may": 0.05744634196162224,
						"given": 0.015509253367781639,
						"medication": -0.19187061488628387,
						"help": -0.14721368253231049,
						"atrophy": 0.14612871408462524,
						"week": -0.06650391966104507,
						"month": -0.05365217477083206,
