{
	"createNewObjectString": "function classifierFun() {\r\n    const limdu = require('limdu');\r\n    return new limdu.classifiers.NeuralNetwork();\r\n}",
	"object": {
		"sizes": [
			148,
			74,
			1
		],
		"layers": [
			{
				"she": {},
				"not": {},
				"happy": {},
				"lot": {},
				"person": {},
				"wanted": {},
				"cheecky": {},
				"adam": {},
				"seems": {},
				"does": {},
				"really": {},
				"want": {},
				"think": {},
				"rather": {},
				"p": {},
				"r": {},
				"when": {},
				"animal": {},
				"kept": {},
				"captivity": {},
				"visit": {},
				"watch": {},
				"feels": {},
				"watching": {},
				"enjoyed": {},
				"zoo": {},
				"shiranna": {},
				"preferred": {},
				"hanging": {},
				"going": {},
				"thinks": {},
				"okay": {},
				"just": {},
				"wants": {},
				"go": {},
				"home": {},
				"relax": {},
				"cheeky": {},
				"trying": {},
				"look": {},
				"bright": {},
				"side": {},
				"enjoy": {},
				"monkey": {},
				"exhibit": {},
				"feel": {},
				"uneasy": {},
				"meeting": {},
				"something": {},
				"nervous": {},
				"thought": {},
				"kinda": {},
				"fun": {},
				"alone": {},
				"enjoys": {},
				"enough": {},
				"kind": {},
				"camera": {},
				"everywhere": {},
				"ruined": {},
				"experience": {},
				"bit": {},
				"towards": {},
				"end": {},
				"ready": {},
				"especially": {},
				"real": {},
				"saw": {},
				"played": {},
				"tug": {},
				"war": {},
				"likes": {},
				"seeing": {},
				"entertaining": {},
				"zookeeper": {},
				"smith": {},
				"antics": {},
				"monkeys": {},
				"liked": {},
				"better": {},
				"place": {},
				"went": {},
				"funny": {},
				"She": {},
				"exactly": {},
				"thrilled": {},
				"mosby": {},
				"parading": {},
				"around": {},
				"iss": {},
				"prized": {},
				"trophy": {},
				"able": {},
				"own": {},
				"thing": {},
				"exploring": {},
				"felt": {},
				"nice": {},
				"paraded": {},
				"fine": {},
				"enjoyable": {},
				"friend": {},
				"everything": {},
				"doing": {},
				"keeper": {},
				"starting": {},
				"though": {},
				"interesting": {},
				"dad": {},
				"money": {},
				"little": {},
				"bored": {},
				"spend": {},
				"time": {},
				"somewhat": {},
				"excited": {},
				"touch": {},
				"making": {},
				"familiar": {},
				"tired": {},
				"large": {},
				"crowd": {},
				"wished": {},
				"having": {},
				"explore": {},
				"getting": {},
				"attention": {},
				"commotion": {},
				"seemed": {},
				"enjoying": {},
				"herself": {},
				"1st": {},
				"kid": {},
				"tour": {},
				"resting": {},
				"cool": {},
				"comical": {},
				"diversion": {},
				"otherwise": {},
				"boring": {},
				"day": {},
				"interested": {},
				"even": {},
				"owl": {},
				"shown": {},
				"long": {},
				"adams": {},
				"fathe": {}
			},
			{
				"0": {
					"bias": -0.18467576801776886,
					"weights": {
						"she": -0.1567588597536087,
						"not": -0.226090207695961,
						"happy": 0.11452219635248184,
						"lot": 0.11419680714607239,
						"person": -0.027453046292066574,
						"wanted": -0.13897791504859924,
						"cheecky": -0.02588886208832264,
						"adam": -0.1520761251449585,
						"seems": -0.1594206839799881,
						"does": 0.06113824248313904,
						"really": -0.07324767857789993,
						"want": -0.11849387735128403,
						"think": -0.11369021981954575,
						"rather": 0.04924863949418068,
						"p": -0.1919594705104828,
						"r": 0.044169701635837555,
						"when": 0.10327304154634476,
						"animal": 0.03076755255460739,
						"kept": 0.06980668008327484,
						"captivity": -0.04197419434785843,
						"visit": 0.08011503517627716,
						"watch": -0.1395501047372818,
						"feels": -0.10900995135307312,
						"watching": 0.16888350248336792,
						"enjoyed": -0.07132338732481003,
						"zoo": 0.052357498556375504,
						"shiranna": 0.11195529997348785,
						"preferred": -0.062130264937877655,
						"hanging": 0.11893022805452347,
						"going": -0.18623603880405426,
						"thinks": -0.09482044726610184,
						"okay": 0.15864071249961853,
						"just": 0.061029162257909775,
						"wants": -0.09371969103813171,
						"go": -0.2341470867395401,
						"home": 0.12298905849456787,
						"relax": 0.005650786682963371,
						"cheeky": 0.1502992808818817,
						"trying": 0.05299684777855873,
						"look": -0.032458242028951645,
						"bright": 0.18630965054035187,
						"side": 0.11297707259654999,
						"enjoy": -0.10994511842727661,
						"monkey": 0.2284364253282547,
						"exhibit": 0.04043766111135483,
						"feel": -0.04500361159443855,
						"uneasy": -0.17266885936260223,
						"meeting": -0.12148508429527283,
						"something": 0.1547471433877945,
						"nervous": 0.06695733219385147,
						"thought": 0.18181112408638,
						"kinda": -0.08881138265132904,
						"fun": 0.0758635550737381,
						"alone": -0.0952170342206955,
						"enjoys": -0.024450641125440598,
						"enough": -0.09433500468730927,
						"kind": -0.019319962710142136,
						"camera": 0.054667700082063675,
						"everywhere": 0.015155892819166183,
						"ruined": 0.09592394530773163,
						"experience": 0.17914150655269623,
						"bit": -0.0007456216844730079,
						"towards": -0.068359375,
						"end": 0.14790821075439453,
						"ready": -0.04916490986943245,
						"especially": 0.1358245611190796,
						"real": 0.05520281940698624,
						"saw": 0.08778458833694458,
						"played": -0.14862966537475586,
						"tug": -0.03026191145181656,
						"war": 0.007047387771308422,
						"likes": 0.2516099810600281,
						"seeing": 0.07654616236686707,
						"entertaining": 0.15742717683315277,
						"zookeeper": 0.17796745896339417,
						"smith": 0.19786255061626434,
						"antics": 0.12393215298652649,
						"monkeys": -0.145477756857872,
						"liked": 0.0486394464969635,
						"better": -0.07755152881145477,
						"place": 0.12519778311252594,
						"went": -0.18457961082458496,
						"funny": -0.14438942074775696,
						"She": 0.014565668068826199,
						"exactly": -0.18709518015384674,
						"thrilled": -0.09536002576351166,
						"mosby": 0.008718078956007957,
						"parading": 0.06978708505630493,
						"around": 0.24939043819904327,
						"iss": -0.05794455483555794,
						"prized": 0.16085882484912872,
						"trophy": 0.05007098987698555,
						"able": 0.05363459140062332,
						"own": -0.19442597031593323,
						"thing": 0.16626545786857605,
						"exploring": 0.12327029556035995,
						"felt": 0.08291041105985641,
						"nice": 0.04488929733633995,
						"paraded": 0.17699196934700012,
						"fine": -0.0736289918422699,
						"enjoyable": -0.11193834245204926,
						"friend": -0.3017631471157074,
						"everything": -0.13111639022827148,
						"doing": 0.15930305421352386,
						"keeper": -0.02970905229449272,
						"starting": 0.09358838945627213,
						"though": -0.021482091397047043,
						"interesting": 0.05830543860793114,
						"dad": 0.07071443647146225,
						"money": -0.11123671382665634,
						"little": -0.02150893211364746,
						"bored": -0.08136842399835587,
						"spend": -0.043401170521974564,
						"time": 0.10957988351583481,
						"somewhat": 0.20725543797016144,
						"excited": 0.07655911147594452,
						"touch": -0.1895666867494583,
						"making": 0.09517630189657211,
						"familiar": 0.1245230957865715,
						"tired": 0.08279264718294144,
						"large": 0.007410983555018902,
						"crowd": 0.04921382665634155,
						"wished": -0.168288916349411,
						"having": 0.07137895375490189,
						"explore": -0.23729345202445984,
						"getting": 0.010433491319417953,
						"attention": 0.06618298590183258,
						"commotion": 0.16284246742725372,
						"seemed": -0.10769953578710556,
						"enjoying": 0.12994959950447083,
						"herself": 0.04940670356154442,
						"1st": -0.12373024970293045,
						"kid": -0.12371094524860382,
						"tour": -0.11461982876062393,
						"resting": 0.18398116528987885,
						"cool": 0.07075098156929016,
						"comical": 0.16838066279888153,
						"diversion": 0.09960620105266571,
						"otherwise": 0.13835418224334717,
						"boring": 0.19620785117149353,
						"day": 0.06795754283666611,
						"interested": 0.01893923617899418,
						"even": 0.03941383957862854,
						"owl": -0.09133097529411316,
						"shown": -0.10492639988660812,
						"long": -0.17990466952323914,
						"adams": 0.1173500269651413,
						"fathe": -0.11579305678606033
					}
				},
				"1": {
					"bias": 0.11607465147972107,
					"weights": {
						"she": -0.12217113375663757,
						"not": -0.5066488981246948,
						"happy": -0.024404874071478844,
						"lot": -0.25862380862236023,
						"person": -0.080065056681633,
						"wanted": -0.3952459692955017,
						"cheecky": -0.1241951435804367,
						"adam": -0.10811209678649902,
						"seems": -0.29840701818466187,
						"does": -0.18809854984283447,
						"really": 0.2346794158220291,
						"want": -0.25716468691825867,
						"think": -0.19843094050884247,
						"rather": -0.011303499341011047,
						"p": -0.23057299852371216,
						"r": -0.13212227821350098,
						"when": -0.08469712734222412,
						"animal": -0.04358929395675659,
						"kept": -0.0033775672782212496,
						"captivity": 0.07404298335313797,
						"visit": -0.16433753073215485,
						"watch": -0.01328982412815094,
						"feels": -0.0343351885676384,
						"watching": -0.21322424709796906,
						"enjoyed": -0.02518576569855213,
						"zoo": 0.2110334187746048,
						"shiranna": 0.12847000360488892,
						"preferred": -0.38315141201019287,
						"hanging": -0.0008403311367146671,
						"going": -0.1702563315629959,
						"thinks": 0.038235221058130264,
						"okay": -0.21936458349227905,
						"just": -0.16278083622455597,
						"wants": 0.06045015901327133,
						"go": -0.32144758105278015,
						"home": -0.02965424582362175,
						"relax": -0.3407646417617798,
						"cheeky": 0.39229440689086914,
						"trying": -0.010481412522494793,
						"look": -0.025878731161355972,
						"bright": 0.12115948647260666,
						"side": -0.13934803009033203,
						"enjoy": 0.128854438662529,
						"monkey": 0.11509203910827637,
						"exhibit": -0.21583789587020874,
						"feel": -0.03224541246891022,
						"uneasy": -0.15887019038200378,
						"meeting": 0.048149473965168,
						"something": 0.00503431586548686,
						"nervous": 0.006291203200817108,
						"thought": 0.3149845600128174,
						"kinda": 0.25018489360809326,
						"fun": 0.30040207505226135,
						"alone": -0.00015718596114311367,
						"enjoys": 0.28773757815361023,
						"enough": 0.04643389582633972,
						"kind": 0.1217951849102974,
						"camera": 0.11720041185617447,
						"everywhere": -0.056946467608213425,
						"ruined": 0.04739782586693764,
						"experience": 0.027121590450406075,
						"bit": 0.010009922087192535,
						"towards": -0.17826978862285614,
						"end": 0.024157915264368057,
						"ready": 0.14868712425231934,
						"especially": 0.11423838138580322,
						"real": -0.10582543164491653,
						"saw": -0.0580022931098938,
						"played": 0.01236301101744175,
						"tug": -0.08774372190237045,
						"war": 0.1495276540517807,
						"likes": 0.29213133454322815,
						"seeing": 0.2678864002227783,
						"entertaining": -0.005825855303555727,
						"zookeeper": 0.0685313493013382,
						"smith": -0.10908310860395432,
						"antics": -0.12336529791355133,
						"monkeys": 0.05111592262983322,
						"liked": 0.5108956098556519,
						"better": 0.1187729462981224,
						"place": 0.1787678450345993,
						"went": 0.023308245465159416,
						"funny": -0.10649671405553818,
						"She": 0.14135965704917908,
						"exactly": -0.028880393132567406,
						"thrilled": 0.1930362433195114,
						"mosby": 0.2790057063102722,
						"parading": 0.2101927548646927,
						"around": -0.03584764525294304,
						"iss": -0.15478157997131348,
						"prized": 0.007650947198271751,
						"trophy": 0.12099245190620422,
						"able": 0.11228900402784348,
						"own": 0.18760152161121368,
						"thing": 0.05981571599841118,
						"exploring": 0.031215976923704147,
						"felt": 0.010458766482770443,
						"nice": 0.07103286683559418,
						"paraded": -0.09188656508922577,
						"fine": 0.028343167155981064,
						"enjoyable": 0.2457006275653839,
						"friend": -0.3827664256095886,
						"everything": -0.027561558410525322,
						"doing": 0.010702858678996563,
						"keeper": 0.20686060190200806,
						"starting": 0.2070995718240738,
						"though": 0.007827737368643284,
						"interesting": 0.2103443294763565,
						"dad": -0.02611687034368515,
						"money": 0.1218145564198494,
						"little": -0.11894731223583221,
						"bored": 0.009545357897877693,
						"spend": -0.03561720624566078,
						"time": 0.229431614279747,
						"somewhat": 0.22270140051841736,
						"excited": 0.0375891774892807,
						"touch": 0.02823391743004322,
						"making": 0.03379501402378082,
						"familiar": 0.17289870977401733,
						"tired": 0.06805410981178284,
						"large": 0.07428733259439468,
						"crowd": -0.0019419119926169515,
						"wished": -0.10574964433908463,
						"having": 0.08763477951288223,
						"explore": -0.16511759161949158,
						"getting": -0.12844045460224152,
						"attention": 0.11754518002271652,
						"commotion": -0.14979197084903717,
						"seemed": 0.06148511916399002,
						"enjoying": 0.025875955820083618,
						"herself": -0.15120647847652435,
						"1st": -0.05773911625146866,
						"kid": -0.03831511363387108,
						"tour": 0.19142763316631317,
						"resting": 0.05229939520359039,
						"cool": -0.059100691229104996,
						"comical": 0.1708674430847168,
						"diversion": 0.05943135917186737,
						"otherwise": 0.08763942122459412,
						"boring": 0.09563065320253372,
						"day": 0.11707445234060287,
						"interested": 0.1871500015258789,
						"even": -0.10504346340894699,
						"owl": -0.07700558751821518,
						"shown": -0.0742281898856163,
						"long": -0.13373413681983948,
						"adams": -0.06810959428548813,
						"fathe": -0.19811615347862244
					}
				},
				"2": {
					"bias": 0.11016084998846054,
					"weights": {
						"she": 0.04166976362466812,
						"not": 0.34727582335472107,
						"happy": -0.028293345123529434,
						"lot": -0.10550859570503235,
						"person": -0.010172516107559204,
						"wanted": 0.006065094843506813,
						"cheecky": 0.16543537378311157,
						"adam": -0.14321647584438324,
						"seems": -0.1294712871313095,
						"does": 0.05199548974633217,
						"really": -0.2564101219177246,
						"want": 0.10109638422727585,
						"think": 0.23869991302490234,
						"rather": 0.0018309185979887843,
						"p": 0.1459674835205078,
						"r": 0.15914985537528992,
						"when": -0.08611159026622772,
						"animal": 0.13149645924568176,
						"kept": -0.14993247389793396,
						"captivity": 0.15251506865024567,
						"visit": 0.03908558934926987,
						"watch": 0.19743385910987854,
						"feels": 0.16347800195217133,
						"watching": -0.02022111788392067,
						"enjoyed": 0.22988611459732056,
						"zoo": -0.115458644926548,
						"shiranna": 0.13958479464054108,
						"preferred": 0.12085574865341187,
						"hanging": 0.17112791538238525,
						"going": -0.07351431250572205,
						"thinks": 0.002646826906129718,
						"okay": -0.13362626731395721,
						"just": 0.21346578001976013,
						"wants": -0.02037515863776207,
						"go": 0.21952904760837555,
						"home": 0.033321790397167206,
						"relax": 0.2716885209083557,
						"cheeky": 0.015753353014588356,
						"trying": -0.004371212795376778,
						"look": 0.09350484609603882,
						"bright": -0.10282395780086517,
						"side": 0.07412007451057434,
						"enjoy": 0.11719363927841187,
						"monkey": -0.07970719784498215,
						"exhibit": -0.06544139236211777,
						"feel": -0.050065092742443085,
						"uneasy": 0.09447246789932251,
						"meeting": -0.02010875567793846,
						"something": 0.04098401963710785,
						"nervous": -0.17039431631565094,
						"thought": -0.09504198282957077,
						"kinda": 0.09203487634658813,
						"fun": -0.30062222480773926,
						"alone": 0.002906493842601776,
						"enjoys": -0.040960364043712616,
						"enough": -0.23550240695476532,
						"kind": -0.0172194242477417,
						"camera": -0.10921832174062729,
						"everywhere": -0.003974077291786671,
						"ruined": -0.007785432506352663,
						"experience": 0.12309403717517853,
						"bit": -0.03094649873673916,
						"towards": -0.005189658608287573,
						"end": 0.18522697687149048,
						"ready": -0.021231556311249733,
						"especially": -0.013114919885993004,
						"real": 0.032629773020744324,
						"saw": 0.02613743022084236,
						"played": -0.15288002789020538,
						"tug": 0.07471606880426407,
						"war": 0.11344419419765472,
						"likes": -0.1970992088317871,
						"seeing": -0.04557241126894951,
						"entertaining": 0.18148750066757202,
						"zookeeper": 0.09788976609706879,
						"smith": -0.19267448782920837,
						"antics": -0.057454757392406464,
						"monkeys": 0.11549797654151917,
						"liked": -0.14312444627285004,
						"better": -0.006589256227016449,
						"place": 0.04595721885561943,
						"went": -0.02003180980682373,
						"funny": -0.19342434406280518,
						"She": 0.05377095565199852,
						"exactly": -0.03120620921254158,
						"thrilled": 0.0939653292298317,
						"mosby": 0.08823370933532715,
						"parading": -0.17524218559265137,
						"around": -0.07385513186454773,
						"iss": 0.15928059816360474,
						"prized": -0.10398838669061661,
						"trophy": 0.06305360049009323,
						"able": -0.19749855995178223,
						"own": -0.19198203086853027,
						"thing": 0.04930897057056427,
						"exploring": 0.10875300318002701,
						"felt": -0.13577653467655182,
						"nice": 0.11161714047193527,
						"paraded": -0.01764242723584175,
						"fine": -0.22064632177352905,
						"enjoyable": -0.18549123406410217,
						"friend": 0.18777379393577576,
						"everything": 0.08661799132823944,
						"doing": 0.18144828081130981,
						"keeper": -0.031240681186318398,
						"starting": 0.1893002688884735,
						"though": 0.06061888113617897,
						"interesting": -0.18024203181266785,
						"dad": 0.013944166712462902,
						"money": 0.04949871078133583,
						"little": -0.18147265911102295,
						"bored": -0.046720951795578,
						"spend": 0.03203236311674118,
						"time": 0.14845457673072815,
						"somewhat": 0.07243548333644867,
						"excited": 0.06798490136861801,
						"touch": -0.060905683785676956,
						"making": -0.08232224732637405,
						"familiar": -0.05856451392173767,
						"tired": 0.11464749276638031,
						"large": 0.09441157430410385,
						"crowd": 0.1395113468170166,
						"wished": -0.1056525930762291,
						"having": -0.15293774008750916,
						"explore": 0.13904336094856262,
						"getting": -0.0971057191491127,
						"attention": 0.014337900094687939,
						"commotion": 0.04699581488966942,
						"seemed": 0.19482898712158203,
						"enjoying": -0.06051839888095856,
						"herself": -0.15553730726242065,
						"1st": 0.17280763387680054,
						"kid": 0.060430191457271576,
						"tour": 0.03489501401782036,
						"resting": 0.12433404475450516,
						"cool": -0.19674518704414368,
						"comical": -0.10405897349119186,
						"diversion": 0.12189625948667526,
						"otherwise": 0.13807176053524017,
						"boring": 0.13561007380485535,
						"day": -0.13801626861095428,
						"interested": 0.10024461895227432,
						"even": -0.05543816462159157,
						"owl": -0.027346305549144745,
						"shown": -0.07405547052621841,
						"long": -0.02732745185494423,
						"adams": 0.08136573433876038,
						"fathe": -0.01677989959716797
					}
				},
				"3": {
					"bias": -0.05479510873556137,
					"weights": {
						"she": -0.08335942775011063,
						"not": 0.039324015378952026,
						"happy": -0.15783406794071198,
						"lot": 0.10724307596683502,
						"person": 0.037921011447906494,
						"wanted": 0.061004191637039185,
						"cheecky": -0.0965173989534378,
						"adam": 0.20334938168525696,
						"seems": -0.012411619536578655,
						"does": 0.10903631895780563,
						"really": -0.09118083119392395,
						"want": 0.018938802182674408,
						"think": 0.15941883623600006,
						"rather": 0.016349375247955322,
						"p": -0.17268510162830353,
						"r": 0.036983612924814224,
						"when": 0.21426329016685486,
						"animal": 0.036993157118558884,
						"kept": -0.1319080889225006,
						"captivity": 0.12668108940124512,
						"visit": 0.10521939396858215,
						"watch": -0.03904968500137329,
						"feels": 0.09310826659202576,
						"watching": -0.0859038457274437,
						"enjoyed": 0.07024316489696503,
						"zoo": 0.08893030881881714,
						"shiranna": -0.1378135234117508,
						"preferred": 0.03508572652935982,
						"hanging": 0.03862663730978966,
						"going": 0.11820567399263382,
						"thinks": -0.07392431795597076,
						"okay": 0.08158467710018158,
						"just": 0.004814420826733112,
						"wants": 0.19514115154743195,
						"go": 0.06980450451374054,
						"home": 0.12185512483119965,
						"relax": -0.019070545211434364,
						"cheeky": -0.012781111523509026,
						"trying": -0.1308998316526413,
						"look": 0.044438522309064865,
						"bright": -0.1194140687584877,
						"side": 0.13621389865875244,
						"enjoy": 0.08008227497339249,
						"monkey": 0.0019812812097370625,
						"exhibit": 0.010911182500422001,
						"feel": 0.1918533891439438,
						"uneasy": 0.14192141592502594,
						"meeting": -0.07097987085580826,
						"something": -0.07536761462688446,
						"nervous": -0.1755925565958023,
						"thought": -0.16945770382881165,
						"kinda": -0.11024538427591324,
						"fun": 0.040711067616939545,
						"alone": -0.06495415419340134,
						"enjoys": 0.03944828361272812,
						"enough": -0.0203445702791214,
						"kind": -0.2012414187192917,
						"camera": -0.07588955760002136,
						"everywhere": -0.18300452828407288,
						"ruined": -0.15484637022018433,
						"experience": -0.0003291002940386534,
						"bit": -0.1475212723016739,
						"towards": 0.17021572589874268,
						"end": 0.1903543770313263,
						"ready": -0.046635888516902924,
						"especially": 0.02117360569536686,
						"real": 0.07951931655406952,
						"saw": -0.14343193173408508,
						"played": -0.15774178504943848,
						"tug": 0.15831460058689117,
						"war": 0.08104397356510162,
						"likes": -0.07200794667005539,
						"seeing": 0.07752654701471329,
						"entertaining": 0.11127211898565292,
						"zookeeper": 0.029311710968613625,
						"smith": -0.02883909083902836,
						"antics": -0.1830465942621231,
						"monkeys": -0.15744160115718842,
						"liked": -0.1206381544470787,
						"better": -0.058069221675395966,
						"place": -0.20505687594413757,
						"went": 0.0825577974319458,
						"funny": 0.17739035189151764,
						"She": 0.038512926548719406,
						"exactly": -0.0198422409594059,
						"thrilled": -0.08167927712202072,
						"mosby": 0.17918308079242706,
						"parading": 0.023555323481559753,
						"around": 0.1466204673051834,
						"iss": 0.19274765253067017,
						"prized": -0.08086832612752914,
						"trophy": 0.07888965308666229,
						"able": -0.06791578233242035,
						"own": -0.12724128365516663,
						"thing": -0.14088337123394012,
						"exploring": 0.19703218340873718,
						"felt": -0.09028021991252899,
						"nice": -0.21291926503181458,
						"paraded": 0.06758656352758408,
						"fine": -0.010514837689697742,
						"enjoyable": 0.007138005457818508,
						"friend": 0.05477483943104744,
						"everything": 0.06079504266381264,
						"doing": -0.15266908705234528,
						"keeper": 0.12959642708301544,
						"starting": -0.11727369576692581,
						"though": 0.049268320202827454,
						"interesting": 0.05631955340504646,
						"dad": -0.1636093258857727,
						"money": 0.1825399547815323,
						"little": 0.17013035714626312,
						"bored": -0.0201432928442955,
						"spend": 0.1092798188328743,
						"time": 0.09367367625236511,
						"somewhat": -0.19167576730251312,
						"excited": -0.20565934479236603,
						"touch": -0.19493776559829712,
						"making": -0.18349386751651764,
						"familiar": -0.1211327612400055,
						"tired": 0.18669989705085754,
						"large": -0.05205053463578224,
						"crowd": 0.12838062644004822,
						"wished": -0.16463974118232727,
						"having": -0.06759122014045715,
						"explore": -0.02524683065712452,
						"getting": -0.11518818140029907,
						"attention": -0.09414079785346985,
						"commotion": 0.13976337015628815,
						"seemed": -0.021571042016148567,
						"enjoying": 0.03372868150472641,
						"herself": -0.086977519094944,
						"1st": 0.17629732191562653,
						"kid": -0.012617264874279499,
						"tour": 0.04171799123287201,
						"resting": 0.15245556831359863,
						"cool": -0.10113848745822906,
						"comical": -0.09362497925758362,
						"diversion": -0.04947284981608391,
						"otherwise": -0.13053324818611145,
						"boring": -0.05496276542544365,
						"day": -0.1816323846578598,
						"interested": 0.15113545954227448,
						"even": 0.13561566174030304,
						"owl": -0.02797331102192402,
						"shown": 0.12462036311626434,
						"long": 0.009954851120710373,
						"adams": 0.16719119250774384,
						"fathe": -0.12011542171239853
					}
				},
				"4": {
					"bias": 0.09037163853645325,
					"weights": {
						"she": 0.04413667321205139,
						"not": -0.11397670954465866,
						"happy": 0.08195725083351135,
						"lot": -0.14890001714229584,
						"person": 0.03262123465538025,
						"wanted": -0.18226587772369385,
						"cheecky": -0.09396594017744064,
						"adam": 0.119603231549263,
						"seems": -0.15412379801273346,
						"does": -0.18225891888141632,
						"really": 0.02204165980219841,
						"want": -0.06962762773036957,
						"think": -0.18342448770999908,
						"rather": -0.1768188178539276,
						"p": 0.09903685003519058,
						"r": -0.1149587407708168,
						"when": -0.16812355816364288,
						"animal": 0.1696917563676834,
						"kept": 0.1238480806350708,
						"captivity": -0.1528862863779068,
						"visit": 0.01036946102976799,
						"watch": -0.1773822158575058,
						"feels": -0.11582672595977783,
						"watching": 0.14116314053535461,
						"enjoyed": 0.010360193438827991,
						"zoo": 0.025968965142965317,
						"shiranna": 0.05784551799297333,
						"preferred": 0.17332224547863007,
						"hanging": 0.043706201016902924,
						"going": -0.11899697780609131,
						"thinks": -0.10898766666650772,
						"okay": -0.17379415035247803,
						"just": 0.06514057517051697,
						"wants": -0.05763743817806244,
						"go": 0.033136285841464996,
						"home": 0.06828513741493225,
						"relax": 0.023412035778164864,
						"cheeky": -0.011602465994656086,
						"trying": -0.15624700486660004,
						"look": 0.18674825131893158,
						"bright": 0.09810146689414978,
						"side": -0.05677326023578644,
						"enjoy": 0.11733641475439072,
						"monkey": -0.03870106488466263,
						"exhibit": -0.14374202489852905,
						"feel": -0.04735672473907471,
						"uneasy": 0.16503889858722687,
						"meeting": -0.0008009065059013665,
						"something": -0.023640986531972885,
						"nervous": 0.05451742187142372,
						"thought": -0.023966215550899506,
						"kinda": 0.1744018942117691,
						"fun": -0.16214372217655182,
						"alone": -0.07568627595901489,
						"enjoys": 0.14072637259960175,
						"enough": 0.03697531670331955,
						"kind": -0.1770189255475998,
						"camera": -0.06307695806026459,
						"everywhere": 0.17738932371139526,
						"ruined": 0.15591591596603394,
						"experience": -0.011004793457686901,
						"bit": 0.14431343972682953,
						"towards": -0.12285538762807846,
						"end": 0.1004609689116478,
						"ready": -0.14355047047138214,
						"especially": -0.10226766020059586,
						"real": -0.11908100545406342,
						"saw": -0.01691535860300064,
						"played": -0.14135250449180603,
						"tug": -0.027100348845124245,
						"war": -0.18233616650104523,
						"likes": 0.0729554146528244,
						"seeing": -0.09550122171640396,
						"entertaining": -0.18096590042114258,
						"zookeeper": -0.10561692714691162,
						"smith": -0.08196071535348892,
						"antics": -0.19313082098960876,
						"monkeys": -0.024638932198286057,
						"liked": 0.1410386562347412,
						"better": 0.049447838217020035,
						"place": 0.03044974058866501,
						"went": 0.18539206683635712,
						"funny": -0.056440435349941254,
						"She": -0.13112223148345947,
						"exactly": -0.024741021916270256,
						"thrilled": -0.03526035696268082,
						"mosby": 0.1175357848405838,
						"parading": 0.06935355812311172,
						"around": -0.049164775758981705,
						"iss": 0.1250888854265213,
						"prized": -0.13196980953216553,
						"trophy": -0.11954650282859802,
						"able": -0.19140073657035828,
						"own": 0.1896638721227646,
						"thing": -0.19302232563495636,
						"exploring": 0.13319501280784607,
						"felt": -0.08761890232563019,
						"nice": 0.008668920025229454,
						"paraded": 0.17685312032699585,
						"fine": -0.052065663039684296,
						"enjoyable": 0.10099272429943085,
						"friend": -0.14253872632980347,
						"everything": -0.1692732721567154,
						"doing": 0.05949581786990166,
						"keeper": -0.12519337236881256,
						"starting": -0.007456967607140541,
						"though": -0.15478095412254333,
						"interesting": -0.011264528147876263,
						"dad": -0.057582467794418335,
						"money": -0.10921009629964828,
						"little": 0.09667406976222992,
						"bored": 0.06944238394498825,
						"spend": -0.1251382976770401,
						"time": -0.15569761395454407,
						"somewhat": 0.0302217248827219,
						"excited": 0.03432950749993324,
						"touch": -0.06122276559472084,
						"making": -0.12218792736530304,
						"familiar": -0.07760797441005707,
						"tired": 0.20081600546836853,
						"large": 0.19072511792182922,
						"crowd": -0.07199764251708984,
						"wished": 0.18233972787857056,
						"having": 0.11692706495523453,
						"explore": -0.13742223381996155,
						"getting": 0.06297561526298523,
						"attention": -0.046130161732435226,
						"commotion": 0.08837803453207016,
						"seemed": 0.05002526938915253,
						"enjoying": -0.12002135813236237,
						"herself": 0.09354745596647263,
						"1st": -0.10292591154575348,
						"kid": -0.020639538764953613,
						"tour": 0.1515164077281952,
						"resting": -0.0880860909819603,
						"cool": 0.09270304441452026,
						"comical": 0.06424921005964279,
						"diversion": -0.1544492244720459,
						"otherwise": -0.08330215513706207,
						"boring": -0.0006067223730497062,
						"day": 0.1187562420964241,
						"interested": -0.05218549072742462,
						"even": -0.11766893416643143,
						"owl": -0.14378437399864197,
						"shown": -0.0030683483928442,
						"long": 0.17124637961387634,
						"adams": 0.11161597818136215,
						"fathe": 0.12796364724636078
					}
				},
				"5": {
					"bias": -0.16903407871723175,
					"weights": {
						"she": 0.14288181066513062,
						"not": -0.16183872520923615,
						"happy": -0.09826976805925369,
						"lot": 0.1679261028766632,
						"person": -0.09656465798616409,
						"wanted": 0.04039297625422478,
						"cheecky": -0.1359502673149109,
						"adam": -0.08397579938173294,
						"seems": -0.17349207401275635,
						"does": -0.08055083453655243,
						"really": 0.0736968070268631,
						"want": -0.12413269281387329,
						"think": -0.21671918034553528,
						"rather": -0.02963871695101261,
						"p": 0.04082410782575607,
						"r": 0.0765131413936615,
						"when": 0.022470952942967415,
						"animal": -0.1826181411743164,
						"kept": -0.04344824329018593,
						"captivity": -0.09297764301300049,
						"visit": -0.0683799758553505,
						"watch": 0.12616699934005737,
						"feels": -0.12359493225812912,
						"watching": -0.1521097868680954,
						"enjoyed": -0.050115082412958145,
						"zoo": -0.16847732663154602,
						"shiranna": -0.17751242220401764,
						"preferred": 0.08246787637472153,
						"hanging": -0.048070333898067474,
						"going": 0.07106152176856995,
						"thinks": 0.1943451464176178,
						"okay": 0.15563003718852997,
						"just": 0.059389498084783554,
						"wants": -0.06547628343105316,
						"go": -0.1443428248167038,
						"home": -0.1945229470729828,
						"relax": -0.18695038557052612,
						"cheeky": 0.022139033302664757,
						"trying": 0.14140428602695465,
						"look": 0.12462059408426285,
						"bright": -0.09286176413297653,
						"side": -0.1010015457868576,
						"enjoy": -0.06948664784431458,
						"monkey": -0.12696389853954315,
						"exhibit": 0.09803265333175659,
						"feel": -0.08261942863464355,
						"uneasy": 0.02217037044465542,
						"meeting": -0.06600792706012726,
						"something": -0.11132534593343735,
						"nervous": 0.16503964364528656,
						"thought": 0.1984073370695114,
						"kinda": -0.0314418189227581,
						"fun": 0.02199481427669525,
						"alone": 0.1043189987540245,
						"enjoys": 0.10357949882745743,
						"enough": -0.15460079908370972,
						"kind": 0.009502504020929337,
						"camera": 0.14300788938999176,
						"everywhere": 0.0680595263838768,
						"ruined": -0.1623677909374237,
						"experience": -0.08356285840272903,
						"bit": -0.15579763054847717,
						"towards": -0.13077975809574127,
						"end": -0.052157238125801086,
						"ready": 0.042411766946315765,
						"especially": -0.0531686432659626,
						"real": 0.06984220445156097,
						"saw": -0.05219768360257149,
						"played": -0.012561623007059097,
						"tug": 0.18608330190181732,
						"war": 0.013434835709631443,
						"likes": -0.1598532646894455,
						"seeing": 0.12893714010715485,
						"entertaining": -0.012934698723256588,
						"zookeeper": 0.1030440405011177,
						"smith": 0.061832770705223083,
						"antics": -0.06083114817738533,
						"monkeys": -0.17451730370521545,
						"liked": 0.16124114394187927,
						"better": 0.1265365481376648,
						"place": -0.08688406646251678,
						"went": -0.10634858161211014,
						"funny": 0.1997314840555191,
						"She": 0.1523517370223999,
						"exactly": 0.19349035620689392,
						"thrilled": -0.01058428455144167,
						"mosby": 0.20807871222496033,
						"parading": -0.07254531979560852,
						"around": -0.08671001344919205,
						"iss": 0.10405725240707397,
						"prized": -0.14385513961315155,
						"trophy": 0.014113844372332096,
						"able": 0.19847452640533447,
						"own": -0.1811346709728241,
						"thing": 0.15585485100746155,
						"exploring": 0.09688259661197662,
						"felt": -0.15370479226112366,
						"nice": 0.08178681880235672,
						"paraded": 0.11070014536380768,
						"fine": 0.019676797091960907,
						"enjoyable": -0.0036276294849812984,
						"friend": -0.2310299426317215,
						"everything": -0.186805859208107,
						"doing": 0.0220782533288002,
						"keeper": -0.0321468710899353,
						"starting": -0.03709566593170166,
						"though": -0.059008482843637466,
						"interesting": -0.06775400042533875,
						"dad": 0.18203158676624298,
						"money": 0.16118565201759338,
						"little": -0.015171108767390251,
						"bored": 0.11653877049684525,
						"spend": 0.19615693390369415,
						"time": -0.06858845800161362,
						"somewhat": -0.15184208750724792,
						"excited": -0.03112201765179634,
						"touch": -0.1413034051656723,
						"making": -0.1469222605228424,
						"familiar": 0.13418656587600708,
						"tired": 0.036637112498283386,
						"large": 0.022185193374753,
						"crowd": 0.006129502784460783,
						"wished": 0.11149818450212479,
						"having": -0.12888026237487793,
						"explore": 0.1196773573756218,
						"getting": -0.031246313825249672,
						"attention": 0.07557363063097,
						"commotion": 0.009224115870893002,
						"seemed": -0.012811176478862762,
						"enjoying": 0.005355545785278082,
						"herself": -0.012097355909645557,
						"1st": -0.11359719932079315,
						"kid": 0.19375112652778625,
						"tour": -0.14670373499393463,
						"resting": 0.14727410674095154,
						"cool": 0.183932825922966,
						"comical": 0.16935580968856812,
						"diversion": 0.14122502505779266,
						"otherwise": -0.01064437534660101,
						"boring": 0.062047380954027176,
						"day": -0.09698700159788132,
						"interested": 0.022377781569957733,
						"even": -0.07558774203062057,
						"owl": -0.004248038865625858,
						"shown": -0.16388259828090668,
						"long": 0.16506285965442657,
						"adams": 0.06259538233280182,
						"fathe": 0.02626071684062481
					}
				},
				"6": {
					"bias": -0.1939752995967865,
					"weights": {
						"she": -0.08777550607919693,
						"not": 0.2822067439556122,
						"happy": -0.0014622980961576104,
						"lot": 0.15339568257331848,
						"person": -0.06473198533058167,
						"wanted": 0.02559639699757099,
						"cheecky": -0.07737448811531067,
						"adam": 0.20744042098522186,
						"seems": -0.12088402360677719,
						"does": -0.046200916171073914,
						"really": -0.13934965431690216,
						"want": -0.08668456226587296,
						"think": 0.11393138766288757,
						"rather": 0.15400516986846924,
						"p": -0.1806391179561615,
						"r": -0.007634070701897144,
						"when": -0.012368513271212578,
						"animal": 0.11268547922372818,
						"kept": -0.07959301024675369,
						"captivity": 0.12620265781879425,
						"visit": 0.19475339353084564,
						"watch": 0.20369072258472443,
						"feels": -0.04765360429883003,
						"watching": 0.01147588063031435,
						"enjoyed": -0.12592115998268127,
						"zoo": 0.15464548766613007,
						"shiranna": 0.05123971775174141,
						"preferred": -0.06691749393939972,
						"hanging": 0.18490619957447052,
						"going": 0.2543698251247406,
						"thinks": -0.09133779257535934,
						"okay": 0.20168940722942352,
						"just": 0.25091618299484253,
						"wants": -0.03349488228559494,
						"go": 0.22638119757175446,
						"home": 0.030175305902957916,
						"relax": -0.05263823643326759,
						"cheeky": -0.21686193346977234,
						"trying": -0.02893550507724285,
						"look": 0.14308473467826843,
						"bright": 0.14182251691818237,
						"side": 0.20572373270988464,
						"enjoy": 0.12573367357254028,
						"monkey": -0.1809542030096054,
						"exhibit": -0.114658422768116,
						"feel": -0.03712400048971176,
						"uneasy": -0.0317634679377079,
						"meeting": -0.0641237124800682,
						"something": 0.00797631498426199,
						"nervous": 0.062044110149145126,
						"thought": -0.12715856730937958,
						"kinda": -0.2161741852760315,
						"fun": -0.07111942023038864,
						"alone": 0.08888661116361618,
						"enjoys": -0.08084971457719803,
						"enough": 0.0384664349257946,
						"kind": 0.028133336454629898,
						"camera": -0.1833016723394394,
						"everywhere": 0.02163662761449814,
						"ruined": 0.1902269572019577,
						"experience": -0.09813879430294037,
						"bit": 0.07143265753984451,
						"towards": -0.12545759975910187,
						"end": -0.13886772096157074,
						"ready": 0.1793566197156906,
						"especially": 0.1272132247686386,
						"real": -0.18767383694648743,
						"saw": 0.06924744695425034,
						"played": -0.12736675143241882,
						"tug": 0.08866579085588455,
						"war": -0.19814053177833557,
						"likes": 0.04317527264356613,
						"seeing": -0.132084459066391,
						"entertaining": 0.07265187799930573,
						"zookeeper": -0.09399385005235672,
						"smith": 0.03933141753077507,
						"antics": 0.04430639371275902,
						"monkeys": 0.09151279926300049,
						"liked": 0.010690337978303432,
						"better": -0.0001591682230355218,
						"place": 0.01846720278263092,
						"went": 0.027301615104079247,
						"funny": -0.01213416364043951,
						"She": -0.13746723532676697,
						"exactly": 0.16436004638671875,
						"thrilled": -0.02210071124136448,
						"mosby": 0.013752264901995659,
						"parading": -0.08188106119632721,
						"around": -0.04880038648843765,
						"iss": -0.18158166110515594,
						"prized": 0.16565164923667908,
						"trophy": 0.09798264503479004,
						"able": 0.039968427270650864,
						"own": 0.1945955753326416,
						"thing": 0.10176205635070801,
						"exploring": 0.16050560772418976,
						"felt": -0.20386013388633728,
						"nice": 0.06877582520246506,
						"paraded": 0.06439237296581268,
						"fine": -0.18252074718475342,
						"enjoyable": -0.048591695725917816,
						"friend": 0.046949729323387146,
						"everything": -0.20333726704120636,
						"doing": 0.06039289012551308,
						"keeper": -0.19607116281986237,
						"starting": 0.05345441401004791,
						"though": -0.0030306519474834204,
						"interesting": -0.151267871260643,
						"dad": -0.10983868688344955,
						"money": 0.0759611427783966,
						"little": -0.19674186408519745,
						"bored": -0.18538574874401093,
						"spend": 0.014961945824325085,
						"time": -0.09361278265714645,
						"somewhat": 0.04468212649226189,
						"excited": 0.16909517347812653,
						"touch": -0.17271770536899567,
						"making": 0.16987234354019165,
						"familiar": -0.14795587956905365,
						"tired": -0.13248732686042786,
						"large": 0.1455051451921463,
						"crowd": -0.1675046980381012,
						"wished": 0.03829681873321533,
						"having": 0.1948530226945877,
						"explore": -0.10794098675251007,
						"getting": 0.0698961466550827,
						"attention": 0.10197263211011887,
						"commotion": -0.12966446578502655,
						"seemed": -0.10238298028707504,
						"enjoying": 0.17750927805900574,
						"herself": 0.12680423259735107,
						"1st": 0.12618838250637054,
						"kid": 0.028480105102062225,
						"tour": 0.01693509891629219,
						"resting": 0.0709218978881836,
						"cool": 0.1902666985988617,
						"comical": -0.18527933955192566,
						"diversion": -0.12638822197914124,
						"otherwise": -0.16833725571632385,
						"boring": 0.06528739631175995,
						"day": 0.16631808876991272,
						"interested": 0.005190583877265453,
						"even": 0.07089865952730179,
						"owl": -0.18158268928527832,
						"shown": -0.06088261678814888,
						"long": 0.019508609548211098,
						"adams": 0.011656255461275578,
						"fathe": 0.16521693766117096
					}
				},
				"7": {
					"bias": 0.12047841399908066,
					"weights": {
						"she": 0.011714862659573555,
						"not": -0.13525895774364471,
						"happy": -0.2002929449081421,
						"lot": -0.1028699278831482,
						"person": 0.04823659360408783,
						"wanted": 0.0743134617805481,
						"cheecky": -0.038086771965026855,
						"adam": -0.10500369220972061,
						"seems": -0.10810419172048569,
						"does": -0.16724509000778198,
						"really": 0.11708193272352219,
						"want": -0.0656459853053093,
						"think": 0.007404822390526533,
						"rather": 0.04113035649061203,
						"p": -0.20865696668624878,
						"r": -0.0156453475356102,
						"when": -0.19385267794132233,
						"animal": -0.039596181362867355,
						"kept": -0.05825585499405861,
						"captivity": 0.13574153184890747,
						"visit": -0.15293574333190918,
						"watch": -0.13844217360019684,
						"feels": 0.08745300769805908,
						"watching": 0.07449570298194885,
						"enjoyed": 0.12062965333461761,
						"zoo": -0.1039382740855217,
						"shiranna": -0.09480331093072891,
						"preferred": -0.058283887803554535,
						"hanging": 0.18603475391864777,
						"going": -0.08222627639770508,
						"thinks": 0.007316464092582464,
						"okay": -0.1015363410115242,
						"just": -0.11281611770391464,
						"wants": -0.18252666294574738,
						"go": -0.12874102592468262,
						"home": -0.14309129118919373,
						"relax": -0.1537752002477646,
						"cheeky": 0.2147737294435501,
						"trying": -0.0417693667113781,
						"look": -0.06502032279968262,
						"bright": 0.11002115905284882,
						"side": -0.10327336192131042,
						"enjoy": 0.04699507728219032,
						"monkey": 0.14622846245765686,
						"exhibit": 0.03769100457429886,
						"feel": -0.16397547721862793,
						"uneasy": -0.15358351171016693,
						"meeting": -0.13090234994888306,
						"something": -0.026294393464922905,
						"nervous": 0.048933155834674835,
						"thought": 0.028718657791614532,
						"kinda": 0.00853343028575182,
						"fun": -0.13090522587299347,
						"alone": -0.01369220670312643,
						"enjoys": 0.06936831772327423,
						"enough": 0.021385403349995613,
						"kind": -0.029212938621640205,
						"camera": 0.17521552741527557,
						"everywhere": 0.04195891693234444,
						"ruined": 0.10986362397670746,
						"experience": -0.030558153986930847,
						"bit": 0.06407810002565384,
						"towards": 0.07912959158420563,
						"end": -0.045314956456422806,
						"ready": 0.18143880367279053,
						"especially": -0.17864811420440674,
						"real": 0.17757055163383484,
						"saw": -0.10133394598960876,
						"played": 0.16547530889511108,
						"tug": -0.02698379009962082,
						"war": -0.17015033960342407,
						"likes": -0.009819942526519299,
						"seeing": 0.0810990259051323,
						"entertaining": 0.027949286624789238,
						"zookeeper": 0.13647949695587158,
						"smith": -0.10193930566310883,
						"antics": 0.10407369583845139,
						"monkeys": 0.19013047218322754,
						"liked": -0.09340883791446686,
						"better": 0.16363464295864105,
						"place": -0.12600179016590118,
						"went": -0.0820523127913475,
						"funny": -0.12208619713783264,
						"She": -0.09250777214765549,
						"exactly": 0.11048875004053116,
						"thrilled": -0.19313330948352814,
						"mosby": -0.05361383780837059,
						"parading": -0.019935166463255882,
						"around": -0.01840153895318508,
						"iss": -0.000294211640721187,
						"prized": 0.09012763202190399,
						"trophy": 0.16938136518001556,
						"able": -0.1558516025543213,
						"own": 0.17384086549282074,
						"thing": 0.0004627238376997411,
						"exploring": -0.11827453970909119,
						"felt": -0.016019053757190704,
						"nice": 0.13318732380867004,
						"paraded": -0.1668972373008728,
						"fine": 0.15244045853614807,
						"enjoyable": 0.1749187409877777,
						"friend": -0.022136038169264793,
						"everything": 0.05482615903019905,
						"doing": 0.19247685372829437,
						"keeper": 0.15720096230506897,
						"starting": -0.16085925698280334,
						"though": -0.16141986846923828,
						"interesting": 0.07544973492622375,
						"dad": 0.10129756480455399,
						"money": -0.1684119552373886,
						"little": 0.02485167793929577,
						"bored": 0.04532646760344505,
						"spend": 0.1831127405166626,
						"time": 0.18422460556030273,
						"somewhat": -0.03846707567572594,
						"excited": -0.13385707139968872,
						"touch": -0.16062237322330475,
						"making": 0.044563453644514084,
						"familiar": 0.0723600834608078,
						"tired": 0.13887977600097656,
						"large": 0.10452504456043243,
						"crowd": 0.039359159767627716,
						"wished": -0.18091079592704773,
						"having": 0.08664366602897644,
						"explore": -0.1706969290971756,
						"getting": -0.09327298402786255,
						"attention": -0.14219710230827332,
						"commotion": -0.17061184346675873,
						"seemed": 0.07533992826938629,
						"enjoying": 0.0751817524433136,
						"herself": -0.08258285373449326,
						"1st": 0.08643406629562378,
						"kid": 0.14342698454856873,
						"tour": 0.021261293441057205,
						"resting": 0.1663331836462021,
						"cool": -0.04169001802802086,
						"comical": 0.04367490112781525,
						"diversion": 0.1612836718559265,
						"otherwise": -0.1605062186717987,
						"boring": 0.040198568254709244,
						"day": -0.11917921900749207,
						"interested": 0.16769888997077942,
						"even": 0.1395922154188156,
						"owl": 0.13142915070056915,
						"shown": -0.13023558259010315,
						"long": 0.17300257086753845,
						"adams": 0.03262275084853172,
						"fathe": -0.09530665725469589
					}
				},
				"8": {
					"bias": -0.11795457452535629,
					"weights": {
						"she": 0.1473778337240219,
						"not": 0.10096918791532516,
						"happy": -0.2112916260957718,
						"lot": 0.0412806011736393,
						"person": -0.12581723928451538,
						"wanted": -0.2681354880332947,
						"cheecky": -0.03049655817449093,
						"adam": -0.17873196303844452,
						"seems": 0.04867354780435562,
						"does": -0.03224482387304306,
						"really": -0.06913921236991882,
						"want": 0.09197229146957397,
						"think": 0.10940509289503098,
						"rather": -0.029412291944026947,
						"p": 0.17396590113639832,
						"r": 0.10161077231168747,
						"when": -0.09486158937215805,
						"animal": -0.04328015819191933,
						"kept": 0.06879377365112305,
						"captivity": 0.04402853548526764,
						"visit": 0.1703696995973587,
						"watch": -0.013144484721124172,
						"feels": -0.20469750463962555,
						"watching": -0.15907831490039825,
						"enjoyed": -0.1899053305387497,
						"zoo": 0.09546774625778198,
						"shiranna": 0.041655294597148895,
						"preferred": 0.10860269516706467,
						"hanging": -0.09423937648534775,
						"going": 0.04892190918326378,
						"thinks": -0.19410604238510132,
						"okay": -0.04046613350510597,
						"just": -0.1621761918067932,
						"wants": 0.1374390423297882,
						"go": -0.08917821943759918,
						"home": -0.12418496608734131,
						"relax": 0.0387084074318409,
						"cheeky": -0.07007873058319092,
						"trying": 0.035170745104551315,
						"look": -0.05731348693370819,
						"bright": -0.0020505248103290796,
						"side": 0.018970858305692673,
						"enjoy": -0.16505324840545654,
						"monkey": 0.058515552431344986,
						"exhibit": -0.12359917908906937,
						"feel": -0.17294186353683472,
						"uneasy": -0.03945872560143471,
						"meeting": -0.13650931417942047,
						"something": 0.027738871052861214,
						"nervous": 0.1552678793668747,
						"thought": 0.13573426008224487,
						"kinda": -0.19434885680675507,
						"fun": 0.026349689811468124,
						"alone": -0.022955572232604027,
						"enjoys": -0.036747775971889496,
						"enough": 0.14511778950691223,
						"kind": 0.16834433376789093,
						"camera": 0.044299088418483734,
						"everywhere": 0.026746679097414017,
						"ruined": 0.11709345877170563,
						"experience": 0.014643513597548008,
						"bit": -0.016697265207767487,
						"towards": 0.1988326609134674,
						"end": 0.010785725899040699,
						"ready": -0.12273617088794708,
						"especially": -0.12831316888332367,
						"real": 0.16261844336986542,
						"saw": 0.17613600194454193,
						"played": 0.11434532701969147,
						"tug": -0.10655423998832703,
						"war": 0.1989525705575943,
						"likes": -0.06885851919651031,
						"seeing": 0.03871748596429825,
						"entertaining": -0.05256863683462143,
						"zookeeper": -0.015154542401432991,
						"smith": -0.010018236003816128,
						"antics": 0.0752105787396431,
						"monkeys": 0.18695887923240662,
						"liked": 0.011586264707148075,
						"better": 0.11161644756793976,
						"place": 0.1284084916114807,
						"went": -0.10559923946857452,
						"funny": -0.06858275830745697,
						"She": -0.12407992035150528,
						"exactly": -0.0320604145526886,
						"thrilled": 0.13597732782363892,
						"mosby": 0.19716587662696838,
						"parading": 0.11760365217924118,
						"around": -0.04679092392325401,
						"iss": -0.01594414934515953,
						"prized": 0.017876077443361282,
						"trophy": 0.1731911599636078,
						"able": -0.10850423574447632,
						"own": -0.16962817311286926,
						"thing": -0.031074004247784615,
						"exploring": -0.08535119891166687,
						"felt": 0.17814907431602478,
						"nice": -0.08338061720132828,
						"paraded": 0.02289329282939434,
						"fine": 0.06840046495199203,
						"enjoyable": -0.1258700042963028,
						"friend": -0.17138198018074036,
						"everything": -0.12118566036224365,
						"doing": 0.14431504905223846,
						"keeper": 0.057779062539339066,
						"starting": -0.15653161704540253,
						"though": -0.13834521174430847,
						"interesting": -0.15783892571926117,
						"dad": -0.04199004918336868,
						"money": 0.0763903334736824,
						"little": 0.18466155230998993,
						"bored": -0.016555408015847206,
						"spend": -0.05769617483019829,
						"time": 0.04558396339416504,
						"somewhat": -0.12840138375759125,
						"excited": -0.17773233354091644,
						"touch": -0.10806791484355927,
						"making": -0.09483610093593597,
						"familiar": 0.0507555827498436,
						"tired": 0.005522205028682947,
						"large": 0.18625855445861816,
						"crowd": 0.06941601634025574,
						"wished": -0.007058937102556229,
						"having": 0.037120576947927475,
						"explore": -0.025547755882143974,
						"getting": -0.087309829890728,
						"attention": 0.13070809841156006,
						"commotion": 0.01046049129217863,
						"seemed": 0.10474444925785065,
						"enjoying": -0.0018796222284436226,
						"herself": 0.15734128654003143,
						"1st": -0.19885951280593872,
						"kid": 0.09589604288339615,
						"tour": 0.1901346892118454,
						"resting": -0.038487840443849564,
						"cool": 0.17465128004550934,
						"comical": -0.031053993850946426,
						"diversion": -0.039306629449129105,
						"otherwise": 0.037568651139736176,
						"boring": 0.1844957321882248,
						"day": -0.19299198687076569,
						"interested": -0.01840072311460972,
						"even": 0.16220316290855408,
						"owl": 0.055868443101644516,
						"shown": 0.1704527735710144,
						"long": 0.14953289926052094,
						"adams": -0.053527966141700745,
						"fathe": 0.0006628452683798969
					}
				},
				"9": {
					"bias": -0.15259186923503876,
					"weights": {
						"she": -0.18613871932029724,
						"not": -0.23001229763031006,
						"happy": 0.045323241502046585,
						"lot": -0.10811235010623932,
						"person": -0.1344885528087616,
						"wanted": -0.15581826865673065,
						"cheecky": -0.0966210812330246,
						"adam": 0.011063399724662304,
						"seems": 0.014583228155970573,
						"does": 0.05534003674983978,
						"really": 0.08787047117948532,
						"want": -0.038746099919080734,
						"think": -0.20984101295471191,
						"rather": -0.14839936792850494,
						"p": -0.19960592687129974,
						"r": 0.11605751514434814,
						"when": 0.05146346986293793,
						"animal": -0.14826428890228271,
						"kept": -0.19557411968708038,
						"captivity": -0.20836302638053894,
						"visit": -0.1990005373954773,
						"watch": 0.016726823523640633,
						"feels": -0.06892816722393036,
						"watching": 0.03388860076665878,
						"enjoyed": -0.18048416078090668,
						"zoo": -0.10220491886138916,
						"shiranna": 0.09894680231809616,
						"preferred": -0.0575411282479763,
						"hanging": 0.005413755774497986,
						"going": -0.04527994990348816,
						"thinks": 0.1185091882944107,
						"okay": -0.22496584057807922,
						"just": -0.30681708455085754,
						"wants": 0.14014248549938202,
						"go": -0.12460104376077652,
						"home": 0.08652859926223755,
						"relax": -0.10690946131944656,
						"cheeky": 0.21296316385269165,
						"trying": 0.150472953915596,
						"look": 0.0684332624077797,
						"bright": -0.1398611068725586,
						"side": -0.12317071855068207,
						"enjoy": -0.10334219038486481,
						"monkey": 0.21094582974910736,
						"exhibit": -0.09518484026193619,
						"feel": -0.06018466502428055,
						"uneasy": 0.10254634916782379,
						"meeting": 0.030014261603355408,
						"something": -0.1875743567943573,
						"nervous": 0.08293488621711731,
						"thought": 0.032027456909418106,
						"kinda": 0.06658924371004105,
						"fun": 0.14444297552108765,
						"alone": 0.2567560076713562,
						"enjoys": -0.11891265213489532,
						"enough": -0.08506575226783752,
						"kind": 0.20317375659942627,
						"camera": -0.14532515406608582,
						"everywhere": -0.06026742234826088,
						"ruined": -0.11175242811441422,
						"experience": 0.1558736115694046,
						"bit": -0.10197591781616211,
						"towards": 0.031196443364024162,
						"end": -0.1260952353477478,
						"ready": 0.017859600484371185,
						"especially": 0.04220594838261604,
						"real": -0.16025994718074799,
						"saw": -0.1703059822320938,
						"played": 0.003672599093988538,
						"tug": -0.09920192509889603,
						"war": 0.0790715143084526,
						"likes": 0.22183053195476532,
						"seeing": 0.05890199542045593,
						"entertaining": 0.14562885463237762,
						"zookeeper": 0.0396704375743866,
						"smith": -0.042205777019262314,
						"antics": -0.02826857380568981,
						"monkeys": -0.14036330580711365,
						"liked": 0.0827300027012825,
						"better": -0.1512017399072647,
						"place": -0.1450711339712143,
						"went": -0.15665778517723083,
						"funny": 0.04261591285467148,
						"She": 0.03873591497540474,
						"exactly": 0.129092276096344,
						"thrilled": 0.030150460079312325,
						"mosby": 0.12553445994853973,
						"parading": -0.054763928055763245,
						"around": 0.2694632411003113,
						"iss": -0.06042804196476936,
						"prized": -0.07068555057048798,
						"trophy": -0.1622537225484848,
						"able": -0.15948143601417542,
						"own": 0.0062927668914198875,
						"thing": 0.08979732543230057,
						"exploring": 0.02823701500892639,
						"felt": 0.13696889579296112,
						"nice": 0.2802816331386566,
						"paraded": -0.004489759914577007,
						"fine": 0.03845564275979996,
						"enjoyable": -0.11700200289487839,
						"friend": -0.28395169973373413,
						"everything": -0.038356974720954895,
						"doing": 0.19235876202583313,
						"keeper": 0.10723645985126495,
						"starting": -0.025801237672567368,
						"though": -0.05484655126929283,
						"interesting": 0.2130957841873169,
						"dad": 0.19572065770626068,
						"money": 0.15141154825687408,
						"little": -0.11449034512042999,
						"bored": 0.1625344455242157,
						"spend": -0.17560966312885284,
						"time": -0.15552349388599396,
						"somewhat": -0.036268193274736404,
						"excited": -0.040243323892354965,
						"touch": -0.1041739284992218,
						"making": 0.0007632400374859571,
						"familiar": 0.18268005549907684,
						"tired": -0.04008292034268379,
						"large": -0.0649062916636467,
						"crowd": 0.05916326120495796,
						"wished": -0.008774331770837307,
						"having": 0.13880015909671783,
						"explore": -0.1740347445011139,
						"getting": -0.047004930675029755,
						"attention": 0.17608846724033356,
						"commotion": 0.06377923488616943,
						"seemed": 0.013107464648783207,
						"enjoying": 0.10751977562904358,
						"herself": -0.08651308715343475,
						"1st": 0.09950216114521027,
						"kid": 0.1914399117231369,
						"tour": 0.15912693738937378,
						"resting": 0.07301095873117447,
						"cool": -0.006077570840716362,
						"comical": -0.0041447170078754425,
						"diversion": -0.09100735932588577,
						"otherwise": 0.1305103898048401,
						"boring": 0.0902574211359024,
						"day": 0.024426929652690887,
						"interested": -0.04094592109322548,
						"even": 0.08183176815509796,
						"owl": 0.025495657697319984,
						"shown": -0.06651869416236877,
						"long": -0.051710840314626694,
						"adams": -0.12803912162780762,
						"fathe": 0.0804237350821495
					}
				},
				"10": {
					"bias": 0.15804319083690643,
					"weights": {
						"she": -0.1760043203830719,
						"not": -0.5122072696685791,
						"happy": -0.1921243667602539,
						"lot": -0.11500135064125061,
						"person": -0.05719190463423729,
						"wanted": -0.3488067090511322,
						"cheecky": -0.17212240397930145,
						"adam": -0.04939780384302139,
						"seems": -0.14981316030025482,
						"does": -0.05068989470601082,
						"really": 0.2683132290840149,
						"want": 0.12269660085439682,
						"think": -0.3985957205295563,
						"rather": 0.030066242441534996,
						"p": -0.0949535220861435,
						"r": -0.202118918299675,
						"when": -0.021793095394968987,
						"animal": 0.03917882964015007,
						"kept": 0.12027998268604279,
						"captivity": -0.22525982558727264,
						"visit": -0.1836903989315033,
						"watch": -0.1324518471956253,
						"feels": 0.0649024099111557,
						"watching": 0.10235973447561264,
						"enjoyed": -0.1726713329553604,
						"zoo": 0.07886772602796555,
						"shiranna": -0.05066327378153801,
						"preferred": -0.09539906680583954,
						"hanging": 0.1790829747915268,
						"going": -0.26471197605133057,
						"thinks": 0.0014272386906668544,
						"okay": 0.07494717836380005,
						"just": -0.16725051403045654,
						"wants": -0.1198548674583435,
						"go": -0.2425939440727234,
						"home": -0.14786803722381592,
						"relax": -0.25126275420188904,
						"cheeky": 0.24647320806980133,
						"trying": 0.031284067779779434,
						"look": -0.14235569536685944,
						"bright": -0.049391135573387146,
						"side": -0.03348895162343979,
						"enjoy": 0.15484550595283508,
						"monkey": 0.23071910440921783,
						"exhibit": -0.197471484541893,
						"feel": -0.12679877877235413,
						"uneasy": 0.015340868383646011,
						"meeting": -0.11437197029590607,
						"something": 0.009535322897136211,
						"nervous": 0.0285611841827631,
						"thought": 0.1168351024389267,
						"kinda": -0.12547779083251953,
						"fun": 0.041543472558259964,
						"alone": 0.08767817169427872,
						"enjoys": 0.1601918339729309,
						"enough": 0.19137178361415863,
						"kind": 0.09081290662288666,
						"camera": -0.09462884813547134,
						"everywhere": -0.018913978710770607,
						"ruined": 0.1933196783065796,
						"experience": 0.04008083790540695,
						"bit": 0.10507906973361969,
						"towards": -0.08342517167329788,
						"end": 0.18186289072036743,
						"ready": -0.1634734869003296,
						"especially": 0.17150087654590607,
						"real": 0.025454958900809288,
						"saw": -0.018289370462298393,
						"played": 0.012718169949948788,
						"tug": -0.02605261094868183,
						"war": -0.08704741299152374,
						"likes": 0.19327621161937714,
						"seeing": -0.11004611104726791,
						"entertaining": -0.07228128612041473,
						"zookeeper": -0.004463540390133858,
						"smith": 0.1711265593767166,
						"antics": -0.025840092450380325,
						"monkeys": 0.20023280382156372,
						"liked": 0.19758456945419312,
						"better": 0.0764741450548172,
						"place": -0.054955583065748215,
						"went": 0.16134239733219147,
						"funny": 0.23355333507061005,
						"She": 0.11218209564685822,
						"exactly": -0.020667731761932373,
						"thrilled": 0.1555495411157608,
						"mosby": -0.10333772003650665,
						"parading": -0.0005099918926134706,
						"around": 0.12124369293451309,
						"iss": 0.08704934269189835,
						"prized": -0.057199057191610336,
						"trophy": -0.0528109036386013,
						"able": -0.04651755839586258,
						"own": 0.01772714965045452,
						"thing": 0.17294807732105255,
						"exploring": 0.1983562707901001,
						"felt": 0.1711392104625702,
						"nice": 0.1341228038072586,
						"paraded": -0.1193920448422432,
						"fine": 0.10449665784835815,
						"enjoyable": 0.02441820129752159,
						"friend": -0.3100510239601135,
						"everything": -0.050766024738550186,
						"doing": -0.10524910688400269,
						"keeper": -0.15147468447685242,
						"starting": 0.12431199848651886,
						"though": 0.2085595428943634,
						"interesting": -0.09770172834396362,
						"dad": 0.2352580577135086,
						"money": 0.04847085475921631,
						"little": 0.057461030781269073,
						"bored": 0.18878257274627686,
						"spend": 0.07776662707328796,
						"time": 0.030711913481354713,
						"somewhat": 0.1299079954624176,
						"excited": -0.059823788702487946,
						"touch": -0.07855241745710373,
						"making": 0.1807858943939209,
						"familiar": 0.04952247440814972,
						"tired": -0.02583010122179985,
						"large": -0.07662028819322586,
						"crowd": -0.1446094661951065,
						"wished": 0.013741881586611271,
						"having": -0.11463054269552231,
						"explore": -0.06336124241352081,
						"getting": 0.03723113611340523,
						"attention": -0.05505372956395149,
						"commotion": -0.011727762408554554,
						"seemed": -0.02426263503730297,
						"enjoying": -0.027900265529751778,
						"herself": -0.06991848349571228,
						"1st": 0.002115798182785511,
						"kid": -0.12415920197963715,
						"tour": 0.05333752930164337,
						"resting": 0.16632729768753052,
						"cool": -0.08336292952299118,
						"comical": 0.11523742228746414,
						"diversion": -0.18630199134349823,
						"otherwise": -0.018958358094096184,
						"boring": -0.07008855044841766,
						"day": -0.09065810590982437,
						"interested": 0.14915360510349274,
						"even": -0.0133125688880682,
						"owl": -0.07020550221204758,
						"shown": -0.1544698178768158,
						"long": 0.01248889323323965,
						"adams": -0.046291105449199677,
						"fathe": -0.060226406902074814
					}
				},
				"11": {
					"bias": 0.004022964742034674,
					"weights": {
						"she": 0.0425112210214138,
						"not": -0.2696177363395691,
						"happy": -0.09037168323993683,
						"lot": 0.04793909937143326,
						"person": -0.20283760130405426,
						"wanted": -0.2872881591320038,
						"cheecky": 0.04559389501810074,
						"adam": -0.07635059207677841,
						"seems": 0.1131228506565094,
						"does": 0.05283604934811592,
						"really": -0.1060628741979599,
						"want": 0.11680155992507935,
						"think": -0.09085740894079208,
						"rather": 0.05826772749423981,
						"p": -0.004679559729993343,
						"r": 0.12267540395259857,
						"when": 0.00023850196157582104,
						"animal": -0.11654825508594513,
						"kept": 0.047330114990472794,
						"captivity": -0.025112943723797798,
						"visit": 0.16846439242362976,
						"watch": 0.1623510867357254,
						"feels": 0.16431047022342682,
						"watching": 0.13419416546821594,
						"enjoyed": -0.07755263149738312,
						"zoo": -0.19182853400707245,
						"shiranna": -0.08669546246528625,
						"preferred": 0.10851950198411942,
						"hanging": 0.1851862370967865,
						"going": 0.09762271493673325,
						"thinks": -0.17502282559871674,
						"okay": 0.06438703835010529,
						"just": -0.05533535033464432,
						"wants": -0.04650886729359627,
						"go": 0.053140342235565186,
						"home": -0.18203018605709076,
						"relax": -0.0668860524892807,
						"cheeky": 0.0320422388613224,
						"trying": 0.10717590898275375,
						"look": -0.05071446672081947,
						"bright": 0.11768973618745804,
						"side": 0.10053213685750961,
						"enjoy": 0.08071313798427582,
						"monkey": 0.12325545400381088,
						"exhibit": 0.09837349504232407,
						"feel": -0.18246246874332428,
						"uneasy": -0.052653707563877106,
						"meeting": 0.12033399939537048,
						"something": 0.11561740934848785,
						"nervous": -0.06079655885696411,
						"thought": -0.05728381499648094,
						"kinda": 0.12489152699708939,
						"fun": -0.1440020054578781,
						"alone": 0.017409423366189003,
						"enjoys": 0.10788504779338837,
						"enough": -0.07283180952072144,
						"kind": -0.00940038077533245,
						"camera": 0.12569454312324524,
						"everywhere": 0.05687651410698891,
						"ruined": -0.06032658368349075,
						"experience": -0.09272602945566177,
						"bit": -0.05761295557022095,
						"towards": -0.1254950612783432,
						"end": -0.16229763627052307,
						"ready": -0.01531866192817688,
						"especially": 0.16568957269191742,
						"real": 0.07124483585357666,
						"saw": 0.20358982682228088,
						"played": 0.09538812935352325,
						"tug": -0.020183170214295387,
						"war": -0.06033002585172653,
						"likes": 0.2210933268070221,
						"seeing": -0.06037476286292076,
						"entertaining": -0.11659479886293411,
						"zookeeper": 0.2104760706424713,
						"smith": 0.13861414790153503,
						"antics": -0.18418139219284058,
						"monkeys": 0.08723259717226028,
						"liked": -0.028164293617010117,
						"better": 0.1864623874425888,
						"place": 0.07518234848976135,
						"went": -0.1703588217496872,
						"funny": -0.18460722267627716,
						"She": 0.06717836111783981,
						"exactly": 0.023997195065021515,
						"thrilled": -0.12910041213035583,
						"mosby": -0.1687110960483551,
						"parading": -0.029496371746063232,
						"around": 0.17820598185062408,
						"iss": 0.07553276419639587,
						"prized": -0.04176081344485283,
						"trophy": 0.13653479516506195,
						"able": -0.0034822141751646996,
						"own": -0.15090134739875793,
						"thing": -0.14446821808815002,
						"exploring": -0.053180031478405,
						"felt": 0.21028149127960205,
						"nice": 0.10897476226091385,
						"paraded": 0.10751088708639145,
						"fine": 0.09837314486503601,
						"enjoyable": 0.08639179915189743,
						"friend": -0.0230571199208498,
						"everything": -0.15597404539585114,
						"doing": 0.07678578048944473,
						"keeper": -0.004120156168937683,
						"starting": 0.176227405667305,
						"though": -0.054772939532995224,
						"interesting": -0.08218716830015182,
						"dad": -0.1253100037574768,
						"money": 0.08984502404928207,
						"little": -0.0847262442111969,
						"bored": -0.06540212035179138,
						"spend": -0.1112046018242836,
						"time": -0.18607275187969208,
						"somewhat": -0.187961146235466,
						"excited": -0.05254508554935455,
						"touch": -0.1886206418275833,
						"making": -0.1197226345539093,
						"familiar": -0.19152915477752686,
						"tired": -0.12715966999530792,
						"large": -0.13593299686908722,
						"crowd": 0.05466978996992111,
						"wished": 0.0007319232681766152,
						"having": 0.1476152539253235,
						"explore": -0.18701021373271942,
						"getting": 0.14492247998714447,
						"attention": -0.0013290365459397435,
						"commotion": -0.0842447429895401,
						"seemed": 0.039529312402009964,
						"enjoying": 0.06134549155831337,
						"herself": -0.10450012236833572,
						"1st": 0.06371304392814636,
						"kid": -0.07073522359132767,
						"tour": -0.14857009053230286,
						"resting": 0.09510848671197891,
						"cool": 0.03565933555364609,
						"comical": 0.022837763652205467,
						"diversion": -0.0005025621503591537,
						"otherwise": -0.13788104057312012,
						"boring": -0.08811650425195694,
						"day": 0.08409017324447632,
						"interested": 0.18677660822868347,
						"even": 0.19364143908023834,
						"owl": 0.08153524249792099,
						"shown": 0.0036284527741372585,
						"long": 0.16837528347969055,
						"adams": -0.11709573119878769,
						"fathe": 0.15382762253284454
					}
				},
				"12": {
					"bias": 0.14792421460151672,
					"weights": {
						"she": 0.149166077375412,
						"not": -0.11571487039327621,
						"happy": 0.15032963454723358,
						"lot": 0.20101450383663177,
						"person": -0.12930721044540405,
						"wanted": 0.012522564269602299,
						"cheecky": -0.13097524642944336,
						"adam": 0.19902971386909485,
						"seems": -0.010503147728741169,
						"does": 0.13608418405056,
						"really": 0.1245550662279129,
						"want": 0.011426420882344246,
						"think": 0.19279326498508453,
						"rather": 0.12998688220977783,
						"p": -0.004208934959024191,
						"r": 0.1212875097990036,
						"when": -0.09756599366664886,
						"animal": 0.0037606500554829836,
						"kept": 0.04483036696910858,
						"captivity": -0.11139540374279022,
						"visit": -0.1493133157491684,
						"watch": -0.11352313309907913,
						"feels": 0.08713607490062714,
						"watching": 0.027212589979171753,
						"enjoyed": 0.04211265966296196,
						"zoo": 0.13496853411197662,
						"shiranna": 0.015187317505478859,
						"preferred": 0.1152925193309784,
						"hanging": 0.05299898609519005,
						"going": 0.05266366899013519,
						"thinks": -0.12546172738075256,
						"okay": -0.15847787261009216,
						"just": 0.03724924474954605,
						"wants": -0.15979859232902527,
						"go": 0.16393299400806427,
						"home": -0.06536506861448288,
						"relax": 0.04800879955291748,
						"cheeky": -0.037383027374744415,
						"trying": -0.16338491439819336,
						"look": 0.012669527903199196,
						"bright": 0.052909743040800095,
						"side": 0.1576559841632843,
						"enjoy": 0.06938070803880692,
						"monkey": -0.22167877852916718,
						"exhibit": -0.1407971829175949,
						"feel": 0.08632507175207138,
						"uneasy": -0.018343757838010788,
						"meeting": -0.09606700390577316,
						"something": 0.024551380425691605,
						"nervous": -0.1636226773262024,
						"thought": 0.12719842791557312,
						"kinda": 0.10828281193971634,
						"fun": -0.016836922615766525,
						"alone": 0.10977969318628311,
						"enjoys": -0.1821155846118927,
						"enough": -0.0026928081642836332,
						"kind": -0.04995767027139664,
						"camera": -0.0063984328880906105,
						"everywhere": 0.17477448284626007,
						"ruined": 0.0408041886985302,
						"experience": 0.0221592728048563,
						"bit": -0.08726572245359421,
						"towards": -0.15704846382141113,
						"end": 0.09301017969846725,
						"ready": -0.1793934404850006,
						"especially": -0.1848767101764679,
						"real": -0.16547651588916779,
						"saw": 0.14655663073062897,
						"played": 0.0699206069111824,
						"tug": -0.1957107037305832,
						"war": 0.015369372442364693,
						"likes": -0.007432646583765745,
						"seeing": 0.018778081983327866,
						"entertaining": -0.17879728972911835,
						"zookeeper": 0.005338889081031084,
						"smith": 0.16034580767154694,
						"antics": 0.06528937071561813,
						"monkeys": -0.1418713629245758,
						"liked": -0.20700588822364807,
						"better": -0.1869184970855713,
						"place": -0.01942676492035389,
						"went": -0.07221177965402603,
						"funny": 0.08108918368816376,
						"She": -0.0045616948045790195,
						"exactly": 0.01593245565891266,
						"thrilled": -0.11854836344718933,
						"mosby": -0.08738014847040176,
						"parading": -0.1754104048013687,
						"around": -0.055808816105127335,
						"iss": -0.10588245093822479,
						"prized": 0.08179595321416855,
						"trophy": 0.17852237820625305,
						"able": 0.026355363428592682,
						"own": -0.12819384038448334,
						"thing": -0.16332346200942993,
						"exploring": -0.010537000373005867,
						"felt": -0.05354451388120651,
						"nice": -0.20504264533519745,
						"paraded": 0.1833779513835907,
						"fine": 0.08335764706134796,
						"enjoyable": 0.04427634924650192,
						"friend": 0.03137703612446785,
						"everything": -0.15171635150909424,
						"doing": -0.11030898243188858,
						"keeper": 0.16985204815864563,
						"starting": -0.11117276549339294,
						"though": 0.12406133115291595,
						"interesting": -0.03730135038495064,
						"dad": 0.14778053760528564,
						"money": -0.07628260552883148,
						"little": -0.04465997964143753,
						"bored": -0.03911546617746353,
						"spend": 0.06799871474504471,
						"time": -0.14059315621852875,
						"somewhat": 0.001491778646595776,
						"excited": -0.08576072752475739,
						"touch": 0.0401008240878582,
						"making": 0.13095109164714813,
						"familiar": 0.13777443766593933,
						"tired": 0.08387338370084763,
						"large": -0.1950829178094864,
						"crowd": -0.12471543997526169,
						"wished": -0.04082197695970535,
						"having": -0.14033257961273193,
						"explore": -0.02317706122994423,
						"getting": -0.15556888282299042,
						"attention": -0.011960160918533802,
						"commotion": -0.05205658823251724,
						"seemed": -0.10369223356246948,
						"enjoying": -0.1341177076101303,
						"herself": -0.12079393118619919,
						"1st": 0.1266493946313858,
						"kid": 0.07130791246891022,
						"tour": 0.1491401493549347,
						"resting": 0.0708920806646347,
						"cool": 0.018439101055264473,
						"comical": -0.17442885041236877,
						"diversion": 0.106478750705719,
						"otherwise": -0.006500217132270336,
						"boring": -0.1804145872592926,
						"day": 0.036592673510313034,
						"interested": -0.02291763201355934,
						"even": -0.18068288266658783,
						"owl": 0.09122943878173828,
						"shown": 0.07494865357875824,
						"long": -0.1691472828388214,
						"adams": -0.08170733600854874,
						"fathe": -0.13280968368053436
					}
				},
				"13": {
					"bias": 0.14094354212284088,
					"weights": {
						"she": -0.11429085582494736,
						"not": 0.37208038568496704,
						"happy": -0.05634327605366707,
						"lot": 0.1289622038602829,
						"person": 0.10212992131710052,
						"wanted": 0.2859567701816559,
						"cheecky": -0.01889757625758648,
						"adam": 0.14580057561397552,
						"seems": -0.11727682501077652,
						"does": 0.09271953254938126,
						"really": 0.1298794001340866,
						"want": 0.17175155878067017,
						"think": 0.0015881812432780862,
						"rather": -0.1839715838432312,
						"p": 0.08392594009637833,
						"r": -0.11186420917510986,
						"when": 0.09655752778053284,
						"animal": 0.03500735014677048,
						"kept": 0.1967974603176117,
						"captivity": -0.17202655971050262,
						"visit": -0.16611233353614807,
						"watch": 0.07382098585367203,
						"feels": 0.028265519067645073,
						"watching": 0.20438553392887115,
						"enjoyed": 0.16668498516082764,
						"zoo": -0.10441319644451141,
						"shiranna": -0.1068800538778305,
						"preferred": -0.09807588160037994,
						"hanging": 0.09843236207962036,
						"going": 0.1744987815618515,
						"thinks": 0.23725174367427826,
						"okay": -0.08969934284687042,
						"just": -0.05294739827513695,
						"wants": 0.014051596634089947,
						"go": 0.26707470417022705,
						"home": 0.1963186115026474,
						"relax": -0.1089206412434578,
						"cheeky": 0.032303355634212494,
						"trying": 0.16415691375732422,
						"look": 0.07831888645887375,
						"bright": -0.07630792260169983,
						"side": 0.11195886135101318,
						"enjoy": -0.12693004310131073,
						"monkey": -0.28814181685447693,
						"exhibit": -0.1600169688463211,
						"feel": -0.10961219668388367,
						"uneasy": 0.15421977639198303,
						"meeting": 0.13428153097629547,
						"something": -0.06670470535755157,
						"nervous": 0.09422848373651505,
						"thought": -0.22543275356292725,
						"kinda": -0.1514674425125122,
						"fun": -0.12374807149171829,
						"alone": 0.0019026744412258267,
						"enjoys": 0.0015513688558712602,
						"enough": -0.2008828967809677,
						"kind": -0.18122971057891846,
						"camera": 0.12535269558429718,
						"everywhere": -0.1597948968410492,
						"ruined": -0.1741185039281845,
						"experience": 0.09749540686607361,
						"bit": -0.0750429555773735,
						"towards": -0.1448330283164978,
						"end": 0.08906201273202896,
						"ready": -0.20178422331809998,
						"especially": 0.01001372467726469,
						"real": 0.08793524652719498,
						"saw": -0.06879185140132904,
						"played": 0.042990732938051224,
						"tug": -0.04986589029431343,
						"war": -0.1749219298362732,
						"likes": -0.13692547380924225,
						"seeing": -0.06000722944736481,
						"entertaining": 0.14429783821105957,
						"zookeeper": 0.03842538967728615,
						"smith": -0.02268943004310131,
						"antics": -0.012334397993981838,
						"monkeys": 0.16463953256607056,
						"liked": -0.1921980381011963,
						"better": -0.07318871468305588,
						"place": -0.18228337168693542,
						"went": 0.018397454172372818,
						"funny": -0.2102007269859314,
						"She": -0.033831048756837845,
						"exactly": 0.0422799214720726,
						"thrilled": 0.06789996474981308,
						"mosby": -0.04141353443264961,
						"parading": 0.053725264966487885,
						"around": -0.08394793421030045,
						"iss": 0.16306260228157043,
						"prized": -0.015308940783143044,
						"trophy": -0.09085763990879059,
						"able": -0.07190707325935364,
						"own": -0.06250716745853424,
						"thing": -0.06502489000558853,
						"exploring": -0.01483103632926941,
						"felt": 0.059724047780036926,
						"nice": 0.03442946448922157,
						"paraded": -0.21422819793224335,
						"fine": 0.06863559782505035,
						"enjoyable": -0.10754173994064331,
						"friend": 0.06589604914188385,
						"everything": -0.16800285875797272,
						"doing": 0.04807312414050102,
						"keeper": 0.04666152969002724,
						"starting": -0.055119823664426804,
						"though": -0.06181901693344116,
						"interesting": -0.08167079836130142,
						"dad": -0.12202615290880203,
						"money": 0.14749111235141754,
						"little": 0.1885308176279068,
						"bored": -0.0832216814160347,
						"spend": -0.18761874735355377,
						"time": -0.00989623460918665,
						"somewhat": 0.06708383560180664,
						"excited": 0.05793401226401329,
						"touch": 0.012472276575863361,
						"making": -0.06429190188646317,
						"familiar": 0.02495269477367401,
						"tired": -0.13599655032157898,
						"large": -0.19663549959659576,
						"crowd": 0.04476042464375496,
						"wished": 0.03700552508234978,
						"having": -0.15657076239585876,
						"explore": 0.0005600762669928372,
						"getting": 0.10625222325325012,
						"attention": 0.06060012802481651,
						"commotion": 0.12521152198314667,
						"seemed": 0.1639670580625534,
						"enjoying": 0.08459581434726715,
						"herself": -0.04852461814880371,
						"1st": -0.14871729910373688,
						"kid": -0.05347501114010811,
						"tour": -0.04689699411392212,
						"resting": -0.10638212412595749,
						"cool": 0.05597512423992157,
						"comical": 0.13324731588363647,
						"diversion": 0.08729281276464462,
						"otherwise": 0.020200194790959358,
						"boring": 0.1872708797454834,
						"day": -0.1319405436515808,
						"interested": 0.1960689276456833,
						"even": 0.1636514961719513,
						"owl": 0.021397234871983528,
						"shown": -0.11452535539865494,
						"long": -0.09823691099882126,
						"adams": -0.18319779634475708,
						"fathe": -0.17338459193706512
					}
				},
				"14": {
					"bias": 0.049072131514549255,
					"weights": {
						"she": 0.13321663439273834,
						"not": 0.2632087767124176,
						"happy": -0.08228107541799545,
						"lot": -0.05556720495223999,
						"person": 0.07045810669660568,
						"wanted": 0.14440344274044037,
						"cheecky": 0.11539097130298615,
						"adam": 0.15722350776195526,
						"seems": 0.15252701938152313,
						"does": 0.0024465734604746103,
						"really": 0.1701434999704361,
						"want": -0.009802944958209991,
						"think": 0.08689475804567337,
						"rather": -0.09024334698915482,
						"p": -0.10655654966831207,
						"r": 0.10302917659282684,
						"when": -0.03512923792004585,
						"animal": -0.03130470961332321,
						"kept": 0.15384037792682648,
						"captivity": -0.08276927471160889,
						"visit": -0.13511301577091217,
						"watch": 0.00930722989141941,
						"feels": -0.024584555998444557,
						"watching": -0.0664411410689354,
						"enjoyed": 0.03714250773191452,
						"zoo": -0.09470323473215103,
						"shiranna": 0.0209365151822567,
						"preferred": -0.040473755449056625,
						"hanging": 0.131183460354805,
						"going": -0.09020625799894333,
						"thinks": -0.02739236131310463,
						"okay": 0.0847279503941536,
						"just": 0.04624361917376518,
						"wants": -0.18051952123641968,
						"go": -0.06689441949129105,
						"home": -0.135572150349617,
						"relax": -0.08632293343544006,
						"cheeky": -0.06771954149007797,
						"trying": 0.13324540853500366,
						"look": 0.022277342155575752,
						"bright": -0.10722372680902481,
						"side": -0.04115401208400726,
						"enjoy": -0.07596010714769363,
						"monkey": -0.14427153766155243,
						"exhibit": 0.007367539219558239,
						"feel": 0.13981156051158905,
						"uneasy": 0.11611931025981903,
						"meeting": -0.14733074605464935,
						"something": -0.046328090131282806,
						"nervous": 0.07791285216808319,
						"thought": 0.10625546425580978,
						"kinda": -0.033874332904815674,
						"fun": -0.13340848684310913,
						"alone": -0.02835853211581707,
						"enjoys": -0.045048169791698456,
						"enough": 0.12451856583356857,
						"kind": -0.03884974867105484,
						"camera": 0.019506307318806648,
						"everywhere": 0.0016716637182980776,
						"ruined": -0.07207848876714706,
						"experience": -0.15092670917510986,
						"bit": -0.015607786364853382,
						"towards": -0.027443693950772285,
						"end": -0.20428748428821564,
						"ready": -0.1499476283788681,
						"especially": 0.01622149534523487,
						"real": -0.04161262884736061,
						"saw": -0.1997147649526596,
						"played": 0.13835763931274414,
						"tug": -0.18617986142635345,
						"war": -0.11315719038248062,
						"likes": -0.21990825235843658,
						"seeing": -0.01881926693022251,
						"entertaining": -0.08511367440223694,
						"zookeeper": 0.015481741167604923,
						"smith": -0.041686028242111206,
						"antics": -0.017734412103891373,
						"monkeys": 0.06482592225074768,
						"liked": -0.2848634421825409,
						"better": -0.10412458330392838,
						"place": -0.04490320757031441,
						"went": 0.02971849963068962,
						"funny": -0.19247235357761383,
						"She": 0.036725156009197235,
						"exactly": -0.13581256568431854,
						"thrilled": 0.11253834515810013,
						"mosby": 0.164246067404747,
						"parading": 0.03697521984577179,
						"around": 0.03149176761507988,
						"iss": 0.16460293531417847,
						"prized": 0.04264957085251808,
						"trophy": 0.15236562490463257,
						"able": 0.06144064664840698,
						"own": -0.1266951858997345,
						"thing": 0.039618827402591705,
						"exploring": -0.021299967542290688,
						"felt": 0.15416790544986725,
						"nice": 0.024932248517870903,
						"paraded": -0.07665004581212997,
						"fine": -0.14749179780483246,
						"enjoyable": 0.08490549772977829,
						"friend": -0.10318047553300858,
						"everything": -0.07616350799798965,
						"doing": -0.020465927198529243,
						"keeper": -0.1520201861858368,
						"starting": -0.19536098837852478,
						"though": -0.07648776471614838,
						"interesting": -0.1198790892958641,
						"dad": -0.22668887674808502,
						"money": 0.11579256504774094,
						"little": 0.035527657717466354,
						"bored": -0.16959887742996216,
						"spend": -0.12638962268829346,
						"time": 0.1673932522535324,
						"somewhat": 0.17263616621494293,
						"excited": -0.18193720281124115,
						"touch": 0.07777953892946243,
						"making": 0.15182074904441833,
						"familiar": 0.1779860258102417,
						"tired": 0.016789639368653297,
						"large": 0.07986153662204742,
						"crowd": -0.2019171118736267,
						"wished": -0.16418932378292084,
						"having": 0.12062972038984299,
						"explore": -0.11145815998315811,
						"getting": -0.016036776825785637,
						"attention": -0.16724319756031036,
						"commotion": 0.051070962101221085,
						"seemed": -0.09626030921936035,
						"enjoying": 0.09363286942243576,
						"herself": -0.1827601194381714,
						"1st": -0.18499575555324554,
						"kid": -0.000594150391407311,
						"tour": 0.022280095145106316,
						"resting": -0.14458923041820526,
						"cool": 0.11121593415737152,
						"comical": -0.14259842038154602,
						"diversion": 0.10728992521762848,
						"otherwise": 0.16198086738586426,
						"boring": 0.184706449508667,
						"day": -0.028283869847655296,
						"interested": 0.06527899950742722,
						"even": -0.1717449575662613,
						"owl": 0.04864449426531792,
						"shown": -0.17230117321014404,
						"long": -0.07059343159198761,
						"adams": -0.15234293043613434,
						"fathe": -0.14009714126586914
					}
				},
				"15": {
					"bias": -0.08472176641225815,
					"weights": {
						"she": 0.09125643223524094,
						"not": -0.28036776185035706,
						"happy": -0.03994854912161827,
						"lot": 0.039376940578222275,
						"person": -0.3399231433868408,
						"wanted": -0.38991573452949524,
						"cheecky": -0.03153928369283676,
						"adam": -0.03424854576587677,
						"seems": -0.15040284395217896,
						"does": 0.16524702310562134,
						"really": -0.04571500048041344,
						"want": 0.1215282529592514,
						"think": -0.19235697388648987,
						"rather": 0.13295820355415344,
						"p": -0.0732189416885376,
						"r": -0.23505721986293793,
						"when": 0.02022290602326393,
						"animal": -0.03692687675356865,
						"kept": -0.22899100184440613,
						"captivity": -0.18963287770748138,
						"visit": -0.03345553204417229,
						"watch": -0.20431236922740936,
						"feels": -0.11269407719373703,
						"watching": -0.10145328938961029,
						"enjoyed": -0.057231735438108444,
						"zoo": -0.11562363803386688,
						"shiranna": 0.1950780749320984,
						"preferred": 0.03689877316355705,
						"hanging": 0.1731116622686386,
						"going": -0.08717922121286392,
						"thinks": 0.045259471982717514,
						"okay": -0.2174561619758606,
						"just": -0.25936010479927063,
						"wants": -0.04274899512529373,
						"go": -0.28184404969215393,
						"home": -0.11295226216316223,
						"relax": -0.1724420189857483,
						"cheeky": 0.2022160291671753,
						"trying": -0.07627864927053452,
						"look": -0.0831180140376091,
						"bright": -0.1311955451965332,
						"side": -0.030939165502786636,
						"enjoy": 0.02555929869413376,
						"monkey": 0.15825022757053375,
						"exhibit": 0.149430051445961,
						"feel": 0.048111915588378906,
						"uneasy": 0.04001814126968384,
						"meeting": -0.07137780636548996,
						"something": 0.006356603465974331,
						"nervous": -0.22589606046676636,
						"thought": 0.20227289199829102,
						"kinda": 0.04103699326515198,
						"fun": 0.3842436671257019,
						"alone": 0.2085966169834137,
						"enjoys": 0.21711093187332153,
						"enough": 0.1469806283712387,
						"kind": 0.20914563536643982,
						"camera": -0.02851146087050438,
						"everywhere": 0.10895106941461563,
						"ruined": 0.19358931481838226,
						"experience": 0.18378043174743652,
						"bit": 0.21259406208992004,
						"towards": -0.0678018108010292,
						"end": 0.0797814205288887,
						"ready": 0.03444930911064148,
						"especially": -0.06717479228973389,
						"real": 0.025884689763188362,
						"saw": 0.13441383838653564,
						"played": -0.017140723764896393,
						"tug": -0.03615719452500343,
						"war": 0.1438198685646057,
						"likes": 0.04179462045431137,
						"seeing": 0.10807707160711288,
						"entertaining": 0.1909780353307724,
						"zookeeper": -0.020783916115760803,
						"smith": -0.06885170936584473,
						"antics": 0.02834959514439106,
						"monkeys": -0.1290138065814972,
						"liked": 0.3788500428199768,
						"better": -0.02673560008406639,
						"place": 0.11316265165805817,
						"went": -0.1445312798023224,
						"funny": 0.07140912860631943,
						"She": -0.10332108289003372,
						"exactly": 0.1333543211221695,
						"thrilled": -0.016417447477579117,
						"mosby": -0.07955284416675568,
						"parading": 0.09690574556589127,
						"around": 0.05025012418627739,
						"iss": -0.14311978220939636,
						"prized": 0.02295307070016861,
						"trophy": -0.07143581658601761,
						"able": 0.19097460806369781,
						"own": 0.009920323267579079,
						"thing": -0.0519585907459259,
						"exploring": 0.03037288412451744,
						"felt": 0.23440225422382355,
						"nice": -0.06749144941568375,
						"paraded": 0.23989009857177734,
						"fine": 0.022999543696641922,
						"enjoyable": -0.09179876744747162,
						"friend": -0.3004760444164276,
						"everything": 0.11413636803627014,
						"doing": 0.06930581480264664,
						"keeper": 0.1787114143371582,
						"starting": 0.02120119519531727,
						"though": 0.013890205882489681,
						"interesting": 0.010015491396188736,
						"dad": 0.018674280494451523,
						"money": -0.10993780195713043,
						"little": 0.1128917783498764,
						"bored": -0.1188589558005333,
						"spend": 0.2126605063676834,
						"time": 0.0004675830132327974,
						"somewhat": -0.1350492537021637,
						"excited": 0.0946798026561737,
						"touch": -0.15033434331417084,
						"making": -0.16967405378818512,
						"familiar": 0.12261000275611877,
						"tired": -0.12075483053922653,
						"large": 0.07171140611171722,
						"crowd": 0.14116057753562927,
						"wished": 0.047404393553733826,
						"having": 0.07441151142120361,
						"explore": -0.21697720885276794,
						"getting": -0.020967843011021614,
						"attention": 0.12517854571342468,
						"commotion": 0.20337165892124176,
						"seemed": -0.11949808150529861,
						"enjoying": -0.17659762501716614,
						"herself": -0.06844497472047806,
						"1st": 0.06645292043685913,
						"kid": -0.11255571246147156,
						"tour": 0.11813530325889587,
						"resting": -0.10588983446359634,
						"cool": 0.17730708420276642,
						"comical": -0.05318515747785568,
						"diversion": -0.13383103907108307,
						"otherwise": 0.04417703300714493,
						"boring": 0.004921705927699804,
						"day": -0.04042466729879379,
						"interested": 0.019188586622476578,
						"even": 0.19167372584342957,
						"owl": -0.1888047456741333,
						"shown": 0.009861316531896591,
						"long": -0.05421273037791252,
						"adams": -0.1455807387828827,
						"fathe": -0.11489478498697281
					}
				},
				"16": {
					"bias": -0.09452681988477707,
					"weights": {
						"she": 0.10474489629268646,
						"not": -0.19463154673576355,
						"happy": -0.020628295838832855,
						"lot": -0.02125818468630314,
						"person": 0.04158170893788338,
						"wanted": -0.24176786839962006,
						"cheecky": 0.059770919382572174,
						"adam": -0.03781621903181076,
						"seems": -0.11960862576961517,
						"does": 0.08817574381828308,
						"really": 0.15833264589309692,
						"want": -0.20734208822250366,
						"think": -0.18608514964580536,
						"rather": -0.03841983526945114,
						"p": 0.14924083650112152,
						"r": 0.12706412374973297,
						"when": 0.12263236939907074,
						"animal": -0.015885891392827034,
						"kept": -0.12996496260166168,
						"captivity": -0.004291969817131758,
						"visit": 0.04679851233959198,
						"watch": 0.11872745305299759,
						"feels": -0.1612064242362976,
						"watching": -0.1884588897228241,
						"enjoyed": 0.0773688405752182,
						"zoo": -0.015674995258450508,
						"shiranna": 0.12147624045610428,
						"preferred": -0.1269841343164444,
						"hanging": 0.021745819598436356,
						"going": 0.01579027995467186,
						"thinks": -0.07438600063323975,
						"okay": -0.09765783697366714,
						"just": -0.04161606356501579,
						"wants": -0.17024658620357513,
						"go": -0.03658714517951012,
						"home": -0.06871788203716278,
						"relax": -0.02779199928045273,
						"cheeky": 0.12394819408655167,
						"trying": 0.17800748348236084,
						"look": 0.09049250930547714,
						"bright": 0.14962095022201538,
						"side": 0.13749177753925323,
						"enjoy": 0.0819307342171669,
						"monkey": 0.020991409197449684,
						"exhibit": 0.005782606080174446,
						"feel": -0.040473733097314835,
						"uneasy": 0.12547707557678223,
						"meeting": 0.03805419057607651,
						"something": 0.15041372179985046,
						"nervous": -0.01712503843009472,
						"thought": 0.13692118227481842,
						"kinda": -0.1017175167798996,
						"fun": 0.03170211985707283,
						"alone": 0.012532263062894344,
						"enjoys": 0.01029176265001297,
						"enough": 0.020508190616965294,
						"kind": -0.12422415614128113,
						"camera": -0.13309574127197266,
						"everywhere": -0.009580006822943687,
						"ruined": -0.13803458213806152,
						"experience": 0.11681926250457764,
						"bit": -0.12359447032213211,
						"towards": -0.11050037294626236,
						"end": -0.17903202772140503,
						"ready": 0.1803635060787201,
						"especially": 0.004639898892492056,
						"real": 0.03034205548465252,
						"saw": -0.003202499821782112,
						"played": 0.059715453535318375,
						"tug": 0.03809984773397446,
						"war": 0.007880604825913906,
						"likes": 0.22446778416633606,
						"seeing": 0.1557755023241043,
						"entertaining": -0.04870777577161789,
						"zookeeper": -0.086006298661232,
						"smith": -0.07050877064466476,
						"antics": -0.16294626891613007,
						"monkeys": -0.16885772347450256,
						"liked": 0.06004667282104492,
						"better": -0.1128024235367775,
						"place": 0.11990842968225479,
						"went": 0.10304483026266098,
						"funny": -0.06410172581672668,
						"She": 0.09205663204193115,
						"exactly": 0.03652776777744293,
						"thrilled": -0.14959029853343964,
						"mosby": -0.07995063066482544,
						"parading": 0.04771673306822777,
						"around": 0.15860490500926971,
						"iss": 0.06719598174095154,
						"prized": -0.1925899237394333,
						"trophy": -0.183475062251091,
						"able": -0.015302139334380627,
						"own": -0.0038656387478113174,
						"thing": -0.003767426358535886,
						"exploring": 0.13258758187294006,
						"felt": -0.05661134794354439,
						"nice": -0.08129207789897919,
						"paraded": -0.03468158096075058,
						"fine": 0.029365092515945435,
						"enjoyable": 0.1227165013551712,
						"friend": 0.0122459065169096,
						"everything": 0.014295305125415325,
						"doing": 0.021320275962352753,
						"keeper": -0.0827847421169281,
						"starting": -0.0634159967303276,
						"though": -0.03527391329407692,
						"interesting": 0.1690666675567627,
						"dad": 0.14350633323192596,
						"money": -0.04944518581032753,
						"little": 0.09563656151294708,
						"bored": -0.07708167284727097,
						"spend": 0.05682870373129845,
						"time": -0.06826653331518173,
						"somewhat": 0.02071395143866539,
						"excited": -0.08882023394107819,
						"touch": -0.0950784906744957,
						"making": -0.14208367466926575,
						"familiar": 0.06430543214082718,
						"tired": 0.13127276301383972,
						"large": 0.08124832063913345,
						"crowd": -0.0467827282845974,
						"wished": 0.1980661302804947,
						"having": 0.023487329483032227,
						"explore": 0.1442280262708664,
						"getting": -0.0770350992679596,
						"attention": 0.18963390588760376,
						"commotion": 0.14026089012622833,
						"seemed": 0.057340797036886215,
						"enjoying": 0.18870005011558533,
						"herself": -0.1453765481710434,
						"1st": 0.1949898600578308,
						"kid": -0.14825430512428284,
						"tour": 0.026326719671487808,
						"resting": 0.039334096014499664,
						"cool": -0.07642830908298492,
						"comical": 0.14575184881687164,
						"diversion": -0.08777356892824173,
						"otherwise": 0.12764941155910492,
						"boring": 0.12260045856237411,
						"day": 0.12424911558628082,
						"interested": 0.1150573119521141,
						"even": 0.19909313321113586,
						"owl": 0.09042682498693466,
						"shown": 0.08738987147808075,
						"long": -0.14547468721866608,
						"adams": 0.052015408873558044,
						"fathe": 0.06408458948135376
					}
				},
				"17": {
					"bias": -0.06275615096092224,
					"weights": {
						"she": 0.030845165252685547,
						"not": 0.3366294503211975,
						"happy": 0.07982143014669418,
						"lot": 0.1901247203350067,
						"person": -0.01474820263683796,
						"wanted": -0.05637189373373985,
						"cheecky": -0.10674018412828445,
						"adam": 0.04406386986374855,
						"seems": -0.1049828827381134,
						"does": 0.04499676823616028,
						"really": -0.023694554343819618,
						"want": -0.03909342363476753,
						"think": 0.0019290141062811017,
						"rather": -0.11649858206510544,
						"p": 0.14913149178028107,
						"r": -0.030043313279747963,
						"when": -0.09408539533615112,
						"animal": 0.07558493316173553,
						"kept": -0.04600660502910614,
						"captivity": 0.19778068363666534,
						"visit": 0.15710484981536865,
						"watch": -0.002274551196023822,
						"feels": -0.12262406200170517,
						"watching": -0.07717397063970566,
						"enjoyed": -0.08797784149646759,
						"zoo": -0.1655084788799286,
						"shiranna": 0.016279350966215134,
						"preferred": 0.05852096527814865,
						"hanging": 0.2121492475271225,
						"going": -0.13934509456157684,
						"thinks": -0.1559067815542221,
						"okay": 0.0891992598772049,
						"just": 0.11893719434738159,
						"wants": -0.07179567217826843,
						"go": -0.04817870259284973,
						"home": 0.1903919130563736,
						"relax": -0.0730527862906456,
						"cheeky": -0.0017572392243891954,
						"trying": -0.15796756744384766,
						"look": 0.008226257748901844,
						"bright": -0.16268068552017212,
						"side": -0.00945256743580103,
						"enjoy": 0.053970709443092346,
						"monkey": -0.10202611982822418,
						"exhibit": -0.10606450587511063,
						"feel": 0.15897783637046814,
						"uneasy": 0.014257005415856838,
						"meeting": -0.1537030190229416,
						"something": 0.12010219693183899,
						"nervous": 0.19388200342655182,
						"thought": -0.042313870042562485,
						"kinda": -0.14311406016349792,
						"fun": -0.0022919420152902603,
						"alone": -0.22645746171474457,
						"enjoys": -0.1118871197104454,
						"enough": -0.22816185653209686,
						"kind": 0.09288576245307922,
						"camera": -0.18022821843624115,
						"everywhere": 0.10026076436042786,
						"ruined": -0.06108907237648964,
						"experience": -0.0822484940290451,
						"bit": 0.04633209481835365,
